10000 16
단어_0 -0.23860845 0.9283003 -0.21173944 0.8026571 -1.1054897 0.28266165 0.29854375 0.52885526 2.507023 0.086182006 0.49656564 0.16837527 2.0475912 1.544972 -0.6171332 1.138611
단어_1 -0.36088616 -1.4558567 0.8478387 0.60817605 -2.472973 -0.11101216 0.6138576 0.2209811 1.2954339 0.26035768 0.60964394 -1.6402804 0.6337639 0.26052248 -0.15801434 0.4738299
단어_2 -2.0532544 1.2309712 -0.8314878 -0.107627474 -1.1549343 1.2487367 0.25423488 -0.37730852 0.8921902 -1.7677352 1.8252553 1.8550318 1.3585228 -0.5713817 0.91744775 1.9770857
단어_3 0.21363856 -0.5063146 0.33880308 -0.63973314 -0.19693942 -0.91833365 -0.6532788 -0.61450154 -0.4802299 -1.4126071 0.80553764 -0.060018785 0.32804582 -0.5117085 0.89588475 -0.620311
단어_4 0.8536497 1.5750813 0.7824919 1.3196636 -0.08559131 0.93164325 -2.0607173 -0.10648875 0.447004 2.0982811 -1.2692575 1.5311915 1.5582672 -2.3094058 0.10728252 -2.807733
단어_5 -0.18165202 -1.4716194 0.58672947 0.62727803 0.5035445 0.07800556 2.2482142 -0.6719325 -1.6872927 -0.5321362 0.34155592 0.3770652 -1.6408217 -0.839206 1.3786879 0.09712556
단어_6 -2.0172288 0.3934362 -0.051365037 1.003743 1.3014765 -1.0216253 -0.40170476 0.8489797 -0.20810595 0.13213259 -0.9575965 0.8715856 -1.3345606 1.0820314 -0.68245876 0.9473336
단어_7 0.7176938 0.07012253 0.5604974 -0.12202549 -0.59748834 -0.8411268 -0.8711628 0.52594876 0.9844364 -0.7413879 -0.10689219 -0.5331835 0.2500842 -1.6661702 -0.37843987 0.72680956
단어_8 0.2887553 -1.4213732 -0.57502645 -0.20545277 1.2434527 -0.20847133 0.88381267 1.5972939 -0.37106842 0.7921169 -1.038739 0.6960791 1.6964858 0.18234901 -0.8719848 1.4387935
단어_9 -1.781612 0.9289226 -1.6957463 -0.46663737 -1.0624274 -1.1313123 -0.52042305 -1.6479995 -1.4751275 -1.8073248 -0.47982836 -0.22612078 -0.87693185 -0.04868768 -0.46216562 0.0024426037
단어_10 -0.69606644 0.73575985 1.2276826 -0.84582627 -1.1742018 -0.15361662 1.7654057 1.2681288 0.52859056 -0.6118958 -2.1421514 -1.5712795 -2.3962634 -1.480995 0.02753649 -0.13179922
단어_11 -0.5929903 -0.2713958 1.3224895 1.0424352 -0.057133824 -1.0986454 -1.5727133 -0.5694272 -0.9951172 0.3056854 0.4687062 -0.9776015 -0.9985575 -0.47314304 1.1581937 -0.4011709
단어_12 0.2520274 -0.54410213 0.5154903 0.35171723 -0.96755755 -1.820177 -0.38861895 0.35017544 0.45974728 0.2759241 -1.1557293 -0.9636034 0.8152209 0.01060674 -0.25895962 -1.2520651
단어_13 0.12973335 0.07481403 0.24574897 -0.5729716 1.0756719 -0.24557593 -0.04219678 0.18982705 0.5128927 -0.061636902 -0.057877693 0.7327919 1.3998078 0.6493071 -1.2746123 0.5308253
단어_14 0.3450028 -0.599229 -0.79670787 1.015069 0.35349318 -1.8227022 -0.4711445 -0.08275536 1.0215937 -1.3569753 -0.002859672 0.9020355 0.438387 0.84125847 -1.7647562 0.18251574
단어_15 0.6656981 -0.31242296 2.689149 1.21189 0.5780399 0.9071322 -0.12250557 -0.13684668 1.1151767 0.13631889 0.2592941 1.3641557 -0.4422136 -0.36420378 0.21711239 0.9001405
단어_16 -1.3634281 1.300525 -2.6949422 0.058981493 -1.7562206 -0.35963124 0.11956053 -0.067253985 -0.17733474 0.42710033 2.2885287 0.34688336 -0.14562984 1.2236946 1.4855751 -0.3933251
단어_17 -0.09073763 -1.5535448 -0.19940856 -1.9561722 -0.7908819 -0.8683841 -0.41826728 -0.0748847 0.22586653 -0.97489345 -0.29633307 0.71519786 -0.6245592 -1.2796038 0.65041953 -0.29872543
단어_18 1.1038322 0.28317693 0.370076 -0.43259627 0.7317206 0.97551644 1.2179985 -0.16672397 1.243559 0.89743763 -0.5066273 1.3607378 -0.3624248 -0.54296404 -0.5361633 0.03371454
단어_19 1.2595025 1.0563028 -0.3672281 -3.0688963 0.033259593 -0.9200202 0.11140512 -0.45154905 -0.46718892 -1.7288619 2.2845755 0.6399938 0.70148003 1.040961 -0.29449368 1.1465493
단어_20 1.2587785 -0.50157845 -0.3390077 0.73858607 0.7115122 -0.65771204 0.049420677 -0.84767836 0.67702514 0.42704955 -0.7602951 1.5036215 -1.0025147 0.88613975 0.65087384 0.107863285
단어_21 -0.85029835 0.14770676 -0.44584742 1.783254 0.5518872 1.7122834 0.5155182 -0.86929685 -1.4576737 -1.3618832 -0.6405256 -1.4615326 0.6617966 -0.68858427 -0.15151475 -1.8261654
단어_22 -2.4114265 0.6788583 -0.22642606 0.95358366 -0.5450296 -0.5099495 0.1618496 -0.2975123 -1.023788 1.582951 -0.6199271 -0.74143195 0.12182912 0.7537648 -0.33015525 0.16644125
단어_23 -0.25355196 1.4975188 0.20944029 2.2873588 0.46062455 0.8604086 -0.21260251 0.63715357 -0.62321955 0.22325806 0.7367055 0.48030466 -1.3455691 0.034766417 1.962267 -0.022503132
단어_24 0.22283801 0.16519418 2.012225 -0.39928147 -1.0338473 -0.46148643 -0.9040559 1.6228447 -0.53609765 0.7977663 0.05329835 -0.24095425 -3.2445908 -0.66104025 0.2866866 0.437358
단어_25 0.15237261 1.382445 0.6751824 -0.42949018 0.90020216 -1.1363605 0.6474612 0.87256986 -0.6310038 -0.9592958 0.33481237 -0.16859712 0.68160677 -0.40402746 -0.0982804 -1.2244158
단어_26 0.025712112 0.46882185 -0.7262074 0.7094805 -0.56812346 0.40455392 1.4154583 0.0710576 -0.2325567 -0.7006768 0.77564734 -0.109253116 -1.332721 -0.84587795 -0.756094 0.24314371
단어_27 -0.92239785 -0.4799186 1.2395258 0.86440027 -1.6970116 0.475738 -1.880318 -1.2116654 0.35364836 1.3729414 0.52259845 -1.1905897 -0.00926131 -1.7006143 -0.97048783 0.7326647
단어_28 0.46757936 -1.2883098 0.041906804 1.4559914 1.046752 0.18307926 0.042679638 -0.9169207 0.074049756 -0.29088175 1.0965558 0.98888355 -1.7104979 -0.1710078 0.77211773 0.091631025
단어_29 -0.8584762 1.8581641 0.21005453 -0.37815946 -0.6575573 -0.8532205 -0.39476755 1.2152697 -0.6737092 -0.3402815 0.31620744 -0.77686524 -0.016916433 0.9430113 -0.25486696 -2.3683512
단어_30 -1.0588001 -0.6810708 -1.264763 0.6509575 0.5911706 -0.4491215 -0.5118547 1.7805806 -1.5463972 0.37075236 0.24321033 0.0938727 -0.5154309 -0.34805918 0.092785 2.079904
단어_31 -0.028233264 0.20623836 1.5535581 1.0016398 0.75751704 -1.4342065 -0.7825472 0.88017213 0.7606202 -0.09352979 0.624635 1.0730937 -1.4464858 0.2592498 0.10896811 -0.75605965
단어_32 0.35109875 -1.5558203 1.462338 -1.3991097 0.26673684 1.5059803 0.8077155 1.2469871 0.55965465 -0.9049654 -0.5658422 -0.6921655 1.3660581 0.9994572 0.44222814 0.8482917
단어_33 1.3115568 -0.25206798 -0.40804514 -0.15840495 -0.79957736 0.24005944 -0.19314435 -1.8868786 -1.0290438 -0.43916607 -0.3097914 0.8987163 0.5119412 0.7112679 -0.116583064 -0.44189802
단어_34 1.2581791 -0.02137478 -0.037474476 0.05896073 0.76477575 1.2438593 0.18337825 -0.4685882 -0.39601564 -0.08305414 0.07925788 -0.011110138 -0.3502778 0.6838272 1.5920569 0.35714918
단어_35 2.457997 0.30209702 -0.81189656 0.40471882 -0.5334522 0.060473297 0.017302692 -0.3809435 -1.7715575 -0.9087994 -0.8898077 -0.61013484 -0.661396 0.38022298 0.77962315 -0.4165519
단어_36 -0.5968515 0.96066 -0.6151561 0.36374447 1.0501392 -0.18545517 -1.5299556 0.89690435 -0.46477965 0.34316006 1.3778424 0.07865618 -0.7678751 0.7059183 1.0538124 0.31644088
단어_37 -1.2948619 -1.6629626 -0.33761063 0.311796 0.15954505 0.44051337 -0.9163398 -0.33529958 -0.1344882 -0.84460735 0.24778275 -0.44180095 1.0865092 1.2695601 -0.91370285 0.5298092
단어_38 0.68945605 -0.3677145 1.2997177 0.37802017 0.9403705 -0.0107408585 0.40342447 1.4671508 0.449635 -0.3038575 -0.06834793 0.8109654 0.5766651 0.73480284 -0.9014292 1.6357046
단어_39 0.9640083 -0.60925466 -0.72966856 -0.72268397 0.9601447 -0.59668773 0.041398723 0.74799025 -0.18123196 0.24976535 -1.5668166 -0.18416297 -0.10080447 0.5981964 -1.1369394 -0.32412815
단어_40 0.12889138 -1.6798041 0.83111376 1.0832777 1.4518362 -0.85789174 0.76833504 0.29415652 -0.4680233 0.5280269 -0.61888546 2.0680566 0.17566057 -1.6575496 -0.5381121 -0.07057554
단어_41 0.9650178 -2.5128975 0.10571714 0.81217337 -0.48960316 0.2449967 1.0542248 0.31803086 0.22220784 2.1773176 1.0527604 0.7057149 0.8303983 -0.023985833 -0.5162455 1.6458502
단어_42 0.7373162 -0.5863989 -3.8411052 0.26901183 0.29033533 -0.877976 1.0857221 1.1974041 0.057114918 -1.8113925 -0.10427829 1.9397339 -0.30786064 0.017758086 -0.9551871 -0.6965999
단어_43 -0.021125728 -1.7867535 -0.36103433 1.2123932 0.47611234 0.1471462 0.74877405 -0.16394353 0.30749577 -0.2563802 -0.86847526 -1.1038997 1.26306 0.12683487 0.77957875 -0.37739933
단어_44 0.9506189 -0.49318427 0.41253036 0.052703373 0.7466352 -0.13461031 -1.3925936 0.50775576 0.13338165 -0.8896301 0.28845596 -0.20485285 -2.4704792 0.9748611 1.4148253 0.5807978
단어_45 -0.81749475 -0.08470808 -0.023519536 -0.46898314 0.67129433 -1.5134897 -0.3326871 -0.9705118 -0.5221054 -0.48254773 -1.8312403 1.3103532 -0.8125178 0.7315539 0.6195408 -0.6848478
단어_46 2.1623304 -0.90543634 -0.27018878 -0.5978737 0.47337028 0.5887513 1.1261964 -1.15523 -0.42336345 1.244093 -0.26901758 -0.5843757 0.5518514 -0.37256733 0.36510226 0.8098997
단어_47 1.0676793 1.0556517 -0.8429504 -1.2858855 -1.055202 0.20479421 -1.2758178 1.1326375 -0.59764165 -1.8705255 0.17046785 0.7059859 0.15129052 -0.3957424 1.1160048 -0.7894376
단어_48 -1.3224676 0.7293031 1.8352747 -0.24110445 -1.531475 1.2181629 1.7559948 -2.3595061 0.7201454 -2.4748962 0.50713015 -1.8314487 -1.8171153 0.9811967 0.25528884 -1.2030573
단어_49 0.31163874 -1.2402905 1.3048869 1.7051904 0.25560427 -1.4171385 -0.44326857 -1.4539404 0.08945427 0.37848458 -0.23117094 -0.49347657 0.028297609 1.4940321 1.8519533 -1.060304
단어_50 0.18852833 0.7598029 0.6085064 0.639767 0.39827454 -1.261393 -0.652412 -0.50913656 -1.7618154 1.2866393 -0.055708002 0.77679634 0.6386574 0.9575602 0.21006939 0.6362482
단어_51 -1.6153673 1.3640857 -0.13151354 0.39782634 -0.31576964 0.59593534 0.35070238 -0.73158795 -0.15341842 -2.2298722 0.060955316 -0.9902457 2.2711825 0.050409283 0.6820304 -1.3570616
단어_52 0.45719978 1.0965955 -1.5865875 -0.6845715 1.4942687 -1.1211007 0.07017771 0.6947865 1.75079 -0.543457 -0.96907604 -2.582296 0.48811978 -0.67818505 -0.09173815 1.0698195
단어_53 0.24246407 0.06988185 -1.1566983 -1.0629743 0.021126464 -0.8880583 -0.27460718 -0.35651284 0.26057163 -0.09912186 0.894007 -1.9752406 1.6054112 0.18930484 0.2161013 1.2290758
단어_54 0.19097507 0.6916314 0.9732843 -1.9925556 2.5216749 -1.3055235 -0.35131842 -0.6338875 -0.9203064 -0.14788406 -0.96353817 1.6890852 -0.10498261 0.33909076 -0.38563335 0.39677188
단어_55 -0.005965347 -1.4819235 -0.7932437 -1.1114348 -0.61368275 0.18039706 1.070747 0.18963805 0.2958977 -0.7952258 -1.9068543 0.650592 -1.5485686 -0.5033838 0.04550911 1.5539832
단어_56 0.76485974 1.9280493 1.4318378 0.10095836 2.5590734 -0.96950376 1.4240198 -1.1588527 0.5545316 -1.5184586 0.14848374 0.4903451 -0.88836133 1.9900607 -0.46019107 2.1704392
단어_57 0.68930584 -0.89573455 -0.10686988 -0.3701205 -1.0032102 0.58139783 -0.5014583 2.267616 -0.22448513 0.964205 -0.43198422 1.4110467 -0.687968 2.7034585 -0.4637749 0.10256671
단어_58 0.64900804 -0.14246002 0.18582875 0.17736226 0.6145859 0.15941481 -0.74601614 1.1103252 0.5614768 0.619409 0.2525195 0.84471476 -0.4569917 0.93855095 0.8554386 0.95221215
단어_59 0.3914311 -0.36090252 -1.3948966 -1.4286956 -1.3912535 -0.62357754 1.3372186 -0.6549277 -0.7456934 1.0918707 0.9628083 1.4387685 -1.1985465 0.40894505 -1.1022848 -0.13850467
단어_60 -0.1529554 2.0684097 0.8079998 0.12746015 1.1457666 -0.55278856 -1.0293754 0.68104196 -0.10444804 -0.12305458 -0.7154041 -1.6141655 -1.9169289 0.079147786 0.2835835 -0.5815454
단어_61 -0.15244016 1.4896411 0.06162919 -0.52135444 -1.1076378 -0.8984243 0.14987044 -0.6206985 -0.36334378 -0.4930235 0.29058433 0.19644053 1.696471 1.1912698 -1.8875145 -0.1693363
단어_62 -0.5101677 1.5195044 1.7804282 1.2411966 -1.3720242 0.060489412 -0.1254173 -0.44001442 -0.82106626 -0.8189082 0.63845575 -1.022465 -0.6375475 -0.15888634 0.5312116 0.14978772
단어_63 0.92125696 1.0539392 -0.40572757 -1.2523417 -0.29170278 0.6646844 -1.2170583 -0.30133945 -0.67081064 -0.97317076 -0.5853811 1.4249381 -0.27810514 -0.5611054 -0.7601083 0.17548524
단어_64 -0.8310709 -1.741884 -0.08984192 1.5590024 1.0142523 -0.63652134 0.040747236 -1.9043888 0.37639514 -1.4230425 0.48778453 0.57566786 -1.1267363 -0.667128 0.20195834 -0.29370293
단어_65 0.90409684 -0.73979014 -1.1019915 0.3942305 -1.9053966 0.8686075 -0.014570125 0.1770763 1.2719575 -0.40392348 -0.4863842 0.06742561 0.023120195 1.2008541 -1.1338745 -1.1587508
단어_66 -0.75364715 -0.36798728 -0.7533939 1.1394234 -0.16988842 -0.7062566 -0.8806594 -1.5896769 1.2341876 0.22054112 -0.55703413 1.9994614 0.8123161 0.90325123 1.4491317 0.8338457
단어_67 -0.55373675 0.23991592 1.1069626 -1.1837015 0.31987664 0.0072437446 -0.3637155 0.5730047 -0.86979645 -0.14278568 0.29930678 -0.864171 -0.40590218 -0.7790208 1.6417106 -1.0369418
단어_68 0.41767034 0.817303 -0.120547354 -0.9322388 -0.44405025 0.3620301 0.5340734 1.086309 -0.11427988 -0.69386095 -0.022463579 0.42450052 0.49813297 -0.8603624 -1.368789 0.4821366
단어_69 -0.38089162 -0.26129833 -1.8519965 1.6979184 0.9111921 -0.043595433 0.7320069 0.4874867 1.2189331 -0.99802935 0.13890462 -0.2792815 0.75946254 0.46313652 0.05163707 0.5798009
단어_70 0.5128356 2.9725478 0.116904974 -0.7038233 1.8026253 1.3895136 -0.7619958 0.8354214 1.0492843 1.276308 -0.24871898 2.3764253 -1.432368 0.982083 -1.1038064 -0.46975908
단어_71 -0.47800338 -1.7265867 -0.38673812 -0.13553524 -1.941271 -1.1887345 0.53669316 -0.5096236 -0.9242369 -1.2897118 -1.5111169 0.34078598 -0.43423772 0.14316732 -0.11885386 0.75926185
단어_72 1.3464576 -0.107192636 -0.7377866 -1.351857 1.2664766 0.6753037 -1.3392855 0.34829664 -0.052661236 0.08698051 -1.8533195 0.31537372 1.1954411 -1.3480932 0.71224976 -1.4101938
단어_73 0.41084173 -0.28110638 -0.8303105 -0.8972168 1.219377 0.2651263 -1.4111404 1.1287277 -1.3239517 -0.9944021 1.1933594 -1.2733696 0.32250923 -1.1511956 -1.1502826 -0.18382001
단어_74 -1.3417269 1.4400836 -2.397647 0.35983923 0.79140586 0.1894066 -1.8090588 0.9961378 0.31046495 -0.8986843 0.4342561 1.5254235 -0.32492298 0.5060753 -0.09661088 0.7960104
단어_75 0.15943228 -0.44703588 0.3435789 0.9959385 1.6693052 0.2449504 -0.534529 -0.5856135 -1.2421414 -0.8958337 0.38878977 -0.6802632 0.23183803 -1.5862019 -1.3445016 -0.5027598
단어_76 0.047936764 -0.4342949 -0.18190114 0.8019895 -0.18761854 0.7221557 -1.2422664 0.14781974 -1.4940792 0.11129313 0.48818624 -1.0392903 2.7115085 -0.16134067 -0.14438921 0.24053368
단어_77 1.2641546 -1.1681838 -0.4152182 0.66740453 -0.81425184 0.26239437 0.24870081 1.0018153 -0.22726674 0.74364763 -0.550387 0.40640068 -1.4734838 -0.38518277 -1.7870823 0.4827739
단어_78 -0.5654483 0.18532273 1.3502674 -0.17483726 1.8542978 -0.7244507 2.2908323 0.9017183 1.313108 -0.87816083 0.11623681 0.80131537 -0.32720968 -0.6927719 0.853713 -0.13374718
단어_79 -0.13502505 1.703847 -0.4893465 0.33440238 1.2747267 -0.61235076 -0.21076237 -1.2395718 -1.3552274 0.19480996 0.18510063 -1.7335699 -1.124068 -0.46888247 0.99186206 1.1786742
단어_80 0.63500047 0.36107716 0.9428574 -0.47466475 0.13692977 -0.028187497 0.79766285 0.36512482 -1.864997 -1.3922194 -1.136323 -0.24211055 0.24907832 0.11337661 0.5225175 0.68392104
단어_81 0.96373475 0.25947815 -0.052203823 -0.82769334 -0.12097141 -0.12876505 0.16700502 -0.38200766 0.053289223 -1.1485564 -1.6819614 2.3792849 0.4129996 -0.9137389 0.65876657 1.2478662
단어_82 -0.46244892 2.6741204 -1.2632518 1.8361142 -0.2861933 1.134858 0.59447473 0.22134402 0.39807436 1.1228362 1.0335613 2.3407311 0.10661685 -0.47241575 0.8647791 -0.4664099
단어_83 1.5357517 2.0176985 0.67214584 -0.5579432 1.2823201 1.3139789 -0.22029531 -0.3007898 -0.19861825 -0.1547334 -1.1780883 -0.6707511 -0.07932728 0.31432 -0.76354015 -0.8140493
단어_84 1.310207 -1.6610014 -1.2451792 0.8552518 0.6564811 -0.35895762 -0.97697306 -0.069262564 1.227632 -0.90669453 -0.46642905 0.5839386 -0.49287108 -0.21071877 -0.7002752 1.0589815
단어_85 -1.1268631 1.7378136 0.6589642 0.020313865 -0.58581454 0.49804023 -0.41501066 -0.083184294 1.7877797 -0.05271512 -0.50255287 0.6784767 -0.06490991 -2.0438645 0.86503327 2.5465252
단어_86 0.36891973 -0.67331755 0.81444734 -0.61439943 0.3998555 -1.2470694 -0.2950827 -0.7409453 1.1577823 0.31349087 -2.7465715 1.0085306 -0.8762945 2.5696995 -0.23381887 0.036624618
단어_87 0.45873448 1.4878896 0.5184614 -0.5495017 -0.038991317 -0.4734604 -0.6722611 -1.1089221 0.104482405 -1.1460884 0.86022633 0.7965466 -1.1173518 -0.43519258 1.9787096 -0.42665341
단어_88 -2.1643782 0.2588679 -0.81310487 -1.4917687 0.8745555 -0.79341686 0.74325323 1.1620631 -0.70393354 1.6167624 0.60864604 -0.7913777 0.10414359 -0.24783956 -1.3523282 -0.6281158
단어_89 -0.17709057 0.13865477 -0.94121987 -0.45641455 -1.858118 1.8783038 -0.7967252 -1.0785304 -0.0077991863 -0.6568918 1.6613187 0.50907576 0.2238581 -1.9577688 0.02588202 0.010172391
단어_90 -0.98814327 0.27574417 1.1219274 -0.32716754 0.33362547 1.332671 0.90526605 1.63105 -1.0347072 -0.40759444 0.30070278 -1.6955945 -0.50466144 -0.5284516 -0.3443743 0.80678064
단어_91 -1.3499806 0.1241177 0.6439705 0.14954132 0.63420755 -0.42312017 -0.90336204 -0.7563521 -0.88369834 -1.9172566 -0.4527719 1.8963497 1.3559797 -1.725632 0.4215902 0.6086629
단어_92 -0.12580258 0.5497602 1.2603235 1.6742756 -1.2769314 -0.15889171 0.9684156 0.07440411 -0.6232175 -0.073318765 0.98739135 0.3262542 0.7737362 0.09182299 -0.33204666 0.46286768
단어_93 -0.33899686 -1.0374924 1.1902599 -0.042932965 -0.13355158 0.21660146 -0.4982009 0.32246476 0.44161564 1.385269 0.4742473 -0.383267 0.3111798 -1.0662721 -0.13688682 -0.6100273
단어_94 -1.0538586 0.6565082 1.0513576 -0.56712335 1.314745 -2.330346 -0.46849197 0.88635284 0.6032752 0.24037169 0.6726583 -2.1313596 -0.67473465 0.61883056 0.89224267 -0.9404966
단어_95 -0.017087054 -0.9585331 1.3890226 -1.0465187 0.4802865 -0.10795466 0.5543051 -0.07498634 -0.12887067 0.8147342 0.45885104 -0.51353925 -0.453839 -0.6582854 -0.1944594 0.6069895
단어_96 -2.6843212 0.09833724 0.03200692 -1.860839 0.54219925 2.3630567 -0.24149716 -0.4490724 0.89622766 0.7838959 0.9327091 0.2594694 0.016857712 -0.6576738 -1.9938825 -0.37688857
단어_97 0.11936046 -0.61852396 -0.8424355 0.29716808 0.113486305 -1.4816813 1.0411552 0.41545716 0.8686615 -1.5581826 -0.2044874 0.18802708 0.21710137 -0.9232031 1.826917 -0.5179714
단어_98 0.24262619 1.0671047 0.872688 0.33174765 1.5333649 -0.70893145 0.89602184 -1.1631125 1.6381818 -2.0818503 -0.1339337 -1.2091143 -0.005755455 1.0505313 -1.5729686 1.1041723
단어_99 -1.3088708 0.26323032 0.862114 -0.439254 1.1048689 -0.15829822 -1.0464078 -0.8937134 -1.2722576 -0.5033477 -0.9735961 -2.033368 0.82692397 1.4759622 1.0928288 -1.6793787
단어_100 -0.28039595 1.3391578 0.38973555 0.6231577 1.1493195 -0.38995236 1.7629429 -0.61302996 -1.2415539 -0.4305376 0.24560674 -1.593761 0.22204581 0.7394631 0.15549165 1.0185113
단어_101 -0.431033 1.0069972 -0.250301 -0.33785626 -0.123592496 -2.4572833 -0.504022 -0.018947875 -0.7771973 0.683966 -0.37604696 0.25166625 0.57112616 0.38245174 -1.0869989 1.98141
단어_102 1.14878 -0.56914663 -0.18474512 1.934871 -0.8952853 -1.6831361 -1.8333881 2.4325507 1.000589 1.6053203 -2.4588234 1.2471584 -0.15312813 -3.177894 2.3970592 -3.6788616
단어_103 -0.45898777 0.5788041 -0.749087 0.24589482 0.64137197 -0.81372726 0.4889902 0.4074607 -1.3877282 -1.6879069 2.6071348 0.10800506 -0.20310701 -0.18645543 -1.1109716 1.1179593
단어_104 0.7002608 2.074602 -0.014236846 2.2789109 -1.8267194 -0.49677104 -1.8160683 0.26136273 -2.3713639 0.89088815 -0.9171084 2.932688 -0.9467848 -0.56305456 -0.80693567 0.5566794
단어_105 0.9596732 -0.7379078 0.2836754 -0.29925933 2.0173368 0.7701207 -1.3008034 -2.097482 -1.1649001 1.1513846 0.18851946 0.03660323 1.0465873 -0.26853183 0.25822103 -1.238229
단어_106 -1.703449 -2.8689342 2.3864977 -0.96636885 -0.32366148 0.9472145 -0.097193055 -1.5455188 1.9629557 0.67844796 -0.85050005 -0.7679239 0.86841905 -1.2100624 0.6345997 1.1755748
단어_107 -2.5061135 -1.9082389 0.48282006 -1.882197 1.529366 1.1570156 -0.8801507 0.05864665 1.9075472 0.80012566 0.3597684 -2.2862449 0.35076618 -1.8751358 0.95821124 1.888958
단어_108 -1.304568 -0.48126674 0.26538223 0.12602626 -0.49898735 0.3217323 0.36477196 -0.19505931 0.050761428 -0.7009766 1.7342649 1.1067322 -0.03829961 0.71841115 3.0475025 1.1543404
단어_109 -0.024711726 0.18008703 -0.7321064 0.37844837 -1.3540467 0.116076976 0.6354358 -0.40050945 0.024125174 -0.1128519 -1.2320654 -0.25336525 -0.52140146 -1.009407 -1.8790413 1.0111457
단어_110 0.3040475 0.7748283 1.836239 0.81990147 -0.8631291 0.09445351 -0.07385678 1.1806177 0.16558935 -0.56770074 -0.82100606 0.4694595 0.2825305 -0.5385309 0.13175382 1.1438209
단어_111 1.1678457 -1.7380906 1.088626 -0.38153282 1.0212017 -0.14567743 -0.15991843 0.3276423 0.7039609 0.8751626 -0.06058742 -2.4007943 1.1325023 -0.61177874 0.21928263 0.36308935
단어_112 0.8152001 0.16011469 1.3914086 -1.7387346 0.3582924 -0.20307966 1.0806576 -0.4389134 0.9953312 -1.0054903 -0.9153169 1.4283767 -1.9726299 0.07148322 -0.024508439 0.6389466
단어_113 0.94295824 0.057412315 -1.0621943 -0.824156 1.0408474 -3.0929668 0.6339842 0.80331266 0.3178177 -0.041457474 1.4450356 1.2720743 1.5813488 1.2321872 -0.05997006 -0.53580904
단어_114 -0.12403185 0.95038795 0.44332176 1.8031219 0.21159719 0.1426317 0.2795612 -2.551567 -1.3514771 -0.35521483 -0.53842443 0.23042043 0.6845563 1.2597425 -1.6421074 -3.1744165
단어_115 1.3019164 0.9794376 0.78256625 0.4235335 -1.1959842 -0.6375579 1.3532588 -1.1691101 0.6974673 0.22102043 0.21343726 -0.78133 0.9802698 0.5432865 -0.2585561 0.31693053
단어_116 1.7821429 0.1769402 1.3170607 -0.60902905 -0.4499485 1.5509627 0.09048101 -1.7156829 0.16836683 0.7118344 -0.51833546 1.0184165 -1.0309243 1.4222599 -0.09462399 -1.0750688
단어_117 1.0136827 0.19000916 -0.9902002 1.2274712 0.87118334 1.1769716 1.1718432 -0.07976953 0.48320723 -0.3992146 -3.1034052 -0.76806957 -0.16410123 0.5639892 0.50303537 1.0901929
단어_118 0.7766366 0.03223205 -1.2989801 0.42573538 1.8321201 -0.30983037 0.2239471 2.496414 -0.024988124 1.3615787 0.90204036 1.211561 0.21358725 0.16017316 0.27027255 1.4584373
단어_119 -0.53975534 0.2181163 1.0146061 -1.0452694 -0.3645354 1.7049768 0.03860907 1.824139 -0.75015545 1.0403574 0.26428413 -0.5065576 0.82996106 1.7905247 -1.563711 -1.5257481
단어_120 -0.8378308 0.32280707 -0.22744991 1.2467892 0.21115305 0.6128474 -1.1966622 -1.139751 -0.79129636 -0.2170234 0.17396842 -1.0256249 2.4075272 -0.13772425 -0.9063392 -0.55197203
단어_121 -0.25093955 0.89058113 0.42540577 -0.6823422 -0.75329447 1.4428079 0.31315666 0.119569235 -0.0056948084 -0.34766582 0.14064047 -0.43544787 2.347301 0.3326913 0.188414 -0.45665655
단어_122 0.27947894 -1.5267684 2.6452305 -0.29101828 1.8143983 -1.0751148 0.590336 0.46006995 2.5733194 -0.85692143 2.1861296 0.7171518 -0.49070773 -0.98690647 -0.2725917 0.49392852
단어_123 -0.10338262 -0.00769333 -1.1834893 -0.34661022 1.1370102 1.6661211 -0.11723751 0.3218504 -0.13690692 -0.27093235 1.1710156 0.7883605 1.1494316 0.18087187 0.0012770228 0.11262129
단어_124 2.3898528 0.24797736 -3.111845 -0.377438 1.0966536 1.0137776 -0.36995947 -0.35912862 0.4491586 -0.6007063 0.22176048 -0.8754363 -0.70739096 -0.8602446 -0.5153233 2.1580596
단어_125 -0.0082832165 -0.07883862 -0.6742545 2.8135166 -1.7954656 -1.5097272 0.9840585 0.6656428 0.46847063 0.0089149205 -0.5226717 -1.1158689 0.7549313 0.25957328 -0.7360205 0.6269503
단어_126 -1.2273195 1.2302734 -0.45755127 -0.28009805 -1.3101693 -0.57855624 -0.0351916 0.597855 0.42381403 0.0091785565 -0.113980494 0.3665845 -1.822834 0.17955239 -0.0060657896 1.2458003
단어_127 0.72647184 0.44402003 -0.66537297 0.2961561 -0.11636456 -1.3289363 -1.560747 -0.04551526 -0.066144995 -1.4916415 -0.7985634 0.23927183 -2.0507054 -1.4539441 -0.6123682 0.90564114
단어_128 -0.41862246 0.13901748 -3.03652 -0.5239136 1.8692807 -0.6020453 0.3809382 -0.48490682 0.29456946 2.6334577 -1.5772051 1.7826109 0.8340227 1.5940499 -1.1399363 -1.5595891
단어_129 0.7955249 0.6969871 -0.37487933 0.045318983 0.002884404 1.7665657 -1.0249909 0.42316505 -0.5745998 -0.48701787 -0.7556536 0.3778696 0.7438246 0.15462542 0.5970974 1.1057793
단어_130 0.022837013 0.92242914 1.2031342 0.0322027 -1.203579 1.6037517 -1.2558186 -0.59656256 0.4451482 0.7709534 0.12928171 2.7794094 -1.3073426 -1.9801993 0.07187395 1.0458088
단어_131 0.089406714 0.5827723 0.0031656816 0.5232395 -0.19190575 0.5525305 0.07511083 0.26501608 -1.5153528 -0.5710617 0.91587466 -0.96669847 -0.20430826 -0.46390405 1.161163 0.5271994
단어_132 0.9043867 -0.81807804 0.9739201 -0.58155304 0.84081423 0.48394173 2.222779 0.6393859 0.93148375 -0.37895513 0.36386034 -0.7927706 1.3100955 -0.2650404 1.4778419 -3.0256894
단어_133 -0.7869181 0.879977 2.0952346 0.676036 0.10924225 0.4976568 -0.8878238 0.9735749 -1.5249345 0.6588609 -1.6620251 -1.4481465 0.8712986 -0.7333238 0.5298064 1.2701705
단어_134 1.0387762 0.24573375 -0.7817655 0.6567124 0.04900622 -1.0730048 0.92098594 -0.029056255 -0.09251354 0.45070705 -0.95720303 0.7299612 0.04269674 -1.165691 -1.51541 0.37856257
단어_135 0.028793527 1.3999684 -0.12473168 0.34487888 -0.25059804 -0.025622688 0.3413044 -0.37228245 0.23691179 0.10989187 -0.008572582 0.10186631 0.48941174 0.6425643 -0.1332882 -1.5339292
단어_136 -0.78691816 -0.008744341 2.0135658 1.599396 -1.2260997 -0.49468896 -0.33472687 1.0590655 0.019019473 -2.3337047 -1.7690052 1.5175081 -0.12006579 1.7268935 1.0564972 -0.46748385
단어_137 0.24513616 0.27109703 0.16279961 -0.32397065 0.4781247 -1.0522547 0.7520482 -0.5873839 0.13504264 -0.6455895 -0.7073038 -0.6348146 1.853959 -0.3585772 0.62473 2.0418966
단어_138 0.6937883 -1.3040699 -0.35557964 2.3904219 0.6225829 -1.239633 0.7735503 -1.5934632 0.034543745 0.25814956 -0.5165038 -0.23459248 0.10350849 -1.9772153 -0.108113214 -1.2264656
단어_139 -0.9178288 1.5136092 0.6412617 0.14760953 1.9519361 1.1674521 0.8927195 -1.215778 0.109661475 -1.0809295 0.58045274 0.38282508 -0.61256075 -0.728946 -0.29024476 -1.035361
단어_140 -0.8252539 0.19874106 -0.07604112 1.7233542 -1.710755 0.94102335 1.7286905 -2.1234868 -0.9520342 -0.976145 0.46605617 -0.40496606 0.5795253 1.0473559 1.6500163 -0.21784952
단어_141 -0.7995984 -0.6559553 0.932319 -0.15810859 -1.1345677 -0.6856334 0.7923464 1.8976469 0.15875423 0.75058967 -0.20128538 0.2736995 -0.022045538 0.92133445 -0.025835387 -0.67947966
단어_142 -0.35240927 0.80987954 1.130757 -0.24541989 -0.17527376 -0.25806257 1.3732029 1.6015244 -0.60125077 0.61698925 -0.48540387 -0.46413708 -0.8907359 -1.0959674 0.25558552 1.4172207
단어_143 1.6881139 -0.043741766 -0.2563913 -0.34634075 1.2992747 0.68191034 -0.47779688 -0.64801925 0.880455 -1.6355839 0.35658556 0.72521657 -2.4269392 0.124397 0.89570814 1.0543449
단어_144 -0.88910514 -0.13595046 0.48383915 -1.8660531 -0.11778837 0.7919876 -0.84073544 -1.9186219 0.3774598 0.3393999 0.3742577 -1.9686723 -0.8583806 0.20676744 2.0465186 1.5745245
단어_145 0.90103763 -1.5199808 -1.0529959 -0.013431529 0.07955916 1.094079 1.7041061 -1.115008 0.11095104 -0.051254522 0.2574662 1.6803553 -0.005166845 -1.5946461 -0.033994902 -0.77257633
단어_146 1.1883769 -1.3084102 -1.044964 0.2704566 -1.2231445 0.044007245 0.73843586 -0.22749329 1.0924205 0.4115866 -0.53904146 2.0385225 -1.237411 0.61861837 0.11294943 1.0340585
단어_147 0.5375225 -0.09634724 -0.575585 0.7425308 -1.0835892 -2.0427272 1.0252002 -1.3716786 -0.31072673 -0.6943203 2.5221038 0.9147982 -0.81602544 -1.1333493 -0.42793083 0.15982804
단어_148 -0.88178784 0.34910852 2.1570532 0.73968524 -1.3886757 -1.0872631 1.2247097 1.045945 0.4596014 -1.7476395 -1.2415069 0.11949736 -0.14940928 0.09033097 1.1923875 2.2707136
단어_149 -0.49076235 -1.1407248 0.7514642 0.8851275 0.8502276 -0.35343263 -2.1192882 2.2856355 -0.8776604 -1.0510223 -1.854077 0.48532248 -0.65750736 0.3603682 0.9584908 0.9651351
단어_150 -0.50811744 -0.41686806 0.2095825 2.1722283 -0.10681602 1.4925764 0.25805736 0.49241045 0.6221096 -0.75301796 -0.6578212 -1.3411857 0.94715434 0.9940711 1.7792062 0.32712555
단어_151 -1.0288177 0.8124742 -0.9281111 -1.0642638 -0.82703704 -0.8366039 -0.59170765 0.86977047 -1.48556 0.012015694 -0.44314617 -0.74623036 1.6788532 0.76020944 -1.0284443 1.3466237
단어_152 -1.3278073 1.7067937 -0.32400745 0.5172829 -0.6963956 -1.6576133 0.44175452 0.44556195 -0.1550036 -1.8834084 -1.4069028 1.344746 1.6801463 0.6471513 0.18430759 -1.3774893
단어_153 0.08462446 0.68247765 1.2123682 0.47066364 -0.9686904 2.2926247 2.1472802 -1.5381852 0.09778877 0.7980242 2.8290968 1.7365183 -0.40504593 0.81970227 0.13075863 -1.7713516
단어_154 -0.93670213 -1.8765745 0.96030366 -2.194009 0.11293024 -0.22086154 -0.66836274 -0.77535254 0.55020267 -0.25112605 0.9980567 0.44233033 0.8317877 -0.48237276 0.48748598 1.1137644
단어_155 -0.9627033 0.06614586 3.0431664 -1.171452 -0.8714647 0.9375299 -0.25235757 -0.7914727 0.1241836 0.67053944 -0.9393336 -0.60882246 -0.4457508 -1.4061325 -1.0941225 1.2779167
단어_156 -1.0239521 1.6727011 0.17622793 0.7090998 0.9736608 -0.40054962 -0.02926062 -1.3453093 0.8723419 2.723473 -0.31896234 0.799519 -0.56146526 -0.0079574855 -0.28274748 -1.9027228
단어_157 -0.4746501 -0.88779306 0.46363655 -0.7887891 -1.8395696 -1.169607 1.4058567 -0.99851555 -0.8597937 -1.8793987 -0.77066237 0.8950225 1.6361152 -0.4890957 1.0127115 -0.57646143
단어_158 0.6898696 0.40581945 -1.4866173 -0.863179 -1.3289019 -2.4429655 0.22973885 -0.48206887 -0.11403335 1.5894517 0.09712708 -1.3947378 0.62250286 0.916207 0.33727917 -0.056233987
단어_159 -4.4440103 -0.46316624 -0.16481051 -0.6726712 1.3680828 2.3260715 0.6212758 -3.3018067 0.40287387 0.03326015 -2.065652 0.36303398 1.6661818 -0.88076735 1.3836365 2.8875945
단어_160 -0.07099125 -1.6119118 -0.11708223 -0.009473209 -0.35520446 0.032766864 -1.3360959 0.65422916 0.05191925 -0.72549707 -0.12930211 -1.78079 2.0313134 2.0685115 -0.7363863 0.7266716
단어_161 0.7446123 -0.66690004 -0.86697024 -1.2697078 -0.9993434 -2.0631375 -0.19425467 -1.1918284 -0.6830989 0.17232433 -0.8128322 -1.4789535 0.45811957 1.0183027 -0.5837734 -0.14631481
단어_162 -0.65745807 0.24391828 0.54132587 -1.2910128 -0.16103576 -1.8121548 0.5676892 0.13255598 -0.30982834 -0.87830836 -0.4875321 -0.7130167 0.99271137 0.35277903 0.60496145 0.65413177
단어_163 -0.5291582 1.4530644 0.117909506 -0.33694103 0.17239384 0.30684507 0.37381965 0.86555487 -0.41458225 -0.61777157 0.7842952 0.6908918 -0.4633367 -1.3706006 0.14477764 0.45357558
단어_164 -0.39161876 -0.57732326 0.8053332 -0.75204706 1.958321 0.1613834 -0.3781632 1.1396204 -0.19418187 0.07439305 1.0461686 0.6968209 1.0726233 -0.60515094 -0.5621386 -0.7358803
단어_165 -1.3781085 1.7131814 1.6830298 1.4785018 0.812372 0.14782132 -0.5784093 0.663157 0.3657055 0.722017 0.3018146 -0.2521118 -0.3588048 1.6294867 0.32253432 2.1992323
단어_166 0.3535278 0.13177533 0.8521438 -0.2598959 0.15602262 -0.20902646 0.04797827 -1.1353298 -0.5462216 -0.643469 -0.059212435 1.274754 -1.0643151 -0.10543613 -0.01639485 2.0716329
단어_167 1.5317509 1.6973621 -0.1968735 -0.1750991 0.032275047 -0.64025587 0.4993694 -0.002065343 -0.7176674 0.48139372 1.3895541 0.72355986 -0.80081284 0.86675596 1.4723314 -0.46052304
단어_168 -0.016887141 0.6253803 1.1725104 0.097131796 -0.42518997 2.4410512 1.0942097 0.510548 0.31056032 -0.32930994 -1.4644796 -0.492762 0.42141476 -1.0606208 -0.8658181 -1.4845861
단어_169 0.20141906 1.5686755 -0.54609567 -0.70659757 -1.7007979 -0.96750563 -1.7382352 1.1327218 -1.3611008 -0.92979634 0.13524027 -0.50200206 -0.5541254 0.5698992 -0.49726215 -0.85451925
단어_170 0.8351711 0.0077102063 0.5288731 -1.03421 -1.9053137 -0.8726526 1.0465182 0.083397545 -0.7574256 -0.9296658 -1.9803054 -1.4030643 1.366865 -1.0981262 -0.10119705 -0.33395267
단어_171 0.5827911 1.0371804 -0.40478134 -0.40632117 -0.6323792 -1.6508586 2.0596263 -1.662033 -1.4966358 -1.385693 -0.5976737 -1.4985 -0.54526997 1.0449115 -1.220796 -1.1324813
단어_172 -1.7900754 -0.4127756 -0.41183966 0.69095826 2.4019666 0.5538544 0.7030261 -0.27641267 0.13954245 -1.5965468 0.1151076 -0.5226357 -0.48929003 -0.19272065 -1.2700853 -0.15140788
단어_173 0.5851494 1.4614475 1.2161558 -0.07629687 -1.5921583 0.41133514 0.34038904 -1.5806966 -0.0060900217 1.8095087 0.81736207 -1.0481855 -0.84946036 0.6196048 -0.31296355 0.9427777
단어_174 0.6801653 -0.020093536 -0.6541616 1.17887 -2.5992656 -0.37347898 2.1938381 -0.084648244 -1.2967197 0.6981594 -0.90493405 -1.10335 -0.6106105 0.85474235 -0.5834471 2.2529972
단어_175 -1.0510025 -1.4848486 -0.96414626 -0.229952 -2.3351696 0.9972847 0.5439785 0.57392377 -0.20595543 0.28861532 0.9583799 1.0000288 -1.0619792 1.4278117 1.7106309 0.1830338
단어_176 0.53202814 0.32286263 -1.1083854 0.38850218 -0.80948156 -0.7180166 -1.5731596 1.4664358 0.23320438 1.2415117 1.3270342 -1.4734082 0.47047782 0.5020537 -1.205918 -2.191065
단어_177 1.6083963 -0.7708197 0.5131401 0.070497744 -1.0977889 -2.0270865 1.2865852 0.31599942 0.9151344 0.23810714 -1.0163218 -0.16295697 -1.1077806 0.47065073 1.3782556 0.22617202
단어_178 -2.045732 -0.3908898 2.375117 -0.95143837 1.1343664 -0.5887728 0.24209723 0.93949586 0.44040272 0.38481793 0.40572247 0.72958845 0.5206146 0.55581874 0.19229683 -0.91708183
단어_179 0.12368103 0.90513664 -0.22529913 0.37526962 -0.21970199 -1.9592817 0.8791605 -0.27317598 -0.56399304 0.32144606 -1.424814 0.20490633 -0.22625561 -0.41838112 0.091566324 -0.3330701
단어_180 -0.005553925 0.3381614 -1.0743021 0.29415423 1.5080829 -0.40731472 0.1265355 -1.4237332 0.31652117 1.3305902 -1.6133887 -1.1488565 -0.47448063 1.2155516 -1.5670468 -2.0526307
단어_181 0.8628394 1.8869678 -0.76211303 -0.44543192 -0.9381716 0.2091659 1.2282734 0.9731134 -0.24988557 0.40687943 -0.0686411 0.39313343 -0.5662543 -1.4818642 -0.94114834 -0.9320056
단어_182 -0.842554 0.044187874 -1.8846425 -1.4688427 1.6175991 0.91438943 -1.380271 0.9330229 -0.10810027 2.0924654 1.5612624 0.12734213 -0.45990518 2.1647553 -2.3656173 -1.471912
단어_183 -0.64061546 -0.55829126 -0.7492979 -0.34136227 -2.278157 -0.68316644 1.312238 -1.9824395 -0.05862037 0.40302402 -0.5282335 -0.9095144 -0.46006575 1.1741608 0.04457136 -1.085699
단어_184 0.9778231 -0.22960548 -1.3939112 0.44115493 -1.3096607 -0.6850576 1.4561267 -0.42825973 0.40600306 -0.5936787 -0.024701215 -0.021366047 1.057663 -0.44660577 0.63432175 -0.14075117
단어_185 -0.5699044 0.007144214 -2.7048252 -0.06251345 -0.10104604 1.0939715 0.065985285 -0.3814708 -0.95612895 -1.332663 1.9803723 1.07226 -2.1376157 -0.755962 0.47196734 -0.25471616
단어_186 -1.8560392 0.15588845 -1.2029799 -1.430018 2.510397 1.4133538 -1.589318 -1.6480726 0.8639282 1.140653 -1.1546121 0.55647624 -2.668728 -0.08900808 -1.3585839 0.67698705
단어_187 -0.8291766 -0.3344915 1.6095704 -0.2526247 -0.2555013 -2.034498 -0.18755949 1.0387722 -1.0480106 0.14601402 0.608904 -0.34511325 -0.5821298 0.63666475 1.953121 -0.8317016
단어_188 -1.5970676 -0.7733797 -0.0370647 -0.36143428 -0.5325596 -1.5425074 -0.26004755 -2.3944619 -0.28512856 -0.8468052 -1.0226389 -2.3278935 -0.34290615 1.884285 -0.28575167 1.0267816
단어_189 -0.23367916 -0.574525 -1.6899924 0.08085159 -0.12529562 0.06920735 0.968903 0.758929 1.2763271 1.9611833 0.69896495 0.39552408 -0.23260748 1.40295 0.5764967 1.1053143
단어_190 0.5043672 0.5569595 -0.74397933 -0.1413511 -0.5088593 -0.50701547 -0.5370797 1.4919096 -0.54647636 -1.2540594 1.309528 0.3463851 -0.45138898 2.244867 0.47481096 -0.0010306091
단어_191 1.8721582 0.3944215 -0.022378271 -1.1778393 -0.26196653 -0.40855512 -0.036749005 -2.0579476 0.2021534 -0.0847328 -1.9131681 0.32657754 0.40965006 -0.089222275 1.1665252 -1.4425052
단어_192 1.1945833 -1.2722288 -0.9936999 0.03067506 0.15848978 -0.42757994 -0.92452407 -1.3194907 0.5283613 2.2768354 0.76478475 -1.4227899 -0.27102247 1.2653406 0.07574676 0.58720386
단어_193 -0.8788259 -0.577223 -2.3792067 0.40326965 -0.41018152 -0.7733754 0.871071 -0.11845453 1.4434842 1.1522864 1.4855216 -0.10707358 1.0203291 2.1425328 -0.057133973 -0.5161879
단어_194 1.2186666 -0.722834 0.72443575 0.10359125 0.73257625 -0.6489969 -0.43178168 0.9865042 1.1690784 -0.7846022 -1.7061383 1.1395793 -0.05595901 0.46050462 0.58731836 0.28733215
단어_195 1.1469679 -0.73259073 0.058141403 0.6450251 -1.256828 -0.66436654 -1.1089091 -1.6228843 -1.0009342 -0.16530722 1.9732066 0.28453875 -0.042121597 -0.72702086 1.0265198 -0.4083786
단어_196 -0.4395665 0.39857507 0.21398768 0.015302051 -0.67691666 1.377879 0.089490995 1.5570965 0.45966277 -1.3229662 1.4234847 -2.0229294 0.42892572 0.3155097 -3.1630745 1.9196241
단어_197 0.90855354 -0.558352 -0.05354744 0.2731927 0.534743 0.5698235 0.56119186 1.6817089 -0.95001364 -0.16887581 0.8183911 0.24366504 0.39382055 -0.52346224 0.4535564 -0.42247584
단어_198 0.30658728 -0.3984937 -1.290994 -0.302652 -0.72371346 -1.0541556 -0.6914535 -0.014143411 -1.2917062 0.9416257 0.9745512 -0.45243502 0.3349769 0.96494275 0.5393364 -0.8666906
단어_199 1.2775892 -0.90124136 0.014016144 -0.5921755 0.42836958 0.90703845 -1.1567309 1.605938 -0.30138347 -0.26368475 0.85493463 -0.27637282 -0.19796006 -0.4469319 -0.0237922 0.2857387
단어_200 -0.02683335 -1.0956142 -0.17947039 0.14738718 0.16705592 -0.833269 1.1655196 -0.51226526 -0.6419612 0.31529763 0.21528213 -1.5357525 -0.65388864 0.38890457 0.48324338 -0.7496279
단어_201 1.0942991 1.0158339 0.4201913 -0.533803 0.053606436 -0.030129692 1.3680618 -2.2174149 -0.5213725 -0.071320936 0.694814 -0.59917355 0.45101318 -0.18994349 -0.7476648 0.9223995
단어_202 0.3316973 -1.7773528 1.0682496 0.12268749 -0.05697866 -1.0158195 -1.342597 0.71693146 0.5147943 1.701534 -0.41768548 1.3099064 1.4002056 1.666673 0.8046771 -0.40570182
단어_203 0.25086212 0.63924503 0.532902 1.56869 -1.2147113 0.74176884 0.23863241 -1.0835404 -1.343935 -0.2319502 -2.9573083 -0.3841023 -0.8669635 0.16051789 0.7010683 0.059579033
단어_204 0.104098246 -0.1765494 -0.071034215 1.1432552 -0.77965903 0.38069755 1.2349906 0.27952695 0.90513194 -1.1217514 -0.67641324 -0.2787541 1.4502558 0.011789967 -0.30105084 -0.3123608
단어_205 -0.3341592 1.0298297 -2.3428714 1.5267507 -1.4269874 0.9218248 -0.07099788 0.81724054 -1.0212717 0.13953604 1.1784648 -0.46713123 0.43148828 1.7954971 1.7422665 0.40140608
단어_206 -1.3444484 -0.53139335 0.22190315 1.4712502 0.14541617 -0.06778229 0.3637832 0.016111366 0.0676762 -0.5661789 1.1405435 -2.6670172 -1.3806864 1.916063 -2.1949995 0.92895406
단어_207 1.7117962 -0.529568 0.62008935 -0.41424793 0.023469279 0.037271664 -0.8323088 -0.45096585 -0.5704785 -0.30165893 0.8336468 -1.2339827 1.1635221 0.3572016 1.3375684 0.94418204
단어_208 0.45620987 0.51113105 1.0816972 0.3486368 -0.19961797 0.7383682 0.70990825 -1.5812392 -0.34364998 -0.40032363 -0.07813814 -1.3804669 0.2505286 -0.4725874 -0.86970717 0.06892857
단어_209 -1.9288169 -1.8502263 -1.6482048 1.0477846 0.04774131 0.9931701 -0.52962846 1.3008611 0.25568637 -1.1355755 0.29286 -1.7258292 0.5823045 2.0501685 -0.10123112 -0.9820294
단어_210 0.028759617 -0.28924656 -0.77577174 0.22979291 -1.2231969 -1.5632547 -2.3821268 -1.4822855 0.7850064 0.5215858 1.1155642 0.25047955 -0.587448 0.7681056 1.8384132 -0.3071454
단어_211 -0.5616583 -2.1164978 0.22302786 0.7476355 -0.98468834 0.5044269 -0.25306797 0.03250093 1.6269989 -0.45957115 -0.89280516 0.57197464 0.9117541 -2.4498858 0.013539322 0.21063398
단어_212 -2.5682583 0.06501344 -1.1917256 0.6553381 -1.66578 1.6857401 -0.37584597 -0.7449945 -1.756889 1.1733044 -2.564318 0.747924 -1.1466635 -0.21018498 0.5733774 1.1587225
단어_213 1.694144 -1.5200893 0.6079315 -0.8119322 -0.5150308 0.5133078 -0.21486169 -1.3286076 0.9748453 -0.20499668 -0.2976229 -0.60369426 -1.8086833 0.07163416 1.0771698 0.27261728
단어_214 -0.98134124 2.340188 1.8766408 0.14245427 -1.4154265 0.3361504 -0.9701718 1.4628636 -0.1514499 -1.634363 -2.2340186 0.8086953 1.4715903 -0.7082338 -0.609365 1.2458566
단어_215 0.008537262 0.6312543 0.39815 -0.18966074 -0.12005234 0.23570094 1.03442 0.10960883 0.17867348 -0.6089281 -0.16948207 1.0827426 -1.8251398 -1.609339 0.16714773 -0.5428972
단어_216 -0.64629275 -1.0553484 0.9963182 -0.9966034 -0.49571222 0.021823704 1.1441846 1.5700697 -1.0519583 1.3141065 1.1998067 0.5916045 0.08459107 -0.6786683 0.04368332 0.27300915
단어_217 0.15637222 -0.4227156 0.80612135 -1.0892446 2.5016081 -1.958043 -2.37142 -1.1553489 -1.8745055 0.7994206 -0.5232398 0.9811244 -0.12905969 1.3815291 0.22551873 0.9488817
단어_218 0.21377075 -0.9245216 1.2886083 0.08689205 1.5847971 0.42423022 -1.8141282 -1.6409286 -1.211666 1.0526477 -0.6392845 -0.58072674 -1.3454058 0.04220281 0.85510373 1.1735047
단어_219 1.2276719 0.24703312 1.0246546 0.05656558 -0.1597126 -1.2884417 1.3290483 -0.04702294 -0.86169195 -0.10016494 1.1470383 -0.61836386 1.1972162 1.0683742 -0.20309512 1.001349
단어_220 -1.4239101 0.082385436 1.1359558 1.8993737 0.41351503 -1.234311 -0.676358 0.23917967 2.0116193 -0.349939 -0.6911944 -1.1313037 -1.1790365 -0.297861 1.6451437 -0.20257924
단어_221 -0.41163343 0.63084906 0.4422297 2.4629877 -0.90317696 -1.1025784 -0.2171977 1.0606844 -1.6700759 0.6515634 -0.40668374 -1.0426263 0.76771075 -1.1694349 0.65708894 -1.0387956
단어_222 0.2927397 -0.63314867 0.18352248 2.3140397 -0.17491591 1.003658 1.4894804 0.9208142 -0.09618881 -0.47224438 -1.1173518 0.7094404 1.7957191 -0.8794473 0.42452154 1.8825804
단어_223 -0.002492498 -1.4697719 -0.16676009 -1.1970859 0.6522925 0.21764253 1.4248685 1.9130093 -0.6500074 0.923291 0.9733241 0.5299439 -0.27164432 -0.48186454 0.7531698 0.50466263
단어_224 0.40282455 -0.27638295 -0.94728625 -0.1933948 -0.98375833 0.22329098 0.20303594 -2.3013208 -0.85520583 -2.1213093 -0.69055057 0.49104205 -1.7932669 0.5729088 -0.14430313 -1.3261573
단어_225 0.8540336 0.5856829 -1.1401153 -1.5023863 0.47101143 -0.48722193 0.10816019 -0.17884879 0.6095947 -0.13593842 -0.4227598 0.3532965 -0.32564375 -0.45859778 -0.9154849 2.3649874
단어_226 0.60984445 1.4898983 1.398103 3.278135 0.80468035 -0.45512766 1.26778 -0.60404426 -1.3896043 1.3204654 -0.67474395 -0.45439026 -0.9885992 -0.38317528 1.3843057 -0.3773048
단어_227 -0.14248614 0.13898681 1.4113567 0.42613247 -0.061636977 0.1770528 0.41626146 -0.8057348 -0.27756643 0.5923625 0.4514534 -2.100938 0.80600137 1.7758344 -0.5731093 -0.29174936
단어_228 0.8490688 0.5584939 0.39532858 -0.92923486 0.06868504 0.009950608 -0.29718342 -0.24856347 -0.23392119 -0.93710434 -0.8027247 0.23196898 0.7164126 0.72807425 0.3597577 -1.2076001
단어_229 -2.1512828 0.40656045 1.4392595 -2.6569488 -0.72173256 1.0025276 -1.7971604 -0.75848716 0.84774506 -0.8688264 0.6777775 -0.14374207 0.49767968 -1.9545616 2.1237628 1.604595
단어_230 1.7560891 -0.30669323 -1.0221691 -0.44359276 -0.50671613 0.43089834 -0.6148381 0.4402787 -1.486348 0.038529076 -0.4745061 -2.9571977 -0.24118775 1.15394 -0.61926895 1.3184323
단어_231 -0.14515737 -1.0711455 0.5194818 0.35971335 0.2989541 0.64829665 -2.9916396 -0.017185688 0.6598903 0.13230217 -0.023957347 -0.1965688 0.16018413 0.04874322 0.43530387 0.908145
단어_232 -0.18498997 -0.7525179 -1.3125482 0.58287024 -0.3459838 0.17237154 -1.2013992 0.83533317 -2.3959143 -0.09298121 0.7094826 -1.1147627 -3.0231233 -0.12129151 0.25289565 1.0648994
단어_233 -0.65606177 0.97688204 -1.211096 0.7343691 -0.4759184 0.24569324 1.1048225 -1.2629744 -0.16951928 -1.0334533 0.43114352 -0.66076666 -1.1918476 0.25704476 -1.0227202 -0.3918709
단어_234 -0.653075 0.38154504 -0.6511809 0.46374682 0.3474917 2.423953 -0.10572139 0.040090907 1.0128746 1.1689823 -0.44271457 2.137621 -0.70001334 -1.4355886 -1.4855121 1.5555032
단어_235 0.16883753 -0.42065987 -0.22301365 2.5099607 0.5530228 -1.0490551 0.028408037 -0.14717804 -1.617742 -1.0908786 0.3936368 -1.5332677 1.237235 0.39768258 -1.5120018 -0.10500114
단어_236 -0.0660889 0.2692017 0.9911722 1.7407445 0.26898605 0.2535557 0.94990003 -1.0619329 0.27278128 1.3089195 -0.09141193 -1.2653804 0.3782346 0.17347397 -0.9371098 -0.036398545
단어_237 -0.098352015 0.8808458 -0.76523626 0.99693674 1.0490174 -0.2357781 -0.54519325 1.0471056 0.0931536 0.4270956 -0.34036005 -1.9605569 0.8203023 1.5562178 -1.5566983 0.48197913
단어_238 -0.220308 -0.12559031 2.6255846 -0.63891643 1.123637 -0.71055394 -0.5837774 -1.5460403 0.09149263 -0.37809032 -0.7413357 -1.5650059 -1.8396212 -0.4267259 -0.30075923 -0.8037327
단어_239 0.5021943 1.7188783 0.084904715 0.013940484 -1.0589839 -0.04811266 -1.4946023 1.6523445 -0.85129887 0.74389815 -1.9912778 0.09540556 0.77471477 -0.9597676 0.8661337 0.909649
단어_240 1.0996498 2.3298607 0.61346734 0.69662166 1.9823171 -0.41490674 1.2432541 -2.0440187 0.48385677 -0.88075864 0.7914249 -0.012550013 0.019034693 0.76240945 -1.2614044 2.4770436
단어_241 0.26621598 -0.370519 0.34243754 -0.4771906 0.46810552 -0.7706538 0.43262604 0.66989666 -0.088513866 -0.5721508 -1.086557 -0.5312678 1.0653784 0.34023938 1.0882583 -0.7915692
단어_242 0.5875377 0.53749144 0.4536933 0.310341 -0.3832957 0.23883232 -0.79177684 -0.21899676 0.23019731 1.4286131 -0.9485811 1.1603445 1.1823319 -1.190669 1.5603776 -0.26874056
단어_243 0.42614645 0.048825443 -0.2611619 0.4053115 -0.48681113 1.6168365 1.7893449 -0.9716356 -0.75879663 0.14941739 0.8465955 0.98854434 -0.16641365 -0.71382236 0.17273764 -0.9885886
단어_244 2.193048 -0.028344134 0.6350672 1.6721185 -0.17934696 0.034396734 1.3497806 -0.3687996 0.32171804 1.334946 0.96245563 -0.20573723 -0.93425465 -0.70190084 0.9571457 -0.3785827
단어_245 -0.6847551 0.21883713 0.6505646 0.8771422 -1.2992209 -0.4173659 -0.529312 0.9717361 -0.8419991 0.08805258 -1.3393816 -0.44984323 0.6424399 -0.376762 -0.29583827 -0.68377846
단어_246 -1.1811788 0.48846367 -0.7415061 -2.4222844 2.8998337 0.58898693 0.2992709 0.11929347 -0.16626093 1.2469598 -1.0322951 -0.74286604 -0.33112994 -1.1239067 -0.008021358 -0.072566725
단어_247 0.3505621 -0.048255652 -1.2939357 -0.6448169 0.20159526 1.039299 0.49974403 1.4658965 0.73304695 1.3374534 0.7850677 -0.20678276 -0.93407184 1.9608709 -0.37218475 0.35173565
단어_248 0.076303 2.052694 0.4636307 -0.900989 -0.37371233 -0.4856181 0.6693329 1.2449598 -0.74401045 -1.3573558 -0.5193933 0.9809023 -0.8985165 -0.841699 0.29401696 2.4257665
단어_249 0.73674345 -0.69362485 -0.85629225 0.58683366 -0.36361694 0.7268766 -1.4028075 3.6141279 0.70671123 -1.3155148 -0.24833691 -0.33557883 -1.0482464 2.0182223 -0.28568554 -1.4348383
단어_250 -0.60507286 0.17719954 -0.48536742 -0.50116247 0.8401026 -0.6998957 -0.26333654 -1.2633237 -0.4574309 -0.8808166 0.9280566 0.2805091 -0.6411107 -0.78644973 1.4101186 -1.259242
단어_251 -2.2433934 0.31634414 -0.036272753 -1.4271612 -0.10411799 0.3883732 0.25914854 1.3250055 -0.33256057 -1.5405525 -0.5279481 -0.49496245 1.8218039 1.3028257 0.912186 0.7928846
단어_252 -1.1794832 -0.026618995 -0.63792366 1.4640301 -1.5460283 -1.6746664 0.7597359 -0.7976457 0.07177498 -0.7642348 2.1436746 0.85981697 -0.05154623 2.4173295 -1.3713073 1.0702642
단어_253 -0.23496652 -1.3670993 0.8360082 0.5169309 -0.5952873 1.2493083 -0.14509122 0.48488966 -0.93924475 -0.54659945 -0.4309681 0.38245112 -0.29251462 -0.82616436 -1.6739311 0.38379183
단어_254 -0.09227363 0.19468841 -1.0184143 0.6505382 0.8916668 1.7336686 1.0558316 0.6644381 -0.11623352 1.164581 0.5843262 -1.5379511 -0.13435669 -1.3457962 -0.46518648 -0.83191544
단어_255 -0.007143933 -0.1076398 -1.4257742 1.1370246 2.075359 -0.50565845 1.4193866 -0.26710102 0.96974343 -1.485973 2.0732894 -0.27380684 0.4595295 0.22019109 0.248527 -0.87382317
단어_256 0.3119536 -0.65243685 0.8336334 -1.6066315 0.9345247 -1.6188408 0.19834746 0.39965874 0.25759855 -1.1484221 -1.0869973 -0.7973855 -0.8843692 1.6445755 -0.054924298 -0.14269088
단어_257 1.9646894 1.6055493 1.029345 -1.177792 -0.11017049 -0.034944482 -0.12139664 -2.1478713 -1.6446416 0.13053298 -0.11365654 -1.0956287 0.2689372 0.13981739 -1.2975614 0.34921283
단어_258 -0.40120688 -1.2027282 0.8395319 0.8977059 -0.4486588 1.6585591 -1.1652364 0.096631736 0.31420317 0.67867076 -0.045133974 -0.82311094 0.77721304 0.11344086 0.46832794 -0.6627124
단어_259 -0.50666255 1.1057072 0.47827 -1.0169121 -0.36757585 -2.2953384 -0.18619727 1.4180427 -0.4428415 -0.36195773 0.39574164 -0.4974435 0.31878594 -0.59960836 0.16001232 -0.39665246
단어_260 -0.16721374 0.40709275 -0.54677665 -0.05198341 -1.0940341 -0.45349202 1.7125037 0.41542011 -0.8801412 -2.0640352 1.1091329 -1.0199968 -0.3172829 1.0307436 -0.12171212 -1.6295661
단어_261 1.0803245 0.2255276 0.16622329 -0.040947203 0.019113414 -0.8935128 1.3512554 -0.34856805 1.5815212 -0.23697689 -0.7141889 -0.34814736 0.58453006 -0.97532946 -0.2849142 0.7048823
단어_262 0.9817085 -0.30547458 0.082612865 -0.20055173 0.99241 -0.4350115 0.12244568 0.45294973 0.6511474 -0.068668924 0.45058322 -0.59166235 -0.7395413 -1.8633888 -1.3686647 0.11544351
단어_263 1.0348834 -1.7034905 -0.513804 -0.36607534 1.2886218 0.08553526 0.9155204 -0.04635506 -0.8240813 -1.2179253 -1.7237972 1.2040043 2.515523 -0.14368035 -0.13485298 0.12575072
단어_264 1.7928393 -1.6713771 -0.75512654 -0.16402139 0.4301473 -0.6412698 -0.6206219 1.8862005 -1.4558829 -0.72489595 0.5144681 0.2270025 -0.2342595 1.0404158 -1.4391971 0.9551099
단어_265 -0.15325916 -0.24164677 0.8389347 0.13687585 -2.0877788 -0.2592127 0.27314037 1.0259075 0.96386296 0.30787358 -1.1018325 -1.1780653 -1.8321917 -0.850529 -0.12174609 0.22443181
단어_266 -1.6674808 -0.44680515 0.67463696 2.4092655 0.49046752 -0.73337764 -0.6313774 0.25663418 -0.6938841 0.24124691 2.0669925 0.6537057 -0.42846835 0.1907931 -0.32770073 2.363798
단어_267 1.7207667 -1.4767182 -1.409157 -2.5788286 0.6369683 0.4285723 0.25739196 -0.8718447 -0.2332619 1.1364479 -0.39016223 0.22313811 0.2189462 1.4916035 1.5121747 -1.5860965
단어_268 -2.6562574 1.4663283 -0.17682853 0.9779996 -0.23319435 -0.36071295 -0.5541893 -2.5511665 0.12241004 -0.122621216 -0.7068248 -0.24969454 0.67020833 1.2566526 -1.1110108 -1.7282497
단어_269 -0.0674786 -1.023312 0.83210075 -1.75186 0.9708398 1.8784903 -1.6075387 -0.90654147 1.5617357 0.91831815 0.24902293 -0.51859516 0.17506762 -1.4956706 0.6772796 0.42482942
단어_270 -0.33172813 -1.8485934 1.9120567 2.772166 1.2313172 -0.08355833 -1.1310679 1.306906 0.047943946 0.673993 0.68696487 -0.7791216 1.189643 -0.76365703 1.0861402 -0.7830039
단어_271 -0.9927218 0.69078887 0.07143305 0.7248395 1.6581275 0.1800204 -0.18942313 -0.47608536 -0.47947666 1.4981074 1.0139916 -0.663405 0.34728724 -0.4017447 -0.2331581 0.08697598
단어_272 1.1398956 -0.11498945 0.46582437 0.08562105 -0.41199845 -0.015448682 -2.0608978 -0.41516882 1.1717241 -0.5402639 -1.5481133 0.17871802 3.603925 -0.6103155 0.23306562 0.63929445
단어_273 -2.1766012 -0.20403084 -0.07432187 -2.2753878 -0.7646211 -0.614711 0.17536603 0.96988213 0.09350877 -0.22013453 0.94051135 -0.05871669 0.13782977 0.08323135 -1.3980806 1.5989546
단어_274 -1.1888126 1.9839835 0.82610303 1.1691602 -0.10697199 -0.6654622 0.29669845 0.024460275 0.26759 0.07964218 -0.95131105 -0.3290506 1.0277841 -0.68239176 0.2011392 -0.49622107
단어_275 -1.0836663 1.0080714 -0.69484985 -0.63448715 1.1063908 0.38735825 0.91206664 -1.2819082 -0.53942734 -1.1211609 -0.8680746 0.26716176 -0.0084553305 -0.6687557 2.0288181 0.21243873
단어_276 -0.45968053 -0.6130659 0.5089386 -1.4149482 0.6843316 -0.08392454 -0.08278122 1.3011225 0.05053183 -0.6361923 -0.9128001 1.4943315 0.4549449 -2.3367498 0.059008878 -2.0522053
단어_277 -0.23799524 1.0601175 0.23189048 1.2453265 0.34510145 -0.22764759 0.5407553 -0.6949089 -0.047088403 0.6659653 1.0968058 -1.486302 0.71193624 0.36807325 1.6062077 -0.27530363
단어_278 -0.94323194 -0.0005958361 0.6230798 0.46392417 0.22939035 -1.4371145 1.5355479 1.0327319 -0.0049169254 0.09543505 0.3782754 0.00039287424 0.41374588 0.26893526 0.96074945 0.5630154
단어_279 1.3784689 -0.8259104 -1.2441987 -0.15896636 -3.0414355 -0.35772043 -0.47179317 -0.59335196 0.6263198 -0.12034292 -0.3170528 0.7438494 -1.3511269 1.6968192 -0.5153138 -0.7165012
단어_280 -0.28706977 0.5742612 -0.7551415 0.5227308 -0.32750526 -1.1775203 2.2556324 0.1214208 -0.6120867 1.3114233 1.5119529 -0.24054287 1.2807509 0.8965978 -1.2114518 -1.0850471
단어_281 0.048103217 -0.13941059 -0.43948552 0.4152009 1.0691069 -0.1706374 -0.8264754 -1.0069042 -1.6352777 0.70330626 0.18416065 -0.69771695 -1.1621323 0.62100255 -0.53714037 0.4804127
단어_282 -0.8042364 0.7781458 -1.567833 -0.7756951 -2.0568655 -1.7706579 -0.6539925 1.6490624 0.085105255 -0.43000215 -0.60236514 -0.3574238 -1.4594464 -0.5065134 -0.20107876 -0.92484045
단어_283 0.5956801 0.030068567 -0.5718804 -0.37554336 0.36250943 0.5158619 -0.3310504 -1.1754769 -1.8717383 0.47267774 -1.4240568 0.39137235 -0.44068167 1.3663367 -1.7168229 1.1476306
단어_284 -0.207129 0.8368451 0.24355537 0.08480389 -2.662545 -0.5648283 0.20225273 -0.5955866 0.5737483 0.7663179 1.922018 1.368458 -0.48394296 -0.49481544 0.13620803 -0.15903752
단어_285 1.5852029 0.1162934 -0.36751246 0.50526977 -1.1533968 0.31223395 0.19409196 1.3479412 -0.8356295 0.0064441883 -0.90362906 -1.279129 0.19149679 2.5460968 -0.6781725 -0.4691143
단어_286 -0.28957653 0.11119499 -1.5715061 0.30510417 -1.3113095 -0.93915546 1.0261235 -1.1766102 0.53282374 1.1889621 0.37633076 0.86832386 -1.0404751 -0.4443549 -0.16917776 0.6481281
단어_287 -0.17484225 -0.22140312 -0.9623299 2.3487535 -2.494229 -1.818683 0.77459085 0.76392806 -0.54375654 1.5168315 -0.41034892 -1.1989305 0.2998711 -0.6023611 -0.42785817 -0.08172605
단어_288 0.77245104 0.5105077 -0.038375672 -0.8103364 -0.59928584 0.28732002 0.21359879 -0.3320965 0.72736025 1.1729223 -0.28745416 0.74581355 -1.0309243 0.37717012 1.0479293 -0.42145792
단어_289 1.7550275 -0.24416809 -1.5066948 1.3786802 0.05526465 0.37774903 -0.40719974 -0.6506312 -0.6104246 -1.4494393 0.9274374 -2.2286897 1.5709229 0.6399168 -1.5949343 0.99263954
단어_290 -0.15100712 -0.8105061 -0.47137535 0.6806438 -1.2748727 -1.1700652 1.0880524 1.7449584 0.4056997 -0.516968 0.8815956 0.40568098 -1.7225074 0.05496881 0.69070065 -0.19793874
단어_291 -1.9084774 0.71847004 0.55986553 1.5991782 1.5007708 -0.18339923 0.7728046 0.8861011 0.27475256 1.6112281 0.2798756 0.023662983 -1.1645347 -0.37703303 -2.2618499 0.54906726
단어_292 -1.3803806 -1.9119575 1.2258607 -0.60927075 -0.89126855 1.7949919 0.5367575 0.072226495 1.0731865 1.5521712 -0.43509132 -1.0042014 -1.0191553 -1.2189888 1.1473303 1.148645
단어_293 0.27686334 -1.404325 -0.15426794 1.0535852 0.74320763 1.3082649 -0.22465871 0.32198405 0.10644297 -1.0104073 -0.5798441 -1.2145627 -0.7763689 -0.7343765 -1.1212336 -1.6483995
단어_294 -0.49846774 0.08157893 1.7007892 -0.29871446 0.24163198 0.40032098 0.08142773 1.3471855 -0.9145786 -1.1165181 1.0139997 0.8412313 0.43105894 -1.5197908 -0.74392074 1.2057275
단어_295 0.5069712 -2.2278228 0.9014787 1.1973131 -1.061958 0.7629034 0.8002249 0.6936095 -1.0223955 0.23486114 -2.3186855 -0.31510058 -0.6463377 -0.16119635 0.015149934 -0.044169657
단어_296 -0.2566088 -0.018624745 -0.030169372 -0.9470756 0.87733185 -1.6231458 0.35030457 0.24337326 0.34463048 0.23954439 -0.19563402 -0.5884133 -0.8169072 0.634766 -1.3482503 0.3086665
단어_297 2.3551295 1.6547192 -2.4499333 -0.5637723 1.0891451 0.116786905 -0.8185046 -1.666798 1.1113039 0.67280865 -0.24070956 -0.7242906 0.6461472 -0.7025047 -1.1343061 -0.10437657
단어_298 -0.8690575 -1.5843887 1.0504456 -0.054235242 -1.560122 1.6816076 0.6274405 1.8016603 1.4089653 0.92015237 -0.62724525 0.44821787 -1.2064502 0.2622398 1.1014228 -3.7211392
단어_299 0.639819 0.16587543 1.139628 0.71737766 -0.9230514 -0.72925544 1.6697723 1.772895 0.55559784 0.72529465 -1.8527896 0.75407356 1.0846462 -1.7348708 1.9396865 0.27715883
단어_300 -0.23732704 0.88203865 -1.5052831 1.6209917 0.3096476 -0.99695647 -0.42466104 -0.44027814 -1.2111293 -0.523407 -0.3311315 -2.1457794 1.278205 1.766477 0.13748504 0.048649296
단어_301 0.9588622 -0.6820191 1.6287 1.3575022 -0.29316837 0.37142313 -1.6647164 -2.436811 -1.2381275 -1.5624219 1.3821145 -0.8712988 -1.391987 1.815205 1.6840534 0.30349633
단어_302 1.3413221 0.61228174 1.6912705 1.5528404 -0.33746174 -0.56572086 0.5166937 0.15396614 -1.1736296 0.7326463 -0.8665543 0.18427758 1.2287078 0.16492274 0.7339234 -0.3919785
단어_303 -0.057566117 -0.36383662 1.5196456 0.07368094 1.1116443 -0.41681793 0.95206946 1.6119564 1.0642157 0.5040802 1.2836174 0.07192919 0.12305197 0.2784161 0.93358016 -0.004370043
단어_304 0.99871343 -1.008803 0.6513052 0.9673787 0.17245698 -0.057131093 2.194349 -0.12067525 0.5774109 -0.19644956 0.44927022 0.62772673 0.84467006 0.7345634 1.3240832 0.10976995
단어_305 0.9730636 0.06849429 -1.3342005 0.38427237 0.40348262 -0.85677934 0.18765582 0.23738055 -2.1293654 -1.3154738 0.075873844 -0.6871225 -0.38156357 1.5546302 -0.6221198 0.5167142
단어_306 -0.7668888 0.55742556 -0.32952678 -0.093718894 1.989397 -0.21461894 -0.112934455 -1.4006941 0.6498484 1.5678335 -0.19930227 1.366387 -0.43301898 0.08076673 0.65655476 0.16314809
단어_307 -0.61246413 -1.1890765 0.4637132 -0.33005 -0.5907192 0.45599908 -0.8088557 0.009160404 1.456633 -0.28802603 0.8125835 -0.99948174 0.087740414 -0.010672912 0.20683123 -0.6057251
단어_308 -0.22846527 -0.62159985 0.30222452 1.1645974 0.13910648 -0.93209374 -0.5142724 -0.11219596 -1.1403389 0.3815888 -1.2574657 0.36870316 0.78879726 -1.0418648 0.6290917 -0.5495957
단어_309 0.50402164 -0.6234996 -0.10394649 0.8645752 1.0276802 0.1963752 -0.2661654 1.5498036 0.3807033 -0.41730368 -1.5070605 0.32793513 -2.362326 -0.433431 -1.3648723 -0.048671648
단어_310 1.4172463 0.30107734 -0.21884035 2.165524 -0.59589547 3.120466 -0.97276187 -0.46831062 0.8141197 -0.17961943 0.85911703 1.314518 -0.5806237 0.42314836 0.47508132 0.6002735
단어_311 -0.62727386 -0.98613054 0.6418215 -0.84774536 -1.4063653 -2.128433 -0.2671698 0.5043649 1.0338818 -0.41292474 0.46209794 2.5799954 -0.89940864 -1.662206 -0.3586708 0.45983177
단어_312 0.72156096 -1.149217 0.78254896 -0.6784416 -0.30229518 -0.1107126 -0.79622483 0.023500783 0.18865958 -1.1814986 -0.3789716 0.9103977 0.666887 -1.580534 -0.5464104 -0.74047256
단어_313 0.60799265 0.2042846 1.2690198 -0.6137528 -0.018314542 -1.1301794 -1.5560815 0.10729011 -0.753363 -0.09477804 -1.5041245 0.68460876 -1.7651185 -2.295778 -0.2855916 -0.9991551
단어_314 0.13834192 -0.10985992 -0.8005182 0.29076362 2.8885486 -0.4285463 -1.1865869 0.1970398 -0.47064456 -1.2214161 -0.46414548 0.06600913 0.15987898 1.5549006 0.12711142 -0.56322926
단어_315 -1.2263345 0.30957568 0.8766066 0.4723448 1.3554493 0.0023536312 1.2114424 1.392073 0.019717367 1.4314462 0.48295635 0.14447613 0.12462521 -0.67470235 1.8031901 -0.18555628
단어_316 -0.79422635 1.6715504 -1.321298 0.15752892 -1.7581981 -1.365817 1.0140831 0.67619604 -0.23412867 -0.22276203 0.55719846 -0.13000293 -1.0286705 -0.4488268 0.29550365 -0.42580917
단어_317 0.004972346 0.67993057 0.6931403 -0.35846576 0.54257226 -0.4405338 1.9417391 0.3599373 0.057042316 -0.44674534 -1.0933956 -0.06295803 -0.15332052 0.33111063 -0.40530717 0.61212957
단어_318 0.62136316 0.22302319 -0.32635504 1.2783008 -1.3916289 -0.5925373 -1.4269384 2.4075024 -0.90711224 0.5370325 -2.6642408 1.0297053 0.99008447 -0.97359675 -1.2484947 -0.17422295
단어_319 0.4026571 1.6367971 -0.075323224 1.1108695 0.35520926 -2.272316 0.8396996 -0.28434554 0.00035797775 0.005958644 0.187599 -0.29161853 1.0530463 0.5711564 -0.63539696 -1.0333532
단어_320 -0.035143297 -0.11411772 -0.15394232 0.01298012 -1.5088197 -1.4648098 -0.9192962 0.0007593593 -1.9284157 -1.4120157 0.3255879 -1.0318419 0.8988039 -0.94136864 -0.26925156 -1.1430018
단어_321 1.3109169 -0.86986935 0.26369137 -0.6672165 0.07079228 -0.17258544 -2.7121365 -0.17778978 -0.27929544 0.5202218 -0.7919102 -0.6661474 0.26096717 0.69387835 -0.5605803 -0.21852864
단어_322 0.58396304 -1.1197677 -0.70116687 0.2272565 -0.5507836 -0.05601517 0.53620166 -0.09470244 -1.0122759 -0.48723653 -2.0012095 -1.1946425 1.7851962 -0.7667701 0.80025274 0.08595485
단어_323 -0.0012304772 -0.5353574 0.03409112 -0.6257668 -0.3543456 1.845109 0.8212434 0.15739863 0.22390597 0.19558434 0.15483686 1.4838142 1.498116 1.7557471 -0.52694017 -1.4320972
단어_324 -0.5179406 1.144199 -0.21342345 0.7429257 -0.33667672 -0.5670805 0.24345176 0.5918414 -0.74827975 -0.036250062 -1.6001173 0.86236465 0.19694665 1.2479372 0.66068417 0.15891096
단어_325 -1.2878933 1.4227659 -0.9586222 1.8157274 -0.249102 -0.250495 0.22334366 1.7392129 0.2877233 0.27852595 0.8261765 -1.2339723 0.9949845 0.6420029 -0.004015619 -1.0531363
단어_326 -0.031887278 -1.5275081 0.7555367 0.8218292 0.04845138 -0.7129819 1.7616295 -0.3648549 -1.0156741 1.0166664 0.40680057 0.19313423 -0.16893242 -1.9964604 0.582601 -1.0257725
단어_327 -0.6351558 2.295046 -0.87712216 0.78800666 0.30864015 -2.0404186 -0.75005525 -0.16514808 0.7730952 -0.6507169 1.4373611 -1.6502092 -1.4285626 -3.046997 -0.25999603 -0.5168448
단어_328 -0.04799116 -1.7956002 0.639838 1.019497 -0.23118785 0.03231371 -0.20417409 -1.0794088 -0.7280481 -2.1095605 0.7561509 -1.1470907 1.62418 -1.0773578 0.77352697 1.1476423
단어_329 0.7224085 0.14158265 1.5454009 -0.11554405 0.21423505 0.63014954 0.9653086 -1.0538573 -2.7054608 1.0803417 0.7206389 0.37509698 1.7037907 0.1424204 -0.9101918 -1.008158
단어_330 -1.5123632 -0.40130222 -0.013302788 -0.08841657 -0.11892678 -1.4153193 0.10586393 -1.1856765 0.83767104 0.1851292 -0.4441653 -0.8355886 0.8715797 0.4173251 1.7957726 -0.4523853
단어_331 0.74957573 -0.81438094 0.1022864 -0.67441684 -0.011857051 0.8597821 0.5954323 0.73308676 1.1285981 1.5169567 -1.9012619 0.05386081 0.37387347 -0.7873192 -0.49276373 -0.90192
단어_332 1.5107569 0.93979335 0.991702 1.4754738 -0.18717775 -0.75817686 -0.26746812 0.9349288 -1.2416177 1.328712 -0.30140328 -0.18286698 -1.0370057 -1.8074516 -0.3659819 -1.0861527
단어_333 -0.28743607 -2.3216827 -0.30138543 -0.5482622 1.8756709 1.0259917 1.0987505 0.5724621 -0.030270576 -0.5431612 -0.8583565 -0.3712117 -0.015007604 0.717205 -1.367975 -0.7001351
단어_334 -0.7411446 1.1370528 -1.4762757 -2.0455031 0.4500493 1.4171233 0.18129052 -0.44576752 1.7144907 0.6329186 -0.4497082 0.38279754 1.0205501 -1.276784 -0.41458797 -0.5622424
단어_335 0.5797288 -1.4148372 -0.038553208 -2.4243276 1.287916 1.2725805 -2.035896 -0.6804773 -1.6223526 1.3301564 -0.3953552 -0.34595665 0.62918276 0.7294119 -0.08695015 0.17063583
단어_336 0.30600384 1.2137959 0.7754592 3.319837 -1.2688614 0.091890134 -1.6726272 0.38017508 -0.4511981 -0.9094138 -0.6630267 0.4029037 0.418984 0.09345968 -1.0029968 0.10353273
단어_337 -0.25940648 -0.44575623 0.20981957 0.94506407 0.20221558 -0.72657365 -0.08996188 1.4330672 -0.122190565 1.6495703 -1.2558495 0.59482926 -0.68395025 0.54183716 1.7641985 -1.5272125
단어_338 -0.0476777 0.68412703 -0.105893314 0.86815023 -1.9250382 1.2491176 2.3540316 -2.2356577 1.0027671 -0.10350195 -1.2092505 0.0743809 -1.556712 0.4172875 -1.3266692 0.39811108
단어_339 -1.2412375 1.7476614 0.59338063 2.409824 -1.1334496 -0.6578753 -2.1857905 0.07926998 0.7051714 0.5250307 -1.0202912 0.9274108 -1.9057451 0.48955414 -1.8185081 -0.8733968
단어_340 0.29411706 -2.1098638 -0.89075685 -0.83778805 -1.6816901 1.1980631 -0.21741521 0.21324609 -0.31823754 -0.76853853 -0.48000425 0.112185284 -1.4139777 -2.4144495 0.6883297 -0.7340057
단어_341 1.2821232 1.4791006 -0.5920831 0.76874816 -0.112331785 -1.4682695 1.1665661 -0.6711873 -0.70434815 -0.9144765 1.5645881 -0.19920851 0.37639475 -0.40926394 0.8300799 0.15805133
단어_342 -0.5098558 1.7467717 -2.376708 0.2392995 -1.1530715 -0.27189884 -0.5509489 1.8017513 0.95528436 -0.30225205 -0.48253876 -0.3051485 0.07767263 -0.01644592 -0.3155003 -0.9225229
단어_343 -0.5885814 -0.8904026 -1.5625823 1.8072914 0.8357858 0.37331766 -0.24580152 0.5634182 -0.33009326 1.8541718 -0.7369401 -0.40349847 -1.6456642 -1.0063651 0.7662787 -0.11155668
단어_344 -1.0905669 0.174402 -0.26179376 -1.1440063 -0.27511153 -0.10978066 1.4714434 0.47606146 0.18996498 0.11239455 -1.6448364 -0.6820654 1.6591527 1.305701 -0.71711254 -0.62310165
단어_345 1.4366583 -0.4748603 -0.26376438 -1.7224075 0.3004905 0.6356474 0.7353117 -0.41436732 -0.23578863 -0.3043049 -0.53751034 0.41562414 0.020993996 0.10612906 1.621641 -0.1449755
단어_346 1.0704336 -0.11278371 -0.8779283 0.2161474 -0.9302686 -0.91185415 0.570146 -0.45580545 0.74223274 -1.4885757 0.0717057 0.13540132 0.35405573 0.3114514 0.18637034 -0.7557162
단어_347 0.6724185 -1.7496984 1.8886348 -0.14818849 -0.20170276 0.1285337 0.09985631 0.9394151 1.43356 0.4023787 -0.83004117 0.15465309 1.3647664 0.60840654 0.07451468 -1.5468223
단어_348 0.5647773 -0.24474722 0.494003 0.20052256 -0.0721818 0.17460133 -0.47281656 1.4643795 0.30341697 1.4733255 0.45658958 -0.70367324 -0.2852147 0.13043492 -0.3777233 -0.46089154
단어_349 0.6231435 -0.53977776 1.3404337 -0.49308762 0.31019178 0.42538103 -1.3007722 -0.49051216 1.2112615 -1.1658106 -1.4551183 -0.36452168 -0.5158039 0.69166607 -0.25123993 -1.4897571
단어_350 1.239142 -0.83528984 -0.04421317 -0.23997605 1.3809847 1.396709 -0.37494558 -0.17113379 0.07757382 -0.5956986 0.662518 0.08198794 -0.27503434 -1.400696 -0.28667584 0.07269294
단어_351 1.9320995 -0.61612177 -0.48479983 0.9166387 -1.0201422 -1.4475617 -0.87414414 -1.4941943 -1.3571551 -1.3811582 -0.7529175 0.09164426 0.5041097 0.21126413 -0.8093231 -1.2537836
단어_352 1.644196 -1.1542912 -2.0799186 -2.4354656 -0.034043882 -1.1563591 -0.38942978 1.3870195 -0.36331052 0.6698801 1.0198275 -0.6623951 -0.21192403 -0.23904288 0.0180099 -0.72624123
단어_353 -1.8355078 1.8522725 0.7645095 0.25919518 -0.44307956 -0.18956482 -0.13932052 -0.3775838 -1.7531148 0.54477847 0.066737436 2.0054276 -1.0372589 0.5406306 -0.8549464 -1.4737695
단어_354 1.2836719 0.16494317 0.7647244 -0.374714 1.7834028 1.2577502 -1.1928118 -0.54966545 0.0489415 -1.1077027 1.6081201 0.49437115 1.5933995 -0.7353999 -0.83536005 -0.09210525
단어_355 2.665476 0.52067137 -0.58490837 -1.960853 1.154469 -0.9920046 0.6731507 -0.96139234 -1.1029453 -0.05178651 0.45232993 -0.30513477 -0.5179103 1.2210948 0.013261611 -1.5435036
단어_356 -0.79634297 1.6805378 0.57220906 -1.6472677 -0.52979106 -0.52307796 0.7897001 -1.2705257 0.7477708 0.409943 -0.32484925 0.42700207 0.38173035 0.6920017 0.07247339 -0.112381466
단어_357 -0.32733884 1.0876373 -0.36524487 -0.8448446 0.003176608 -0.01656563 0.7736038 0.35531706 -0.019302074 1.3314052 -0.90818 -0.05544653 -1.6101087 1.1186824 1.0311406 1.6440344
단어_358 -0.44939655 -1.8839945 -0.8390283 -1.7229191 2.366984 -0.0015044886 -1.0419906 -0.63147914 1.1434247 0.78436714 1.7172177 -1.4748814 1.1893992 0.9940008 -1.2348771 0.90345246
단어_359 1.2631282 0.3035585 0.65532947 -0.4727336 0.9064826 -1.270568 0.18125068 -1.6165024 -1.9433857 -1.986698 0.82528067 1.2781365 -0.22422144 1.2567017 -1.6535343 -0.6961136
단어_360 -0.66270477 0.8579398 0.4821013 2.1617386 0.19015236 1.6895723 0.96247274 -0.25464135 0.06176231 0.12076566 -1.4049777 0.7021339 -0.1823305 0.17416458 -0.7098402 1.2216923
단어_361 0.34596193 1.341884 -0.8749854 0.88702565 0.093138665 -1.7041415 0.23025714 -1.9744121 0.5287045 -1.7200632 -0.76072735 -0.9521375 1.8175352 1.8889326 -0.17314605 -0.83127654
단어_362 -0.2235253 0.2931325 -1.352913 1.7840372 -0.9087287 -1.5479046 1.4055226 -0.76189053 0.2707224 1.262149 -0.008938262 -0.6902867 0.38185725 0.51622605 -1.0092876 0.34989604
단어_363 0.6977385 1.7352619 0.67889476 -1.0437354 -0.67203933 -1.2075316 -0.61229384 -1.1536629 1.3447549 -0.8710515 0.30338717 -0.43852523 0.9922912 -0.8987589 -0.8245774 0.20523646
단어_364 -1.775301 1.1408739 -0.48078167 0.111512534 0.48538387 -0.10892975 -0.009549668 -0.57017154 0.5996307 0.27274537 -0.7572445 -1.538994 1.4848337 1.0485184 -0.45865637 0.7113038
단어_365 -0.8832332 -0.35096085 0.4692635 -0.2234166 -0.7237679 0.45930743 0.56884485 -0.22141995 -0.057560228 -1.3241309 -1.6319499 -1.0418992 -0.2933167 0.24361731 0.47996736 -0.12094023
단어_366 2.6237044 -2.5147984 0.37991253 -0.7457645 -0.91419643 1.1381531 -0.17055966 -1.2268722 -0.9499558 -0.68747663 -1.4181772 0.16005571 1.8143768 -1.1262211 0.19356382 0.7320635
단어_367 -0.8801655 -1.6394409 1.1539898 -0.13290943 0.6965562 0.3066033 -2.074172 -1.7228438 -0.8441848 1.7137635 0.34282276 -0.43552017 -0.97588986 0.012923759 0.07812957 -0.38963425
단어_368 -0.9332704 -1.0595306 0.13342373 1.042506 -0.15983443 0.6592177 0.5461892 -0.06702321 1.3747848 -0.45318446 1.0821501 -0.8173201 1.3875157 0.3080452 -0.9516785 -1.2404368
단어_369 1.0605733 -0.464874 -1.7503233 -0.39289328 0.38681063 1.776148 0.6245585 -0.27378094 -0.21164194 0.09265847 -0.25364858 0.41101423 0.46101415 0.49092054 1.4107976 -0.6852145
단어_370 0.12516175 -0.62902725 1.0623206 -0.4718779 -0.02996681 -1.7236283 1.8267318 -1.0134164 0.8108518 -0.6507069 -0.16115181 -0.4305541 0.13030961 0.46432197 1.6856474 1.1680686
단어_371 -0.80420464 -0.4362374 1.3465712 0.3260125 0.07507645 -0.2005486 -0.10946077 1.466074 0.6837083 -0.19349952 -0.24244502 0.5455375 -0.30307403 2.1639824 -0.0263132 -0.49570647
단어_372 -1.8980342 0.76402056 -0.5879381 0.075869136 0.29867476 -0.06421468 0.95785326 0.7237017 0.5114004 2.0658965 -0.67499125 -0.2846622 0.030877486 -1.1732539 1.0004518 -0.631251
단어_373 1.6729032 -2.7159777 1.8559471 -0.94147015 0.13265316 0.26823837 -0.35418597 -0.8776524 -0.8464093 -0.74273825 -0.42159173 0.50216466 -1.2692516 0.5371993 1.1945597 1.888992
단어_374 1.548093 -0.32248825 0.9452911 -1.2087353 -1.2956039 -0.24030258 -0.110462874 -0.11479291 -1.4973892 0.89982605 0.3519914 -0.16573669 -0.83728474 0.43679902 2.7632768 1.2194062
단어_375 0.8461382 0.5872705 0.06805407 -0.854304 -0.54338014 -0.73777324 1.4767495 0.09642694 -0.83192664 -0.24231224 1.9941814 -1.8438703 1.5339675 -1.3035467 -2.5067518 -0.13016345
단어_376 1.0893676 -1.6132733 -0.7997844 0.6284176 0.7135756 1.2048541 0.21932848 0.84564626 -1.3811284 0.68283534 0.09700164 -1.4287834 -0.6704753 0.5110482 -0.076537706 -0.8162941
단어_377 -1.9179841 1.1336342 -1.2602917 -0.5268761 0.57529736 -0.42543367 -1.5835991 -2.3942468 0.12546383 -0.33566073 -1.6955277 1.1068292 -1.2568659 0.63512224 0.5442748 0.03403882
단어_378 -0.74365824 -0.6630472 -0.04783407 0.07754034 -0.24609078 -0.32604483 -0.720404 -0.51595867 -0.4807014 -0.34944364 -1.9143374 0.5641076 0.15334347 -0.5563769 -0.54351515 0.08311884
단어_379 -0.041813854 0.6854757 -0.17147568 -0.043912288 1.927339 0.32083964 -0.058716748 0.40373525 -0.9284224 0.08094166 -1.1577678 0.5102922 -0.60642993 0.76767945 0.08305882 -0.3615191
단어_380 -0.451646 0.14123118 -0.64937866 0.9944245 1.612607 1.0288737 -0.2186251 0.8303004 0.7672046 -0.010978735 -2.307054 -0.41730833 -1.2054325 -0.9778301 0.34918603 -1.0601215
단어_381 -0.41781655 0.3817619 0.35476202 -0.39561483 1.3618288 -1.3577683 -1.2892848 -0.01592943 0.20074932 0.2583185 1.792414 -0.14937079 -0.3934841 -0.22739942 -0.20854673 1.4468081
단어_382 -0.29238704 -0.6694435 -0.763708 -0.38333172 0.6014714 1.9403913 -0.31626102 -3.068232 1.634563 -0.44680876 0.96630245 1.655758 -1.617036 0.56053746 -1.2535257 0.20371754
단어_383 1.9511185 0.4160054 -0.6233789 -0.94287413 0.4362934 0.3256928 -1.4366524 2.1634498 -0.83837414 -0.01955598 -0.001010516 0.79967016 -1.2406964 0.3148692 -2.3747723 0.7004065
단어_384 -0.974961 -0.7130071 -0.025660163 0.43513963 -1.2485018 -0.1719141 -1.042676 -1.2029938 0.8363409 1.4057157 0.75526136 -0.49101704 -0.5414003 0.070398875 -0.46914533 -2.4451654
단어_385 0.05504414 -1.10443 -2.4559755 -0.38233358 -0.90451646 1.0291529 -1.5334569 0.19749479 -0.34355858 -0.5424108 -0.025470529 0.2320152 -1.7409972 0.47512126 1.809058 -2.2067854
단어_386 -0.24476787 0.968884 0.06937293 1.1547781 -0.91784865 -0.845094 0.46610966 -0.9026428 0.93294734 -0.29201806 -1.921207 0.53761077 -1.8247079 -1.0548853 0.008586065 2.5919614
단어_387 -1.235371 -0.39952904 0.16686106 -0.8372639 0.73365355 -0.90149826 -0.7038074 -0.9509299 0.18652083 0.5902868 -0.40678322 -0.16981885 -0.28489473 -0.030738689 0.15077975 -1.2184331
단어_388 0.027463134 -0.40172082 -0.05255054 -0.009765343 1.8595643 1.1174642 0.4093221 0.56164455 -0.5659348 -0.034764454 1.3486762 0.38644096 0.3766392 -0.49925208 0.6940404 0.77462006
단어_389 -1.1954331 0.37172312 -0.6490923 -0.5339318 -1.199783 -0.21904863 0.91475505 0.21524002 -0.131938 -0.44405234 -0.3519834 1.8813174 -1.6485034 1.5370991 -1.2384349 0.3590444
단어_390 0.06914742 1.0479761 -0.85645026 -1.4267082 -0.12783171 1.9327849 0.30739006 0.00990442 -0.065544836 -2.9579449 -0.121825345 -0.7541002 1.1126599 0.6352296 0.2961656 0.20013072
단어_391 0.70065516 1.8712364 1.2336136 -0.7791608 -1.0715493 0.34263623 0.48566815 0.092168 -0.8102592 0.2924291 -1.1115671 0.3004259 0.6813433 -0.35798398 -0.36843193 -0.028403603
단어_392 0.17482428 0.2365285 0.7534304 0.8010714 -1.6908214 -0.14070407 0.8211327 -1.2055639 1.4491841 0.5660506 -0.93615806 -0.0030640396 0.4488205 1.7887496 2.648553 0.80104005
단어_393 -0.42566654 0.88567513 1.0393534 0.8736467 1.7252692 0.1759535 1.4096934 -0.16699453 0.6861888 0.28006646 1.1671903 -0.9968317 -0.115119234 1.2967932 -0.016012324 0.59078795
단어_394 -0.46013224 1.4808272 0.17210717 -1.5657706 -0.21240689 0.848031 0.0031174927 -0.751757 2.2168698 -0.47018617 2.5862076 1.17545 -1.2451075 1.4679074 -1.5909697 -0.13614531
단어_395 2.6105404 1.918833 0.6175125 -0.07614444 0.15106995 -0.5276419 -1.2086033 -1.147917 -0.49746576 0.6293355 0.3557489 -0.07815782 0.2946285 -0.3935523 -0.85875046 -0.0078997845
단어_396 -0.21609126 0.016068244 -0.2129247 0.68373495 -0.52059656 0.94557685 0.24214658 -0.7055062 0.026754733 -0.26882115 0.05791891 0.509826 -1.2970097 -0.47600514 -0.5214744 1.0469325
단어_397 1.3466868 -0.48304006 0.3822052 1.7334591 -0.8310954 0.37371975 -0.62301934 1.0113678 0.3449731 -0.21691574 0.49474907 -0.2642624 -1.0663269 -0.4628094 0.2690139 -0.39779094
단어_398 0.50858134 -0.8352364 0.32755324 -1.9081928 1.8005526 -0.17823818 -0.5077484 0.016225265 0.5456291 -1.9141886 -0.48961708 -1.7326605 0.8561291 -0.65826297 0.33506724 -0.893376
단어_399 0.5789926 0.7210811 1.333694 0.78049064 -0.1884161 0.35886723 -0.20873609 -0.73759985 0.16587953 0.4253264 -0.76982844 0.12886782 0.49106225 0.51751375 -0.5397931 1.201993
단어_400 0.08203417 1.1717188 0.054090213 -0.058154393 1.0499506 -1.0740036 1.2851946 0.897203 0.10356853 -0.84397256 1.2392694 0.49206302 -0.6895515 2.2147923 -0.21040456 1.9120188
단어_401 -0.49748245 1.5180998 0.1479561 0.11897493 2.1204984 0.24301769 0.0842435 -0.5945236 -1.262316 -0.4146461 -0.24884722 1.279727 -0.7837161 0.6750494 0.30230328 0.07872126
단어_402 0.550015 -0.4460056 -0.3876851 0.24839614 -0.48113683 -0.21517669 -0.2084852 0.09908825 0.07440792 -1.5161101 0.48485246 -0.06697687 0.98722863 0.20925732 0.5743437 0.47504812
단어_403 1.6380517 -0.048486747 -0.5827259 0.40560746 0.71400446 1.2750459 0.7918744 -0.5650301 -0.15857793 0.9850885 -0.8584602 1.4338808 -0.5653997 0.997104 0.45602185 -0.35303652
단어_404 -0.26526737 1.3579819 -1.4439217 0.86731315 1.1274428 1.2641307 -0.09977938 -0.79815567 1.1095268 -0.598685 0.74244165 -0.96539617 1.1274515 0.37258333 -0.03952899 -1.8674982
단어_405 -0.5244144 -0.47038433 -1.3796645 1.229287 -1.0467502 0.031891923 0.85685104 -0.9734364 -0.26243854 -1.2918111 1.2029518 0.7161208 -1.4931376 0.31682214 -0.7482239 0.62002736
단어_406 -1.0071234 0.89041364 0.7016793 -0.88518167 0.2009794 -0.8571981 0.33789062 -1.2216424 -0.50237566 -0.12827945 1.8111187 -1.0854185 -0.44968277 1.050982 0.5380072 -0.17746085
단어_407 -0.7781861 0.89416647 0.11132755 0.88701683 -1.4578265 0.57590884 0.1888065 1.9277484 1.7394346 -2.1384287 0.10099335 -2.4866722 0.33915576 -0.8371145 -1.323805 0.59155935
단어_408 0.10666505 1.3054429 0.039290998 0.5836095 -0.12620057 -0.44365638 0.21928503 0.50206375 1.2144564 -0.75222164 -0.705352 -0.40057093 -0.32345852 -1.0973369 -0.1997534 -0.8839611
단어_409 0.9021427 1.3013234 -1.1335716 0.22089541 0.9272301 1.5216584 -1.424396 -0.43512145 -0.8500563 1.4586891 1.2608494 0.26971143 -0.6806857 0.15326457 0.38619855 0.05065013
단어_410 -0.04061621 2.7394187 -0.88937074 0.36680064 1.2662144 0.49622878 -0.24127635 1.0314497 0.21136975 0.28596434 1.7315224 0.024675818 -0.7529063 1.670616 1.2613766 -0.554513
단어_411 0.15079445 -0.36466667 -3.0561802 -0.6964496 -1.3637373 0.4843299 0.5728879 0.07390933 -1.9002675 0.56934696 0.98681223 -1.1818292 0.9190635 3.3232708 0.14849819 1.1867949
단어_412 1.9395449 0.30445594 -0.95652235 -1.2562075 -0.2550645 0.71960413 0.085366584 0.58009106 -0.6221294 -1.7020311 0.5303746 0.89848405 -0.8471107 -0.2823322 1.3676947 0.37957048
단어_413 -1.3208678 -1.155415 -0.49054652 0.21535116 -0.48191962 -0.023168575 0.6582498 1.5643848 -0.8026681 -1.2542527 -0.08157871 -1.0363674 -0.76024365 0.059343416 -0.8166483 1.4152075
단어_414 1.1460705 2.4258738 0.23518379 -1.4607977 -0.8206981 1.1097257 1.8517317 -1.0218837 -1.5236937 -0.59044355 2.9700642 -0.030244892 1.0254763 -0.103713304 -0.18641031 0.341996
단어_415 0.9001727 2.4322658 1.5357238 -0.6673469 -1.5460216 -1.5555251 -0.13112338 0.023672849 1.413647 1.3016461 -0.27341306 1.7222666 -1.0708172 0.30922183 0.39635175 0.38091287
단어_416 0.37072086 0.6574926 -0.07162289 -0.50212544 1.7534297 0.83530515 -0.512092 0.7868682 0.31139815 0.031337075 -0.17871664 -1.2600557 0.010119736 0.8345397 1.3191031 -0.73189324
단어_417 -2.8517325 -0.67693865 1.5679504 -1.9003825 0.7722602 -1.027736 -0.8272086 -1.9686986 1.6328045 1.5769475 -0.6748882 -0.41015232 -0.21410449 0.72088397 -0.03668238 -0.7140922
단어_418 0.62566173 1.0826999 0.30212918 0.3464873 -0.38740948 0.08964282 0.41028142 -0.72034603 -0.5971453 1.5513687 0.2235061 -0.41898152 1.5482341 -1.438803 0.03127206 1.0643113
단어_419 -0.15088624 -0.13413015 0.3633585 -1.2796599 -0.059815753 -0.9753036 -0.043838028 -0.1607555 -0.548987 1.00127 -0.9157425 -1.1551203 0.895766 1.1242917 -0.07745492 -0.80803925
단어_420 0.9123615 2.7622728 -1.4917661 -0.38454884 -0.04556797 -0.8850302 -0.71197325 0.018450463 -0.966103 1.1226126 1.4539611 1.7869779 -0.40772504 1.9224361 1.6585879 0.2010378
단어_421 0.38884172 -0.7394851 0.28574267 0.6129718 -0.43708915 1.3393241 -0.2616881 0.4621473 0.9215632 -1.1228237 1.284731 0.17804538 -0.41127992 1.264367 -0.37439182 -1.1570075
단어_422 0.5443558 -0.6670514 0.13320397 0.7794526 0.6658914 -1.5738105 -0.5917912 -0.7010832 1.4478904 0.20624444 0.3113977 -1.6190143 -0.031659655 -0.75901556 0.16763212 -0.39246687
단어_423 1.8927168 2.04032 -0.9357726 1.4369438 -1.9598808 0.30127266 1.1025642 -1.1084555 -1.4322015 0.75673383 0.028636334 0.02539629 -1.3006164 0.65727615 0.44800842 1.5208594
단어_424 0.22842012 0.6103259 0.12271358 0.91853976 -0.15556529 -0.46174347 1.0933741 1.2323247 1.0985018 -1.4902295 -1.0099233 -0.12874639 -0.4150694 1.373817 1.1231767 0.89365935
단어_425 0.11143875 -2.2995546 0.57578576 -1.2493051 0.42564216 0.73400617 -0.47128004 0.720716 0.30924347 -0.069536366 -2.9802337 1.7976263 1.3310415 -1.1568072 1.4108461 0.02116339
단어_426 0.80971086 0.40015692 -0.6931411 0.088581614 0.6431356 -0.15718049 -0.006920006 1.0521508 1.5421609 -0.6876406 -0.039788514 -0.34836066 -0.5543492 0.45492405 -0.13984266 0.1143176
단어_427 0.57310414 -0.26697043 0.3359866 -0.16439168 -0.023578329 -0.68501073 -1.4804585 -1.5504814 0.69528264 -0.34327042 -0.16008298 0.17750633 -1.7763101 1.5991617 0.17566215 0.7658029
단어_428 0.8644129 0.15312223 0.22373909 0.39029709 -1.5746349 -0.52772653 0.88179016 -0.22239473 1.4793935 -2.13095 1.9281124 -1.8088415 -0.15840368 1.3511878 -1.19437 1.3164462
단어_429 1.4648036 -1.3585962 0.6911163 -1.3017968 0.5099522 1.3904028 1.0949169 0.6614569 -0.2820766 0.8783738 0.93482184 0.953451 -0.23754603 -0.15058719 -0.74895334 0.26162934
단어_430 1.6860847 0.32545468 0.6800218 0.8315364 0.74332184 0.3031389 1.3231688 0.039233208 -1.4124382 0.32538316 2.1117387 -1.0741078 0.4473762 2.967522 0.87257314 0.8333829
단어_431 0.7843696 -0.117064774 -0.55274653 0.5147415 2.221408 0.045952737 -0.0009389181 0.71552604 0.41688547 0.04302025 0.25462714 1.6751789 -1.9451654 -1.0209113 -1.6688358 -1.5016702
단어_432 0.96004343 1.3849328 -0.2589275 0.2549226 -0.20596634 2.1518052 -0.24576975 1.2399709 -0.32198653 0.29071486 -0.91340536 0.37725905 1.3882552 -0.011872893 0.33657578 -1.4154743
단어_433 -0.7175787 1.763695 -0.085926555 1.7454729 -1.5466505 -0.8860401 -1.0251353 -0.048177134 -0.71637994 -0.5014633 0.5074902 1.0828997 -1.2005955 -0.3885612 -0.7598717 0.5859159
단어_434 1.8883895 0.8562693 0.38144413 0.4764434 0.40786383 -1.5112615 1.2904347 0.303992 0.36994568 -0.87443256 0.07771858 1.2359028 -0.6706449 0.5655077 -0.18917662 -2.1908872
단어_435 0.84818125 -0.5981413 -2.817484 -1.0742382 0.8743508 0.38944092 1.9389212 -1.9642047 1.010461 0.6417883 -0.8966171 -0.6406352 -1.3866214 1.997193 -0.44002575 -0.8496791
단어_436 -0.02950741 1.5478584 -0.36532357 -0.9734495 0.9738824 0.7034207 1.1159968 0.8898006 -0.4332752 1.0669833 0.23141637 -1.1274219 1.1395878 0.02933578 -1.0745838 -2.3633885
단어_437 -1.3686655 1.9413695 -0.20103854 -0.74339426 0.49789235 -1.4395363 0.49472684 -2.5956218 -0.115968615 -0.7478289 -1.5766029 -0.6980489 -0.3220598 1.3271977 0.40153098 0.94499636
단어_438 -2.0839193 -0.14605847 0.8184343 -1.2964671 -1.1647556 -0.262161 0.5341502 -0.8696689 -0.4321822 1.6655306 -0.55251586 -0.39509526 -2.3614352 -0.8479342 0.49427557 -0.25605413
단어_439 -0.6457157 0.5022915 -1.293106 0.41481143 1.7232409 0.45319036 -0.5772531 0.019508583 0.47953877 -1.1804631 -0.1786933 -0.31889123 -2.0013762 0.031588964 0.31891268 -0.8199169
단어_440 0.1552753 2.5032313 1.0693989 1.3633854 -2.5443478 -1.1315354 -0.47361502 0.36602518 0.896927 0.14994898 -0.3388931 -0.24754228 0.96145755 -0.60073423 0.4541079 -0.8425537
단어_441 1.3551793 1.5482237 0.5557105 -1.0525494 -0.23296832 -0.51939815 0.0033823836 -0.6243383 0.052257545 0.06969091 -0.44730726 -0.22295468 1.109767 -0.63864344 0.34730798 -0.7486049
단어_442 -1.5681008 -0.0097773 -1.4263586 -1.4451251 1.6560869 1.2883381 -1.3629184 1.2826647 0.0035970553 -0.9142546 0.10783659 -0.7565165 -0.28286603 -1.8413432 -0.26663178 0.098565705
단어_443 -0.4765245 0.26611537 -0.1608796 -0.87400955 1.1805754 -0.37415153 -0.9923648 -1.903321 0.069240585 -1.5342293 0.30262953 0.005319596 0.41560766 -0.6884369 -0.020180339 0.9581451
단어_444 1.5350027 -0.9982836 -1.1577395 0.344601 -0.87850845 2.2475052 0.59166884 0.24439107 -1.0530301 1.0845108 -1.5095983 0.19375184 0.9687342 2.0775874 0.09797432 0.7236992
단어_445 -1.7615778 -1.4435955 0.80017984 -0.048749067 0.22664504 -0.73161536 -1.712661 0.8387833 1.230049 1.8378481 -1.703942 1.6549978 -0.092244565 0.7737078 -0.76326776 -0.37735483
단어_446 0.8153412 -1.0279756 -0.52147853 0.57409894 -0.5392405 1.4428428 -2.0290384 -1.4253974 -0.31931138 1.8133167 -0.084324375 0.13853778 0.37467164 -1.3489496 0.69687665 0.54877573
단어_447 1.6207145 2.2787175 1.1650223 -0.21050583 -0.3412685 -0.8659923 0.04076823 -0.8164066 -2.5266967 -0.5802079 -0.91014254 0.4797993 0.0140620945 -1.0359454 -0.35709304 -1.0093576
단어_448 1.2390091 -0.5570049 0.6527831 0.7094437 0.34133306 -0.19638972 1.1462142 1.5223671 -1.302718 -2.2032967 -2.2262967 0.02952975 -0.7941152 1.3561193 -0.6034522 1.4859859
단어_449 0.4910627 0.28395113 -1.434372 -0.76629376 -3.1314793 0.43562648 0.42562208 0.33400115 0.558021 0.56513447 -0.6793897 0.23932652 -1.7781823 0.39507392 -0.87702537 -1.4045451
단어_450 1.5474793 -0.43438968 -0.15692702 0.43472865 -0.9735158 0.8147686 -0.15242255 1.1218349 -0.31029868 2.0532608 0.7401138 -1.0331566 0.40014356 1.9483966 -0.38935462 0.21121657
단어_451 -0.45693856 0.16512947 -0.8049826 -1.5155138 1.5022843 2.2999244 1.0025824 0.4778688 -0.5411063 -0.09109489 0.68174106 -1.6391188 -0.49821514 0.26027262 -0.27957135 0.12700473
단어_452 -0.40002105 0.4268878 -1.2233843 -0.2635632 1.4693607 -2.186142 0.7889878 -0.111901835 1.3337042 0.21822779 1.0875922 -1.5097336 -0.7232259 1.652178 -1.1851114 0.15572198
단어_453 0.51383156 -1.0704378 -0.43899283 -1.8129578 -1.3744462 0.6465324 -0.48816767 0.7106653 -1.4684887 -0.39926603 -0.68474525 0.3170897 0.27514789 -1.291474 -0.58614373 -1.3659217
단어_454 0.04562774 0.90883845 -0.24238057 0.7301537 0.77563566 -1.3094776 1.696657 -0.2843695 -0.46682298 -1.4386637 0.6917418 -0.34182566 0.62816656 0.84754926 -1.8693922 -1.6333998
단어_455 0.4514775 0.12280642 0.83979297 -0.48183912 -0.1270542 -1.0155909 -0.2604236 -0.19847314 0.9116107 -1.27108 -0.060906474 -0.0073329112 -0.73516405 0.9238882 -2.686636 0.39542794
단어_456 0.5923185 1.343341 0.43367845 -1.287491 0.31116852 1.4894282 -0.47227195 0.77875 0.096036136 0.3546988 0.7999244 2.1989272 0.8683848 -0.33194375 2.1161509 0.6085534
단어_457 0.68040514 0.1581604 1.4227694 0.5604655 -0.12875004 -0.50956494 0.9683182 0.6432 0.1946201 -0.4395255 1.4318452 -1.1414723 -2.094551 -0.42565343 2.4779193 -1.3488777
단어_458 1.3885738 -0.61870414 -1.6007013 0.59692335 0.91609025 0.51732653 0.46959677 -0.556547 0.17649645 -0.47293085 1.5337216 1.6592975 0.46771535 1.22045 0.3745367 0.83685386
단어_459 0.026208198 0.57868177 0.2501611 0.33473966 1.453963 -0.22786501 1.3443791 0.46271604 0.16288857 -1.432199 -1.9571269 -0.2266095 -0.61837596 -1.4881425 0.4762135 0.31878453
단어_460 -0.11652665 0.124491945 0.9818732 -1.2086468 -0.06965867 -0.19147985 -0.7244037 -1.131037 2.3895466 0.51336676 -2.0115933 0.6126021 1.8838813 -1.7375263 1.0113789 0.7912041
단어_461 -0.7323048 0.6064767 -1.1474906 -0.7201254 1.2742356 -2.24701 0.9635254 -0.20988703 0.5869881 0.42701474 -2.5151157 0.18522064 -0.60683745 -2.0913396 -1.4718148 -0.60335404
단어_462 1.4707191 0.25790378 -1.0286752 0.322319 -1.1180079 -1.7613041 1.2858759 0.35161144 0.8226808 0.88841105 0.1937643 -1.1398002 -2.1512706 -0.6087094 -0.37989652 0.75578153
단어_463 -0.84263957 0.5053185 -1.3296124 -1.6537049 -0.2870459 -0.99257845 0.08970098 -0.06997116 0.5072534 1.4469837 -0.38975447 1.8220147 0.4721714 -0.16715842 -1.1646209 -0.06949314
단어_464 -0.7022633 2.115941 1.0357589 -0.16562405 -0.022121336 1.5556312 1.2855122 -0.025151214 1.6342922 -1.2703825 -0.10224425 -0.030597098 1.249229 -0.45955873 -0.6480383 -0.9713404
단어_465 0.25367454 -0.2956966 1.6560915 0.088306114 0.196348 -0.15847524 0.43440217 -1.3697499 -1.1525817 0.9587581 -0.013558067 -0.0357887 -0.42542008 1.6695718 0.3929993 0.24511227
단어_466 -1.860819 0.80219686 -0.49184802 -1.1433389 -0.2615408 0.90870106 1.5628737 -0.15189864 -0.11940589 -1.8562096 1.7653137 -0.062079865 0.44226956 -0.48175433 -1.5743127 -0.80725837
단어_467 0.688179 -0.7814408 0.40104443 -0.6077786 2.6631215 0.9985242 -1.1869887 -0.8507454 -0.56020653 0.5284611 -1.0067972 2.1837666 0.022115929 0.83670264 -0.31935826 -0.15295081
단어_468 -1.5218515 0.3857446 -0.9174747 0.6138327 0.31800076 -1.8010706 -0.9846548 2.4058583 -0.10046939 -0.30177042 1.1261452 1.5079625 0.41566983 1.8389573 0.04309697 -2.1333735
단어_469 -1.2589607 0.028324116 1.0521402 0.49555662 1.7736224 -1.8728579 -1.3965627 -1.0205724 -0.5947189 -0.42736676 -0.7369384 -0.36401457 0.20691547 -0.6949956 0.7050032 0.0673776
단어_470 -0.46490994 0.19592175 0.9833645 -0.6862588 0.79384154 0.58296824 -0.17003815 -0.39886904 0.85297364 -2.0629642 0.01833461 -2.5901442 0.45290723 0.16148335 0.031772867 -0.5683273
단어_471 0.42237753 -0.44585887 0.8283795 -0.67281985 -0.8425747 0.23419605 -1.1597081 0.4386967 -0.7474083 -1.615763 1.2047017 -1.2956967 0.91205853 -0.79460806 1.5361989 -0.25382555
단어_472 -0.3022259 -0.108825184 -0.38651118 1.0571046 -1.2366986 -0.730662 0.9103816 -0.6295798 0.9339993 -0.19101785 0.9695994 0.79243803 1.9388 1.1698184 -0.5993179 -0.3674651
단어_473 1.5269152 -1.2492185 -2.594305 0.22446305 0.38618168 0.33389366 0.23567757 -1.1332208 0.31518272 0.2500459 -0.16598462 -1.0448762 0.8700897 1.3384926 -0.15398699 0.25346893
단어_474 -2.6975262 0.9773927 0.868013 1.3011343 -0.56755674 -0.8868573 -0.59136707 0.6446324 -2.2971983 -0.78886586 0.16731511 -0.64619124 0.16822712 0.783646 -2.7527592 0.8893715
단어_475 -0.47418252 -0.008601963 0.78519833 1.1220793 -1.307411 0.64806616 -1.0850232 1.156165 0.56980556 1.9825667 0.6404662 0.42232746 -1.0474768 0.33409864 0.02862031 -0.03348629
단어_476 0.78309894 1.3186541 -0.2699227 0.26668775 1.8572462 0.1631447 -0.23157437 0.5868037 -1.5842056 -0.17696404 0.14722171 -0.27187616 0.8583964 0.59035313 0.19871062 2.0370007
단어_477 1.1516492 -0.76427174 -0.26126373 -0.19205068 1.0156664 0.32752046 -1.2380639 0.41781008 0.065849535 0.38884795 -1.429646 1.3655515 1.2484936 -0.46859825 -0.026899528 -1.056491
단어_478 0.50758934 -0.45813668 1.3191725 -0.103237346 -0.24443786 0.692174 -0.68715435 -0.6596896 0.7410152 0.54361296 0.46569833 0.14957611 0.045021843 -0.5064016 0.88215303 0.025778238
단어_479 0.5343775 1.7730937 -1.681393 0.116569266 1.2163311 -0.9104064 1.9050277 -1.2917738 1.2279071 0.7226241 0.38660762 1.9525194 0.5331235 -0.46678674 -1.4524995 0.36815813
단어_480 0.9855675 0.00423615 -0.4083062 -0.27651286 2.0430055 -0.9829461 1.480203 -1.247129 0.01183608 -1.0424517 -0.20516156 -0.2880459 0.33618692 2.053121 -1.7174354 0.9186912
단어_481 -0.30066156 -1.3188826 0.8822997 -0.16790801 0.38196996 -0.49396908 -1.8979609 0.48694587 0.38941714 0.64281 -0.26931036 -0.067090265 -0.1519567 -0.48124695 0.988164 0.8065895
단어_482 -0.16841508 0.3192863 -0.14759457 1.442266 -2.3161294 1.838717 0.3569462 -0.34255296 1.8074504 0.6411278 0.39521113 -0.5662987 0.35644087 -0.7821114 1.1796958 0.42536122
단어_483 -1.5873538 2.1240795 -1.8459215 -0.22642939 -0.3745391 1.2215337 0.21621934 -2.3951883 0.64470875 0.004719687 -1.340595 0.18592131 -0.10287317 -1.2526041 0.13103658 0.3300582
단어_484 1.3133812 -0.6173321 0.5197259 -0.24196713 0.81439114 -0.9959388 0.8328947 1.4150296 -1.7055868 -1.0818542 1.767825 -0.051682558 -0.25147295 1.3949414 -1.9125196 0.50014335
단어_485 -0.32814375 -1.4926847 0.69371057 -0.77535945 -1.0047661 0.8252349 0.51102746 -1.4123528 2.018277 -0.12796615 -1.0634782 0.43760067 -1.7579968 -0.535615 0.71981466 0.77789706
단어_486 -0.3874322 0.029355843 -0.6065783 1.6957263 0.74203455 1.0016474 -1.7559891 -1.0839747 0.5075281 1.4171231 -0.50880235 0.5475589 -1.6161014 0.41653356 -0.041469116 0.7270157
단어_487 0.26256758 1.8199413 1.0668639 0.6371422 -0.09772335 2.7883346 0.020887172 0.083319746 -0.49617228 -0.68157464 -0.49690276 0.18881325 1.1923053 0.35015023 1.0053772 0.5314478
단어_488 -1.129964 0.7907224 -0.23058489 0.93238837 0.34629604 -0.68708533 1.9768933 1.3121247 -0.3000816 -1.0323424 -0.94590247 -1.2329024 -1.9863281 0.36655563 -1.0023555 1.2235696
단어_489 1.8545983 0.69947535 0.14178172 -0.50643754 0.15608926 -1.283026 -0.35183203 0.08116387 -0.81953275 -0.3221902 -1.5552677 -0.59417015 -0.46453997 1.9546549 -0.4886033 0.6371689
단어_490 -0.96804404 1.336688 -1.5784714 0.64329296 0.20004158 0.19618887 0.055214025 -1.2021674 0.42413053 -0.43204844 0.18971384 0.38563347 0.24944526 -1.4714171 -0.7960451 0.9719726
단어_491 -0.61055815 -0.45959753 -0.9961256 0.6562226 0.1969952 -0.47345662 0.76431876 0.2430718 0.0034651172 -1.3640918 0.51587063 -2.464862 -0.19957648 -0.047893714 0.79126203 -0.17905957
단어_492 -3.5076444 -1.0978029 -0.40629992 -1.2454439 -0.0047422904 1.8104956 0.015136788 -1.9254242 -0.3716566 0.25324824 -1.6799157 -0.71107274 1.1092131 -1.5869815 1.4175358 0.7622
단어_493 0.2137759 -0.7807989 1.3594629 0.29410073 -0.1358453 -0.054433994 1.9740773 0.36652943 0.2193584 0.62060684 -0.73714906 0.29814962 -1.9607037 2.2473607 0.65870565 0.060141142
단어_494 -0.105894856 0.08782547 0.52300113 0.85389745 -0.09915787 -0.80187666 0.96048254 0.004606058 1.1263926 -0.56505036 0.5587236 0.83174694 0.47603074 -1.4552763 -0.7593669 -0.9013602
단어_495 -2.1298249 -1.013041 1.269296 -0.738323 1.2754755 1.7394292 -0.92601424 2.1138422 -1.5002563 -1.3529736 1.4316496 0.29133353 -0.22261938 -0.7374155 -1.2827245 0.05614869
단어_496 -0.578395 -0.111968815 0.43335065 -1.1537077 0.2603526 -3.0377605 -1.093413 -0.107813194 -0.75675786 -0.19363953 -0.13784625 1.1949121 -0.70464224 1.3205703 -1.0878996 0.7476696
단어_497 0.6077817 0.62807983 0.350985 0.461863 0.43627608 0.4711545 1.0797651 0.08744586 0.24749972 -0.7270358 1.8110187 -0.122756965 -1.2270391 1.5521237 -1.6669236 -0.2612676
단어_498 -0.81745803 0.30461824 0.68518645 0.44211307 -0.4395436 -0.77420074 -1.0248604 0.78111476 1.3035969 1.1511754 0.038629394 -0.6292766 -0.2771826 -0.3437452 2.197001 0.18963078
단어_499 -0.021893846 2.246503 -0.47476858 1.0528377 -1.204733 -0.699032 0.14015506 1.1929104 -2.0389442 1.386653 0.08518768 -0.065854095 -0.41358313 -0.5123461 -1.0633093 -0.28423846
단어_500 -1.8033624 -0.10867651 -0.044530153 -2.5313497 0.78881645 1.6470704 0.22349653 -1.3843504 1.4905415 0.7509372 -1.8662121 -0.5157905 -1.0163106 -1.2614242 0.5315614 0.37747428
단어_501 -0.5562623 -1.8818203 1.7122113 2.135255 -1.0250983 0.21809371 2.20081 -0.84246063 0.069112256 -1.1609668 1.2064673 -2.0053484 0.101787046 1.5484189 -0.75619715 0.37557152
단어_502 0.005627572 -0.18349849 1.7848842 0.7388181 0.4902317 -0.54229087 -0.11035165 0.31808257 -1.9144529 0.5302948 0.98184365 1.4785222 0.44787702 -0.52956074 -0.3275249 0.2152428
단어_503 -0.07878868 -0.904408 0.33322763 -0.20524268 -0.15887979 -2.0200188 -0.112530455 1.1493202 0.13159648 0.39317253 -0.76648146 -1.3727832 0.7089505 -1.9123224 0.5650967 -1.4895875
단어_504 1.5623437 -0.0132603515 -2.4601536 1.5145017 0.37462333 -2.669915 0.63754505 0.41350478 -1.5097265 -1.4633533 2.7755373 0.16621864 -0.864422 0.8192764 0.5802852 1.5514371
단어_505 0.97959244 0.543331 1.1473564 -1.1805462 -1.0118287 0.4883401 0.84350944 -0.5212033 -0.951023 0.5612639 -0.9342053 -0.18722224 -1.5757205 -0.19634551 -0.050931677 -0.91306865
단어_506 0.448508 -0.6778201 0.6008964 -0.23142551 -1.710076 1.6402315 -0.38325453 -0.8666991 -1.0738872 0.1211994 0.02030586 1.0571979 0.9660181 0.97433764 0.011727218 -0.88756377
단어_507 0.25241402 -0.12463599 -1.7089783 -0.6801513 -0.9442815 -1.1942438 0.060923617 0.7371973 -0.66127867 0.78195745 1.5328293 -0.29016662 -1.225224 0.88483685 -0.5988165 0.5539198
단어_508 -0.5028732 -1.295555 -0.3177754 -0.6586245 -0.47657385 1.9213828 0.4529361 -0.74866366 -0.6431107 1.1274474 0.61831987 -0.8383367 -0.23300306 -1.9678929 2.02361 -0.32470888
단어_509 0.5945014 0.40868264 0.56528926 -0.17289695 0.41052967 -1.2326628 -0.17838885 1.2157431 0.24923179 -0.49866477 -0.11736776 1.6810994 -0.66279423 0.35950226 0.41070113 -0.8305366
단어_510 0.09347692 -0.4400176 1.4346823 -0.8131891 -1.7878755 0.52144533 -1.2238388 -0.65409 0.029319692 -0.06985059 -1.9176984 -0.38875005 0.57640135 -0.7667869 -0.76153463 0.20041828
단어_511 -1.8437805 -0.2141189 -1.0131668 -2.2910588 -0.35128218 -0.1206589 -1.2467278 -0.042685274 -0.39521936 -0.020030463 0.5372163 0.78849065 2.4661887 1.50328 0.95364267 -0.20773408
단어_512 0.043108046 -0.6707919 0.9627517 0.31791544 0.14394358 0.07209719 -0.34079516 0.41809323 -1.1203609 0.49673516 1.4102691 0.5679022 0.15664047 -0.17415006 -0.056827154 -0.56431067
단어_513 -0.03593941 0.30506733 -0.14974345 -1.247822 -0.6564062 -0.057627898 -1.298663 -0.4071773 -0.37511483 0.62900233 -0.9081002 -1.5848887 0.85035646 -1.3317639 -0.43134373 -1.492391
단어_514 -0.77769536 -1.6949686 0.22903539 0.7322256 0.33391654 1.0752753 0.13871402 1.7995238 -1.7716357 0.9060144 -1.2346156 0.8519283 0.13980204 1.5548538 0.95959705 -0.75837976
단어_515 0.45412958 0.4676482 -1.086501 -0.50092936 -0.13672003 1.2193927 -1.6124928 1.6956029 -0.06722501 0.016674042 0.19235222 -0.32481322 1.097622 -2.249566 0.41202384 0.30532944
단어_516 0.41134462 0.13256226 0.22325446 0.44197902 -1.9185326 -0.011640532 0.6316679 0.24056731 0.95620745 -0.35355964 -1.9731736 0.3022245 0.06352062 -0.026527306 0.10755785 -0.09359671
단어_517 -1.2186114 0.5487395 0.71728426 0.37665513 0.14967276 0.012907583 1.3096293 0.3787845 -0.7931662 -0.6408412 -0.117757805 -0.19611107 -0.90927255 -0.5604045 -1.2210714 -1.564728
단어_518 -1.2975347 -1.3864324 -1.1516839 -0.67846394 0.641347 -2.0913854 -0.7444716 0.043731615 2.1672785 0.82857484 -0.9926045 0.12180191 -1.174034 -0.7978458 -1.1861415 -0.092643335
단어_519 -0.52794826 -1.2032431 1.369179 -0.9922599 -1.9085845 -0.6333773 -0.9615529 0.086186245 0.10422072 1.4736419 0.22855797 1.4318231 -0.29127908 0.5951939 -0.29474312 0.18691018
단어_520 -0.040640533 -0.35318956 0.3216127 -0.06261288 0.32884648 0.003401262 2.7794917 -0.098143905 1.6191007 1.2270709 -1.148251 -1.0646163 -0.19317894 -1.4270018 0.19383185 -0.4710731
단어_521 -0.09597539 -0.5357719 1.1822228 -1.3949566 0.54323006 -1.1124301 -0.19928882 -2.5618079 1.021259 0.35220695 -1.5910193 1.6412957 0.14907007 0.30634502 -1.0236926 0.029098874
단어_522 1.375766 1.0233021 0.34350872 0.19194157 2.7432046 -0.087833546 1.4827987 -0.76374024 0.6150153 0.956519 0.9086537 -1.5104066 -0.65707076 -0.8413849 -1.1093286 0.21816517
단어_523 0.78597885 0.8708303 -1.8242924 -0.10121236 -2.121089 0.6192847 0.33144456 1.9776608 -0.93030983 -0.84304994 -0.18075083 -0.32059956 -0.46536842 0.5113867 1.6411813 -0.3984136
단어_524 1.5831132 2.2120798 -0.72548074 0.33072233 1.3324549 -0.24326915 1.5047531 -2.1588197 -2.1525946 -1.7284257 0.38697526 -1.899348 0.14440352 -0.89191043 0.6089791 0.4479147
단어_525 0.7600511 0.0014321813 -0.14548744 -2.309959 -0.52498645 0.03416734 -0.110321045 -0.41447037 0.747476 -2.9765978 1.0319606 0.040394656 2.0948782 0.10885424 -0.689338 -1.1245384
단어_526 -0.7806561 1.3444395 0.04292071 -0.85318685 -0.049308892 0.85132754 -0.52637637 0.69486046 -1.7010828 -0.1800836 1.6094474 0.043807846 0.6229791 -1.3618507 -1.2714936 0.0038764353
단어_527 0.36585778 0.8981193 0.80585253 0.1595217 0.119470164 -1.5707204 1.1617292 0.7766512 0.87346387 -0.4646091 0.7475866 -2.4641376 1.684221 -0.70932484 -0.71853936 -0.48246837
단어_528 -1.3923093 -1.3922561 -0.19775517 0.591084 -0.40690053 -0.30249244 0.5077717 -0.96763337 -0.2054576 -2.1790993 0.05690523 1.1134504 0.8812372 -0.29067558 -0.24912457 -0.40996775
단어_529 1.7509278 -0.5648791 0.99098974 0.64551336 -1.7366729 2.234839 1.4285364 0.52359563 -1.4005708 0.8804169 1.456873 0.28551084 1.714958 0.61384773 1.1106802 0.69609976
단어_530 1.5723977 -0.8980307 -0.59731895 0.70274335 0.7213015 0.5875859 0.5291161 0.46820438 1.662577 0.75865847 0.6467425 -0.63818705 0.5807112 0.4533877 -0.9123814 1.2541739
단어_531 -0.9016123 -1.4415579 0.05392898 0.7451355 0.03289031 -0.34844938 1.5691639 -0.001108988 1.7106031 -0.36798072 0.5113216 -1.1850929 -0.71092254 0.68042046 -0.2693597 -0.31645527
단어_532 -0.8067357 0.5809738 -1.5883243 -0.7213487 1.5478777 0.3275018 -0.48687258 0.23818043 -0.39064503 -0.19151627 1.9000896 -0.5640459 -0.38880318 0.31744736 -0.35418087 0.026290655
단어_533 -0.42877054 1.3181913 -0.35381112 1.8080579 0.70737505 1.2468072 0.41181463 -0.10474762 0.7082925 0.67094135 -0.58199126 -0.11863571 0.68699884 -0.4613871 0.77566355 1.0810142
단어_534 -2.9332016 -0.16278309 0.2496559 -0.44904622 0.7173283 1.5562196 -0.46472237 -0.70913106 2.5246615 -0.7473377 -1.9157804 -0.3133522 0.5952429 -1.8428116 0.05988039 1.3263164
단어_535 -0.64020276 -1.536473 0.064028196 -1.0574069 0.037922774 -1.3053792 0.52039593 -0.36145082 1.0952754 -0.23096672 1.1344589 -0.255586 -0.6167492 0.46262205 0.9929015 -0.6734096
단어_536 2.1259463 0.9506952 -0.10026645 -1.5879291 0.51249015 0.25615415 0.3803202 -0.20815527 -1.6705458 -0.9184049 -0.12632997 -1.2026627 -0.31156123 1.4562047 -1.2303768 -1.055785
단어_537 -0.06674045 0.7179595 -0.58303535 -0.14014098 -0.41855696 -0.6510417 -1.4207484 -0.54294264 -0.7277129 -2.123341 -1.8859748 -2.1948557 -0.9399949 1.1250514 0.055586614 -0.23878871
단어_538 -0.8553908 1.3468022 -0.12030443 0.95567214 0.39743176 0.022764847 0.03792322 -0.31114018 0.49759892 0.14236592 -0.79622555 -1.0061408 1.306037 -0.08832513 -0.96722496 0.35575175
단어_539 -1.105118 -0.7199401 1.0629001 -1.5864539 1.0373354 0.6510634 0.704162 -0.9182162 -0.10102076 -0.48878664 -0.28484288 -0.25468144 0.049214043 -1.3991103 -0.2558133 -1.241004
단어_540 -0.08136132 -0.15569043 0.67134154 0.19709197 -0.061367925 2.5428238 0.7023983 -0.7876756 0.846926 -1.5266587 0.042310007 0.39770585 0.9419656 1.3431581 -0.78628504 -0.03091461
단어_541 0.1611095 -1.0458205 -0.6411132 1.6883729 1.1564766 -0.15062311 0.12913153 -1.0031638 -1.577146 -0.74649704 0.5180317 0.8048572 -0.2758005 -0.2253893 -0.38023818 -0.2051266
단어_542 -0.03857658 0.64455414 1.0157199 0.4578771 -0.8272767 2.4726229 0.0025465344 -0.087239586 -0.58948654 -0.419531 0.34984502 -0.71955407 -0.39380953 -0.9465442 -0.736968 -0.4759977
단어_543 -1.1939217 2.883601 -0.20640703 -0.690659 0.023853378 -0.29843405 -1.6412245 1.2721031 -0.566095 -0.8195316 -1.1155305 0.9749348 -0.2673821 -0.4486025 -0.9647804 1.3972988
단어_544 0.14854352 0.43992153 -2.3113358 0.07956066 -1.0247868 1.5348552 0.3162786 -0.13152249 -0.3980532 0.09301856 0.5016119 1.2232552 0.7239258 -0.0055868076 0.85375834 -0.31048483
단어_545 1.0959473 -0.5467344 0.76631016 1.3084042 0.44468954 0.18500578 -1.0469266 -0.82453185 1.4768561 0.758471 -0.12532844 1.0302398 -2.0083158 -0.41737875 0.6996326 0.3283577
단어_546 1.1697779 2.6099374 0.34200254 -1.5739388 -1.143268 -1.8481959 -1.2479286 -1.4449925 -0.59164196 0.30419466 -0.7876109 0.51266325 -1.3827281 0.5403395 -0.7072748 -0.015253904
단어_547 -0.4670692 -1.4914311 -1.1269193 -0.40377894 2.6927128 -1.2965437 -1.7036994 -0.7125212 0.17763384 -1.0209985 -1.1872472 0.12847556 -0.23967299 0.25192308 -0.25471616 0.537798
단어_548 0.092835374 0.26344264 1.0383551 -0.09298227 -1.1522232 0.83358246 0.20965831 1.0304462 -0.5352784 -0.7380695 -1.573451 0.287817 -2.7246847 -0.020102786 0.03314942 0.8991424
단어_549 -1.5204521 -0.57998973 -0.24979955 1.9494046 1.1143775 0.2111287 0.8562234 -0.49615145 1.2409135 -0.069069095 -1.083915 -1.171978 -0.40625936 0.9192421 1.685148 0.86543435
단어_550 0.11727638 -0.91534615 -1.2567182 -0.5440521 -0.24435398 -1.1891057 1.1876458 -1.1992866 -0.99218035 0.6870715 -0.4033222 0.093374245 -1.3199337 0.8312765 1.5785527 -0.41952962
