10000 16
<unk> 0.9665574 0.19297633 0.9745038 0.6863962 0.24648897 0.0413706 0.90871936 0.7585149 0.80077547 1.0089898 0.38722637 0.440312 0.5226517 0.525789 0.6941549 0.5077152
<unk> 0.39125687 0.57516056 0.62417793 0.83366114 0.7080443 0.010861013 0.54610413 0.9382241 0.9409909 0.5045677 0.5159067 0.45026916 0.9179446 0.7466817 0.30597085 0.4816651
<unk> 0.52463233 0.15134327 0.98440546 0.89530635 0.5732293 0.77380216 0.6464766 0.15412338 0.13782933 0.4499966 0.23604152 0.7192233 0.90473133 0.86430067 0.028075345 0.10069654
 0.26758528 0.3530793 0.73732054 0.18367095 0.29708132 0.2735168 0.04779551 0.8414827 0.66859007 0.7467518 0.5333776 0.15614235 0.2732331 0.7505236 0.69070876 0.30825135
. 0.008888868 0.32180065 0.7160908 0.81207293 0.95468456 0.631274 0.6356246 0.287775 0.3860733 0.55303544 0.7052766 0.7839021 -0.011643078 0.12991561 0.7787759 0.23775959
영화 0.6395343 0.78595674 0.45259953 0.3780197 0.9842785 0.70562637 0.15711826 0.6479685 0.7814953 0.59423494 0.35029846 0.63410944 0.5383966 0.6239142 0.50165373 0.15387382
다 0.73480326 0.6310259 0.39197654 0.4274251 0.6324573 0.39924386 0.23551893 0.5243874 0.18471304 0.917465 0.43353158 0.86234564 -0.046632838 0.74792385 0.96416795 0.040290494
고 0.6332851 0.35743937 0.1604244 0.48364416 0.5999207 0.9887643 0.4973235 0.43606147 0.2725237 0.5860329 0.34388062 0.75241643 0.44781372 0.96975935 0.73965883 0.022506373
하 0.6868863 0.59207463 0.63136476 0.6267002 0.8887085 0.44375125 0.35450926 1.0378135 0.482618 0.37666276 0.25665364 0.2237756 0.4591641 0.37320694 0.7891633 0.785225
을 0.59343284 0.5703144 0.8381477 0.8650871 0.92484945 0.44401723 0.5495698 0.7866627 0.6896984 0.7452729 0.6965341 0.73906624 0.43129358 0.37379512 0.31516376 1.0435692
보 1.0456083 0.7508352 0.6894856 0.6889737 0.49573296 0.41807488 0.4437706 0.79836214 0.26433814 0.49140173 0.15701762 0.27362627 0.045077834 1.062935 0.14425907 0.17223658
.. 0.85940254 0.3916733 -0.050673943 0.1116601 0.93349576 0.824634 0.49966687 0.21826047 0.30464774 0.64395463 0.26950696 0.13738042 0.17051376 0.51509833 0.20536132 0.45150125
게 0.3643359 0.43785703 0.4442205 0.61934984 0.4876922 0.45552585 0.28344068 0.5176889 0.90734416 0.5908975 0.6125211 0.90951973 0.47863168 0.36461174 0.62208945 0.5294777
, 0.11750568 0.24608131 0.8993851 0.54230535 0.33663714 0.7659475 0.23927781 0.68503183 0.6558046 0.8760274 0.23411192 0.30876336 0.42544603 0.17653733 0.4931747 0.65396273
! 0.2769744 0.20545012 0.0692417 0.63597023 -0.17889032 1.1514013 0.06247942 0.36453846 0.45336777 0.27256685 1.075138 0.78529 0.43058464 0.49971536 1.3039105 0.6743575
지 0.29830402 -0.3834254 0.4000736 0.7222641 0.5698796 0.6293334 0.261709 0.26975632 0.6309552 0.49762 -0.11983105 -0.054044057 0.2059717 0.21791597 -0.20288235 0.67636824
있 0.78679883 0.7614242 0.51931083 0.39606428 0.0719166 0.24302876 0.5938206 0.39972097 0.90730363 0.16215324 0.67249894 1.0525246 1.1075636 0.9777486 0.24241795 0.965369
없 -0.013710409 0.028252251 0.29565033 0.51000047 1.5429872 -0.17287159 0.35662118 0.17390797 0.55334866 0.69439167 0.10429918 0.019389154 0.71817863 0.5984313 0.5390665 1.5723443
? 0.22933643 0.77468956 0.52782285 0.6272597 0.876033 0.90473855 0.4003958 0.24431047 0.3482439 1.1730181 0.022882009 0.16091034 0.09615448 0.91409785 0.35937774 0.22939229
좋 0.42601833 0.9826936 0.511581 1.0322766 -0.21982941 1.017027 0.24850507 0.37128708 1.1530484 0.6416489 0.53747225 0.8114806 0.3672416 0.64022917 0.23097391 0.8111935
나 0.17268834 0.79514074 0.7798433 0.47465238 0.6461667 0.3781822 0.6593407 0.7328242 0.58095294 0.6967926 0.5950794 0.45187083 0.40746716 0.24047475 0.07375757 0.5932143
었 0.22294398 0.7009041 0.7139394 0.5387011 0.057010207 0.25934765 0.4159721 0.4456048 0.71542996 0.7775786 0.755838 0.9422868 0.45000964 0.702569 0.35036477 0.06983698
만 0.28961524 0.4382425 0.837591 0.73299074 0.6916059 0.3232351 0.31848234 1.2466791 0.3299092 0.48887134 0.17003857 0.4665079 0.85812867 0.79033476 0.8708589 0.30790752
는데 0.8672876 1.1857485 0.7934208 0.5332136 0.3991703 0.40931213 1.0721319 0.018619154 0.2814822 0.6561029 0.4185517 0.035133608 -0.05265419 0.6881024 0.76456493 0.8983778
너무 0.18030836 0.18814376 0.1970894 0.68833643 0.665747 0.8398446 -0.057053 -0.4918777 0.4129052 0.5381179 0.3253686 0.85942197 0.16913798 -0.24449733 0.39365596 0.102677286
봤 0.7090778 0.23243636 0.49510163 0.6716162 0.785681 0.37802932 0.79887086 0.47191134 0.5246842 0.7549628 0.67418 0.6183354 0.09052394 0.4068879 0.430848 0.44287127
적 0.7713521 -0.08250401 0.3208398 0.6361233 0.7561126 0.30366394 0.8511215 0.3803047 0.7894088 0.018252946 0.42036667 0.61485374 0.88980365 0.3893202 0.6649655 -0.03615765
안 0.26709685 0.7575255 0.94931936 0.265746 0.30277556 0.69310826 0.20764515 0.07599819 -0.08034072 1.1480501 0.6175764 0.017917225 0.83316046 0.901987 0.45230278 0.4101082
로 0.35937998 0.96517706 0.37369567 0.74606955 0.5429832 0.13147415 0.5206066 0.5251381 0.0940667 0.5172668 0.15609048 0.7988319 0.4302169 0.49633265 0.9019918 0.94475335
정말 0.41069403 -0.058562737 1.0182781 0.8522753 0.42695925 0.9357311 -0.1372066 0.04480297 0.91698277 0.31363034 0.47136298 0.5152447 0.23115537 0.54015005 0.36140463 0.23761573
음 0.10434122 0.16233796 0.16560149 0.9322612 0.3132326 0.3793149 0.98007834 0.48896396 0.79433674 0.55661386 0.87967765 0.82788885 0.3246274 0.25976548 0.8757579 0.2306275
것 0.46382043 0.46661553 0.5358729 0.44756842 0.036846142 0.23828873 0.802909 0.24080174 0.8755566 0.040904764 0.9462331 0.24618585 0.818622 0.8170581 0.6216285 0.95572734
아 0.70979375 0.5143368 0.26012212 0.52521825 0.29502285 0.96475804 0.34440064 0.41697192 0.6204766 0.6335356 0.31590718 0.19169028 0.40889937 1.1741736 0.42463994 0.8257972
네요 0.9509899 0.7754256 0.20250647 1.0196515 0.85145557 1.1455015 0.34397623 0.7528869 0.7353439 0.21608742 0.7479078 0.3770215 0.5301816 0.602791 0.6431637 0.6741394
어 0.48752224 0.8647071 0.24853061 -0.0029612773 0.56942874 0.57123643 0.539037 0.50293857 0.052184366 0.5999713 0.31517678 0.5198226 0.38942498 0.9800091 0.50693595 0.76871467
재밌 0.79152817 0.4111731 1.1829965 -0.20298071 0.23688972 0.9602456 0.05897413 0.49715412 0.88613 0.5168874 0.0599603 0.55375844 0.34976682 0.67007875 0.25821826 -0.0069395346
같 0.926629 0.46596062 0.8238243 0.89267415 0.20166752 0.3888318 0.5224648 0.68349963 0.594394 0.84174705 0.2008898 0.3635468 0.7240143 0.7712352 0.6263141 0.7209906
점 0.47354513 1.3888061 0.5071757 0.95456296 0.8742591 0.3007162 0.49926063 0.82092714 1.1814729 0.55432314 0.7649113 0.6414386 0.75597 0.56162614 0.9487071 -0.104365855
지만 0.6942814 -0.17960611 0.8027047 0.1356596 0.4586658 0.19214739 0.11376851 -0.7689519 0.61869365 0.39455503 -0.032527298 0.56300575 0.73902804 0.061500415 0.5914421 0.96022964
진짜 0.67593616 0.85331583 0.7027346 0.09140312 0.2636054 0.61352175 0.0366566 0.42457184 0.9245276 0.5918352 0.34267148 0.7298981 0.16586357 0.63856393 0.5986329 0.58945626
했 0.43903297 0.04662123 0.7062619 0.791236 0.53136736 0.9287251 0.49809614 1.0196495 0.29617816 0.8250834 0.82571596 0.78764695 0.82260334 0.77835894 0.44422367 0.74948597
기 0.70664465 0.8782525 0.6062526 0.24336849 0.22527567 0.40177098 0.89138967 0.23686904 0.13905077 0.5983783 0.89599866 0.58228976 0.699342 0.23315084 1.1688753 0.5744889
에서 0.1524968 0.65338206 0.045621496 0.44120127 0.43076316 0.49336627 0.8299596 0.33501983 0.3765487 0.64802563 0.30283132 0.42692006 0.051029716 0.3782323 0.7605333 0.5019902
네 0.57994723 0.90942353 0.21327311 0.45097414 0.2839218 0.280719 0.2831782 0.7945091 1.1238036 1.1373595 0.32481235 0.0058721695 0.53587765 0.37555256 0.9536956 0.26652074
않 0.42280164 0.6096493 0.33326218 0.22069359 0.1472092 -0.0044636233 0.80366707 0.03714688 -0.058999922 0.13275158 0.70118964 -0.25174585 0.2097206 0.98179376 0.76096374 0.84573984
거 0.019742643 0.7796739 0.8258915 0.13706765 0.22611062 0.15961611 0.4431069 0.17316383 0.09259418 0.43494245 0.5649182 0.08092301 0.1701945 0.9630041 0.45703265 0.2688144
았 0.723387 0.49779627 0.8968208 0.44701654 0.3079303 0.8415649 0.48235312 0.8227488 0.61279684 0.66650087 0.43618077 0.812958 0.8708216 0.93629336 0.74616486 1.1180502
수 0.8385262 0.7273053 0.2665255 0.40271148 0.8638513 0.63853997 0.7713139 1.074335 0.73798746 0.5252842 0.44485563 1.1017289 0.47422916 0.7599001 0.54733896 0.8871292
되 0.18913516 0.47181186 0.68985057 0.5322554 0.18026258 0.272991 0.4281933 0.938735 0.6415602 0.8396296 0.78748876 1.0322933 0.42991406 0.5430687 0.07644533 0.7486234
면 0.23277394 0.037862733 0.21652831 0.70299405 0.8904247 0.55081296 0.5055297 0.66720414 -0.031876456 -0.03987122 0.4412049 0.4964487 0.22382884 0.53406256 0.45768023 0.5905216
ㅋㅋ 0.093454644 0.53021556 0.962385 0.65233445 0.2738448 0.65226156 0.9757057 0.60604304 0.5320292 0.09804951 1.0644997 0.82915473 0.4804893 0.54184574 0.46513426 0.77374774
말 0.18038324 0.5869316 0.69123805 0.7887566 0.00010630701 0.06851464 0.7417742 0.73710173 0.42060673 0.94598234 0.19375858 0.8763542 0.22356078 -0.18710525 0.83033746 0.8061198
인 0.40054205 0.23811568 0.58333635 0.20907623 0.30202675 0.9895159 0.7204008 1.0882517 -0.09031918 0.7896442 0.40778038 0.24317688 0.68520737 0.24498571 0.5447476 0.47168416
연기 0.9489955 0.53078896 0.69183576 0.95313287 0.47256234 0.5850983 0.50254 0.5084349 0.58517903 0.13715708 0.46479204 0.33695662 0.43455896 0.90726185 0.04600054 0.60962516
주 0.2411626 0.7480224 0.8916497 0.37767985 0.77359307 1.0565752 0.6513548 0.34977493 1.1518242 0.81798583 0.026143283 0.5541453 0.9114446 0.57543266 0.2535915 0.840483
내 0.23367852 0.7008036 0.41159853 0.39756453 0.7365641 0.18246803 0.23510623 0.6346197 0.2795661 -0.008906868 0.6902309 0.69970745 0.49396852 0.3683443 0.440931 0.6928184
최고 0.5001754 0.71563447 1.3736725 0.72231483 -0.16715617 1.3047864 0.3884565 0.35236704 0.94332576 0.43605173 0.14600758 1.1662384 0.16134332 0.4626585 0.38586932 0.7723794
~ 0.7658799 0.6149881 0.66916305 0.19276999 -0.07984906 0.24685095 0.9010937 0.96935505 0.8032206 0.90509725 0.63157654 0.6814561 0.9039568 0.56877786 0.6720591 0.37041909
평점 1.1689698 0.38600007 -0.047154665 0.15147837 0.31466424 0.070366696 -0.013103436 0.8923839 0.59604716 0.57649106 0.23335001 0.22340931 0.31076336 -0.06360229 0.49771354 0.5583652
이런 0.5656919 0.777402 0.81958985 0.6822384 0.77449816 0.22470577 0.15263951 0.76527864 0.47634116 0.8517746 0.7861502 0.8197587 0.1934522 0.748281 0.028647535 0.46991256
던 0.23251373 0.13985816 0.97029734 0.46573713 0.20570615 0.23277256 0.2991743 0.7574441 0.30382136 0.6133681 0.54391575 0.66785926 0.027126852 0.804732 0.55130714 0.09964625
어요 0.42984527 0.21638994 0.9077058 0.27960768 0.8501752 1.0389662 0.64753634 1.0415901 0.4619419 0.5651988 1.6219805 0.75549364 0.40811476 0.27382392 1.0010422 -0.046100453
할 0.65551007 0.21451107 0.5156725 0.17353316 0.8452223 0.7238105 0.44973752 0.5924251 0.8441167 0.31066814 0.63903135 -0.08334815 0.76434475 0.59054357 -0.09990238 0.8397258
왜 0.3313069 0.6287381 0.7517586 0.77766323 0.12279434 0.82706606 -0.0976504 1.0022175 0.7058628 0.5279552 0.30490202 0.6794249 0.14276282 0.87352204 0.64067316 1.2991105
겠 -0.1690258 -0.0015617417 0.28891873 0.7565022 0.83128864 0.27161124 0.62926245 0.60856074 0.41313955 0.22086915 0.22142176 0.198539 0.8129093 0.8835785 0.98583716 0.8332668
해 0.75053775 0.52112436 0.72462994 0.31244782 0.8583995 0.7589931 0.5206329 0.79117787 0.40168032 1.13619 0.56282943 0.66320276 0.5400184 0.52560735 0.4555836 0.7705086
1 0.25136927 0.48230302 0.048301153 0.4795754 1.0163941 0.16706963 0.55143297 0.29896185 0.56524515 0.7358054 0.43210548 0.0029136436 0.56147134 0.46262613 0.41848302 0.90750813
스토리 0.5695128 0.54343104 0.35668087 0.76694953 0.61261916 0.6641332 0.2578096 0.25153407 0.44693565 0.3727759 0.53915286 0.64616066 0.6255316 1.0948354 0.9938466 0.40565062
습니다 0.42515832 0.46978068 1.036664 0.71716183 0.1938116 0.8476447 0.3028845 0.51657695 0.29066166 0.6470226 1.2845334 0.77100515 0.27123195 0.5194423 0.6207117 -0.024630781
ㅋㅋㅋ 0.53805655 0.7859403 0.17941289 0.87833685 0.33659923 0.3644367 0.39004707 0.6917423 0.68205583 0.3203673 0.5800313 0.75647354 0.5510383 0.2457154 0.115817934 0.8481553
... 0.17470156 0.5768526 0.1432405 1.0183626 0.17725447 0.60963434 0.3973593 0.51374745 0.46462885 0.30725107 0.42851233 0.7774335 0.5025107 0.3106506 0.70320606 0.7775305
드라마 0.72736144 0.79056424 0.4834627 0.4058807 0.19019404 0.763337 0.92346966 0.5372566 0.31296492 0.805631 0.6930486 0.68031114 0.44456202 0.6747954 0.15825015 0.3604107
아니 0.2650354 0.4656985 0.15628156 0.29235694 0.68654114 0.3057808 0.35886765 0.8821407 -0.09922477 1.0279382 -0.0127739245 0.0061416314 0.8698227 0.6117017 0.6382325 0.44189245
생각 0.100338295 0.70029265 0.14544012 -0.04333071 -0.008859042 0.670316 0.81637305 0.5616829 0.9375979 0.3637908 1.0324652 0.5625556 0.5378402 0.5442796 0.579606 0.7885374
더 0.17698233 0.70728827 0.34885982 0.24298728 0.68114424 0.11027342 1.0432485 1.10667 0.528777 0.82372516 0.57021815 0.2474512 0.19658898 0.8487234 0.58869284 0.9442265
그 0.36074993 1.2153648 0.25223723 0.086613804 0.3367878 0.5334543 0.4669014 0.81813127 0.3217845 0.44169158 0.7759837 0.60140866 0.029010778 0.94369686 0.658745 0.67529565
싶 0.57631904 0.336962 0.49245018 0.3743947 0.24846412 0.5991949 1.2078898 0.2897196 0.18447675 0.45119864 0.4636841 0.6091196 1.098029 0.6054775 0.7831063 0.31041202
사람 0.20974621 0.5041254 0.07966606 0.16401266 -0.06359 0.6875205 0.82449293 0.1476985 0.284732 -0.0047651827 0.412783 0.6261384 0.4639569 0.58502793 0.63881654 0.8201652
듯 0.39584967 0.12639748 0.9137058 0.64623064 0.22253452 0.7267566 0.7876499 0.50499165 -0.041950863 0.4881744 0.55583555 -0.10166261 0.52068913 0.52318907 0.601209 0.34136662
때 0.4191338 0.7313893 0.7687584 0.8239751 0.108890295 0.44091788 1.031105 0.6488417 0.5730925 -0.02248647 0.20166859 0.22904287 0.60450464 0.30800098 0.69181377 0.5200921
감동 0.9365565 0.8227678 1.1242837 0.991072 0.0089319125 0.9469636 0.97228384 0.80774933 0.4627118 0.6437304 0.28001148 1.1681197 0.33103013 0.3387721 0.3829419 0.6994718
함 0.32679808 0.37446946 0.2713176 0.8330981 0.53959125 0.74297047 1.0600772 0.6391816 0.22576639 0.570797 0.75567156 0.7612385 0.6777328 0.15207064 0.7068042 0.64248085
배우 0.14720713 0.32728994 0.78268576 0.69879603 0.39105433 0.39957833 0.39693347 0.62375677 0.16881163 0.072714575 0.47043976 0.2858905 0.53226954 0.5869983 0.37269148 0.9396718
본 0.6150166 0.077869244 0.55139387 -0.04575886 0.7232021 1.0300888 0.6683783 0.581409 0.29395393 0.625612 0.6020034 0.35894746 0.7558578 0.4062477 0.30202934 0.26330075
까지 0.30569673 1.0511819 0.1662463 0.3880007 0.5916791 0.93515676 0.55265963 0.4090619 0.28751948 0.48730597 0.6968358 0.71107763 0.4597375 0.23172176 1.0417644 0.7969857
뭐 0.6732863 0.71800995 -0.029101841 0.94694024 0.5437599 0.18914008 0.6012435 0.32177052 0.25750682 0.54627764 0.6434571 0.6982033 0.5943082 0.7560809 0.7458509 0.5370491
보다 0.647188 0.6813775 0.24701656 0.07504496 -0.14138551 0.3651356 0.77239513 0.30952463 0.7247945 0.31377375 0.47576278 -0.0038902627 0.82404226 0.06874167 0.67251056 0.9908414
알 0.2050716 0.42228246 0.63289607 0.92922074 0.54211515 0.027460897 0.3943998 0.5043633 0.56593806 0.117740184 0.5795956 0.2024926 0.35485765 0.05157602 0.6071467 0.81793165
만들 -0.14421475 0.5177418 0.51333624 0.92948186 0.60695595 0.5719576 0.13424042 0.9272729 0.73212606 0.29681382 0.44425917 -0.17576332 0.6549657 0.7597759 0.28991723 0.8431853
내용 0.037666548 0.43587238 0.19799721 0.9817282 0.7559256 0.36050805 0.67354894 0.56449485 -0.041565828 0.7692051 -0.14198817 0.64483917 0.63779336 0.9608853 0.6935396 0.9012901
볼 0.5796647 0.92297834 0.59302825 0.6844251 0.3540576 0.6436421 0.9250009 0.645566 0.6298324 0.16935378 0.4262014 0.73891675 0.6380914 0.6536601 0.13495955 0.83133304
감독 0.5135077 1.0450312 0.5769334 0.67091244 0.65191996 0.16697265 -0.09394322 0.8951018 0.47304165 0.56806 0.7684032 0.08628052 0.72013307 1.12058 0.48763627 0.5820422
라 0.31761703 0.44294748 0.06769127 0.46716046 0.4448958 0.46789753 0.050011154 0.32865587 0.48964256 0.11656528 0.119061485 0.40292016 0.078260735 0.2921878 0.73294014 0.36657593
그냥 0.28916034 0.7298436 -0.06168532 0.24234052 0.15093257 -0.14711593 0.31133753 0.79864055 0.03922351 0.95537055 0.42742425 0.4699107 0.2845432 0.44592315 0.5207213 0.31973612
재미 0.4253587 0.55477047 0.95471096 0.3676394 0.43539125 0.72224677 0.71855104 0.08580055 0.2414602 -0.09257803 0.19526537 0.16954999 0.72929835 0.02706226 0.39372635 0.4186617
시간 0.20536415 0.48921898 0.10267226 0.34315053 0.32792687 -0.020082159 0.59114087 0.3456997 0.420112 1.0407301 0.30203786 0.48261964 0.39838904 0.29844883 0.9550487 0.4606381
지루 0.022945808 0.20050597 0.14097624 0.43618095 0.095024645 -0.0524868 -0.011576528 0.02738799 0.45734963 0.82518375 0.6864369 0.4722423 0.65192807 -0.029061077 0.37417877 0.635362
중 0.6909223 0.043158002 0.7781797 0.37892976 1.0137194 0.36762652 0.36015186 0.5967029 0.7977807 0.0042036087 -0.01511569 0.8563281 0.066926934 0.88688314 0.43066788 0.5299204
재미있 0.37013194 1.0186126 0.28709677 0.23931019 -0.14721712 0.39829814 0.95413107 -0.18589735 1.2143753 -0.23944718 0.5127153 0.31230617 -0.03203987 0.504939 0.4252775 0.3925649
년 0.56905526 0.15100908 0.07201883 0.5340757 0.5244973 0.57298285 0.68062115 1.0942007 0.8362461 0.239687 0.1847008 0.8296653 0.8545097 1.0737665 0.25205526 0.8912866
10 0.3653601 0.5211175 1.0704851 0.50676495 -0.12652487 0.3489173 0.59859014 0.094239816 0.32531512 -0.08148887 0.6192737 0.99337316 0.17659439 0.8771404 0.91313225 0.1693185
였 0.4564036 0.25069165 0.5208919 0.9856507 0.51024365 0.42186514 0.69618416 0.9279374 0.9023779 0.048270173 0.8766139 0.5909987 0.55775404 0.45181435 0.84254336 0.587423
잼 0.45108965 1.016428 1.1062182 1.0182624 0.16223502 0.9967596 0.79411423 0.32289326 0.82921726 -0.19457904 0.63450664 0.52568847 0.706854 0.94485956 0.24951959 -0.38956162
사랑 0.42390275 -0.06800237 0.84586936 0.34416592 0.7843533 0.4306122 0.38301685 0.6927543 0.90633255 -0.055281498 0.13998677 0.77514637 0.24052723 -0.09950409 0.12104036 0.31839472
못 -0.23506002 0.5935741 0.2900995 1.0266876 0.4647605 0.35384512 0.46447363 0.40451834 0.3397672 0.503272 0.29058227 0.2969175 0.8003281 0.42579275 0.28604022 0.17190965
냐 -0.08387861 0.7528789 0.4933081 0.7474646 0.25612578 0.23983076 0.49832976 -0.16766694 0.5597668 1.2506014 0.6928992 0.20998798 0.53225225 0.9345136 0.71631265 0.33898088
재미없 0.56791 0.042918153 0.40934607 0.44643977 0.80577403 -0.18436469 0.03178171 0.015150075 0.4965117 1.03622 1.0129609 -0.10557503 1.0562103 0.03273989 0.09486378 0.68906206
쓰레기 -0.06978996 0.68122846 0.28087223 1.3723494 0.8783833 0.32779297 -0.31152818 0.2354918 -0.47580045 1.3217567 0.8261773 0.43832153 0.71907175 0.58990735 0.4597956 0.60664564
서 0.48101035 0.33593675 0.18367937 0.7562215 0.14743142 0.5140163 0.7589956 0.8456141 0.1358916 0.6126863 0.0002663302 0.8639715 0.6096947 0.31136316 0.46308193 0.7390034
야 0.27915427 0.2534789 0.7543955 0.6693594 0.84082294 0.26454517 0.5851737 0.49541563 0.59971285 0.98973435 0.8324575 0.5534266 0.48513588 0.47605285 0.32960683 0.6004377
2 0.7539404 0.78159255 0.83001673 0.7712524 0.38236254 0.40920097 0.5684049 0.6150831 -0.029314214 0.3894413 0.6942078 0.3821506 0.86335003 0.13660067 0.9638094 0.6496806
라고 0.49596748 0.8071465 0.42562136 0.19536613 0.4360225 0.22055519 -0.19238032 0.7346123 0.057644602 0.35542977 0.24050683 0.08574868 0.37854317 0.75785464 0.19590077 0.434627
니 0.46872738 0.14201045 0.77977365 0.48974848 0.23305564 0.78503937 0.20184888 0.81182295 0.088066846 0.24001591 0.3686639 0.14537762 0.90315855 0.2696197 0.7575109 0.14309715
면서 0.05843983 0.09091209 0.80887955 0.7345944 0.6160131 0.30418456 0.51367915 0.2531651 0.6674209 0.07096885 0.87580913 0.72727215 0.11753649 0.36427724 0.28413305 0.0181869
번 0.95588946 0.3087585 0.29090792 0.32003856 0.51420087 0.20984505 0.9149262 0.66502553 1.0227376 0.13013451 0.39202213 0.13950911 0.19817436 0.8129854 0.85991246 0.61016375
다시 0.13250688 0.16585709 0.68124163 0.3262706 -0.10069877 0.43927443 0.00066090206 0.24876635 0.85239214 0.19192779 0.11234285 0.7363499 0.15483022 0.7398094 0.029630298 0.19708967
나오 0.3981242 0.29156968 0.54040945 0.042642377 0.081113525 0.48128223 0.31682035 0.44657886 0.38912088 0.20539579 0.57997257 0.32765937 0.919671 0.9918151 0.68156505 0.37455434
작품 0.38788533 0.78666383 0.24298601 0.7589848 0.6246703 0.9186892 0.54022527 0.4155229 0.5680567 0.18823001 0.49230936 0.744972 0.3624467 0.21276954 0.21975176 0.38777253
이거 0.30819878 0.653945 0.043311447 0.17281285 0.64502794 0.7065546 0.20664302 1.0036975 0.09718999 0.41185963 0.32335964 0.021857457 0.035529085 -0.049083248 0.36574775 0.1339784
하나 0.47453064 0.44277593 0.4778755 0.4981323 0.9242535 -0.1282835 0.3536244 0.63190806 0.38333115 1.0353607 -0.049641594 0.6406811 0.24182494 0.73944074 0.3767117 0.2698478
줄 0.5708098 0.7758638 0.67631835 0.53656083 0.23188034 0.71413547 0.070011534 0.63341755 0.40385544 0.7344128 0.28916338 0.62562114 0.34892508 0.20122038 0.31844488 1.141313
해서 0.22164385 0.7125952 0.64182544 0.14547393 0.43643788 0.5210466 0.5851941 0.36831656 0.26411498 0.5905276 -0.1904074 0.7640329 0.396428 0.8344772 0.32524955 0.40191063
개 0.4540177 0.94921964 0.77517325 0.9448558 0.5043062 0.8237801 0.30653262 0.07968786 0.79507935 1.040159 0.3117898 0.42508674 0.7868586 0.47550866 0.3442431 0.14041696
정도 0.19973773 0.90400684 0.08492232 0.039578624 0.47656527 0.7003734 0.5842816 0.34748816 0.22255948 0.61301553 0.47522908 0.2260491 0.88050216 0.9904064 0.13036354 0.58853906
남 0.83404046 0.3858571 0.1565796 0.16691232 0.40259936 0.5927559 0.27810803 1.064273 0.30597216 0.33694786 0.6340969 0.517967 0.07529363 0.93401104 1.2458491 1.0265346
마지막 1.2244242 -0.043653376 0.6001371 0.5430052 0.727092 0.9792606 0.38680387 0.34248114 0.8830345 0.75208503 0.16558598 0.76523024 0.5722301 0.6640085 0.547269 0.02946986
끝 0.32771885 0.69532937 0.43471485 0.6598839 0.04752743 0.09876471 0.44000587 0.549753 0.20525256 0.535583 0.6443873 0.33395165 0.12784773 0.6397376 0.616664 1.0238451
액션 0.27730784 0.29704344 0.17999986 0.60865843 0.7939639 0.7309083 0.26262397 0.49759272 0.9124359 0.34742436 0.5074691 0.9344075 0.3669397 0.08861258 0.82724404 0.42714664
이건 0.7348616 0.9151499 0.68140477 0.97426665 0.32698792 0.6259008 -0.1318951 0.14242142 0.3445549 1.1042806 0.49088916 -0.13819553 0.61185294 0.32088915 0.546339 0.45846555
임 0.7474455 0.62547857 0.9704575 0.7666074 0.016464261 0.77321875 0.31281862 0.69911224 0.4379988 0.80957574 0.6289216 0.47328237 0.64562225 0.47977382 1.0223733 0.57110196
건 0.10705984 0.67880017 0.0014971208 0.56096154 0.54846483 0.10643886 0.7083387 0.12528746 0.6639931 0.4736489 0.21375845 0.31755286 0.48152024 0.31258708 0.8977982 1.0143925
ㅋ 0.56775296 0.24744508 0.33173046 0.7867609 0.89217156 0.4726792 0.13596378 0.8914687 0.8585752 -0.03914404 1.2083555 1.0059172 0.58486116 0.28695592 0.49396563 0.57484794
3 0.9244807 0.6897265 0.42428145 0.72692794 0.8378556 0.28882754 0.17133898 0.112721875 0.6947098 0.9538818 0.45086944 0.6638834 0.43202546 0.6901362 0.5921291 0.6825752
기대 0.76594293 0.025642414 1.0079434 0.130719 0.36878857 0.105044514 0.42164215 0.64943314 0.17021692 0.22281061 -0.20805381 -0.07616071 0.6087677 0.5703467 0.61111456 0.65908515
입니다 1.052946 0.62327534 1.0349946 1.1391968 0.42895478 1.2079622 0.6272458 0.6709984 0.26089922 -0.045240313 0.8504033 0.31167626 0.9504781 0.82042384 0.49045277 0.62378794
라는 0.62715745 0.5119082 0.5945799 0.14526382 0.21622486 0.45884597 0.025821062 0.2715022 0.33877954 0.60571057 0.4895765 0.78152204 0.5413706 0.9040174 0.742878 0.60585415
분 0.4086133 0.1840204 0.79895616 0.6162576 1.044194 -0.04628917 0.1008627 0.6266469 0.069647424 0.6730734 0.20246702 0.2360409 0.934772 0.45863086 0.9086116 0.96756256
완전 0.91953593 0.15756619 0.55413 0.7365751 -0.08421904 0.3739581 0.45208782 0.11878012 0.77978504 0.6581958 0.54884744 0.7789221 0.57324415 0.73345846 0.25498465 0.39825338
다는 0.1523306 -0.17753996 0.73048896 0.35872778 0.9314897 0.40636694 0.36046928 0.41998443 0.25197592 0.16767241 0.19812874 0.32472304 0.5664165 0.5693794 0.2857239 0.81663436
참 0.66790146 0.49775106 0.55711704 0.56724787 0.73496574 0.061248474 0.409962 0.31591675 0.13895074 0.59246594 0.6778844 0.6437795 0.28120485 0.25789684 0.47927573 0.7369837
많 0.9322627 -0.16708477 0.14924894 0.77545065 0.8409377 0.0952622 0.60131323 0.63198024 0.679689 0.52214134 0.17835161 0.5213256 0.0026544495 0.20125568 0.3768343 -0.007991825
처음 0.43510112 0.2960148 0.33694175 0.118427604 0.3551859 0.21708773 0.49102673 1.0681933 0.37673932 0.83145136 0.32946637 0.33416215 0.6609915 0.6496662 0.81473273 0.48275128
장면 0.35574344 0.71750385 0.09227723 0.2543314 0.42102724 0.633833 0.34000018 0.4895859 0.4799387 0.62953275 0.29016104 0.43713358 0.71309584 0.49116808 0.8229641 0.565926
대 0.91049886 0.2603514 0.8304293 0.7096004 0.9666053 0.36924163 0.31265396 0.8134341 0.48475224 0.8584718 0.59562016 0.20598063 0.120917544 0.8731558 0.4405499 0.6557978
아깝 1.1225998 -0.11563754 -0.35746333 0.6354881 0.25560918 0.07133838 -0.25048503 0.77796054 0.51014906 0.67590517 0.98163825 -0.2621824 0.4258276 -0.3032232 0.5020692 0.35451108
다가 0.40421668 0.09043365 -0.19432905 0.9434393 0.43411002 -0.10068757 -0.21289112 0.6729048 0.67063016 0.60096025 0.5881236 0.47211242 0.40863562 0.71238744 0.48196843 0.8108198
으면 0.7130861 0.6134474 0.95108056 0.81217396 0.4309919 0.4016049 0.42609096 0.8993007 0.2611466 0.43460578 0.54911315 0.5274259 0.77249914 0.41436464 0.8727257 0.98006564
지금 0.9784526 -0.16079241 0.21988171 0.51161313 0.67628765 1.0839031 0.82429403 0.5372679 0.60844254 0.19408064 0.32409066 0.19846931 0.12983596 0.4839684 0.6536396 0.72522396
모르 0.8065877 1.133384 0.17657626 0.61556655 -0.065937966 0.54242706 0.03976584 0.7461484 0.52125525 0.70749086 -0.017604733 0.14737883 0.21559528 0.3718562 0.71607983 -0.097541206
이렇게 0.61245435 0.9109519 0.6882929 0.95264274 0.29304796 0.9662829 0.20477568 -0.02711029 0.10141857 0.6183589 0.34460178 0.68795776 0.7047607 -0.07521171 0.048593983 0.9071017
' 0.46292022 0.4921295 0.33431283 0.78579366 0.308097 0.794764 0.21637107 0.5829677 0.30565464 0.5383247 0.44804206 0.43229455 0.3931917 0.67754465 0.08384928 0.2977894
편 0.17928337 0.031603597 0.6962915 0.7309995 0.33979002 0.5803936 0.94079024 0.55106956 0.7114158 0.5819091 0.5258448 0.2358934 0.5848906 0.46989635 0.108230285 0.064807154
일 0.32458308 0.7018063 -0.04270263 0.17788154 0.052568622 0.6259026 0.9073399 0.45270067 0.25244984 0.69481444 0.2883306 0.52074796 0.81013155 0.5054092 0.22422887 0.6901472
성 0.7907652 0.4707835 0.8938511 0.45867002 1.0055633 0.24801092 0.07300166 0.39122796 0.17700788 0.7330519 0.24679011 0.34786817 0.36172944 0.5869427 0.31522596 0.22727339
돈 0.35861105 0.752525 0.00433724 0.23779522 0.3019135 -0.23895033 -0.047462147 -0.031276386 0.37712544 0.4914207 0.89146495 0.27291316 0.30015355 -0.003994517 0.5209744 0.5228045
이게 0.18348329 0.7542577 0.3617114 0.4278502 0.5074311 -0.06739951 0.567412 0.555672 0.65216166 0.7416931 0.8281518 -0.10839536 0.18620865 0.2178601 0.041876085 0.7612645
느낌 0.4630937 0.8334397 0.8371388 0.10736976 0.15283304 0.2582961 0.4496351 0.7982063 0.12698232 0.40684813 0.53345823 0.50564444 0.67818326 1.0295297 0.43330124 0.7491806
시 0.21971768 0.49555677 0.34065872 0.74434364 0.87221956 0.5920788 0.6696027 0.6327367 0.71386933 0.55229676 0.42135346 0.7152414 0.26840383 0.73338395 0.027290227 0.42512682
이야기 0.72680086 0.59030384 0.43283752 0.16621731 0.44484565 0.4715705 0.69652915 0.2969813 0.1008932 0.17946099 0.14067097 0.84910077 1.032295 0.36412206 0.92222905 0.53466034
최악 0.1841492 0.34790447 0.11358102 1.438979 0.51618284 -0.5179583 -0.01061139 -0.14286599 -0.3352792 1.3978552 0.52648425 0.10792117 0.9579148 -0.017066471 0.37643617 0.2933475
된 0.9003996 0.6529455 0.17944847 0.8321521 0.5772843 0.544442 0.8871644 1.0178016 0.67996395 0.7817279 0.7784561 0.27876928 0.38012773 0.6330899 0.2482244 0.7671506
봐도 0.83533776 1.0064265 0.27045545 0.5492043 0.52726656 0.9097518 0.71185625 0.62584287 1.1573262 0.74891424 1.21992 0.8442908 0.16656263 0.8180138 0.3594691 0.22237529
님 0.6166243 0.3909579 0.44256327 0.05617232 0.6104228 0.34379733 0.40537652 0.42702356 0.83598274 -0.021181045 0.7855095 0.5476732 0.774109 0.102450505 0.727316 -0.015618168
어서 0.5309147 0.7890596 0.5891941 0.66727924 0.55530673 0.41324568 0.6187757 0.42316517 0.4366877 0.5557476 0.31349537 0.70296544 0.7847385 0.32396278 0.6864871 0.39194244
애 0.25169563 0.4706916 0.7185963 0.394836 0.7171176 0.44162434 0.3540925 0.99997807 0.3149901 0.6067739 0.3787896 0.69774675 0.4217112 0.9650579 0.8476525 0.14288394
전 0.4148649 0.6415141 0.16147824 -0.18753654 0.230503 0.532103 0.1483979 0.861338 0.363195 0.24700598 0.45526826 0.40048254 0.48107964 0.86638635 0.63920164 0.64155567
넘 0.22325006 0.5652798 0.25240293 0.10349121 0.4792209 0.88865066 0.6404128 0.5645838 0.46475634 0.28035793 -0.00058848213 0.79857886 0.062840655 0.5248946 0.07326275 0.46786287
ㅠㅠ 0.5877102 0.050171077 0.8285778 0.2172613 0.49337384 0.38358426 0.85217774 0.54042023 0.3442089 0.29011858 0.5058161 1.0448806 -0.0016324422 0.9937263 0.538537 0.33608356
다고 -0.05615243 -0.44165924 0.6156938 0.483412 0.7697441 0.37610245 0.27467477 0.64031345 0.4635159 0.41262606 0.24010307 -0.21341316 0.37490472 0.10726043 -0.012756551 1.4159849
인데 0.5803505 0.23920034 0.46921697 0.6024595 0.5968483 0.4525736 0.58902746 0.13680576 0.8024875 0.39153394 0.2890422 0.62228566 0.31767353 0.843761 0.73800254 0.66468936
그리고 0.6271903 0.65431744 0.81516886 0.6619867 0.38713235 0.5047527 0.37189808 0.3970707 1.1050593 0.11124087 0.11687793 0.41515824 0.06306041 0.5175061 1.018377 0.59235287
명작 0.8088838 0.43852827 1.2082071 0.8368198 0.101981975 1.3288422 1.0472796 0.3851703 0.95324963 0.46146742 0.15980476 0.4776757 0.14759059 0.7117005 0.042752314 -0.06143162
여자 0.29810366 0.71307486 0.7002378 0.23045792 0.8810193 0.5868943 1.1131039 0.46331444 0.12658566 0.6909639 0.049139734 0.38828367 0.5714937 0.50973785 0.62741435 -0.020443974
이해 0.4352833 0.44296652 0.9310961 0.8793031 0.6004426 0.3705988 0.6513593 0.44139206 0.7858749 0.9828623 0.34356296 0.8776199 0.42412183 0.45349187 0.9065589 0.30427784
^^ 0.24924111 0.7597986 0.63101566 1.3081627 0.23933873 0.82256967 1.0290189 0.033031657 0.34938547 0.19748814 0.024374256 0.8981207 0.14996484 0.89331794 -0.15545712 0.5531317
난 0.5899138 0.6675356 0.7398172 0.2369681 -0.07420291 0.113395184 0.87944037 0.5766823 0.90450335 0.4402118 0.21549563 0.70190805 0.08004523 0.64312524 0.5113154 0.99244153
역시 0.73997796 0.33407232 0.89768094 0.63083714 -0.007946921 0.50612533 0.63299286 -0.11478954 0.29678956 -0.10908433 0.6178366 0.49486306 0.04990343 0.1734598 0.506749 1.0996933
또 0.24766234 0.32567668 0.15772437 0.4095911 -0.056446996 0.47007686 0.73916215 0.84136856 1.0632005 -0.053127006 0.63933134 0.49971318 0.31083253 0.76205736 0.7943466 0.37295726
걸 0.8877476 0.5939141 0.18046331 1.0253302 0.68335646 0.8887202 0.15738362 0.9436524 0.8068106 0.7741837 0.768063 -0.052680146 0.701405 0.40120852 0.12613739 0.49985155
한국 0.6792509 0.38401368 0.44736743 0.040318917 0.5077882 0.87072694 0.37236908 0.78937346 0.30769646 0.5235293 0.18094487 0.03751561 1.0349219 0.41310862 0.50755 -0.042234987
이상 0.57186806 0.5608283 0.48127052 0.6541997 0.275472 0.6705259 0.34320435 0.64838195 0.708395 0.5419037 0.71542585 -0.006558647 0.6445936 0.15835112 0.10161386 0.71215695
부터 0.40036866 0.5671334 0.37205097 0.69050926 0.46020153 0.57550216 0.21506378 0.4779726 0.33031172 0.7585804 0.20718461 0.5042164 0.59508556 0.38202596 0.546528 1.1957098
는지 -0.048426986 0.85010135 0.056122094 0.22746101 0.5607196 0.35827032 0.2443482 0.49974108 -0.12684508 0.34829986 0.29572612 0.18587102 0.9836299 0.37510043 0.9419481 1.3009481
많이 0.9691863 0.47873953 0.30551663 0.49600852 1.0401744 0.42459106 0.7652441 0.5040377 0.09763016 0.2500936 0.5034289 0.40879026 0.6804148 0.31263238 0.35252425 0.65490556
에게 0.94134814 0.15719332 0.84486455 0.90516716 0.25368097 0.68082154 0.9558657 0.7156266 0.097129725 0.380825 0.90340775 0.31148782 0.22362114 0.88153565 0.35195306 0.6461323
주인공 0.55333215 0.8545017 0.7804243 0.51992285 0.4994296 0.14211991 0.5397383 0.72401065 0.14804398 1.0571426 0.47831234 0.62232965 0.67929906 0.4929103 0.54280204 0.77953535
별로 0.2627049 0.9108078 0.1314397 0.9002834 0.99079067 -0.44831327 0.6050485 0.29796255 -0.30404118 1.273699 0.73461634 0.53752506 0.4653667 0.5023342 0.76793605 0.24636368
받 0.20170635 0.9707277 0.82394403 0.5595277 0.2933091 0.60403305 0.73843855 0.779154 0.6580492 0.20036472 0.8587545 0.3159977 0.3070969 0.577431 0.9112232 0.8058791
합니다 0.54019445 0.586919 0.781304 0.11166225 0.3278615 0.19271289 0.5258288 0.4688531 0.79677 0.6328897 0.5670509 0.5553308 0.22165677 1.1829604 0.32516947 0.22181085
두 0.49109343 0.15117685 0.82768875 0.19265336 0.35668293 0.3763886 0.2330607 0.91439116 0.4036983 0.80502623 0.30831468 0.3491824 0.80047804 0.60516375 0.16473253 0.5579942
우리 0.54237413 0.2732541 0.8440341 -0.10198376 -0.07442152 0.45312014 0.8003372 0.41498277 0.41153726 0.49213836 0.48869622 1.0347024 0.38090542 0.5243245 0.1407785 0.073489
만든 0.5879913 0.44527918 0.2739238 0.7699664 -0.07033402 0.7343116 0.38247865 0.35965887 0.38344535 0.57876056 0.14616594 0.28123865 0.4645766 0.6792833 0.2368813 0.3816824
살 0.585443 0.7957811 0.031191135 0.6146746 0.4866371 0.35857332 0.51006794 0.5300505 1.0445288 0.031830143 0.036080126 0.4955334 0.50141203 0.75289905 0.55194753 0.7574729
!! 0.12261797 0.06887713 0.79542357 0.31559104 0.27242127 0.64788336 0.41874254 0.27712083 0.37117094 0.15265122 0.5100577 0.69851416 0.48826274 1.0876824 0.56570375 0.11495907
길 0.69609505 0.22897378 1.0158025 0.27278596 0.41019136 0.12201867 0.3450977 0.4692455 0.8331301 0.49320313 0.46628374 0.25090718 0.7779767 0.45187178 0.87375647 0.27245614
엔 0.15115197 0.69538134 0.30718485 0.03990123 0.6065359 0.49334523 0.68736196 0.72878605 -0.09167875 0.25918868 0.6499406 0.22788428 0.6109766 0.7601884 0.49384964 0.45372507
괜찮 0.50762165 1.1702563 0.36891857 -0.23751035 0.57917327 0.46687442 1.082862 0.059979897 0.6340971 -0.06722325 0.6194433 0.5102254 -0.039727386 0.25528842 0.038351536 0.1865115
기억 0.64210343 0.68155074 0.31556767 0.41877642 0.46539995 0.2878162 1.1591513 0.5861847 1.0145785 0.0044536088 0.8086677 0.3439125 0.5056522 0.54455787 0.63011706 0.61846805
연출 0.25089887 0.3361552 0.2569537 0.81279355 0.16306755 0.93831563 0.4297794 0.25578827 0.7109793 0.3764229 0.886147 0.14768156 0.5900892 0.16041447 0.48974177 0.7400834
한다 0.8041006 0.4362801 0.9011689 0.7324362 0.5580678 0.2307655 0.55870074 0.52502346 0.12719327 0.06276185 0.38840887 0.70135623 0.6615801 0.27122593 0.6099769 0.7849309
때문 0.42966753 0.60539967 0.7503624 0.7133048 0.67786413 0.922153 0.9614297 0.105009176 0.25720808 0.16569549 0.30309442 0.2051397 0.6113488 0.73821706 0.1696009 0.7639788
ㅎㅎ 0.9146379 0.82490647 0.6160341 0.59361196 0.036790583 0.44389734 1.0547755 1.0608658 1.042982 0.19613749 0.63011724 0.80735105 0.46039078 0.9617833 1.1878333 0.71624935
이나 0.058326088 0.25534046 0.3764432 0.94736934 0.6573763 0.31310767 -0.06489088 0.48310924 0.7795604 0.35205218 0.10685837 0.02937284 1.0299301 0.98100615 0.24204853 0.34307918
요 0.9213113 0.24655516 0.3884825 0.45107737 0.6771832 0.79366755 0.7456246 1.1085365 0.8276313 0.8919541 1.0528815 0.8699867 0.6017258 0.47716257 1.0244515 0.61020577
저 1.0089527 0.16321069 0.81640506 0.16694112 0.41898593 0.06298496 0.024851017 0.90359664 0.4081 0.21074757 0.7884382 0.8778048 0.08275619 0.36800772 0.27155134 0.67423654
재 1.1561934 0.92307836 0.5368699 0.64706796 0.58604157 0.40409938 0.5745292 0.9003304 0.5711242 -0.002198859 -0.04167192 0.21255025 0.032430943 0.18209623 0.7124702 0.2705547
꼭 0.89186674 -0.03016514 0.7321141 0.28548408 0.040751036 0.8013811 0.121087104 0.5233079 0.29143178 0.83337986 0.60382664 0.8622739 0.12690158 0.15575738 0.030807545 0.40270144
며 0.8809704 0.36697066 0.26116127 0.14083385 0.36871973 0.8998501 1.1387485 0.11764842 0.63953555 0.1588169 0.6616211 0.18098234 0.85719925 0.44045192 0.7766058 0.41729715
현실 0.6013381 0.62509084 0.21308781 0.1397952 0.26091394 1.0258088 0.3428583 0.7161719 0.8471512 0.6055316 0.74651915 0.40265435 -0.19516484 0.2234154 0.52286756 0.47740468
랑 0.5935442 0.22233686 0.275242 0.6993763 1.0072627 0.5212216 0.4666151 0.95924616 0.7307731 0.7161739 0.46448392 0.74024487 0.04753986 0.4253697 0.5540213 0.67560476
긴 0.05411407 0.40362406 0.4301312 0.38315123 0.24727914 0.52699536 0.6432512 0.3038263 0.6107389 0.6330935 0.70365614 0.012096015 0.4982206 -0.02121698 0.42175403 0.6739179
ㅡㅡ -0.03182659 0.77102965 1.2001587 0.46876007 0.5789593 -0.03060975 0.85298675 0.026084745 0.72941625 0.7018468 0.43442556 0.42579734 1.1015323 1.3220611 1.025677 0.35516
무슨 0.13597348 0.71108824 0.35676116 0.842052 0.60899746 0.6261975 0.66753036 0.32023537 -0.1250002 1.0186412 -0.009548627 -0.060212392 0.6939604 0.99887013 0.8193172 0.3096223
내내 0.90674096 0.41511813 0.6144213 0.8563372 0.5387098 -0.078805305 0.7622104 -0.26439372 0.6388797 0.25819352 0.25729772 0.11422528 0.08270089 0.23295376 0.10810697 0.63056564
결말 0.40170506 0.8501764 0.806304 0.19880366 0.31009325 0.3428531 0.4507228 0.89078933 0.068501905 0.16724029 0.6883231 0.31739146 0.5121306 1.0379587 0.90663606 0.15842101
죽 0.52539426 0.30470642 0.46010566 0.32380465 0.49777505 0.687905 0.649735 0.16887759 0.4728172 0.48062414 0.67029494 0.31499958 0.28057876 1.1986417 0.9533038 0.9692441
세요 0.42779082 0.67261136 0.54863566 0.6078548 0.9457251 0.36729953 0.14968923 0.9244345 0.7863174 0.92768806 0.54899895 0.94099 0.64255595 0.590565 0.5276303 0.53034836
남자 0.50138587 0.69474924 0.58518004 0.5479505 0.88584894 0.24509169 0.44656283 0.69758797 0.12871549 0.20495377 0.2614023 0.5659521 0.104941286 0.6741766 0.7373142 0.5869648
전개 0.91479313 0.41589066 0.3692732 0.34334362 0.21302868 -0.0023230389 0.13954294 0.4342823 0.749821 0.96755725 0.76039743 -0.08122197 0.6190296 0.19672377 0.8192487 0.23948632
마음 0.9578937 0.49704036 0.5079943 0.65268785 0.05848305 0.417221 0.99691135 0.4020524 0.85947615 0.12161173 0.77370447 0.57258373 -0.0044593713 0.69606143 0.7315153 0.1939512
별 0.5983474 0.38341936 0.6056064 0.37791267 0.63951194 0.2934125 0.60182214 0.048826132 -0.06696103 0.93895334 0.79795116 0.15937199 0.5775126 0.6022471 0.77764755 -0.0063346922
소재 0.60599947 0.65116817 0.21269023 0.26952133 0.7600668 0.108669885 -0.020351274 0.17610574 0.531006 0.91371095 0.4425778 0.49091116 0.6133449 0.9221339 0.35178202 1.0418342
속 0.18886627 0.8370813 0.48073632 0.35389736 0.59412 0.7499994 0.2627067 0.29516062 0.8395928 0.9268053 0.61371934 0.92193866 0.20504808 0.4647116 0.8667272 0.21436477
공포 0.3757254 0.18629275 0.0452104 0.73373514 0.8534381 0.529725 0.45639774 0.8453 -0.0963469 0.52311325 0.07171632 0.76668465 0.44153303 0.38202852 0.8144532 1.0459498
다른 0.92259777 0.8061718 0.17389809 0.9015864 0.29790437 0.73306674 0.3224418 0.34951523 0.081339836 0.06227797 0.28207755 0.48965707 0.1778359 0.5819314 0.37704715 1.0012238
아서 0.4437853 0.16285342 0.18346794 0.44618177 0.27176714 0.49025843 0.1949698 0.61313176 0.46601212 0.15536353 0.055706885 0.2790492 0.5219278 0.380838 0.71389145 0.3028006
씨 0.45045233 0.4170084 0.63419455 0.80394083 0.6676549 0.67784023 0.37575725 0.64416546 -0.057020027 0.123065785 0.36060822 0.5483554 0.37044019 0.5011167 0.36208722 0.27745295
인생 1.0322285 0.88765746 0.7718176 0.583787 0.5048249 0.93747836 1.0399846 0.0306306 0.43854064 0.11663426 0.51695126 0.6920618 -0.08682142 0.6583961 0.7625177 0.76430345
~~ 0.148778 0.5843979 0.6576563 0.23911825 0.88362163 0.8292864 -0.05907464 0.7627375 0.6663346 0.47872013 0.6799133 0.22361042 -0.020767925 0.22036877 0.9756772 0.061727315
짜증 -0.06415051 1.2404109 0.94603705 0.8092692 1.4184127 0.09735474 0.61529356 -0.1133168 0.18069695 1.0359292 0.7493716 -0.5750852 1.5734097 0.8997813 0.40752155 0.23480436
짱 0.42886865 1.0468303 0.6216651 1.1415925 -0.010076297 0.6208995 0.21241581 0.20431006 0.8605401 -0.054346606 0.31143314 0.42623642 0.15479979 0.16305496 0.005988784 0.50264287
뿐 0.03197372 0.26961082 0.4504585 0.3705156 0.76271254 0.008718691 0.8544978 -0.08066574 0.6508888 0.5749277 0.6768161 -0.03153401 0.85308903 1.0032625 0.6729508 0.22160129
은데 0.021066159 0.6158278 0.48943576 -0.058747694 0.7039738 0.15638182 0.38236645 0.31975448 0.80883765 0.3186271 -0.19264363 0.49714932 0.2659041 0.5663322 0.96926093 0.55813044
아요 0.7085174 0.7378749 0.28282788 0.071703866 0.5027179 1.2507322 0.15554403 0.59368414 0.33569288 0.30907556 0.6982856 0.6335372 0.34797436 0.0831343 0.5297248 0.9742934
유치 0.6572396 0.3721385 -0.1343159 0.42878157 0.88599116 0.08563668 -0.23413981 0.32491514 -0.0032000388 0.6126239 0.60950315 0.4601198 0.7963672 0.39522034 0.11994119 0.6899228
필요 0.52233446 0.5039432 0.23316354 0.6309406 0.5648428 1.0661622 0.9932138 0.16277492 0.7105688 0.22124642 1.1037624 0.21379022 0.4880904 0.7401017 0.4202194 0.9003629
가장 0.4531726 0.8375531 0.6016083 0.784758 0.39805946 0.8458343 0.5501731 0.69238615 0.74884874 0.7729236 -0.037579708 0.66898763 0.21406974 0.12426671 0.8955399 0.68002284
음악 0.84831715 0.8813891 0.37460515 0.12574443 0.38627744 0.90497375 0.7661052 0.030927725 0.21364678 0.4247383 0.4073316 0.998221 0.16882399 0.5882751 0.6278444 0.88588274
) 0.25344855 0.13895094 0.15188892 0.344766 0.9433623 0.78222644 0.39205733 0.37992626 0.15531473 0.16116348 -0.16560513 0.8673229 0.97061205 0.6391768 0.102652535 0.74948585
일본 0.38693783 0.49019042 0.64248526 0.6285873 0.8784782 0.17238276 0.7759845 -0.07093108 0.6009022 0.55738693 0.5444922 0.45408937 0.3950547 0.5767551 0.83530515 0.3936777
낮 0.91395634 0.41728443 1.0887616 -0.17631543 0.044939503 0.44494733 -0.43496943 1.2039137 0.5679284 0.16460249 0.4876004 0.67826706 -0.094681956 -0.0685174 1.1272588 0.091005996
오 0.57952344 0.115120016 0.35096738 0.3977207 0.9741631 0.5646877 0.27793154 0.5340977 0.10173227 -0.10789865 0.58275104 0.52543753 0.3277822 0.607616 0.25109747 0.10390277
;; 0.7717917 0.53036535 0.11882269 0.95129305 0.77088976 0.8081872 0.6308688 0.1725788 0.3915138 0.52369386 0.9717205 0.7366274 0.98992854 1.0077655 0.46070692 0.5426194
아이 0.88324594 0.81616265 0.14985588 -0.03896213 0.7001829 0.67055345 0.33090106 0.09222479 0.4790465 0.11068229 0.6728676 0.85116684 0.768914 0.2891079 0.583452 0.7842828
반전 0.655713 0.42874667 0.26714355 0.087982416 0.32049087 0.7895158 0.3066191 0.571417 0.73310184 0.59468466 0.24420604 0.24715902 0.5622036 0.27071255 0.6791877 0.40083867
데 -0.1579716 0.6648391 0.71909446 0.78395396 0.24242938 0.7889094 0.25645655 0.74943703 0.20452385 0.7365007 0.30866927 0.33619395 0.31371987 0.8190061 0.06393356 0.2844868
수준 0.501793 0.34607318 0.22394124 0.91681695 0.6956495 -0.025144573 0.03304054 0.7378664 0.086063966 0.6804269 0.74544895 0.24699663 0.49356362 0.58706635 0.91291165 -0.13103524
다니 0.24769598 0.8365015 0.39362547 0.43776637 0.4906017 0.9152647 0.46646667 0.45201346 0.33819246 0.7826224 0.7967407 0.6027653 0.32019785 0.9131968 0.4635961 0.5097379
웃 1.0350883 0.82445204 0.68857443 -0.12868966 0.3101425 0.28789026 0.6940655 0.42003086 0.9684175 0.8683121 0.4331144 0.3164818 0.55816853 0.8072386 0.45649463 0.5631684
매력 1.1449982 0.6909509 0.4625511 0.848186 -0.0047910577 1.0874082 0.56286913 0.11204359 0.8033439 0.43282738 0.44504988 0.6642387 0.7169281 0.18393451 0.7176011 1.0377325
맞 0.9504772 0.7779948 0.23942888 0.15155068 0.5778336 0.13102745 0.5133068 0.07098606 0.3937953 0.7624258 0.47628975 0.29317456 0.31654727 0.2939209 0.27774745 -0.058097776
인지 0.5130131 0.7340555 0.55759674 0.3671372 0.39247653 0.07600372 0.27457175 0.78452927 -0.11529519 0.9121604 0.08769688 0.66845846 0.2749331 0.7132526 0.5247132 0.5299967
가슴 0.73102605 -0.14116102 0.7041923 0.10549356 0.6577526 0.34897578 -0.15648732 0.11842001 1.1240656 -0.12629792 0.8793784 1.100695 0.14694996 -0.16055003 0.47841057 0.60421574
없이 0.38293692 -0.040190652 -0.13628168 0.15376943 0.34601077 0.6211263 -0.20395982 0.40924793 0.87876785 0.7625121 0.5710166 0.7109217 0.632515 0.62006193 0.49487355 0.49887726
원작 0.7394933 0.12601472 0.04254699 0.6727481 0.403221 0.31804773 0.25121266 0.704191 0.9819926 1.0370849 0.6266352 0.47445077 0.8475304 0.30471516 0.16588776 0.77419335
ㄷ 0.14674349 -0.016059019 0.30567208 0.62296987 0.532441 0.23289615 0.5315508 0.79077685 0.8948427 0.22663675 0.22144517 0.91588944 0.3832805 0.45392904 0.43289578 0.023995213
인간 0.61647135 -0.014820954 0.7010359 0.4123377 0.695955 0.52297735 0.56083375 0.6872137 0.54675996 0.26430222 0.32269514 0.23054424 -0.19896962 0.790392 0.012266995 0.086407386
굿 1.1170164 -0.18966587 1.1064446 -0.14178346 0.1291054 0.26294893 -0.15026528 0.39801672 0.36929855 0.7499609 0.35001498 1.0744172 -0.12131316 0.0010100935 0.008852916 0.08494157
높 0.34384698 0.40182248 0.5731975 0.79653805 1.1407534 0.48799464 0.5238034 0.81795204 -0.18153 0.5989061 0.5625819 0.11467786 0.77320653 0.75076884 0.30939892 0.045054883
ㅠ 0.78793985 0.124764934 0.36472657 0.49614114 0.0021080594 0.63417697 0.7818516 1.175204 0.63199717 0.42598656 0.19167155 0.55382794 0.5132865 0.75623924 0.48225188 0.764733
밋 1.0887917 0.59884304 0.63344556 0.28173742 -0.009200403 0.6664654 -0.18067537 0.2808249 0.8428795 0.65703225 -0.07577851 0.7101316 0.4565507 0.10933318 -0.25379437 0.3021006
( 0.5142784 0.648048 0.3598483 0.5719781 0.3879204 0.71699244 0.72962725 0.910043 0.31027552 0.6116064 0.34752417 0.49530447 0.7943212 0.4595757 0.70253515 0.28029838
급 0.5768153 1.031594 0.7408895 0.4179629 0.5604336 0.34411076 0.5462694 0.658069 0.1182182 0.31556216 0.60973644 0.9881444 1.0809734 0.6369925 0.9054234 -0.11304398
만드 0.121842876 0.48345062 0.29100436 0.27427655 0.1487517 0.74734527 1.0007876 0.084575355 0.1194736 0.79560906 0.72595775 0.49715057 0.046983954 0.70882267 0.097719885 0.96851
눈물 1.1079035 0.94698733 0.8765406 0.02940131 0.46840537 0.7742034 0.6045257 0.5944071 1.3489388 0.004647406 0.8558951 0.5514447 0.3404675 0.83065397 0.008213809 0.19108881
보여 0.1483163 0.010132755 0.67234904 0.34651077 0.45104936 0.73958176 0.75832564 0.6110498 0.6399421 0.22564967 0.018637149 0.19537981 0.6859003 0.80452895 0.2689379 0.96161276
준 0.22154795 0.90503114 1.1713914 0.19238594 0.8626589 0.019066675 0.44739535 -0.10898568 0.67636687 0.20886366 0.09859635 0.3339597 0.85317886 0.51215136 0.6563266 1.1403377
찍 0.07014267 1.1447223 0.33115247 0.27526522 0.9115106 0.070008226 0.44992554 0.12139608 0.30735815 0.8159162 0.44849122 0.5265139 0.4958056 0.66659194 0.20057964 0.447425
인가 -0.08145385 0.3375945 0.42971906 0.93124264 0.46808514 0.7769708 0.26269072 0.5916127 0.54830813 0.5034158 0.51801693 0.4155942 0.69830054 0.8516693 0.38368896 0.43304005
노 0.6232004 0.18115044 0.095011994 1.0361544 0.5543412 -0.30906507 0.27392697 0.44703203 0.23439097 0.56363267 0.70887876 0.1734474 1.0049671 -0.0018311365 0.45036784 0.102328144
용 0.54729855 0.55695736 0.8355954 0.57535833 0.31123522 0.24448113 0.20982698 0.25848642 0.25853983 0.8416281 0.37255454 0.08034063 0.15209636 0.8567791 0.7192442 0.29997727
을까 0.4574831 0.32154408 0.4088112 0.52529544 0.9118654 0.4949791 -0.1234503 1.0296379 0.47200355 0.25415853 0.3069596 0.5672212 0.48852992 0.8684091 0.21681309 0.4701254
화 -0.083103366 0.25181222 0.5808989 0.47776246 0.49755582 -0.026090674 0.48838323 0.76981264 0.291883 0.59017473 0.4368619 0.64658755 0.5685125 0.22071186 0.45340383 0.7507708
코미디 0.36716205 0.42821586 0.56240785 0.6500489 1.036009 0.25083438 0.94186383 0.91345954 0.5709138 0.90551883 0.50345504 0.60816246 0.42445546 0.40941542 1.1275063 0.9265387
여 0.8365383 0.47246897 0.52829134 0.6673766 0.5137062 0.60772383 0.17330311 0.26844037 0.5422053 0.7503804 0.94791996 0.50722253 0.33995512 0.9920755 0.645718 0.76360625
마 0.51925755 0.66404355 0.5954588 0.89796174 0.9369441 0.5688117 0.6461837 0.19405392 0.251243 0.73854053 0.29476038 0.32758674 0.854989 0.8652026 0.25504565 0.12108728
쓰 0.01906355 0.703572 0.2657853 0.8999988 1.0746586 0.46528056 0.574063 0.45182663 0.6803947 0.5680596 0.09777001 0.3202108 0.63576835 0.5402576 0.60702544 0.6730628
모든 0.49280185 0.43957102 1.0107869 0.3568796 0.08513701 0.66116035 0.86425227 0.9866174 0.9677227 0.60123223 -0.013186869 0.45956704 0.45724058 0.93374085 0.3786759 0.1353187
신 0.43180287 0.29104736 0.41511604 -0.02888735 0.2676543 0.8645548 0.47052354 0.8552202 0.5122941 -0.19479915 0.78762 0.5265405 0.80031 0.46515512 0.6156488 0.49879238
5 0.5272928 0.53974617 0.395281 0.349145 0.23373999 0.51310307 0.5067575 0.3284813 0.8640345 -0.011592731 0.9159056 0.3345254 0.48817638 0.89894956 0.5346252 0.2091605
아직 0.71804553 0.16215241 0.6955494 0.65511423 0.66092026 0.8312551 0.6432063 0.21884988 0.8191655 0.08833147 0.41618046 0.67355096 0.30627722 0.8383141 0.2658459 0.4943086
처럼 0.31650355 0.10062735 0.34269503 0.32915625 0.054423586 -0.101909466 0.7842603 0.697462 0.3820552 0.37298912 0.37995964 0.73298645 0.8204423 0.9938744 -0.12688582 0.7897817
눈 0.043352235 0.26299694 0.29458672 0.5219352 0.20797409 0.6538764 1.0033298 -0.2643882 0.89087313 0.22100075 0.81143856 0.13485514 0.92396903 0.24585806 1.0117067 0.21473947
추천 0.68751895 0.7562639 0.20035453 0.69191897 -0.012615045 0.61622256 0.90685546 0.13125525 1.0587223 0.4469006 0.70915204 0.35818735 0.21276206 0.5986931 0.56047314 0.33230326
아닌 0.14682087 0.65014565 0.15249005 0.68907666 0.59354544 0.48441005 0.66915977 0.48723364 -0.15171641 0.25717723 0.39773774 -0.08205618 1.0063698 0.14332996 0.13735834 1.0719361
울 0.8704629 -0.06971653 1.0857543 -0.144339 0.07731292 0.8392636 0.007874094 1.176349 0.7638317 0.35293964 0.10983813 0.52204967 0.47414425 0.53795886 0.7305755 0.19293582
자체 0.48082837 0.4465998 0.093547754 0.71160746 0.6234813 0.5707917 0.7098171 0.4781617 0.75552833 0.859634 0.16900048 0.4954361 0.28577703 0.5711723 0.4246323 0.71325886
몰입 0.9541242 0.47817764 0.2037561 0.7686067 0.36430827 1.0422565 0.360783 0.4126083 0.6864428 0.4328871 0.67916095 0.21289054 0.314116 0.1009243 0.57117814 0.29246086
4 0.23587607 0.2618893 0.7899287 1.0568016 0.7245092 0.29615796 0.66673243 -0.09502367 0.6735234 0.9687315 0.28555155 -0.0601639 0.90503776 0.57013845 0.9281181 0.570811
대박 1.2846637 0.23412266 0.71325094 0.0749754 -0.07376604 0.5775181 1.1583539 0.08605147 1.2768303 0.22913262 0.8629652 0.33598283 0.56134963 0.9037499 0.6922786 0.19146235
몇 0.32199642 0.19323301 0.5546254 0.23413962 0.08300392 0.70140207 0.9425888 0.26873976 0.531865 0.29775324 0.9044522 0.7127904 0.68360835 0.6570855 0.5739156 0.40473083
스럽 0.7634973 0.84263664 0.23041299 0.43163165 0.17842303 0.1267495 0.5539382 0.8522384 0.61939514 0.4167648 0.55674446 0.32764626 0.4842756 1.088512 0.43385157 0.27348307
실망 0.59689516 0.5829596 -0.18399853 0.8844783 0.9772294 0.3256412 0.2780296 -0.32298 -0.10380199 1.180736 0.5234941 0.31420457 0.78048104 0.35774687 0.8092489 0.7669276
는다 0.34851217 0.07292792 0.5800758 0.641274 0.48690638 0.34050792 0.56387633 0.9374384 0.944153 0.6637057 0.41940647 0.79612017 0.5405168 0.18238777 0.99654263 0.51502275
대한 0.6056798 -0.026263539 1.1309415 0.7709969 0.41748437 0.51045066 0.4691374 0.95382124 0.82103884 0.1214121 0.89198697 0.70082295 0.3883761 0.5878428 0.20376594 0.76705337
죠 0.4822185 0.18746734 0.9795902 0.21154915 0.7893623 0.5911405 0.21202253 0.903873 0.7913532 -0.042811215 0.11473739 0.5519232 0.45269653 0.72292435 0.56427526 0.13124332
란 0.82149166 0.35082898 0.074198306 0.78212285 0.38038296 0.8518893 0.26345888 0.46967542 0.47506222 0.3145537 0.72856784 0.591503 0.23809768 0.85405517 0.7320434 0.42393675
그런 0.31182295 0.6715177 0.34329194 1.004841 0.6476936 0.37276047 1.215822 0.9912973 0.3731248 0.756404 0.577001 0.7432862 0.047949728 0.5282829 0.8555181 0.4819088
솔직히 0.71614623 0.40271136 -0.034285773 0.758323 0.3356813 0.68153965 0.57954156 0.6341125 0.27452937 0.50422615 0.7888851 0.75795615 0.64259297 0.63615346 0.7872284 0.9345909
캐릭터 -0.028314067 0.67462784 0.64119697 0.15852435 0.7412568 0.48763406 0.22514468 0.31199652 0.37592044 0.7126498 0.5940674 0.89780015 0.46647918 0.20666154 0.64056623 0.6305736
ㅎ 1.022539 -0.12299235 0.752488 0.7832054 0.1973016 0.60060275 0.3921262 0.81364197 0.82094806 0.6441102 0.75120825 0.517718 0.28308818 0.9178399 0.25072598 -0.14987321
모두 0.9416617 0.5972519 0.42592356 0.94349015 0.08387509 0.44145325 0.26552543 0.06418826 0.8536863 -1.4741718e-05 0.49179065 0.6299127 0.20752911 0.5935948 0.38929203 0.7804623
아주 0.62481236 0.9579982 0.52368677 0.49200207 0.7617675 0.47323474 0.9355496 0.27783477 0.9938732 0.6493254 0.23345797 0.23657829 0.3051262 0.2565755 0.08106779 0.30615827
- 0.72613364 0.26819593 0.14965965 0.24477898 0.78193367 0.33503413 0.5236645 0.7511792 0.66428864 0.2895676 -0.018008577 0.10952785 0.67590994 0.67726195 0.40965882 0.56492054
가족 0.25974447 0.038816262 0.9066809 0.22890069 -0.010583262 0.37844038 0.63359505 0.240065 0.121074766 0.859515 0.24765904 0.77531976 0.4834842 0.25548017 0.88944316 0.3339929
여운 1.0562831 0.78475726 0.9400515 0.771887 0.3043798 0.50576407 1.3846437 -0.061287466 1.1287568 0.010082691 0.6610507 1.3568947 0.120659456 0.12104115 0.35014176 0.040169016
건지 0.48307884 0.43210575 0.19151597 0.8098157 -0.07603858 0.24589778 0.1397078 0.10110241 0.1495962 0.6791495 0.41893044 0.5399421 0.8958952 0.8820267 0.68631345 0.5141866
전혀 0.56676894 0.35111186 0.49772584 0.3316748 0.43916813 -0.22858463 -0.071246855 0.51592445 0.3389107 0.51722133 0.43990198 -0.01570745 0.7950004 0.42715338 0.51248914 0.27665702
나라 0.24793829 0.28229296 0.8051595 0.40134814 0.4835141 0.20236717 0.3006893 0.38905126 0.8723016 0.36380497 0.6472431 0.4028 0.15095808 0.5929298 0.8322344 1.1066546
연기력 1.1099691 0.647942 0.069886215 0.57491034 0.92037886 0.42845207 0.08888546 0.38056853 0.5212347 -0.09130378 0.24860837 0.9207049 0.69433683 0.8449186 0.3070058 0.59808224
후 0.7188096 0.6534406 0.8707298 0.75088584 0.92267585 0.9504275 0.4742919 0.26860982 0.10292325 0.80122626 0.6311624 0.09337287 0.38085383 0.5121994 0.61842126 0.18375307
다면 0.47839433 0.20458207 0.4849467 0.042377926 0.6227296 0.9477914 0.0898092 0.18380281 0.5335573 0.9017483 0.6366688 0.76236266 0.49577895 0.21011004 0.2168003 1.2148168
될 0.35890248 0.7810575 1.2073369 0.7091747 0.78997076 0.22166395 0.7585996 0.29483828 0.6429572 0.5674958 0.6585925 0.2317951 0.27306437 0.5992077 0.3733547 0.73029417
뭔가 0.8963309 0.25083053 0.44372615 0.8927275 0.66919285 0.27228808 0.84497076 0.9126792 0.94945806 0.7090791 0.64892685 0.58064485 0.6944457 0.82444394 0.5300945 0.6367704
그래도 0.5835116 0.6969864 0.3682211 0.09952799 0.4146048 1.1205658 0.56885993 0.4390855 0.87241054 0.5394392 0.36101198 0.32952902 0.48281464 0.010244603 0.36190492 0.4864337
; 0.60089445 0.33117613 0.22032619 0.55512184 0.32296553 0.49838072 0.28221706 0.2379692 0.21272883 0.39531216 0.61838835 0.40997237 0.6889433 0.90862286 0.33010417 0.85963875
시리즈 0.6707607 0.78094983 0.7074899 0.18342893 -0.08841368 0.2211016 0.86363745 0.79271 0.21101998 0.43615827 0.83195555 0.4969223 0.083627775 0.8972277 0.8901411 0.7530429
근데 0.81126213 0.70224 0.6330726 0.86044466 0.84133613 0.9658187 0.9843571 0.69630545 0.203561 -0.06420654 0.27244046 0.46567884 0.4545293 0.04607065 0.009440544 0.38293985
작 0.0034921982 0.20792891 0.7561681 0.65726066 0.6480613 0.7867172 0.7628382 0.23019864 0.8427068 0.3162142 0.50229055 0.3442955 0.6996621 0.48574662 1.02034 0.5716234
표현 0.5029207 -0.054372244 1.2253792 -0.43878356 0.4444213 0.7131046 0.26877797 0.5636255 0.48082024 0.3847131 0.5505421 0.61806417 0.46176425 0.39149967 0.58362734 0.13531806
모습 0.24164286 0.30001426 0.51975614 0.34359258 0.12884441 0.48511982 0.9916781 0.36911222 0.78512377 0.41285187 0.8549748 0.52895933 -0.09196535 0.6265239 0.8562746 0.5412507
제 0.386738 0.11472591 0.7519024 0.75736624 0.72820866 0.8763044 0.672107 0.77652985 0.7693544 0.79580516 0.18675363 0.14334781 0.43132403 0.37094042 0.5657023 0.7475956
공감 0.97407264 0.2704289 0.22938593 1.0194455 0.44349384 0.40237546 0.907413 0.5995926 0.58260673 0.038829103 0.144464 0.3538252 0.66399 0.661275 0.08644883 -0.1154363
밖에 0.3059948 0.3430562 0.274129 0.5513074 0.64382017 0.8235346 1.004496 0.9017079 0.8992071 0.52548015 1.0410852 0.45069018 0.21562415 0.42317292 0.27764136 0.8282989
먹 0.55705565 0.29935348 0.14334689 0.16796643 0.5107512 0.3306729 0.46358207 0.528851 0.12254529 0.2675044 0.10214656 0.23498051 0.18257993 0.7133127 0.695609 1.0029925
계속 0.120639816 0.97832745 0.9575204 0.7039756 0.19615017 0.9719491 0.7676454 0.8274905 0.32648277 0.116658635 0.23807438 0.3015989 -0.007640851 0.875132 0.60324985 0.35047665
이랑 0.28357732 0.5414335 0.638942 0.7137848 0.8879803 0.41557986 0.4246532 0.81991416 0.6514909 0.74669147 0.20031482 0.55102897 0.44205174 0.92748004 0.6090528 0.33852556
제목 0.8600789 0.7005426 0.37010092 0.18935962 0.23660134 0.6873077 -0.052632347 0.7122879 0.67981875 0.42761475 0.6488407 -0.1153808 0.5713179 0.91662323 0.71127707 0.8828318
"" 0.5655132 1.0311909 0.2972765 0.53701776 0.8208725 0.33114952 0.16088644 0.4523155 0.47685584 0.5644708 0.26873288 0.67440605 0.66775197 0.4382264 0.7536865 0.6075459
7 0.42548072 0.3155479 -0.017120657 0.1666971 0.010800927 1.0247552 0.7951309 0.55048805 0.99826574 0.83463436 0.23484442 0.42807427 0.5068879 0.38400397 0.76628876 0.1611399
극장 0.06588471 0.5969609 0.8646308 0.4190249 0.0488668 0.055632018 0.46656337 0.12065661 0.33062667 0.54270756 0.5788681 0.6100595 0.5481132 0.73158234 0.65194595 1.0877314
비 -0.23762481 0.38131168 0.5601658 0.676711 0.89163005 -0.026616277 0.41167626 0.50502956 0.68478733 0.7395915 0.6901846 0.5001888 0.24606337 1.1747283 0.7318994 0.32962263
진 0.81138396 0.2454338 0.7352035 0.48697916 0.29218826 0.91313547 0.08239065 0.5649399 0.17460926 0.5975082 -0.3583155 0.22340518 0.5105961 0.7748686 0.3242592 0.8979589
이걸 0.47426432 0.17312741 0.31540924 0.9453637 0.40905052 -0.25801015 0.53736687 0.7304719 0.1210334 0.29315972 0.81308454 0.21114825 0.16915545 0.5973517 -0.22656296 0.6250043
바 0.26453257 0.38510817 1.0017561 0.75163275 1.1002508 0.275626 1.0571414 0.5661375 0.6825317 1.1130826 0.12924334 0.83143216 1.1821429 1.1007277 0.3298294 0.11726153
그렇 0.21302773 0.89250827 0.67575985 0.36098784 1.0269296 0.6907216 0.21585827 0.33188665 0.120827176 0.74467474 0.37638113 -0.06449109 0.7281192 0.6569995 0.42543545 0.04908884
대사 0.053564295 0.2999878 0.13046744 1.0552479 0.6801089 0.86760557 0.3614118 0.3783829 0.30152377 0.46185908 1.0539343 0.7696705 0.61684656 0.6373033 0.27387244 0.22027595
개봉 0.13620798 0.6640129 0.24621953 0.68108946 1.2400826 0.18314408 0.41277224 0.28735158 0.7558176 0.69855016 0.18808822 0.09936621 0.17602125 0.3332655 0.33759797 0.8451363
부분 0.16175802 -0.03524484 -0.13036847 0.78462106 0.7809378 0.56225294 0.19040003 1.0075502 0.47678703 0.63027805 0.00898281 0.3449081 0.3442805 0.28035548 0.25215945 0.6905043
0 0.21996084 0.7050127 0.49018058 0.5025445 0.6221578 0.5035338 -0.08066124 0.32660744 -0.21400559 0.8846575 0.53260994 0.39981708 1.0485274 0.62639695 0.47537014 0.16988942
OO 0.6744398 0.52916795 0.04840871 0.8994664 0.27034172 0.19188333 -0.022867687 0.8757363 0.322202 0.34968185 0.4963667 0.12087033 0.10885255 0.42359233 -0.045372844 0.616638
대단 0.30304274 0.27649677 0.8444834 0.13838644 -0.08921509 0.6425212 1.1870803 0.23262809 0.7995673 0.6619453 0.95516443 0.24017368 0.20831142 0.17270955 0.6902451 0.15145946
된다 0.6560715 0.6069892 -0.030778326 0.72045344 0.21724467 0.7938933 0.089346915 0.5459809 0.8688419 0.7436677 0.5067402 0.6279446 0.14889859 0.98644704 0.7815395 0.54781955
작가 0.25497463 0.48783934 0.5863327 0.42961365 0.4544581 -0.14066614 0.77475977 0.024676628 0.23824821 0.42072833 0.80429673 -0.12856604 0.6533838 0.023141647 0.83996135 0.7759953
어디 0.18042614 0.52028114 0.49123695 0.67076594 0.7003494 0.4912313 0.28357401 0.8034703 0.7168285 0.9727459 0.7983576 -0.19184652 0.21199256 0.47932744 0.59124404 0.6574852
기분 0.012105251 0.44628778 0.14105493 0.05128148 0.48143408 0.42825574 0.36885512 0.17086431 0.15282278 0.34044507 0.47334576 0.6906432 0.3513819 0.4759932 0.8979237 0.9098796
아쉽 0.55601174 0.9093534 0.114339 0.20947649 0.012048278 0.62710863 0.12597011 0.27591768 0.212979 0.2537693 0.5994966 0.658845 0.29565144 0.4034535 0.4502776 0.6726505
치 0.047089696 0.52359134 0.6057549 0.5714109 0.52067435 0.23090418 -0.14278406 0.7219833 0.4882119 0.19582424 0.40505084 0.6360056 0.9049525 0.6279146 0.37218255 0.8391285
진심 0.60308856 0.23957245 0.30147278 0.38858774 0.52780145 0.14263894 0.72485864 0.40083632 0.54270625 0.1766062 0.4512932 -0.12034682 0.2601684 0.1417627 0.5206924 0.4421523
해도 0.41304633 0.115720816 0.6820237 0.9318472 0.82959193 0.30858094 0.35194424 0.34373662 -0.09368816 0.8517829 0.34332708 0.5724336 0.9458774 0.52648693 0.06382748 0.92950994
보이 0.33312377 0.79543394 0.2289296 0.6558924 0.5779519 0.11587438 0.8026133 0.6939955 0.2900334 0.46432412 0.30546138 0.4003862 0.23919664 0.3850256 0.423452 0.92512435
타임 0.6125751 0.53700215 0.16993617 0.71056074 0.18512549 0.5740057 0.6721043 0.29161885 0.36912677 0.24544363 0.82096934 0.046249975 0.18233967 -0.07790311 -0.09146682 -0.03120235
놓 0.40681198 0.4110979 0.45989835 0.53861624 0.94894123 0.19862412 0.19843681 0.56363523 0.7338961 0.6423513 0.6501054 0.13256855 0.546234 0.10469229 0.3605879 0.9058794
/ 0.48882523 0.55264837 0.24380611 0.22150075 0.6816103 0.98492783 0.7818014 0.49620554 0.6293284 0.66608846 0.63330454 0.13890281 0.6500806 0.041895904 0.25646603 1.0070162
웃기 0.59038997 1.0118107 0.23441862 0.28815532 0.8772646 0.19859153 0.7027824 0.18694675 1.0974548 0.5390226 -0.055407993 0.4018747 0.092636205 0.5451253 0.796654 0.4570548
봐야 0.21783385 0.9441601 0.3201954 0.5967327 0.58682585 0.8253567 1.2734962 0.8180343 0.90707797 0.09793396 0.73420405 0.4698394 -0.0838438 1.1116909 -0.037463434 0.50706613
이제 0.32915354 0.44358855 0.4572572 0.89296675 0.30025673 0.35074222 0.59287685 0.579993 -0.011209252 0.7614671 0.6512665 0.4808776 0.42320615 0.71405184 0.2550372 0.24487966
물 -0.015275149 0.14335543 0.6950393 0.3018984 0.40503174 0.6308671 0.6751621 0.45540208 0.4674982 0.80646586 0.28196597 0.6014765 0.4162711 1.0664166 1.1098598 0.59186244
막장 1.0160753 0.37790087 -0.062198397 0.7145639 0.4725967 -0.079503134 0.4303258 0.42035192 0.09467503 0.64133483 0.40131384 -0.07937818 0.651007 0.17652321 0.41025153 0.57342887
삶 1.0491318 -0.037179302 0.41578853 0.07474906 0.007979323 0.51501375 1.1472623 0.3250205 0.32433188 0.4603353 0.19157085 0.910211 0.19568384 -0.13465473 0.7303843 0.50293416
친구 0.6148512 0.26750502 0.83689237 0.7173078 0.8038867 0.33020318 0.643966 0.82570416 0.801578 0.3885176 0.30862647 0.43230817 0.38517916 1.0243154 0.23008008 0.20495752
잔잔 0.29704756 0.20157361 0.7449291 0.12697923 0.043236498 1.0347517 0.5564975 0.8163912 0.4035994 0.107243024 0.47508502 0.6617989 0.5664244 -0.066280976 0.3710535 0.4920683
조금 0.18502314 0.6742961 0.5075575 0.20165455 0.3422636 0.86407816 0.4286044 0.53374124 0.8239561 0.761434 0.14631419 0.5670989 0.89891505 0.502506 0.21398015 1.1243259
씬 0.43682298 0.6122411 0.96894366 0.5035791 0.8900993 0.6455815 0.57143337 0.7692303 0.1350957 0.47601014 0.26901448 0.81389403 0.06388599 0.18187669 0.17603225 0.6792664
딱 0.029984752 0.10390206 0.576408 0.6953873 0.9260811 0.53847057 0.36685923 0.6397311 0.10248279 0.43044925 0.7631105 0.073754735 0.7991714 0.4193519 0.64537287 0.41871846
영상 0.764076 0.30528527 0.7726469 0.32897252 0.8013432 0.68784446 0.07511373 0.8868163 0.24975415 0.5713828 0.35547578 0.14703517 0.53973997 0.40791422 0.94932747 0.39327598
찾 -0.042257953 0.27977833 0.12214137 0.49308896 0.20795208 0.84728503 -0.073862456 0.7755827 0.8056834 0.09049751 0.06396726 0.69312084 0.5947681 0.51681906 0.112864204 1.2166386
억지 0.2592187 0.44082046 -0.04538307 0.46803725 0.6041294 -0.25303173 0.1507036 0.49102893 -0.10329862 0.4141888 0.32843828 0.26525557 1.1157665 0.6394572 0.2529303 0.934404
중간 0.8067169 0.48238268 -0.15248999 0.4176792 0.24945131 0.73475546 0.09110751 0.096558206 -0.11378912 0.9760185 0.4327676 0.4446144 0.29614675 0.077438824 0.9295457 1.0006984
요즘 0.3057241 0.21323708 0.17446515 0.1247047 0.6376382 0.9729473 0.96306616 0.8333181 1.0166396 0.4180367 0.83282167 0.8002016 0.24979326 0.27869844 0.73126554 0.15136637
같이 0.6580338 0.9129047 0.3462063 0.15550795 0.30889842 0.5260189 0.35914305 0.21710543 0.8796727 0.2692338 0.6770836 -0.010517261 0.9446592 0.6308957 0.16648933 0.51610845
구 0.36509824 0.283651 0.19239554 0.930833 0.53757733 0.91951114 0.7028447 0.8024086 0.3651249 0.89381796 0.8551096 0.930477 0.14241968 1.1055583 0.34517202 0.59979415
" 0.9271734 0.4356276 -0.0058251373 -0.0077843773 0.90243685 0.64634037 0.55543876 0.20707248 0.36187652 0.97303176 0.6700508 0.54275584 0.3478749 0.075738356 0.61291814 0.32660943
가지 0.5239583 0.9059956 0.22285748 0.6158964 0.34270126 0.3080293 0.54447573 1.0258574 0.9690549 0.54259413 0.47728893 0.356544 0.26340967 0.5969967 0.68494517 0.7791261
스릴러 0.7316377 0.40712386 -0.098901294 0.26628757 0.60489607 0.9180199 0.18997099 0.14378546 0.9121226 0.5087144 1.023829 0.3832406 0.45487243 0.48539302 0.9924835 0.14507546
8 0.8424818 0.96252537 1.0617324 0.37779468 0.6076615 0.6357244 0.5167165 0.24401277 0.73163825 0.0100584375 0.58601344 0.2507069 0.48457554 0.47708735 0.4458087 0.5755359
믿 0.8092742 0.18691942 0.22600615 0.09025602 0.53531665 0.5634341 0.7324251 -0.029526612 0.674451 0.7317385 0.040555574 0.76970726 0.2683314 1.0320883 0.39632478 0.20089503
싫 0.38961923 0.7912935 0.78128743 0.8290051 0.4591446 0.49930286 0.45440477 0.4940054 0.31097972 1.3200412 0.569166 -0.21097638 1.1570057 -0.007993469 0.78440547 0.8273829
.... 0.40278238 0.79236233 0.8032662 0.9129032 0.3860774 0.12112509 0.37250885 0.83970857 0.46427423 1.080354 0.49377832 0.9045938 0.4341888 0.71797436 0.60205895 0.24774612
보고 0.70868033 0.3188617 0.31399205 0.17399186 0.112242006 0.49274364 0.40808296 1.0749768 0.4668684 0.4537984 0.47321746 0.25692004 0.27737448 0.8340151 0.76874566 0.41546872
라도 -0.19904312 0.14674598 0.133524 0.50696707 0.9965799 0.53684884 0.27121934 0.668984 0.06669879 0.25313956 0.47130978 0.55251884 0.4837358 0.9234427 0.8779565 0.7583355
나왔 0.16137728 0.8692445 0.11193478 0.39814198 0.5942278 0.27230585 0.8577544 0.9255614 0.56254303 0.6002777 0.4977136 0.6030923 0.7849024 0.72544 0.7179723 1.0799325
아까운 1.0104488 0.28086776 0.21674931 0.53687936 0.11271279 -0.10347648 0.6165002 0.006427705 0.028090207 0.45188892 0.68129617 0.00042876092 0.7517633 -0.031027496 0.12312295 0.49928674
긴장감 1.1782945 0.74922377 0.40002337 0.16998233 -0.17791143 0.4645383 0.35747072 0.08463962 0.89274067 0.3291526 0.6813731 0.44180655 0.49846283 0.4693416 0.18395706 0.59403133
점수 0.3798915 0.24623226 0.15333574 0.03249739 0.58156365 0.1762953 0.1331269 0.19944943 0.20008318 0.5589712 0.43420961 0.41724932 0.46096304 0.5129751 0.19560912 0.54735565
개인 0.30393016 0.694563 0.7148766 0.24279505 0.34678668 0.631509 0.3032865 0.4755934 0.20539062 0.7024646 0.13049874 0.6351914 0.25430024 0.74044836 0.94342333 0.63148373
제대로 0.37885633 0.47278643 0.16292368 0.60403675 -0.13809748 1.028312 0.3753252 0.13533624 0.70634055 0.6932503 0.6144966 0.97184 0.5635595 1.0308244 0.2046672 0.5107733
부족 0.35234058 0.4534281 0.9428696 0.70705074 0.89296305 0.96995103 0.7331997 0.45055065 0.4144696 0.8065659 0.936458 0.06140385 0.81028765 0.67596596 0.6224972 0.25909945
이유 0.13652097 0.86177087 0.525233 0.73959327 0.36144146 0.11502226 0.75910515 0.8588499 0.55336803 0.30500385 0.627509 0.5386579 0.68230915 0.7490267 0.5909674 0.68437636
노래 0.8869589 0.7184347 0.24057491 0.28665325 0.86845285 0.39898416 0.20818277 1.000154 0.34785715 0.5777509 0.41093123 0.9279292 0.36125222 0.74355584 0.6747961 0.22098124
만큼 0.30660272 -0.0066568265 0.7393438 0.4874598 0.7683123 0.6465988 0.33163056 -0.0152909765 0.26959264 0.53220713 0.17288129 1.1604775 0.31403536 -0.10894474 0.4619661 0.37733656
라면 0.13901703 0.51500887 0.06469876 0.15194835 0.78959024 0.72398686 0.9147889 0.97607845 0.6986046 0.3297528 0.47252566 0.89845216 0.55653185 0.1216773 0.6670357 0.8485425
시작 0.75335395 0.838894 0.23791185 0.30381906 1.0552317 0.4460583 0.7710547 0.63191247 0.8762495 0.98394614 0.3802879 0.7325114 0.35461885 0.41502386 0.33257076 0.40510488
잇 1.0575949 0.5056438 0.5342312 0.5982751 0.6558673 1.0046431 0.3316935 -0.2793326 0.36739343 0.46423903 0.08805992 0.8435577 0.39761952 0.76338184 0.32566795 0.19586307
구나 0.5980079 0.9202623 0.008337747 0.285985 0.9900386 0.08677608 0.4862045 0.9170784 0.36437196 0.41751724 0.25242844 0.7629691 0.9956559 0.7677122 0.4809131 0.5631183
특히 1.0136944 0.8213302 0.5323122 0.018703574 0.2060351 0.41786054 0.34061334 0.3376533 0.6113403 0.24587783 0.32742086 0.88697255 0.7528357 0.35342252 0.9148221 0.3564689
한테 0.27073273 0.21465585 0.4590373 0.23615696 0.021287413 0.84805113 0.7961306 0.2042415 0.21252191 0.7747852 0.0038319526 0.33951518 0.80963457 0.7623366 0.054962598 0.79824233
날 0.60740274 0.90079427 0.23097916 0.4278723 0.6369129 0.4303548 0.64005464 0.29166368 1.0960363 -0.0039330763 0.40566325 0.43574893 0.85100746 0.65628475 0.28673172 0.80676234
려고 -0.15475692 0.7699164 0.82060945 0.7986074 0.48131 0.0057331678 0.04745517 0.6457533 -0.04438437 0.6932164 0.29947534 0.43706527 1.00974 0.9688821 0.32949978 0.14125414
제일 0.5346118 0.4225105 -0.03201971 0.40399718 0.81223994 0.69426847 0.54088455 0.86960906 0.8692944 0.41177386 0.23826078 0.79358596 0.87684834 0.64244103 0.30689996 0.11249553
아름다운 0.42713478 0.8186832 0.77992725 0.19682667 -0.01075598 0.88513047 0.998389 -0.062017456 0.9463643 0.25378513 0.61830175 0.99662316 0.619651 -0.049347904 0.2997696 0.90962845
시대 0.88513505 0.095784694 0.3080406 0.38086823 0.75837266 0.6184435 0.51854664 0.14142446 0.3647036 0.87329644 0.40040272 0.3105264 -0.023304282 0.7937887 -0.017845616 0.40981787
ㅜㅜ 0.9085488 0.7356184 1.0587977 0.30015555 0.2538594 0.50453866 0.27725825 0.19664973 0.21035127 0.57254934 0.7527855 1.0090646 0.7720725 0.28830618 0.9452038 0.37200278
어떻게 0.78090626 0.58789057 0.0016380693 0.68502975 0.49996606 0.85746217 0.4432485 1.0041 0.0672358 0.04315756 0.85658956 0.16095695 0.3074967 0.28185713 0.6158213 0.6068791
명 0.572484 0.22006047 0.05606324 0.16933006 0.9757454 0.3267508 0.60430264 0.13067119 0.1336463 0.13285547 0.092449196 0.80046505 0.49559763 0.8534311 0.23630029 0.17546849
당시 0.616442 -0.078536704 0.50886416 0.25195363 0.4301316 0.61567867 0.75268173 0.33969435 0.90325254 0.17216241 0.9001159 0.22561204 0.19819383 0.40874064 0.08641982 0.50696474
엔딩 0.94469976 0.55122036 1.104738 0.0049825655 0.16301605 0.48809576 0.54371077 0.5053023 0.16441587 0.61492366 0.5370415 0.6937349 -0.03173599 0.6094207 0.5745526 0.88794947
나름 0.70078284 0.07979388 0.39049998 0.43034336 0.20183374 0.6768 0.39419407 0.5670246 0.78539574 0.1275321 0.43009722 1.0039238 0.49207616 0.5881167 0.9932081 0.44366843
무섭 0.20418979 1.1252427 0.5044641 0.8559173 0.35935956 0.5093652 0.6356116 0.39566374 0.57425195 0.43822184 0.56702954 0.6570978 0.23922156 0.78673685 0.5562874 0.17119066
나온 0.26667476 0.57668066 0.3287677 -0.04058639 0.44758508 0.3016983 1.1287168 0.41041154 0.40465963 0.8255103 0.3299845 0.08164058 0.7660367 0.6388912 0.92303205 0.91475284
사 0.8776324 0.4767294 0.37322524 0.49863282 0.2828305 0.61213666 0.861149 0.7126339 0.63837916 0.32930827 0.64598167 0.22662136 0.3836719 0.87614036 0.4892115 0.91631204
오랜만 0.48078686 0.53014934 0.9246006 0.4156708 0.152831 1.0814042 0.44894275 0.11034505 1.0988672 0.79276806 0.55354464 0.29360047 0.10336907 0.16615006 0.40967497 0.7141884
니까 1.0279416 0.7637806 0.4092948 1.0268159 0.23589395 0.37594438 0.6246719 0.27565888 1.0373132 0.871762 0.24811348 0.8693077 0.41930464 0.6904586 0.522005 0.0636174
해요 0.40788734 0.6172697 0.6673887 0.5081019 0.7549389 1.1610163 0.65075034 0.3837591 0.9420512 0.65905493 0.43154815 1.0938604 0.3663136 0.72852296 0.7247571 0.5814705
9 0.2335375 0.2717185 0.50238377 0.5627232 0.073246315 0.8865799 0.43288416 0.40797594 0.8696792 0.00092333555 0.70428777 0.67480373 -0.15469751 0.6966125 0.59869736 0.73506737
이것 0.38019612 0.7480177 0.17864129 0.8523626 0.5077959 0.68412715 0.034859587 0.20236601 0.50193816 0.44152153 0.14006044 0.35373378 0.092466034 0.3738258 0.77879745 0.077248886
팬 0.7926731 0.6523245 0.1271889 0.32590976 0.35137406 0.70952123 0.6471049 0.058496535 0.7793283 0.33071294 0.9356502 0.39062807 1.0087825 0.62166506 0.5085541 0.93655574
차라리 0.13166016 0.7840763 0.056428693 0.9665059 0.44073308 -0.40771163 -0.3001512 -0.26497817 0.41983017 0.6896005 1.0432178 0.39112833 0.94516295 0.15647835 0.33482674 0.34262368
봐 0.39091158 0.37999254 0.40591258 0.43218908 0.8430313 0.3140673 0.7314914 0.7185956 0.75863343 0.15375978 0.08067791 0.32308146 0.6812509 0.8976178 0.24781376 0.43164846
절대 0.95126915 0.8294344 0.979787 0.8181111 0.5256144 0.45269334 0.32892516 0.95613796 0.41238225 0.92300516 0.25776166 0.053621855 0.35718578 0.13492532 0.7856813 0.8507862
세상 0.31313336 0.59674764 0.73098147 -0.22099249 0.6067161 0.4646084 0.5599009 0.44533423 0.33539054 -0.07977241 0.22794391 0.7443276 0.20934163 0.8108248 0.9378031 -0.045525003
세 0.86344093 0.18218668 0.43461567 -0.03363617 0.2096594 0.30488873 0.35718018 0.7644436 0.880146 0.7697629 0.702997 0.31017858 0.8531768 0.44493932 0.06280592 0.5446087
못하 -0.038159564 0.1878846 0.8550942 0.17976068 0.9080733 0.23558278 0.6796157 0.2652934 0.26495892 0.95698243 0.7781488 -0.03494067 1.0614945 0.29513824 0.1601345 0.12729661
하지만 0.025604183 1.0121484 0.08000254 1.0890168 0.6999173 0.6018919 0.68212837 0.68333423 -0.09155367 0.62678605 0.28315863 0.64932376 0.81871736 0.5900455 0.75270766 0.8845882
던데 0.6044775 0.6861193 1.1408172 0.77906346 0.21477635 0.6921219 0.58849466 0.864945 0.69780684 0.83927184 0.8907405 0.51257044 0.099033244 0.719268 0.63236725 0.11489378
욕 0.47601405 0.25739852 0.289576 0.79748106 0.25475922 0.17319518 0.42154342 0.39071918 0.3751769 0.92034036 0.72268337 -0.1983745 0.40446508 -0.060392924 0.014780905 0.936832
봄 0.7103004 0.43695801 0.70284146 0.68846154 0.9386166 0.9345893 0.53492767 0.671131 0.30394736 0.58789533 0.8568569 0.71642524 0.20487821 0.24824047 0.8853512 0.19602878
감 0.31623146 0.4194613 0.21794504 0.8613488 0.6388496 0.08886152 0.6515299 0.829733 0.22406594 0.8828257 0.7033465 0.6069985 -0.07698116 -0.08863882 0.29028162 0.63893294
훌륭 0.71943 0.14153138 0.892765 -0.07663235 0.56650287 0.8176491 0.68566656 -0.0061550573 0.74892825 -0.06995938 0.030017782 0.59476006 0.42005908 0.27567112 0.69067144 -0.045105383
너무나 0.98325956 0.9297835 0.6731806 0.5239171 0.6416367 0.07528295 0.34881726 0.13649307 0.758409 0.4438772 0.49964422 1.0764046 0.7823816 -0.14580962 -0.25604123 0.585953
강추 0.7690876 0.19437285 0.4749262 -0.3129467 -0.087878644 0.8196032 0.5002599 0.84353036 1.1768624 0.20907843 0.7423577 0.613762 0.20509468 0.40709355 0.31525522 0.4876184
해야 0.07306009 -0.015421119 0.2914673 0.75147575 0.4308235 1.0229853 0.34946886 0.3448322 0.709774 0.36325738 0.082640015 0.38015944 0.13379914 0.5607894 0.23020267 0.0045973216
됨 1.2307254 0.0027548252 0.69624335 0.76800406 0.60202867 0.49696743 0.2539736 0.65367746 0.39860788 0.7278319 0.395736 0.18784583 0.13577309 0.6852083 0.19404513 0.4000007
ㅡ 0.7729589 0.2969901 0.40720323 0.59902376 1.1305351 0.5263953 0.25407305 0.61199045 0.76909935 1.0676743 0.2234972 0.6217487 0.43399724 1.0495037 1.062965 0.37384608
따뜻 0.8357558 0.57796234 0.7856114 -0.12282551 0.59092635 0.789415 0.607617 0.70050645 1.2273004 -0.028167952 0.93871886 1.0477688 -0.08515264 0.2875593 0.4676462 0.37135482
빼 0.78174984 0.62609565 0.57648313 0.97252977 0.53806585 0.017064309 0.4735392 0.4182425 0.33207855 0.5040872 0.73149145 0.38248092 0.5902442 0.37043455 0.24518397 0.68628436
느끼 1.2127246 0.38850376 0.08295213 0.27920693 0.7384771 0.38655505 0.7479264 0.15725757 0.39679453 0.6092608 0.36745077 0.7275187 -0.3019517 0.6579992 0.4099502 0.49543527
드 0.7686918 0.7856323 0.8731486 0.2660958 0.3488748 0.46836826 0.034059007 0.13425638 0.8566984 1.0044391 0.646939 0.73532224 0.38156894 0.6508761 0.9859206 0.54526764
도대체 -0.23139645 1.1166708 0.44197008 0.850428 0.6045069 0.18658797 0.08732827 -0.17568396 0.09536447 1.305812 1.0365313 0.36200023 0.6721415 1.2927251 0.4532081 0.21768878
어야 0.11985018 0.36343876 0.14554885 0.7379915 0.20375882 -0.03056746 0.042686284 0.7004001 0.23492593 0.45447925 0.47630742 0.45214236 0.6581811 0.73062015 0.10888205 0.57863855
글 0.6604205 0.24517529 0.076852076 0.39325887 0.28624362 0.17511515 0.64144194 0.014073891 0.19257218 0.32892588 0.78111583 0.3644396 0.99889505 0.5482659 0.55685675 0.85791385
마다 0.25024506 0.050449133 0.9612713 0.65846497 0.10922039 0.4443845 0.8107578 0.35979673 0.3740073 0.010881223 -0.06363464 0.6918263 -0.052854348 0.7759164 0.41321176 0.5750865
답답 0.7484675 0.9277905 0.1575664 0.78450346 0.8364657 0.19448037 0.35370195 0.38763928 -0.16679052 0.6179852 0.32279307 0.66235757 1.1361554 0.19156449 0.35943064 0.6607519
준다 0.58822465 0.7811676 -0.031690765 0.3310578 0.65935874 0.71063966 0.9184667 1.1061524 0.38914233 0.5308384 0.9997009 0.95268285 0.7021988 0.4725693 0.66399515 0.78614163
전쟁 2.1267333e-05 -0.27459624 1.1832308 0.5318723 0.5542304 0.7606833 0.10934098 0.24456035 0.31833735 0.8967113 0.74139977 0.7777905 0.8391398 0.4586983 0.03400304 0.43271604
놈 0.33022147 0.61618614 0.70104176 0.8694148 0.2590281 -0.051819623 0.63054204 0.47220927 0.77955794 0.9760333 0.9490083 0.046246868 0.29467615 0.55703163 0.1448956 0.9193962
설정 0.18763833 0.6062946 0.8894 1.3105439 1.2487935 0.14539085 0.17903168 0.5400205 0.10225931 0.80215263 0.25116014 0.31136885 0.6609632 1.0362142 0.51447403 0.56567657
무엇 0.29235482 0.009553426 0.25957254 0.05645558 0.530126 1.0826102 0.34416026 1.1182234 0.6210386 0.90998435 1.0503892 0.19427794 -0.1073052 0.7747042 0.25174153 0.7728885
수작 1.3993809 0.101927616 0.4859827 0.51139075 0.44437918 1.1036111 0.3076114 0.7253008 1.3049356 0.4271187 0.124640584 1.3443261 -0.045705345 -0.012940876 0.8019672 -0.008046898
그저 0.69769853 0.63947517 0.36907247 0.26994875 0.6945013 0.24853253 0.1069332 0.25515798 0.74089646 1.1252859 0.62008 0.6137842 0.6479608 0.7718549 0.48015752 0.48269448
감정 0.9872758 0.6137984 0.6216287 0.62495446 0.6539765 0.5783582 0.60645634 0.4278796 0.5689079 0.3327563 0.8146281 0.8395774 0.5268019 0.42745513 0.53582865 0.11942685
흥미 0.85791 0.6714626 0.20964992 0.7140266 0.6883712 0.14197922 0.9680208 0.30830896 0.10057179 0.05788122 -0.24208316 0.91339 0.15204446 0.8935617 0.7809306 0.20727274
미국 0.1859012 0.78754103 0.1915101 0.18064927 0.6334533 0.07015893 0.14741018 0.5054914 0.42124647 0.9000126 0.23886806 0.851882 0.24767366 0.20504136 0.8636629 0.24442257
만화 -0.040842116 0.6855451 0.5623744 0.32086015 1.0057932 0.50157887 0.51757425 0.3691711 0.9291696 0.40080822 0.5954674 0.14108315 0.24617483 1.1953254 0.44686097 0.47685987
행복 1.1938177 0.7591506 0.53813523 -0.024706034 0.3278302 0.5559042 0.84660757 0.8283579 0.39537624 0.10720074 0.8823527 0.93747795 0.23861241 0.44958714 0.9043552 -0.16212273
신선 0.8936387 0.31278667 0.8035406 1.0480348 0.02413682 0.53448707 0.32259786 0.4859122 0.76317555 0.10177194 0.7000861 1.0565428 0.23253678 0.75686634 0.2739028 0.8245796
뻔 -0.17640692 0.9723955 0.84920865 0.60300636 0.77393603 0.18165658 0.6849444 0.52785087 0.5619602 0.94202316 0.70331126 0.71364987 0.3791588 0.936795 0.8003725 0.8264183
형 0.2139583 0.2444518 0.32763496 0.28647712 0.1870823 0.55019623 0.5201064 0.57358557 0.7648962 -0.05738183 0.33881685 0.36609668 0.7000696 0.7235026 0.025836263 0.49639016
앞 0.9745399 0.553467 1.1477606 0.838394 0.225747 0.12345362 0.16831328 0.72153306 0.41143623 0.23104043 -0.015995337 0.16497308 -0.018166963 0.56113356 0.10090663 0.47409773
어도 0.17057979 0.5112032 0.28227383 0.13781936 0.84160995 0.60577923 0.9953739 0.094364814 0.5044513 -0.022217253 0.15665185 0.55911183 0.6276353 0.44701812 0.43209237 0.36662346
허접 0.68352735 0.27450266 -0.066456825 1.3387884 1.0642015 -0.12152849 0.43186352 0.06439105 0.2520395 1.0418422 0.45823866 0.21521609 0.9449943 0.37598047 -0.15275346 0.026900984
군 0.55398095 0.9045478 0.46271372 0.43841398 0.35467142 0.42105216 0.14390399 0.08547101 0.35634544 0.45052242 0.95442194 0.49238992 0.34792933 0.45637232 0.58226454 0.61307555
시절 0.3331238 0.89236015 0.7607615 0.13572198 0.62449586 0.34565485 0.6744563 0.32162267 0.78437304 0.0052455333 0.18165761 0.5796679 0.05171954 0.6025901 0.7820792 0.4966578
관객 0.49967766 0.50005424 -0.008519234 0.26965246 0.39938158 0.26190093 0.22748187 0.4163347 0.56488144 1.1484809 0.23331445 0.23980762 1.3041016 0.2847604 0.76301825 0.30152094
배경 -0.1463193 0.81750953 -0.010446559 0.65011215 0.4750015 0.2600972 0.99503314 0.6739199 0.76093745 0.2696433 0.6783817 -0.054297365 0.52791244 0.35745677 0.28451 0.5040342
6 0.93882847 0.61273354 0.62519276 0.21704477 0.52794236 0.5318437 0.3912915 0.9923544 0.12361237 0.11342613 0.21699096 0.5047557 0.6324453 0.8805601 0.58692753 -0.04863902
의미 0.107712805 0.7042486 0.10173977 0.015842127 0.21577837 0.21780251 0.5824864 0.30619353 0.37766242 0.4454092 0.1730416 0.8803538 0.15355396 0.042234648 0.28182203 0.4621124
초반 0.23025425 0.60203636 0.031630863 0.8844288 0.6320426 0.17368266 0.80192924 0.44329354 0.24231397 0.3344217 0.97238183 0.3582114 0.9239863 0.23425509 0.2362204 0.68943065
사실 0.62169594 0.9467535 0.8604722 0.55438995 0.7486106 1.13387 0.76683354 0.50428057 0.544506 0.53505564 0.61847067 0.3989737 0.015456909 0.027583908 0.16876385 0.35083827
답 0.77015716 0.56012523 0.6798725 0.3800375 0.3996319 0.5703878 0.24093278 0.68845934 0.51087636 1.0515596 0.11251461 0.28515023 0.3597775 0.49045745 0.58561647 0.41795525
웃음 0.75347483 0.80472904 0.85749626 0.31994292 0.6866352 0.28084573 0.18815061 0.69830316 0.383848 0.86884 1.0178571 0.99773735 0.50531393 0.4368526 0.82816076 0.43746778
엄청 0.8924891 0.93368393 0.45451185 0.5350878 0.06956763 0.74144137 0.5077106 0.6832832 0.33020768 0.85240906 0.1079572 0.7298874 0.43793187 0.09375786 0.5774991 0.3384553
라니 0.94211745 -0.010754805 1.0704983 0.14578064 0.70893717 0.26780033 0.8911526 0.4455563 0.4280117 0.59271425 0.47178915 0.059533466 0.82300514 0.1055648 -0.05884125 0.5469611
더라 0.67158794 0.8558155 0.7562652 0.504307 0.53387415 0.09221339 0.08629928 0.49586514 0.55066866 0.32766974 0.699753 0.5758952 0.47579458 0.3182097 0.59570456 0.57922673
자신 0.6334366 0.27912617 0.9617379 0.5546899 0.0603069 0.17001764 0.7909806 0.7545408 0.5350675 0.80057204 0.38149264 0.23908024 0.3278507 0.95313525 0.056820683 0.54521304
질 0.12650932 0.37816158 0.0039089313 0.22918732 1.1469042 0.5426478 -0.11401872 0.17845464 0.38754722 0.7414612 0.32299414 0.09990939 0.53125435 0.5639088 0.2523874 0.6308275
추억 0.81210524 0.30588007 0.9198641 0.39588544 0.12914787 0.6126649 0.6108133 0.8485142 0.6363006 0.33289525 0.18034965 0.5541137 0.25406417 0.53106 0.17982571 0.04277448
캐스팅 -0.18160336 0.07518747 -0.07462897 0.6240415 0.7206125 0.13502155 0.6021231 0.42187732 0.57091516 0.50648624 0.34604922 0.33275887 0.663599 0.738586 0.3729411 0.7258032
머 0.55747175 0.6588166 0.7924757 0.95066386 0.6411272 0.18050091 0.082101464 1.0085055 0.64385366 1.0602918 0.30552876 0.27240375 0.3534542 0.24361892 0.8756406 0.17991231
첨 0.45780343 0.119518034 0.30266652 0.661111 1.1268624 0.40764946 0.5903656 0.22197594 0.33338675 0.36119694 0.039078124 0.099945635 0.68468803 0.6359031 0.99944663 0.7544893
멋있 0.79086196 0.9471162 0.42057347 0.23285693 0.01306195 1.1409149 0.8215996 0.73118347 1.0056778 0.528144 0.6839909 1.053456 0.3663619 0.4122471 0.1595999 0.70221436
류 -0.22045201 0.86685 0.15846017 0.66263956 0.63630974 0.47971463 0.73161256 0.6255112 0.17236432 0.56814873 0.4782164 0.26856762 0.6412968 1.136162 0.7722376 0.5203349
시나리오 0.22146825 0.39674523 0.678698 1.2021822 0.54432833 0.03986049 0.484672 0.5999686 0.17056921 1.2755554 0.7629221 0.32789174 0.5445223 1.126644 0.87929535 0.50105906
어색 0.1776738 0.6423998 -0.16609375 0.39095894 0.2027104 -0.3556819 0.3492058 0.04809409 -0.14978468 0.8546806 0.44067645 0.3145425 0.5915117 0.70573485 0.70320493 0.26985174
슬프 0.7097158 -0.18909828 0.65402174 -0.14558972 0.3922514 0.42262256 1.0362188 0.7281026 1.021874 0.05671413 0.19899902 0.4808319 -0.08164559 0.37644866 0.78652143 0.33192313
OOO 0.872533 0.5396114 -0.055151794 0.6765825 0.5037562 0.079796664 0.3070981 0.7853144 0.0031703028 0.6915824 0.72820735 0.7421907 1.0290567 0.086917795 0.7174316 0.5660569
정신 0.84561956 0.64060706 0.66709703 0.9878751 0.9048041 0.49775478 0.1499159 0.7794779 0.84022933 0.6556266 0.72551197 0.8660686 0.8294004 0.97820705 1.0960592 0.6297248
분위기 0.8069438 0.44074365 0.45147163 0.9873635 0.5372856 0.65924114 0.51114404 0.65317565 0.92032826 0.6073231 0.31007445 0.7873868 0.38422897 0.69544727 0.46298122 0.45757198
소름 0.34599465 0.6184311 0.5812548 0.46689463 0.038021255 0.807274 0.93484634 0.76074857 0.5501978 0.38343778 0.80896336 0.8576511 -0.1877802 0.604272 -0.19216974 0.52981377
멋진 1.2670655 1.00327 0.35023418 0.64400214 0.28484613 0.60665214 0.70400643 0.5871094 0.7740041 0.42472616 -0.03405869 1.2113225 0.4345196 0.34166357 0.15511343 0.8174133
힘들 0.03685165 0.609398 0.49192756 0.3978864 0.89572924 0.08797227 0.70044816 0.19488508 -0.023635004 0.34369466 0.62569165 0.015301126 0.3249033 0.13014883 0.518139 0.6753751
오늘 0.7079823 0.20295502 0.9757049 0.19887412 0.16206443 0.22827967 0.3401828 0.49540523 1.0537447 0.19522206 0.9392221 0.20204648 0.1727318 0.63817257 0.5230395 0.36731598
어이없 0.43396786 0.86775464 0.13478163 1.0989778 0.4562165 0.32529086 -0.21333164 0.14950687 0.07585193 1.4945723 0.4071913 0.4446851 0.6496522 0.43080625 0.24163525 0.47943926
봐서 0.6544653 0.34391743 0.21821877 0.30682778 0.9415763 0.4232907 0.15798351 0.65851974 0.1440168 0.44360134 0.51662654 0.19446948 0.56746733 0.53706735 0.86343104 0.9202809
구성 0.41865122 0.600781 0.36115327 0.6659861 0.7350165 1.0276979 0.31648546 0.72300184 0.28368124 0.061480783 0.77316076 0.4267817 0.93917435 0.2937076 0.5757337 0.48541555
잡 0.46543077 0.11901491 0.58924913 0.5485313 0.7376036 0.60890627 0.2568243 0.68543875 0.7054186 0.8056245 0.073089294 0.3729956 0.56030434 0.82515454 0.4952037 0.7431609
엄마 0.41963556 0.5555453 0.8726934 0.42431396 0.41463283 0.5478138 0.092362024 0.5999949 0.15245594 0.6245989 0.3538844 0.76423454 0.085028626 0.33919978 0.8214865 0.6877606
함께 0.9089578 0.4894938 0.74819785 0.9618154 0.23069848 0.81904906 0.57202643 0.66130835 0.94430345 -0.004342111 0.24299541 0.46348274 0.041815877 0.9898271 0.6869537 0.5572411
문제 0.39647576 0.5577945 0.3872413 1.0320398 0.37192997 0.29452294 0.65682626 0.16359939 -0.19514647 0.6786788 0.3359709 -0.045094714 0.28635278 0.61688507 0.384048 1.1659741
위해 0.61010295 0.7386896 0.7106253 0.17907973 0.20729516 0.12489318 0.5437775 0.00087012 0.12749746 0.2287788 0.6451426 0.61854076 0.34386143 0.29418823 0.8777794 0.3571565
졸작 0.36844167 0.45367745 -0.09895784 0.9774676 0.8295083 0.24117255 -0.25934318 -0.05218616 -0.11934925 1.2833174 0.5539482 -0.2002949 1.4965957 1.0469579 0.99901897 0.3517944
잊 1.3003559 0.23305218 0.115973175 0.48296925 0.40895218 0.73948187 0.9064409 1.0872654 0.6996941 -0.17068084 0.58745885 0.51688594 -0.12065436 0.10415242 0.757565 0.5306951
등 0.89132494 0.550102 0.8376564 0.7484693 0.02736813 0.7074051 0.6667291 0.41970828 0.2845929 0.63837796 0.5903763 0.31525233 0.5642637 0.28489023 0.4657344 1.200888
집 0.66580564 0.8976723 1.0627424 0.8691352 1.0646414 0.29949716 0.37174433 0.43301108 0.10470078 0.79655206 0.36390263 0.778819 0.49171293 0.41435397 0.13741116 0.7135821
유쾌 0.84421825 0.3081128 0.8333674 0.5735971 0.5466654 0.4968321 1.3347485 0.5709248 0.97865593 -0.29721707 0.22616707 1.1403072 -0.10776332 0.028697811 0.24721822 0.6499534
스러운 0.6426172 1.049271 0.74573064 0.089589946 0.8142416 1.0044237 0.7024116 0.509108 0.6507817 0.008654693 0.9460581 0.3390915 0.28455463 1.0209798 0.5896018 0.52235675
뻔한 -0.094964474 0.7027081 0.23139961 1.128973 0.44941857 -0.032678872 0.35500038 0.7368689 0.47730216 1.1211563 0.87056726 0.7330912 0.39231235 0.28046852 0.8397941 0.62819874
나요 0.6251523 0.12145454 0.17460196 0.6858323 -0.104831256 0.15797094 0.6652111 0.87461084 0.36866006 0.6777534 0.16629227 0.8147242 0.3024981 0.8332187 1.0383015 0.5734151
킬링 0.56130546 0.98367625 0.47346053 0.5217267 0.6186847 0.33765694 0.8351213 0.6823102 0.29236907 1.1007195 0.56201494 0.24547316 0.32151493 0.7460313 0.29021516 0.678805
결국 -0.0004612843 0.06571001 0.20906903 0.455584 0.4340066 0.40338033 0.9476301 0.28019336 0.2923727 0.45658916 0.9150862 0.17899854 0.59316784 0.3289343 0.07675808 0.0037512092
낫 0.29309383 0.307984 0.833794 0.24372797 0.09153531 0.15061912 0.74149257 0.3245023 0.60428154 0.17126866 0.5323959 0.39459816 0.76935554 0.875533 0.3065471 1.1153113
뭘 -0.1947281 0.2644626 0.025288228 0.5382665 0.3159154 0.3367918 0.28529376 0.77249837 0.6170609 0.44938168 0.6183996 0.5520552 0.4641902 0.22911584 0.5052157 0.6018824
간 0.4204273 0.21424687 0.8250602 0.71013325 0.6934056 0.23809865 0.5038062 0.8911735 0.8193479 0.15992962 0.5810632 0.06049289 0.18311019 0.22744147 0.7467157 0.7897892
소리 0.17880613 0.3203768 0.16076408 0.48144296 0.8001688 0.79491794 0.50177497 0.84306234 0.21296479 0.64127433 0.72240275 -0.038124505 0.7823682 0.0581395 0.30387726 0.32111877
미 -0.04466677 0.30469924 0.17753643 0.57440054 0.8026893 0.94796836 0.6026849 0.42524463 0.58325726 0.8100758 0.5731431 0.2940622 0.33934093 0.70637316 1.128324 0.22876409
한데 0.07542454 0.016841952 1.0618361 0.28412247 0.23099531 0.35308734 0.74024695 0.96498525 0.83306754 0.67716897 0.12695205 0.17607342 0.7107693 0.10458428 0.62561435 0.5219949
20 1.0427442 0.008487808 0.9421703 0.7152186 -0.0793748 0.59925044 0.33462757 0.13964096 0.3019923 0.0257249 0.66733605 0.70506036 0.7862031 0.7870059 0.7714755 0.6611626
역사 0.8389187 0.16354163 -0.18130545 -3.8593742e-05 -0.0550844 0.21553136 0.8837494 0.794701 0.81880677 0.21975195 0.9795417 0.37204096 0.47846946 0.7201269 0.85718524 0.5940825
뭔 0.36655906 0.6909229 0.36875433 1.0023401 0.6850989 0.27576518 0.12880063 0.5385302 0.107673496 0.7743332 0.8434663 0.39176157 1.2902675 0.5333288 0.87782496 1.0749524
제발 0.23508775 0.35985497 0.6894259 0.57096493 0.72502 0.051488142 0.73725617 0.8655512 0.43255746 0.28149 0.49745557 0.4628856 0.7856016 0.30357546 0.18254498 0.5012948
포스터 0.0022419328 0.76112705 0.34981492 0.47105536 0.69683 -0.20479776 0.23638913 0.14128888 0.44443357 0.38388112 0.61592406 0.24373202 0.646545 0.463586 0.27849746 0.6447836
아무리 1.0863578 0.5730736 0.39164674 0.4198742 0.49730536 -0.20739919 -0.15750384 0.71664673 -0.11233533 0.84986514 0.7412791 0.23334126 0.55201596 -0.19403216 0.801829 0.005760068
코믹 0.65648323 0.6703303 0.18797937 0.18128876 0.6335828 0.30801082 0.4942602 0.6455106 0.5380313 0.1579465 0.60994905 0.90398836 0.774745 0.48770684 0.95424396 0.23387644
어떤 1.0369812 0.7934714 0.033286683 -0.10693211 0.57215416 1.0821508 0.9256743 0.51478595 0.16148426 0.88569474 1.0814596 0.8142157 0.67662454 0.27112418 0.31452718 0.46827492
완벽 0.69581807 1.0817002 0.69498014 0.49173054 0.31539497 0.8642086 0.5434488 -0.24803057 0.68648195 -0.45667088 -0.101459906 0.58004993 0.20905752 -0.08484592 0.45596793 0.45864627
~~~ 0.6992361 0.961814 0.13399132 0.7085043 0.44998166 0.6510227 0.088972956 -0.0777822 0.92740875 0.6267135 0.12196917 0.85724044 0.36776623 0.29976943 0.93837327 0.29907644
얼마나 0.20450023 0.7912512 0.8118502 0.14631274 0.31065208 0.8958033 0.7561014 0.43553352 0.2970973 0.1658465 0.82859194 0.5665218 0.71061283 0.79553115 0.10657457 0.41937998
애니메이션 0.64321226 0.04702052 0.28907934 0.5924138 -0.1089313 0.4493552 0.93046916 0.7932946 1.0819802 0.46800122 0.75856894 0.350729 0.42822665 0.41778892 0.971795 0.3221916
러 0.8519103 0.65361196 0.10556039 0.44993427 0.27152348 0.5697193 0.5295086 0.111506164 0.54331464 0.7959061 0.6276901 0.4240599 0.44523662 0.8343551 0.5622323 0.16138968
맘 0.8399717 0.20165771 0.6044256 0.11210196 -0.07457125 0.5156338 0.9885899 0.52605635 0.5167786 0.43672812 0.031973768 0.35973462 0.061555516 0.71850306 0.31578463 0.16541217
!!! 0.27309582 0.17193161 0.77529466 0.24962163 0.10539294 0.43782026 0.014914815 0.3276487 0.95160794 0.39514887 1.0130496 0.5533187 0.40388379 0.5217611 1.1064099 0.787034
난다 -0.15301904 0.41508058 0.5751714 0.82789093 0.500447 0.38761362 0.81609744 0.46415687 0.40630347 0.6460678 0.5618995 0.5345877 0.57253796 0.87750983 0.74211526 0.13077083
주연 -0.019573571 0.15523073 0.298395 0.7825094 0.56254995 0.12790169 0.78225595 0.82205075 0.7565706 0.75474876 0.70541745 0.36041024 0.5113987 0.6085359 0.058359973 0.59466463
원 0.3182052 0.37211177 0.806908 0.7096225 0.98223907 0.54779136 0.0590413 0.101455465 0.41557282 0.2956276 1.0088458 -0.099766396 0.37180823 0.17802165 0.62983984 1.0839884
이딴 0.0010969684 0.39816412 0.49851787 1.3129926 0.7650163 0.25815192 0.20195195 -0.45695412 -0.449801 1.215202 1.0824416 0.14229985 1.3114707 0.4734818 0.8619821 0.12204737
버리 0.53942704 0.7785979 0.27953053 0.7357254 0.7264725 0.28527278 0.5207551 0.54691863 0.6954936 0.8308573 0.18422647 0.6724582 0.81261235 -0.08206932 0.5931264 0.17971668
♥ 1.3431933 -0.3157816 1.3024668 -0.44215092 -0.015764143 0.74489534 0.90932393 0.38680643 0.7509953 0.05107272 0.8065209 0.86581933 0.42427987 0.28886497 0.11791286 -0.110548146
어릴 0.4298549 0.44514096 0.33528003 0.10413325 0.27384883 0.600662 0.4739398 0.21667513 0.9763804 0.17532548 0.019178797 1.1386092 0.027775824 0.553885 0.5410986 0.21879771
후회 0.56074107 0.29365912 0.07570196 0.7762134 0.5236274 -0.27321708 0.63881606 0.5342976 0.29018256 0.44341415 -0.0007594002 0.4305616 0.6395334 0.79883987 0.9040647 1.1509027
진부 0.54031134 0.80747044 0.20045851 0.5111479 0.90542984 -0.16674942 -0.10359284 0.1494007 0.116118796 0.45216736 0.5123654 0.46071097 0.86126155 0.34689197 -0.05954064 0.36192918
나올 0.6547457 0.3236551 0.53323483 0.7277983 0.69858634 0.8334897 1.2494366 0.8884437 0.5088073 0.6218971 0.4174341 0.29326123 0.5483832 0.6894115 0.65955794 0.7734792
됐 0.09285446 0.34197247 0.75125974 0.45166937 0.05061888 0.30751503 0.30876938 0.50381887 0.9353596 0.38705173 0.22518708 0.3583006 0.6481622 0.6140425 0.726624 0.14664236
보단 0.0471036 0.6307989 0.28646955 0.114487566 0.289704 0.19334768 0.48791978 0.321351 0.42386857 1.1048301 0.85701615 0.57048875 0.5715904 0.7030181 0.88783586 0.50430673
장난 0.5098196 0.25196004 0.80499333 0.6962918 0.608446 -0.1508078 0.68866146 0.8202238 0.08264934 0.7449107 0.442151 0.10528733 0.89052206 0.6938534 0.721527 0.8925084
책 0.21524721 0.544426 0.57436234 0.65934265 0.89636445 0.73982155 0.4940165 0.23189901 0.21684894 0.9733443 0.25387925 0.2161872 0.1880331 1.0519354 0.46448067 0.78398305
더니 -0.14267245 0.6561483 0.41400507 0.46820182 0.9351945 0.45677882 -0.013472352 0.37679052 0.10382904 0.8054084 0.65251523 0.23169792 1.0726093 0.30277526 0.56696147 0.040465396
큰 0.8679546 0.17116469 0.34951776 0.55624837 0.7447229 0.92547756 0.56624687 0.50878584 0.53846294 0.16447312 0.21256272 0.2830315 0.26581365 0.18175107 0.41103464 0.26380962
영화관 0.95261407 0.43982017 0.17835802 0.5689784 0.6994803 0.5892365 0.28290606 0.7272943 0.18690668 0.9831207 0.30813158 0.7576413 0.76677406 0.49192524 0.90018725 0.80046964
둘 0.6950841 0.2614825 0.25227326 0.46085492 0.28915378 0.76550776 0.5768106 0.32191697 0.49376053 0.38550454 0.4776795 0.5809701 0.5248535 0.9057406 0.74757856 0.42347863
출연 -0.0022977781 0.7160837 0.60537285 0.7739621 0.75040364 0.21704668 0.37987456 0.40050995 0.3959067 0.4288082 0.4753757 0.63094246 0.38233495 0.35291743 0.501812 0.6236298
극 0.7482999 0.076442994 0.9949721 0.44932914 0.6628774 0.8168473 0.26934382 -0.18689176 0.08777445 0.30518448 0.4076169 0.88842463 0.5785596 0.5603826 0.43339533 0.56244457
ㅅ 0.34541318 0.23872636 0.117524706 0.16704506 0.20815495 0.42045185 0.042528514 0.740024 0.44405898 0.37325394 -0.114063196 0.63375354 0.8291195 0.6381617 0.27086106 0.7441945
개연 -0.43223608 0.4759082 1.0588458 1.0427165 0.64493227 0.9155956 0.9255911 -0.17745812 0.029603116 1.3824048 0.66999274 -0.019637844 0.9586951 1.1363602 0.6548548 0.10043382
충격 0.16363864 0.681637 0.6437613 -0.0127170915 0.50593996 0.4502063 0.5290836 0.13416137 0.2191965 0.85954624 0.2332146 0.52355504 0.063384704 0.5585076 0.3470912 0.23016424
여기 0.57739 0.8874779 0.35963964 0.09806305 0.59131026 0.15924439 0.2714643 1.0967662 0.64275867 0.55755055 0.706742 0.30506516 0.41404855 0.121041864 1.0239247 -0.0423417
평가 0.60165167 0.5578058 0.45043066 0.550937 0.6506207 0.62280244 0.4451698 1.0309125 0.5362388 0.42371145 0.9915849 0.30715162 0.36283568 0.18355028 0.9283323 0.04057293
엇 0.81775206 -0.13955237 0.51629514 0.5352483 0.2633979 0.7903924 0.8193021 1.0364493 0.565366 0.5174642 1.0375581 0.5691065 0.88037795 0.94515204 0.7583387 0.89398485
꺼 -0.161034 0.81899804 -0.035179794 0.64458674 0.20601784 0.68573964 0.52598256 0.75696427 0.039937317 0.67355245 0.22261986 0.6901991 0.78297937 0.039002046 0.19937606 0.27150717
잔인 0.067756765 0.4730674 0.07305685 0.20226686 0.6573469 0.922638 0.47762814 0.26806232 0.115133025 0.13500157 0.21883035 0.50699204 0.121315636 0.47868648 0.17050613 0.2622261
아름답 0.5645863 0.20458628 0.724638 0.40955073 -0.09238949 0.7816702 0.626231 0.20215829 0.5309817 0.11430691 0.13763592 0.97734237 0.5757768 0.14329243 0.44717464 0.69342774
얘기 -0.020682395 0.21731539 0.7658965 0.7092045 0.16906506 0.41718188 0.22512946 0.4411475 -0.2537115 0.22819215 0.52699655 0.6099488 0.55273235 0.38180125 0.38163772 0.4048032
줬 0.7789095 0.44310352 -0.007521127 0.259463 0.37192228 0.39557272 0.11853202 0.14339997 0.37377572 0.19095172 0.34638962 0.5530561 0.31682673 0.7100815 1.0721418 0.5839691
자기 -0.3125334 0.9338189 0.42242122 0.28417408 0.64010215 0.60556185 0.5795803 0.6977989 -0.1572606 0.2989828 0.22105636 0.46659824 0.93277997 1.0093412 1.1614091 0.67478037
예술 0.49082962 0.10070592 0.56954676 0.11356821 0.7463141 0.45895034 0.6497416 0.5937189 0.7588143 0.85756195 0.45081726 0.1859875 0.35669053 0.47887272 0.9353564 0.3186269
갈수록 0.5375818 0.7598265 0.11414036 0.8920966 0.903912 0.027002286 0.6330995 0.4679971 0.55199015 0.9668838 0.23694605 0.49018872 0.96747446 0.34461376 0.82923794 0.4858344
매우 0.67065126 0.57657635 1.1534768 0.7146833 0.2811106 0.27359688 0.68949616 0.62169313 1.0286136 0.2676361 0.2869692 0.6923822 0.7599546 0.26534516 0.7945564 0.049301296
반 0.33222315 0.08831858 0.1481163 0.2732268 0.7989006 0.4235808 0.84367543 -0.009308708 0.21987139 0.36618876 0.33925116 0.08688623 0.26421896 0.82438433 0.6837286 0.33187672
위한 0.7469014 -0.03806893 0.7171338 0.37605208 0.4558191 0.63572556 0.21662688 0.9548984 0.35619688 0.69668 0.07163609 0.45327997 0.50507957 0.55735254 0.30530322 1.0346465
든 0.24529615 0.79739 0.9247572 0.25415736 0.4303796 0.62337095 0.024350937 0.11909647 0.26878566 0.21055405 0.6730557 0.62103444 0.052829076 0.7415259 0.8210858 0.6955189
이리 0.99835855 0.72413313 0.0134147685 0.6298864 0.52569455 0.44166926 0.04255884 0.77454644 0.7214572 0.46854767 0.3457329 0.1301543 0.6011042 -0.03119417 0.21639882 -0.21704966
봐라 1.062817 0.9246418 0.42114416 0.9176807 0.09259311 0.41710493 0.09500565 0.75031304 0.46727225 0.6955894 0.16389574 0.38672945 0.21492068 0.76044244 -0.22160575 0.7214191
이후 0.19351545 0.19958581 0.6135855 0.5344875 0.41126147 0.8177359 0.6109337 0.22715558 0.8031795 0.9079885 0.7454901 0.71413875 0.47350827 0.7771093 0.16160072 0.82410496
읽 -0.10681346 0.39550224 0.768981 0.15715463 0.6710102 0.5528952 0.43132746 0.09337611 0.5139944 0.6048769 0.28719988 -0.15863255 0.6667489 0.40585884 0.5527215 0.6394275
얼굴 0.343868 0.5613385 0.4669223 0.567754 0.87311697 0.19904597 0.6038659 0.9612254 0.43585017 0.40459985 0.2732405 0.14601068 0.7541423 0.94532084 0.64635247 0.5333456
꽤 0.67979854 0.38005036 0.46228924 -0.2087502 0.3559227 0.47917515 0.36260483 0.6554546 1.1509359 -0.36359054 0.8033015 0.46834046 0.43574315 0.49223912 0.30995834 0.5470206
불 0.59641975 0.3112382 0.38874203 0.915196 0.25223744 0.15484467 0.55499446 1.0854738 0.70936096 0.89851445 0.2711311 0.64217794 0.48515913 0.45125377 1.0370662 0.60708183
으나 0.37804568 0.46751738 0.15680747 0.9843707 0.45569843 0.44582313 0.07077948 0.48108038 -0.086254604 0.60159165 0.1071659 0.06535332 1.3391614 1.0749353 -0.11058385 0.6983899
깊 0.7285654 0.6434194 1.0095667 0.09540806 0.11260905 0.832207 0.49859864 0.011960618 0.8720717 0.17749612 0.50934315 0.6636184 0.048379082 0.4409399 0.30020085 0.65096086
