10000 16
<unk> -1.002337 -0.109762445 0.14532876 0.040490117 -1.5241717 -0.1327339 -0.65695375 -1.3728664 -0.3164819 -0.04410613 -0.6739502 -0.6779598 0.65170425 0.047862444 -0.91226643 -2.1950426
<unk> 1.6529859 0.026629828 0.28054786 -0.86508393 -1.5023628 -0.742237 0.7079843 -1.9684154 -0.7678201 -0.7302058 -0.42207605 -0.69482565 -0.45602268 -0.5700671 0.43904364 -0.3995309
<unk> -0.72877955 1.607757 0.94774944 -0.039073713 0.6006317 -1.135535 0.56036115 -0.9035303 0.64445424 -1.9866387 -0.92065746 0.002171846 0.7033176 0.042773403 -1.43 1.431207
 0.8721491 -0.08364809 -0.5432453 -0.371082 -0.16571672 -1.1407499 -0.5110327 1.098879 0.10821412 -0.10450807 2.2222657 0.0057397923 -0.43878448 -0.45124406 -0.37817672 -2.1852713
. 1.163753 0.35124835 -0.08082257 -0.78144115 -0.3986544 0.509088 1.3335205 0.39599648 0.45885482 -2.1652453 -0.22990683 -0.30171126 0.63991314 0.3371545 -0.6448282 0.0057179513
영화 0.26880944 1.0170838 0.22235833 0.328831 0.02421211 0.66999507 -0.6890404 -1.6768284 -0.39002898 0.552809 -0.30532503 -0.8786995 -0.94769764 0.71369004 -0.9829774 1.6663072
다 0.036516156 -0.6393136 -1.6418358 -0.44646463 -0.050214395 0.56928706 1.0523083 -1.3741189 0.2031979 -1.6308244 1.2286649 -1.784446 -1.2237673 0.17221867 0.30716056 -1.9041845
고 -1.487709 0.26567814 -0.5953769 0.26411405 1.6596093 0.7615988 0.2314716 -0.039451726 -1.3296059 1.2194474 1.6364232 -1.0933576 -0.17372894 0.08551225 -0.64413244 1.5274713
하 -1.1375949 0.07923361 0.5700292 -0.073589355 -0.7616994 -0.5041639 0.7856597 1.3264513 -1.7959427 0.7854204 0.92836374 0.10879482 -0.18327492 -0.05829806 1.3985109 -0.4737795
을 0.06029752 -0.07071202 -0.49809533 -2.210736 -0.436593 -1.0141063 0.3883195 -1.4905658 0.5315824 0.461133 0.62495977 0.14423102 0.16036463 -0.13672842 1.6193004 0.2541489
보 -1.5654079 0.3721794 -0.97814643 -0.243559 -0.19194777 -0.46848834 0.16394435 -0.60091543 1.6620183 -0.39462253 -0.7912309 -1.5306115 0.4605098 0.35069507 1.0837694 0.115627795
.. -0.5407481 -0.75953907 -2.7890232 0.5635672 -0.11441309 0.20983297 -0.05768931 -1.2489176 0.44874474 0.46189588 -0.1576833 0.030029096 -0.17931467 -0.06252874 0.07548157 -0.5339025
게 0.9122702 2.0335793 0.6530459 -0.62779224 1.151765 -0.08366772 -0.10813172 1.7791916 -0.34773475 0.48363578 -0.6612546 0.065314494 -0.6605403 0.98710746 -0.10631584 0.91239166
, 1.4437994 0.5844277 1.1021986 -1.3151374 1.1308491 -0.90032 -1.1904862 -0.7782968 0.9070587 -0.8091162 0.62270933 1.1576807 -0.6609876 -0.93180025 -0.76143783 -0.59543717
! 0.3078466 0.6832317 0.033266954 -0.55965304 0.6473751 0.17828004 -1.0991328 1.1763613 -0.8423359 -0.034621533 -1.4506985 -0.5073085 -0.9114394 -0.13464151 0.5199252 1.2641865
지 0.17927502 0.68749744 0.60411465 -1.3309352 0.18412438 0.3771958 0.36528948 0.27672297 0.59340274 -0.05010763 0.66126454 -0.3931353 -1.3825201 -0.4240635 -0.02416762 0.37415683
있 -1.661643 0.28402492 -0.75511265 -0.5157438 0.1003372 -0.30247867 -0.67869693 0.28967845 1.232002 -0.12786423 -0.75191516 0.80044395 1.4156193 0.24656752 0.48193887 0.026514601
없 -0.11156165 -1.0756477 0.91126764 0.1141962 -0.39244795 -0.55440384 2.9519427 1.44714 -0.3763769 0.49002808 -0.48912287 0.21309552 1.3392646 -0.020998273 0.14419277 -0.24594326
? 0.8467233 -1.0409709 -0.52996176 0.7225137 0.6095249 -0.1907868 -0.51690865 -0.45312056 0.05962972 -0.33578774 0.19412959 0.62567395 -2.514946 0.9300948 -0.24556568 -0.87153983
좋 -0.9826141 0.30859154 0.41903096 2.69254 -0.06702929 1.6102531 0.14964256 0.12330409 1.5089562 -0.66130865 2.050302 -1.7495391 -0.6636307 -0.42799112 0.20895487 -1.5926621
나 -0.6441442 1.2590445 2.5023308 0.45432168 -1.4705194 -1.4324598 -0.44809154 -0.82767373 -0.5207678 0.1880592 0.9623886 0.08934054 -1.7694279 0.9088713 0.62855506 -0.2119485
었 1.2565665 -0.58030677 -0.32764065 -1.9508983 -0.20682457 1.1516526 -0.13548994 -0.13661765 -1.4356782 2.2433765 -0.5607811 -0.36506203 -1.4064405 0.20907551 0.17350815 0.02054403
만 1.4877769 -1.6014873 -0.070452735 -0.34784454 -0.49193576 0.040598307 -1.7255358 0.066269614 0.9022618 -1.1533465 -2.646711 -1.5212417 0.6351575 1.174838 0.8361625 -0.5787225
는데 -0.55830806 1.2940298 1.725646 -0.43856534 -1.938484 -0.35281986 1.7016257 -1.0378768 -0.4860121 -1.0111355 0.21125458 0.0054220147 0.5326746 -1.4403664 1.1520007 1.0856267
너무 -1.6616898 -0.6185685 -0.9241862 0.51372653 -0.5264493 1.1891192 0.22559741 -0.24494186 -0.017835777 0.020189727 0.95014644 -0.22129992 2.2244506 0.7578263 1.0312163 1.0739068
봤 -0.52459836 0.58121324 -1.1814477 0.8204262 -0.6062773 1.1013776 -0.79111195 0.35565755 -2.5827363 -0.5005969 -1.8233821 -0.20056999 -0.97864366 1.1919385 2.1860344 -0.30994773
적 0.49171683 0.015968604 0.21098065 0.12653977 0.8785089 -0.04099511 -0.027618911 0.7314419 0.6903433 -0.46534756 0.72556394 -0.8134587 0.9054409 -0.22871654 2.0182366 0.9459323
안 0.54152817 -2.2258685 -0.49433482 0.961807 -0.8315338 -0.27951384 0.8507008 -0.0070295273 -0.6620308 1.0390601 0.3445742 0.18229702 -1.2946262 0.37725082 1.5271547 0.17243136
로 -1.1013304 0.2902282 1.4029847 1.0038352 -1.0813247 0.48763672 -0.21399724 0.3943838 -1.2260431 -2.3959172 -0.74721247 0.2132048 -0.3215385 0.83467674 -0.052059166 -0.6848093
정말 -1.4303229 -0.14776208 0.03539274 0.26049286 -0.42347303 -0.30742732 0.17481467 -0.600595 1.9035636 1.6601223 -0.9835905 -1.4705224 0.01229687 -0.040443327 1.4458954 0.010900705
음 -0.11168294 -0.93412507 -0.37616992 -0.19097862 -1.8126953 -0.6631053 0.73871684 -1.5972565 -2.8141842 0.38333762 0.21814774 -0.05471762 -0.26432088 1.0108551 0.5920629 -1.929485
것 -0.25624144 0.117843196 0.50076425 0.30027992 -1.8259302 1.2268095 0.606357 2.5122707 0.9527259 -0.2837116 -0.21165435 1.0908115 -0.16360003 0.7007555 -1.0200995 -0.7018484
아 -0.008651875 -0.049226124 0.32928443 -0.59764946 2.63041 -0.30993602 0.3805204 1.3773849 0.44647148 0.55564576 -0.1681608 -2.8988528 -1.330343 0.47283497 -0.23599616 0.99995255
네요 0.057855725 -0.16573784 1.0128204 -2.3538506 0.096723124 -0.20619968 -0.724649 -0.24394284 -0.14466672 0.45019037 0.15212347 1.0331188 -0.38132775 0.44034553 -0.30728582 0.37117568
어 0.4324384 -0.82922864 -0.68755025 -0.9417501 -0.2843849 0.47275203 0.5415925 -0.9826526 0.025156043 1.4854969 0.9595178 -0.48167253 0.18306603 -1.2163981 -1.2038256 -1.5741036
재밌 0.96961594 1.1307787 0.887523 0.90718275 -0.500734 -0.04188229 -1.1538659 -1.5543162 -1.5275066 0.78278047 -0.08649228 -1.5406108 0.9169969 -0.07208619 1.3884488 1.4381684
같 0.6133816 -2.3175032 1.3405174 -1.0921282 -0.16406311 -0.7325244 0.8869272 -0.28411 1.4108443 -0.62808394 0.5648449 -0.649544 -0.63116586 0.17601503 -0.8572763 -0.9559025
점 0.19896375 -0.7656432 1.0923246 0.3953917 0.10176059 0.7918887 0.5867132 -0.16643144 -0.96176165 0.20783456 1.0692884 -0.39700738 0.7261888 -0.1671561 0.6385094 -1.0839504
지만 0.27765173 -1.6429577 0.4826431 0.93245333 -1.6413661 0.39834413 -0.5913079 1.4592365 0.0029204257 -0.2395888 -0.070043534 -0.2700529 0.13218918 -0.6834689 -0.015779166 2.249522
진짜 0.22814813 1.798975 0.4164428 1.9773321 -0.6340189 -0.36605826 1.3850405 -2.2597904 0.9181276 0.032381903 -0.48580417 0.85273635 -0.48920822 -1.186807 -0.03928875 1.376302
했 1.5429052 -1.5408036 -1.4072124 -0.39774564 0.70822483 -1.420482 1.4674729 0.2975794 1.2682499 -0.45643675 -0.98552203 -0.30078882 -0.7425428 0.29632288 -0.2853628 1.2514396
기 -1.0272127 -0.097654544 1.2524352 -0.090760164 -0.36616185 0.9938064 -1.5189698 0.48891878 0.7721788 -0.4222308 1.5579784 -1.4186298 1.2233711 -0.5083525 0.032385305 -1.1427382
에서 0.45807624 1.5749985 -0.71574116 0.96339786 0.53451157 1.3931495 0.2551453 0.15934761 -0.38430503 -0.4103827 0.9680114 0.8652784 1.2992412 0.80843157 1.9722567 -0.18362929
네 -0.20353624 -1.9422573 1.4749274 -0.09695801 -1.1350482 0.39406484 2.3695683 -0.32179174 -1.3906566 0.68977726 -2.021937 0.75216657 -0.15667717 0.09465682 -0.46869123 -1.5051919
않 -0.480028 -0.35367987 -0.25429243 -2.0277514 -0.028198397 -0.19590974 -0.21407793 -0.1572629 0.38729662 0.40947425 0.46264 -0.13791364 -0.23355882 -0.19407378 -0.09468762 -2.8928752
거 0.6473535 -0.7787171 -0.01977715 1.4372246 -0.06573874 0.12926008 1.9603317 0.3822924 -0.22915076 -1.3717597 -0.54536206 -0.59175044 0.23107076 0.38195 -0.40208274 -0.982185
았 1.2332393 -0.099022076 -0.87043834 -1.8862226 1.7212496 -0.4248027 -1.2058566 1.333507 -0.30280998 0.06744293 -0.2126095 2.08375 0.61035347 0.32561472 -0.376074 0.6309848
수 -0.16584869 0.5421072 0.17151175 -2.8567712 1.1582235 -0.5789128 -0.8356702 0.3333812 -1.9827873 -0.24416782 -1.1335181 0.15505768 1.6102709 0.02912731 0.4019105 -0.34551045
되 -2.1066446 -0.073223025 0.107658826 0.112110324 -1.224491 -3.4999642 0.8725917 -0.35824484 -2.5954282 1.8099425 -0.0635257 0.48777056 1.2461895 -0.6601669 -0.22947012 1.116818
면 -1.980186 -0.24167855 -0.776066 0.5173528 -1.7649395 -0.32584754 -0.6675438 0.81490666 -1.6537197 -0.13304521 -0.27991357 0.27144265 -1.11845 0.45988372 1.141635 -0.7812448
ㅋㅋ -0.83498996 0.32790235 -1.0234164 0.9789835 -2.2633307 -0.9242655 0.3593057 0.04376956 -1.230217 -0.32729313 0.23275343 2.1007545 1.9030137 1.1460023 1.0664551 0.2856384
말 -0.29285166 0.2503138 -1.3667092 1.1002797 -0.36796105 0.18087003 0.71579325 -0.6244113 -0.08777482 -0.67408204 -0.24831666 -0.09843187 -0.9581088 -0.055935066 0.68479556 1.0402765
인 -1.0118423 -1.0546129 0.9358984 1.9944662 -0.18674783 -0.6786798 0.16805324 -0.73159647 -0.842874 -0.2653645 -2.6245341 0.7312908 0.5791651 0.047850482 -1.0929796 -1.434129
연기 0.66830844 0.40573302 -1.0812678 0.86413336 -0.13503613 0.091244034 0.57472235 -1.4163172 0.33080196 -0.88617367 -0.027553406 -0.15012991 0.5733939 0.31446293 1.3708788 0.06530858
주 -1.838322 -1.0086542 0.06951221 1.8583245 -2.2314923 0.07460924 0.12000199 -0.0053125857 1.0431219 -0.9085479 1.6323951 0.42879134 0.99524075 0.019911427 0.6582413 0.527994
내 -1.5191233 0.8223902 -0.98768395 -0.062457375 -1.013332 -0.46941608 -0.8598624 2.0682905 -0.15247956 0.09147842 -1.5568173 -1.953765 1.0928653 0.10126224 0.63081247 0.08592466
최고 0.3548736 2.2198892 -1.2422302 0.34478712 0.47207177 -2.4200191 -0.95469666 0.49756822 -1.7115705 0.5140399 1.1830485 0.46096686 -0.65118337 -0.8149173 0.7021597 0.21312635
~ -0.6530668 -0.34063792 -0.7228033 0.5784262 1.2448 0.32659274 -0.23361684 -1.4578139 1.0461512 1.8112371 -0.72865045 -1.7085339 1.671444 0.42124915 1.0742025 0.41223273
평점 -0.5568525 -0.61355966 -0.3108558 -0.43702662 0.123218305 0.96216226 0.553529 1.5311352 -0.30022407 1.5248693 -0.0635456 -0.30620432 0.57604855 -0.7607153 -0.72706574 0.8525361
이런 -1.1876578 1.5186611 1.4640516 -1.0801104 -1.1397866 -0.81821704 0.5764138 0.16979879 0.7127838 -0.25765094 -0.25499123 0.5216248 2.0341158 -1.2044431 -1.2231684 -0.83823663
던 0.4754153 0.8578011 -0.82071865 -0.7158458 0.76313764 -1.4137295 -0.090245515 0.70004845 -0.9758352 0.5153055 -0.07837816 0.7994086 -0.39905986 -2.0010152 1.4518452 0.38101673
어요 0.24486834 -0.025434667 0.4788884 -1.5438541 0.8180747 -1.7913765 0.24112622 -0.5222366 -1.9160455 1.2355436 0.19332267 -0.83396137 0.4516778 -0.43246302 0.9524021 0.5809176
할 0.20668018 -1.4217515 0.65427846 0.6193297 0.5177059 -1.0988059 0.46097016 -0.38566583 0.55826867 0.97832257 1.0847538 -0.10565844 -1.1006163 0.23075703 1.1123912 0.46553972
왜 -0.62080336 0.29739866 0.5827338 -0.9059506 0.09028325 -0.26707545 -0.93686986 0.10942079 -0.30587852 -0.76713014 0.40084565 1.8341881 0.022141963 -0.2853299 0.045098413 0.7061539
겠 -0.23435862 1.9922001 -0.13625456 0.12219903 -0.27603474 -1.2160618 2.1575067 0.8153615 1.8082896 0.41261813 -0.25880903 -0.27860796 -0.16908547 -0.64118123 -0.7645722 0.16991617
해 -0.75615597 -0.052190572 0.42479154 -1.1315801 0.6431216 -1.6303647 -0.74832946 -0.8642926 1.521312 0.5514652 -0.860322 -2.1287503 -0.48687685 -0.10408239 -0.5373949 -1.1425375
1 0.17552942 -0.046435084 0.4897278 1.1649607 0.8276241 -0.7541191 0.17885323 -0.19685009 1.5847304 0.28093863 -0.94380534 -0.16500053 -1.4759202 1.4331326 -0.84990716 -0.8069665
스토리 0.5571705 -1.4232215 0.4775174 -0.41641647 -0.50116813 1.197935 0.28681198 0.6302514 -0.7722878 0.7418537 -1.4782926 0.10224249 0.75027174 -0.037840303 1.630511 -0.85447544
습니다 0.9042625 -0.84727436 -0.80984956 -1.7070969 0.42406464 -1.2328031 0.15729798 0.525968 0.818835 1.5666416 0.6804951 -2.5881226 0.52238065 -1.3272523 0.4059996 0.6827782
ㅋㅋㅋ 0.38390493 0.77828485 0.90573394 0.33221287 0.6646501 0.24998222 -0.4918914 0.73618525 1.2057697 0.3210145 -1.9397292 -0.17079188 -0.16349423 -1.3111496 0.2695574 0.8824912
... 0.3424557 -0.7709684 -0.55602914 -1.7148033 0.13060959 -0.23378944 -1.2225797 2.4956245 -1.0518398 0.6759509 1.681517 0.35928866 1.0142092 0.48677626 0.10921563 0.75611824
드라마 0.507767 -0.81084675 0.061659034 -0.28639618 -1.4169247 0.33780712 -1.380317 -1.2057202 1.1163921 -0.48867878 0.4648031 0.47297487 0.7472967 1.0268928 -0.09026914 -0.28730416
아니 -0.5021523 1.2184997 1.2973927 -0.53774655 1.2030429 -1.0760591 0.31713116 -1.1472921 0.64117014 0.41070944 0.9568344 0.22480078 -2.586215 -0.9535217 0.400676 -0.6881239
생각 -2.0794516 0.35066667 1.2173892 0.1455137 -0.8713825 -0.62565714 0.29438308 -0.84916234 -1.8131803 1.3688517 -0.24164838 1.264298 0.5385243 -1.2143333 0.07142488 0.068201244
더 0.87087387 -0.4754774 -1.2827823 1.3316182 0.20494492 -0.33876023 1.232885 0.8696821 -1.0312687 0.1471367 0.9355956 0.9655127 -0.45637527 0.6742779 -0.6778674 -0.32430476
그 -0.9354264 -0.31816405 2.89764 1.0531974 -0.6192464 -0.85629666 -1.7664969 -0.3205707 -0.07476829 1.9603505 -0.04140759 -0.052417494 0.6803459 -0.6749926 0.21388064 -0.13046266
싶 1.427657 0.91035044 0.7281096 -0.37904215 -0.14786042 -0.5474802 -0.97058904 2.0453808 -0.7900338 -1.52983 0.71826655 -0.33888564 -0.63118684 -1.2845623 0.95350933 0.9897869
사람 0.128656 -1.1660835 -0.08247746 0.3450123 0.875453 0.057268772 -0.8104949 -1.432625 1.0846002 1.0150744 0.51327467 1.744735 -0.1661046 0.14135495 0.6437024 1.3023293
듯 1.4753454 -0.053850614 0.55478686 -0.84881794 -0.31369868 -1.1553937 0.6115244 0.009691501 -0.7181466 -1.1928053 -1.2298794 -0.9114881 0.55987674 -0.67026293 -0.44735554 -1.1080801
때 1.1350623 0.028353019 0.09477 -0.56712925 -0.67307365 -0.24848181 -0.49511647 -0.39195952 0.912697 2.3605509 -0.15275536 -0.56593966 1.3193806 -0.45098 0.33171162 -0.70124096
감동 -0.84598 0.820083 0.17874548 0.7917644 -0.23559761 -1.5111475 -0.7333691 -0.26630524 0.7922581 0.15124166 0.17249742 -2.8246624 0.19758563 -0.66820645 0.8749224 0.82261753
함 0.61148065 0.4176573 1.3240061 -0.0061679557 -2.0122042 -0.36988994 -0.8836686 -1.0571458 -2.7432575 0.88116515 0.051628496 0.50650597 -1.7938919 -0.2717562 -0.73640954 1.354524
배우 -1.060673 -0.20534237 -1.0982906 -0.09860925 -0.43751743 1.4863927 0.48510087 -0.9719929 1.8901892 0.6979661 -1.8137082 0.42701432 -0.4395282 1.0206066 -0.26009905 0.041401472
본 0.63568294 -1.5953718 -0.5784443 0.67172027 -0.9755402 -0.15200461 0.52521145 1.3493539 0.2670368 1.2612811 -0.1182857 -0.4727877 0.73424655 0.26290295 1.3082857 1.4457116
까지 0.4590571 0.8954186 -0.1479561 -0.5306407 1.2735887 0.036458608 0.10035386 -1.01116 -0.8829173 1.8411688 -0.26028275 0.70043075 -0.2615841 1.3285842 -1.1132492 2.0185976
뭐 -1.2155995 -1.6373143 1.6029099 -0.98460025 -1.2341237 0.43809244 -0.7147822 -0.45800194 0.7220756 -1.0229653 -0.2313633 1.0473698 0.5097703 -2.0099015 -0.2361549 1.1734701
보다 -1.1412642 0.47229815 0.36574385 -0.52646774 0.76450783 -1.4343803 0.32842335 0.3093063 -0.51349056 0.44990385 -0.041604828 1.5026453 -0.6978844 -1.1831735 0.060085107 0.19211519
알 -0.07056793 -0.75586647 -0.46448082 1.100658 0.62120426 -0.059327923 -0.77314353 1.4796737 0.36583802 0.9488193 2.8860784 -2.5248432 0.30017498 -0.27292934 -1.4239931 -1.7569484
만들 0.7245771 -0.86141425 -1.0039723 -0.32555914 -0.15928377 -0.14811096 -1.2138261 -0.5553778 0.40381548 1.0172914 1.2648586 1.5481585 -1.3578285 -0.80212325 -0.13255124 -0.43124074
내용 -1.5343498 -1.0517137 2.190767 -1.1802919 -0.5203049 -0.094590664 -0.17009789 -1.0179769 1.0089687 0.91407746 -0.25940156 0.3330176 0.4880519 0.7612731 -0.37212503 -0.96545804
볼 -0.07572214 -0.90571797 0.005136629 -0.37112588 -0.0825253 0.17720997 0.49971414 -0.9818747 -0.509743 -0.48815066 0.064243555 -1.470383 -0.88509935 0.67483336 -0.43977702 0.7071957
감독 -0.19011517 -1.1008129 0.87411493 1.8413352 0.5090036 -1.2089887 -0.29491067 0.60873276 -0.18593179 1.2228972 0.22396983 -0.1862918 -1.5394391 -0.38299203 1.2162031 -0.4346834
라 -0.5175311 0.82871556 0.7067959 0.81540954 1.2797254 -0.2786596 -0.7789738 0.24503326 -0.11602925 -1.6221669 1.2831357 -0.07241145 0.45566845 0.12794098 -0.283403 0.96755767
그냥 -1.4509162 0.31658962 1.8304766 -0.1826168 1.0279462 -0.2649868 -0.49431846 -0.14019935 -0.32560188 -1.2318097 -0.6490905 0.33375546 -2.64529 0.71650875 -0.065673485 -1.3836257
재미 -0.17880136 0.26873383 0.44137126 -0.8773735 -0.11464679 1.5153581 -0.015670875 2.1395693 0.43032274 0.5142418 -1.611772 0.9317987 -0.69435567 -0.9802305 0.9071741 0.4449272
시간 -0.8295978 -2.197843 0.8469942 -0.30785394 -1.5442388 -0.76360494 -0.5086419 -0.3129578 -0.21203753 1.0193168 0.48203698 -0.85732424 -1.232214 -1.2361333 -0.17144197 -1.5976635
지루 -0.81827366 -1.6500959 0.42519963 1.3468187 -0.71920973 -0.47245088 -1.2361184 0.39132378 0.91480505 -0.47415254 -0.5925188 -1.0789605 -1.7977538 -1.9200461 -1.131601 0.08089883
중 1.5536453 1.1361057 1.5921221 0.6634034 0.21493901 1.1394011 0.8676594 0.54915726 -1.0126193 -0.50901186 -1.4886719 -0.86628586 -0.49456313 -0.4021403 1.8386794 2.0853784
재미있 0.8318064 0.5764792 0.032409344 -0.25966036 0.28176486 0.9146773 0.09152131 -0.3808858 0.12366025 0.9673245 -0.51553017 -0.38587832 -0.10470952 0.98595065 -0.15867297 1.2021204
년 0.6312114 0.9787915 1.2134321 1.3222464 1.5827785 -0.767953 1.5973332 0.08419439 -1.6858912 -1.5118734 0.3395333 0.10751934 1.752252 -1.3585956 0.18831325 -1.1146733
10 -0.20181885 3.9792986 0.6758097 0.82446045 -0.7514998 0.8946768 0.5805172 -0.4227514 -0.24308896 1.7639536 0.3985085 -0.1713565 0.5073388 1.1947545 0.69146043 -0.6558334
였 1.1875569 -0.9715399 0.3720889 -0.8131698 -0.039124038 -0.63326234 -0.29385203 -0.8507366 0.07938689 -0.7917423 0.5458964 1.7756611 1.2348565 -0.65119547 0.82761794 -1.9458815
잼 -0.32689726 -1.9490763 1.555391 0.1237958 -2.242812 0.5696149 -0.42592177 0.29217073 1.9208795 0.6400201 -1.0179186 -0.20103136 1.4332266 0.08616273 0.79682004 -0.9808599
사랑 3.0150347 0.5166133 0.7314846 0.580315 0.3942868 0.08434578 -1.2684327 -1.6619011 -0.7555723 -0.22616634 -0.58290327 0.042049672 1.5063957 0.84201336 0.6500276 1.3547924
못 1.2407475 1.157401 1.8702643 0.33157253 -1.6144748 -0.33864516 -0.1568892 -0.3640014 0.8393951 -0.32025644 0.88391834 0.8004487 -1.2217275 -1.9174681 1.3607275 0.09963089
냐 -0.44648337 0.3630184 -2.1165195 1.6333724 -0.47846937 -0.1149498 -1.1498297 1.2766403 -0.41221848 -2.5726771 1.7451277 -1.5059817 0.36950457 1.8426163 -0.8109409 -0.8724058
재미없 -0.8322888 -0.39217067 -0.81546926 1.5531017 0.26511583 1.7750207 -0.87254083 -0.23480877 -1.5516883 0.7323869 0.71761495 0.63528645 -0.20524473 -0.27623203 -1.2212622 -0.9044514
쓰레기 -0.6272855 -1.3570554 0.09084838 1.6392881 0.38473523 2.729582 -1.8487943 3.0768316 0.083959155 0.4703854 0.41057193 0.36072236 0.18216887 -0.3959026 1.6818497 -2.3263853
서 -1.2416449 -1.2438935 -0.24984339 0.1968981 0.90234846 0.13987343 0.78164595 -0.21907607 0.21073902 1.1141446 -0.5241816 -0.2962452 1.6723185 -0.6775674 1.409909 -0.41486815
야 -1.1359621 -0.11822343 -0.26216725 1.6624036 -0.93793386 -0.55500907 -0.93422735 0.6272947 -1.3200942 0.3440858 -1.8252575 0.53943795 0.19691558 -0.44760495 -0.59135437 -1.3110135
2 -0.34288546 1.1719525 0.88254195 -1.7697936 -0.9352858 2.4228601 -0.94212586 0.5134835 -0.13668443 -0.66626203 0.15937223 0.18358399 -2.0096216 -2.7567875 0.2730165 0.3780251
라고 1.7539002 0.75096273 -1.2683237 0.09592351 -1.8228614 -1.65578 1.1169105 0.11045335 -0.16528814 -0.038142245 0.35854897 -0.34618044 -1.9978275 -0.9897227 -1.4272033 1.0853283
니 -0.24196522 0.3272484 1.8195897 1.1420861 -0.1497504 0.6314422 0.18987878 0.50826734 -1.3482546 1.6046492 -1.8014613 0.0013177564 -1.5724828 -1.133964 0.8085365 1.0371462
면서 -1.9291737 -1.7888122 -0.109503895 -2.274884 1.5883281 -0.71517617 -0.038975943 1.4914434 0.7546778 1.7844071 -1.3060708 -0.62647444 -0.073953 0.66747236 0.8591237 -0.1404357
번 -0.84213465 1.0306945 0.2257951 -0.1969473 0.39462787 -0.488309 -1.3531055 -1.0784811 -2.7846546 -0.95087105 -0.2720735 1.7029335 -0.22759375 1.2376229 0.1629712 0.56737256
다시 0.72106767 0.5274026 -1.2231854 -2.4197955 1.5570266 -0.6086875 -1.0082893 0.854657 -0.43731782 -0.51884675 0.69513196 -0.94632334 0.55481225 -0.4956678 -0.616201 0.5498476
나오 -0.1297573 0.20948854 0.027577372 -1.7768645 1.349068 0.42046857 -0.5472168 -0.28988418 -0.93819755 0.83585113 0.3850527 1.8067398 -1.5657955 1.2638896 -0.5140749 -0.64028907
작품 0.1888565 1.4949704 -0.7029964 1.1169126 0.45144895 0.25732562 -0.5748037 2.0454042 -0.16465877 0.79395235 -2.6547177 -1.0855206 0.08676836 0.08663978 0.9433326 0.3092477
이거 0.3237758 -0.071020044 -0.29812276 0.14352736 1.1014813 -0.43477333 0.0061506145 0.37285072 -0.7085127 0.18418223 1.0141542 1.9924662 -1.1371527 -1.8160176 -0.32625893 0.34937933
하나 -1.1281036 -0.35789937 -0.23552161 1.6601056 0.88420045 0.25508085 -0.31901526 -1.3893446 -0.2527384 -0.0596603 -0.21320595 -0.5814139 0.5462092 -0.48231164 -1.677063 0.3126111
줄 -0.06497708 -0.71154726 0.65886617 -0.7257159 -0.4075712 -0.76505953 -0.3979687 1.0281309 -0.7430388 -0.60849196 0.17022088 -0.89445287 -0.12082713 -0.40578488 0.11192796 -0.8226507
해서 0.5367106 -0.31608894 -0.36783165 -0.3584175 -1.188037 -1.1277615 0.66357887 -0.6042054 1.4269987 0.08283807 -0.7898364 -0.3914177 0.69287556 -0.6081243 2.336545 0.5537506
개 0.050245184 -0.22496144 -1.2567964 -1.5561972 -0.87843317 -0.089876495 2.2318273 0.5981307 -0.43983987 0.2437341 0.5395324 1.4309664 1.533823 0.9793139 0.803253 -0.36196205
정도 0.81015086 -0.2796809 0.011463578 -0.27170277 -1.0217543 0.00973007 0.54477805 1.630072 0.8173333 0.6368237 1.182672 -1.1249018 -0.0943667 0.5397329 1.2421255 0.43864784
남 0.077367425 0.7708567 1.846814 0.35605195 0.5510504 0.19780426 -0.6583886 -1.1967956 -0.72038823 0.66327083 0.00012899697 -0.7323587 1.3898925 0.39728016 1.378082 0.47009143
마지막 0.39212847 -1.2347655 0.018459352 0.7180707 -0.37864137 1.8040897 -1.8889828 -0.16766009 0.13734795 0.66128385 0.28937143 1.4067179 -0.07226419 -2.5924644 0.6416796 -0.022964822
끝 -1.1732941 -0.23588805 0.40203306 0.45195693 2.482989 0.25835833 0.46821272 -0.119477026 0.0067072986 0.8271954 0.7493916 -1.616711 -0.9589671 -0.7270265 0.4491744 -0.40624195
액션 1.512442 0.10246382 -0.4103717 0.6892319 -1.0209597 -1.2654979 1.0788581 0.1718657 -0.51720303 0.9594111 -1.4190519 -1.1172012 -0.8292618 -0.7707576 0.72738 1.4804137
이건 -0.37814748 -3.0857496 -0.72999936 0.67189735 -1.3621819 0.043672968 -0.8081613 1.0321127 0.070731066 0.4024381 0.1637229 0.94122034 -1.7019788 -0.08711548 1.4014353 -0.264716
임 -1.5185909 0.5907906 1.2659501 0.12446542 -0.18996936 0.70949966 -0.6281856 -0.07565113 -1.6284009 -2.7162216 -0.17387763 2.516641 -0.1379275 0.022661285 -0.44819522 -0.9342514
건 -0.5799029 1.7187651 0.22997758 -0.60129565 -0.45123225 0.5804854 0.66776496 0.36876082 -0.5361991 -0.03642034 2.1143463 1.4674025 -1.8383602 -1.2118249 -0.58339816 -0.3313507
ㅋ -0.5756252 -1.3451669 -0.06348296 0.5979844 0.084178805 1.125915 0.1347197 -1.903566 1.1853635 -1.1364968 0.23220578 0.75278383 -0.79284286 -1.1411387 -1.1213397 1.2759565
3 0.01929457 1.5564059 1.67943 0.32463062 -0.85750926 -0.54179347 -1.4246538 1.1980824 1.1255478 -0.31425962 0.72007024 0.21312587 0.9534576 -2.001608 -0.49416375 0.11079107
기대 -0.7846443 0.461788 -0.9082282 -0.27292243 0.6593202 0.32948962 -0.46539706 -0.38636008 -1.3381883 0.43798032 0.74460584 -1.073791 -0.29338813 2.4081283 1.1999578 1.5416237
입니다 -0.2317371 0.3315954 0.117724806 1.744164 1.5762237 -1.4686996 -1.0229733 0.9562427 -1.3920654 0.88441855 -0.22541113 -0.527249 -0.49202883 -0.47879568 -0.36717305 2.5859244
라는 0.005671644 0.93765116 -0.06148925 -0.08344549 -0.867838 0.89431614 -0.63757557 -0.7920474 -1.187417 1.8620981 0.04668285 -0.31307968 -0.023629626 -0.7508736 2.9207664 0.48938692
분 0.6676304 -0.47042936 -0.32240576 -0.21797179 -1.4509406 -1.5305936 -0.7956394 -0.29119632 -0.2136219 0.036513265 1.2536184 -0.26222026 -0.2559209 -0.9178425 -0.42369753 0.8264484
완전 0.5907468 1.5663157 -0.9751908 -1.2109482 -1.6415575 -0.5768492 0.5589456 -0.71413606 0.41541654 -0.681381 0.43165985 -0.6075971 0.34017837 -0.435293 -0.40241334 1.1057153
다는 0.00058468414 0.28737947 -0.5067589 -0.8323905 -0.04193878 0.5259109 -0.18910155 -0.36885378 -1.3332357 1.0709985 0.6733015 -0.5315332 -0.1228898 0.5753734 0.9504838 -0.52687705
참 1.1329073 0.2797903 1.9774532 -0.56813365 0.0049944655 -0.64238477 -0.55464315 0.4964416 0.47425672 -0.56736124 1.3392487 -1.054171 -0.2758621 0.53951585 -1.186552 -1.3777503
많 1.8872496 -0.35985857 0.9207457 -0.27910566 -1.1581059 0.56757444 0.35632968 -0.00946505 1.7195549 0.017064918 0.6712072 -0.13997066 -0.22288078 -1.6945754 -0.699732 -0.47303006
처음 -0.24154091 0.118780926 -2.0840826 -2.104986 -0.060849883 0.1560782 0.38048884 1.2821349 0.33016244 0.80732876 1.7059678 -0.45775014 1.0259382 0.36730722 -0.06691174 -1.8322686
장면 1.0369328 0.60427517 1.3933761 0.0674245 0.3829647 -2.5963373 0.48515603 0.6696337 -0.45869988 -1.7492617 -0.9855844 -0.1950848 1.4271814 -0.26347443 -0.12069844 -1.3682935
대 0.92143977 -0.011924337 0.74179846 -1.427807 -0.3953203 -1.3708898 2.009383 0.6509588 0.6445641 0.21983528 -0.81688863 -0.5539781 -0.15565707 1.2182106 -0.452695 1.4941945
아깝 -0.013742121 0.81484056 -1.3266497 -1.2943419 -0.10947477 0.1655864 0.06561123 -1.2478621 0.8611993 -0.35346627 1.3969002 1.2400647 1.212155 -0.1172125 -0.50390613 0.06573156
다가 1.2357423 -0.31111118 0.1838012 0.64306074 -2.8613462 -0.4186488 0.045765694 -2.2624197 0.090370335 1.0097557 0.16317149 2.1695836 -1.0684431 0.47044405 -0.2860573 -1.3283017
으면 0.35394633 -0.03546976 1.9186351 0.10919935 -0.8221275 0.33468777 -0.17309089 0.35050535 1.2116722 -0.14014293 -0.94854754 -1.2032288 -0.2048889 -1.0071628 0.001902441 -1.1983819
지금 0.6760925 0.40010232 1.3028245 0.25433153 0.08358399 -1.408284 0.47241476 -2.2418325 -1.0834931 0.33382192 -1.2810347 0.67860025 -0.23068677 0.7413091 2.1635604 -1.0835652
모르 0.23578057 0.580611 -0.06868585 0.345601 0.4710658 1.2298034 -0.36151868 -0.5965002 0.0037583162 0.23197363 0.3302661 2.1288893 -0.7209517 -0.81310105 1.0463953 0.5051856
이렇게 1.4050413 -0.49082467 0.13251978 -0.8101702 -1.7702891 -1.5409102 -0.42316452 -1.3495275 -0.15818514 0.94783086 0.081927426 0.0153789455 -0.89361626 -0.6874267 -1.3138341 0.2232847
' -0.16961275 -0.19033764 0.12059283 0.54677486 -0.6102793 -0.10639856 -0.38810894 0.55211884 -0.8284613 -0.46512756 -0.20466553 -0.79698175 0.18707159 -0.54850906 -0.052746948 0.6572828
편 -0.6251976 -0.060051374 1.9802698 1.1554177 2.035374 -0.98973584 0.41662586 -0.71664727 -1.0297047 0.6583931 -1.7637469 -1.2207054 2.0496044 2.3780222 0.13829574 -1.3052964
일 -0.7435981 1.2744355 -0.50731695 -1.0605627 -1.2336824 -0.6454441 -0.33661133 -0.10468496 0.9635179 -0.4330834 -0.39462632 -0.2128224 0.6956258 0.16659987 -1.2032316 0.9423149
성 -0.52722144 -0.47911894 -0.6295614 0.8286125 0.8325211 -0.09327811 -0.36340708 -1.081645 -1.0969372 1.5422637 -0.44423565 -0.24664709 -1.4102404 0.09254024 -0.39130273 -0.1188908
돈 -0.5937056 -0.3129485 0.27738726 1.3240298 0.956485 -1.9552561 1.4905602 0.4703235 1.0232978 0.07718699 0.54068667 -0.44841522 0.20095564 0.14804143 0.5140719 -0.042806372
이게 -0.52037066 -2.272676 -1.1619277 0.68456286 -0.35553882 -0.69590366 0.16589761 0.74010485 -0.16591173 -1.2352178 0.9603283 -0.27927613 -1.0563203 -2.4309988 0.43650597 0.25595865
느낌 -0.57609516 -0.042785697 -0.6333946 0.22306634 -0.44348112 0.18108566 0.17692804 0.092418715 0.544503 0.3597341 -1.2334875 -0.3051655 -1.4510819 0.5807424 -0.55023974 -0.011175768
시 -0.89617294 -1.9917972 0.38890877 1.3133166 -1.0806574 0.6603262 -0.6259056 -0.029334662 0.97999823 0.5316961 -0.69659483 -0.5988427 0.21267551 0.6008086 -1.7676266 -2.2540412
이야기 -0.062100988 0.9409692 0.30303442 -0.09193378 1.8473468 0.17412248 1.0307481 -1.1694831 0.0001939937 1.0007874 0.9898569 -1.1908524 1.6247689 0.13573848 -0.8294505 0.35301858
최악 -3.4974163 -0.81850165 0.8129635 -0.4517376 0.029574579 0.5062951 -0.68430215 0.49460572 -0.0009020776 0.5334652 -0.21600515 0.22620283 -1.8510956 0.08489667 -1.6103843 -0.15513127
된 0.19430725 -0.05586149 -0.15882623 -0.4743412 1.4432358 -0.21483196 0.4547551 -0.2549744 -0.90317273 -0.29340208 -1.1197383 -0.44818825 -1.3820928 0.17837247 -1.0019411 0.8289658
봐도 -0.5346957 -1.0089799 0.4951552 -1.6513336 0.2721267 -2.3620112 -0.8683898 0.031051058 0.1901369 0.2867828 -0.29587585 -0.15162665 1.0624536 1.6029849 1.9092076 1.072648
님 1.3404807 0.8987497 0.75008744 -0.16933152 0.23419839 0.004760477 0.19220442 -0.4913692 -0.100332215 0.372194 -0.36869028 -0.47240916 -0.307157 0.620901 0.15391389 -0.638128
어서 1.3400818 0.80875266 0.6916248 1.7895651 1.3251275 -0.4135034 0.31903875 -0.91534704 -0.813634 -0.78578264 -0.522851 2.128275 1.3698704 1.2518713 -1.7850002 -0.14942984
애 1.0681416 -0.9781604 -1.5500836 1.9014359 2.8533623 0.075647555 -0.96979994 0.5563959 -0.43182516 1.1188531 0.80761266 -0.16217007 -0.85201097 1.8484114 -0.80738705 0.44782567
전 -1.0072029 0.18293563 -0.3003586 -1.7106203 -0.6897226 -1.9156055 0.72523296 0.65507376 1.3396666 1.760132 -0.6194694 1.2301878 0.018440595 -0.54154265 -1.086491 1.604285
넘 0.8426958 -2.2526755 1.2985564 0.6049794 -1.4575646 1.4320545 -0.22432595 -0.25089943 1.217557 -0.18090628 0.57133967 0.57381195 0.93489456 -1.3826324 -0.33894867 -0.54926294
ㅠㅠ 0.7997377 0.462535 -0.18921332 -0.46724036 0.68873847 -1.6667242 -0.67479384 -0.0866223 0.2766378 1.0217124 -0.11720076 -0.6216244 -0.49800113 0.5164621 0.6716322 0.27141687
다고 -0.5333509 -0.057392776 0.47818518 -0.5557911 -0.55382377 -0.51937294 1.759133 0.051650148 -1.3473161 1.5879337 -1.7167327 0.4055553 -0.53857064 -2.2518725 1.1799377 1.7163109
인데 -0.95497316 0.25742945 0.6293609 -0.34185028 1.1130233 -0.52451783 0.9461345 -1.6068794 -0.61279917 -0.33881432 0.20829667 1.8323476 -1.0261852 -0.50688165 0.7333055 0.3033286
그리고 -0.40950283 2.1783538 -0.2902351 -1.4233967 0.123143286 0.752388 -0.7238098 -0.021071838 -0.66052616 0.5757985 0.38597637 1.2365233 0.74039817 0.006271454 -0.47737637 -1.394753
명작 0.8228084 0.110986665 -0.44966018 -1.6585178 0.34622005 0.46553308 -1.057949 0.50512743 0.822839 -0.32934317 -0.022736764 -1.5810776 1.194177 -0.008901365 0.66309714 1.7259697
여자 -0.18317002 0.60449505 0.8005841 -1.6418283 -0.51745456 1.8200895 1.0224574 0.62541246 1.6672543 0.28856707 -0.28733394 -0.3110956 -0.15426858 -0.5291515 1.313461 0.29567358
이해 0.39963523 1.4536159 0.8538348 0.60678226 -0.393642 0.8712875 -1.6428909 1.1179855 -1.3780749 -0.4826031 -0.45056173 -0.96581775 0.17733087 0.73714703 -0.06247804 -1.1797628
^^ -0.20362437 0.3205451 -1.3320318 -1.12419 1.6747643 -2.0087402 -0.5072678 -0.69656175 -0.86762136 -1.0937666 -0.86613685 0.35369334 -0.25496665 -0.7904329 -0.5005259 -0.5100524
난 -2.165855 -0.6577192 -1.7323159 0.1719581 -0.08103405 0.03552164 0.11401472 1.070319 -1.0389711 -0.48042035 1.3627995 0.31319353 1.0491838 -0.50869924 -0.401328 1.0133454
역시 1.3939258 1.2372473 0.027025035 0.604373 -0.51500785 -0.25359872 -1.3102148 0.42938164 -0.06568638 0.0059541548 -0.8400793 -2.1464946 -0.19129074 -0.4003503 0.3653589 -0.8983786
또 1.4512417 -0.21938094 0.61338866 0.35082385 -0.72945386 -0.33241516 1.2537322 -1.0226096 1.1314874 -0.2669411 0.27316245 -0.6028543 1.4001484 -0.6460729 2.6447415 2.060586
걸 -2.134132 -3.159145 0.1279973 -2.0841146 -0.46309313 -1.2917261 -1.747009 1.0886664 -0.79126245 -1.4490966 2.0552957 -0.3968208 1.2559656 0.8298138 1.7832665 -0.12737551
한국 -0.9116137 0.7331189 1.6141716 -0.73777556 -0.05501149 -1.7833685 1.2990204 -1.3953782 0.070120156 -0.17746104 0.16559286 0.34420663 1.3462756 1.0287883 -0.080923416 0.9307746
이상 -0.38344014 -1.1152248 -0.59272087 0.8746474 -0.006848248 1.1569816 0.37720552 0.040287133 1.0372305 0.6866153 -0.48359653 0.48346096 0.6401072 -1.292244 -1.7364697 -0.19646022
부터 0.37837002 -0.5583572 -0.9019748 -0.56052536 -0.46507406 0.9167447 -1.4620107 0.6027227 -1.1526535 0.23585421 0.06443811 -0.28839055 -0.08012857 -1.3635298 0.055461194 0.62175333
는지 -0.82390225 1.6681405 -0.36726686 0.58520734 -0.4254871 -0.10161448 -0.23027982 1.1690149 1.0391219 2.910312 1.986806 -0.97802687 -0.6709411 -1.1506746 -1.7563539 0.4596495
많이 0.6316378 0.13273804 -0.83131707 0.09327658 -0.022370951 2.5531056 -1.4056213 0.1599127 0.68866646 -0.7871563 0.57899827 -0.49187803 0.69260925 2.0373087 -1.1250685 0.9109623
에게 -2.6838448 1.6003839 -2.221739 -1.1041511 -0.51706386 -0.7319059 -0.0893027 -0.1969871 -0.17836495 1.1040725 0.17422405 -0.13229781 0.7114425 0.8406504 -1.6826546 1.5478894
주인공 0.2003505 -0.96969557 0.4025133 0.65361315 2.1225414 -0.89562756 1.4221619 -0.20422432 0.9144302 -1.6105516 -1.0750908 1.0274562 0.6702532 0.8207654 0.96037894 -1.6899859
별로 -0.40337864 0.6481894 1.5047475 0.93165565 -2.1718144 -0.50557095 0.025285423 -0.17930709 -0.2375675 -0.12176742 0.3446366 1.1642777 -2.1023905 1.6434186 -0.32092854 -1.4724329
받 -0.55401784 0.19546564 -0.811512 0.40513447 0.012017901 1.5205241 0.6312017 1.4154453 0.2560007 -0.5236242 0.4632583 0.02052073 -0.89270747 -0.2578413 -1.7463839 -0.053780176
합니다 -0.91023856 0.55345213 -0.63732964 0.33056483 0.7636392 1.0293694 -1.1402237 0.7498056 -1.9926116 0.47348556 -0.7005861 0.85858667 0.16271882 -0.40251237 1.5809427 -1.0022615
두 -0.75945276 -0.46968484 -0.42855185 0.923082 -0.063791014 -0.25252005 1.7409741 1.0980394 0.69939256 0.16765843 0.337737 0.54323244 0.7122121 -0.30781814 1.1539658 0.3952341
우리 0.084063426 1.1095988 1.0326785 -2.4480047 -0.37439138 0.16890079 -0.590148 -1.4846723 -2.047836 -0.8814401 -0.3718372 -0.7057619 0.6373468 0.2814045 1.3024074 0.5574654
만든 -1.4399314 -0.28395942 0.45970136 0.30653405 0.12972677 0.030063495 -0.51426554 -1.2927674 0.24466753 0.32415497 1.3294902 -0.82328403 0.626584 1.5913857 1.7161003 -0.5957129
살 -0.62124276 0.074576296 1.9064592 -1.0207713 0.65631264 0.3911939 -1.0708444 -0.39455304 -0.5400397 -0.5602689 0.7338893 0.27724922 1.050195 -0.068316326 0.7257844 -0.2611022
!! -0.69806826 -0.4075355 0.15853311 0.10081863 -0.7831501 -0.6280957 -0.6791602 -0.6939705 -0.6226194 0.45393422 1.6625005 0.66285014 0.8761222 -1.4144179 -1.7442324 -0.582037
길 -0.4445182 -0.107022114 0.6782275 0.47983682 -0.65089315 -1.1466743 2.2646813 -1.5276351 -0.4422065 -0.047728542 1.2326906 -0.34152654 2.6886005 -0.63072777 2.2615843 1.4452802
엔 -0.6110448 0.17793691 -2.1787431 0.37014332 -1.9644991 1.3033056 0.5145174 0.1977069 1.2989997 1.1029626 -1.365411 0.98167765 -1.8300377 1.2067237 0.37223297 2.0060556
괜찮 0.44992295 -0.40164962 0.28342676 0.018946262 -0.942265 -0.8909538 -1.7533473 1.025715 -0.8329917 0.021742374 1.0629897 -0.20359533 -1.5523484 1.6873358 0.44889122 1.8400759
기억 0.6214919 0.44485834 1.3864726 0.38911358 1.5792122 0.5321199 -0.03489329 -0.3695338 -1.6052831 -0.816637 -0.48912272 0.48913476 -0.14234647 -0.1606846 0.13532653 1.4116517
연출 -1.4097241 0.39021754 -1.479649 0.41845697 0.46901816 -0.7857084 -0.24928148 -0.13046478 0.80226934 0.20812182 0.70544285 0.55637515 2.559094 0.2549815 -1.4595237 0.8624441
한다 1.4512944 0.38112226 -0.37954018 -0.4031378 0.25456044 -0.42508045 -0.24705173 -0.007138186 0.08156638 0.41672057 -1.9431703 -0.018330373 1.1972893 2.1433294 -2.2797287 -0.48954025
때문 0.084449366 -0.77926177 -2.0243628 0.9374139 -1.0241202 -0.6928935 -1.0414894 -0.89668775 -0.048576567 1.3414598 0.85374194 -3.1272156 -0.09416544 -0.32192868 -0.96104497 0.51257783
ㅎㅎ 0.23391931 1.6004859 1.3134181 0.84288436 -1.3033631 0.9444144 -0.98599404 -0.7557135 -1.8318595 1.3046111 -0.6621228 -0.9288369 -0.3782455 -0.24499494 0.95160913 1.0639913
이나 0.034658432 0.8752187 -1.8690972 0.4294314 -1.6095988 -0.5931243 1.4904462 -0.55197084 0.78436965 0.46183342 -1.4741002 0.9817392 1.3968571 1.1564088 -1.2344007 -0.4841303
요 1.5412674 0.2871214 -1.7256651 -0.30343762 -0.22682166 -1.4233167 1.5874916 -0.4041037 0.2668146 -0.098492905 -0.106662855 -0.24363141 -0.062466364 1.0364696 0.41737086 1.6535064
저 0.6833106 0.74797076 0.2768277 -1.3343841 -0.4182696 -0.5945737 -2.628364 0.33955586 -0.13423704 -1.4192811 0.17767927 -0.21821617 -0.40949088 -0.60537153 0.3165929 0.14527783
재 0.7759392 -0.6430853 0.7361811 -2.4270713 0.7018098 -1.5386703 1.2608476 -1.6076571 0.58589554 0.6515476 -0.38239175 0.62421817 -1.0243108 0.8131715 1.5803328 -0.8256894
꼭 0.55841005 0.044089925 -1.3171312 -0.5354225 2.2715187 0.06636374 0.62723434 0.50054467 -0.1226802 1.2565167 -1.3926057 -0.07538497 1.10077 -2.5395758 0.812631 0.64132214
며 0.7545586 -0.6258758 -0.0005089741 2.4341261 -0.48435852 1.8785862 1.0077488 -1.1928813 2.1312215 -0.08156448 -1.0571778 -1.5733962 -0.45484278 -0.045635898 -0.83107 1.1859137
현실 2.3478127 0.47055542 -0.98132044 -0.46431494 -0.8214898 -0.8687114 -1.0038885 -1.2930139 -0.61834526 0.1681186 0.25065926 1.357298 -0.52608305 -0.16143349 -0.45227015 0.36086923
랑 -0.36020896 1.3983377 -0.50228536 1.6578183 -0.18858942 -0.13403858 -0.44555655 0.76577747 0.37111259 -1.2419167 0.044867553 -0.55462736 0.5422203 1.0863061 -0.34629828 -0.7145075
긴 0.5491793 -0.11305711 -2.0518715 -0.27602616 -0.6750747 -0.6420695 0.05345141 -0.5152519 -1.339576 -1.5088795 0.08698341 -0.25382447 0.07050194 0.2737021 0.008966568 -0.72524923
ㅡㅡ -0.028726395 -1.9012027 0.4709473 1.3364973 -0.29443938 -2.0579991 -1.164388 1.5770792 0.80598116 -0.36214706 0.12939315 0.7748929 -1.7112834 0.64634305 -1.3639117 -0.0057276827
무슨 0.24808596 -0.1484396 -0.7636674 -1.4072863 -0.9185172 -2.0106952 -0.27943066 0.3739444 0.52711743 -0.037017323 -1.5965797 0.67390937 0.07925506 0.54506946 0.032300055 0.16312099
내내 0.95480347 2.1462169 0.47472483 0.25272644 -0.94564795 0.24092801 -1.7668791 -1.7843747 -0.11707349 -0.7125424 0.6993219 -0.03636415 0.3212656 1.2748837 0.3970314 -0.6036308
결말 -1.3407623 -0.17763868 0.5832664 -0.8514113 -0.75124496 -0.5009519 0.07967009 1.0867074 0.3233456 0.17336714 0.072489016 -1.2053804 -0.22574419 0.9677706 0.6900532 0.20327815
죽 0.37995163 -0.25888827 0.10866626 1.1381377 0.009866723 -0.39908528 1.044965 1.1672344 -0.11244554 0.06888164 -0.20960663 1.8642806 -0.48348027 -0.8879731 0.52967274 -0.632806
세요 1.5914483 -1.5191604 0.02278222 0.52793396 -0.58126837 -0.98735154 1.4031155 0.48681325 -0.03725751 -0.9710512 0.62771046 -0.16009873 0.27150998 -0.13777895 0.17321925 1.4632539
남자 0.96970034 0.4537365 -0.39259514 0.37105128 -1.7259986 1.1744684 -0.999193 -0.3838113 0.30324003 -0.7973965 0.4583742 -0.7353738 -0.35349032 0.19032773 -0.67100847 1.6923239
전개 1.0452671 -0.9097869 -0.95815086 0.08178625 1.1761936 0.079369925 1.1249295 0.4897196 0.73872143 -0.13432749 1.3445407 -1.5493767 2.3330808 1.8003713 1.5016694 -0.8914777
마음 1.756872 -0.4006606 -0.9603425 0.42055866 1.9124055 -0.88875794 0.016949058 -1.2849015 0.4036893 0.34209502 -3.7611399 -1.6568398 0.3954223 1.8627654 0.5861047 1.0840902
별 -0.7120657 0.7368919 0.49331716 1.6044326 -0.92436814 -0.30942583 -0.24762374 1.1133913 0.80292386 0.415562 -0.26774147 -2.5017734 -0.17844841 -0.89489955 1.7895882 0.53523654
소재 -0.59722084 1.4097155 -1.1509429 0.21480356 1.0656866 -1.29225 1.5581723 1.4322824 -0.36527735 -0.4679706 -0.29164958 0.55459094 -1.1826868 -0.044790942 0.27058944 -0.42624334
속 0.6444993 -1.2512425 -1.5301964 1.2377396 -1.6222986 0.14029832 0.30400163 -0.19507891 0.5750988 -0.7407531 0.9161674 -0.1932433 1.6514913 -2.186109 1.4369845 -1.4747429
공포 0.30737224 -0.034590553 -1.119358 1.3918456 -0.5200287 -0.5766487 -0.30860442 -2.8071716 -0.04722113 0.24257597 0.50614357 0.056613185 0.051331725 -0.585578 -1.8539743 -0.15403253
다른 -0.7684224 -1.5716374 -0.25858355 1.140475 2.3186066 -2.437716 -0.88973343 -1.2975559 0.56331074 -1.7647808 1.4944291 0.8551209 -0.7320886 0.49355748 0.98779017 -0.89153594
아서 0.6355885 0.95600593 -0.57884187 0.67508686 -0.28804883 0.8489438 -1.0739971 -1.224142 -1.4802066 -0.017715309 -0.40324175 0.9439985 0.104627766 -2.4771273 -0.18254398 0.13887468
씨 1.3265132 -0.17192161 -0.16919702 1.7639536 -0.46530706 0.21402708 -0.4527277 -0.3404039 -0.48725146 -1.1258789 1.4210161 0.026053822 1.9967494 -0.028454052 1.2854397 0.22032283
인생 0.3960837 -0.5242671 -1.7609646 -1.5941503 -0.8807676 -1.0829343 1.3957139 -0.04044125 1.0407612 -0.05069246 -1.5873703 -0.45866063 -0.53708977 -1.43251 1.7967469 -0.12320075
~~ 0.84081405 1.1708343 -0.23005845 -1.6225414 -1.2691677 0.6734499 -0.08659546 0.458728 1.2960259 -0.7050682 0.51484746 0.3406685 -1.255668 -0.5823765 0.1594652 0.039187167
짜증 -0.053366818 -0.76215905 0.6739634 1.2850443 0.69827294 0.8798651 0.6393054 1.2944427 -0.5967046 -0.20300405 -1.6271287 0.3105657 -0.11448282 -1.2019455 0.31014392 -1.1850766
짱 1.732561 0.8225473 0.938363 -2.1320932 0.5525729 0.7060752 -1.724213 -0.44126356 0.97805375 0.03080998 -1.4480518 -1.1031432 0.2507625 1.37146 -0.108088374 -0.6456732
뿐 0.8917002 -0.101465315 1.7281778 -0.36782786 -1.9362879 -1.2700847 3.7682145 0.58973217 -0.28474227 0.18285584 -0.2268727 0.18142617 -1.0228609 -0.720504 -0.054089416 -0.44684088
은데 0.35461235 1.2964869 -0.026962485 0.7502644 0.73429835 1.7437018 -2.6715834 -0.15069598 -0.6375988 0.80587924 -0.8112506 -0.32266253 -1.1523916 0.56821185 -0.26082233 0.38598886
아요 1.9155493 1.03825 -0.4551885 1.3543581 0.2542956 -1.0962838 -0.09606829 -0.44360605 -0.27893206 2.7708797 -0.9502476 -0.3183705 0.84093755 0.031201642 1.4981209 -1.2211697
유치 -0.59508294 0.8035485 1.9452108 1.8644441 1.4358454 -0.0411836 -0.05444676 0.12718531 -0.18079385 -0.34148383 -1.0282214 -0.5106595 0.71263814 -0.5333448 -1.248321 -1.065117
필요 -1.3637605 -0.2868453 1.2482162 0.25137722 -1.3103763 -0.34208286 0.5908809 -1.6223342 -1.1616482 -0.33082408 0.18786249 -0.119428895 -1.7354165 -0.65329206 -1.7717271 1.3003635
가장 -1.798112 -0.5410733 -1.6496277 -0.47025695 1.0747031 -1.0215746 -0.087194495 -1.0000178 -0.5561404 0.67449856 0.43380752 0.11524931 0.62720865 -0.21483165 -0.7134132 -0.8519521
음악 -0.27651712 2.1679366 -0.359392 0.55070937 0.535534 -2.5025516 -2.012698 -0.4898732 -1.0143281 -1.0789258 0.75270337 0.21230859 -1.2765483 0.72240627 0.6962818 -0.7509753
) 0.81290746 -0.25368398 -0.3066632 -1.5519489 1.5726866 -0.30740896 -0.96419346 -0.8531854 -1.5061269 0.32218638 1.4845864 -0.20521022 0.31044883 0.4521354 0.005676348 -0.16851966
일본 -0.7632467 -0.897014 0.8703903 -1.866365 0.08082503 -0.15368916 -0.24229158 0.43348265 -0.19025503 -0.88807267 -0.5598211 0.90289336 -1.3061252 -1.2402334 0.19335952 -1.7250099
낮 1.4764214 -1.2608061 -1.1395701 -0.29523376 3.378646 -0.4705073 -0.30895388 -0.31299064 -0.53473175 -0.60381204 -1.135849 0.12661214 -1.1911343 -0.31195003 2.6318312 -0.61524194
오 0.27778128 -0.47236285 -0.40237448 -1.7583549 -2.104946 -0.097089335 -1.5521182 -0.5923937 -0.345152 -0.5512167 1.5417387 0.40334582 0.17461419 -1.3897202 0.17270765 2.419682
;; -0.22213736 -0.67254996 1.0685111 -1.1561661 -0.59209377 1.6004249 -0.2117613 -0.2660418 0.40812528 0.2367094 -1.3820564 0.53678983 0.4633181 -0.05521313 -1.4233334 0.47699755
아이 -1.0949335 0.38633716 -0.048445567 0.19651906 -0.7970039 -0.124095984 -0.6939637 -0.19193362 -0.29075304 -0.24809544 0.28316253 0.042479865 0.3888006 0.046335317 -0.2804735 0.7367423
반전 -1.3096 -0.116346 0.97582334 -1.3503582 -1.2465922 -1.2752532 -1.4988098 -1.4722933 -0.51999193 1.3306551 1.1230289 -0.79057443 -0.1820334 2.5815423 -0.72193813 -0.39415133
데 0.9579845 0.8683037 -1.6674473 -1.3268526 -0.3423602 0.82667375 -0.5337773 0.4640856 0.19679146 1.1275915 -0.61032057 -1.1669643 -0.56884927 0.74990565 -0.28870666 -0.5850849
수준 -1.6661973 1.0159563 2.392338 -0.6575811 1.1468536 0.67047715 -0.58289516 0.808573 0.9661995 -1.0787369 -1.2179892 0.74649537 0.59236854 0.765758 -0.26373523 -1.3132076
다니 -0.21983702 0.33819038 1.0846795 -0.98052275 0.6303826 1.4658345 1.7806165 0.34415495 -0.552553 0.27327192 -1.2388653 -2.0703707 0.24843982 -0.5465815 -2.3379676 0.031061888
웃 -0.7037736 -0.95594627 0.2781618 -0.25971124 -1.0176842 0.09282705 -0.45243353 0.4390016 -2.6003902 -0.8879162 -0.351145 -0.22101593 0.66602945 0.9519816 0.1270359 -0.67013985
매력 1.9408655 -0.6084699 -0.33375594 0.5570988 -0.7026326 0.57525617 -1.7338575 0.45567983 -0.3190136 1.1722287 -0.23914783 -0.3618616 2.389885 -0.16092718 1.9865168 0.13948962
맞 -1.0966283 -0.6732208 1.7566878 0.051764652 0.65068984 1.2081435 -0.045684844 -0.56761974 -0.16244526 1.6846454 0.092707604 0.69887716 -0.030085877 -1.4139674 -0.7498497 0.6719524
인지 -1.4356563 1.3551469 0.9325989 0.13779157 0.036608465 -0.37406537 1.9018722 -0.67785513 0.5339856 -0.27366865 -1.8351127 -0.4304302 -0.27556965 -0.1869093 0.89074075 0.07548401
가슴 0.19555119 -1.4707572 0.23710231 1.0329553 -0.63248223 0.023505919 0.58257985 0.10176947 1.851155 0.45422623 -0.5214864 -0.40986246 0.0015099547 1.0887624 -2.4659712 0.27655604
없이 -0.66664267 -0.52406776 0.72702193 -1.363011 1.9535301 -0.22376066 0.20910886 -0.98293984 -0.21273641 0.4655927 -1.8700142 -1.2860893 0.85233694 -1.1562889 1.065037 0.7001541
원작 -0.4644703 -1.5831339 -0.5561433 0.9773296 0.42689198 -0.83437234 0.04863098 -0.72449875 -0.34205315 0.2712355 -0.6808667 1.4596866 -0.16220528 -0.19066483 -0.50243294 0.45229402
ㄷ -0.93472946 -0.6772229 -1.2717768 0.77141505 -1.7250503 -1.211819 -1.2179875 -1.8640056 -1.0894613 -0.014796744 -0.68531823 0.69266206 -1.6534613 0.5010791 -1.6266557 1.417728
인간 0.84047544 -0.0005665128 -0.44664675 -0.36023736 0.050051257 0.9016405 -0.45804164 -1.5267775 0.1017655 1.0528576 -0.14178911 0.35602257 0.4468782 -0.8421466 0.23794545 -0.3333797
굿 -0.5617901 -2.0336943 0.009320161 -2.070551 0.7613516 -0.90563786 -1.2029433 1.3630159 -0.4485297 -0.4469847 -0.11317172 -0.6635706 -0.47285402 0.9963303 -0.75974 0.73982894
높 -0.7943314 -0.9302366 -0.82482433 1.4233357 -1.003765 0.9755258 -0.45555618 1.5275952 -0.31654966 0.645043 -0.035015292 0.7132214 0.24966152 2.6090202 0.17124598 -0.37484932
ㅠ -0.7784441 -0.02074234 -0.5492655 1.0828393 1.8957597 0.1044981 0.67404485 -0.7586829 -1.5524201 -0.6428241 -1.8169823 -0.53270084 -0.0136924535 -0.46389046 1.6627852 -0.14710325
밋 -0.08258054 -1.5867966 0.60277504 -1.180181 -0.8151567 -2.5167305 -0.68030196 0.64803714 -1.7441185 0.37141827 -0.8395275 0.46565658 0.6533522 0.5513262 1.3592144 0.50615764
( 0.10508182 -1.5713166 -1.4167174 2.2897515 -0.6804415 -2.1533914 -1.3434407 0.2222312 -0.17092447 -0.46791136 -0.83334553 1.6926256 0.29408795 0.08584464 -1.5725679 0.11174655
급 -0.8579257 -0.5976643 0.08509269 1.1220089 1.4936941 0.29692373 1.4088376 -0.041001495 1.645044 1.1085716 -0.33350214 -1.6231009 0.19564293 0.22695252 0.98111874 0.60551673
만드 -0.091667905 0.49059466 0.79115385 -0.761123 -0.6380342 0.2306936 0.34812185 -0.41293526 -0.32931507 -0.82052016 -2.0751228 1.6698961 -1.1022947 0.57373637 0.34202692 0.5391801
눈물 1.4004422 0.48615745 1.2694867 0.053895302 -0.9694663 -1.8028035 -0.3050893 0.2708855 -0.17135705 1.0674434 -1.4782015 -1.1509722 -0.51551795 -0.46223608 0.49058455 0.8553988
보여 -2.4269233 0.4037117 1.6777033 -1.0920577 -1.171326 -1.0615281 0.43826413 1.0491472 -0.0399611 -0.25137326 0.027876476 -0.016450938 -0.8158433 0.65395457 1.8158293 0.09905057
준 0.018541014 -1.1768818 0.53465986 0.96915066 -0.4792079 -2.2121747 -0.34469968 -0.6748893 0.0009765396 1.5360123 0.6338518 -0.22626525 -0.86395645 -1.9271452 1.1210718 0.027925797
찍 -0.73576474 -0.2007856 -0.92475206 1.6649672 -0.91653055 1.3998635 -0.28966364 0.77352226 -0.37949896 -1.642958 -0.9739675 0.2280294 0.07639377 0.17145763 0.49949363 0.15990582
인가 -0.8125592 -0.11172568 3.138532 0.5727345 0.36334544 0.8648411 -0.41048694 1.7003481 -1.8811812 -0.5603028 0.59037226 1.3162863 0.4781369 -0.8477894 -0.28636944 -1.5479432
노 1.1261369 2.037583 -1.7134424 -1.5402671 0.16822837 -0.31614125 -0.26449206 -1.1231838 -0.08798152 0.2884091 0.008337351 1.608907 0.13115747 0.076504976 -0.19567089 -0.8124712
용 0.76131403 -1.4554732 -0.052404247 -1.0499392 -1.2384545 -0.1203466 -0.52573407 -0.8455071 -0.67637354 0.261491 -0.03635024 0.42903078 -1.319536 0.2629975 0.22724424 1.3651162
을까 2.1621385 -0.5882341 -0.52910495 0.66457784 1.195757 1.4452237 0.43754473 -0.025968134 -0.27954116 -3.0322735 1.4792243 -0.9185944 -0.054641426 3.4637778 0.6464055 -0.36731228
화 -1.4277724 -0.12080888 -2.149658 0.33757117 1.399824 0.0079126125 -0.8187419 -0.4535266 -0.47976148 -0.4684711 1.1189729 0.13151744 0.09861781 -0.79434705 -0.0935131 -0.98760176
코미디 -0.16930607 0.8536277 -0.2765117 0.0727226 1.5956368 -0.57691044 -1.0789471 0.1940079 0.41621196 -0.5972083 1.1705981 0.96706074 -0.26093984 1.9833505 1.345355 -1.1610403
여 1.0701189 -0.6860378 0.08852274 -0.059757978 1.0005467 -0.51242447 -1.1815792 -0.30226275 -0.16481707 -0.95656204 -0.29322016 0.39861757 -1.4255861 -1.4315218 -0.35055345 -1.5330269
마 -1.0722139 1.747403 1.5598059 -1.3181351 2.5436258 -1.0254482 -0.0690343 -0.24934804 0.10784284 0.4365549 0.49243084 -0.5409593 2.6959555 -0.98019373 -0.670719 0.2372661
쓰 -0.85139275 -0.40372247 1.4689995 0.40692124 -0.63025105 0.27663174 -0.5534065 -2.0228937 0.6197066 -0.8792862 2.1153905 -0.38676006 -0.71195227 1.8674583 2.3447196 -1.4578023
모든 -0.80090743 1.0377132 1.4355257 -1.5857383 0.71538144 -0.5978231 -0.7175894 -1.3110565 -0.66033566 0.6513919 -1.329758 -1.2458342 0.032981962 -0.40762472 0.20249377 -0.052181624
신 0.99637467 1.2400355 -0.9226245 0.14777423 0.8171699 0.95051926 -0.3334106 -0.2422249 0.43887055 -2.939623 -1.4251698 2.0115688 -0.93365914 0.42713192 -0.5310166 0.38770127
5 -0.62589395 -0.39422908 -1.4396136 1.5245186 1.4379225 1.4339622 -0.22022213 -0.34001783 -0.8599199 -0.27453363 0.7277022 1.9005837 0.61319345 -0.33967516 -0.21683365 -1.0715026
아직 -2.1650145 0.61803573 0.9356391 0.2560993 0.21659002 1.6973541 -0.58386385 0.8843909 -1.2662337 1.4827379 0.25292158 0.43105894 -1.0883362 -0.30187988 -0.6225875 -1.3423105
처럼 -0.22593778 -0.3773958 -1.6140405 0.56849444 0.76099426 -0.43178725 -1.0691468 0.7098624 -1.2334397 -0.21103312 0.81826 0.5692346 0.66274315 0.73847055 -0.22871466 1.4596726
눈 -0.13831627 -0.8386579 -0.049294356 -0.5709424 1.1434731 -0.19026344 1.1708357 -2.0745285 0.5452302 -0.60750836 1.4292561 1.3193768 0.40127674 -0.58904475 2.0324645 1.7799443
추천 0.30856472 0.008284734 0.060216434 -0.45159817 0.848644 -0.89123356 1.2892195 -2.2172935 -2.3858345 -0.6938599 0.5112176 -0.25633582 -1.2515365 1.5660654 0.49931148 -0.7776389
아닌 0.5220698 -0.75002795 -0.98273295 -1.1978706 0.22775291 0.41015902 -0.36217543 -0.085402556 1.7854705 -0.7471775 -0.47206232 -0.73376614 0.39319608 1.2523404 -0.036908135 -0.6681533
울 0.58505666 2.2283757 -0.058586743 -1.6197094 0.4247546 -0.9987273 -0.92010003 -0.6060567 -0.3865163 1.1087928 -0.22788365 -1.1367986 0.5132941 -0.49312615 0.329307 1.7801036
자체 1.0096226 -0.32948595 -1.3008053 0.19157034 0.5236337 0.5587787 0.27167028 -0.8301253 1.1704268 0.4157811 0.8447504 -0.8823813 -0.35351872 0.97794586 -0.95170313 -1.4077072
몰입 -0.57172936 0.8195599 0.7636787 -0.56542146 0.06747632 1.4521303 -0.6002518 -0.4469815 1.7884972 -1.1416678 -0.393221 1.1656995 0.0034878165 -1.8139489 0.8645363 -0.13422501
4 -1.7443972 -0.7354936 -0.7966572 -1.5026876 -1.0467384 1.0943277 -0.2116517 1.947158 0.8605799 0.16921605 -0.1257586 1.0071454 0.65765613 -1.4245884 -2.6024337 0.89592856
대박 -1.1838949 -1.0761892 0.79304755 1.8978436 -1.0158179 0.21245812 1.0161811 1.7710623 0.96891576 0.67720073 -0.8758875 -0.36958614 1.2688037 0.2120276 -0.25254673 -1.1274077
몇 -0.26537558 -0.38505447 -0.40886083 -0.8368779 0.3903155 -0.28870103 -1.9263818 0.2453235 -0.7431794 0.050718103 0.4994675 0.72487533 0.66144466 0.684311 -0.61886394 -0.6399796
스럽 0.650968 -0.28563917 -0.43046308 0.26052085 -0.36642602 -1.3454899 -0.8623743 -0.74695814 0.3178377 -0.5245309 0.5497732 0.32838097 1.127377 -0.745202 1.3132784 1.7476895
실망 -1.3793908 -2.5928445 0.8767109 -0.08960094 0.0896427 -0.018344302 0.55006456 -0.15248914 -0.5868297 -0.85230595 0.8859025 1.6687076 0.41975692 -1.0391574 1.3502043 -0.29325023
는다 1.8268462 0.52152246 0.41504893 1.0545965 2.1747863 1.865509 1.1927418 0.65997875 0.019432185 -0.08313901 -1.794062 0.81304646 1.9783049 1.327813 0.95150256 1.2986722
대한 1.0527252 0.7119215 -0.075492665 -0.48653626 0.7381743 0.9172931 -0.5521651 -0.5051676 2.1248496 -1.623067 -0.38690254 0.0011022212 -1.3043063 0.8958901 -0.37165865 -0.19509993
죠 -0.73717254 0.9983884 -1.5274116 1.3527296 -0.7110831 1.26332 -0.7838368 1.0809715 1.0724224 -0.844596 0.6431185 0.22667871 1.4589434 -0.44699803 -1.6280237 0.11062717
란 -0.5283828 -1.8266108 0.6242332 1.6613281 0.72746265 -0.7729466 0.1717905 1.2790107 -0.19093375 -1.7976005 1.8285758 -1.7643167 -0.30814865 2.3429937 1.4745821 0.5426054
그런 -0.8624206 0.16221458 -0.33445567 -0.3340194 1.7622792 -1.3081115 -0.34556264 0.37221915 1.0399989 -0.24550426 -1.1474079 -1.0469623 -0.9746949 -0.8495943 -1.4999942 -0.9993448
솔직히 0.4396271 1.0774055 1.8802149 1.2548033 0.15800858 -1.4888121 0.55006397 1.3071752 1.6817036 0.6463241 -0.8586088 1.3217466 -0.57283944 -1.0835578 0.97458005 -0.07714602
캐릭터 1.7754501 -1.8276417 -0.11597596 -0.9810878 -0.06633212 -0.18879452 -0.98923874 -1.2860494 -0.4652168 0.52474254 -0.9965507 -1.3845078 0.15880123 2.0365405 0.33534452 2.0578883
ㅎ 0.64405304 -0.21751386 -0.68668413 -0.891732 -0.53441906 -1.7666248 -1.6920354 0.94544387 0.75534624 -0.11013288 -0.86587983 -0.98544115 0.13941713 0.57442635 0.9762125 1.4518187
모두 0.120462365 -0.17326568 -0.40828258 -3.137923 0.47139734 -1.5232991 0.050927043 -1.2361448 0.19536625 0.19739605 0.16562803 -0.9750526 -0.037467565 0.09006933 0.22540559 -0.32765627
아주 0.47552437 0.26150852 -1.1608642 1.7775524 -0.87843466 -0.77978903 0.5892183 -1.4144068 -0.54166114 -1.6437759 -0.69952863 1.332789 -0.88885206 -1.6080239 -0.5263351 0.61445314
- -0.51606995 0.9481887 0.54494524 1.4894252 -0.39816502 0.26367414 -0.630017 -0.091476776 0.78176314 -0.3534408 0.58968264 0.2313194 -1.0123723 0.6465162 0.31091192 0.4625163
가족 -0.14537452 1.0468072 -0.6955782 -0.29255146 1.5455749 -1.2206885 0.36594066 -0.09440236 0.061024733 1.6118953 -2.2298932 1.035503 -0.4175393 -1.8066047 -0.9529253 -0.3236614
여운 0.93383855 0.4189875 1.6014425 -0.38352323 -0.00729893 -0.1620492 -0.21765304 -0.18732397 0.78099287 0.62217546 -0.22351886 -0.97454494 0.8329705 0.04090857 1.5579654 2.5830877
건지 0.28380248 1.2172664 -0.7509791 1.0238303 1.7463237 1.224034 0.16664477 -0.2290726 0.45392907 -0.012852164 2.062453 -0.9244992 -3.2458727 -0.5862834 1.0985692 0.25845474
전혀 0.27144393 -0.6919342 -1.0202365 0.7834724 0.09557164 -0.84739697 0.49178186 -1.1900257 -1.4870036 -0.5060783 -0.65071094 -0.7675308 -1.1380861 -0.39497918 0.37089145 0.5804594
나라 1.5409211 -0.15640922 2.7282257 0.5124729 0.66168743 0.72049034 -0.49292356 -0.90056807 2.0342577 -0.76756394 -0.88589025 1.2016965 1.9933398 -0.87305963 -1.5708975 1.1196349
연기력 -0.35365966 0.48993078 0.3672817 -1.7444205 0.23999093 -0.9905007 -1.465747 -0.95716166 0.9603831 -1.6916348 1.4931158 -0.8466919 2.280285 2.202736 0.021121118 -1.7991544
후 -0.96290225 -0.58784115 -1.2416266 -1.010243 -1.9552025 -0.9663054 -1.5106909 -1.7603707 -0.12044632 -0.18089628 1.1478362 -0.3855193 0.7749883 0.27234632 1.1345905 -0.61492074
다면 0.3600846 -0.0063731773 -0.6898004 -1.0155531 -0.99726796 -0.6482369 0.38743696 0.81205064 1.2580605 2.4606874 0.45760125 -0.480248 0.66278356 1.4784008 0.9827831 1.0280776
될 -0.2184048 0.27597106 -0.015616984 -0.54948944 -0.43428442 -1.2566329 -0.17607921 -0.2347565 2.261143 0.84145033 1.3022174 -0.76501524 -0.70700043 -0.020876978 0.5998619 0.45194733
뭔가 0.5139196 2.0810802 -0.04689628 -2.143036 -0.8250414 -1.6150779 -0.45238942 -0.16193403 1.0823814 1.0045283 -2.4241028 -0.3170184 -0.10744066 0.5300847 -0.61795866 -0.12628067
그래도 -0.68807906 0.06576953 0.8661551 0.8401244 -1.1468232 1.3653318 -0.674828 1.3517734 0.6233632 -1.1922112 0.8806363 0.81058 -0.018463299 0.59792817 0.12843822 -0.7827593
; -1.189012 -1.6642835 1.617616 0.052753065 0.047113355 -0.82087684 0.26173142 0.21852796 -0.35276967 0.51587474 1.2917682 0.74813354 -0.19868638 0.16462183 0.15385777 -1.4034154
시리즈 -1.0786668 0.19758435 -0.77399576 -0.503194 0.66811043 0.34122354 -0.32186297 0.40712678 0.01640217 -1.2233932 -0.97473997 -1.3364141 -1.2293321 -0.11361901 0.24825285 -0.41802448
근데 0.20599231 -1.661291 -0.8280059 0.60028213 0.95154727 1.3803464 -0.2727225 1.1011157 -0.2725678 -0.22019611 -1.284093 -1.8912238 1.6799182 1.601132 1.0072095 0.7398699
작 0.6868843 -0.54535425 0.26232928 -1.1020373 0.8710339 1.1372433 0.12939818 -1.4682343 0.08751324 -0.37376168 -0.5085463 0.5759856 0.8884015 -2.3598225 0.34966525 0.60983473
표현 1.8664877 -0.68978095 -0.8319633 -0.42121992 -1.2582924 -2.270085 -1.1710898 1.7132086 -1.0979968 0.22357558 -0.73288655 -0.66313857 -1.7165018 0.117439024 0.4830939 0.4267715
모습 1.0427027 0.45158252 -0.5372127 0.38263342 -0.57574064 -0.74816656 -1.0379882 -0.23245206 -0.96593636 -1.1589404 -1.0946593 -0.732248 -0.09941897 -1.8639323 1.2305284 0.74126023
제 1.3187482 -0.0883789 0.89118624 0.47143385 1.2386593 2.0583847 1.3942769 -2.459339 -0.072290204 1.6728158 1.1853285 0.14863148 -0.6020185 0.5951476 -1.5222778 0.4965717
공감 -0.40822166 -0.96839696 1.3775394 -0.061462358 -0.7394586 1.1078291 0.58061564 0.6750913 -0.79419446 0.076367356 0.29694083 2.4755158 1.1262686 0.74720705 -0.2642273 -0.8557659
밖에 -2.1776688 -1.2669241 1.0526657 0.976819 -0.10156487 0.52133054 0.959513 1.8847604 0.06935053 0.8548842 0.96646935 -0.7575759 0.05931286 -0.40388554 -1.1008092 -1.381476
먹 0.47168088 -0.9579359 -2.2889555 -1.1030713 -0.7669507 -0.9460366 0.96252185 -1.3199222 0.66728175 1.2023225 0.6795931 0.35840228 -0.26349127 1.910387 0.8966277 -2.104851
계속 -1.21139 -0.9324481 -0.89479506 -1.6955838 -0.3156954 -0.5881506 1.5218866 1.9233642 0.0695464 -0.73706853 -0.68106544 0.059927914 1.6300992 -0.3610908 1.0113852 -0.51228356
이랑 0.18801273 0.17092843 0.2711183 1.1347843 1.7418125 0.34651902 0.9193249 -0.65365034 0.3788435 -0.021879777 0.038336884 0.8613924 -1.3203406 -0.9830962 0.6120429 0.027210206
제목 1.2724675 -0.9385424 -0.05654135 1.5006588 -0.9181899 1.4840322 0.19834645 0.8962564 -0.85979915 0.29066244 -0.9513921 2.0369108 0.17198195 2.367173 0.5659285 0.3074024
"" 0.31067666 0.12951049 0.5730048 0.27959237 1.2897575 -1.1778543 0.41002405 -1.3177757 -0.35615665 0.9426268 0.024338022 -1.0642534 0.93791604 -1.2175875 -1.5613761 1.8010292
7 0.19961657 -0.07875552 1.0490233 -1.8018167 -0.72411233 -0.5293963 0.15958872 -1.5914713 -0.300143 1.0489477 -0.09370164 -1.4766266 -0.022706684 0.4258153 1.5491343 0.3663614
극장 -0.6643013 0.9099794 0.42699966 1.5092329 1.7691233 1.7720742 -0.1847864 1.7989925 2.1429706 0.28036508 0.13190167 -0.854545 0.36527267 0.3797212 0.7960976 -0.014085525
비 -0.018447598 0.18785615 1.7339256 0.9742801 1.4816891 2.346668 0.27127314 1.889799 -1.0574837 0.72811365 0.84422386 0.3656029 1.6485516 0.61589634 0.68203986 0.5836136
진 -1.9155939 1.116452 -0.8291512 0.21181805 1.7194567 -0.30925813 1.5962759 0.46137524 -0.42878872 -0.3369389 -0.22960886 0.24865696 -0.9023805 0.87800163 -0.037705384 -0.52011156
이걸 1.7918702 -0.9217564 -0.69006413 0.28833055 1.1243426 1.4869515 -0.9223874 -1.0406082 0.78146815 1.0431706 0.056587774 0.10147195 -0.3139546 -0.11278508 -2.1377974 -0.6934479
바 1.6478174 -3.6319475 1.0448908 -0.15789261 1.1473184 -0.26837128 2.1517398 0.8576954 -0.48926774 -0.2172644 2.2612872 -0.27828255 -0.15075675 -2.1017833 -0.5434297 0.6659225
그렇 0.111503914 0.72054964 0.544121 0.9935876 -0.83948606 0.7355881 -0.15428723 2.5821323 -0.33994034 0.5727096 1.3200468 0.30669263 1.3133483 0.33619824 -0.15480188 -0.17113657
대사 -0.23646478 -0.4605527 0.80675596 1.5935663 -0.48206314 -0.5273408 -0.3716111 -0.97442883 -0.7072059 1.6569842 -1.2202731 0.8190101 0.81223625 0.51929915 -0.97855246 0.71085596
개봉 1.2804185 0.48874488 -0.6627927 0.20975485 0.078492224 -1.1732364 -0.7924117 -0.54992753 -0.23270676 -0.8399116 0.66257596 0.8569388 -0.3490002 0.67095506 -1.4213026 -0.32485008
부분 -0.64633226 0.40052292 1.4896531 -1.6106931 -0.08741163 -0.6195033 -1.1954775 0.062312208 -1.9894959 1.4473894 0.9147658 -0.089101955 -0.26719636 0.6474672 -0.48997527 -1.1142952
0 -0.20547755 0.49147898 -0.7100576 -0.4511906 -0.65836537 1.6743509 0.89920574 1.9764045 -0.9414266 -0.81949425 -0.4277118 0.5045699 -0.96444184 -0.9720312 0.4211223 -2.351568
OO -0.09215215 0.065987274 -0.2196884 0.581175 0.6835433 -0.8010128 0.15874858 1.0331721 1.3927566 0.2532559 -1.0003338 -1.0250174 -1.1036476 -0.822246 -1.4464793 1.5988398
대단 -1.4311352 1.3005996 -1.1458685 -2.3323205 0.3503916 0.17897743 1.1675376 -0.9717031 0.29081863 -0.62917805 -0.79726297 -0.8194114 0.2596197 -0.18982027 1.5509924 -0.878834
된다 -2.125125 -0.6403344 -0.8753718 -1.488419 -0.0052501936 1.2879127 2.088793 1.3374796 -1.1822245 0.53614455 -0.39605987 0.68911475 0.6493438 0.27006137 0.48586068 0.92708874
작가 -0.3930119 1.0390893 0.2831714 1.9100215 0.42306903 -0.5724068 -0.07914673 0.24225344 1.5669404 -1.2438389 2.4689302 -1.6139876 -0.59773254 0.53862906 -0.49772242 0.93344533
어디 -0.8055642 -0.8175609 0.5644816 -0.8404997 -0.9698706 1.1222359 0.16758554 -0.10181707 -0.29354227 -0.2840622 1.3248696 0.59087384 0.0890787 1.1458509 1.8872303 0.88525337
기분 -1.446232 0.8499543 -2.1332798 1.4023229 -0.017106501 -0.4438376 -0.6100291 -0.59029865 1.5249189 -1.1199249 -0.67612123 -0.43211204 -0.94519776 -1.0095309 2.3692741 0.83144474
아쉽 -0.18508838 -0.723256 0.0535238 -0.32602075 1.2737525 -2.0814064 0.036279146 -0.22453463 -1.1490097 -0.80148476 0.8706085 0.5551867 0.11028795 0.8164738 0.34678748 0.58570886
치 0.5746037 -0.32574782 1.151494 0.7684848 -0.41483974 -1.29675 1.4807378 -0.08746484 0.5636402 -0.48088738 0.795064 -1.209937 -1.381249 0.6918313 -1.7405683 1.2898419
진심 -1.3876237 0.45144165 0.19536203 -0.12157298 -0.053815156 0.41166264 -0.33288684 1.0770067 -0.54007816 -1.3043231 0.50782955 -0.6989684 1.3007581 -0.30469555 -0.26670066 0.38455585
해도 0.2890453 -0.31834075 -0.13331148 1.8941547 -1.440803 1.1457804 -1.1866963 1.1177418 -0.5990305 -0.8789557 0.5994258 -1.9355869 0.116473325 -0.14772934 1.0896161 -2.2816334
보이 -0.14278433 -1.0112554 1.1357502 -0.6022371 -1.7946525 -0.53138363 -0.41208237 -0.6593467 0.07373491 0.37749326 1.469033 -1.0121676 -0.017250827 -0.115295686 0.27118394 -1.243834
타임 -0.15124822 -0.6575476 -1.1529664 -0.038337763 -0.77201635 -0.9879334 0.74625945 -0.5496058 0.1925641 0.52509564 -1.2185618 1.605423 2.3265903 -0.85195994 -1.5422214 -0.2877229
놓 -0.41713572 2.8084247 0.07664272 0.07718354 0.082732126 0.8383821 -0.23900981 0.056625787 -0.42718545 -0.032832664 -1.5549277 1.5396525 -0.14761649 0.256144 1.0427729 0.62467223
/ -1.0382423 -0.39355087 -1.4980625 -0.26192203 -0.8551306 0.6400614 0.90806144 0.92200196 -1.1714654 -1.7218536 -1.1355387 0.24240042 1.1718482 -1.4062257 -0.30684987 -0.10372962
웃기 -1.3538132 -1.0683607 0.76898676 0.13371615 -0.058286525 -0.05555355 0.06583758 -0.50334567 0.23412521 -0.6951768 -0.57395965 1.5503346 1.7752174 0.8223198 -0.6047646 -0.13254099
봐야 1.7784085 -0.5204201 -0.648881 -1.5803618 1.7861797 -0.9155944 0.44466954 0.6044818 0.42309162 1.0035822 0.70776266 1.3344525 -0.16447306 -0.66810006 -0.3914026 -1.3412681
이제 -0.038396236 -0.038844824 0.65083325 1.2487653 -0.5874316 -0.14161895 -0.59274554 1.842412 0.44313088 -0.81928676 -0.25039357 -1.0612849 0.25042045 0.46821794 0.54122305 0.521503
물 -0.33174878 -1.284715 -1.3185045 -0.34653264 0.7089956 -1.0935354 -0.57969576 -1.5151502 0.10569978 -0.790634 -1.2532122 -0.58117604 -1.2062508 0.3097381 -0.121709794 3.8284645
막장 -1.0772008 -0.25920388 0.4442037 0.023423536 0.18862417 0.16384348 0.17652802 -0.7155874 -0.74614215 -0.9396221 0.34240335 -0.07948892 0.063302934 -0.7410846 -0.59244525 -1.8876064
삶 -0.66661817 1.8574908 0.8950519 0.23086111 1.0367037 -0.64925605 -0.9988658 -0.6437576 -1.2438339 0.86781543 -0.6591485 1.8071116 2.04574 1.1950076 0.2191489 0.41510102
친구 0.26542404 -0.29836583 -2.434238 1.0643216 1.0681489 -1.7121799 -0.20483293 -0.6445211 -0.38467637 0.96664226 0.26401588 0.56815946 0.92256004 -0.50274855 -1.2157273 0.08102709
잔잔 -0.60073406 0.3623622 -0.30924436 0.28544736 0.6451059 -1.6684197 -0.044851895 -0.42269906 0.63821334 -1.4505967 0.31486845 -0.13958944 -0.37946343 1.3044817 -0.15343972 -0.9265039
조금 0.0033921006 0.46162507 -0.5696628 -0.9675037 0.87725663 -0.60609907 -0.12651318 -1.7334175 -0.86020523 1.9027562 -0.697335 0.5789721 0.51973855 -0.016582305 0.20864291 2.5550823
씬 -0.8268721 1.1027992 -1.204708 -1.7380553 0.76625246 -0.004870635 -1.2523518 0.36590677 0.6677999 1.769187 0.9006675 0.98776746 -0.22955056 0.8182381 1.7523901 -1.7057325
딱 -0.63114053 0.7308438 -1.9626821 0.6648769 2.0819721 -0.2875612 -1.0920444 0.07937459 1.6679593 -1.3417178 -0.35158715 1.1829495 -0.23448378 0.82369006 1.2670081 -0.085984744
영상 -0.7976255 0.41488183 0.21129414 1.4052676 -0.060488626 -1.0488079 0.5095707 -0.13975294 -0.55465186 -0.060922377 -0.6893498 -0.455003 0.0053391755 -0.8316002 -0.77960634 -0.5126331
찾 -0.1878139 -0.007728171 0.48755592 -1.106113 -0.16080335 1.3353312 -1.0617596 0.35485315 -0.5758888 1.0415659 -1.9119704 -0.8452349 0.010658609 0.65156424 0.25672007 1.1165204
억지 -0.7672429 -0.7867379 -0.88657427 1.1075605 -0.66975635 -0.82338643 -0.14253844 1.3352054 1.3005272 0.17214766 1.5323958 -0.7292418 -0.16471912 -0.1013723 0.473656 -0.6492398
중간 -0.54838276 0.03891188 0.49537203 -0.7403027 0.33898094 -0.61766344 -0.99699515 1.6242683 1.2794963 -0.42768282 -0.19705252 1.3009225 0.1561215 -0.15941262 1.6785787 -0.39011726
요즘 0.5131969 -1.9825524 -0.17648566 1.187284 0.105820395 -0.011236504 -0.4194296 -0.77588445 -1.2171153 0.045083422 -0.45109713 1.1217799 -0.24760863 0.6654822 -0.047234163 1.1607653
같이 -0.35613954 0.6591892 0.6312048 0.46372855 -0.3628146 -0.7511987 -0.5924796 0.28820583 0.20350139 -0.36069432 1.098297 0.22755687 -0.55466586 -1.1440824 2.675381 -0.29198664
구 1.7749239 -1.4205728 0.66096663 -0.11409812 0.8312952 -0.7169662 0.673421 -2.2652783 1.2012298 -1.9129534 0.91341794 1.095199 -0.7364993 0.81443596 0.1373374 -0.32162607
" -0.16910928 -1.3745123 1.8710284 -0.4003698 -0.2436382 -1.2373115 1.0422333 -0.88354164 -0.74556947 -2.1087227 -2.3826632 -0.5146306 0.047136717 0.89692485 1.4587734 0.7436187
가지 -0.017474681 -1.35099 -1.4988112 -1.0398048 -0.9757187 -1.4080426 -0.8407188 2.7672646 -2.3887641 -2.1674228 -0.2522261 -1.3174314 0.81827 1.9721016 1.8287376 -0.08864867
스릴러 -1.0189956 0.9899231 0.08756818 -1.872503 1.3268919 0.057398852 0.7653428 -1.0172457 -0.26874956 -0.6150967 -0.53205776 -0.7849787 0.9745889 1.8804548 0.20367053 0.58131784
8 0.12746024 -1.1479305 1.0795711 -0.6119053 1.0694872 -0.2882896 -1.3026701 -1.0172883 -0.19159585 -0.24403265 -0.19333756 0.5356798 -0.10482895 1.7953143 -0.27236098 0.90778863
믿 -1.5700053 -0.25416723 -0.097284086 0.23183793 0.2589097 0.28708187 -2.4373739 -0.59543055 -1.7098323 -0.30421853 1.0071633 1.4674711 -0.56858265 -0.4922272 1.2231827 -1.214044
싫 -0.8718647 -2.09651 0.04697865 0.31305125 0.5724723 -0.033728983 0.17042655 0.19087729 -0.45378354 -1.039563 0.6768939 -0.3729257 -2.8098636 0.06849355 0.12709643 2.5198076
.... 0.6507658 0.30958307 0.17529245 -0.11655009 -0.8010757 0.57840824 -0.3363122 0.03366396 -0.080180444 -1.4628513 -0.62321967 1.1482065 0.0136820115 0.3433793 0.2712262 0.22518128
보고 -0.2720361 -0.4376309 -0.55645365 -0.07093624 0.78758216 1.8881301 -0.7473804 0.25120187 -0.11639011 -1.9666073 -0.7457735 -1.3022454 -0.98470837 0.22379473 0.6225657 -0.40365952
라도 -1.4335487 -1.1588498 -0.4053548 1.2367946 -0.71726996 0.65075535 3.4787307 -0.8843526 0.5522564 1.6342454 0.57335025 -1.0208299 -0.38515437 0.55108154 0.5589392 0.055047043
나왔 -1.733182 0.8865567 -0.75794226 -0.37575394 -0.06276539 -0.21982123 -1.0937781 0.09295059 2.3873246 0.045333415 0.8665435 -0.044064213 0.40476698 0.18773887 -0.06925997 -0.5103237
아까운 -0.8898217 -0.53213406 -0.83618975 1.5949954 0.9764202 1.1522282 0.25960097 -0.15846619 0.032352615 0.16746472 -0.6835019 -0.5564668 -0.1035195 0.4763035 -0.4031646 -0.5045319
긴장감 -0.8458352 -0.6272066 0.87483007 0.6469254 2.248619 -1.3134252 -0.6642973 -0.33242595 -0.8166171 1.0631233 0.2023508 0.6658245 1.9559982 -2.4423382 -0.40527785 -0.45884678
점수 0.14986712 0.15491867 0.76431316 -0.6223119 -0.8326627 -1.9880221 -0.384097 0.75126606 0.78205013 1.6014082 0.31360912 -0.22138833 -0.8327084 0.08571248 -0.6874747 0.39088476
개인 -0.2523869 -0.050366875 0.025026843 0.577315 -0.79619735 -0.6009457 0.07985963 -1.1009219 0.45661855 0.84466 0.7999578 0.9216359 0.22975245 -0.60587597 -0.023194926 0.29710278
제대로 0.8426003 0.37809294 0.25116745 -1.3080502 -1.3303533 0.27095503 0.8193778 -0.91588694 0.63747567 -1.0277714 0.9176003 1.2244493 2.1154954 -0.009307261 -0.8736736 1.8821931
부족 -0.8691372 0.13822033 -1.7226132 -1.2720201 0.8571873 0.20048264 0.30789173 1.1208448 0.93747944 0.1806495 -0.7523355 0.8279313 0.30656022 0.2409403 -0.6072296 1.745126
이유 -0.5246255 -0.09652547 0.93037784 -0.8442597 0.4446362 -0.2420199 1.2422192 -1.0907847 -1.9187137 -0.45809108 0.22552016 0.9340494 -0.41790882 -0.079100005 -0.51397264 -1.9641029
노래 0.8181281 -0.2355086 -0.24631014 -0.4144779 -1.4033638 -0.7030503 0.059528816 1.623134 -0.7059379 -0.6132947 -0.29600626 0.80842614 0.5596605 0.8218497 -0.12257645 -0.4621963
만큼 1.2188685 0.30069625 1.0928695 0.065910205 0.3564708 -0.9920244 1.9450939 2.4373407 -0.6298361 0.84419525 0.419222 -1.0115458 -0.36979428 -0.3018511 2.8856146 0.91303575
라면 2.1995728 -0.695124 0.064445764 -1.4377486 -0.20764744 -0.9474062 -2.0205898 1.3981097 -0.31327558 -2.6367486 0.12197214 -0.32617515 0.4137293 -0.43787774 -0.45841408 0.3631354
시작 0.77498865 0.7364298 1.6933256 1.3966875 -1.0348783 -1.0927786 -0.0658897 -0.3258645 -0.22488877 -0.49209705 -0.112267375 0.7642811 1.2476987 1.4021223 -0.54739004 -1.3926798
잇 -0.39453033 0.40177432 -0.3894078 1.0011594 0.267811 -0.92568773 -0.02891715 -1.3272864 0.5048468 -0.7556704 1.2506756 0.3268459 1.5150752 0.19138542 -1.720516 -0.25815648
구나 -1.1275241 1.6048368 0.14230163 -1.4989604 -0.1884301 0.20150036 -0.14347836 1.891412 1.1943656 0.18499431 -1.8824689 0.2195188 -0.38722154 1.824023 0.57107276 0.19562583
특히 0.4326671 1.5264869 2.1802087 -0.3183164 -0.38090992 0.80105674 0.6096817 -0.46435487 -1.6382687 1.3211513 2.5586708 -0.649038 0.39259347 0.49089274 -1.4948406 0.586794
한테 -0.74648374 -0.78499204 0.42504707 -0.3288318 -2.2369277 -1.0464028 -2.155626 -1.0251474 0.8094552 0.68545693 1.0554631 -0.47518542 -0.34926307 -0.568392 -1.8106852 -0.072457194
날 -1.0615993 1.2310987 1.2269626 -0.23721905 -0.85499847 -1.072985 -0.42952478 -0.5456897 0.30331343 1.0130372 1.3491892 -0.2446735 -0.77356243 -1.0912111 0.43849418 -0.0144219715
려고 -1.5474418 0.053064644 1.43514 1.6323593 0.65411717 -0.52600884 -0.43124685 0.10257647 -1.338983 -1.470485 -0.0769325 -0.40542835 -0.19517726 -0.7101086 -0.47031322 -1.1313628
제일 -0.152158 -0.5185941 -0.33228636 0.07725905 -1.2016733 -0.62420815 -0.016244836 -1.7323827 1.7705098 0.066374585 -0.6381279 -0.27474427 0.18468149 -0.9952849 1.3846655 0.31129268
아름다운 1.337392 -0.29447928 0.45569897 -2.67341 -0.55050886 -0.8886749 0.12898947 0.08648493 -1.0708048 1.879762 0.9835346 -0.5301019 0.37963182 0.6982702 2.0037637 -0.13902085
시대 -0.94199955 -0.24351017 -0.13805094 -0.5029211 0.18449771 -0.20057115 -1.4370829 0.06505969 -1.6424536 1.226581 -1.5910307 -0.97914165 0.68507046 -1.0056484 -0.031383347 0.2146184
ㅜㅜ -0.49886316 1.8647324 -2.1887355 0.35025024 0.50253594 0.20486888 0.418635 -0.3905347 0.39615712 -0.8968682 0.50078565 -1.2337364 1.5684106 0.13497268 0.09764044 -1.4225415
어떻게 -1.0176859 -0.09712615 -0.8923883 0.6271123 1.8877742 -1.3748381 1.1945744 -1.6708982 0.2971988 0.33287233 0.6932115 0.22061387 0.62092084 0.21883418 0.85519886 -1.5228117
명 -0.33764789 0.476767 -0.012385451 -0.5414556 0.18342614 0.41610414 -0.699482 -0.049951788 -1.3438927 -0.7765181 -0.7510742 -1.4769425 0.477778 0.9628359 0.1479242 -0.69204646
당시 0.9836111 0.53104985 -2.7281551 -0.16088626 -1.1374378 0.66989833 -0.68726903 0.9551086 0.4522928 0.8065582 -0.01320682 -0.5530986 -1.9207888 -0.07288678 0.2917152 -0.2372048
엔딩 -0.28084973 0.9493196 0.2983748 1.7108551 0.12611336 0.49465021 0.33485904 -0.10361833 -1.5757254 -0.046839964 0.816262 0.7854436 0.09660743 -0.8822344 0.82461566 0.24600595
나름 -0.45797738 -0.88829947 -0.24635914 0.15812959 0.4963895 -0.04086621 0.41321477 -0.40981004 -0.22928694 -0.32248017 1.4543756 2.0416448 -0.45114312 -0.15845814 -0.6885231 1.1717116
무섭 0.15222116 -1.354735 -0.21110432 -0.8570737 0.9393013 1.8021271 0.0055596884 1.6097546 -0.7836988 -1.7289977 1.7669685 1.4790909 0.9464851 -0.44497424 0.24109155 -1.031753
나온 1.4690889 1.1883589 0.07336338 -0.09919264 0.79776424 -1.0319406 -1.041329 1.4770828 0.313512 0.0037230577 -0.14156154 -1.4427516 0.91902786 -1.512097 -0.7151605 0.07973491
사 -0.8591214 -0.4900758 -0.81876445 -1.5797232 0.67015415 -0.9522201 -1.4001205 0.098732606 1.4526848 -2.2590327 0.746399 0.35771534 1.1761729 1.0508572 0.41110346 0.31272084
오랜만 -0.37510648 2.053974 0.2814372 -0.4385706 0.21117659 -0.51660436 -1.2267743 -1.1414993 -0.109115295 2.297347 -0.5389794 -1.1074789 -0.0019950597 0.07370542 -1.0507337 -0.17686844
니까 -0.272055 0.32974944 -0.6179493 1.4965322 0.22944878 -1.6334593 -0.69668335 -1.4658628 0.76647323 -0.037621155 -1.1124101 -0.4390462 0.50671524 -0.15509601 -1.4387153 0.785439
해요 0.7215208 1.8748758 0.48136303 -0.05714033 1.2267777 -0.6890379 0.9069452 0.77419126 -1.1831379 0.2111775 -0.7723812 -3.4056346 -1.2599272 0.4434 -0.605884 0.719673
9 0.46874225 1.2770084 0.6272948 -0.16959792 -1.2475408 -0.5037417 -0.012296862 -1.2245771 1.8299558 -0.49461952 1.2333312 -1.0781763 0.7243114 -0.8334618 0.61415905 0.0033896812
이것 -0.6981329 -1.7246662 1.4158249 -0.43764517 0.6567788 -0.30890954 0.453676 -0.6986714 -0.8630845 1.0904183 0.58216286 0.4802752 -1.8308918 -0.9312839 1.672958 -0.2966003
팬 -0.20657012 -0.15441263 -0.5674242 1.1556104 1.644805 -0.19018544 -1.6378354 -1.2951127 0.092997536 -1.137249 0.52156174 1.1585556 -1.2104461 1.0207484 2.559049 -1.1966128
차라리 1.2291461 -0.8196312 0.17010623 0.35865638 0.052341495 0.62428325 0.85710406 0.18359363 -0.9041747 0.8962333 0.69369954 0.7205162 0.2918831 -0.5324192 -0.7073328 0.4017795
봐 -0.8168443 1.0828214 1.4386448 -0.34224248 0.8848063 0.4865162 -0.2367117 -0.29795203 2.2136276 0.67431056 0.6651655 -0.8209865 -1.3920016 -1.2534666 -0.47149166 -0.93044585
절대 -0.844124 -1.5953912 -1.1353164 -0.622813 2.187602 -0.74180543 0.4079817 -0.01193212 1.6889778 1.0336621 0.40065286 0.6658888 0.15224764 -2.0144694 -0.7153811 0.45868695
세상 1.1043506 0.07701765 -0.09596387 2.7182512 0.9461159 -0.70575875 0.7186739 -0.13809192 0.9320203 1.6945254 -0.059403762 0.3148818 2.895338 -0.56540346 0.17604218 0.4593386
세 -2.2559595 0.44729385 1.8956202 -1.1776671 -0.5122395 0.8553142 1.088053 -2.0660782 0.6473384 2.0451965 0.2216214 1.6374527 2.3104537 1.0691547 0.46796516 0.22704794
못하 0.7798157 1.8115176 -0.30096102 0.1616852 -0.3102426 -0.0322317 -0.29839048 -1.8035761 1.5801384 -0.6100307 -0.16335827 -1.1004877 0.48316988 0.28643954 -0.039975557 -0.5766618
하지만 -1.9668864 0.6842687 -1.7998971 -0.36423472 1.2867101 -0.29361016 -2.6441398 -0.15643707 0.22671308 2.0928206 1.0771308 -0.21344915 1.0791569 1.1209462 -0.05535693 1.1435194
던데 0.4985886 -0.7280977 1.9127644 -0.788086 -0.17526188 0.3937014 1.8207792 1.9884001 0.24572185 -0.34332475 -0.037183195 0.66842496 -0.103601225 1.555185 0.78875726 -0.31454736
욕 -0.6512825 -1.7699877 0.004796614 1.7127502 -1.088561 -0.18055312 0.34172633 0.5620135 -0.43121222 0.94087917 -1.4379048 1.7524406 -1.601896 -0.1865802 -0.8572988 1.6126207
봄 -0.18449442 -0.8569027 1.7801858 1.0665867 -0.019690683 0.49779463 -0.981301 -1.3255447 1.1160055 0.67635566 1.2654544 -0.5855471 -0.13415101 0.2287247 0.3889731 1.4197358
감 -1.4822193 1.2068424 -0.13872243 0.27541554 0.29849634 -0.6843918 1.5296555 -0.39595285 1.64163 -0.6937726 -1.6519212 0.96387476 -1.9099364 0.016118422 0.09158284 -1.2583188
훌륭 1.8269424 -0.085400105 -1.0945224 -0.34984988 -0.6697257 0.5993247 0.6970312 -0.02280277 -1.3541371 0.10340797 -0.034205403 -0.77225804 1.0995755 -0.81024563 -0.09864195 -1.3943506
너무나 -0.43562135 0.43841782 -1.9169753 -0.84249896 -0.28135026 -0.27142957 -2.4835193 -0.22790673 0.22209169 0.7123175 1.3361132 2.1342533 -0.895152 0.9582405 0.43209022 -1.5648259
강추 1.7757936 -0.5993288 1.0992249 0.31585675 0.012359544 -1.3161182 -0.14917655 -0.8729218 0.14341672 0.34496766 1.0098339 0.8644106 0.48987478 0.5561298 -1.1737182 -0.8001613
해야 -0.0683462 -1.1731528 0.04476515 -0.42312253 -2.4593272 -0.48062053 -0.01573099 -0.3043106 -0.3297122 -0.821902 -0.109084405 0.82851475 1.1422999 0.20361923 0.8218439 -1.3006797
됨 -0.10737753 -0.99969286 1.0521623 -0.80716276 -1.3797218 0.41216776 -1.4918759 0.7313671 -0.22644734 -1.0271531 0.23542728 0.3944388 0.5422646 -0.81230193 0.9274738 0.658723
ㅡ -0.6550695 1.5473537 -0.37863865 -1.6852149 -0.31544456 -1.8364981 -0.10643807 0.3880216 0.98232794 -1.6913733 0.7539914 1.4807466 1.1982603 -2.0104141 -0.4889862 -0.9390063
따뜻 0.584284 -0.24492173 0.710324 -1.3669705 1.8863263 0.49234965 -1.5246763 -0.9001758 0.93997204 -0.8464741 -2.175792 -0.6482821 0.882649 -1.8908764 1.2970588 1.5005101
빼 0.09488245 0.02266878 -0.32749626 0.3075908 -0.2915416 -0.14325902 1.5074995 1.8589343 -1.3392705 -0.95443726 0.21684724 0.9489632 0.48674577 -0.6364304 -1.8035092 0.4309526
느끼 -2.6931129 -0.0994124 -0.62095034 0.32112315 0.20999768 0.4316337 -0.11039904 -0.97832566 -2.233902 0.9942135 1.3780531 0.6497543 1.1678627 -0.6634927 -0.28599733 0.69190204
드 -0.20340057 0.12371532 0.94751585 1.0563471 -1.1601424 1.7344344 -0.6572733 -0.50372094 -0.5897151 -0.8520187 0.28889316 0.93834245 0.7372528 -0.65653497 0.34602687 0.09525466
도대체 -0.51611 -0.6253397 -0.9204115 0.5405396 0.18764904 -0.18610556 -0.71735954 0.6747648 1.8014057 -1.2298226 1.9426569 -0.33090845 1.6576384 0.83394086 -0.5555285 -0.16486265
어야 0.8509975 0.061569016 -0.77277154 0.10645607 -1.3589052 0.84790856 1.1804361 0.5851551 -0.1836516 -0.085885674 0.31740764 0.48660967 0.6446995 0.6138029 1.6559851 0.84218913
글 -0.13934848 1.4705336 0.99488884 0.9288555 -0.26315662 0.24709995 0.19150355 -0.76013255 0.8546211 -1.1483762 -1.7844913 -0.31570837 0.97220784 -0.6344292 -1.1493863 -1.0995603
마다 0.8494193 0.26668924 0.7356059 -0.05706517 0.049895633 -1.8214954 -1.0882138 0.35901207 -0.43792546 0.3656957 0.46666145 -0.013145539 -0.982188 0.061164755 0.2420738 -0.39768344
답답 2.375087 0.8187349 -0.67968524 0.8709498 -0.8247019 0.22959194 -0.7537963 0.87159747 1.1481035 2.7863617 1.7833774 -0.5838532 -0.17326856 -0.45705804 -0.86293715 0.9413804
준다 0.012949183 -0.3535239 -0.32523817 0.09878811 -0.57583594 0.053550046 -0.7348189 -0.24904339 -0.25423402 -0.3398466 -2.6697378 0.1774104 -0.06842992 -0.0444173 -0.74861664 -0.5250941
전쟁 0.054610386 0.40795645 0.31579256 1.0450959 0.091583334 0.28246936 0.1331557 -0.26082444 -0.012867472 0.320157 0.87493634 0.5758743 0.9283612 1.594618 -0.8041909 1.0535175
놈 -0.1061725 -0.4064698 -0.47852018 0.87797654 -0.17464644 0.5709145 0.4996121 0.22255872 1.4479258 -1.0892867 0.06688487 0.9921756 -0.007041673 -2.3162625 0.9347154 0.25263646
설정 -0.3392676 -0.26091278 0.90688366 1.4370186 -1.4495023 0.9450514 0.98190224 0.6458778 -1.6351709 -0.2868108 -1.3654995 -0.81746805 -0.22333711 -1.8942953 -1.671359 0.89489686
무엇 0.29300207 -0.1423824 0.43611538 -1.1364202 0.24082424 0.39549643 -2.123083 0.5431402 0.4797165 0.49503174 -0.0461433 -2.0034475 0.5639014 2.0013888 0.7394496 2.524705
수작 0.1708961 1.4123706 -0.1197598 0.94661057 1.5342025 1.0063716 -1.415339 0.44441155 -0.14228007 -1.9463102 -1.05415 -0.36478332 1.5734508 0.39580685 0.2593131 0.14517903
그저 -1.9445442 -0.90348655 -0.2722318 0.89280987 -0.3435781 0.83858645 0.5420219 1.1242772 -0.81383294 1.1500802 1.1137168 0.040756155 -0.6868769 1.8239477 -0.2601938 -0.12078803
감정 -1.5774492 0.47511154 -1.5606892 -0.12385829 0.35820064 -0.89236903 -0.34717542 0.9870831 -1.4274231 0.44969475 -0.7765687 -0.054671187 -1.3025869 -0.675601 -0.41445106 -1.6188536
흥미 1.5810394 2.4172497 0.45759192 0.19423199 0.3000584 0.5532619 -0.16441317 0.34935868 -1.4242474 -0.6607506 -0.17634642 -1.9647723 -2.069496 -1.1388328 0.7306306 -0.43910903
미국 0.08127517 -0.80954933 1.2227118 1.2148764 -0.29806927 -0.4291818 -0.07936399 -0.69064 -0.18353766 0.6178996 0.91052204 0.32592624 1.089384 -0.036921367 -0.57845587 -1.1134735
만화 0.47856405 -0.34075645 -0.66793793 -0.29688594 0.10103685 0.23420507 1.1995292 0.93154776 1.1864614 -1.5736265 0.1699523 -0.22768338 0.97298414 -0.8911764 -0.63210595 1.1891779
행복 1.4747037 1.3879228 -0.02742557 0.39677656 2.0961778 -1.0293417 0.3399727 -0.50941616 0.6167722 0.4697422 -1.7067553 -1.5656064 -0.5612313 1.6908231 1.0882143 1.8815353
신선 1.3059675 -0.8311019 0.5675428 -0.7503637 1.0522746 -3.623649 0.7364565 0.7792361 1.2104076 1.039429 -0.3469726 0.19279513 -0.18636641 0.662293 -0.25537997 0.4013783
뻔 0.42778572 -0.060731743 -2.4933114 0.13122423 -0.7050017 -0.663204 -0.041492388 2.2720573 -0.44564015 0.3538418 -1.4088244 -0.5292305 0.3565261 -0.1554059 0.39323127 0.09696575
형 -0.6564349 0.56136817 1.1301926 -0.47836623 -0.24598666 0.69195724 1.4786342 0.11010855 0.25662127 0.37886846 -0.49967176 -0.073125064 1.4541701 -0.34431097 -0.73927593 -1.0436648
앞 -0.41812322 0.910013 0.6743094 0.36938888 0.32341003 -0.82019764 0.39091754 -0.07770709 -0.10067064 0.3237824 -1.3811394 -0.9567581 0.8690449 -0.2034779 0.36716008 0.015813943
어도 -0.065286554 -1.3740587 0.024895499 0.5987961 -2.9145837 -0.57779974 -0.8871782 -0.02872639 1.3813703 0.030121671 -0.41447198 2.1203592 -0.39559975 0.6338359 -0.6333241 -1.2747319
허접 -0.37853602 0.16491222 0.81413853 -1.625233 0.6020862 0.511806 0.9037807 1.0721864 1.7823873 0.54888314 -0.84155124 -0.72836876 -2.5380557 0.09684713 0.7567643 1.3680305
군 -0.5905664 -1.223014 0.1730322 -0.18307222 0.035220098 -1.4967519 0.5190093 -1.120908 0.0620173 -0.29954144 -1.1716633 1.5050492 0.4623372 0.23030815 -0.9201393 0.14417137
시절 0.5305776 0.28922483 0.9267928 0.3880254 -1.6126583 -1.0275815 -0.13826193 -0.23476419 0.34401694 0.45641336 0.9265649 0.3989748 1.8109776 1.3259245 1.9532583 0.32145503
관객 0.065987624 -0.29467118 -1.1517086 -0.49324092 0.25907314 0.3094046 -0.8925049 0.7277106 -0.03184424 0.14510462 -0.2054568 0.2584528 0.8834467 0.14497815 -0.62117285 -0.9127597
배경 1.2162614 0.34840447 -0.41279337 0.093186624 -1.3019783 -1.0445304 0.7933212 0.7774187 -1.1811684 -1.901956 0.48429963 -0.06294731 0.7076998 -1.3929082 -2.2436867 1.3621943
6 0.16147175 -0.945508 -0.32343876 -0.7349136 -1.5182978 0.7265287 0.1760663 1.2131019 0.89859945 -2.0389974 0.6160618 1.0755129 -0.37724692 0.29207698 -0.33406055 0.36857364
의미 1.663369 0.21251197 -0.83166295 1.3752465 -0.6116546 -0.13321725 -0.5592651 -0.12412965 -0.87041473 -1.3374704 -0.42756176 0.39677885 -1.0216904 -0.88497466 -0.46151015 1.1429367
초반 -1.2689991 -0.61495584 -1.7012734 0.44642684 -0.75920564 1.3142569 -0.73389995 0.055202097 1.3800302 0.3310271 -0.10072633 0.57007205 -2.3587837 0.8730995 1.130113 0.3035924
사실 0.12892415 -0.50523967 -0.7803067 -1.4631015 0.60659486 -1.1070716 0.080171235 1.5921882 -1.8690408 1.0621753 0.1504947 -0.23473471 1.1408613 -1.5162873 -0.04913251 1.7912682
답 0.98534375 -1.6773598 0.2712082 0.35206264 -0.7280212 1.1467823 -1.0197383 1.2611603 -0.51864946 -1.3485427 0.2129294 -0.32000512 1.891549 0.4153176 -0.76801574 0.10693046
웃음 -0.7119972 1.3168057 0.012823224 -0.8926366 -0.343678 -1.8280334 0.5723406 0.48432627 -1.8038862 -0.7420849 0.67134523 -0.44006297 1.0899277 -0.3486178 0.7357963 0.16555305
엄청 0.48215663 -2.860918 -0.83738583 -1.1702499 -0.9805088 0.38709876 -0.02055463 -0.58803326 1.6526037 -0.58781683 -1.0457306 0.40475523 1.3801097 0.0788258 0.28683692 -0.19880337
라니 0.83832973 0.35733235 -0.09330323 -0.59252673 -0.52255756 -0.78590524 1.2568704 1.0436758 0.70539874 -0.9587785 -0.13203317 0.00938962 0.4641073 -2.8930032 -0.576984 -0.4380942
더라 0.08913348 -0.59667915 -0.06154409 -1.024893 -0.20055327 0.4242017 1.5914592 -0.5670874 -0.3363285 0.31906348 -0.5475432 0.58952796 -0.25521687 0.33962205 -1.0106686 0.43155885
자신 1.4084215 1.507014 -0.8208039 -0.7631953 0.91527253 -0.4047677 0.118443474 -0.14514224 0.16018699 1.5069562 0.82487047 0.26221788 -0.41491303 0.80730397 0.039227128 -0.15456901
질 -0.8405787 -1.9076202 0.104111314 -0.033619728 1.8201691 0.21711905 1.2387131 0.31965852 1.1239239 0.4350522 -0.94664246 0.215323 -0.65204996 0.42730254 0.6741811 -1.6729237
추억 0.05212524 1.3913798 1.7588739 1.654385 0.7455755 1.1420462 -1.1534877 -0.7818096 -0.8058656 -0.3978007 -2.3767211 0.119348526 -0.4391205 -0.46319526 1.5633909 -0.14324099
캐스팅 0.2745045 0.45195144 -1.9834818 -0.1475155 -0.09744336 1.6778289 -0.01857324 1.8709884 -0.5859799 -0.006618885 -0.46547097 1.2984892 -0.014678971 -0.28175673 -1.8834634 0.1787935
머 3.2285888 0.09978644 0.20255841 0.29933488 0.31316054 0.046399575 -0.017767966 -0.62404984 -0.9723146 -1.5370098 0.75737375 -1.3370479 1.1281482 0.029270941 -0.019143574 -1.6970288
첨 -0.32035783 0.25644413 0.8362014 -0.9502861 -1.9856766 0.065275505 1.9423072 -0.31013468 -0.26573265 -0.29356822 0.38362157 0.71475977 0.1239026 -0.81109303 -1.3262807 -0.79397506
멋있 1.0550567 0.4918507 0.3741299 0.3969113 0.8622598 -0.8438227 0.5550745 0.07071696 -0.71862847 -0.80181414 -1.683876 -0.19550636 0.73841935 0.36251402 0.14706726 1.882269
류 0.13848057 -1.3392881 -0.80764276 -0.34958324 -1.3958308 0.4848652 0.79161245 0.5037267 -0.94501495 -2.2454255 -1.669048 -0.3981879 -0.73352945 -0.34051868 -1.9213849 -0.7199451
시나리오 1.26208 1.6477569 -1.4780107 -0.6272499 -1.1293709 0.09256799 1.0489867 1.0985309 -0.71824193 -0.31080893 0.8326758 -0.42014512 -0.048803248 -2.1125798 0.7066204 1.1582822
어색 0.5110516 -0.51074564 0.6730372 0.8361587 -1.797863 -0.9826989 -0.18194443 -0.14238584 0.89038754 0.8689474 0.61437345 0.003953685 -1.8291899 -0.37089822 -0.4384977 -1.2519423
슬프 -0.5009086 -0.7280288 1.3138136 -0.5121945 1.4699304 -0.3888533 -0.95159143 -1.909504 -0.27755177 1.8164753 -0.70028293 1.6328932 1.7531675 -0.33632803 0.42635262 1.1126251
OOO -0.3299651 0.4092404 1.1656067 -0.84811383 -1.2882888 1.1578672 -1.1609285 0.22348097 0.4665874 1.3722364 0.018200556 1.5282958 0.4913471 -1.6483003 1.1746247 0.13539438
정신 -1.8528687 0.7286517 1.8242382 0.3790976 2.0394304 -0.120858446 -0.8513964 -1.2494491 0.19724259 0.64956033 1.4310282 -0.07321226 -0.45635438 -0.1998128 -1.1692775 0.8198776
분위기 -0.9945872 -0.6171677 -0.25082994 -1.4795821 -0.13269667 -0.855213 0.992541 0.18634054 0.0075551085 1.7291675 1.7713767 1.5572953 0.1833594 0.4434299 0.92994744 -1.8924999
소름 1.0789677 0.8666126 0.22814779 -1.6478717 0.16934596 -0.27874848 -0.5426878 -0.05523154 -1.0582906 -0.93205804 -0.82470727 0.4965404 -0.880367 0.40074107 0.8141495 0.6460584
멋진 0.08962486 0.14001966 0.56996876 0.30203524 -0.29465413 0.5862658 -0.9336231 1.7768346 -1.4571517 1.2178646 -1.753928 -0.6742407 1.36885 0.48959455 -1.2192363 0.88737136
힘들 1.3141855 1.2085973 0.13682212 -1.3043348 -0.55302215 0.7121595 -1.5352101 0.1357085 -0.40277168 1.3654141 -0.17670082 1.2142884 -0.53765726 -0.9694358 0.5911137 -0.35237515
오늘 -1.110807 0.6130337 0.6962079 0.5579275 0.07135974 -1.9903533 1.3067708 -0.8251076 -1.479027 0.5683651 -0.9272273 0.2163547 -0.9046899 0.35067835 1.6399975 -0.22657417
어이없 -1.4994208 -2.451688 0.5769132 0.4952056 -0.38793886 -0.049506057 0.13804393 -1.3045208 0.41720858 -0.48700184 -0.29246998 0.18118624 -2.206272 -0.13759321 0.38101748 -0.50987065
봐서 0.5413136 0.6236153 -2.1625335 1.469497 1.3750948 0.7847353 0.3688809 1.5708772 0.48789063 0.276434 -0.8936232 0.05262098 1.8870127 1.4811194 -0.20237006 -1.2293881
구성 0.40697142 0.6128996 0.69348633 -0.24873619 -1.2430923 -1.5436158 0.25525305 2.7460527 0.18200666 -1.2607461 -0.6723656 2.5749524 -0.4976959 -0.44087356 -0.99591005 -1.409366
잡 0.88916826 -0.3465809 -0.2653563 -0.18372749 -0.7453168 0.51691103 1.5723493 -0.21955666 -0.74576056 0.18248203 -0.5698115 -0.38314065 1.1033474 -0.9832563 0.88199216 0.29999384
엄마 -0.76008594 -0.1708686 -0.9956222 -0.31954882 -0.7284967 1.3709047 -0.05538265 -1.3321029 0.42374644 -0.8238599 2.0279913 1.698313 -0.27329677 -0.28054717 0.65667427 -0.32394692
함께 -0.33563733 0.5388695 0.39433274 -1.1863607 -0.39555538 0.094784774 -0.25635305 -1.3064498 -2.5872328 2.491355 -0.74041164 0.027984079 -0.8172169 -0.88071156 0.4091949 0.15635787
문제 -0.49547976 -0.85513407 -0.64682984 -1.0362635 1.5297455 0.47264442 -0.46077016 1.2238979 1.1227863 -0.92780286 -0.8365622 0.08181663 -0.66371846 -1.3899434 0.5482066 -0.09487737
위해 0.99299085 -0.68568563 0.61936796 1.4621907 1.0444643 -0.48122862 -0.15848446 0.71474016 -1.6158782 0.093330726 -0.89693755 -1.6882145 -1.1751616 0.37317696 -0.9831221 0.17279428
졸작 -1.421422 -1.2844691 0.07235061 1.7321011 -0.4297021 1.3847328 -0.33636874 -0.18689778 -1.0368471 -1.3673522 -0.3515309 -1.542018 0.16058096 2.567721 1.4611306 0.840763
잊 -1.4722847 1.3574461 -0.92612547 -1.0049201 -1.2964376 0.6532794 -0.82342607 -1.1649691 0.48113123 1.4372274 -1.1576768 -0.38551053 0.36007985 -0.27434126 0.06956547 0.2533326
등 0.17623593 1.769847 -0.57795095 -1.1561797 -0.23454583 0.71113914 -0.32439372 0.16786852 0.9219632 -0.33529907 -0.16929056 -0.9774239 1.2103034 -1.2949729 2.3039427 2.4257019
집 0.4372273 0.39216727 0.7771383 0.56394875 -0.23973384 1.4310026 0.7037664 -0.9858167 -1.2403876 -0.61541116 0.814698 -0.9361255 0.97484756 0.6166103 -0.16096273 -0.23059314
유쾌 0.14757021 -0.12021553 0.6608071 0.8953712 -0.9768178 -2.502053 -1.9498864 1.3464918 -1.2311158 -2.3989055 -0.5254352 -2.2403345 -0.49398464 -0.32660145 -0.16514607 0.15216987
스러운 -0.023637705 0.35592347 0.097715214 -0.18632966 1.1811883 -0.31703356 -0.2250884 -0.69075507 0.41760924 0.9088826 1.2692405 -0.9380139 1.1375079 0.4647506 -1.0247897 -0.34069285
뻔한 0.35163632 0.25410557 -0.5082592 -1.5518513 -2.0882394 3.4562109 -0.9940814 0.37839568 0.10106438 0.310637 -0.8116502 -0.3623353 -0.23457432 -1.6779706 0.7206385 -0.7474481
나요 -0.19315259 0.7287934 0.48411033 1.6368405 -1.0649266 -1.4353858 2.3534665 1.4605744 -0.3110433 1.523061 -0.72955126 -1.1058865 1.4823034 0.117938034 0.4834096 0.5221491
킬링 -0.22472772 -0.84799427 -0.77098423 -0.25751853 2.5117478 0.21963099 0.21658425 -0.45477375 0.5828687 0.04384643 1.382433 0.76190674 -1.7413673 0.45003274 0.98557943 0.22713217
결국 -1.0403891 -0.15950876 -0.7435083 -1.3557516 -0.42015487 0.4082446 -1.4614643 1.2741015 0.1768576 2.0317707 -2.3789253 -0.003063621 -1.3086995 0.64576304 -0.1960378 0.6451563
낫 0.4946374 -0.8247104 -0.34060642 -0.3764041 0.89843106 1.1827141 -1.471558 0.73477113 -0.6327552 0.55619913 -0.3867503 -2.349521 0.01176087 1.0313871 0.13384256 -0.20071587
뭘 0.2679403 0.08318531 0.28274134 0.9832046 0.18402994 1.783423 -1.227373 1.4316239 1.412722 0.12596874 -1.6533152 -0.34058186 0.57875425 -0.53087723 0.26938605 0.55041647
간 -1.9697245 -0.24235402 0.07136213 -0.98926306 -0.38018733 -0.05005406 -0.9958213 0.50627995 1.1180466 2.156403 -0.7248323 -0.18861161 0.1106718 0.8568628 0.38534707 0.20641504
소리 -0.8607625 1.4320459 0.5886412 1.9519962 1.3431207 -0.27971306 1.370915 0.6238473 -0.13234992 0.20783615 -0.834293 -1.8321761 0.598721 -0.8633449 -0.89795905 0.38808724
미 -0.50771266 0.30768165 -0.8409956 0.72825897 0.5583461 0.41835916 0.092542164 0.2966049 1.1199461 -0.047338538 -0.054026846 0.4780336 -0.5698402 -0.09338084 -0.16555044 1.0706704
한데 0.118970506 0.014584814 0.17271079 0.78078014 -1.1168951 1.2393858 0.089488834 0.13217542 0.5603287 0.4250107 0.1318628 1.9206016 0.7214696 -0.023352757 0.78531384 -1.745328
20 -1.6728384 0.77781516 -0.52125055 0.9444048 -1.020897 -0.6536581 0.97467 -0.7817266 2.160587 0.6134614 0.7870337 -0.6932074 -0.256436 -0.6901577 -1.230515 -1.0149146
역사 0.01364932 0.45020637 0.59904623 -0.8556517 -0.3558871 0.8762769 1.8440524 -0.7064546 -1.5414401 -2.3298492 0.65971303 0.30081317 0.79292893 1.1774142 -0.7552307 -0.38528186
뭔 0.32817063 -1.7002732 0.10003578 1.6060305 0.01783758 0.26042143 0.17253636 0.09628464 -0.6800179 -0.6945067 -1.3624492 0.586163 0.38957047 0.013165455 0.23341833 -1.1188273
제발 0.42130756 -0.5379941 0.68476146 -1.4927833 -0.84822357 -1.7847023 1.4280695 0.77814996 0.8010089 -1.5643264 0.15427645 -1.8199613 -1.2226449 -0.146328 0.78771085 -1.1519375
포스터 0.12001052 -1.0545801 0.33473867 -1.5254209 -2.3883426 -0.11486854 -0.9803212 -1.180831 1.8323923 0.5317225 -1.542487 -1.2197158 -1.1780956 0.9286665 0.70889425 1.2961353
아무리 -2.2686079 0.42992866 0.794815 0.4103271 0.80249107 0.21047185 -0.38912976 -0.13413681 -0.21565676 0.16239302 -0.18076202 2.7952595 0.7239397 -1.9398754 -0.931922 2.6185424
코믹 0.1727881 1.1502793 -0.8083967 -0.033531804 0.36708552 0.3228845 -1.5336093 -0.13101795 -0.15498605 -2.2220743 -1.7689321 1.8968927 -0.10706909 -1.1520473 0.6389671 -0.42571425
어떤 2.2772794 -1.2804441 0.33045492 -0.35416105 -1.0701976 -1.1548166 0.025040608 -1.4328465 -1.1402866 0.47906473 -0.20688953 0.96847 -1.2824575 0.07878824 0.8406705 -0.30968526
완벽 -0.3778727 0.8575021 -0.47388268 0.517357 1.1831518 -0.69719726 1.1205007 -0.7615153 -0.6737343 -0.8340895 -0.6899249 0.44273636 1.2497028 -0.8708532 0.3434184 -0.7371984
~~~ 0.53911716 -0.37776008 -1.3788664 1.5115023 -0.8345469 1.8697398 -0.80864257 -1.5330648 0.2289753 0.116839126 -0.62647516 -0.07464791 -0.27795443 0.6941297 -0.44399282 -0.28460726
얼마나 1.5980291 0.25423694 -0.70412785 -1.460417 0.53373426 -1.2185308 1.3049465 1.0574547 1.821383 0.5450628 -1.3513721 0.24679287 1.0547254 -0.49535644 0.18963373 -0.5599157
애니메이션 1.1785218 0.30539483 -0.41170162 1.2089058 1.2016766 0.2206889 1.3832464 1.1310862 -1.6963979 0.45235154 -0.28984106 1.0291182 -0.17427057 -2.1439633 0.98825854 -0.90171033
러 -0.23652884 0.2945444 0.32351273 0.627338 -0.8039243 1.342185 0.97728044 0.62467015 2.04811 -0.4331979 -0.66304773 0.43665013 -1.0977818 0.071135424 -1.201966 -0.7388669
맘 -0.75976914 0.68391985 0.72688013 -0.77821946 -1.4202179 -0.048795488 -0.61896074 -0.45977005 -1.1740566 -0.24846138 1.296684 -0.1557588 -0.40691072 -0.60743 2.0506475 -0.43324295
!!! 1.039559 -0.21671495 -1.4156517 -2.8164992 -0.3543285 -0.1912947 -0.5744019 0.43531436 -1.3848466 1.1255453 -1.5976638 -0.013012847 0.5340201 -0.39483616 0.982179 0.34838504
난다 0.8560477 -0.28551778 0.43311673 0.44662315 -0.67102575 0.17782123 0.5707832 2.2171986 0.7931373 0.4668049 -0.28347042 1.1483799 0.24155466 -0.02928051 0.7891519 -0.506227
주연 1.6546724 -0.1457053 1.1343739 0.87018603 -0.4739036 0.32459405 -0.80559504 0.03598769 0.68019795 -0.34234214 -0.9798366 1.1421604 -1.3426551 -0.19457133 -0.3953012 -0.24806577
원 -0.3776068 -0.3947806 -0.14601533 -0.6721251 1.0281754 -2.686629 -0.027184807 -0.09021095 -1.478668 -0.6136644 -0.44760585 0.47159433 -1.2317877 0.7870767 -0.72951525 -0.11263801
이딴 -0.43639103 -0.52641183 1.1462431 0.34222215 0.22979629 0.6472527 0.6819684 0.68766856 -0.6210856 -0.4091764 0.002604355 0.4231758 -0.025722226 -0.43243167 -0.379914 -1.0990896
버리 0.20124942 -0.6639157 0.07622628 -0.35330158 -0.09870865 1.1679834 0.11903661 0.5737653 -1.6300498 -1.1070284 -1.0419016 0.50752807 0.33749062 -0.21007729 1.1083055 -1.9769268
♥ 1.2430576 1.8465612 -0.40755102 0.48471665 0.7093383 0.6528529 1.3234595 1.1218196 -0.6405261 0.32848015 2.2975123 0.3074172 -0.18594599 0.977423 -0.3283696 0.08383271
어릴 0.38947478 -1.6756401 -0.113903 -0.24165788 0.29429743 1.5576755 0.30076584 -2.0777388 1.5379803 1.131793 0.22829984 0.42832562 -0.06656793 -0.86750144 0.08474391 -0.6297582
후회 -0.56359273 0.22522496 -0.4352622 -1.6205775 0.7436776 0.719569 -0.052035186 0.7979561 0.23618014 1.1369468 0.44392747 -0.40372568 -0.64244163 -0.7380089 0.97356445 -0.2089781
진부 2.0161202 -0.55831826 -0.1554262 -0.6520008 1.1156676 -1.0062919 1.6920503 -1.8477536 -1.2202626 -1.0581131 1.6275444 2.2866855 0.45314494 -0.98548216 -0.13979729 1.0482761
나올 -0.40783992 1.2405621 1.133116 -1.1242245 0.055231918 0.5460006 -0.07559775 1.1285821 -0.6178662 -1.0337721 -0.80421335 0.9512592 -1.3324406 -0.43121967 1.0878321 0.2659169
됐 0.8345751 0.85951847 2.059734 1.210992 0.2432658 0.40068486 -0.57435906 1.5963858 -1.3996611 -0.087177835 0.008361979 -1.7240407 -0.04126791 0.1619938 0.1206745 -1.3193564
보단 0.3431486 -1.2396089 1.3396485 -1.1138908 1.3395163 -2.982525 1.533144 0.2745214 1.541493 -0.52273154 2.126013 -0.5951536 -1.0438132 1.6081934 2.0853705 -1.4004524
장난 -0.09542463 -0.80671644 1.1943734 0.38732618 -0.061490122 -1.2867701 -0.7550374 -0.9187218 0.38272884 -1.0719547 -1.4025682 -0.74452406 -1.1811131 -0.14796571 -0.08099844 0.4869059
책 -1.020986 0.027765233 -0.6844837 -0.45424974 0.30849418 -1.8137293 -0.952185 -1.0110226 -0.2529254 -0.18883437 0.9407346 0.09242153 -0.84563136 -2.067327 0.0410523 -0.88799155
더니 0.54184157 -1.7378027 -0.23722608 -0.745577 -0.61626506 -0.25115722 0.49029773 -0.8483686 0.5244123 1.0162659 0.5689147 -0.1965316 -0.73879933 0.5229454 0.68488705 -1.2352283
큰 -1.8255087 -0.19518264 -0.7069985 -0.1703117 0.12864056 -0.53787845 1.0762471 0.24207106 1.0822767 0.33259705 -0.1457928 1.4680594 1.9045393 3.5923395 0.686015 -0.29299867
영화관 0.66541785 0.4477573 0.5147614 -0.3083295 1.3297098 0.6832345 -0.18400134 0.19878888 -0.6294424 1.0601742 -0.06388817 1.1360649 0.44824833 1.2441368 -0.39464477 -0.9137983
둘 0.86583436 0.6516397 0.3836212 -0.800286 -0.32455048 -2.1109712 1.0126976 -0.66415596 1.1758828 -1.6817477 1.4538075 -0.30849856 -1.1600957 -0.631454 -0.40563077 -0.21295033
출연 -0.9420579 2.0581014 -0.41285098 1.176432 -1.2658432 0.118300624 0.47326815 0.7363817 -0.06575588 0.025261505 0.3779494 0.43266073 1.5525671 -1.8991827 0.11892656 1.0641354
극 -0.001698925 0.7582736 -0.8119331 -0.22855914 -0.9989991 -0.95574105 0.33384234 -1.5624064 -0.21987505 -0.15297799 -0.042443156 -1.4025925 1.0933164 0.058744103 1.8415108 -2.3481877
ㅅ -1.4955208 0.29564637 1.7673723 0.22501557 0.6888659 1.2660244 0.47738597 0.36563897 -1.292838 -1.9096653 1.3412709 -0.51130444 1.2981381 -0.7452323 0.4255606 -0.99119383
개연 -0.41185254 0.15187332 0.8915329 0.8575934 -0.89118755 -0.91285604 -0.16055058 1.0096809 1.7214416 -1.9828113 -0.83419883 0.41112024 -0.84251875 -0.32275277 0.106741466 -0.22158112
충격 -0.9255516 -0.46889508 -1.7162564 -0.84660125 -1.9654323 -1.223674 -0.12118422 0.66503274 1.1525828 0.1597978 0.6010456 2.1335826 1.3445947 -0.08338129 -0.34085593 -0.77572334
여기 -1.3134098 -0.45093217 0.42906135 0.035866667 -0.028175974 -1.0421242 0.09499713 0.59928244 0.5554655 0.71906286 -2.0401506 0.0352451 -0.16191754 -1.78695 -0.06475324 0.42789426
평가 -0.5050093 0.89405376 -0.017773777 0.95578873 0.29624638 -0.85409445 1.0015761 -1.450665 1.4632946 -0.16277905 0.57370114 1.0094213 0.010869939 0.36718813 0.1268062 -0.9515716
엇 0.017323812 0.7692418 1.2504898 -2.214279 0.7834854 1.2171955 -1.1665812 -0.10530027 -1.0410407 0.3359783 -0.24841428 0.12686636 -1.2183938 -0.71162057 0.14977884 0.69326013
꺼 0.07450268 -0.20891269 0.08275099 -0.5355685 1.5570505 0.4808607 -0.89346665 -1.8533463 0.36246523 -1.0851747 0.9375489 2.428898 0.077267915 -0.2700352 -2.1933033 0.050815757
잔인 1.5272387 0.13305402 -0.16478013 0.090737455 -0.8551809 0.8568067 -1.353941 -1.2803346 -0.17026184 0.21096474 0.2616349 -0.29086515 -0.3628394 1.6831563 0.65328956 0.783465
아름답 -0.54368705 1.7344465 0.36687553 -1.2518641 0.73986113 -0.4738705 -1.6172638 -0.11494262 -1.7434074 2.2424212 1.3148636 -1.8870387 0.16610068 -1.6472391 -0.5335617 0.48226815
얘기 -0.34120467 1.923235 -2.7300956 1.8160815 -1.201182 -0.44029322 -1.0898468 -0.508307 0.67655843 0.6884394 -0.85508835 -0.5362794 -0.22426721 0.84877104 -1.050257 0.6671157
줬 1.3767782 -0.33661792 0.5476526 0.58178645 -0.9875195 0.057409957 0.85667104 -0.6600216 -1.3476216 0.35667166 -0.20923463 0.5382417 -0.57324636 0.7706504 -1.9233804 -0.88350457
자기 -0.8217712 1.0452368 -0.17739645 -0.351413 -0.23763813 1.4346627 1.0721836 0.3770533 0.5860217 -2.1671736 0.10339771 0.24878658 -0.8071717 -1.1065174 -0.5873076 0.21187542
