10000 16
<unk> 0.44363648 0.058798194 0.82032585 0.03330527 0.9041894 0.54685134 0.048246622 0.83719176 0.05163717 0.43277967 0.3045075 0.2537597 0.63491315 0.96291375 0.48699763 0.8113247
<unk> 0.3834295 0.20337981 0.3351787 0.43837017 0.6940385 0.24312137 0.18087201 0.9527642 0.5779635 0.313487 0.7241899 0.29151857 0.8115313 0.41758013 0.38743612 0.37246612
<unk> 0.56844866 0.4038364 0.092581876 0.04873575 0.27966943 0.106672905 0.5050841 0.85448587 0.59760517 0.28701094 0.4031202 0.8465114 0.086020604 0.10643902 0.8735553 0.49859694
 0.73060805 0.2183644 0.29862276 0.80352306 0.26493052 0.4443764 0.8572906 0.862257 0.8357795 0.6120629 0.41757473 0.9437792 0.64749455 0.19117609 0.36906162 0.89790815
. 0.23847513 0.43644765 0.10221732 0.5668207 0.6008433 0.52525264 0.6467965 0.046334147 0.58316696 0.2821441 0.3893141 0.045549214 0.79623044 0.1697619 0.5334214 0.8352795
영화 0.9513157 0.5247665 0.8524886 0.047588304 0.3690931 0.73185426 0.34571022 0.97952706 0.60140544 0.028011207 0.7991697 0.8377441 0.88143367 0.46412566 0.74328923 0.119812906
다 0.9798317 0.16374806 0.5470948 0.25572914 0.72292477 0.20383961 0.92296135 0.7328399 0.025542919 0.25499237 0.86118215 0.62744635 0.36679465 0.3455379 0.24343799 0.94424886
고 0.07943628 0.8401465 0.8479941 0.01575085 0.93298584 0.64506155 0.4754635 0.58518547 0.50908375 0.82821506 0.9033269 0.5251222 0.5284998 0.7899164 0.3605515 0.118115276
하 0.4872452 0.39403257 0.6039401 0.45941782 0.06394294 0.22300117 0.7814916 0.6851772 0.95941263 0.6173076 0.8866034 0.13549204 0.8778554 0.9547156 0.08697068 0.35067663
을 0.5879785 0.8756224 0.10829648 0.6474284 0.51517606 0.11853275 0.7457995 0.47063074 0.15247145 0.2099885 0.25324315 0.30975989 0.57461214 0.8777927 0.59389824 0.21726942
보 0.69692796 0.7998617 0.27802137 0.018866174 0.76763815 0.302787 0.7312289 0.4352197 0.58414894 0.13135967 0.44953573 0.9518821 0.7533065 0.52260655 0.61211 0.04592996
.. 0.6719151 0.39004326 0.5762152 0.8771684 0.16070168 0.9016832 0.19223015 0.53167814 0.25084472 0.81053394 0.18821444 0.23501661 0.53474265 0.45995468 0.76272947 0.20259647
게 0.76674116 0.33467036 0.65974 0.5459787 0.47210065 0.8305531 0.1415674 0.63762265 0.12690702 0.25982487 0.76275396 0.9759842 0.17802817 0.5377183 0.05106247 0.054827176
, 0.61112195 0.7250338 0.93402576 0.6028621 0.1797185 0.89388084 -0.0014051348 0.2166484 0.43593672 0.74785584 0.05448537 0.9454984 0.71267956 0.148219 0.6942758 0.7886961
! 0.30295312 0.16674773 0.15962966 0.35670292 1.0242351 0.4569626 0.06871823 0.83129114 0.9813269 0.19153571 0.6177458 0.18722567 0.47766846 0.26172504 0.44278875 0.47941965
지 0.5883632 0.9425523 0.1296742 0.0058820313 0.27902454 0.24428405 0.6116217 0.38373756 0.42553535 0.7783583 0.038058717 0.4514704 0.8097102 0.15263392 0.41182745 0.18914044
있 0.15344428 0.8834907 0.95929164 0.6637357 0.8850425 0.7985884 0.09587581 0.8247764 0.18904212 0.9406491 0.36014062 0.64127594 0.53566 0.7738745 0.1771703 0.73223895
없 0.2403683 0.6264205 0.6627943 0.7506885 0.03974533 0.59370464 0.47739303 0.37977922 0.62618 0.82940733 0.17691104 0.97843593 0.33047584 0.20694095 0.8952876 -0.0016376732
? -0.005189115 0.28435567 0.6319682 0.12067648 0.33991632 0.10245753 0.83514816 0.08528849 -0.0048361 0.17607583 0.7429188 0.72935855 0.6126369 0.8773159 0.25068602 0.09640152
좋 0.5861904 0.633616 0.73528373 0.43866768 0.007363911 0.42096645 0.6967394 0.45472267 0.07675095 0.59952146 0.07720559 0.7407478 0.8757605 0.23750669 0.9261581 0.615424
나 0.43197164 0.60629535 0.81398785 0.29121438 0.89851314 0.48510626 0.966925 0.122837685 0.3504176 0.9844717 0.46442845 0.5404676 0.91249245 0.63951725 0.3468125 0.31826568
었 0.36123905 0.11981438 0.089046165 0.28159946 0.9703995 0.08441289 0.88040847 0.9499201 -0.012552763 0.015506607 0.29381037 0.3955036 0.27420273 0.11606548 0.47001156 0.07105223
만 0.88277775 0.14797206 0.779536 0.8042192 0.9205222 0.6129043 0.57312715 0.44659442 0.7060104 0.31915736 0.52606785 0.62799585 0.47165427 0.48473975 0.723498 0.9609319
는데 0.33209142 0.13814503 0.8670192 0.5390066 0.54774684 0.43025553 0.7689488 0.54526865 0.8149345 0.74357986 0.1847382 0.7871555 0.2573925 0.66319156 0.59994626 0.9183222
너무 0.33448246 0.24580725 0.253591 0.48563364 0.9604882 0.25918615 0.6628724 0.120752655 0.7098846 0.6707302 0.60699683 0.7452665 0.6167877 0.42503217 0.5103517 0.765954
봤 0.047470633 0.43384227 0.700156 0.41931072 0.39546064 0.2534574 0.6731872 0.36329144 0.8819826 0.4334473 0.6338641 0.16768761 0.67778665 0.9377574 0.8639471 0.43475902
적 0.51075727 0.82429034 0.085798725 0.4464684 0.009970291 0.39838815 0.8320216 0.39775234 0.03536667 0.4832024 0.18153253 0.6835448 0.6711241 0.744764 0.30309138 0.42327467
안 0.25549072 0.537385 0.67155343 0.6062092 0.4809088 0.5569538 0.2346198 0.38211992 0.4768306 0.6490271 0.74657285 0.9013986 0.7709711 0.62858427 0.52396256 0.020626964
로 0.37806553 0.83753914 0.5182906 0.24361543 0.25346386 0.84586567 0.67711616 0.5429067 0.84368145 0.7119747 0.026710996 0.8508943 0.7025883 0.38231003 0.4832528 0.34400487
정말 0.27332586 0.8173589 0.32125887 0.4800256 0.17140704 0.5596845 0.4471782 0.84663075 0.3200857 0.75090396 0.49007687 0.92315274 0.23151618 0.67385095 0.7803082 0.13268867
음 0.23139149 0.5231623 0.80987495 0.05121352 0.2420005 0.890481 0.3810852 0.15222913 0.13372953 0.64672834 0.8010119 0.70261157 0.34656334 0.6554226 0.81175727 0.6393563
것 0.3430536 0.54416955 0.21257757 0.8682277 0.14733149 0.9306109 0.92118347 0.34799683 0.73138076 0.32931757 0.1526064 0.3581644 0.52745986 0.9337466 0.33915025 0.699955
아 0.85056156 0.37536934 0.31796834 0.24774297 0.579773 0.38673916 0.9147608 0.4974706 0.12318512 0.7483845 0.6787935 0.51967305 0.17107558 0.6786856 0.9644587 0.24763502
네요 0.07148016 0.8715253 0.6311408 0.06711469 0.7695306 0.27432504 0.33385372 0.35490137 0.97691077 0.41371092 0.91758144 0.74830675 0.7156575 0.577322 0.42784563 0.06548104
어 0.98301715 0.3265241 0.22983953 0.15388507 0.8804657 0.42280495 0.88314617 0.14453118 0.38401592 0.7095858 0.6258036 0.8358012 0.81112415 0.32000008 0.7080908 0.29237324
재밌 0.058740385 0.42812172 0.9239123 0.720337 0.12443326 0.82470214 0.1595486 0.08727235 0.03798695 0.4242529 0.96005285 0.9592585 0.63672143 0.93295616 0.5340631 0.20196989
같 0.8827783 0.54252625 0.4253408 0.32009658 0.010699067 0.87777764 0.110622294 0.52037114 0.31459847 0.17838241 0.43131638 0.09930213 0.021820571 0.25102034 0.887099 0.005755947
점 0.5234828 0.6915043 0.23786832 0.75731677 0.39871147 0.90230864 0.5598838 0.9525855 0.11142229 0.3814421 0.7778293 0.28132743 0.16381817 0.4273015 0.31442985 0.6596624
지만 0.71525234 0.029368976 0.34345523 0.5462392 0.3467986 0.8907759 0.20024267 0.123832464 0.45477548 0.90806085 0.52755374 0.78943235 0.31564978 0.9029058 0.3872023 0.8749955
진짜 0.9301731 0.22528335 0.454954 1.0051676 0.015941668 0.3730305 0.77359897 0.70320654 0.20554371 0.75732887 0.036042213 0.9507117 0.614485 -0.03780162 0.36807534 0.7329294
했 0.023362122 0.3753721 0.47409657 0.45721537 0.3244915 0.40981564 0.10433654 0.3825319 0.06565768 0.5922553 0.4857894 0.12188813 0.6303619 0.16177443 0.60718817 0.05330654
기 0.047358036 0.5074974 0.7860697 0.95986634 0.5150866 0.796339 0.50382394 0.36036274 0.8201306 0.22023344 0.6218681 0.105193295 0.8172292 0.6125495 0.9448927 0.7072617
에서 0.61691445 0.7515092 0.50929296 0.67007077 0.71332276 0.6482732 0.5704438 0.76044714 0.94080555 0.35734248 0.021061735 0.30505702 0.3539724 0.42344683 0.38516188 0.36509582
네 0.4531447 0.43531904 0.17550838 0.54761976 0.3269384 0.42239964 0.32328048 0.42432064 0.67805654 0.23366994 0.17413972 0.30482215 0.25821036 0.57069993 0.12743665 0.6854575
않 0.17139597 0.84490275 0.75451386 0.6203839 0.70016724 0.66500235 0.6014219 1.0102903 0.8477378 0.6381719 0.11944701 0.33675486 0.13298519 0.54139555 0.4123069 0.71982837
거 0.41989735 0.5873791 0.3428825 0.7918476 0.4856232 0.85424995 0.84305674 0.3500875 0.6740101 0.35066548 0.74579734 0.3802178 0.46743667 0.5164649 0.28058565 0.022436272
았 0.08786289 0.64783174 0.2857902 0.2865017 0.19946887 0.6955466 0.928307 0.327247 0.5060563 0.61131644 0.54392445 0.49768233 0.40042815 0.82674456 0.42064923 0.32693478
수 0.21996902 0.16799235 0.065762654 0.4019504 0.69124585 0.9355476 0.07514091 0.69828254 0.7804714 0.47344923 0.65199757 0.3834496 0.013635734 0.33480957 0.16789083 0.8230265
되 0.99330777 0.24650444 0.09023711 0.29524323 0.9354487 0.9194609 0.26306346 0.15581974 0.6835604 0.5018459 0.16789162 0.21654731 0.26273128 0.18532164 0.37598273 0.06469584
면 0.9728262 0.5551253 0.06847419 0.52071255 0.9880021 0.5406269 0.34901932 0.08349835 0.6659416 0.39092162 0.68713385 0.9299665 0.1471786 0.41965565 0.7144676 0.66575783
ㅋㅋ 0.41467953 0.17935316 0.76599616 0.029846586 0.8501671 0.43050155 0.37048525 0.7653902 0.31702465 0.51153654 0.21279986 0.22449614 0.6435363 0.58059907 0.5700605 0.8959564
말 0.24945594 0.3916572 0.683887 0.40733665 0.15769993 0.5464808 0.36679402 0.0367223 0.31376603 0.6946409 0.88451177 0.3566378 0.3309022 0.20404229 0.26541352 0.9313727
인 0.34467164 0.036228947 0.05949457 0.21816392 0.3845111 0.07891156 0.88167626 0.57006466 0.90478075 0.49254245 0.118868366 0.56660414 0.68145406 0.44655082 0.6392824 0.90794563
연기 0.7258144 0.12831593 0.45943835 0.25814006 0.45859277 0.422815 0.10075491 0.08683137 0.24936666 0.9071852 0.45036766 0.25061053 0.839664 0.9285135 0.33334243 0.3029326
주 0.71906006 0.6061116 0.9103708 0.7038643 0.9222725 0.16468832 0.87120414 0.50214154 0.75682384 0.334665 0.440811 0.45135975 0.22896987 0.08685366 0.7950861 0.49862313
내 0.09606492 0.9181297 0.8291946 0.53783536 0.6339664 0.33646587 0.21782951 0.56175625 0.55266804 0.37840697 0.83273584 0.7951554 0.93175477 0.7608509 0.58724314 0.6012635
최고 0.41914207 0.018163001 0.9310936 0.31161162 0.35107684 0.77312505 0.48431757 0.7669833 0.6948861 0.060438123 0.9091173 0.31931743 0.98287046 0.8828629 0.9429132 1.0182099
~ 0.4386792 0.13997357 0.41654938 0.58597606 0.5643785 0.35152525 0.7236656 0.59460336 0.84567535 0.117001735 0.38972956 0.7962982 0.90888894 0.13815218 0.033644646 0.9559737
평점 0.22308882 0.43062413 0.95319456 0.22164445 0.011339563 0.9100803 0.9844455 0.30614787 0.46463206 0.811253 0.2622457 0.5874835 0.16320148 0.5504972 0.52648556 0.8279426
이런 0.29916295 0.23112796 0.68522567 0.31503794 0.40903944 0.97124755 0.59285206 0.20894848 0.121352896 0.54922235 0.26699874 0.8685224 0.54729605 0.68409646 0.73303324 0.25490877
던 0.96762156 0.13282521 0.9295629 0.60443074 0.14107065 0.69188887 0.6036342 0.79831606 0.46098697 0.3813008 0.78812516 0.5582113 0.4957644 0.73330957 0.14429592 0.30999938
어요 0.9669486 0.7032634 0.020315787 0.6137479 0.21795319 0.97678965 0.9374673 0.53760797 0.4391168 0.42119184 0.0953678 0.9424901 0.05903388 0.63761437 0.46622047 0.3087899
할 0.25336084 0.5138499 1.0131211 0.9801814 0.72760266 0.70126146 0.3050901 0.30824298 0.21173048 0.7894888 0.668247 0.20617741 0.583025 0.6423989 0.35031587 0.14261234
왜 0.26475778 0.65402645 0.015313105 0.606276 0.86374915 0.3805279 0.19272965 0.31442085 0.42780054 0.30546677 0.8093804 0.76161045 0.2595348 0.36338013 0.52256864 0.9447388
겠 0.46498877 0.6358031 0.1183028 0.45268524 0.95006186 0.8716213 0.31719714 0.57842684 0.048364688 0.29043776 0.8489774 0.38316095 0.24094957 0.1431936 0.26619565 0.66154855
해 0.8987971 0.8442924 0.655072 0.086574614 0.15614907 0.2847284 0.2808603 0.46846193 0.6322831 0.026406098 0.29853618 0.91775125 0.017780848 0.5431129 0.56335574 0.8925418
1 0.9063891 0.6286947 0.8031502 0.073183015 0.19857292 0.27962878 0.378213 0.14362685 0.1576124 0.3351767 0.3295232 0.25916567 0.64086646 0.6030362 0.19463132 0.18799682
스토리 0.8248729 0.76928914 0.92810374 0.8491906 0.28455645 0.16828482 0.871288 0.24189468 0.4727505 0.56019634 0.25262308 0.495228 0.46588612 0.08849775 -0.0035336239 0.6115647
습니다 0.074745744 0.32812276 0.2846552 0.45133725 0.8610867 0.2735684 0.8394404 0.9186658 0.3402979 0.9752182 0.9900662 0.6609714 0.9669649 0.27358615 0.2716395 0.7780624
ㅋㅋㅋ 0.9234642 0.74849844 0.5926341 0.6322566 0.5137479 0.23997329 0.5031497 0.078389004 0.33788118 0.66433173 0.49809635 0.6723773 0.6018787 0.4801787 0.8239282 0.055604488
... 0.54196787 0.7104042 0.96046185 0.11102331 0.20147622 -0.007506941 0.6241783 0.42467102 0.73149306 0.6104875 0.52432936 0.6278858 -0.030013315 0.978362 0.109746076 0.31260946
드라마 0.22552529 0.05094001 0.21584536 0.2895335 0.6509741 0.44687194 0.07568604 0.12846288 0.27574033 0.20565012 0.66132474 0.49089196 0.8136677 0.6648184 0.05616844 0.6358496
아니 0.9913282 0.37346882 0.49580148 0.6603351 0.35032654 0.4866373 0.87167525 0.57787097 0.084083036 0.8543674 0.4342916 0.67301685 0.9829362 0.96189 0.29602617 0.4536858
생각 0.8262136 0.399987 0.6115494 0.5206758 0.85369045 0.12674412 0.23202221 0.6158677 0.024468832 0.73580986 0.38123214 0.8448969 0.37006536 0.102088295 0.92077893 0.3174351
더 0.069189906 0.23162498 0.15379295 0.06155961 0.024307279 0.6094659 0.4657376 0.9600703 0.06833879 0.27913338 0.86608624 0.86867255 0.5158098 0.17046021 0.6331748 0.09085423
그 0.9834919 0.20749013 0.10985399 0.55387706 0.11927203 0.38762054 0.10038657 0.3277132 0.58856386 0.4683054 0.7753343 0.8995692 0.8709213 0.4325475 -0.00892071 0.7195265
싶 0.636798 0.43791667 0.6661021 0.21403144 0.19660315 0.32308492 0.011024371 0.18392225 0.80496174 0.9376833 0.52921563 0.031460036 0.5443822 0.7230536 0.59286183 0.32431057
사람 0.5397955 0.15888247 0.4368733 0.20719412 0.5362744 0.42206177 0.48192194 0.9074355 0.12159817 0.44571903 0.71702325 0.040629867 0.14087729 0.6888255 0.98134273 0.3084115
듯 0.6921996 0.8703091 0.40744466 0.524148 0.41501763 0.7259429 0.42671424 0.044656944 0.9083603 0.43203261 0.27697095 0.66864574 0.47971186 0.0341311 0.292304 0.94621325
때 0.08848836 0.09173462 0.025284993 0.897949 0.69393426 0.1784188 0.09165037 0.06185886 0.42893133 0.3643878 0.67154336 0.009703561 0.3935537 -0.02076765 0.8742651 0.58405393
감동 0.07512119 0.4243051 0.5655591 0.3727749 0.7913299 0.07581521 0.38826886 0.5766518 0.49763286 0.25650197 0.51223564 0.3382705 1.0094562 0.6829877 0.9377072 0.91524243
함 0.25648996 0.56512976 0.09662893 0.9189777 0.69180137 0.9334153 0.746085 0.5253931 0.6272625 0.13819146 0.7726211 0.39489096 0.89509475 0.7202207 0.41974607 0.058454905
배우 0.2334303 0.56503254 0.5977342 0.41937685 0.20336258 0.2521091 0.4191596 0.2005296 0.49937573 0.9552837 0.80942965 0.98206127 0.55191237 0.8248357 0.9517516 0.71491927
본 0.13157518 0.16774288 0.7972371 0.2124585 0.041633368 0.16707493 0.5507654 0.067910425 0.11761907 0.83713835 0.35085213 0.93242437 0.8752951 0.9186989 0.753887 0.7643602
까지 0.28470647 0.78962505 0.828956 0.3159351 0.27211523 0.26981145 0.2566249 0.24570651 0.60124266 0.9502301 0.08554338 0.65033567 0.39668736 0.023300523 0.3160325 0.52489203
뭐 0.418013 0.07361836 0.5702827 0.59751534 -0.0007308608 0.30602008 0.764232 0.9908372 0.22460964 0.08352807 0.8067018 0.3624024 0.13155505 0.59363425 0.47599277 0.6796972
보다 0.83185047 0.87841636 0.5884457 0.11493055 0.6272835 0.18045615 0.6331035 0.79086614 0.7881275 0.3502746 0.27526176 0.06790407 0.32559672 0.85663545 -0.0011992094 0.3403492
알 0.7391796 0.7952632 0.24544153 0.87262416 0.609422 0.888868 0.033431336 0.3164433 0.85694 0.74421823 0.7031523 0.9950763 0.43147984 0.5169742 0.89503783 0.5982246
만들 0.14372718 0.4014584 0.2992015 0.3107484 0.45114478 0.6328856 0.90210503 0.7526826 0.09740051 0.19729725 0.54624516 0.85742515 0.7883649 0.78549254 0.77623975 0.45754918
내용 0.38281018 0.046174828 0.66569465 0.72902656 0.6894581 0.86454195 0.0123756 0.21496187 0.3239466 0.24771835 0.4395854 0.07710329 0.04757943 0.03298651 0.06261834 0.5228492
볼 0.2733398 0.012559191 0.25618908 0.04673105 0.6844239 0.9328145 0.75099695 0.6954253 0.8844126 0.4464201 0.82105803 0.021450583 0.5871509 0.12453066 -0.0014623541 0.7892579
감독 0.93677926 0.8171257 0.56138915 0.05012666 0.27214202 0.17364754 0.85826486 0.7566673 0.7216675 0.22811979 0.3010304 0.8229051 0.9648424 0.30493104 0.040169723 0.06738519
라 0.6728608 0.18970458 0.41334233 1.0045573 0.28735498 0.5357459 0.51625556 0.8684841 0.19484292 0.38468236 0.17489362 0.519333 0.60940075 0.245822 0.7879501 0.84200555
그냥 0.3770678 0.10134595 0.26263362 0.65898645 0.25141165 0.0040075285 0.19527462 0.07824613 0.360132 0.7409387 0.5994153 0.5912373 0.69424367 0.0414835 0.4055454 0.68367285
재미 0.3646682 0.8218595 0.24961706 0.6640754 0.3471921 0.46025732 0.47414622 0.6236722 0.536317 0.20310596 0.43793604 0.9164267 0.28941926 0.8775891 0.28541228 0.44990268
시간 0.20949711 0.22257291 0.5340909 0.1850522 0.84926456 0.34151244 0.41812742 0.44750664 0.97865665 0.061282612 0.83489925 0.68791175 0.54105914 0.41825 0.26879373 0.4259855
지루 0.5267099 0.96091104 0.24178937 0.5219187 0.8828584 0.90727407 0.7704187 0.58050466 0.6463755 0.17823686 0.5378706 0.39152232 0.9480621 0.17436472 -0.021316499 0.014465504
중 0.5690602 0.7220406 0.28355 0.4866462 0.6188826 0.2570831 0.51778877 0.4255132 0.59994864 0.8478174 0.487565 0.24331771 0.05882965 0.4190932 0.4989995 0.75263065
재미있 0.42227054 0.8904473 0.7772226 0.84612125 0.37519482 0.7825101 0.17296702 0.4056597 0.020880248 0.2776452 -0.0028042176 0.6684852 0.27455273 0.69761366 0.7391949 0.8899553
년 0.3924008 0.13106087 0.77015525 0.5580767 0.085787535 0.29371557 0.7240028 0.45346528 0.73788124 0.34894064 0.6837608 0.3163705 0.831771 0.5202358 0.2770468 0.9745855
10 0.30498344 -0.0020680123 0.45465085 0.8604422 0.63383764 0.119626336 0.5854368 0.2585107 0.5458896 0.15170376 0.0043979795 0.38772187 0.80902666 0.09789757 0.079514064 0.92381376
였 0.41248843 0.31675935 0.63669133 0.17400251 0.5553524 0.32370755 0.87443215 0.16044684 0.5901967 0.7268038 0.14542587 0.10486857 0.9019425 0.35584608 0.050786667 0.8589729
잼 0.8004966 0.15407017 0.9176504 0.7225858 0.4005831 0.5536966 0.3774786 0.2573601 0.017972542 0.22989486 0.76917666 0.72242486 0.9127272 1.0146602 0.6500415 0.28652802
사랑 0.22552867 0.09676224 0.44750005 0.66008663 0.71833426 0.80415523 0.14394955 0.865388 -0.0063429717 0.34770513 0.9443364 0.3387462 0.015816713 0.014909224 0.43778625 0.78158945
못 0.715964 1.0034279 0.7030265 1.0186121 0.64278525 0.24100037 0.2356914 0.83705676 0.1198197 0.6585843 0.575892 0.17966546 0.24413209 0.37861606 0.67854357 0.29426143
냐 0.6853569 0.8428154 0.308388 0.7351827 0.12258076 0.036213726 0.4772174 0.18917601 0.56694585 0.24846753 0.04674394 0.18776716 0.7460614 0.75156844 0.44696435 0.14297298
재미없 0.16741033 0.35968766 0.97022784 0.7148541 0.95976764 0.7809527 0.7254525 0.59972715 0.796818 0.21073848 0.16913797 0.35424906 0.108653575 0.35676956 0.82647073 0.73518354
쓰레기 0.14143108 0.12921341 -0.01598866 0.07119882 0.32644352 0.2667011 0.08781494 0.5063527 0.6082223 0.49783123 0.15420556 0.79099727 0.35911775 0.16611046 0.5665347 0.8910855
서 0.7098455 0.9400072 0.49253014 0.1383726 0.2713608 0.3812605 0.61202353 0.63140017 0.31638423 0.89675045 0.88526857 0.48863417 0.851704 0.49852344 0.78801984 0.9603165
야 0.28859478 0.08783842 0.95470107 0.7469535 0.9582045 0.15543307 0.48074126 0.31537426 0.45340174 0.70409465 0.00825412 0.5643406 0.7641929 -0.00081743096 0.92287177 0.6372634
2 0.43529862 0.9655132 0.9557785 0.8787695 0.4654729 0.67165715 0.5660509 0.5237424 0.77860105 0.54717535 0.16433184 0.3667191 0.23528063 0.33257285 0.80996966 0.98610675
라고 0.53008527 0.5161247 0.72154117 0.6715788 0.17524768 0.71772534 0.18022703 0.5755766 0.7232187 0.090400286 0.6064399 0.83069307 0.51764214 0.5100047 0.5231378 0.33651945
니 0.87513196 0.5680538 0.28621736 0.274722 0.28882363 0.8028619 0.21632858 0.5040869 0.75229853 0.8579682 0.2087202 0.96336263 0.5298454 0.74709225 0.39359486 0.068977125
면서 0.060957976 0.4978658 0.17140186 0.2042674 0.50556636 0.20273529 0.3469183 0.31192744 0.356142 0.7452666 0.08984985 0.41924736 0.30505517 0.7872815 0.35887033 0.54865503
번 0.841128 0.008254408 0.89136755 0.5456778 0.8632212 0.5275342 0.6397843 0.33646348 0.40739378 0.07961675 0.6235076 0.70612544 0.35557255 0.31507596 0.42950535 0.46138346
다시 0.8737849 0.8305334 0.97276247 1.0053872 0.071234636 0.07984891 0.7551497 0.45918185 0.9608463 0.75110674 0.11547904 0.7712301 0.7977951 0.40251756 0.8235679 0.31065378
나오 0.20620567 0.31083587 0.6867585 0.92785823 0.40599582 0.2927989 0.808104 0.91360265 0.6193638 0.41578996 0.4716821 0.6741274 0.3420766 0.6911862 0.040987253 0.9330232
작품 0.87700504 0.5618636 0.6349192 0.8716622 0.8417234 0.5826099 0.7146669 0.11989368 0.9716793 0.72197133 0.7760638 0.07292615 0.9566821 0.64213246 0.08187018 0.5679751
이거 0.9730442 0.87425995 0.024411093 0.78834903 0.38665465 0.4622336 0.86858404 0.20351346 0.6941642 0.25818667 0.4234889 0.2888888 0.7589416 0.33519322 0.13653636 0.41768146
하나 0.7012758 0.41442692 0.013705948 0.96401376 0.5080613 0.03744983 0.82274973 0.9199126 0.13155419 0.8241549 0.35822448 0.37119675 0.7315012 0.5279663 0.171254 0.37464914
줄 0.084474415 0.16203246 0.8441225 0.526054 0.50243706 0.455278 0.35522017 0.13931654 0.7253893 0.017133491 0.9172677 0.29712132 0.54408115 0.08283317 0.29412082 0.91464263
해서 0.84751517 0.06823812 0.5383575 0.48271587 0.060397223 0.921804 0.29701552 0.26994362 0.7575828 0.9223242 0.7277154 0.5399506 0.7424496 0.56095016 0.0020539162 0.8359967
개 0.29009268 0.63034016 0.088055365 0.4497067 0.8271303 0.7623398 0.2594631 0.7936467 0.43587267 0.07605923 0.9725164 0.7713243 0.22692053 0.64394206 0.31317964 0.2849282
정도 0.056385666 0.49578702 0.35429704 0.6922886 0.069338225 0.8779813 0.7408267 0.7529828 0.23979934 0.68691224 1.0069687 0.54020077 0.54144645 0.55181795 0.056550115 0.9086958
남 0.5523027 0.015792185 0.05324433 0.5765974 0.21574095 0.80782735 0.72163045 0.48321533 0.57005906 1.0056921 0.9009864 0.9594379 0.15280035 0.8064559 0.9874729 0.40599564
마지막 0.14124966 0.52987665 0.10755836 0.23029411 0.7121563 0.102037035 0.079251856 0.5574193 0.2861187 0.5990337 0.4861088 0.52358896 0.7417518 0.30981112 0.72941977 0.61815226
끝 0.11880798 0.9398969 0.17042807 0.29171342 0.92033494 0.53292876 0.95544046 0.41877097 0.29974732 0.94447064 0.5003558 0.0322621 0.913624 0.41476405 0.36995956 0.30288216
액션 0.12120705 0.9133481 0.1982198 0.62054217 0.20194097 0.17352833 0.55029577 0.8258892 0.96122545 0.33893314 0.6485628 0.495982 0.14635377 0.6438389 0.391579 0.7167168
이건 0.14050399 0.5463158 0.8457274 0.12437935 0.8059017 0.05163917 -0.012219718 0.5697974 0.7519941 0.7041269 0.89196527 0.12951672 0.23153192 0.787916 0.3704399 0.87953925
임 0.47186807 0.10642618 0.5984399 0.28262082 0.20030737 0.22206552 0.6251245 0.6707171 0.62203985 0.9428219 0.78411824 0.6013749 0.0019667847 0.89699525 0.2491416 0.7755296
건 0.19077595 0.3519333 0.4021921 0.02764302 0.63863 0.68711895 0.84391046 0.82475084 0.115304284 0.6321075 0.7325804 0.12586221 0.3261393 0.672183 0.16672412 0.7971049
ㅋ 0.45275107 0.5471297 0.94547486 0.95425266 0.7916333 0.24516499 0.68044484 0.02664034 0.6807259 0.9080568 0.8534003 0.46942285 0.8508412 0.56615764 0.0643095 0.5942449
3 0.1711739 0.18729003 0.64277256 0.4671542 0.7753309 0.76318264 0.22688843 0.03952199 0.102677464 0.5331425 0.19696674 0.36042067 0.7926142 0.7951215 0.29713985 0.3687947
기대 0.34449634 0.6031212 0.41063035 0.11990531 0.7653024 0.7655346 0.59661895 0.99045473 0.3351751 0.50268596 0.87779695 0.7068498 0.75317854 0.855621 0.78342676 -0.0016626946
입니다 0.79195833 0.17756392 0.092552625 0.7116479 0.81234574 0.035096444 0.621475 0.34830898 0.99824005 0.8255493 0.97045565 0.92265904 0.8805943 0.13423803 0.74239886 0.69997895
라는 0.12512466 0.26166221 0.093126565 0.7473742 0.87331694 0.6205052 0.95882905 0.67178684 0.95809877 0.50574636 0.50299656 0.43998015 0.34626022 0.25499448 0.78353155 0.3920417
분 1.0060647 0.6113168 0.9340936 0.96641433 0.67216337 0.70979863 0.8474069 0.1979746 0.29538873 0.33568743 0.86547667 0.4143483 0.086375535 0.037602942 0.12115081 0.46813005
완전 0.68117356 0.8211168 0.8959752 0.2891252 0.41011706 0.41772097 0.7569727 0.7324158 0.138378 0.059434716 0.51620984 0.9144154 0.67150766 0.8044799 0.9693531 0.29167423
다는 0.52549267 0.39546588 0.33834827 0.30650565 0.8259703 0.57650226 0.295831 0.19738854 0.21408929 0.43734762 0.7874293 0.5708654 0.14877506 0.47055882 0.074627556 0.7385644
참 0.8965042 0.11866791 0.05704609 0.42872375 0.7277659 0.37240478 0.15850657 0.1475204 0.07371698 0.23887035 0.64496696 0.62231636 0.46717703 0.9538016 0.24700396 0.7697154
많 0.36618876 0.7984235 0.7026727 0.20296592 0.9154428 0.3481011 0.055089545 0.18265142 0.46339387 0.6190451 0.23289026 0.19480999 0.6211991 -0.005118355 0.50013435 0.07608264
처음 0.38228512 0.295881 0.46149245 -0.0016437855 0.43894482 0.9286679 0.23119406 0.1976402 0.45046863 0.3358545 0.022549164 0.6294821 0.28464967 0.60268307 0.9452395 0.93863213
장면 0.5718502 0.56053436 0.980236 0.30184737 0.82575786 0.72275084 0.9777446 0.537184 0.88703644 0.89196694 0.7601594 0.43630278 0.031831592 0.56763166 0.44990623 0.38090074
대 0.90040493 0.9228114 0.8119272 0.1330339 0.10992276 0.33040366 0.10185506 0.30103478 0.30428725 0.3385086 0.23726892 0.5063975 0.60146594 0.12620045 0.69003874 0.52858543
아깝 0.5997333 0.41714552 0.4415672 0.69451386 0.4179809 0.18715772 0.37042946 0.3918677 0.9389057 0.28776821 0.12702858 0.24481235 0.21068041 0.40321428 0.65243316 0.18372272
다가 0.96230817 0.22612521 0.49550334 0.4006688 0.78817785 0.42653668 0.3370821 0.20565677 0.94778126 0.19210424 0.6910769 0.60571426 0.7265285 0.29581404 0.94820815 0.4319947
으면 0.3624845 0.47185388 0.6138425 0.8812645 0.20203327 0.2796527 0.09328207 0.18505296 0.24536176 0.48683402 0.78510505 0.64035076 0.5368817 0.115126334 0.93416256 0.007952769
지금 0.41080055 0.8579031 0.012137607 0.49124068 0.74320436 0.8677499 0.5520056 0.8836196 0.07449401 0.39402482 0.11312945 0.5077604 0.56670874 0.5775536 0.08919602 0.062675126
모르 0.01913606 0.88529027 0.20392695 0.46802434 0.8790067 0.8519323 0.51801443 0.17722732 0.2527459 0.8183184 0.34315866 0.08939914 0.7992013 0.53661025 0.53170455 0.6727774
이렇게 0.16565993 0.7328636 0.94405544 0.47348118 0.268054 0.039490566 0.3461955 0.45980522 0.27067167 0.17355064 0.5652836 0.35568777 0.5002405 0.11451243 0.107865416 0.7391413
' 0.38269076 0.56059676 0.1366794 0.055191107 0.37422833 0.9823559 0.84877205 0.5729035 0.3502721 0.6955162 0.20617822 0.69709116 0.6348003 0.86188066 0.2307882 1.0314313
편 0.37494 0.5779906 0.7552094 0.6917311 0.86267936 0.41988772 0.9430483 0.7814991 0.052164245 0.14171481 0.8698211 0.405864 0.043868605 0.8863505 0.14368571 0.16442408
일 0.81115025 0.7383451 0.30033988 0.82807845 0.6702898 0.74397206 0.5170155 0.97080004 0.1554893 0.8390396 0.32543764 0.38096374 0.99381095 0.6527066 0.6343956 0.22291817
성 0.6643982 0.3628352 0.35023656 0.23829338 0.8759405 0.16295801 0.56538653 0.0118952915 0.15188275 0.08572102 0.0775291 0.54445326 0.7570234 -0.015403528 0.6902281 0.05043745
돈 0.27636606 0.7546525 0.5263173 0.39884108 0.7330565 0.10974974 0.7393917 0.7657986 0.4161113 0.7221937 0.8846567 0.1976877 0.019928938 0.49414274 0.7750343 0.36105746
이게 0.7483448 0.43276402 0.1871081 0.7895742 0.24104108 0.59565556 0.33002186 0.6468286 0.58573365 0.2893668 0.14988108 0.7371171 0.29359365 0.8765673 0.96713823 0.88304096
느낌 0.85540974 0.8914048 0.21728116 0.5482578 0.45573404 0.49627346 0.7922371 0.91657025 0.45164916 0.020466527 0.033518568 0.84771657 0.92566556 0.12437475 0.7831351 0.5742144
시 0.2199738 0.36052063 0.14606279 0.9206145 0.28691664 0.76394886 0.39485145 0.69224745 0.12877156 0.26053384 0.9862307 0.090410605 0.78022027 0.09891131 0.69166267 0.97265756
이야기 0.20270868 0.21934357 0.6550185 0.020099098 0.63147026 0.63489115 0.83949834 0.02781173 0.6744605 0.9312875 0.55434924 0.7386545 0.74282587 0.4674818 0.19491911 0.28806797
최악 0.6453502 0.034576606 0.5301699 0.6914935 0.8508236 0.79796934 0.9063515 0.608152 0.11058333 0.41856453 0.09027769 0.250953 0.6511493 0.92051005 0.44057187 0.2922894
된 0.19549519 0.6610105 0.96992886 0.6283592 0.7454386 0.6323736 0.64159846 0.1359403 0.69547737 0.23905672 0.46853596 0.83363026 0.71983373 0.42175576 0.677339 0.03529674
봐도 0.0844828 0.33184686 0.5322292 0.057398662 0.47474357 0.78622866 0.4710707 0.48068047 0.103103235 0.21584868 0.30872634 0.31711704 1.0224603 0.67426616 0.52676237 0.9296361
님 0.40183607 0.37974688 0.035650462 0.78849906 0.90980834 0.8198566 0.07167793 0.5148411 0.18773924 0.19916609 0.930054 0.38203996 0.31579912 0.7730636 0.26065817 0.7697698
어서 0.80535877 0.37951902 -0.012529053 0.5602453 0.47549033 0.35446575 0.07277926 0.6729237 0.14927903 0.5403431 0.05615922 0.38115996 0.31518582 0.54157895 0.0044662715 0.0494501
애 0.8095997 0.3230205 0.49680084 0.46502593 0.52764034 0.9963422 0.5698175 0.55298984 0.80604774 0.7926581 0.7776697 0.88312244 0.73788 0.8416968 0.0993015 0.26116896
전 0.38962752 0.7484227 0.20341732 0.2865398 0.012097889 0.22783808 0.32758126 0.6232118 0.9495837 0.15390089 0.08596191 0.4331707 -0.011391745 0.6774594 0.36587092 0.1282923
넘 -0.0006463884 0.8558777 0.21463354 0.91117007 0.3692244 0.41865522 0.3231093 0.02973734 0.96300215 0.7819328 0.9715765 0.7398634 0.060868267 0.9494076 0.003304437 0.27799767
ㅠㅠ 0.09486542 0.9184169 0.690808 0.7436749 0.25246206 0.30083537 0.34021577 0.7221503 0.122126706 0.9562895 0.50927347 0.44603005 0.58679825 0.7240027 0.3008791 0.86584574
다고 0.8395062 0.319937 0.6002559 0.45768267 0.8343729 0.9308472 0.098401114 0.9174812 0.44069853 0.7819626 0.3888867 0.4305501 0.117943324 0.7295083 0.27488726 0.8831347
인데 0.24491358 0.36945054 0.55759394 0.40414032 0.051249217 0.813029 0.57895935 0.15386966 0.09984816 0.05377022 0.914018 0.07793859 0.37168613 0.5069542 0.2012548 0.95901483
그리고 0.33889985 0.4818956 0.83532846 0.9510533 0.11804781 0.68789434 0.84331393 0.6649643 0.31592345 0.4635201 0.62495637 0.778994 0.47979334 0.14815544 0.41586745 0.3808351
명작 0.37624884 0.33135378 0.3494263 0.12654142 0.7975959 0.413614 0.01850169 0.8863974 0.9840469 0.393106 0.5247677 0.9719014 0.43457106 0.121008016 0.6663919 0.030576415
여자 0.626123 0.42321488 0.94646764 0.10772797 0.56900996 0.84223163 0.7943334 0.89796716 0.78202826 0.9883746 0.41942757 0.6705925 0.9711205 0.7065606 0.22958149 0.370705
이해 0.16050002 0.33387983 0.29547215 0.21565606 0.62469167 0.12292573 0.24491192 0.28617284 0.04949842 0.7419789 0.7450926 0.79747605 0.36449838 0.24746644 0.88030493 0.136434
^^ 0.13062118 0.05676409 0.67435193 0.36114168 0.23288943 0.6717028 0.7398166 0.81294906 0.49262968 0.99821776 0.609277 0.60906464 0.3540404 0.15905868 0.81513184 0.3863456
난 0.14250533 0.19183066 0.6636977 0.47755232 0.56486773 0.19978705 0.5720975 0.71925104 0.41445455 0.5951274 0.18962726 0.6466285 0.7254659 0.32585582 0.11773156 0.4196024
역시 0.1617504 0.7823136 0.45108762 0.14507511 0.54591066 0.7259861 0.067616485 0.5267 0.94956166 0.91336197 0.47385487 0.5267216 0.28151843 0.80759746 0.63392246 0.5264083
또 0.43161872 0.9438865 0.5384038 0.72042197 0.49293488 0.38808843 0.26024252 0.9595186 0.8892623 0.91119486 0.55127555 -0.007886925 0.31755733 0.5567993 0.47571388 0.96209866
걸 0.51594967 0.15106805 0.09098553 0.82127964 0.84124696 0.06618729 0.5657698 0.4983146 0.64471585 0.07145948 0.33532727 0.97036725 0.432513 0.49939835 0.80204785 0.77079535
한국 0.35017103 0.23990934 0.652662 0.0399234 0.4807672 0.21083882 0.21875349 0.27134514 0.38774973 0.30279422 0.39250195 0.27631575 0.59479636 0.4758316 0.20987569 0.39397824
이상 0.040550213 0.7835494 0.2818653 0.8222942 0.47788116 0.21439333 0.82280403 0.6275157 0.9163083 0.25795805 0.1780776 0.49257648 0.9398049 0.9475532 0.08331396 0.74213
부터 0.33843186 0.3280069 0.90506727 0.40933493 0.031629793 0.27799988 0.68780994 0.2925229 0.7138803 1.0018538 -0.0022376166 0.3461907 0.18164214 0.20609115 0.43918598 0.90886176
는지 0.57876784 0.40555766 0.2692556 0.93595606 0.50618774 0.041397203 0.4289418 0.7615829 0.44068006 0.26689383 0.3458822 0.48904714 0.22328717 0.7448041 0.8349488 0.27746555
많이 0.9888086 0.8418122 0.30568248 0.17337902 0.17737465 0.94044983 0.370318 0.7683443 0.61480963 0.9189513 0.047269125 0.304152 0.2598113 0.39173195 0.10800383 0.76896316
에게 0.6511039 0.3042836 0.31321797 0.32451597 0.2392485 0.25114423 0.09407789 0.10528836 0.5070173 0.47356018 0.4639471 0.4126464 0.07465662 0.52700615 0.59505713 0.17682219
주인공 0.45074427 0.8490725 0.58714855 0.8271568 0.37273046 0.74727106 0.3663199 0.61874044 0.72835803 0.39689237 0.38650745 0.08003098 0.76033723 -0.006809752 0.11929236 0.45696685
별로 0.7474276 0.5641913 0.27735764 0.1022744 0.49412638 0.88745034 0.88359994 0.4951748 0.51146406 0.7332646 0.4677219 0.90080225 0.55993116 0.58451575 0.697042 0.08712157
받 0.3504124 0.5898915 0.09964553 0.036521018 0.6915502 0.10720108 0.2921246 0.78253573 0.18750004 0.68548614 0.7894985 0.75500286 0.914441 0.72710717 0.44188058 0.76762766
합니다 0.99012494 0.460103 0.4706865 0.1400063 0.4381039 0.9388893 0.17825204 0.73048604 0.77547663 0.20468423 0.63474554 0.72175914 0.83210653 0.0066130497 0.16682658 0.035032224
두 0.56962603 0.58159876 0.4182155 0.39945808 0.91969603 0.46782905 0.9367822 0.46955633 0.733102 0.88046503 0.5303694 0.8767928 0.9681597 0.4993529 0.311776 0.57092404
우리 0.4220235 0.9898401 0.6977985 0.33566993 0.35966748 0.65210867 0.13939811 0.17118092 0.37467954 0.25013053 0.039368354 0.25621372 0.99571586 0.407757 0.27601978 0.029826485
만든 0.14808245 0.3312456 0.0791034 0.7155312 0.43950927 0.23778602 0.19019869 0.954596 0.26782513 0.67563975 0.074226916 0.63089603 0.34359428 0.42356536 0.1657994 0.3878286
살 0.9872829 0.8682263 0.02071849 0.22608274 0.6628679 0.72931504 0.64747435 0.48080546 0.27717263 0.25279003 0.80032593 0.86069787 0.55208385 0.41294184 0.25663304 0.49472257
!! 0.58213973 0.19790983 0.035829667 0.2078307 0.5600952 0.30084646 0.8114433 0.16415045 0.6751295 0.5327012 0.07917882 0.8968601 0.39674312 0.36938143 0.68351346 0.5691471
길 0.47384268 0.5165685 0.8927042 0.60597366 0.5362392 0.7725159 0.038118567 0.076232545 0.5795895 0.33167833 0.74878293 0.88063216 0.5022217 0.3461209 0.2813319 0.4992781
엔 0.82696986 0.68916816 0.37551975 0.3344519 0.2430258 0.38435382 0.88598233 0.44947997 0.24025944 0.8109012 0.086140566 0.6083596 0.42481133 0.6565215 0.10640482 0.051115986
괜찮 0.33417323 0.49749333 0.16951038 0.9550559 0.8049379 0.5740511 0.49456638 0.5440657 0.44593695 0.08859704 0.9414545 0.5181854 0.8648585 0.39263022 0.17872244 0.86463976
기억 0.77584803 0.19147404 0.029597932 0.91693115 0.88727343 0.06320309 0.6262475 0.24718887 0.26957485 0.74479127 0.07571044 0.19491224 0.9725194 0.45255712 0.093357444 0.4867108
연출 0.6191297 0.81402296 0.8810422 0.4556173 0.36732906 0.255063 0.8388508 0.27590632 0.15985009 0.7885077 0.35625133 0.7454982 0.49695814 0.10809362 0.011450104 0.38753885
한다 0.82106555 0.26176724 0.7460288 0.6722827 0.69581807 0.9687813 0.9256506 0.084077604 0.10096729 1.0045516 0.3727044 0.8293058 0.15845668 0.44569716 0.95965046 0.21452697
때문 0.8839152 0.8270871 0.55289304 0.3293684 0.5389752 0.42902097 0.8517849 0.64704615 0.0609914 0.7493708 0.21787576 0.16070355 0.82812375 0.64805394 0.06525542 0.21708184
ㅎㅎ 0.28772122 0.69890386 0.20111877 0.30897146 0.6109803 0.7499349 0.6541253 0.32615843 0.24958783 0.34783125 0.401572 0.11676613 0.011607991 0.48168454 0.9359676 0.23699677
이나 0.6487273 0.1427561 0.90066683 0.7099268 0.7851289 0.5186242 0.9369023 -0.0039543873 0.85283655 0.62541133 -0.00874914 0.7568797 0.5444116 0.6078719 0.39930588 0.91656905
요 0.9286353 0.08039582 0.8834843 0.60849804 0.082056664 0.13556188 0.15435831 0.9325501 0.7394262 0.39513868 0.19766024 0.89640784 0.6225355 0.57104 0.9559295 0.24505426
저 0.3862216 0.4411471 0.60153306 0.093816794 0.48550537 0.4010304 0.8941792 0.1625269 0.059406534 0.08196485 0.89611095 0.3612684 0.3934317 -0.012931043 0.62953633 -0.0018539295
재 0.15436392 0.8507853 0.4882464 0.6961126 0.21622555 0.70197123 0.9804383 0.67866874 0.7268122 0.73333585 0.35266292 0.47572324 0.77346224 0.15633816 0.5275873 0.7717055
꼭 0.89275324 0.51970106 0.98324984 0.98712724 0.5938051 0.83770645 0.25268984 0.5681195 0.13365176 0.3095376 0.7106544 0.41992307 0.8002448 0.9458267 0.7163214 0.19701876
며 0.06855069 0.48663473 0.73345476 0.9476628 0.75151694 0.7201675 0.6780314 0.12214641 0.74387455 0.16610463 0.19085597 0.77902627 0.8106522 0.34906107 1.0113423 0.72229594
현실 0.09425613 0.47831246 0.10011524 0.5575391 0.073809616 0.15835208 0.7134764 0.9424176 0.5228403 0.7808299 0.3509519 0.7283327 0.14275354 0.269462 0.2550027 0.66543984
랑 0.16562095 0.53177 0.7183388 0.5230821 0.74658346 0.95352215 0.55777466 1.0019168 0.83860993 0.21125561 0.37781504 0.3912682 0.7810365 0.69072205 0.021427715 0.38098902
긴 0.5928434 0.5246235 0.6662613 0.25239596 0.12706932 0.8637669 0.4313174 0.55668133 0.475173 0.8101375 0.051363032 0.35334635 0.30787998 0.6868286 0.71649796 0.7531268
ㅡㅡ 0.66024464 0.9576185 0.8159722 0.7741129 0.37410048 0.99208736 0.9780635 0.2673606 0.54118323 0.0707103 0.030454567 0.3533626 0.12715493 0.7382923 0.052128408 0.059465192
무슨 0.8658123 0.5828313 0.8697485 0.7580695 0.29645994 0.38951033 0.5765918 0.95102036 0.76789165 0.3572412 0.6813352 0.86393225 0.7608853 0.20652789 0.19227318 0.8207891
내내 0.050949086 0.7740317 0.45090747 0.91412586 0.20181651 0.2990486 0.27549255 0.69327635 0.37220314 0.63492167 0.98285246 0.7130126 0.5016773 0.19846722 0.06617906 0.5943369
결말 0.18525818 0.46085146 0.8050862 0.3531139 0.66645086 0.26466462 0.4193017 0.7773461 0.6322224 0.066345215 0.404849 0.1291927 1.0066643 0.59937596 0.8692727 0.3042255
죽 0.88443434 0.2392356 0.7702092 0.8790802 0.31819668 0.7058973 0.48141125 0.5947215 0.65572894 0.6242529 0.8758001 0.92940176 0.25490367 0.06750606 0.06789297 0.7251801
세요 0.20517161 0.16943833 0.89905995 0.08059267 0.7466422 0.6360816 0.5794602 0.9462689 0.9871815 0.9694411 0.029367898 0.13515998 0.15688784 0.90389854 0.028232586 0.80630356
남자 0.2539506 0.67308235 0.5809391 0.8148336 0.9017878 0.6170253 0.5423237 0.92108876 0.9247697 0.7528683 0.6791619 0.0035979073 0.9297653 0.15837517 0.5864962 0.822883
전개 0.07619077 0.97227365 0.019220974 1.0046223 0.9619333 0.686286 0.74016196 0.33543694 0.090286225 0.9695173 0.9632659 0.7750802 0.47623616 0.9073504 0.17779753 0.07423243
마음 0.46630993 0.027144745 0.55870795 0.6600909 0.8961206 0.7259013 0.725243 0.5450028 0.38933462 0.39289048 0.31771678 0.23238003 0.28301576 0.76207685 0.44909233 0.73381406
별 0.33683103 0.89337873 0.31749156 0.555758 0.53952825 0.8596406 0.3481025 0.18177533 0.13324775 0.05536852 0.11620036 0.707236 0.34979483 0.7741805 0.37182358 0.51009095
소재 0.6756403 0.17964998 0.5243349 -0.004178364 0.4514585 0.656569 0.1395815 0.61844015 0.8389682 0.9934802 0.531166 0.9149728 0.6348271 0.63261735 0.74291134 0.98937136
속 0.921389 0.5431584 0.8832221 0.011754817 0.48272857 1.034195 0.2634284 0.18371962 0.5298515 0.7477921 0.7094072 0.37405694 0.38676313 0.5954876 0.50961787 0.5202467
공포 0.3894312 0.61035603 0.14724335 0.68278813 0.5859971 0.32293412 0.23209065 0.36731228 0.40072438 0.84238046 0.50653255 0.9561169 0.19841939 0.1637359 0.4589362 0.9616541
다른 0.5999665 0.106089234 0.2945972 -0.0041369684 0.89606196 0.0799917 0.75823015 0.8271677 0.46631688 0.252377 0.9292346 0.27422836 0.9763759 0.49788803 0.17752853 0.5366711
아서 0.38057423 0.43761718 0.5229365 0.9105724 0.82692194 0.424546 0.13676012 0.22247183 0.49713486 0.9078994 0.5848908 0.08825705 0.6105372 0.6576883 0.21840316 0.92192864
씨 0.23582111 0.6930275 0.67353326 0.709821 0.20906347 0.18264388 0.0033145016 0.34391794 0.83111644 0.721867 0.76544034 0.7272993 0.6190951 0.7530594 0.51733017 0.8683988
인생 0.21711628 0.67081314 0.03964088 0.91331017 0.6749688 0.06843453 0.6105808 0.57430136 0.48745507 0.26296917 0.7262993 0.38952634 0.41541925 0.89241654 0.37096938 0.5706635
~~ 0.8958586 0.37982962 0.7110346 0.37888035 0.23260169 0.365168 0.4272058 0.50108886 0.08321764 0.09412386 0.5604278 0.3066642 0.4652103 0.5964566 0.17874824 0.8263868
짜증 0.8001715 0.90738523 0.6324807 0.9392973 0.88155806 0.66707855 0.9550565 0.14896367 0.041349437 0.20075007 0.42614782 0.56787 0.96626335 0.7090021 0.40945357 0.8228698
짱 0.6359496 0.42441016 0.4906121 0.8050068 0.37727147 0.36122814 0.6020414 0.9835004 0.6669628 0.4823815 0.5388783 0.70941925 0.4063242 0.04864004 -0.0028972963 0.5697409
뿐 0.16442661 0.10001978 0.58307076 0.67051214 0.00039365684 0.20215866 0.9445573 0.4920157 0.8392077 0.38986248 0.2924893 0.83695656 0.33616304 0.92849874 0.44952643 0.4802508
은데 0.05023872 0.22031274 0.35800534 0.7785686 0.97979623 0.40825698 0.77165097 0.39911312 0.38942805 0.085978 0.7054135 0.5572822 1.0001596 0.11022008 0.8819149 0.5990755
아요 0.46709377 0.052189864 0.5264225 0.21957484 0.1541159 0.8235144 0.1903625 0.60089624 0.7698243 0.8707053 0.6687366 0.55558556 0.1966951 0.73813546 0.7056747 0.61135775
유치 0.23248059 0.19586794 0.83306247 0.44063944 0.89323366 0.7900114 0.18644704 0.20507336 0.026760545 0.8062776 0.26209423 0.026868308 0.83665985 0.17990263 0.67532885 0.76352024
필요 0.62294847 0.7499878 0.55577916 0.95800614 0.103715576 0.9046986 0.28285515 0.90864027 0.6112203 0.6836249 0.6285004 0.42850024 0.7150646 0.12332238 0.9115669 0.32201883
가장 0.72438985 0.31713504 0.48388225 0.4279276 0.86898315 0.9859035 0.9613213 0.67483234 0.19248967 0.7680771 0.9599449 0.23021097 0.045422908 0.42371076 0.37875336 0.6049706
음악 1.0052526 0.2694169 0.18882123 0.5506506 0.52450377 0.24182568 0.44743133 0.35438004 0.26093736 0.18526304 0.15730092 0.55850345 0.97624636 0.4216448 0.26479107 0.2451801
) 0.9224773 0.9071257 0.42168844 0.3185366 0.8871429 0.54565924 0.10363366 0.85844606 0.9964419 0.04642794 0.5732297 0.111182064 0.8596133 0.9523156 0.8575104 0.56597334
일본 0.6655374 0.73053545 0.9568383 0.9359044 0.5149881 0.61957014 0.41197404 0.3316892 0.93827766 0.5600527 0.8617782 0.3500628 0.29093763 0.7001134 0.60032284 0.44452876
낮 0.7058565 0.45474884 -0.024998918 0.82524455 0.44350994 0.762619 0.7520567 0.20059389 0.19370866 0.7239634 0.6574778 0.14794943 0.80428195 0.9234757 0.32763845 0.5870157
오 0.093727574 0.12682109 0.7481611 0.1293091 0.4834271 0.6753216 0.52534324 0.3560889 0.8210811 0.6488365 0.8178725 0.9262704 0.082890995 0.44706136 0.34132475 0.20415083
;; 0.34541804 0.74397737 0.5022669 0.48942444 0.9650821 0.4673693 0.6075992 0.96960986 0.2076459 0.82351 0.41603947 0.18960305 0.86619884 0.40172395 0.02791975 0.85021746
아이 0.38784733 0.9653695 0.2994931 0.076193035 0.15438232 0.3638172 0.5820342 0.08419791 0.29504684 0.42547098 0.021401076 0.72075003 0.86050063 0.7917216 0.29890418 0.5521435
반전 0.07246088 0.64726835 0.3411802 0.9327252 0.088408016 0.57348543 0.12645443 0.28050554 0.5843145 0.17723991 0.49597278 0.37210855 0.7659727 0.71247286 0.34500653 0.37215242
데 0.9163066 0.29046735 0.5276435 0.45665336 0.5949074 0.23998185 0.83519304 0.14127806 0.08421646 0.60438627 0.94247 0.524658 0.8593581 0.45622462 0.57190174 -0.020621017
수준 0.5897584 0.4888766 0.9066065 0.7783785 0.89665043 0.16943099 0.66741544 0.14962707 0.93012345 0.011484209 0.012794947 0.0787941 0.6767028 0.9573707 0.6589214 0.71525896
다니 0.2885581 0.30934706 0.6096548 0.47231793 0.47854093 0.4071096 0.76229393 0.9742029 0.9059804 0.29089674 0.14109586 0.828289 0.55633044 0.30471253 0.24288917 0.8621255
웃 0.54734105 0.052138854 0.046908364 0.8038944 0.7880228 0.8763557 0.45730144 0.6017754 0.006215196 0.356424 0.17969868 0.112126544 0.9662391 0.37210232 0.24911879 0.25667965
매력 0.40511504 0.6984028 0.41905266 0.44379067 0.13668388 0.04791362 0.073484935 0.79814255 0.80230224 0.48200595 0.71397144 0.9795935 0.03252374 0.7160317 0.140622 0.49601012
맞 0.088946536 0.9512879 0.5698083 0.3042847 0.058815952 0.74366605 0.7332129 0.71327984 0.28509432 0.9497605 0.7404905 0.5362943 0.92006844 0.22792634 0.30266884 0.09585357
인지 0.8331454 0.7693264 0.27140856 0.2347175 0.31044868 0.73294467 0.026841374 0.49624527 0.17364185 0.52229244 0.70766574 0.09411894 0.41319433 0.46699208 0.94110435 0.1763769
가슴 0.08441146 0.50326544 0.3425398 0.68005246 0.6737135 0.76266974 0.19061294 0.20646046 0.47400665 0.08729992 0.7098209 0.37174743 0.80570775 0.79558957 1.0102878 0.5240685
없이 0.20213498 0.6577735 0.022859205 0.79836464 0.48741478 0.32525945 0.25817272 0.6043467 0.91380507 0.15441658 0.15106536 0.6926106 0.49264923 0.6407241 0.5547547 0.69711596
원작 0.37076426 0.031976644 0.9345802 0.5570341 0.21274678 0.8915315 0.6652854 0.099224545 0.6018301 0.6334759 0.6061567 0.31880805 0.3689063 0.12144986 0.18205401 0.63281256
ㄷ 0.29802114 0.7783248 0.9871856 0.20907031 0.19810757 0.7169171 0.5639139 0.9980951 0.33484665 0.8890092 0.78044325 0.21971686 0.11802984 0.20150891 0.96095544 0.36118802
인간 0.36778754 0.42993882 0.891236 0.108021416 0.5104587 0.8607132 0.6564225 0.8238454 0.81788605 0.37356356 0.5363208 0.04520899 0.7358659 0.9596961 0.61970586 0.35045755
굿 0.5837127 0.0457073 0.86563873 0.14821364 0.28967303 0.29344854 0.5001871 0.03615831 0.9628051 0.6201943 0.93136495 0.77742845 0.2548474 0.033616003 0.9843867 0.50145495
높 0.09114422 0.5182497 0.021485275 0.37834623 0.47859582 0.8460409 0.12190482 0.6293176 0.6455824 0.987802 0.9301392 0.21980895 0.3836884 0.15707059 0.9149789 0.2507256
ㅠ 0.3981982 0.9488801 0.06900842 0.097125754 0.6812282 0.62955475 0.22821675 0.012688138 0.5362501 0.70367926 0.5559239 0.78278893 0.5840224 0.46420595 0.5844517 0.9430466
밋 0.27996814 0.38574746 0.011966485 0.49404478 0.8517035 0.27752525 0.6671805 0.65829515 0.5911906 0.86074203 0.62173694 0.10466516 0.25243384 0.36944252 0.83453035 0.7008082
( 0.4625385 0.58626586 0.28929377 0.82955843 0.7435497 0.648163 0.5452201 0.07623477 0.84184736 0.9884773 0.6515023 0.074989885 0.3874925 0.5266125 0.20630166 0.05695669
급 0.14757128 0.5326351 0.9665612 0.56326586 0.31930032 0.7307942 0.13088319 0.74558383 0.17204706 -0.014347966 0.47295365 0.56952083 0.34112316 0.8682765 0.04383128 0.105078585
만드 0.036987454 0.97791946 0.59088016 0.43874606 0.6480963 0.7373366 0.10745142 0.31171155 0.28470564 0.50907123 0.048754096 0.18808654 0.54569626 0.27984193 0.5330572 0.53963274
눈물 0.9237433 0.5066352 0.30200982 0.0970816 0.46671778 0.038008295 0.5964049 0.20282044 0.45816448 0.8575518 0.51819295 0.8073205 0.62851954 0.42497805 0.9856746 0.04311677
보여 0.70107484 0.69166225 0.65758866 0.45824146 0.52895147 0.55698764 0.09830389 0.6884299 0.059114773 0.14038637 0.307594 0.9917558 0.52707267 0.4085811 0.2226674 0.2881634
준 0.15463255 0.10111361 0.23453091 0.20446035 0.27341568 0.9215965 0.5479783 0.28473112 0.11144812 0.5165081 0.62055486 0.9063334 0.7829897 0.006929794 0.266751 0.4758113
찍 0.5254173 0.94593406 0.6284178 0.9365059 0.77391815 0.98414546 0.99192995 0.6955357 0.49437255 0.8710609 0.10966593 0.15230902 0.8333867 0.50699127 0.25033432 0.50313556
인가 0.42483416 0.93149996 0.29765263 0.3216291 0.84762865 0.2797688 0.8281242 0.28101993 0.46098536 0.20860621 0.18950263 0.22940263 0.9907043 0.12089384 0.39553916 0.2501393
노 0.96465015 0.7809994 0.110280536 1.0058858 0.8695154 0.7546614 0.43991652 0.89767855 0.6706075 0.97891015 0.6048961 0.10349684 0.23779596 0.6666384 0.53292304 0.7865075
용 0.5257909 0.30133083 0.5507974 0.59360075 0.31252447 0.2745693 0.09735859 0.051352214 0.72578114 0.5204625 0.5738271 0.52428126 0.9204014 0.065932766 0.6851732 0.30810052
을까 0.50371706 0.08908896 0.7134447 0.069126114 0.075031705 0.08381638 0.5629666 0.85750234 0.14223781 0.54374826 0.4407507 0.7217185 0.4836562 0.036945738 0.9891078 0.23925643
화 0.64137477 0.9148019 0.61756164 0.10569878 0.6047226 0.47231817 0.5761317 0.87040913 0.63065666 0.2048785 0.7591151 0.22959407 0.111301355 0.063553326 0.16859525 0.7586654
코미디 0.8762797 0.9239496 0.39242145 0.05312857 0.78473043 0.68548787 0.09683348 0.029532414 0.12269293 0.09959398 0.55429816 0.12627922 0.060368784 0.32641187 0.30615076 0.6335908
여 0.45388836 0.5407195 0.18285465 0.14524335 0.25419864 0.8648368 0.5806937 0.47820446 0.49680635 0.38147885 0.50389355 0.7715135 0.39938694 0.9579847 0.24554385 0.8312461
마 0.8036522 0.024929605 0.7560354 0.42118725 0.0036573934 0.11711939 0.63295287 0.8731369 0.4807524 0.06555385 0.13350312 0.6237391 0.13783532 0.49142027 0.81887496 0.31855568
쓰 0.04335042 0.25142086 0.97690946 0.3729336 0.42133656 0.3652663 0.3129077 0.17423129 0.2655611 0.38279524 0.9852173 0.11901868 0.410809 0.7072361 0.75486505 0.43876037
모든 0.029618464 0.18539335 0.19525388 0.8476527 0.2225429 0.4721219 0.058896594 0.71689564 0.6348584 0.19082683 0.6935371 0.011357822 0.639595 0.9636254 0.15393232 1.0069633
신 0.543575 0.2931411 0.8391083 0.8061702 0.19833986 0.9062569 0.59436524 0.028900636 0.36932132 0.9773906 0.8691113 0.5507819 0.7621325 0.7211024 0.996139 0.7292714
5 0.28300333 0.513657 0.23921798 0.8849119 0.44655845 0.4388739 0.7582833 0.5759836 0.18450257 0.8732741 0.8885164 0.7032438 0.53315157 0.7495898 0.08762846 0.94831187
아직 0.068466105 0.9654505 0.5344021 0.37215757 0.56858164 0.87132233 0.9739117 0.011482153 0.47423264 0.44005617 0.70731944 0.6060186 0.6228843 0.96106815 0.8746748 0.39136297
처럼 0.41402316 0.74701124 0.88715595 0.67923117 0.2907664 0.49183938 0.20420998 0.29240608 0.7949641 0.15134601 0.3035253 0.8075815 0.41786435 0.34518692 0.9657615 0.20575562
눈 0.32651207 0.44124603 0.7319278 0.26315606 0.21872076 0.8865365 0.54201627 0.23253582 0.35068512 0.75357157 0.56846017 0.20973119 0.74123424 0.8286386 0.4676625 0.5274688
추천 0.57071453 0.27142316 0.52418727 0.32285997 0.92957634 0.24842776 0.30300066 0.8263237 0.55866146 0.59649885 0.03417697 0.14497256 0.58600116 0.8128264 0.1218511 0.13437003
아닌 0.8385352 0.763441 0.40395004 0.85274994 0.415571 0.54997045 0.60195595 0.014218935 0.72704524 0.14727056 0.107627906 0.69954145 0.096169025 0.28380373 0.108237326 0.8571788
울 0.581546 0.2810622 0.008354561 0.8423161 0.13315143 0.8474105 0.046175737 0.36215046 0.1341324 0.94381964 0.07360103 0.57768583 0.85451853 0.8239465 0.8357883 0.69437826
자체 0.5403861 0.54078 0.5734179 0.6261727 0.4598272 0.9922681 0.5916938 0.89392173 0.6198153 0.23749946 0.5091743 0.47322142 0.48881376 0.2816897 0.064093396 0.042495217
몰입 0.5080956 0.6349355 0.71845067 0.71224064 0.63334227 0.5232364 0.66076255 0.11198511 0.5993942 0.679734 0.5757481 0.5260735 0.32590863 0.07401237 0.3163685 0.6615842
4 0.8340468 0.9424979 -0.02875697 0.5741094 0.888442 0.44713986 0.5985035 0.8592448 0.32200587 0.61288327 0.39868572 0.83612645 0.25195804 0.7196762 0.90041053 -0.010845226
대박 0.84469676 0.5902359 0.3075485 0.8335348 0.15168126 0.40273303 0.078972064 0.013992463 0.4768136 0.7364443 0.16909115 0.07023189 0.33340934 0.6379914 0.64992803 0.42306778
몇 0.7617176 0.67024225 0.051187016 0.23067674 0.11615063 0.8456245 0.03685548 0.44194445 0.9716347 0.23600863 0.5970184 0.9041181 0.45206532 0.11406449 0.9917769 0.16814002
스럽 0.5713273 0.7493884 0.9129776 0.057638574 0.37902045 0.3726057 0.5858042 0.48590195 0.8878348 0.07546786 0.72251064 0.5140345 0.37938797 0.92178273 0.4487881 0.6098953
실망 0.5977214 0.6643783 0.30676872 0.42784357 0.84954154 0.2783132 0.39657417 0.99146825 0.593314 0.75204986 0.42935762 0.8828719 0.44241402 0.71210647 0.34372413 0.27730918
는다 0.96858585 0.30075407 0.93379474 0.5767508 0.9906297 0.61539614 0.24226663 0.27581668 0.34670338 0.5194517 0.7168638 0.55323964 0.91745126 0.009143269 0.6068845 0.3745056
대한 0.8947181 0.30387607 0.90726966 0.23096988 0.080085725 0.4335175 0.54721594 0.93682367 0.13457716 0.8167162 0.19669937 0.5584802 0.74842805 0.5738901 0.30862358 0.4280627
죠 0.47074664 0.9368408 0.9354388 0.6549432 0.26109812 0.24446717 0.2560394 0.57818633 0.07769395 0.19064559 0.29374745 0.32849613 0.85607815 0.74666977 0.87926716 0.16051431
란 0.11635702 0.42608526 0.76538444 0.08779691 0.52795506 0.72936827 0.06998378 0.64363563 0.78134716 0.43113318 0.5665465 0.948613 0.83943814 0.20524423 0.5538852 0.41897148
그런 0.5324362 0.3768323 0.041964144 0.26944855 1.011895 0.8392622 0.07674408 0.8024271 0.38724396 0.027166218 0.65326893 0.7192286 0.81584483 0.06326798 0.88878113 0.62964916
솔직히 0.9670286 0.9254878 0.25207704 0.41794628 0.81540793 1.0308471 0.5550385 0.71024543 0.433762 0.3634857 0.22798061 0.79645765 0.28507468 0.82471734 0.662293 0.8890353
캐릭터 0.57090795 0.08741578 0.32545012 0.37510994 0.42721835 0.14374313 0.9654937 0.9092338 0.22598468 0.08372624 0.75163144 0.8140134 0.6175241 7.211222e-05 0.8437842 0.98859316
ㅎ 0.3540507 0.3429849 0.701293 0.80910665 0.064868785 0.33769047 0.19771661 0.86046016 0.36324394 0.8119652 0.59929323 0.3067276 -0.030020248 -0.00580633 0.08645912 0.44041336
모두 0.30010852 0.6850029 0.971345 0.7279932 0.05933463 0.5573347 0.50205404 0.820432 0.7414251 0.44600484 0.6718649 0.8946616 0.21119991 0.69381964 0.70251894 0.110882595
아주 0.02180136 0.15364529 0.5885354 0.3896064 0.5365711 0.7936786 0.22498426 0.34063268 0.39658573 0.09241657 0.10987054 0.43283263 0.15701395 0.7503547 0.007350123 0.72888255
- 0.6673662 0.07979666 0.050535128 0.06849276 0.9797223 0.9850254 0.2871737 0.9171849 0.37934113 0.24825951 0.21263142 0.34861583 0.73143816 0.0877283 0.0029717162 0.8502342
가족 0.38235256 0.05791856 0.17512067 0.8911718 0.85614324 0.27617252 0.5755637 0.33923772 0.35824373 0.9831901 0.3128288 0.8205195 0.7358407 0.69939077 0.5318098 0.528938
여운 0.53053236 0.8573727 0.99658686 0.85115993 0.24499781 0.76737374 0.50628805 0.70525503 0.23652211 0.98077595 0.8325509 0.59192526 0.85088366 0.35457677 0.1299286 1.0204341
건지 0.531754 0.1939034 0.075300574 0.6039322 0.6376653 0.8311383 0.5068771 0.5488123 0.24694206 0.78121513 0.18438175 0.65580845 0.5053931 0.7295899 0.4567983 0.0634507
전혀 0.76921695 0.6331878 0.68777823 0.029877922 0.60118365 0.9442048 0.17476194 0.15780464 0.36702612 0.88265187 0.6685499 0.71236175 0.76826876 0.46408015 0.3456425 0.9091549
나라 0.39081743 0.5013712 0.7777842 0.025381384 0.9118301 0.8923663 0.24426275 0.34709918 0.5069137 0.4651587 0.24433559 0.5287301 0.40753767 0.8083571 0.6734728 0.14559105
연기력 -0.011063659 0.29089198 0.6012228 0.92883134 0.41514835 0.5941757 0.23098783 0.20118986 0.8521523 0.11865306 0.38594392 0.38811222 0.46531716 0.9685877 0.0949155 -0.010530967
후 0.6323891 0.7683876 0.60042036 0.83911216 0.050747506 0.42722324 -0.0072300024 0.5175992 0.45407772 0.8235427 0.355203 0.7465381 0.38856393 0.2816294 0.45241618 0.5471182
다면 0.60741925 0.1917296 0.9562169 0.86214757 0.8208812 0.5889245 0.72989905 0.9022745 0.09336703 0.14721759 0.9551279 0.19888003 0.42849347 0.42533615 0.14197354 0.016931627
될 0.9423934 0.8062416 0.030533934 0.36844686 0.5054698 0.002813405 0.87597054 0.5727874 0.8867605 0.5275995 0.025306843 0.73643214 0.26854697 0.36348236 0.6896482 0.7503736
뭔가 0.9616942 0.30071944 0.396151 0.9482534 0.5675883 0.5772518 0.61002827 0.29266202 0.8150737 0.5237603 0.98353726 0.8877406 0.90878755 0.8954665 0.9650338 0.44318265
그래도 0.034896836 0.35490096 0.1987583 0.063550726 0.3451754 0.57872885 0.10138909 0.85509014 0.6341693 0.133252 0.7890147 0.041209128 0.50678796 0.91858745 0.60861534 0.98748684
; 0.040947426 0.623409 0.98455215 0.5995911 0.617314 0.4735185 0.05075983 0.13420282 0.36306283 0.23361194 0.0840507 0.09128868 0.105589785 0.86308044 0.82123667 0.8225147
시리즈 0.75672007 0.120220646 0.3806506 0.61927575 0.0005507078 0.9864098 0.66969234 0.9365761 0.62855595 0.23274 0.19137368 0.45980495 0.26984882 0.035179183 0.16624002 0.8394898
근데 0.09807437 1.0043905 0.97326946 0.66169536 0.6147644 0.9017687 0.74423456 0.7419731 0.66854924 0.31798604 0.7827006 0.83568347 0.7620336 0.24889186 0.20983468 0.21896179
작 0.65237904 0.68997884 0.39388302 0.73095024 0.623864 0.19323303 0.05914869 0.5307303 0.7745637 0.18454082 0.6106181 0.9128219 0.28045586 0.05925711 0.013609709 0.5660107
표현 0.88441455 0.8909229 0.28942817 0.9906494 0.3077701 0.57585967 0.81589264 0.0823623 -0.00078134664 0.08543934 0.45652184 0.6580575 0.18009584 0.37015438 0.27172405 0.2788674
모습 0.51817924 0.25764742 0.16150758 0.11420426 0.079632275 0.1458479 0.035242848 0.30872917 0.4425025 0.13667707 0.3877098 0.46924797 0.3616063 0.18194188 0.7827595 0.15140375
제 0.6705154 0.5425204 0.7643314 0.9121308 0.65933555 0.64032376 0.0045545916 0.4769223 0.4918196 0.5796647 0.7578766 0.04899426 0.729056 0.8900736 0.67192924 0.38722384
공감 0.8192191 0.17213552 0.77882814 0.00058080576 0.7353776 0.9965958 0.5065206 0.8226199 0.71491843 0.058954276 0.2003856 0.49703994 0.18841173 0.4784398 0.8725382 0.51724887
밖에 0.6608379 0.5392093 0.015143775 0.94770753 0.4919126 0.4743636 0.7038856 0.5951518 0.41909003 0.5604783 0.927807 0.9629865 0.34874314 0.14350641 0.3231374 0.41047785
먹 0.6044607 0.71632195 0.39355332 0.21782728 0.73423004 0.69523317 0.60643595 0.69896275 0.24110247 0.5408471 0.866206 0.82258326 0.6217994 0.33684486 0.048974507 0.10315529
계속 0.4865267 0.101054214 0.16750258 0.49867558 0.9880146 0.8462276 0.90625095 0.07690707 0.046049997 0.8476879 0.93167526 0.84871364 0.46689075 0.70452815 0.96435875 0.81134284
이랑 0.7760971 0.48583835 0.36860037 0.08893933 0.86987627 0.7407751 0.6301509 0.2746901 0.8002608 0.5323032 0.06382169 0.84200984 0.6274981 0.87993526 0.7784123 0.20739818
제목 0.5286862 0.024066072 0.98712 0.85435694 0.4883529 0.24567123 0.91053915 0.525698 0.4313147 0.060691644 0.71764493 0.81691754 0.0048196013 0.1544087 0.16286854 0.2328681
"" 0.72253895 0.5435398 0.15092127 0.31124675 0.84722 0.76727676 0.7549751 0.97666407 0.28846222 0.9748268 0.3053232 0.93890625 0.83157504 0.7817261 0.50659794 0.2318214
7 0.9924616 0.6637619 0.3902696 0.46426985 0.65709364 0.4156091 0.73326874 0.9877912 0.31814775 0.93356943 0.3926112 0.15469874 0.45592338 1.0141091 0.62995034 0.4127799
극장 0.16255517 0.3445026 0.62221235 0.91286945 0.4581102 0.11711003 0.07167695 0.44424418 0.2612801 0.61479837 0.8702492 0.37073705 0.643367 0.42352682 0.7296745 0.56493974
비 0.9557384 0.70478374 0.3611323 0.91698277 0.49487457 0.74971175 0.9600652 0.075870395 0.5567865 0.90077204 0.27433252 0.10618749 0.94072545 0.89886796 0.3916952 0.36989018
진 0.086463094 0.87780863 1.0078397 0.23452364 0.75304633 0.5439416 0.081843026 0.9527871 0.50716114 0.75042754 0.035430793 0.876566 0.37498912 0.1259688 0.30568925 0.7815273
이걸 0.49962038 0.8296669 0.94472164 0.6282307 0.8573449 0.28447172 0.5122414 0.5772007 0.71943253 0.7359437 0.19050609 0.9920344 0.502233 0.31728902 0.6946494 0.44494852
바 0.026864938 0.21223055 0.05450926 0.2877949 0.32342649 0.18291487 0.26984933 0.1333648 0.456082 0.203462 0.7851088 -0.005824605 0.4554711 0.54355997 0.1590342 0.98110837
그렇 0.27500388 0.0031852156 0.5304697 0.55663127 0.4419075 0.05721087 0.46411377 0.095962234 0.83149505 0.14031738 0.81501704 0.99034965 0.69777024 0.79944605 0.5799711 0.9567345
대사 0.22348307 0.16395596 0.38066664 0.74167097 0.41906834 0.5302443 0.8636301 0.41078463 0.06388436 0.72029585 0.63242537 0.25252932 0.96561474 0.019133002 0.18225247 0.77144307
개봉 0.401874 0.60278773 0.95088935 0.6385722 0.92389065 0.38475987 0.1063976 0.79693073 0.19035313 0.28673738 0.02520592 0.24820997 0.6065125 0.781088 0.009266824 0.5449264
부분 0.08223023 0.5169192 0.20203093 0.30658457 0.2416142 0.89024043 0.13405065 0.050313395 0.008270396 0.16333961 0.25823343 0.47657782 0.66496146 0.40297484 0.7097127 0.398169
0 0.95532805 0.27803597 0.7783834 0.43774927 0.19598772 0.9093533 0.7105022 0.4748167 0.9700105 0.30054855 0.95285445 0.29481924 0.76957744 0.911757 0.73572314 0.5715352
OO 0.78242075 0.9970862 0.48715746 0.083583154 0.13920581 0.54462177 0.92247784 0.5586195 0.35233694 0.71664166 0.51351583 0.7532436 0.8455361 0.043545417 0.2174911 0.9992762
대단 0.50918233 0.80379254 0.21628478 0.1338763 0.34502497 0.7523043 0.3505861 0.7087854 0.38708633 0.99498504 0.824226 0.7640143 0.59482276 0.32290247 0.77644116 0.03653939
된다 0.14021422 0.9940539 0.5611911 0.078154474 0.5211065 0.9215487 0.8419141 0.3078117 0.75780785 0.5162819 0.7274201 0.6919168 0.40000734 0.4104342 0.6190017 0.69038236
작가 0.74146354 0.9844199 0.074312 0.7951435 0.7433603 0.4066759 0.2627392 0.5422241 0.3177992 0.4176866 0.09203134 0.1620438 0.07085628 0.5306858 0.2893139 0.27997005
어디 0.79683554 0.45949975 0.9194163 0.009185238 0.28608966 0.3677889 0.51962805 0.083321676 0.2668561 0.4990418 0.45031178 0.2514421 0.9098493 0.13063914 0.3411122 0.49346027
기분 0.5504891 0.08370279 0.32410076 0.36710972 0.62255365 0.44765937 0.33020395 0.015729606 0.31996772 0.89131916 0.78656816 0.940859 0.59124744 0.674768 0.19615236 0.5080165
아쉽 0.7384548 0.46513754 0.21570529 0.57796305 0.9258679 0.61884195 0.3138286 0.106407575 0.71909076 0.16511486 0.19435282 0.043076966 0.2933307 0.85543025 0.15867531 0.7519665
치 0.7113566 0.12712117 0.08505249 0.04058402 0.8658524 0.787809 0.5577938 0.95978355 0.62426513 0.991002 0.8590215 0.6095882 0.8974828 0.3618268 1.0085695 0.8364296
진심 0.24585159 0.904173 0.039813682 0.013687701 0.9615683 0.27843288 0.5961299 0.21557532 0.5892266 0.5495213 0.3629358 0.20852144 0.13434179 0.36973092 0.4194864 0.28981262
해도 0.47775248 0.5450256 0.3003736 0.809035 0.20992933 0.33118245 0.9269853 0.45346785 0.8428719 0.3001875 0.6088678 0.5867812 0.7413649 0.47689936 0.666517 0.001295088
보이 0.91864914 0.5910626 0.4292279 0.2896189 0.5966211 0.8124987 0.37364843 0.31192634 0.21327554 0.4927316 0.27728006 0.21140572 0.97452986 0.4802743 0.13271615 0.29425457
타임 0.06729343 0.47118834 0.95261705 0.2479633 0.93354875 0.24634902 0.78770983 0.21630499 0.8861625 0.4653609 0.0889012 0.81868297 0.2684638 0.5869343 0.43335292 0.9557024
놓 0.6023922 0.38064742 0.83721805 0.14912365 0.25640652 0.7000092 0.3231071 0.5851638 0.9406253 0.1099692 0.049355928 0.12603764 0.41084266 0.066639416 0.24365526 0.09027496
/ 0.3380359 0.18340972 0.9829536 0.8828138 0.68527246 0.67628664 0.85461634 0.14465617 0.36409456 0.14872885 0.11717045 0.76136565 0.42396012 0.2608914 0.5542191 0.8066919
웃기 0.95396185 0.90610474 0.37770805 0.84155005 0.9507566 0.10411537 0.48452693 0.13273153 0.8903357 0.0073610283 0.13348873 0.8920305 0.22968869 0.4562059 0.08234444 0.28488734
봐야 0.009207522 0.83566624 0.33845344 0.9796475 -0.0048524872 0.8526398 0.02724914 0.737699 0.31655964 0.8584882 0.53156763 0.09996639 0.46882153 0.02742953 0.36024293 0.7455833
이제 0.08765829 0.10341637 0.25667372 0.47149637 0.6028387 0.4173718 1.0050054 0.47950247 0.41899145 0.6623884 0.61071336 0.3312353 0.9469847 0.16224824 0.9213654 0.31010154
물 0.09815256 0.07418896 0.21807155 0.12997326 0.31217492 0.33727875 0.33213377 0.9494529 0.03387736 0.32580796 0.8572144 0.57217425 0.6124938 0.9109747 0.7097236 0.7525427
막장 0.5157546 0.56302464 0.85928327 0.9834896 0.54604226 0.82970285 0.52577835 0.63041276 0.13909288 0.1513278 0.8942609 0.89430493 0.06414023 0.41182533 0.46217608 0.12409452
삶 0.12958096 0.71477437 0.8877465 0.2605582 0.9403274 0.13103026 0.9553643 0.4026634 0.9836788 0.5958149 0.17367628 0.7000848 0.23756471 0.98118955 0.2569126 0.27686268
친구 0.21268024 0.109492496 0.5152708 0.08688898 0.13094658 0.02650123 0.8781864 0.3677367 0.11078558 0.11026975 0.8303147 0.47173017 0.101418614 0.9697288 0.17505664 0.6313985
잔잔 0.9472356 0.86820054 0.8689376 0.2350144 0.9596029 0.58420116 0.8081262 1.009337 0.05169675 0.5267557 0.81916004 0.9371156 0.098287046 0.267527 0.6124119 0.15533197
조금 0.2776024 0.5820533 0.1929404 0.10078763 0.21036029 0.3567346 0.5884883 0.1533992 0.33852524 0.3313083 0.25174287 0.27556756 0.23283958 0.1930101 0.8052316 0.79314446
씬 0.670077 0.19758713 0.29435328 0.49933305 0.20321357 0.1911734 0.71391654 0.14962089 0.5748747 0.04493151 0.66638947 0.10986537 0.87429124 0.33360857 0.2537905 0.6169502
딱 0.53539795 0.776719 0.1310155 0.96421635 0.9817598 0.2658296 0.89374393 0.8419386 0.4234916 0.8396284 0.072690405 0.7911861 0.6464228 0.51861745 0.3145952 0.7743953
영상 0.5209349 0.86262506 0.19950981 0.07177692 0.35802552 0.9206274 0.24856788 0.9650784 0.45325682 0.1648687 0.38344577 0.45563444 0.43754822 0.38207066 0.26813462 0.12529585
찾 0.8802608 0.9793509 0.91943514 0.453086 0.9885404 0.07163581 0.14839011 0.15888263 0.062435877 0.7897472 0.72218525 0.5972302 0.43150932 0.5757625 0.23803848 0.33615524
억지 0.38541928 0.7756964 0.2606417 0.22700912 0.9286687 0.34081936 0.5083492 0.21661566 0.013416651 0.4317875 0.7549993 0.86655086 0.09414252 0.60451883 0.6459204 0.123625174
중간 0.37293285 0.3299551 0.5198793 0.45156425 0.33306688 0.05526221 0.5102952 0.47052288 0.59491414 0.45305142 0.8749637 0.35479298 0.20467821 0.745268 0.01756164 0.4800398
요즘 0.04208507 0.84550333 0.8721831 0.23780532 0.17125954 0.059484992 0.40150264 0.5152131 0.48884806 0.1584144 0.5722165 0.40350688 0.5351357 0.30071992 0.37715328 0.70107037
같이 0.093481086 0.025154501 0.8488227 0.818594 0.8315334 0.004591102 0.79680085 0.07506892 0.58467484 0.12764984 0.50914663 0.3630975 0.5120573 0.96925676 0.06617822 0.42365777
구 0.8162718 0.77087224 0.60469294 0.78736234 0.09755553 0.25391918 0.43645307 0.2408731 0.1250965 0.46281856 0.5985216 0.33110893 0.4438484 0.089161165 0.25156778 0.75485927
" 0.52133477 0.76284856 0.20995861 0.96267426 0.33916852 0.52061325 0.27530414 0.539844 0.8802519 0.14055818 0.98868084 0.96965766 0.06448136 0.45704898 0.042345274 0.31542695
가지 0.98079455 0.24663055 0.9708037 0.6793791 0.028927894 0.31899014 0.69036555 0.48828855 0.6995862 0.5339942 0.6750986 0.58836424 0.21289723 0.4545508 0.7218545 0.49938878
스릴러 0.29286858 0.4617954 0.1454571 0.4296772 1.0261357 0.7039621 0.14679772 0.3991545 0.77997816 0.041035414 0.70332736 0.19917074 0.1013122 0.74506605 0.9140753 0.74797225
8 1.003499 0.70676565 0.29631382 0.5668252 0.12926605 0.89261526 0.9544663 0.98300356 0.23731677 0.7571781 0.80195814 0.6217336 0.2790465 0.111920156 0.34417936 0.25249895
믿 0.48584595 0.72832215 0.6578599 0.27862313 0.57739425 0.4327565 0.7864717 0.031519987 0.8522504 0.8136218 0.22682792 0.5101768 0.029165234 0.53089005 0.22218378 0.10249468
싫 0.76312256 0.7515468 0.099138826 0.45514935 0.5650487 0.909859 0.5308047 0.53871715 0.7885301 0.7776501 0.6714286 0.030773064 0.8810005 0.16914769 0.8192781 0.121259116
.... 0.009510345 0.8124356 0.19383684 0.6911647 0.83823705 0.32967326 0.22042342 0.048856042 0.03490215 0.06899126 0.59576494 0.045664247 0.2614536 0.093798846 0.4622352 0.6953511
보고 0.2692135 0.094532825 0.85765964 0.9957216 0.32889807 0.4902546 0.23532306 0.9586171 0.5059288 0.7108768 0.5630913 0.49312973 0.42262426 0.017333742 0.6114815 0.51092094
라도 0.22571167 0.023907721 0.9093178 0.37026063 0.055803265 0.3062577 0.012565261 0.77404225 0.82380015 0.39383304 0.20955883 0.95027196 0.05871749 0.7755141 0.8460544 0.3353337
나왔 0.7485701 0.592802 0.49361873 0.88446975 0.4335127 0.7491892 0.65795016 0.7332244 0.7187195 0.57440794 0.38788196 0.0041319835 0.5262629 0.90136564 0.5147723 0.15428127
아까운 0.8760772 0.042406384 0.34080562 0.8577267 -0.00638616 0.648794 0.57181555 0.9491389 0.6313277 0.8776205 0.0594892 0.6100584 0.33531505 0.18900731 0.21434896 0.8024944
긴장감 0.92320764 0.24553865 0.8707458 0.44395092 0.4237488 0.2789437 0.85574687 0.17341337 0.35636878 0.32729867 0.68557185 0.42623967 0.51488876 0.5999682 0.74596256 0.45719245
점수 0.5667713 0.12553081 0.6694093 0.567773 0.9933921 0.14118712 0.056853496 0.6100478 0.6852596 0.75139433 0.84679234 0.40686625 0.8392301 0.83282506 0.10561375 0.4884953
개인 0.9934269 0.5690764 0.70359814 0.5426977 0.68327814 0.8005542 0.31215072 0.03539417 0.40970433 0.058787223 0.0018220602 0.75307 0.5007794 0.78420335 0.3478726 0.4780874
제대로 0.1716981 0.6755473 0.606801 0.8822387 0.4810499 0.9224508 0.23484537 0.58575785 0.6506333 0.9605901 0.029183919 0.9650398 0.07918292 0.31030884 0.19041069 0.4663109
부족 0.53063226 0.0042200545 0.72067755 0.8861849 0.57057685 0.58649194 0.15383293 0.11029802 0.8503755 0.23285155 0.7000884 0.3018391 0.7391012 0.53054863 0.96326244 0.9396642
이유 0.06871738 0.7257875 0.19375248 0.19073132 0.5271211 0.9520814 0.13777263 0.37582037 0.52528393 0.36167794 0.6388053 0.47118196 0.20247895 0.9954661 0.052484643 0.33595023
노래 0.4436367 -0.0024109446 0.81231976 0.7023157 0.54234457 0.87969744 0.5046269 0.4794304 0.033066124 0.9177648 0.7056068 0.90395975 0.34688386 0.1847266 0.5000998 0.48088706
만큼 0.21486875 0.1819904 0.71611357 0.34949392 0.14372915 0.5416744 0.797743 0.52250355 0.62819874 0.041773148 0.32068184 0.022033952 0.28543034 0.7990552 0.3474596 0.0093396995
라면 0.26298964 0.36616528 0.9098676 0.15114243 0.0859328 0.15617177 0.06887649 0.5732611 0.6673019 0.69025564 0.8673138 0.77065426 0.96093553 0.71000206 0.0075569586 0.16228765
시작 0.5501997 0.49576795 0.7326965 0.21926926 0.7346825 0.6459904 0.391245 0.98182476 0.0119419955 0.35419828 0.7513282 0.08458603 0.5821268 0.33235386 0.08386184 0.8884429
잇 0.5025377 0.0383704 0.9901542 0.75025666 0.3941999 0.957323 0.42902157 0.08059837 0.92883366 0.8806671 0.7941792 0.19699678 0.34037942 0.0070993835 0.8943653 0.7186514
구나 0.5052542 0.42059794 0.12765235 0.7587426 0.25460666 0.42576376 0.32760295 0.87308365 0.52354765 0.79218066 0.4379374 0.23917553 0.65567 0.30863258 0.5147925 0.13961378
특히 0.3610054 0.14118694 0.087739564 0.1337841 0.6291596 0.45494848 0.64526296 0.030426279 0.650985 0.34239313 0.48421726 0.6198451 0.859939 0.47184423 0.9797804 0.27640024
한테 0.591041 0.95147127 0.20506972 0.14822067 0.86881244 0.8257531 0.24521597 0.78691465 0.5682749 0.45000783 0.006621264 0.081739575 0.49494335 0.8940387 0.3072664 0.90544266
날 0.21640204 -0.0006237567 0.11383047 0.96175086 0.60182154 0.36606437 0.061502628 0.27511036 0.22367468 0.8601506 0.49433473 0.66838586 0.17763285 0.14954785 0.8923402 0.30357924
려고 0.51827633 0.9892172 0.3347227 0.9653354 0.8605093 0.061076373 1.000524 0.9140864 0.16427197 0.26325607 0.26503822 0.09919928 0.6617966 0.5712543 0.31874502 0.43408784
제일 0.62735295 0.16273497 0.2534387 0.898107 0.5618813 0.90939176 0.88932 0.28904727 0.79145306 0.49609414 0.6819088 0.014760353 0.31983 0.39188516 0.6175025 0.9052779
아름다운 0.115890026 0.87803733 0.65973806 0.39156687 0.36546102 0.16854735 0.43177673 0.84290624 0.59698015 0.22168031 0.3702642 0.80945873 0.68251467 0.881703 0.3739132 0.89517015
시대 0.7740683 0.8030222 0.8479001 0.75714993 0.7435832 0.17358518 0.10893342 0.42314875 0.61190623 0.9135146 0.29887012 0.28795603 0.19275539 0.44158575 0.23177919 0.3515063
ㅜㅜ 0.70482314 0.610947 0.13535613 0.8358165 0.053860173 0.81425387 0.7437662 0.8875061 0.25602192 0.6386785 0.45244905 0.7503864 0.45703208 0.4887432 0.97485125 0.7701918
어떻게 0.44142634 0.7287146 0.47802132 0.8619327 -0.0017192813 0.82007945 0.6895978 0.40899506 0.90745807 0.72199726 0.94166046 0.49621898 0.42659295 0.69937813 0.13069652 0.17241214
명 0.96621597 0.006544371 1.0061116 0.47007808 0.48666495 0.97624445 0.5368693 0.739217 0.0478725 0.612504 0.44245744 0.6295942 0.13180394 0.6433645 0.8773116 0.6967567
당시 0.64518183 0.60334986 0.3002455 0.92694813 0.64226896 0.94917667 0.95456946 0.6946513 0.09050254 -0.021082273 0.80936027 0.15859737 0.0031895882 0.6943339 0.32109475 0.21038868
엔딩 0.722065 0.5569081 0.845772 0.64322287 0.69943917 0.21958584 0.12681396 0.7182938 0.8565292 0.11582735 0.9617607 0.96453995 0.13630582 0.059750732 0.0959583 0.36880893
나름 0.89498 0.5250868 0.89624435 0.7114596 0.23531201 0.3970076 0.4328391 0.4836236 0.47762647 0.37259218 0.7714607 0.4313111 0.5873172 0.090644516 0.7806765 0.57804227
무섭 0.7771499 0.4122311 0.8288812 0.86185867 0.60279155 0.00435109 0.21738242 0.97501427 0.41808784 0.20126009 0.038573503 0.55525583 0.23651642 0.16136602 0.7392447 0.42365482
나온 0.4342609 0.6212498 0.15772481 0.68653536 0.22466695 0.6372942 0.51383936 0.7726782 0.9549852 0.8012835 0.7877185 0.008749899 0.79654336 0.84378767 0.11056029 0.9272918
사 0.33666113 0.42227966 0.5777884 0.63468987 0.2154833 0.5134715 0.13122192 0.3852618 0.5955474 0.12613931 0.83546466 0.29249185 0.690678 0.31123704 0.7710745 0.22522214
오랜만 0.5089985 0.286746 0.42082715 0.46875787 0.15932329 0.3181544 1.0111299 0.21182747 0.25829923 0.11493923 0.91022253 0.7243048 0.53256 0.9803768 0.83142006 0.06910702
니까 0.09599055 0.4591426 0.12039669 0.48069713 0.27680394 0.04017862 0.7235838 0.71956974 0.8960991 0.6465725 0.27959013 0.89079225 0.2893105 0.9516532 0.7097452 -0.009280587
해요 0.3448076 0.45968318 0.7713042 0.62783533 0.057974055 0.83611596 0.6885884 0.60227525 0.44369334 0.96517164 0.24265856 0.47342756 0.4149706 0.20944263 0.96676695 0.08015888
9 0.1407032 0.5923223 0.66271806 0.4686827 0.34044316 0.07395164 0.38159013 0.8615905 0.045348067 0.30032936 0.88264865 0.3649069 0.40017408 0.9534082 0.038717303 0.6316054
이것 0.8676851 0.6684053 0.9899564 0.3821622 0.11475181 0.99692124 0.7449666 0.2788818 0.92585665 0.77918035 0.84324527 0.26318076 0.04074777 0.4631541 0.14264521 0.8993993
팬 0.5944645 0.5384524 0.46140617 0.89794236 0.23243192 0.7422216 0.63081473 0.7607959 0.18333335 0.80824536 0.7903676 0.04757142 0.1589156 0.35754487 0.6789952 0.85507107
차라리 0.31747967 0.5234458 0.8933754 0.9642432 0.83638436 0.21571164 0.47882864 0.6628182 0.34106037 0.9246759 0.28575978 0.58725905 0.63400114 0.142741 0.4533773 0.3699893
봐 0.19583085 0.075358406 0.16328523 0.6730338 0.132846 0.66556185 0.009774528 0.50865865 0.14924729 0.043468766 0.0549965 0.17072792 0.28889623 0.7672082 0.4726265 0.9397842
절대 0.35723418 0.93271476 0.24665576 0.6100921 0.6895217 0.11741988 0.11580566 0.0067422423 0.036022905 0.8898668 0.64397573 0.88779914 0.46012303 0.8514848 0.81758577 -0.021383286
세상 0.8358269 0.18151194 0.43487602 0.39307874 0.2777154 0.13935865 0.86420614 0.92090535 0.9048395 0.08658526 0.7001871 0.102158934 0.4586322 0.58891076 0.78552824 0.0328988
세 0.8242402 0.562266 0.4092665 0.305493 0.5278231 0.54898477 0.76474047 0.7393571 0.74406296 0.8754234 0.53111964 0.21093333 0.44735196 0.9303194 0.9504035 0.81749713
못하 0.28332487 0.8693467 0.37243626 0.4921393 0.33984137 0.45245034 0.92970663 0.7631923 0.050347615 0.8525589 0.3959761 0.58931684 0.64509195 0.75751024 0.3810994 0.30548882
하지만 0.38755128 0.53136855 0.10417417 0.06527904 -0.004443537 0.08088421 0.82867545 0.64258134 0.117761515 0.79949635 0.63722646 0.08039021 0.31167167 0.8803924 0.38387853 0.9169475
던데 0.52729374 0.13195135 0.06104833 0.12327821 0.50623447 0.5007851 0.20346832 0.26372898 0.48416895 0.24974631 0.9064442 0.017315723 0.44714466 0.51194376 -0.008723526 0.061399024
욕 0.10967018 0.9139555 0.12050953 0.29597303 0.54992217 0.43898812 0.49286148 0.73021966 0.8697776 0.9222093 0.5609978 0.37054315 0.9068892 0.34573635 0.4117373 0.11849908
봄 0.5104788 0.88537925 0.4880375 0.13006388 0.28678936 0.98749924 0.11570167 0.30988464 0.5433064 0.4182342 0.19926322 0.027213702 0.21378724 0.08718141 0.9355743 0.4072305
감 0.269721 0.74831235 0.35901365 1.0008891 0.68713176 0.74864954 0.2681035 0.4828044 0.9899805 0.20590587 0.27087557 0.028304312 0.37399033 0.8513015 0.31940553 0.689133
훌륭 0.6759656 0.92208105 0.89017206 0.3427683 0.32652137 0.36639264 0.8326855 0.5061536 0.26625925 0.13890058 0.8929235 0.29162636 0.4643342 0.60207146 0.08404379 0.53911793
너무나 0.7241781 0.44949988 0.6205319 0.4065943 0.73869634 0.40863892 0.39678717 0.41814905 0.3118711 0.39290527 0.16730617 0.75406116 0.88471663 0.19727966 0.9563615 0.77478415
강추 0.5012788 0.80030036 0.86326414 0.5174506 0.4472654 0.9823803 0.46121848 0.70277953 0.12013884 0.17533353 0.6091877 0.4054465 0.38409203 0.22493865 0.3823586 0.7295647
해야 0.82167727 0.044919662 -0.021765454 0.6669232 0.42457908 0.22396994 0.81785977 0.33253157 0.2519218 0.8363065 0.2622693 0.09113883 0.124824494 0.95386237 0.787001 0.2000831
됨 0.64607966 0.3476184 0.6384676 0.76312864 0.11979096 0.7090056 0.30888534 0.09794502 0.17326483 0.8841702 0.07360544 0.5833168 0.6622908 0.022727352 0.88202524 0.79278195
ㅡ 0.30846202 0.45319596 0.5655499 0.6739687 0.55821633 0.44543767 0.42332146 0.21020293 0.12484261 0.20771497 0.09755549 0.26147106 0.56089365 0.6820264 0.32779253 0.42713162
따뜻 0.5195088 0.59254444 0.22230798 0.51699233 0.8199024 0.24700013 0.1364861 0.7082544 0.16724794 0.66596305 0.65180206 0.8092642 0.43986523 0.4422144 0.82024026 0.7395512
빼 0.42894197 0.024543233 0.37576598 0.39006653 0.5946097 0.9500273 0.5483923 0.44571847 0.0024798354 0.25110286 0.3210886 -0.024649404 0.29045632 0.18483317 0.5918777 0.98515975
느끼 0.67837095 0.43944287 0.47662458 0.8621966 0.83352655 0.84740996 0.30650365 0.83121383 0.1655016 0.34274158 0.26942956 0.70641094 0.5495468 0.3199696 0.69244254 0.87010175
드 0.82042557 0.104004875 0.40135494 0.6590899 0.023870185 0.5541509 0.18159111 0.98170346 0.80356914 0.52509815 0.48912892 0.6951629 0.17226046 0.36770836 0.34978336 0.7087086
도대체 0.8934719 0.6704916 0.70387644 0.35987154 0.44784144 0.97459066 0.16624847 0.54268295 0.85468954 0.36596575 0.6667448 0.06626869 0.24101445 0.9139203 0.019659996 0.3064189
어야 0.53247476 0.08161317 0.56999683 0.5760247 0.084140874 0.27787858 0.81694466 0.58408594 0.9227777 0.79070264 0.7065117 0.9339843 0.97030735 0.49453774 0.11202105 0.17121822
글 0.6674215 0.219746 0.49142975 0.62786716 0.87463105 0.037739415 0.26897192 0.84339845 0.79580146 0.08188085 0.37800285 0.12703843 0.3496139 0.65644985 0.73008245 0.32843328
마다 0.37992027 0.4858392 0.330138 0.14102402 0.37572417 0.40513512 0.027573356 0.16580306 0.62080044 0.18350688 0.26704857 0.8088924 0.41462433 0.773083 0.5472073 0.2673153
답답 0.20377529 0.45776016 0.6153001 0.8539415 0.124705516 0.64953953 0.47419518 0.41643652 0.5038081 0.87313294 0.54964536 0.61863387 0.31533375 0.33271328 0.55649424 0.9326263
준다 0.32956368 0.1962447 0.16248122 0.623756 0.46547067 0.2588163 0.6355756 0.06207509 0.36321053 0.4248111 0.90162945 0.8620961 0.35654885 0.8918414 0.06427518 0.20226178
전쟁 0.8954634 0.7480576 0.4102275 0.84300333 0.93321407 0.07929739 0.82884705 0.6227636 0.26612008 0.15390818 0.83568686 0.5885013 0.2398674 0.9167739 0.6167067 0.089829035
놈 0.5894437 0.52208126 0.2332047 0.4731744 0.07003977 0.39586845 0.76153827 0.13482112 0.42182216 0.029072627 0.6325244 0.84823513 0.41245925 0.77536815 0.68265843 0.39291587
설정 0.20753312 0.42349246 0.6673578 0.6125757 0.084014505 0.21140212 0.26725447 0.48346192 0.042425808 0.97303295 0.80372524 0.89450026 0.6541568 0.49480197 0.72269225 0.64208585
무엇 0.93601733 0.032327 0.69648516 0.92535746 0.9954868 0.8574268 0.19327283 0.21915105 0.5906957 0.7274638 0.5181286 0.3546102 0.39006302 0.68509 0.23373117 0.55003846
수작 0.7999427 0.9752076 0.013378421 0.5028526 0.19995601 0.5713912 0.9679374 0.66176236 0.8930084 0.11822399 0.8908934 0.7759096 0.64234453 0.5142697 0.7248243 0.9839805
그저 0.4124599 0.6620712 0.18100904 0.4667073 0.7152193 0.8529504 0.46228167 0.004235352 0.6164575 0.56620914 0.8068334 0.87425417 0.39776412 0.84764457 0.09616701 0.45441625
감정 0.38448462 0.7069382 0.03900969 0.81243974 0.35578576 0.9101573 0.71590775 0.66975784 0.87575513 0.014595369 0.931615 0.9939573 0.3959174 0.56662464 0.9985883 0.36158127
흥미 0.19956776 0.115998395 0.28807995 0.73615927 0.34593922 0.5775146 0.018206498 0.23142877 0.115788735 0.52799034 0.38352424 0.5788197 0.37122694 0.26396468 0.053691532 0.401196
미국 0.068244465 0.245066 0.51168144 0.341851 0.7479951 0.12593274 0.19541225 0.21575117 0.81522304 0.95475453 0.9965725 0.8150996 0.27372754 0.6640251 0.76352227 0.3500284
만화 0.2146657 0.9863568 0.6350438 0.4208044 0.75739986 0.24267215 0.45984867 0.051354997 0.5819286 0.30516708 0.26338562 0.10191176 0.42493695 0.00823225 0.86991924 0.7150188
행복 0.78354454 0.55770755 0.3294278 0.15789434 0.07918578 0.6034031 0.03636497 0.8737907 -0.0056935013 0.22998846 0.38520965 0.58623654 0.11044421 0.50450945 0.059878092 0.63516045
신선 0.50791514 0.74083436 0.6918831 0.104461744 0.9184249 0.2727318 0.56622404 0.6965001 0.78619194 0.77250904 0.18700005 0.78852946 0.75142777 0.53100866 0.04029329 0.32350186
뻔 0.583367 0.13043962 0.09124522 0.07860041 0.10595252 0.6791885 0.8465174 0.27806005 0.36224803 0.060676757 0.7553103 0.8798779 0.28872642 0.95983654 0.32734585 0.52222645
형 0.5811036 0.8703003 0.9055391 0.9159037 -0.0037764914 0.9068394 0.8659268 0.10455571 0.53854966 0.68105376 0.82482606 0.944448 0.12968068 0.9968182 0.3549887 0.4321338
앞 0.21710655 0.91425717 0.6928925 0.8154976 0.5649685 0.50630164 0.4713464 0.5773113 0.47996405 0.94374496 0.059405237 0.098061755 0.82856256 0.40064406 0.2519071 0.9170395
어도 0.35494837 0.24627899 0.4969492 0.45353162 0.3802401 0.45695361 0.99501234 0.1329844 0.50020695 0.33984917 0.9380189 0.21797714 0.045559514 0.8598181 0.30618474 0.40181154
허접 0.3260033 0.8945041 0.9448597 0.30632487 0.6801971 0.1060223 0.27513105 0.15801738 0.30307657 0.96269554 0.6594158 0.28946114 0.3184033 0.42733893 0.3572628 0.8956769
군 0.64828503 0.19371413 0.83282083 0.44484323 0.41642088 0.7948961 0.49958736 0.75729567 0.9062743 0.6649104 0.58857405 0.4640544 0.7392578 0.0842274 0.6225204 0.91780925
시절 0.58849984 0.4154058 0.68609595 0.5364431 0.7015674 0.2605512 0.55977166 1.0044054 0.6563879 0.8541473 0.30461687 0.8040655 0.6806918 0.35250902 0.9884574 0.34441978
관객 0.3672786 0.15399627 0.7412914 0.19240233 0.9551665 0.9936951 0.4366986 0.9004499 0.81871533 0.34018892 0.33655572 0.53120923 0.12328109 0.9120208 0.6755638 0.08878357
배경 0.48556077 0.9353265 0.7011977 0.44780713 0.6195111 0.4098666 0.37895444 0.83255154 1.0108861 0.9425457 0.25273713 0.18442048 0.8845727 0.4170756 0.6947946 0.07613784
6 0.83930343 0.72871405 0.46246755 0.27857098 0.27719194 0.6859825 0.9349479 0.5285192 0.14101022 0.5972647 0.89130515 0.7154284 0.6220237 0.39050144 0.19928949 0.507311
의미 0.17989692 0.29246238 0.9748055 0.8590313 0.08876035 0.5698489 0.89026314 0.9689991 0.7432017 0.9132292 0.35896417 0.6236008 0.17338166 0.41788816 0.38937166 0.90400696
초반 0.5920147 0.4161439 0.81981134 0.02706546 0.14554983 0.6514564 0.9062819 0.5383323 0.5996735 0.78021675 0.94586223 0.045660965 0.72679704 0.21038416 0.6465166 0.9301959
사실 0.2591481 0.5459572 0.17047451 0.53003484 0.2930192 0.48142552 0.31338328 0.8217108 0.029724916 0.15466866 0.03142538 0.8868129 0.37264547 0.98052806 0.4729003 0.006048107
답 0.34753332 0.9197484 0.43789157 0.05752401 0.86488473 0.2809568 0.9451274 0.69299895 0.42942938 0.67368 0.59648657 0.23239312 0.7466447 0.41692102 0.12567289 0.36649495
웃음 0.82858306 0.7976928 0.43766528 0.14857356 0.6872062 0.12267978 0.8396595 0.72785795 0.87663376 0.67269933 0.7523616 0.82030696 0.8608902 0.48337203 0.35298836 0.427255
엄청 0.9189137 0.08717686 0.6776133 0.68193793 0.9686888 0.16400836 0.58548117 0.99328893 0.025901293 0.017905954 0.44167626 0.6790172 0.76631343 0.5299947 0.16230468 0.2792396
라니 1.001284 0.81280935 0.6250063 0.13658683 0.2786481 0.6497544 0.6514404 0.49066147 0.22561094 0.34124938 0.61846673 0.6685856 0.6365041 0.35143515 0.8139929 0.16200498
더라 0.19183306 0.547367 0.55555683 0.37229663 0.43356046 0.11783368 0.40247902 0.041347746 0.35767993 0.22902986 0.5153016 0.43788764 0.37651682 0.5687645 0.0021302993 0.20423816
자신 0.65113574 0.9187012 0.7222576 1.0069268 0.27336094 0.12276555 0.3928722 0.32706478 0.43912125 0.87024665 0.0025611646 0.4197536 0.19841473 0.51896554 0.26225588 0.24353966
질 0.9603785 0.19270603 0.5096305 0.10738324 0.0940428 0.24003612 0.6705672 0.68308514 0.8142465 0.6752401 0.31242865 0.690184 0.10001992 0.24155687 0.021493396 0.25700256
추억 0.200692 0.6874385 0.048131067 0.31597412 1.0065149 0.8129689 0.25083825 0.94794065 0.1715299 0.97218317 0.948329 0.7161193 0.73659587 0.9789515 0.906751 0.18379238
캐스팅 0.22752284 0.85162085 0.008346362 0.50017893 0.25168088 0.90217954 0.07992528 0.53228325 0.43386447 0.71394354 -0.009928272 0.27814776 0.7143633 0.23975049 0.8898043 0.27959734
머 0.43176323 0.77459604 0.5784074 0.15322912 0.36112416 0.8078969 0.37793863 0.023223769 0.97403055 0.3407215 0.82310903 0.97208744 0.73841375 0.110261716 0.21604708 0.6965365
첨 0.7515315 0.1849568 0.61016405 0.33448663 0.5382735 0.82138664 0.020978991 0.39825517 0.73239917 0.6056251 0.40768385 0.41201988 0.73644614 0.05400226 0.5282862 0.7503645
멋있 0.26376036 0.50185734 0.50484943 0.62527335 0.4727478 0.5830062 0.63247675 0.9125385 0.4174287 0.8480921 0.18746229 0.62068176 0.43839845 0.86187696 0.33243015 0.55441844
류 0.085193425 0.09359651 0.39933488 0.86765033 0.30523124 0.3134773 0.9301141 0.47194096 0.2292798 0.9595478 0.08549062 0.33459574 0.90787977 0.747928 0.49234247 0.61878705
시나리오 0.28855553 0.086902305 0.6033089 0.62942684 0.22694097 0.91084623 0.5750769 0.89602953 -0.0063154744 0.61544645 0.49375904 0.9741147 0.1990284 0.74653363 0.8842241 0.1215432
어색 0.33201453 0.74096274 0.36978257 0.68492943 0.32329884 0.82594264 0.4167625 0.06698885 0.69307715 0.65436697 0.76942414 0.42474928 0.688467 0.87507814 0.0042038 0.23339482
슬프 0.914482 0.42731377 0.16118108 0.5955409 0.35757995 0.57497966 0.909936 0.80136675 0.71873134 0.6148256 0.5382117 0.14086185 0.6351775 0.33670023 0.8062379 0.09719286
OOO 0.3429444 0.45955306 0.45489836 0.3658015 0.87002826 0.2801668 0.7492675 0.34102634 0.07550204 0.53807086 0.20099472 0.81040454 0.3197731 0.8954336 0.9501456 0.54003465
정신 0.9253852 0.5236018 0.6281845 0.80603594 0.26870143 0.41762707 0.8191262 0.1992603 0.1098976 0.9858196 0.47563595 0.91954654 0.044048358 0.89527076 0.60120773 -0.007474738
분위기 0.765961 0.5444636 0.44572607 0.85934335 0.26468712 0.5398375 0.72045195 0.77772844 0.38512564 0.45900884 0.2948551 0.67792445 0.09924597 0.9589532 0.7213676 0.08884381
소름 0.7990985 0.6413368 0.0031704041 0.6720478 0.46674576 0.7128409 0.025052441 0.26749122 0.9110439 0.58592504 0.08175645 0.07342949 0.63568723 0.27395305 0.21926355 0.88640535
멋진 0.52493304 0.48209348 0.308494 0.7614215 0.63260484 0.6367709 0.70771164 0.14249991 0.025233531 0.51593405 0.40458304 0.8094823 0.59241086 0.58789074 0.24933273 0.722997
힘들 1.009777 0.61829054 0.84840536 0.74615705 0.9432478 0.50053763 0.7370084 0.7484949 0.31513596 0.74170965 0.29865858 0.3356168 0.23276243 0.54746073 0.072561644 0.48338315
오늘 0.510826 0.19565952 0.47511995 0.2742929 0.6202811 0.15406716 0.38131383 0.97879577 0.70697236 0.30343643 0.4867929 0.43367115 0.9990799 0.19934179 0.5740705 0.37670457
어이없 0.6420409 0.18389846 0.047950424 0.8438091 0.7857672 0.8943153 0.346835 0.37861603 0.8995228 0.07978806 0.37911958 0.12808217 0.8657736 0.22551045 0.71065223 0.849649
봐서 0.9108401 0.71974313 0.29791838 0.7909963 0.33632183 0.17381279 0.049377646 0.043173622 0.898681 0.67246896 0.23993129 0.4296824 0.09666813 0.556106 0.75597054 0.03363617
구성 0.2572189 0.23609108 0.28019947 0.45452127 0.45762646 0.2033015 0.00950808 0.7565384 0.9150118 0.2855645 0.0326806 0.27220184 0.656131 0.5229244 0.8654552 1.0152762
잡 0.05810213 0.63431555 0.7910385 0.7515288 0.7375692 0.59366786 0.5046714 0.760907 0.18045822 0.4427997 0.4460377 0.65531 0.6293877 0.67458063 0.12886718 0.17906573
엄마 0.44953123 0.20382789 0.19406143 0.04419061 0.18065226 0.20204061 0.23888345 0.18856806 0.08666272 0.26497704 0.9349213 0.97704405 0.98756254 0.96123785 0.04501728 0.16388272
함께 0.7698041 0.29333872 0.5119058 0.88426673 0.46852255 0.64136046 0.23505771 0.13277079 0.36010444 0.8420496 0.49701965 0.746794 0.80990386 0.42194197 0.3159872 0.005143963
문제 0.12679832 0.22932403 0.35568103 0.1702232 0.109107815 0.11955371 0.28602642 0.48682496 0.91055334 0.8667034 0.53895104 0.43935484 0.17069839 0.09669567 0.5706385 0.8068119
위해 0.23889713 0.12501234 0.80575424 0.5870293 0.42415902 0.43607375 0.81692284 0.3530454 0.4150901 0.58162415 0.9710362 0.028364284 0.7014088 0.36336705 0.3728867 0.6091503
졸작 0.03429937 0.122331105 0.5179098 0.658377 0.29751736 0.18291846 0.8630715 0.9839516 0.4634113 0.9911467 0.018168874 0.13575847 0.75052017 0.019764995 0.47257486 0.4815942
잊 0.38569143 0.85934573 0.9545969 0.62865436 0.95328265 0.8486209 0.15132265 0.7595994 0.77678514 0.62228286 0.90843546 0.23703931 0.34134808 0.13317658 0.5806349 0.82588375
등 0.7013272 1.0088856 0.27973607 0.7251576 0.08120772 0.7468821 0.33962154 0.47220105 0.36195773 0.0459969 0.71335316 0.16549768 0.60467505 0.4988692 0.1441865 0.88760495
집 0.68046653 0.7257577 0.5541842 0.9392234 0.5751073 0.61521065 0.9492908 0.32156625 0.6359175 0.8464874 0.9899895 0.7933035 0.6706749 0.79610384 0.44969174 0.058398552
유쾌 0.21948387 0.85761833 0.07963304 0.4383138 0.6577692 0.30447868 0.67501867 0.6832288 0.62161255 0.89506257 0.06269537 0.95582217 0.9874949 0.6920414 0.8624632 0.24143274
스러운 0.65176034 0.48739156 0.1977031 0.3168616 0.044732124 0.90121776 0.8419874 0.88529956 0.8842471 0.54443973 0.4444084 0.80088514 0.6615052 0.83499056 0.9254127 0.82956845
뻔한 0.30384338 0.510008 0.6773144 0.83330446 0.21868584 0.024062313 0.45014277 0.11956374 0.018207703 0.0691982 0.09341256 0.96889347 0.09133937 0.49396858 0.17987551 0.14469361
나요 0.3960565 0.33831486 0.88007915 0.3238804 0.73267525 0.111009404 0.104146026 0.19792603 0.47189564 0.20548129 0.49148646 0.77316934 0.8386014 0.7754639 0.39284375 0.9707732
킬링 0.4293081 0.6648377 0.925091 0.5702832 0.02413604 0.7628378 0.010617459 0.68218493 0.31350887 0.87295055 0.89804417 0.9079849 0.6140981 0.85599744 0.3963624 0.4108609
결국 0.7327947 0.65684783 0.8971801 0.0889903 0.13061383 0.2825092 0.56634307 0.94524044 0.21470039 0.39071673 0.28555614 0.06722835 0.48535797 0.51561415 0.06735189 0.20031114
낫 0.054282956 0.9295693 0.56209946 0.9693098 0.7746221 0.21129332 0.24199429 0.99728936 0.10185923 0.85611 0.05051946 0.6285541 0.9135263 0.46900457 0.46386686 0.33322105
뭘 0.7331416 0.8618215 0.47890022 0.061128885 0.46722436 0.7205839 0.47652432 -0.022738885 0.682182 0.6027134 0.36791417 0.0740719 0.16595142 0.73533016 0.15461914 0.36970553
간 0.18430795 0.5296195 0.23862147 0.19578032 0.37640706 0.77885014 0.7987245 0.2235492 0.27581307 1.0108708 0.9363592 0.053713482 0.8641935 0.10185037 0.67200136 0.0657087
소리 0.28875917 0.6930075 0.017170712 0.14939241 0.56163937 0.1669034 0.62697196 0.6879746 0.32561675 0.717474 0.5064553 0.046800297 0.81657267 0.08082464 0.78823036 0.21370536
미 0.9072655 0.874351 0.7215583 0.46550414 0.5841654 0.72663325 0.07680835 0.72600293 0.08793446 0.38553953 0.19526562 0.6032685 0.9192784 0.10269073 0.012439861 0.92011875
한데 0.22486356 0.7558069 0.9759564 0.53990054 0.18438412 0.04852683 0.24360564 0.9405874 0.45823902 0.17852989 0.9428362 0.6971404 0.9206217 0.58873093 0.48065105 0.40602392
20 0.81705034 0.081819914 0.62804556 0.9515804 0.6801737 0.009505968 0.84336907 0.31841025 0.73304623 0.61508286 0.19180748 0.3849645 0.7630043 0.3946555 0.80139834 0.3045804
역사 0.18425786 0.46199158 0.04760185 0.46785572 0.9771613 0.16766223 0.84517527 0.913043 0.97927386 0.38468087 0.0780164 0.27036774 0.81814724 0.08221595 0.7760957 0.25517085
뭔 0.66714644 0.22613992 0.52366626 0.24159919 0.5022519 0.80467206 0.53061724 0.64803076 0.9021891 0.21943536 0.7875212 0.98323727 0.90864956 0.83487314 0.7369675 0.6570741
제발 0.6781696 0.7723523 0.16465342 0.043434683 0.95937383 0.31391537 0.049841024 0.7219191 0.8452594 0.4770963 0.7029425 0.19962612 0.87268364 0.9418282 0.27929023 1.0027139
포스터 0.30213964 0.9639116 0.9738233 0.4610591 0.5234584 0.58090615 0.27255952 0.929328 0.84352463 0.92709935 0.5509879 0.85733855 0.06582775 0.82844365 0.06054853 0.64674026
아무리 0.16702852 0.62761027 0.22717015 0.882045 0.4419854 0.71429515 0.01129769 0.681498 0.19621208 0.13109668 0.89207286 0.82142717 0.6108613 0.55428123 0.47278368 0.9376134
코믹 0.17569838 0.48100558 0.7203644 0.9431889 0.91803896 0.5469387 0.08904126 0.62033606 0.6088701 0.2712534 0.6393519 0.7935137 0.71011215 0.835272 0.24720097 0.21051502
어떤 0.07091275 0.24427418 0.4770232 0.30791086 0.11644282 0.22404052 0.29887566 0.67206657 0.550875 0.95650375 0.5226509 0.66462755 0.6034983 0.9623111 0.2001758 0.2666694
완벽 0.8457181 0.34233624 -0.008745786 1.0048063 0.5908201 0.25355121 0.22600308 0.2986809 0.47488162 0.84497577 0.58715606 0.78336495 0.19164996 0.36285803 0.7994627 0.9368724
~~~ 0.6808286 0.2642131 0.10516758 0.62590873 0.0696597 0.6818735 0.68632174 0.28799587 0.77328897 0.3169563 0.30767274 0.5583848 0.5793925 0.13875699 0.2548684 0.43359575
얼마나 0.46135068 0.17321105 0.15549114 0.2867155 0.60522217 0.5237371 0.5922588 0.39731538 0.79696304 0.09072558 0.893611 0.6766347 0.89633614 0.75662893 0.3866689 0.41047782
애니메이션 0.64345616 0.24704053 0.6209588 0.49389642 0.448594 0.60325086 0.19857484 -0.011834625 0.13754162 0.5949525 0.34309223 0.8868663 0.7018444 0.4436894 0.66320133 0.1571362
러 0.7171795 0.5967362 0.25174034 0.59672093 0.46929142 0.46127906 0.4576065 0.10321285 0.49647424 0.015269113 0.86768645 0.7540576 0.21200533 0.54247093 0.84947354 0.75967056
맘 0.64715254 0.6383223 0.68375117 0.42062113 -0.03537765 0.585714 0.9624909 0.15046622 0.63948965 0.8582671 0.56458706 0.18377867 0.7630923 -0.03443179 0.13978264 0.40683916
!!! 0.20859218 0.6690873 0.82487375 0.5618167 0.7480988 0.9628834 0.70236355 -0.0065414077 0.42543316 0.56201255 0.10923103 0.64065313 0.6462978 0.87288374 0.8071626 0.80932635
난다 0.42803955 0.6488867 0.2508927 0.031996027 0.1529152 0.8830261 0.3889776 0.5059973 0.34172547 0.8135649 0.2731948 0.30905557 0.5645647 0.6791476 0.8706967 0.42573577
주연 0.2293598 0.22224511 0.029741801 0.8672272 0.05565249 0.77528155 0.31855345 0.5667867 0.6955988 0.1939897 0.48715562 0.96187925 0.079194404 0.58832407 0.7805661 0.15398869
원 0.5816952 0.58323705 0.250204 0.17920454 0.60926735 0.33300653 0.5289383 0.6833881 0.5881152 0.43327206 0.8798503 0.77390176 0.6602564 0.5964439 0.31460837 0.6293509
이딴 0.93354255 0.07815619 0.350473 0.20367603 0.78611994 0.48418048 0.06726581 0.08957141 0.12647392 0.42687738 0.11089164 0.5450405 0.30703044 0.89581436 0.8326842 0.6799124
버리 0.8639489 0.42450348 0.032353047 0.33010447 0.73417723 0.90897316 0.8716753 0.16958067 0.9074695 0.28643447 0.24829859 0.25265613 0.41847175 0.5107985 0.5613471 0.7855787
♥ 0.03614693 0.2433647 0.2150996 0.07996764 0.78818566 0.9166525 0.36664563 0.4268728 0.10486399 0.4173372 0.9557865 0.38254404 0.64678633 0.92852384 0.8960115 0.25897944
어릴 0.36717406 0.49979642 0.6473584 0.39326802 0.4706193 0.6798193 0.89140666 0.67856795 0.49675697 0.47591054 0.89795405 0.5710852 0.035005376 0.1971808 0.2979076 0.770847
후회 0.5013846 0.01355339 0.22498344 0.03640006 0.69561344 0.3471705 0.44725418 0.115562655 0.22724032 0.2317596 0.89467704 0.7790194 0.8046349 0.4424641 0.9909427 0.2199089
진부 0.58433044 0.36046442 0.18115307 0.57750475 0.76049167 0.21120322 0.7648585 0.38763472 0.90438896 0.694651 0.7094923 0.74493504 0.7768881 0.15067416 0.49502933 0.2585078
나올 0.22716953 0.043251116 0.16282915 0.41965207 0.9328789 0.13962828 0.09447028 0.715257 0.1099483 0.106396094 0.26722664 0.3431846 0.53142244 0.31501755 0.03387908 1.0201098
됐 0.85043234 0.54862124 0.8367258 0.41872293 0.5724343 0.63789 0.15349123 0.75468093 0.55997103 0.68212223 0.41378888 0.9132067 0.071781725 0.8190493 0.3237047 0.79775685
보단 0.28087378 0.7858884 0.2073139 0.12640437 0.87533283 0.53596693 0.56293035 0.7257266 0.6467243 0.80907947 0.5850965 0.10953712 0.8004802 0.5687261 0.42734092 0.96074003
장난 0.46182668 0.92227936 0.8031426 0.75757927 0.77953905 0.010657654 0.77328855 0.18419144 0.8411055 0.7986952 0.30761346 0.5398994 0.14937669 0.56947494 0.08694993 0.7521027
책 0.51040375 0.49967897 0.31642488 0.046006307 0.5996598 0.56854194 0.27563718 0.94880575 0.08029182 0.5502715 0.3772911 0.24578518 0.7530722 0.8644067 0.63894707 0.38985667
더니 0.75396967 1.0044296 0.47003552 0.26142302 0.030613739 0.91907996 0.32126832 0.7870804 0.5171649 0.60408384 0.053714164 1.031201 0.76107913 0.9143195 0.91004235 0.97852534
큰 0.5734438 0.39135557 0.8260993 0.9033833 0.858754 0.73617333 0.5975074 0.024296453 0.42105445 0.6593048 0.5429167 0.38458234 0.37543398 0.27352464 0.20891124 0.72428435
영화관 0.555005 0.4624236 0.28949887 0.96226054 0.11949928 0.09546797 0.3762932 0.60673165 0.47863764 0.59942865 -0.000778056 0.50693977 0.7113928 0.82683295 0.8031038 0.14429736
둘 0.53537303 0.9599337 0.116862915 0.45737857 0.05852741 0.97932893 0.22427157 0.15223014 0.6982625 0.4413512 0.16986062 0.70744514 0.90861326 0.6994623 0.1010919 0.676857
출연 0.9600574 0.3660319 0.022028264 0.6051264 0.80458677 0.21810158 0.9214605 0.56928474 0.90107983 0.57193846 0.78825855 0.7736707 0.97806007 0.97349846 0.592761 0.6584727
극 0.6884773 0.33015993 0.6262292 0.5581157 0.4184498 0.090207115 0.8822391 0.39702934 0.8431646 0.48226872 0.27691874 0.48293167 0.34132436 0.8237353 0.50288105 0.8267654
ㅅ 0.39742514 0.52757466 0.3905958 0.3521383 0.4029159 0.82468796 0.21952738 0.12325347 0.26696357 0.21939965 0.80427223 0.81896234 0.010342394 0.7412037 0.88282514 0.98512495
개연 0.29741532 0.024138164 0.47910818 0.73362184 0.6888647 0.5799365 0.951087 0.037905376 0.3046729 0.62708926 0.029150384 0.13055785 0.31136116 0.66396636 0.9411537 0.72550344
충격 0.69221705 0.9096657 0.3601563 0.42754063 0.41856325 0.2914077 0.68226993 0.6730981 0.28419533 0.7694588 0.47850934 0.7823876 0.46789044 0.765746 0.8405914 0.46520674
여기 0.8561966 0.17148831 0.1023982 0.5609048 0.50081813 0.96448696 0.27268267 0.53354865 0.9501525 0.48492146 0.681337 0.95180565 0.04218831 0.54041904 0.36791947 0.3127279
평가 0.39506564 0.13995942 0.8635597 0.7456325 0.9700999 0.7099082 0.3017348 0.745447 0.65328646 0.16679011 0.20899357 0.2088303 0.662629 0.086401716 0.26100767 0.5714298
엇 0.15111986 0.14638565 0.0013867505 0.019846672 0.44472343 0.7181714 0.5444429 0.1921082 0.9569114 0.36237693 0.9175074 0.2901996 0.58033615 0.9592925 0.68819344 0.14822687
꺼 0.9355902 0.08031878 0.9725827 0.7153953 0.7489989 0.34800854 0.5231389 0.91266084 0.54970986 0.2627582 0.12839766 0.94338053 0.60976744 0.86899036 0.57564837 0.6337911
잔인 0.22269614 0.77150714 0.32969272 0.3435129 0.37881696 0.42554158 0.80133843 0.35200742 0.64653677 0.90436286 0.72366756 0.74852335 0.07384997 0.12832332 0.14888737 0.55815697
아름답 0.7369056 0.7526334 0.95771265 -0.0009429356 0.6661184 0.98102945 0.77225125 0.94274396 0.20950134 0.80961436 0.12812467 0.3352542 0.06699809 0.33553147 0.9185379 0.058725424
얘기 0.20005624 0.2481215 0.45128134 0.24665828 0.6953986 0.67083347 0.116875246 0.4547201 0.4438151 0.70510656 0.98144114 0.5200887 0.5079637 0.15394732 0.97791266 0.74120945
줬 0.39420307 0.87179244 0.4453542 0.45462257 1.0108196 0.5545813 0.92185605 0.9594116 0.6131269 0.53149205 0.071196936 0.5221823 0.96912944 0.5713717 0.07885297 0.6855481
자기 0.95010734 0.27565262 0.75934803 0.1790236 0.7239171 0.40105432 0.83390117 0.086904414 0.6298091 0.77557945 0.079101354 0.7663635 1.0170197 0.3729308 0.88360095 0.710062
예술 0.103384405 0.6860288 0.36461434 0.003926879 0.04245089 0.9299933 0.5000563 0.33022037 0.4982457 0.033290636 0.39672947 0.2956567 0.3941339 0.13734081 0.25699273 0.4880965
갈수록 0.1642338 0.6347219 0.8831893 0.009998747 0.33417737 0.004168379 0.124498665 0.6237988 0.51092565 0.37109625 0.91266745 0.3674496 0.3039102 0.5450323 0.6202286 0.4598061
매우 0.29249072 0.024268107 0.044959437 0.5561426 0.62051886 0.8940064 0.48637637 0.36042532 0.1296094 0.97367895 0.2477887 0.12850256 0.16304171 0.82698923 0.36968163 0.30330032
반 0.26206383 0.15629274 0.43401545 0.0037939064 0.112659656 0.16700944 0.80707484 0.25346068 0.02390063 0.8293669 0.3606066 0.4057191 1.0071268 0.5446816 0.94979966 0.5828128
위한 0.12837936 0.55473596 0.89558035 0.72043145 0.8066458 0.8465706 0.58135 0.43135172 0.4122805 0.9655242 0.7614377 0.74105984 0.7552776 0.8768412 0.93350977 0.46453813
든 0.74678624 0.58308864 0.7621711 0.76004636 0.041758582 0.74959797 0.902143 0.04636335 0.38794813 0.6162407 0.8332254 0.041516468 0.7351162 0.8756652 0.09971672 0.17617711
이리 0.10731057 0.84836847 0.6779847 0.27353793 0.6175216 0.5654799 0.54491967 0.42427605 0.85564315 0.8866231 0.7530759 0.4119277 0.17434576 0.22964926 0.08505225 0.13573563
봐라 0.7084292 0.056570187 0.11296521 0.8030905 0.8533734 0.45293278 0.9244024 0.009718364 0.43728495 0.6875989 0.3257278 0.56162107 -0.0005690219 0.673189 0.21249677 0.59932226
이후 0.32505748 0.36151886 0.83610535 0.28393364 0.4703871 0.36618567 0.43881804 0.6086246 0.34490988 0.17459612 0.9604556 0.8834823 0.39716727 0.5074278 0.22870663 0.049822163
읽 0.7412456 0.45029327 0.13856943 0.8677013 0.23423404 0.09197351 0.29039875 0.93468356 0.7438018 0.19958864 0.7819881 0.13959062 0.816536 0.09377726 0.30757663 0.4310361
얼굴 0.81545913 0.24403937 0.2947801 0.7864791 0.81418663 0.20748432 0.9245433 0.5337346 0.24833974 0.5139781 0.8694107 0.4045461 0.86823016 0.20831814 0.8953303 0.68339866
꽤 0.7446126 0.18543687 0.18419784 0.29357615 0.008122448 0.39720803 0.13736613 0.7954685 0.7769959 0.8018629 0.4939112 0.794931 0.78901756 0.78977406 0.615201 0.12303567
불 0.7726673 0.5558478 0.28220785 0.5015644 0.87249917 0.055306222 0.9495958 0.33465645 0.92918944 0.19268322 0.60783607 0.4153826 0.8841587 0.6110941 0.11840507 0.24291639
으나 0.69026285 0.80946946 0.10099907 0.053855516 -0.0022150602 0.8974231 0.13929968 0.263766 0.2537013 0.9155668 0.89006555 0.7001284 0.11908624 0.26979813 0.3486313 0.8299507
깊 0.6275036 0.58508795 0.62052834 0.44325134 0.059259538 0.48570898 0.7357369 0.42000133 0.4596217 0.97725606 0.7203219 0.138574 0.7687186 0.43506378 0.820227 0.8490691
