10000 16
<unk> 0.72611487 0.029312378 0.8540284 0.15100986 0.37450853 0.120078236 0.42908272 0.23090854 0.63603663 0.12419037 0.6641702 0.07980835 0.43203026 0.1618537 0.12608668 0.4851989
<unk> 0.09390849 0.3670294 0.34824932 0.75064063 0.6204442 0.3311882 0.2166369 0.2133137 0.37873116 0.3899735 0.58033997 0.67041653 0.89592594 0.17306484 0.7980408 0.01833536
<unk> 0.4729638 0.8555885 0.116089344 0.027545922 0.53576976 0.041004144 0.25541428 0.90414876 0.6920437 0.5252686 0.19225565 0.47093976 0.29996893 0.33185014 0.07019056 0.89066637
 0.22673814 0.29104236 0.5780425 0.66768074 0.12257786 0.06966369 0.23994674 0.23841225 0.689877 0.6257748 0.25460845 0.40419847 0.46318424 0.42513105 0.54358786 0.339384
. 0.059882674 0.20420422 0.25562847 0.1369868 0.26416942 0.43597743 0.0053530657 0.5266136 0.8088826 0.3274319 0.62930304 0.07274897 0.28483424 0.18464756 0.21926743 0.92023844
영화 0.66757935 -0.06819196 0.717156 0.19559607 0.39934438 0.4091792 0.6040523 0.42699125 0.6573837 0.96542376 0.08155416 0.89036554 0.8218589 0.33164877 0.44757625 0.072608925
다 0.24535231 0.31626707 0.41084102 0.33804253 0.22768672 0.082399204 0.20798565 0.9464032 0.80080956 0.725513 0.51596826 0.8796551 0.6264301 0.7832168 0.22147696 0.03610334
고 0.18408462 0.39310256 0.48569444 0.6985374 0.7000462 0.41679308 0.8800075 0.8548516 0.813293 0.9431426 -0.06334959 0.40413037 1.0524807 0.018815758 0.46837798 0.5299366
하 0.6740398 0.6593949 0.7716781 0.39880395 0.98644817 0.3612572 0.5981553 0.3137744 0.13030663 0.6511382 0.22413987 0.18900153 0.87563705 0.61198455 0.25238514 0.8505509
을 0.6046907 0.5166333 0.65667015 0.09414821 0.43719158 0.8143531 0.25759116 0.32663944 0.5373449 0.3715693 0.57284707 0.45931092 0.45058835 0.47948232 0.5064674 0.5710932
보 0.3639576 0.6551051 0.21863025 0.32265055 0.7472107 0.72195995 0.4845274 0.80795515 0.6784999 0.28754777 0.6122417 0.6378626 0.16018409 0.46404564 0.8135315 0.92342347
.. 0.2962239 0.78608364 0.067384735 0.8877278 0.9218338 0.7955786 0.5021095 0.3032142 0.75970113 0.7262513 0.23135217 0.18794933 0.34165442 0.23633227 0.39476553 0.6086488
게 0.24228397 0.26444295 0.747386 0.20168218 0.7497532 0.4489034 0.5323855 0.56282026 0.22259535 0.9600752 0.74596125 0.6087104 0.83525765 0.35218742 0.5307143 0.18239449
, -0.07975797 0.54475254 0.8169215 0.33001658 0.15340762 0.65802133 0.6291355 0.54222316 0.31513405 0.5419916 0.7321362 0.5380946 0.7152578 0.36791828 0.36538133 1.0034335
! 0.28789353 0.5787933 0.78740793 0.7202531 0.8858382 0.19650522 0.2657856 0.3592465 0.077253915 0.25432658 -0.06877132 0.5688803 0.44811374 0.68075234 0.5483421 0.58911115
지 0.52495253 0.37632936 0.90484875 0.91084146 0.4296579 0.84346175 0.49160206 -0.02134069 0.1961141 0.13153496 0.39736012 0.67926764 0.123603426 0.7641788 0.5777545 0.10057802
있 0.082154565 0.40344736 0.872983 0.7189485 0.5440211 0.7408886 0.72434306 0.56359 0.94808775 0.17933717 0.7322303 0.3639357 0.8712905 0.84761536 0.54032737 0.4317882
없 0.8865766 0.16832155 0.4779742 0.71365476 0.24065669 0.17617558 0.5611578 0.44518402 0.06364879 0.7041489 0.82334536 0.18613307 0.98976874 0.42866394 0.11368239 0.7982943
? 0.8578374 0.7818065 0.5970937 0.18289179 0.46425888 0.87735623 0.12963307 0.39615676 0.661679 0.3891662 0.18765235 0.52153116 0.1691679 0.71377754 0.22405127 0.057809446
좋 0.1815632 0.8794938 0.96410686 0.44804236 0.4201218 0.75171465 0.8230669 0.58070475 0.28295442 0.2523537 0.5260037 0.03995861 0.89487237 0.105808 0.5968905 0.35406142
나 0.30446175 0.07016793 0.58379894 0.6610698 0.9242422 0.7379159 0.18643124 0.2301876 0.37762186 0.35041577 0.9476247 0.23686565 0.1607841 0.7806387 0.15874009 0.8450252
었 0.34377146 0.66416466 0.822542 0.28589156 0.68393004 0.45771232 0.28506464 0.8976001 0.7634763 0.57737684 0.39616993 0.61546355 0.25890502 0.4745102 0.5226382 0.057855796
만 0.024222244 0.32625905 0.13710222 0.48554805 0.30886513 0.59809023 0.60536623 0.31555077 0.109565474 0.50659823 0.0668219 0.17300713 0.45394322 0.68350923 0.74387205 0.227159
는데 0.7653117 0.32916698 0.93790126 0.7495566 0.17606972 0.858813 0.45803723 0.483797 0.18208556 0.42998663 0.5097402 0.69160634 0.46739927 0.62072384 0.70350885 0.8737596
너무 0.120155424 0.5861125 0.42470744 0.8771843 0.8983517 0.92565113 0.09383581 0.53254575 1.0022048 0.1846993 0.24872068 1.233829 -0.17753254 0.8263416 0.37557298 1.0592282
봤 0.46291 0.05749059 0.58362395 0.18275017 0.7590355 0.4106467 0.27777207 0.1923964 0.8593494 0.26931077 0.57606304 0.3206632 0.9029163 0.73416454 0.31566164 0.13367231
적 0.29512417 0.74480426 0.42690423 0.6464006 0.64124715 0.540456 0.46924588 0.37371573 0.50187737 0.21004245 0.01186307 0.01112374 0.49644834 0.28694013 0.75265175 0.7757762
안 0.3695545 0.14260657 0.33427563 0.32569826 0.039907712 0.79166716 0.59589815 0.01089317 0.7567908 0.5637029 0.25643033 0.70561945 0.33944404 0.47280192 0.3793513 0.22056487
로 0.00075948366 0.20197573 0.13044071 0.7911666 0.7460525 0.82319945 0.66430265 0.71008027 0.22509556 0.96532 0.43959448 0.32424784 0.11097867 0.080214724 0.90964854 0.5287388
정말 0.26777628 0.66451955 0.9710523 0.49047965 0.86432225 0.5731862 0.5307669 0.33311468 0.3786461 0.12532614 -0.010525801 0.18851255 0.8633041 0.08622772 0.49915805 1.0058624
음 -0.19192123 0.9604587 0.63019735 0.44119295 0.18571223 0.069907986 0.22571775 0.5045267 0.7250609 0.61501 0.6532519 0.55579746 0.6857559 0.82144505 0.27739322 0.442864
것 0.5622814 0.6445496 0.056148753 0.66350824 0.2236248 0.29971322 0.5908904 0.81240416 0.72668964 0.36380935 0.3305523 0.6320767 0.38926482 0.10763223 0.24494869 0.31139046
아 0.40433374 0.21924399 0.8295821 0.2763404 0.8312092 0.29884353 0.34669042 0.2853297 0.46579987 0.4390084 0.097853005 0.26357138 0.34173307 0.3897593 0.3503507 0.76613533
네요 -0.0558164 0.570592 0.3917867 0.3243682 0.9301444 0.18866841 0.163848 0.6389178 0.2879027 0.32288933 0.9178662 0.872536 0.8189356 0.78701353 0.08594974 0.80825347
어 0.46132642 0.8018013 0.16727655 0.77698934 0.33253974 0.54114455 0.70793283 0.16937913 0.10015756 0.45402917 0.7690634 0.91208667 0.84317166 0.6831631 0.7853986 0.32092175
재밌 0.055549465 0.7094752 0.8127399 0.6332123 0.7218842 1.0310369 0.3314722 1.1201893 0.8706034 0.21146594 1.0038968 0.18729907 0.7460996 0.5100685 0.7549852 0.12432184
같 0.7426976 0.643482 0.67577136 0.16951251 0.12988283 0.26771784 0.88767725 0.81321555 0.6687274 0.81288594 0.3817388 0.70367616 0.70012355 0.24446183 0.46192014 0.5503847
점 0.16956784 0.8526635 0.47352585 0.68893594 0.9005751 0.7846956 -0.10832099 0.5073568 -0.16321157 0.35523415 1.0267247 0.19337064 0.012941381 0.9566753 0.22233737 0.3869509
지만 0.7203362 0.42680869 0.6299694 1.0936176 0.8236176 0.87112963 0.6884115 0.1595126 0.6421574 0.25298515 0.6209927 0.38816252 0.2453627 0.3153183 0.25060186 0.4958873
진짜 0.23833023 0.5105963 0.8515541 0.37809873 0.34077808 0.6782796 0.41232497 0.44440565 0.1421874 -0.18131521 0.41988683 0.8469887 0.4917833 0.7731726 0.48269486 0.8777113
했 0.38541266 0.49079633 0.16273208 0.35071552 0.5088019 0.124228515 0.20810322 0.4365603 0.7157574 0.8430934 0.6983989 0.4637607 0.8281203 0.2611074 0.42636216 0.75348216
기 0.9478913 0.9848939 0.037917417 0.40766615 0.39991236 0.42452142 0.8382887 0.84796023 0.47360095 1.0633115 0.8603692 0.7501056 0.48392138 0.5611215 0.9787808 0.4933004
에서 0.4975771 0.44519532 -0.12483601 0.666289 0.35092965 0.79638135 0.7244717 0.15359251 0.4016707 0.20494555 0.21035278 0.13373291 0.62370163 0.18670517 0.51137614 0.8088922
네 0.9766472 0.3184571 1.0398024 0.03328005 0.3173043 0.31000802 0.20471399 0.71632975 0.04677176 0.8534343 0.12599054 0.12206396 0.3652695 0.6728183 0.42622885 0.3308791
않 0.80978405 0.14487283 0.42382345 1.2322259 0.537036 0.25682914 0.5471019 0.64995533 0.36617863 0.34983692 0.15985991 0.74762434 0.72673225 0.94263464 0.21619785 0.33527133
거 0.8195187 0.40305668 0.7268332 0.31918356 0.22828576 0.67083853 0.11397864 0.28880772 0.42922524 0.97666717 0.6789746 0.46006107 0.73114413 0.85702395 0.72393465 0.7687713
았 0.44551295 0.4954614 0.27340662 -0.00239238 0.9298331 0.58077776 0.7361053 0.7714718 0.31555584 0.4198149 0.6531326 0.44418988 0.9830557 0.9201565 0.52320516 0.7468553
수 0.55305886 0.6136377 0.57850415 1.0325862 0.5796868 0.3424261 0.94963145 0.48879653 0.5772299 0.44590178 0.0934583 0.18864687 0.2111141 0.008084889 0.061475378 0.5601714
되 0.03776492 0.09544784 0.7502375 0.3848181 0.6079697 0.81259435 0.7875374 0.15947226 0.41557956 0.596442 0.6786826 0.31468248 1.0818332 0.93088144 0.81301683 0.16546088
면 0.66131926 0.8054208 0.5415568 0.59827274 0.1523947 0.56895727 0.50560415 0.51615185 0.90272766 0.6786397 0.7879088 0.71435064 0.40357745 0.42131576 0.74674845 0.17714563
ㅋㅋ 0.27973557 -0.08330167 0.598137 0.6423182 0.647991 0.34641916 0.661051 0.8082227 0.54665035 0.33825904 0.1002052 0.29537365 0.8645574 0.42910358 0.7407256 0.81524676
말 0.13901448 0.19152474 0.52331424 0.9575215 0.8695272 0.75531596 0.4796755 0.6886744 0.77064216 1.0457661 0.57776177 0.9404531 0.7033422 -0.07965104 0.43300554 0.05868814
인 0.23558708 0.89215904 0.9277444 0.43007156 0.6817371 0.450834 0.61417294 0.45263994 0.73850507 0.7862005 0.6493687 0.53114593 0.5685626 0.32751855 0.1516865 0.3529267
연기 0.7132292 0.75631845 0.26964876 0.4831502 0.34595603 0.42924085 0.08721807 0.32360664 0.6261599 0.7225376 0.86020356 0.14710577 0.66706234 0.7640507 0.9607918 0.7117521
주 0.9871923 0.036710482 0.86592656 0.20000291 0.85766065 0.7912317 0.6377607 0.63787824 0.65940785 0.513814 0.39555034 0.20771663 0.40776744 0.19179375 0.4706438 0.63845867
내 0.5897633 0.41209328 0.27434647 0.11098642 0.47825477 0.7295964 0.59579325 0.6176167 0.6789035 0.46893725 0.38540506 0.8248561 0.5330483 0.16713846 0.7458038 0.52417505
최고 0.53688645 1.1649153 0.3606718 0.6591507 0.7181664 0.75764644 0.20081879 0.5038966 0.61552304 0.069935374 0.8398763 0.29053074 0.19474815 0.34340733 1.0519288 0.18146476
~ 0.6613258 0.5917334 0.30977264 0.050158277 0.6213185 0.18666616 0.28220865 1.0081189 0.5515414 0.7140854 0.11365457 0.41068488 0.68940717 0.68979925 1.0173672 0.39368892
평점 0.82576275 0.58397275 0.6092448 0.08346603 0.42830977 0.538374 0.2417052 0.95918435 0.8909123 0.09691828 0.12725689 0.5067795 -0.0033591795 0.35997438 0.16213256 0.8502397
이런 0.6913525 0.80703974 0.081078105 0.47893417 0.53995943 0.026887264 0.9270379 0.22824684 0.26171792 0.12804209 0.6530244 0.97975326 0.52321327 0.27635962 0.07106545 0.10883861
던 0.5444772 0.38293305 0.40523675 0.15197764 0.87114334 0.21947028 0.21396495 0.8956384 0.48925942 0.81829304 0.27888927 0.7021059 0.3840875 0.12199115 0.29943848 0.5136957
어요 -0.3360391 0.64898485 0.65278125 -0.24420623 0.5529755 0.9281036 0.4411114 0.3715743 0.14058448 0.08943175 0.76344454 0.2742867 0.936443 0.55069566 0.39120823 0.6170035
할 0.6529767 0.28167412 0.18899307 0.45595124 0.6906308 0.9248845 0.6938578 0.98146313 0.74991196 0.5695468 0.60305595 0.8053571 0.15919368 0.32799238 0.22503994 0.75267476
왜 0.26474935 0.5555437 0.67388946 0.6900373 -0.20459998 0.5730151 0.14615062 0.75910753 1.0021361 0.99628764 -0.04372922 0.3504048 0.7975877 0.5880196 0.11014893 0.015941918
겠 0.13585618 0.54809046 0.7479816 0.40246105 0.30728334 0.8685317 1.0167055 0.76519257 1.0377178 0.83852834 0.65033305 0.23800783 0.2417614 0.57169193 0.3553446 1.0405407
해 -0.029385043 0.42551824 0.44389772 0.4348688 0.46270436 0.21146055 0.92707133 0.7991045 0.25800425 0.64990276 0.566403 0.6384214 0.6762988 0.6546781 0.8063273 0.34991494
1 0.37929553 0.9443045 1.0251751 0.41506705 0.34650272 0.27062458 0.8423393 0.49326366 0.6048485 0.46822307 0.22473152 0.79652315 0.03889926 0.7736146 0.22707984 0.75608426
스토리 0.6598904 0.13517188 0.23115385 -0.0004096883 0.6463289 0.2416823 0.9952865 0.22091861 0.28849307 0.050898742 0.21293245 0.43152362 0.62698615 0.48234376 0.16813928 0.2897368
습니다 0.56610584 0.678029 0.8985327 0.63533145 0.4424801 0.35976338 0.37315795 0.4866075 0.5132161 0.5513915 0.022598546 0.9144152 1.2371076 0.63944095 0.3246096 0.075151086
ㅋㅋㅋ 0.05269659 0.09585057 0.5478039 0.538125 0.8508627 0.37530646 0.26614884 -0.04629833 0.9055097 0.1818786 0.6526337 0.07334328 0.18157028 0.50120544 0.24710248 0.8054786
... 0.70885754 0.7407919 0.47615433 0.92791957 0.4362643 0.42321378 0.29622233 0.6283597 0.6479961 0.76799864 0.15648423 0.12830886 0.27595708 0.38991228 0.62989974 0.94481564
드라마 0.6167423 0.5605792 0.54404837 0.003114258 0.5458718 0.00784407 0.3082535 0.29043376 0.14603068 0.7257259 0.34602264 0.8041853 0.5660085 0.14437911 0.9345311 0.53350115
아니 0.29035434 0.87450325 0.67794055 1.0325696 0.28722143 0.9390923 0.9570108 0.3862631 0.42073804 0.611452 0.60738236 0.5131665 0.29472667 0.73756456 0.26025894 0.7734319
생각 0.7369568 0.52954113 0.29163587 0.7228851 0.64721733 0.20975521 0.24494964 0.19472913 0.98546666 0.6402767 0.5658653 0.20960166 0.40032667 0.081969306 0.7821708 0.4757803
더 0.42984432 0.41524345 0.53784245 0.3744118 0.6157604 0.49781454 0.5573729 0.3761484 0.66517717 0.4710276 0.42709145 0.6217592 0.11952059 0.45488858 0.1202348 -0.095811024
그 0.6939171 0.6409932 0.63874584 0.08482709 0.57256895 0.6766179 0.035168394 0.45790824 0.6539305 0.8342161 0.61913574 0.3536953 0.91340667 0.16197759 0.5473789 0.52146125
싶 0.10370292 -0.0061796345 0.24078189 0.13952816 0.2826245 0.34922463 0.6461889 0.30037922 0.51049864 0.6326646 0.70055497 -0.077211775 0.32709998 0.042986874 0.20630223 0.6151446
사람 0.97474515 0.5428702 1.0363953 0.8429287 0.5315961 0.43557063 0.62301445 0.52844 0.63850003 0.21518956 0.74319893 0.5237799 0.7200521 0.8108381 0.75574726 0.5150022
듯 0.30625615 0.3368829 0.5858868 0.34219253 0.62293184 0.95340776 0.56571937 0.61923164 0.059424374 0.11056148 0.6375974 0.4185368 0.18123966 0.90074694 0.31181696 0.4203937
때 0.34167337 1.0452414 0.23325527 0.39343014 0.77213615 0.43157163 0.65026885 0.88549465 0.7391282 0.67148876 0.44078073 0.3230673 1.0691408 0.42745355 0.90325904 0.62798554
감동 0.35953423 0.06084467 0.6991979 0.8648007 0.6498697 0.35455078 0.532214 0.39776516 0.20813435 0.07973466 0.42845333 0.9731758 0.24338333 0.050896846 0.79329026 0.7182558
함 0.19986449 0.34188968 0.07399694 0.32533464 0.9035173 0.6769458 0.6429202 0.96020925 0.3834609 0.3945827 0.812787 0.4638444 0.34983796 0.52935416 0.4537571 0.35343972
배우 0.47089374 0.58952916 0.24504238 0.2901291 0.25721213 0.49250054 0.68243253 0.4311622 0.81509703 0.15055053 0.44188446 0.50844926 0.43208897 0.86496836 0.880165 0.63762486
본 0.44286534 0.04963379 0.5134393 0.25686035 0.16448973 0.72116256 0.2905284 0.65838426 0.52394366 0.43975925 0.45760274 0.52170086 0.52819645 0.3447375 0.8494037 0.53608763
까지 0.4224698 0.52315676 0.70186085 0.51860726 0.14809977 0.5063408 -0.014360831 0.8858243 0.45488644 0.5929779 0.65019166 0.36919838 0.1694206 0.5502438 0.41503438 0.5818999
뭐 0.023044318 0.41514477 0.5619507 0.59828067 0.08258593 0.23763831 1.2201756 0.013052052 0.8948145 0.3648282 0.38280767 0.57783115 0.5762595 0.30787033 0.57678133 0.34671944
보다 0.1781787 0.64798176 0.13950989 0.6296788 0.43905076 0.25461254 0.51395285 0.32482976 1.1225853 0.06394088 0.555173 0.07829518 0.715666 1.0120302 0.65393513 0.91033816
알 0.44307324 0.7244424 0.33744782 0.24572425 0.22214147 0.27960122 0.30182153 1.0734268 0.36790985 0.42697608 0.4110593 0.7763289 0.76074004 0.9744296 0.1666799 0.76700276
만들 -0.13385643 0.06067287 0.24302709 0.59992397 0.782167 0.23360597 0.8317435 0.99686 0.5284148 0.96270025 0.98895687 0.8899677 0.5733493 0.43892482 0.16373952 0.9649767
내용 0.23327476 0.09994457 0.78767955 0.13388626 0.94775176 0.64412314 0.66840065 0.26478928 0.5841339 0.23667969 -0.09334132 0.9081576 0.46152636 0.8182488 0.35601035 0.37565202
볼 0.23886584 0.066743836 0.55544907 0.48151183 0.38095415 0.6534802 0.11704793 0.8768309 0.44324568 0.5876397 0.7272867 0.206015 0.8803349 0.25981542 0.27563727 0.12931989
감독 0.27192664 1.0110425 0.3562199 0.08150681 0.93792355 -0.10383833 0.6332259 0.8915289 0.8638335 0.7024688 1.0791669 0.9540947 0.11892972 0.68810797 -0.04228262 0.61559194
라 0.2252833 0.71854675 0.49927834 0.38391733 0.09166051 0.6945529 0.7619888 0.7764487 0.30881697 0.57356614 0.5558445 0.8634832 0.46820137 0.0049480125 0.4933294 0.91951466
그냥 0.23916964 -0.027582997 0.2725607 0.3417136 0.8231494 -0.054215252 1.1528043 0.034732834 0.96312594 0.3877723 0.9077964 0.7497456 0.64438593 0.10895077 0.6962232 0.23272307
재미 0.117559835 0.24573614 0.70072395 0.25200674 0.6517831 0.20280981 -0.4730624 0.7431687 1.0796946 0.89706254 0.17146127 0.38172334 0.17595257 0.63714695 0.41875803 0.7020592
시간 0.20541586 0.4408744 0.31942374 0.16375548 0.76024204 0.06988803 0.6427265 0.83031327 0.14165248 0.38867185 0.2804937 0.24011706 0.82223654 0.48992357 -0.017781138 0.92944646
지루 0.4567639 0.59889317 0.49802965 0.6220815 0.16783327 0.87815404 0.028845593 -0.012171064 0.13025469 1.1354724 0.63433063 0.65802497 0.20725836 1.1115202 -0.07184107 0.27419758
중 0.6992011 0.40985918 0.55877954 0.5231702 0.27306488 0.58258027 0.22701131 0.69386965 0.8066672 0.72117865 0.61138785 0.5353183 0.16278394 0.08325447 0.3543722 0.09093326
재미있 0.20272952 0.84276885 0.9075445 1.0276301 1.2404684 0.34375548 0.33694425 1.0261787 0.8518637 0.5373353 0.87766576 0.42471364 0.38226408 0.56825846 1.0063968 0.3128913
년 0.08178446 0.26097712 1.006152 0.27102658 0.99465686 0.81961966 0.40131694 0.23230465 0.11259007 0.5766113 0.7790435 0.35777733 0.05315723 0.40389 0.25571114 0.6941474
10 0.59587175 0.5719625 0.35095102 0.6777947 0.7763528 0.8768069 -0.13274728 0.87713295 0.4707927 0.840346 0.5687475 0.8783893 0.673569 0.4587346 0.9351873 0.49274057
였 0.4783495 0.38567242 0.70222557 0.24448949 0.4481201 0.23251861 0.35479283 0.59406847 0.26645362 0.817599 0.37024096 0.7212539 0.41070905 0.26083058 0.59126365 0.44073167
잼 1.0648252 0.9798059 0.07182822 0.78787756 0.43605372 0.9132336 -0.24255416 0.73055345 -0.068030156 0.8897209 -0.18117025 0.3285563 1.0863962 0.18904774 0.60830784 -0.026857885
사랑 0.5649201 0.8555614 0.439164 0.76945883 0.13056968 0.45800984 0.64231145 0.6212801 0.2911571 0.24078134 0.6276401 0.71570915 0.84021515 -0.10669717 0.33617428 0.013586024
못 0.678882 0.66167635 0.10419074 0.4001005 0.47194988 0.44512546 0.65085393 -0.027818412 0.20552725 0.5047984 0.42499825 0.7804609 0.5496565 0.7329975 0.073724076 0.5322631
냐 0.50346476 0.39691862 0.24471031 0.20285574 0.10038578 0.36124098 0.2704246 0.6419202 0.1217415 0.9403269 0.9673164 0.4307111 0.5724638 0.20864007 -0.005626055 0.52485406
재미없 0.10983881 0.8872248 0.7351175 0.619951 0.037329666 0.8438967 0.9827469 -0.008343417 0.8582031 0.81255555 0.07517136 0.879349 0.16239573 0.62576765 0.22399203 0.79014444
쓰레기 1.0126028 0.8118218 0.3194996 0.3713037 0.18853827 0.75289804 0.17021118 0.08858485 0.35106298 0.8718285 -0.053254046 0.40149066 -0.13664302 0.9591972 0.24454492 0.25974625
서 0.4900434 0.7524997 1.0361141 0.62738556 0.8227689 0.7669564 0.6867345 0.2673052 0.50931615 0.44487533 0.7684022 0.57204306 0.51794523 0.8723573 0.15858041 0.4339018
야 0.54918325 0.28863937 0.24689402 0.3216206 0.22813483 0.7347839 0.8641249 0.42354533 0.075553186 0.57832426 0.25356418 0.67878604 0.95845175 0.5896467 0.34893414 0.40257657
2 0.63336045 0.7027149 0.7467856 0.2115671 0.10500177 0.3891356 1.2086495 0.6879789 0.61536294 0.061639443 0.36358875 0.7288576 0.3446463 0.2374651 -0.00087394996 0.88195527
라고 0.33471063 0.92159384 -0.059361782 0.4222526 0.47856593 0.97346634 0.45413423 0.7893198 1.0462787 1.0715402 0.7424484 0.7955082 0.11303232 0.27630493 0.69286335 0.19704078
니 0.7477137 0.8476974 0.25419042 0.6166614 0.45024958 0.25198287 0.96456766 0.63599116 1.1293552 0.6089888 0.99066526 0.034411654 0.95530254 0.7325511 0.5308327 0.65321845
면서 0.3403816 0.1358379 0.56718445 0.642676 0.90186113 0.3684302 0.070184216 0.46268812 0.6681273 0.5260789 0.6876811 0.74797624 0.38015464 0.22864367 0.8500447 0.5001545
번 0.4146416 0.48400345 0.7443585 0.40566054 0.061197467 0.3153766 0.4468269 0.56644857 0.29075393 0.37602356 0.5196984 0.8933096 0.4194454 -0.03591862 0.5775157 0.47390085
다시 0.05097733 0.92423135 0.61825734 1.0193279 1.0693654 0.6913109 0.11575263 0.9048957 0.47716066 0.79102844 0.96559966 0.60067385 0.4855336 0.31791803 0.47763753 0.38789773
나오 0.9506384 0.7702579 0.7769178 0.7486092 0.5624493 0.23338893 0.5896484 0.30350724 0.59362173 0.074770115 1.0393155 0.9347411 0.19070181 0.47863653 0.06830353 0.60751396
작품 0.17778176 0.80659854 0.5072227 0.29110393 0.32677066 0.37090042 0.77197707 0.38980696 0.6119522 -0.16231209 0.5190196 0.3005982 0.99517983 0.79783654 0.1942795 0.75040084
이거 0.57478136 0.46199748 0.71757054 0.75338966 0.4653424 0.74045676 0.6837087 0.51156265 0.8469441 0.72827595 0.120619684 -0.054170478 0.09497797 0.5428565 0.3389599 -0.14109597
하나 0.27777457 0.18672623 0.04075424 0.12922573 0.16816716 0.9239052 0.6808063 0.68069917 0.6332955 0.5124222 0.22350125 0.8733186 0.821563 0.14916342 0.66601247 0.47594625
줄 0.07520645 0.4147614 0.6901401 0.25305933 0.32583213 0.3042178 0.9774217 0.27628914 0.40890726 0.6222953 0.53087336 -0.020113228 0.4336019 0.66931367 0.377477 0.05406858
해서 0.7940692 1.0025222 0.77279353 0.7890806 0.1862323 0.31137556 0.28110924 0.30802736 0.41261744 0.29570913 0.20954238 0.57485414 0.31099188 0.6981525 0.46878925 0.6290201
개 0.20131883 1.1197829 0.40958375 0.35299712 0.39813566 0.6934811 0.036137942 0.1420674 0.057726394 0.80195105 1.027864 0.7489542 0.60413283 0.82722807 0.8728796 0.40885845
정도 0.73352474 0.6652157 0.84805137 0.34999397 -0.016215662 0.53355545 0.52646244 0.89078635 0.83278996 0.11542559 0.49640998 0.51199704 0.29751483 0.91655356 0.8765956 0.90274405
남 0.35636747 0.3601006 0.73298246 0.1771615 0.56896144 0.165226 0.20983481 0.94427943 0.33861053 0.52983886 0.07618221 0.060443807 0.2699765 0.9505094 0.62676567 0.51290375
마지막 0.381192 0.13211551 0.8808199 0.9768542 0.5548482 0.16941558 -0.0911517 0.2967758 0.7367962 0.39134946 0.39686906 0.31451732 0.26349014 0.17346577 0.4180466 0.66329676
끝 0.3486824 0.2616082 0.6365411 0.4907376 0.18270183 0.91200554 0.20794313 0.87645984 1.0358106 0.84380955 -0.040334687 0.4058461 0.65073144 0.1762232 -0.10840082 1.0163649
액션 0.9113017 0.54253644 0.771007 0.31146774 0.41779566 0.56803465 0.04843299 0.84165883 0.9790564 0.6483778 0.8651753 0.1639413 -0.033070683 0.36969754 0.6936302 0.94014716
이건 0.32749277 1.0448776 0.42980328 -0.071798 -0.0022607627 0.13474578 0.76957506 0.09340535 1.2105355 0.33615187 0.7067309 0.6181767 0.99825376 0.3592908 0.87156355 1.0647391
임 0.15668271 0.72566986 0.6848995 0.4482018 0.8844973 0.58702266 0.69061154 0.94556123 0.21711728 0.7361768 0.04546851 0.19921322 0.4710644 0.0044063716 0.32160896 0.39997223
건 0.6967543 0.6910889 0.26776564 0.73234797 0.5594919 0.69332093 0.44818106 0.3012622 0.32032475 0.89539427 0.6690172 0.4459532 0.6669341 0.9297401 0.5303075 0.9944214
ㅋ 0.64854187 0.27842796 0.13530335 0.39798403 0.5995901 0.0022782222 0.6444142 0.3328927 0.4937823 0.17564635 0.5985423 0.131255 0.20952037 0.45280617 0.86536306 0.41134548
3 0.7867927 0.64112616 0.5511246 0.7840516 0.08819273 0.18628545 1.1068074 0.8578288 0.5866268 -0.11494653 -0.06676223 0.6634294 0.71475774 0.8524381 0.50285554 0.4180798
기대 0.5612599 1.1353748 0.6287527 0.8509541 0.64244735 0.8605716 0.40120545 1.0645458 0.75087625 0.44667226 0.29868573 1.134721 0.8960047 0.9593558 0.6105015 0.6652033
입니다 0.8959657 0.7093624 0.710291 0.31449914 0.9791869 -0.11859124 0.6000868 0.66044784 0.44330838 0.8200633 0.8141628 0.3343484 0.5750375 -0.017307114 0.36017287 0.85554475
라는 0.22094361 0.17989567 0.6527335 0.53925216 0.6592538 0.3583346 0.5965458 0.7066211 0.8851232 0.61317474 0.46109334 0.67050904 0.1264435 0.40430942 0.33561006 0.700018
분 0.69332224 0.27538598 0.41742942 0.9562016 0.6716035 0.20306669 0.6642676 0.7089472 0.49067903 0.36038157 0.9955272 0.12938873 0.52690554 0.531625 -0.023616096 0.95213985
완전 0.16765657 0.52590996 0.698935 1.0741221 1.1522421 0.44252977 0.5884472 0.8750307 0.8847098 0.8413617 0.25918588 1.0757151 0.8446758 0.12931818 0.56340027 0.5345776
다는 0.7677758 0.57521176 0.35149473 0.23017915 0.7538263 0.8392386 0.87994826 0.3006512 0.5704575 0.4080714 0.5858603 0.45888984 0.5470081 0.17152607 0.37419134 0.86138934
참 0.8037628 0.39132544 0.5709956 1.0262517 0.85764974 0.46102375 0.87914324 0.39709708 0.011490477 0.52700067 0.4637857 0.108434185 0.38237992 0.8540063 0.4434308 0.36378244
많 0.82493746 0.06233392 0.3626637 0.95666313 0.18552448 0.7991044 0.071199246 0.53635097 0.8685695 0.6442305 0.10934518 0.45681664 0.42831966 0.06139764 0.7414059 1.0052468
처음 0.35622853 0.2662756 0.16490081 0.7555061 0.5095421 0.7184982 0.22422038 0.2952763 0.50855625 0.68075347 0.87335736 0.9167145 0.3022241 0.5151833 0.32412174 0.6980281
장면 0.20514822 0.5387269 0.2208625 0.8086388 0.20709124 0.5851514 0.84655774 0.6708939 0.6985596 0.2700451 0.7366779 0.29410943 0.21078952 0.3603124 0.7222087 0.8773858
대 0.402604 0.6770606 0.22593746 0.46578383 0.7476375 0.5038167 0.24965084 0.862497 -0.013255228 0.213074 0.55356735 0.77888036 0.37042794 0.58920324 0.15686938 0.930355
아깝 0.46526816 0.8583521 0.029529264 0.47422975 1.0017087 1.034315 0.80203885 0.55584186 0.49270707 1.1716061 -0.23628809 0.7757811 0.20095384 0.14597268 0.3166184 0.7419202
다가 0.8208037 0.8103979 0.0671241 0.34385914 0.23625006 0.17140654 0.30583972 0.40549812 0.8260327 0.8032695 0.643791 0.23387581 0.18003756 0.70976985 0.19512318 -0.10667738
으면 0.7056594 0.6773659 0.18444103 0.14927328 0.041784193 0.3910064 0.49448913 0.62062 0.93124586 0.32801688 0.3418684 0.2796331 0.15621543 0.16433755 0.5260204 0.36630842
지금 0.41321108 0.15652357 0.95673686 0.74183655 0.9494012 0.6093665 0.7017027 1.0232129 0.42404053 0.298857 0.36048192 0.5525314 0.3484773 0.131249 0.45153907 0.751495
모르 0.32345647 0.5403833 0.31744424 0.7687444 0.5002012 0.6451611 0.15398665 0.67983425 0.70322996 0.9586348 0.98290575 0.502505 0.8562715 0.4805899 0.7505015 0.809361
이렇게 0.34328517 0.11248725 0.324621 0.5728083 1.1501104 -0.060418326 0.08582278 0.12498915 0.89809364 0.36368108 0.9270975 0.7544876 -0.05275061 0.5676321 0.3706006 0.38266987
' 0.23590158 0.446037 0.9355648 0.6147442 0.5839088 0.2984723 0.65982246 0.62989855 0.41209254 0.5426334 0.79082364 0.0035431609 0.11606738 0.9049511 0.25220653 0.4718557
편 0.28677127 0.4763606 0.23217249 0.43366283 0.36857837 -0.003678556 0.685734 0.2869369 0.38024467 0.674109 0.6304083 0.477281 0.8483705 0.045477826 0.6204044 0.30495062
일 0.88019526 0.567122 0.6005534 1.0313915 0.04474422 0.43381846 0.58674407 0.58283144 0.7836009 0.6751418 0.3011379 0.78892726 0.55370677 0.22504279 0.6172892 0.5215541
성 1.132633 0.53380144 0.6641688 0.8948508 -0.10324972 0.9541214 0.9491836 0.6142154 0.91302097 0.74019986 0.89485544 0.9826956 0.706274 0.3694496 0.6335731 0.90244126
돈 0.1610092 0.5470944 0.17741627 0.35093728 0.059618324 0.29393503 0.7411186 0.7543565 0.8075617 0.5802663 -0.021456255 0.6403202 0.64887094 1.1031622 -0.055757307 0.75679487
이게 0.8046938 0.7029672 0.17602275 0.82850367 0.76523185 1.1262873 0.8582593 0.4657828 0.4224747 0.4322052 0.6970058 0.6020516 0.38299507 0.84701586 -0.052927267 0.42014316
느낌 0.1777717 0.7393206 0.37882823 0.81493527 0.46615767 0.24784093 0.30838925 0.9513417 0.43993095 0.46129534 0.5773321 0.13750395 0.19271867 0.8603856 0.039583817 0.33875695
시 0.4819135 0.6818653 0.8476893 0.829117 0.40715733 -0.03427155 0.59961945 0.7205947 0.9556249 0.686115 0.27749056 0.31184143 0.42053238 0.4720102 0.5886318 0.5142851
이야기 0.7985611 0.6999065 0.8451573 0.83380294 0.8442626 0.3224609 0.20692651 0.5590946 1.0326647 0.7639846 0.49423003 0.6552356 0.7999735 0.8184377 0.83148944 0.8344688
최악 1.199251 0.104286715 0.3432967 0.09851663 0.30975282 -0.004305031 1.0686306 1.0825005 0.1483632 0.95048994 0.89711607 -0.12417071 0.54133767 0.99415827 0.18509649 0.8959018
된 0.5563395 0.069072075 0.42238554 0.6489241 0.3329249 0.5421518 0.41256413 0.67099845 -0.003927451 0.9835328 0.19947654 0.6371464 0.084101595 0.16598798 0.8780549 0.2779105
봐도 0.57320297 0.22488658 0.6739953 -0.030193971 1.0474473 0.43826258 0.06779285 1.0563887 0.713786 0.08475937 1.0254707 0.054598197 0.631863 1.0911851 0.05229335 0.31014588
님 0.27831987 0.10046276 1.095448 0.4356078 0.59716105 0.19429752 0.10840441 0.7273674 0.89664596 0.60912454 0.19337822 0.35299802 0.12392642 0.42951736 0.3032213 0.48378545
어서 0.09610017 0.0844378 0.6576582 0.6461131 0.5422163 0.8455263 0.586769 0.6719042 0.5677908 0.27626732 0.05537385 0.56017226 0.24338661 0.8781367 0.9035971 0.8622661
애 0.9927816 0.660339 0.26277825 0.4319523 0.26862118 0.8108169 0.38516197 0.7916395 1.1449746 0.45672205 0.53671104 0.011823725 0.79783255 0.7855427 0.2517026 0.9548101
전 0.94098485 0.7756885 0.7642268 0.81978226 0.6008513 0.48375198 0.5713534 0.7618064 0.83207947 0.6695834 0.61661506 0.19664708 0.4697449 0.8239717 0.63665366 0.49033937
넘 0.95626074 0.8447784 0.45122135 0.3974397 0.7608276 0.047495965 -0.04352205 0.31165272 0.7798787 0.5971212 0.52833444 0.32205763 0.72111475 0.73792267 0.75180846 0.6347168
ㅠㅠ 0.81842107 0.5203367 0.839167 0.17408893 0.38491002 -0.056053825 0.8032258 0.60906726 0.7096448 0.5929199 0.21035738 0.1001874 0.60764426 0.027138654 0.7222651 0.1610596
다고 0.9240326 0.48972955 0.6225333 0.62790483 0.34713948 0.6249439 1.0243069 0.2610288 0.78500724 0.18555473 0.78601927 0.6993727 0.2795487 0.34385422 0.25697502 0.60266703
인데 0.28174886 0.5166406 -0.009688825 0.6358728 0.44129232 0.3371529 0.23582926 0.24612843 0.65552205 0.3789929 0.30286276 0.2151709 0.83135384 0.34393227 0.38884613 0.64774215
그리고 0.6653475 0.8923419 0.5744819 0.9240809 0.69164777 0.16629395 0.7684077 0.49135622 0.35847968 0.6131823 0.38603276 0.34875917 0.5079038 0.083884455 0.59194523 0.26361793
명작 0.8797206 0.6040664 0.87011355 0.7544566 1.0795244 0.88555086 0.78547776 0.8277208 0.15667912 0.7666459 0.6921813 0.14439368 0.31029353 -0.26905474 0.39276844 0.19050252
여자 0.73554444 1.0229337 0.024282135 0.7074272 0.5736275 -0.06579312 0.71455246 1.0293016 0.66852903 0.8218345 0.4455984 0.8149303 0.7354857 0.57709914 0.14747688 0.76146597
이해 0.8066976 0.227659 0.12802355 0.12543142 0.85112166 0.57348305 0.28312442 0.9764955 0.825077 0.54102945 0.33952934 0.7841356 0.6683921 0.39257756 0.3303012 0.3419827
^^ 0.6992748 0.8776239 0.4438252 0.30600098 0.91401005 0.77827084 0.77639365 0.1110771 0.8499467 0.12149484 0.30107275 0.07296842 0.3455867 0.09825384 1.0040742 0.76077235
난 -0.090091854 0.71491796 1.001045 0.9134983 0.27506858 0.39696908 -0.13056764 0.7789729 0.49077773 0.6918254 0.45071796 0.5732298 0.8139253 0.6096364 0.328247 0.62568134
역시 0.35760486 0.24477011 0.82409143 0.9340034 0.8975853 0.5904441 0.71971816 0.30692354 0.0464719 0.6322422 0.79558575 0.073753625 0.8772453 0.41635782 0.77102846 0.17769638
또 0.18180445 0.022102764 0.3043051 0.40857744 0.18055391 0.3326665 0.24004298 0.74457324 0.84274864 0.37881994 0.92713255 0.5717411 0.08266941 0.14877391 0.83822715 0.26189142
걸 0.25481158 -0.008426206 0.581151 0.9115748 0.01290436 0.3245145 0.4825506 0.6744494 0.9142706 0.3492555 0.20523173 1.1857288 0.5994663 0.6397459 0.4629415 0.74167997
한국 0.9680731 0.44604078 0.49732327 0.5301027 -0.078210495 0.7754275 0.87100995 0.07728629 -0.027820518 0.09719105 0.5882828 0.91237324 0.70693386 0.37553594 0.9311435 0.5226681
이상 0.26147106 0.12605664 0.43811107 0.74486697 0.44141796 0.60989296 0.5145191 0.6210142 0.5199499 0.37636548 0.017663537 1.0823122 0.61841494 0.72345275 0.8627793 0.70366174
부터 0.56965333 0.4157238 0.38327593 0.50595546 0.4578703 0.3889961 0.8073769 0.75580657 0.77300596 0.64316535 0.5234898 0.70702136 0.64280707 0.51675045 0.5533671 0.83868563
는지 0.2895336 0.27533418 0.8658134 -0.05971695 0.15132202 0.79541624 0.42048094 0.18053448 0.19377582 0.5873432 0.749843 -0.006328213 0.06917549 0.24349985 -0.038216718 0.65027255
많이 0.33528733 0.058279492 -0.21583696 -0.0032715942 0.34569773 0.82349235 0.3367264 0.5133304 1.0234416 0.14706992 0.48303258 0.5258029 0.013625004 0.3352413 0.86267865 0.48214734
에게 0.21872313 0.19669266 0.8155216 0.50019425 0.17898391 0.39486068 0.6470275 0.24832124 0.29782322 -0.04267774 0.63898027 0.62830675 0.2274086 0.47437745 0.09286166 0.38339058
주인공 0.23336416 0.23543811 0.73812455 0.81616354 -0.02896197 0.6468031 0.3116947 0.3325873 0.45973724 0.7050219 0.5823988 0.8496475 0.4606054 0.5853161 0.30463567 0.9728184
별로 0.84065086 0.7227762 0.32862353 0.48292762 0.31840527 0.088500336 0.7578784 0.14589684 0.5090178 0.3107441 0.6180744 0.7524493 0.03353211 1.1686035 0.44936818 1.1168263
받 0.27367333 0.9323541 0.31431213 0.9023264 0.57990485 0.21720962 0.24150395 0.1849973 0.4411267 0.4405394 0.14521663 0.2165965 0.77502173 0.7043259 0.64086735 0.65967387
합니다 0.7748126 0.6215346 0.6483027 0.3282608 0.1506393 0.18013516 0.14744315 0.7986897 0.58095145 0.7655332 0.4471391 0.32365486 0.17272635 0.23531963 0.26324067 0.32743326
두 0.7547975 0.54686564 0.33527333 1.0542486 0.572649 0.6772243 0.56121564 0.00935732 0.4520138 1.0339372 0.6590367 1.1215703 0.8986663 0.23669559 0.41109338 0.24482276
우리 0.23930031 0.76663786 0.6787921 0.3080005 1.1305991 0.4859747 0.80118823 0.52128303 0.04937227 -0.19887546 0.68897796 0.9023293 0.9638665 0.46090275 0.30090848 0.6985116
만든 0.9163096 0.6756755 0.9677829 0.43473488 0.8515207 0.61115813 0.66914266 1.0100405 0.048256725 0.20321123 0.7754859 0.15922476 0.0033918882 0.59143627 0.00445498 0.7184394
살 0.7190329 0.79976314 0.7179914 0.94861096 0.43842882 0.31106743 0.2965329 0.5385594 0.41948763 0.34555265 0.33057407 0.85070795 0.873068 0.39588785 0.78897035 0.6775149
!! 0.14752921 0.6980124 0.34171072 0.50950634 0.20520112 0.795548 0.23757656 0.6778806 0.7410369 0.4896522 0.31418565 0.6908774 0.35024437 0.14671808 0.41216514 1.0322871
길 0.08314932 0.19172642 0.7638598 0.42617366 0.6773606 0.3522526 0.17798023 0.22901325 0.7311593 0.38946047 0.08607129 0.23904602 0.35729066 0.22437975 0.04965683 0.45403543
엔 0.26178887 0.6144628 0.5608238 0.6698754 0.6509317 0.6680272 0.98107415 0.35339665 0.18568793 0.28933048 0.13816923 0.40440366 0.08675567 0.3941981 0.62818384 0.70930487
괜찮 0.29303065 0.36463508 0.9468617 0.6541211 0.29072896 0.32973537 0.18770385 0.68272185 0.7016007 0.07525875 0.5918327 0.25085443 0.42337933 0.17896487 1.0941546 0.3003769
기억 0.21189329 0.3111938 0.98976254 0.17029013 0.72400796 0.35108885 0.15030882 0.4607825 0.75419974 0.14320323 0.26636598 0.18102187 0.8000038 0.41062883 0.45281377 0.23315199
연출 0.25452977 0.41569644 0.94245684 0.98277044 0.15973976 0.44382662 0.22257234 -0.19224527 0.6285499 0.6061182 0.30966264 0.34105414 0.785019 0.2673819 0.5182446 0.52029556
한다 0.39210376 0.72947526 1.0068408 0.5351889 0.5757012 0.5305059 0.7029684 0.7793482 0.935641 0.30665147 0.84801966 0.8642321 0.5903969 0.5016312 0.36431974 0.37406382
때문 0.36464748 0.4537237 0.6147829 0.2948728 0.51680213 0.383777 0.10986559 0.091918565 0.60546726 0.02360108 0.6038892 0.7150666 0.7111881 0.3321034 0.17345065 0.7606058
ㅎㅎ 0.49795637 -0.11101 1.1390811 0.3864056 0.07951217 0.9595712 0.34537265 0.8451571 0.2097553 0.19087519 0.6883366 0.48760897 0.5637891 0.38913727 0.85867953 0.7703746
이나 1.0589162 0.37992334 0.14027844 0.8917806 0.22735335 0.11476475 0.86598915 0.32787204 0.6340814 0.19552857 0.32625112 0.6888082 0.11336969 0.32072154 0.31207675 0.55511737
요 0.24276997 0.2642962 0.7661863 0.75714934 0.93326795 0.21638347 0.20105733 1.0323398 0.7163134 0.8363073 0.8426545 0.9289549 0.30776566 0.6113679 0.3035497 0.56130975
저 -0.048256777 0.22992016 0.47522548 0.39509013 0.25202596 1.0418526 0.88656217 0.115059614 0.28985178 0.015456587 0.9020812 0.7351942 0.015922565 0.61087936 0.81450313 0.68385
재 0.7777548 0.30825365 0.8424276 0.7504338 0.70580924 0.5999419 -0.016417248 0.98523015 0.5769018 0.49408084 0.7213675 0.4357171 0.54058486 0.9944293 0.6994589 0.28417405
꼭 0.56513584 0.36143506 0.69874793 0.36331528 0.1816792 0.035780106 0.022850571 0.52515644 0.64605355 0.16782767 0.51419634 0.6735398 0.20962037 0.2934503 0.7663433 -0.0028484168
며 0.4936667 0.8603009 0.28031027 0.5415678 0.52900815 0.1028725 0.8238586 0.3469622 0.68076146 0.25868082 0.94069403 0.76826316 0.4196851 0.19186267 0.8707878 0.24939269
현실 0.0064408425 0.25112277 0.40037498 0.60191613 0.47364262 0.6438366 0.3463267 0.42292282 0.6447474 0.18091325 1.0496897 0.28954804 0.74384344 0.23948176 0.7537332 0.19269472
랑 0.8393357 0.06713265 0.6990045 0.60519594 0.2140913 0.9507299 0.8380727 0.58539736 0.17964236 0.34422863 0.19615556 0.5807203 0.29829085 0.69955784 0.41252252 0.48716274
긴 0.5668517 0.48213848 0.47842145 0.51721096 0.33405194 0.2497976 1.0604358 0.24907161 0.38468984 0.7737411 0.5737282 0.18999639 0.7032595 0.52797776 0.5584614 0.83224255
ㅡㅡ 0.3646468 0.7746064 -0.112360805 -0.12959903 0.9867175 0.9444849 0.38670695 0.35488385 0.51688683 0.32794118 0.12863134 0.84277093 0.15312937 0.12235601 0.74850357 0.22799705
무슨 0.25674254 0.27137092 0.36072397 0.28564844 0.45695543 0.33216488 0.21587518 0.46079242 0.2311374 1.0051478 0.98836726 -0.09913613 0.04257604 0.30017412 0.08079246 0.8131524
내내 0.7203166 0.34481934 0.6312855 0.054958235 0.8583304 0.77561945 0.74414235 0.3174828 0.6396233 0.21518768 0.7456249 0.3434188 0.9214354 0.70624197 0.30753833 0.7181654
결말 0.063396476 0.240449 0.07836167 0.4970132 0.7938626 0.49614805 0.29851997 0.71232677 0.88383543 0.40377995 0.1141102 0.063181005 0.16664396 0.2688653 0.44177043 0.6736444
죽 0.23451969 0.7735629 0.30150598 0.33469978 0.3296619 0.05935203 0.02711292 0.40550599 0.6698939 0.8573159 0.13928801 0.42042592 0.5407837 0.4808201 0.67121035 0.59719193
세요 0.5459982 1.0858506 0.65694296 0.33876818 0.4181889 0.23874098 0.66871506 0.018825794 0.6687721 0.27354228 0.57191503 0.14662488 0.08446487 0.31691322 0.12237997 0.68032247
남자 0.38069478 0.55233574 0.7827243 0.63921285 0.5921676 0.32379776 0.28364176 0.77190685 0.35255477 0.7858102 0.58845466 0.7253677 0.41338128 0.3784128 0.03624911 0.71233416
전개 0.61143523 0.7454817 0.8908594 0.53948486 0.24848399 0.13401955 0.4135386 0.50712425 0.39457843 0.21901593 0.9904752 0.9465275 0.20421483 0.9286194 -0.017388187 0.9145918
마음 0.8508485 0.9562296 0.4705417 0.2526941 0.7339101 1.0612358 -0.03980253 1.0943533 0.9417068 0.13112685 0.24408256 0.67821616 0.5627994 0.2763246 0.6039605 0.39684665
별 0.93568087 0.14444573 0.29298142 0.2439839 0.52794546 0.2667396 0.6755585 0.06075993 0.8540183 0.4386022 0.26306713 1.0374384 0.37755728 0.3227755 0.2950267 0.17610277
소재 0.6312249 0.75515026 0.09644141 0.020951983 0.52158743 0.9450414 0.552883 0.5329811 0.864582 0.5264778 0.791414 0.9575013 -0.11883321 0.44743466 0.37547818 0.22395475
속 0.6801818 0.084585994 0.83096343 0.17508921 0.42349744 0.9298622 0.07492431 0.93932337 0.9292194 1.0235786 0.21543369 1.1737713 0.09726264 0.30478993 0.9046618 0.5070373
공포 0.66415435 0.39631784 0.14412607 0.63089675 0.7226749 0.8087543 0.48394513 0.2801007 0.17170249 0.9168426 0.6211028 0.58402556 0.058109637 0.28299984 0.42735156 0.30192062
다른 0.97077155 0.6419334 0.387822 0.74557585 -0.019864945 0.82482547 0.4989461 0.31141382 0.49445966 0.45019308 0.33883274 0.5653493 0.89749193 0.4446068 0.57569486 0.15029564
아서 0.20969267 0.33481103 0.80745226 0.1542281 0.40309793 0.83078545 0.17447792 0.4835525 0.6335569 0.24719371 0.8687813 0.7641075 0.81315935 0.48584202 0.3286258 0.77767956
씨 0.7236036 0.4447337 0.5323539 0.4987882 0.58589554 0.16670546 0.9317706 0.41594154 1.0219564 0.41554525 1.0858502 0.92109215 0.5523854 0.19216476 0.4424294 0.1832811
인생 0.9975974 0.95812404 0.5457459 0.29714653 0.6894778 0.7710632 0.5569546 0.4150391 0.80521464 0.6552946 0.98728204 -0.086756535 0.3234801 0.5502896 1.0730783 0.41449368
~~ 0.3570808 0.7041283 0.43352568 0.27020368 0.57062274 0.11346511 0.2387944 0.94481146 0.40737483 0.2728065 0.5131945 0.6284662 0.29064634 0.27998802 0.5653133 0.7493454
짜증 1.1217916 0.45694992 0.5362477 0.52366775 0.52521384 0.38158676 0.6526812 -0.035845242 0.029783342 0.4814658 0.46936145 -0.114384286 0.39727172 1.0495979 -0.09258708 0.5563527
짱 0.94633394 0.11279306 0.4520625 0.95883757 0.516515 0.7867704 0.106923155 0.71966857 0.043428004 0.131966 0.3354554 0.6388873 0.7763758 0.5858105 1.1583282 0.8622118
뿐 0.21421827 0.28774622 0.53713244 0.6336196 0.044126056 0.069730364 0.95905715 1.0320268 0.5284742 0.37541345 0.56650656 0.44445956 0.54890466 0.94517654 0.08803109 0.5531415
은데 0.7713046 0.6881436 0.23084378 0.16032104 0.68754774 0.74431056 0.15536776 0.34110472 0.22321552 0.5848456 0.523799 0.8361271 1.0766902 0.44236347 0.3479096 0.42385623
아요 0.5676075 0.4673286 0.801561 0.32594484 0.8993793 0.116006464 0.13674347 0.26545277 0.783009 0.5992786 0.45569152 0.5796054 0.4603754 0.9348373 1.0637411 0.41570857
유치 0.39502677 0.35866216 0.71693164 0.17747736 0.42527637 0.89436734 1.2576972 0.3020819 0.41129544 1.260365 0.049648073 0.1778631 0.24298222 1.0773263 0.5789366 1.0421786
필요 0.44914442 -0.18509522 0.38854086 0.65839744 0.868525 -0.13804413 0.20186856 0.15137799 -0.046268973 0.024787562 1.195272 0.53173983 0.5135337 0.68558764 0.9755013 0.805956
가장 0.2808092 0.65651995 0.56874114 0.21546386 0.2270655 0.19103742 0.121810086 0.1632066 0.23616786 0.08753749 0.2236828 0.112811096 0.7867854 0.7551535 0.28004786 0.21426167
음악 0.69755197 0.28964934 0.54197323 0.24073766 0.8656577 0.26922715 0.29547346 0.4077005 0.30169 0.8739548 0.60260546 0.38329026 0.78516257 0.24516803 0.9119146 0.028987953
) 1.1036975 0.17899607 0.37155157 0.51642406 0.18281509 0.66962445 0.8067489 0.7042123 0.8274235 0.3781396 0.5685039 0.62045896 0.35886607 0.35930467 0.39733064 0.6153869
일본 0.8824525 0.033876155 0.89880556 0.40549096 0.2991051 0.74203855 0.74263525 0.31396902 0.86517394 0.91833544 0.2015179 0.19454671 0.3818146 0.6107792 0.2887115 0.904615
낮 0.55083716 0.6774206 0.24631765 0.60474545 0.24162124 1.0567551 0.801559 0.051354747 0.74754626 -0.1591639 0.70003283 0.42620435 0.6340114 -0.06806887 0.88195056 0.55409044
오 0.67551506 0.107654445 0.4117135 0.44727477 -0.006912396 0.17790435 0.33953142 0.7893641 0.34251288 0.40116733 0.95405483 -0.031150306 0.87925804 0.19990219 0.5008905 0.52128947
;; 0.24869546 1.0430907 0.29095608 0.09448794 0.29000822 0.5608506 -0.10681271 0.76557595 0.929423 1.0017215 0.68320155 0.7551538 0.26163802 0.9772902 0.5603406 0.49265867
아이 0.47078377 0.8267621 0.91891676 0.11636084 0.17667308 0.47276253 0.67957985 0.46325514 0.5742803 0.5220063 0.6738347 0.09073678 0.5569332 0.050944358 0.12584858 0.51291925
반전 0.92654985 0.14468616 0.83105266 0.72903234 0.6226535 0.87064666 0.8513113 0.8033413 0.27626294 0.18848352 0.105180144 0.33403724 0.49282146 0.8081112 0.91268206 0.34655893
데 0.72130483 0.10382965 0.6269701 0.34934312 0.40599242 0.73489326 0.9028737 0.31049725 0.5280295 0.7405428 0.8970983 0.31171176 0.21343368 0.2400361 0.8228992 0.5840191
수준 0.09261226 0.7360583 0.23427579 0.37767628 0.2486838 0.96286654 0.69914395 0.0013757828 0.47630996 0.3693852 0.59815264 0.34024635 0.18773456 1.1116053 0.46183974 0.77004033
다니 0.42304483 0.28608078 0.3328281 0.4204043 0.8187417 0.76987153 0.6754637 0.68034005 0.40016016 0.77975726 0.89574045 0.9387467 0.9034447 0.26412177 0.6465432 0.38869867
웃 0.48966447 0.089000255 0.6990493 0.53208613 0.11638199 0.7562567 0.7480764 1.0738015 0.6951005 0.68719274 0.21202275 0.4187134 0.47571343 -0.010121017 0.32119885 0.4592793
매력 0.74158275 0.67577314 0.8445508 0.26523557 1.0786686 0.6208479 0.31209454 0.684883 0.3839461 0.45070755 0.7553669 0.6711779 1.0652083 -0.0016166046 0.5318071 0.96322846
맞 0.042289082 0.8180386 0.11644159 0.08143926 0.47459677 0.39717048 0.8437521 0.9582443 0.27137113 0.1315898 0.37927797 0.6078026 -0.021371955 0.64989835 0.77405614 0.5225646
인지 0.83601725 0.780297 0.5984755 0.9610872 0.020781089 0.25318897 1.0092504 0.8269848 0.9089327 1.054552 0.77457917 0.26357087 0.75722533 0.48131126 0.069386825 0.5131204
가슴 0.9744945 0.48329517 0.84322864 0.6598657 0.74050987 0.13099763 0.6427928 0.32668138 0.12231561 0.6063305 0.5500328 0.9345897 0.9881104 -0.21589792 0.58431995 0.35574147
없이 0.69750667 0.37691095 0.4873911 0.47235468 0.6407166 0.2701673 1.088497 0.72258466 0.81703776 0.6659228 0.65028435 0.2540765 0.7689621 0.54683936 0.38231012 0.18498598
원작 0.9514421 0.52021235 0.35280615 0.6177367 0.6424912 0.3988238 0.85352296 0.2897761 0.79145414 0.57011 0.17192368 0.16975036 0.16173111 0.71110326 0.28315333 0.29625854
ㄷ 0.3072523 0.6512069 0.7934593 0.20449115 0.7658228 0.51528364 1.0570468 0.7905317 0.311057 0.8528227 0.59011763 0.61451554 0.8850059 0.06851338 0.38945135 0.4638688
인간 0.37087792 0.50908744 0.96621245 0.51065 0.53629804 0.6358497 0.734529 0.34362012 0.3879195 0.068606146 0.8042287 0.43888298 0.84990734 0.26515007 0.63926893 0.33874452
굿 0.41357103 0.942067 0.2960409 0.96403027 0.47107503 0.8092078 0.8024176 0.31465122 0.112644024 0.1398539 0.904522 0.07969251 0.15770419 -0.16967636 0.63100773 0.26192203
높 0.6778807 -0.352683 1.1190538 0.721909 0.4201184 0.25195637 0.95457006 0.12115141 0.2939397 0.7755258 0.7739848 0.81956583 0.33716282 0.83247566 0.48970193 1.1444995
ㅠ 0.7069448 0.52397823 0.2288579 0.32541287 0.120836586 0.45829046 0.2589209 1.0141503 0.42699116 0.7153149 0.12849425 0.18949191 0.67264146 0.33657706 0.80335397 0.54233915
밋 0.42328146 0.65850824 0.91908556 0.6714612 0.17684557 0.8948846 0.15169564 0.114589326 0.8965665 0.012325236 0.70243096 0.27665535 0.87912375 0.78676724 0.41920397 0.08215247
( 0.34641635 0.32253286 0.658921 0.52765244 0.58492374 0.74683356 0.43950853 0.12145602 0.46158412 0.193216 0.8436756 0.7756687 0.18504229 0.4085135 0.68621063 0.76240784
급 0.15691662 -0.09678469 0.25888285 0.8645481 0.6541137 0.678411 0.67979 0.059272043 0.5963251 0.65044576 0.728779 0.23415327 1.1696094 0.36003244 0.15748505 0.9703115
만드 0.11618399 0.22056353 0.5241015 0.51161367 0.64250207 0.77030045 0.32190728 0.42988878 -0.06713917 0.87689835 0.16513945 0.757575 0.84182656 0.5535713 0.89370507 0.7984874
눈물 0.16406615 0.3874529 1.2584808 0.71140444 1.0456558 0.24264796 0.18401326 0.94085044 0.77647257 0.21856038 0.6991197 0.3296235 0.75942284 0.2942548 0.39634573 0.1570298
보여 0.18319239 0.57001513 0.07588673 0.86666006 0.34128246 0.75207865 0.87284005 0.47367233 0.11715832 0.17561053 0.7400804 0.77525836 0.37241837 0.84753597 0.9317064 0.38535824
준 0.346373 0.20136607 0.8283983 0.5178317 0.0632343 0.5889259 0.46441236 0.5950326 0.14804214 0.46719232 0.67504424 -0.031363092 0.41902086 0.1909955 0.8311479 0.85776126
찍 0.06065264 -0.043033306 0.3252617 0.5637235 0.8106614 0.40116033 0.12694022 -0.20389757 0.9155551 1.0071564 0.09828975 -0.0068660686 0.85046643 0.7477397 0.9067296 0.38505644
인가 0.44927886 0.31171173 0.722877 0.2007126 0.7864429 0.5886099 0.09518679 0.21040058 -0.11124532 0.7958034 1.2411947 0.68393314 0.44160488 0.4905232 0.43368268 0.76189107
노 0.4806554 0.0042749858 0.05995358 0.403703 0.6885 0.09459898 0.31786442 0.38571683 0.2860847 0.84619457 -0.015202495 0.9522977 -0.06608622 0.8213158 0.54212964 0.98622966
용 -0.02925496 0.39335835 0.38070554 0.76368344 0.46811387 0.7350364 0.7821269 0.49419698 0.51881874 1.0552574 0.32941365 0.1861464 0.4199964 0.45624158 0.21358243 0.44030958
을까 0.38700485 0.45921326 0.13015747 0.5715699 0.4838206 0.31304154 0.61890167 0.15069623 0.61734766 0.32978183 0.327772 0.39530995 0.98555195 0.7585411 0.76851714 0.27503982
화 0.05326209 0.27849144 0.18851234 -0.2088497 0.6164577 0.98356426 0.87560725 0.64228994 0.37368995 0.52452195 0.40210414 0.7987548 0.44355753 0.23679768 0.68429655 0.9694163
코미디 0.36419275 0.9098972 0.46866834 0.40098888 0.06308615 0.64291525 0.6572314 0.71385354 0.28411332 0.83555424 0.5168665 0.24013552 0.5210608 0.90375614 0.70933986 0.15926577
여 0.08791142 0.84559226 0.032784786 0.039596885 0.33442655 0.31981495 0.4934719 0.30598873 0.7401088 0.09269429 0.55312127 0.50955963 0.7931867 0.86043507 0.27749574 0.3666553
마 0.5747488 0.0518814 0.38073498 0.45446792 0.36524868 0.060874946 0.58661926 0.52799153 0.28937665 0.76844144 0.7232087 0.46408775 0.21979618 0.4662729 0.5584283 0.570573
쓰 0.14941266 0.6954648 0.13139011 0.30696744 0.14956154 0.11364984 0.52873176 0.76020515 0.30162472 0.7134628 0.9923088 0.24314542 0.80852133 0.25506735 0.45306957 0.77799624
모든 0.563743 -0.206566 0.87842435 0.37009957 0.6445167 0.45503253 0.058855124 0.14326909 0.54049414 0.3463089 0.8714021 0.4687826 0.40334645 0.18744467 0.66973984 0.1606854
신 0.2626036 0.16543865 0.38389683 0.6686263 0.45780987 0.036669895 0.36466414 0.8026194 0.58052367 0.21733855 0.62060326 0.041159097 0.82591474 0.7448871 0.5045278 0.59129107
5 0.5125136 0.7491778 0.5964381 0.2683043 0.58880776 0.19654962 0.7975386 0.3216547 0.26435643 0.13213553 0.95298564 0.8535653 0.748345 0.46316946 0.5474128 0.26050594
아직 0.6766925 0.6688205 0.46357396 0.36099026 0.75493294 0.75668234 0.40531534 0.95287484 0.7942245 0.2776262 0.90645266 0.78923583 1.0540804 0.647332 0.37206584 0.039856564
처럼 0.15163112 0.059721913 0.9325549 0.50320953 0.5036252 0.09081845 0.7549823 0.57036036 0.61096317 0.7187636 0.45809308 0.5612375 0.62034893 0.054197658 0.5752799 0.6351383
눈 0.2823146 0.44586834 0.450544 0.55604553 0.009840833 0.4288904 0.48939717 0.9482589 0.11492207 0.45848596 0.2535875 0.18325213 0.60096014 0.4437542 0.53290194 0.83376294
추천 0.810684 0.32938474 0.34498048 0.44924 0.6012073 0.61003876 -0.026046278 0.9321647 0.5943275 0.43691802 0.67755413 0.8950014 0.86616254 0.36919385 0.8714262 0.29653472
아닌 0.72824484 0.26019007 0.66315013 0.14955096 0.6555527 0.53009844 1.068302 -0.04875166 0.74311984 0.37686664 0.4962119 0.57039946 0.05883205 0.71771693 0.66932946 0.8878405
울 0.050999135 0.63782334 0.91823465 0.70270306 0.93223196 0.06522849 -0.040729176 0.3759279 0.3500655 0.15892532 0.22368786 0.39812833 0.36496985 0.6815274 0.9148948 0.03503994
자체 0.41158313 0.000986543 0.6253732 0.14437854 0.9198424 0.20705378 0.79372513 0.4895957 0.8652264 0.71270335 0.9399546 1.0001371 -0.031241242 0.470217 0.8934447 0.3901235
몰입 0.4169961 0.9113103 -0.046767857 -0.0901447 0.41436744 0.36524996 0.38339737 0.2631661 0.3554412 -0.03944449 0.5569314 0.21984322 0.24952108 0.19483958 0.9847214 0.71023166
4 0.38598195 -0.20368333 0.4655271 0.627322 -0.0074005495 0.26718467 0.5434276 0.097378075 0.46869496 0.29182303 0.03891982 -0.091220595 0.67568105 0.5110001 0.20918126 0.34507257
대박 -0.015001354 -0.023193631 0.4113674 0.85679513 0.86198527 1.1638396 0.5774639 0.47449148 0.70349455 -0.25820124 0.61241525 0.16912395 0.45905495 0.19327892 0.48262268 1.0163715
몇 0.3889285 0.8254135 0.69754916 0.5731276 0.55032855 0.3862737 0.5399433 0.5983163 0.43739697 0.5939456 0.68592453 0.33170366 0.6645868 0.77296734 0.66235614 0.094018385
스럽 0.44253108 -0.03188574 0.63449967 0.5609215 0.7618898 0.1780057 0.8345226 0.94191915 0.75928503 0.5263792 0.05433705 0.7354114 0.17337893 0.4353645 0.96425027 0.68785846
실망 0.022843258 0.7926579 -0.06373471 0.028866345 0.4255243 0.99226445 0.4151448 0.14898075 0.7360504 0.76968724 0.050188463 0.74980843 0.23757945 0.27715367 0.679032 0.069556154
는다 0.6857244 0.31054568 0.8130574 0.012638249 0.5457306 0.749872 0.6276856 0.09399754 0.32432514 0.63827115 0.9974282 0.616271 1.0848192 0.41496924 0.23553948 0.9124289
대한 0.80101645 0.56666315 0.7492924 0.0982879 0.99907064 0.619315 0.41435724 0.05764125 0.8606407 0.25670812 0.84987265 0.12934913 0.77894515 0.060534038 0.104470514 0.07862997
죠 0.66987926 0.47325447 0.9736428 0.47341138 0.23955375 0.7448864 0.5263002 0.6267704 0.74768484 0.52292204 0.9323699 0.33454713 0.4994299 0.10993894 0.6392011 0.25416434
란 0.738578 0.1668745 0.8218022 0.253762 0.9466838 0.3744681 0.5196728 0.66911685 0.9109416 0.67322755 0.25575915 0.9872212 0.6033156 0.30855966 0.23131016 0.05860727
그런 0.13720188 0.97605556 0.6932907 0.5932656 0.28091398 0.7580342 0.20665348 0.87211794 0.5622233 0.6146277 0.8683952 0.76392674 0.41624638 0.91289276 0.53612363 1.0235378
솔직히 -0.08726996 0.6763355 0.2636089 0.28952473 0.55448955 0.9255652 0.37620118 0.6641048 0.040955223 0.5058687 0.7599839 -0.10394175 0.22227226 0.75751513 0.14487083 0.669967
캐릭터 0.4422962 0.41627505 0.7875142 0.31070924 0.59292275 0.12909926 0.79207534 0.24136296 0.39690012 0.36734998 0.71928924 0.25225636 0.580576 0.73844326 -0.0768938 0.28028166
ㅎ 0.7158078 0.5687978 0.3991365 0.7784619 0.7881633 0.06886628 0.110811904 0.8486148 0.7986174 0.6861833 0.68336344 0.7051811 1.0165303 0.433425 0.6321554 0.40240455
모두 0.36288175 0.3647525 1.0652223 0.5378346 0.80838823 0.4983408 0.82494617 0.5367384 0.42583638 -0.04061116 -0.07321082 0.92846215 0.8473093 0.2790244 0.8207708 0.6637925
아주 0.54432887 0.34919387 0.7219696 0.9341528 0.23024708 0.43080193 0.077022545 0.6296367 0.23253708 0.91047645 0.83510554 0.44554788 0.8418914 0.36579558 0.17329551 0.24367382
- 0.820303 0.37205294 0.54217786 0.8545926 0.5556436 0.6748561 0.93213654 0.80176216 0.98362505 0.19339164 0.19169275 0.27278608 0.3195712 0.54986066 0.09578998 0.24360281
가족 0.33502334 0.7610096 0.49820083 0.6110378 0.70455426 0.2858984 0.41452587 0.22435199 0.53763306 0.4006499 0.745303 0.563856 0.7032184 0.42246655 0.32380655 0.3652527
여운 0.40634346 0.41471243 0.8117738 1.12856 1.1199982 0.7631539 0.29094288 1.0506685 0.45274848 0.70236105 0.66571593 0.16441388 1.0941079 -0.0018965681 0.28632072 -0.13260517
건지 0.7201516 0.6940868 0.28591517 0.6015115 0.7078029 1.0767267 0.60004777 0.08924502 0.19459389 0.2510332 0.2083186 0.0574215 0.22659637 0.55964136 0.026252838 0.13241799
전혀 0.41085848 0.8634929 0.18845306 0.31369114 0.057400797 0.6120014 0.5580176 0.47383758 0.44135872 0.96581376 0.081627846 0.8897496 0.72638535 0.57319254 0.5301719 0.33115953
나라 0.26259094 0.5988808 0.15408875 0.74649787 0.920938 0.19219768 0.83964556 -0.019385198 0.5825947 0.31314605 0.40156266 0.76842445 0.72040623 0.10190535 0.36143953 0.51338255
연기력 0.35838896 0.87757725 0.46465644 0.80532044 0.3265697 0.30198056 -0.07329552 0.1217574 0.33923608 0.5405345 0.6347025 0.41630614 0.8675696 0.5342869 0.22981928 0.7677488
후 0.1819831 0.5952958 0.19438909 0.44732884 0.49764192 0.3631127 0.056961123 0.8496102 0.47525582 0.8173796 0.038280975 0.826958 0.9346634 0.20128544 0.87476915 0.8576791
다면 0.48948947 0.7802802 0.55213636 0.6931521 0.7413622 0.66453093 0.44512695 0.6566105 0.5781696 0.3265474 0.5929337 0.92935765 0.24762267 0.6505503 0.4103 0.16434172
될 0.5741483 0.5416808 0.4101704 0.53609 0.61709094 0.16468695 0.7961087 0.94957465 0.78554285 0.32601085 0.55288213 0.7021571 0.7234453 0.72412884 0.10291391 0.31277913
뭔가 0.392068 0.7487691 0.6826848 0.81567633 0.82167417 0.2841112 0.25933766 0.70859027 0.33700895 0.71319896 0.5167813 0.053833067 0.2685683 0.47902778 0.18547677 0.5807558
그래도 0.8618754 0.59021485 0.20891497 0.93264705 0.588983 0.69860095 0.19257969 0.74089175 0.8993072 0.31762394 0.20777005 0.32566318 0.27285665 0.6986905 0.6402365 0.12184829
; 0.4254367 0.744248 0.86751336 0.94216025 0.8274163 1.0568401 0.91202676 0.9843476 0.38110015 0.98862046 0.31158736 0.4339957 0.14653248 0.5414942 0.77585137 0.7072571
시리즈 0.4290459 0.46304122 0.4679465 0.4095392 0.5984203 0.12901866 0.14641185 0.292835 0.65991825 0.7473284 0.5576101 0.30898103 0.46231383 0.09805173 0.8096568 0.37926808
근데 0.6028447 0.34640628 1.0103186 0.22930181 0.86584276 0.28861442 0.23271643 0.3120242 0.7636975 0.69054544 0.40579844 0.075862 0.25092882 0.080213234 0.72465277 0.4460994
작 0.020950062 0.51334864 0.5425465 1.0876224 0.057734795 0.6925889 0.20823392 0.38202953 0.07450167 0.69811666 0.61759174 0.40710115 0.8718963 0.3381305 0.41003963 -0.0022742744
표현 0.60932636 0.8311908 1.0317407 0.52201426 0.549598 0.00136902 0.7029942 0.45712462 0.60177135 0.16670108 0.7603139 0.05200003 0.22698048 0.28369203 0.46554577 0.34146583
모습 0.6937883 0.6745689 0.8799135 0.66297895 0.215722 -0.077087775 0.49525386 0.8684479 0.86000973 0.31946853 0.106335714 0.37214348 0.27139196 0.72602504 1.0349948 0.3143981
제 1.0217719 0.06174556 0.59317964 0.24113108 0.45524988 0.49777344 0.55951506 0.6281425 0.79040146 0.3440521 0.6856259 0.19438846 0.6736824 0.7073516 0.42864788 0.19532418
공감 0.7098808 0.08847815 0.6295825 0.22502856 0.6720707 0.27361393 0.3557119 0.9199942 0.8084763 0.3976867 0.18217875 0.18222713 0.9722541 0.34239393 0.65000117 0.4095369
밖에 0.7265072 0.18469714 0.079343244 0.9175714 0.8224486 0.22722666 0.3306255 0.6753308 0.17926972 0.4948108 0.7982425 0.32982388 0.37130857 0.6067739 0.50653076 0.13117896
먹 0.46004352 0.25952917 0.8680742 0.27161723 0.045122508 0.15890595 0.22708362 0.09194793 0.20777456 0.19144845 0.7513895 0.9125677 0.03489279 0.09833679 0.010457862 0.83827883
계속 0.5639261 0.75642115 0.23535325 0.55841494 0.4763945 0.57927597 0.3961072 0.8173338 0.20061314 0.08929787 0.20252073 0.42756265 0.24713692 0.44006225 1.0621738 0.41631725
이랑 0.18027875 0.0065178475 0.34644872 0.46121308 0.61767465 0.5987358 0.3490806 0.4026275 0.1833024 0.36594123 0.6620249 0.5202193 0.62602204 0.4463915 0.06134464 0.512605
제목 0.16040245 0.95238936 0.37500745 0.22754762 0.44975385 0.7931421 0.24953856 0.18257785 0.6680963 0.27902484 0.082516365 0.6827124 1.0031064 0.15989582 0.56699044 0.45297027
"" 0.8206481 0.7420301 0.7127913 0.39837134 0.71691674 0.068044566 0.21782842 0.5092615 0.5284601 0.9055605 0.4869884 0.7214299 0.21011585 0.595417 0.5338755 0.9392858
7 0.94621134 0.9803758 0.84927785 0.52462995 0.5848824 0.51338947 0.63834804 0.90345234 0.64227456 0.6501282 0.331866 0.024452444 0.3034602 0.25533643 0.8899203 0.60255903
극장 0.2920344 0.5304224 0.29146156 0.14975706 0.038218156 1.0041267 0.5415532 0.8189249 0.05860019 0.73808765 0.62786704 0.9167684 0.751554 0.8520581 0.6039301 0.45101053
비 0.7978515 0.09460033 0.24014238 0.29505464 0.49893773 0.82344276 0.5554792 0.96661496 0.5792636 0.5348868 0.2524508 0.27038142 0.15863991 0.6437352 0.34581667 0.53848994
진 0.6945918 0.48140106 0.7871196 0.39481372 0.26387796 0.52239466 0.64923745 0.7623548 0.7741038 0.5319764 0.57252514 0.38719514 0.33982068 0.7771723 0.55219156 0.101857305
이걸 0.7719949 0.2822374 0.429022 0.029870313 0.4368602 0.21873815 0.57654345 0.35643366 0.38403317 0.36522463 0.7040943 0.30716524 0.30768973 0.6310064 -0.0036393648 0.61315656
바 0.39100972 1.0168129 0.021722605 1.1375502 0.19648486 0.371114 0.80195653 0.64114255 0.29558623 0.7524519 0.6664785 0.8841464 0.12433003 0.7977478 0.9566387 0.403465
그렇 0.7757695 0.60278976 0.24733616 0.32305166 0.068190284 0.09405746 0.70883244 0.4420802 0.4864496 0.24424095 0.17947105 0.42041585 -0.04196661 0.22182739 0.42746404 0.8929406
대사 0.024561623 0.4913019 -0.10687627 0.81602526 0.6677811 0.47024548 1.1002114 0.77574193 0.8622157 0.3768204 0.70165056 0.32661888 0.54246604 0.5855513 0.5922674 0.31714615
개봉 0.8368019 0.5249468 0.17873053 0.08071681 0.22111882 0.87014604 0.11705752 0.4230583 0.5846807 1.0937784 0.34793034 0.5996662 0.017262943 0.3156868 0.9017506 0.91097564
부분 0.5993491 0.48388594 0.7143023 0.27081683 0.78792465 0.52961934 0.91261375 0.7334042 0.42172122 0.8969432 0.19347806 0.46666896 0.18338618 0.64009804 0.2958123 0.29176477
0 0.79574233 1.2214451 0.044994965 0.5302227 -0.15195055 0.003030885 0.6106717 0.0017061457 0.06893289 0.7422413 0.3204179 -0.09377947 0.725786 0.346331 0.9511991 0.6621284
OO 0.36785597 0.62104213 0.19919354 0.4556658 0.8551644 0.59468263 0.115699716 0.13712461 0.98872775 0.69198245 -0.110576116 0.24004357 0.5027277 0.69431436 0.85510826 0.52559596
대단 0.86065435 0.35957226 0.26887324 0.5396024 0.7161751 0.82393473 0.35998622 1.044914 0.6274822 0.6142606 1.0898753 0.17966811 0.62229794 0.65502983 0.9850798 0.48626807
된다 0.18179096 0.106038615 0.9283109 0.2798292 0.9904123 0.8870406 1.2163438 0.5224343 0.42358863 0.18924183 0.5381155 0.27888125 0.072999254 0.64229393 0.46911713 0.8778576
작가 0.9497357 0.8228693 0.66709894 0.28143287 0.42818087 0.5978174 1.0824426 -0.0026162742 1.0105911 0.69912577 0.3066393 0.8559376 0.45129356 0.40024146 0.62870705 0.72272384
어디 0.74484134 0.44900838 0.5342375 0.29291138 0.61850053 0.53238386 0.32578686 0.2460619 0.7082693 0.9194953 0.20915115 0.840971 0.31243032 0.19915958 0.7137098 0.2881699
기분 0.6496519 0.08455208 0.48296642 0.33789724 0.283555 0.21363817 0.5549142 0.28614005 0.69313145 -0.0047623594 0.107510276 0.7011514 0.54596215 0.61533785 0.31677166 0.7273058
아쉽 0.5508893 0.15002747 0.8819641 0.94633603 0.4149088 0.3549615 0.7095731 0.25860125 0.19410516 0.3322246 0.29294777 0.45567423 0.18830815 0.4918438 0.54448485 0.20148562
치 0.2866442 0.9980558 0.3062733 0.4612669 0.7729689 0.61945415 0.45594242 0.37670508 0.69335425 0.5665604 0.86415076 0.520015 0.06047949 0.9081916 0.09197591 0.27486268
진심 0.328266 0.46821627 -0.009901925 0.54824156 0.7223903 0.35881662 0.15346621 0.7197999 0.3755214 0.72089815 0.79825956 0.26956263 0.28336313 0.46846354 0.27606386 0.114851594
해도 0.014552048 0.33740208 0.20986779 0.9480635 0.70851773 0.74626404 0.5973515 0.14020787 0.37684298 0.39003357 0.28548217 0.34299207 0.31433696 0.28309616 0.65213126 0.7796592
보이 0.3622209 0.22638786 0.64663917 0.17363691 0.34763828 0.7814608 0.34052682 0.6073688 0.8873789 0.6408011 0.27654603 0.075977795 0.5662324 0.88839793 0.3195419 0.22055943
타임 0.3710452 0.5539874 0.57788485 0.5269563 0.20147818 0.9279569 0.6037142 0.30496702 0.26871395 0.40496302 0.9001799 0.19949673 0.9496171 0.80322194 0.42555162 0.7718746
놓 1.0077171 0.98221296 0.3151428 0.17815477 0.6792471 0.9420838 0.25442103 0.80852926 0.8235151 0.6163313 -0.008107246 0.15077454 0.76940614 0.6729825 -0.01447316 0.9292227
/ -0.053914726 0.19488432 0.86552066 0.6799941 0.52358145 0.4531829 0.5491473 0.03467524 1.0447816 0.82268417 0.9319857 0.31859455 0.4525876 0.18176608 0.8269192 0.3517029
웃기 -0.041468278 0.13344492 0.93115276 0.16214739 0.6574223 0.24094142 0.16153337 0.47631752 0.30161285 0.63407713 0.3789453 0.19925867 0.59172636 0.5745752 0.6914141 0.73145115
봐야 1.0400381 0.93089205 0.35849267 0.96751434 0.40276617 0.9567833 0.80201256 0.49945956 0.57542354 0.6819261 0.74577624 0.31298503 0.4655407 0.10248882 0.9984808 0.49393708
이제 0.5067102 0.37921092 0.24203911 0.64814764 0.10771769 -0.010416461 0.6890972 0.27947786 0.40637594 0.4318909 0.29080305 0.35932112 0.8269896 0.67905974 0.41734743 0.5375022
물 0.500185 0.36856976 0.38788694 0.31348726 0.4695939 0.8697013 0.50233424 0.8480548 0.56512684 0.8786743 0.5365644 0.5234897 0.64241076 0.93528223 0.53666013 1.0837477
막장 0.15622851 0.43287706 0.31265566 0.9828861 -0.15733287 0.08687489 1.0240889 0.23118691 -0.1563045 1.1915987 0.86775947 0.13574517 0.78049326 0.40952006 0.49123415 0.44165102
삶 0.2899935 0.7353559 0.4808275 0.9226516 0.8902462 0.15383968 0.043170217 0.42558014 0.8644192 0.14388512 0.6421938 0.0824927 0.70810527 0.46096048 0.39938444 0.33282152
친구 0.7403031 0.61718357 0.51412797 0.07712915 0.7202092 0.20249124 0.45064834 0.81126195 0.45566854 0.9751798 0.7003665 0.26430315 0.2583227 0.24889158 0.3097982 0.3927996
잔잔 0.38474748 0.7634726 0.4271698 0.9412549 0.9214161 -0.011266108 0.8190793 0.31761578 0.31673458 0.3103811 0.8303067 0.102323934 0.66763854 0.09329832 0.13652404 0.66204375
조금 0.5355288 0.69386953 0.5067766 0.65771955 0.57305706 0.6606739 0.4779831 0.74983007 0.72873014 0.3507588 0.7056224 0.6006892 0.3144208 0.3786341 0.7767922 0.02790176
씬 0.84124273 0.8588153 0.53013027 0.81156874 0.988249 0.31456554 0.696441 0.290007 0.21476425 0.5098189 0.36190492 1.0202131 0.57044065 0.7636655 0.5898471 0.4255911
딱 0.29451662 0.38917062 0.8871911 0.110700704 0.60322565 0.86410236 0.76023704 0.75998133 0.7952954 0.82886404 0.67187506 0.78466064 -0.06319914 0.33757666 0.7307751 0.29933295
영상 0.6572722 0.76447153 0.3297434 -0.024546556 0.9141129 0.27331752 0.6417031 0.4541563 1.1293119 0.9812772 0.7030717 0.13963673 0.8947287 0.6777709 0.95036185 0.42505842
찾 0.63934183 0.76126844 0.44827488 0.26364806 0.9647923 -0.06287141 0.7195454 0.29936975 0.89766383 0.01506552 0.8769404 0.81766737 0.7462562 0.21833885 0.21360798 0.32381484
억지 0.5128696 0.6281096 0.28682172 0.037362706 0.20562047 0.04542058 0.49269262 0.03688987 0.98544186 0.9596593 0.74980235 0.96518016 0.4813028 0.64799154 0.67253405 0.8742517
중간 0.6077628 0.22552653 0.21388164 0.10550681 0.19532587 0.6111984 0.4837035 0.5932923 0.7371311 0.67553675 0.15191735 0.5143519 0.79527307 0.9008514 0.11558627 0.40270925
요즘 0.320433 0.8170659 0.5062467 0.96817034 0.6452821 0.21258853 0.44945106 0.83046347 0.75740457 0.11557493 0.77913076 0.39694303 0.9710766 0.2789891 0.6387135 0.094897114
같이 0.21923417 0.6023451 0.7908387 0.21911776 0.6714495 0.7379417 0.59230334 0.3424662 0.45770574 0.65937334 0.9141659 0.7997447 0.5234189 0.26629794 0.7008049 0.548492
구 0.34179235 0.24643916 0.26822722 -0.014662146 0.16039932 0.516573 0.510416 0.9666818 0.5928357 0.31434357 0.84775555 0.21176828 0.61329925 0.15743594 0.5460487 0.52097577
" 0.12582724 0.043078993 0.047615252 0.5020661 0.20221101 -0.11754471 0.6241571 0.6300128 0.56849945 0.054532487 0.92692405 0.27491784 0.61988986 0.7133116 0.38575032 0.11895197
가지 0.8844214 0.4938364 0.2491927 0.45815942 0.67670316 0.827454 0.8588526 0.8024174 0.78599805 0.39960885 0.15844761 0.3735235 0.57858807 0.24395213 0.1732647 0.5966953
스릴러 0.0035728293 -0.19194518 0.5054788 0.19407625 1.0239742 0.16328473 0.69981587 0.51065737 0.254757 0.7123794 0.98416483 0.8610383 0.83681667 0.5234287 0.8441687 0.13882509
8 0.27926713 0.64292866 0.49703696 1.0009097 0.64627784 0.12750897 0.68262213 0.55022156 0.37915576 0.668639 0.66549844 0.57220006 0.70316356 -0.0050274422 0.61465555 0.05125588
믿 0.61635494 0.78537023 0.322582 0.4266182 0.7272739 0.20412591 0.31832045 0.9623804 0.041409105 0.8346202 0.29561505 0.38563988 0.1747339 0.18442908 0.72397316 0.1778974
싫 0.0618148 0.5485192 0.6214895 0.5528829 -0.075426675 0.2557228 0.3223098 0.36101222 -0.08168948 0.43864697 0.7233187 0.92823434 -2.7562666e-05 0.99979985 0.40006635 0.21069925
.... 0.4703433 0.31466952 0.67449987 0.55947095 0.7512955 1.0041814 0.1583926 0.4124877 1.0165771 0.80525494 0.14074853 0.6153112 0.015267653 0.2759248 0.8389446 0.48979533
보고 0.67734367 0.7239983 0.46227002 0.87766486 0.7360138 0.6215581 0.28941792 0.69452715 0.13591556 0.8094376 0.6903266 0.4624843 0.31953147 0.5682119 0.63859737 0.4341651
라도 0.074554406 0.2760009 0.17710951 0.70208144 0.47111475 0.5547862 0.5406005 0.8178695 0.43092215 0.8160999 0.15856108 0.59389794 0.5667079 0.32099986 0.047265958 0.07651701
나왔 0.4180699 0.82452697 0.22221054 0.22793658 0.35021785 0.7583613 0.19285189 0.21797466 0.8221998 0.80506456 0.28365293 0.52169067 0.47584122 0.32158422 0.6631534 0.821403
아까운 0.60579157 0.45737827 -0.16692081 0.11905093 0.24123207 0.15030137 0.40434265 0.31670517 0.95871824 0.48124835 0.3678158 1.085847 -0.11704735 0.14222717 0.61175793 0.6338648
긴장감 0.5388628 0.48725703 1.0424417 0.72205967 1.0425621 0.14803228 -0.24264663 0.8104722 0.43067098 0.76221466 0.18456057 0.9144729 0.6177374 0.8810242 0.79315853 0.5592772
점수 0.43010023 0.49144927 0.70928097 0.80163115 0.8435734 0.44021043 0.67453885 0.7703664 0.8272706 0.8527647 0.5942439 0.18315208 -0.0069681634 0.9706449 0.3030544 0.65688354
개인 0.72204024 1.0707021 0.3453281 0.3212247 0.52694595 0.58646613 0.2936418 0.6399324 0.62307113 0.45814964 0.163385 0.029740112 0.6389585 0.36733183 0.14330755 0.76916593
제대로 0.48262674 0.48535535 0.25963697 0.05844662 0.7956823 0.4771926 0.065814614 0.99191976 0.45780027 0.08368714 0.5465432 0.86940694 0.5738603 0.7306139 0.56006134 0.6207631
부족 0.579725 0.85177785 0.6060596 0.17061362 0.7117935 1.0356525 1.0861481 0.7223531 0.57022387 0.92403793 0.55273163 0.46821937 0.24786498 0.77317315 0.084605426 0.627099
이유 0.8331985 0.13378239 0.31809413 0.33956048 0.2958594 0.58532363 0.38188845 0.8078859 0.09784577 0.46456322 0.8499624 0.73603886 0.36612648 1.0656129 0.7917395 0.17211956
노래 0.78274107 0.37164974 0.43653375 0.11221118 0.2960802 0.27958238 0.62998664 0.24370879 0.7490857 0.07897624 0.87559605 0.24476081 0.55542576 0.5740154 0.6399531 0.029613702
만큼 0.21893659 0.62987787 0.6299909 0.41153365 0.12785143 0.79233575 0.029632546 1.037962 0.8094682 0.3789426 0.47442326 0.73200613 0.29622915 0.20146006 0.07362285 0.63350105
라면 0.23099169 0.74453574 0.79414487 0.83781606 0.8066299 0.18004155 0.18729009 0.80252427 0.24052097 0.47868803 0.7772255 0.17695326 0.3711761 0.9048994 0.013892853 0.45245218
시작 0.5312987 0.12998524 0.88962835 0.5972603 0.82963395 0.2905666 0.08226899 0.32248932 1.0173105 0.7880924 0.32593697 0.9423957 0.830543 0.41624737 0.3692737 0.58632314
잇 0.32915762 0.17933485 0.63969845 0.33606166 0.87219757 0.64830315 0.41111436 0.6477048 0.86809576 0.51212454 0.44025162 0.53726244 0.36658084 0.2501843 1.0356138 0.38735852
구나 0.15919909 0.5911777 0.20158152 0.3963016 0.16748074 0.080408655 0.36578172 0.5799525 0.84124666 0.4313525 0.5733712 0.045284692 0.02996932 0.34542793 0.36213303 0.78644145
특히 0.37809673 0.3075352 1.0027927 0.44842035 1.0809045 0.20776662 0.6376311 0.571882 0.29008365 0.7054303 0.3614872 0.070326805 0.32950315 0.69634116 1.1043338 0.2468689
한테 0.5221031 0.22130331 0.066033415 0.51954716 0.8017398 0.15579246 0.77263737 0.12092762 0.44579205 0.5097282 0.5350471 0.5470871 0.39651003 0.33921286 0.54320353 0.15982111
날 0.7218522 0.8131492 0.24441682 0.9540592 0.26343873 0.4266023 0.21055834 0.8001671 0.6683273 0.8832128 0.5778069 0.3207364 0.7564761 0.32758975 0.2484514 0.6981344
려고 0.2595431 0.021653526 -0.102443114 0.115477346 0.3815143 0.11606024 0.3225273 0.4797948 0.6810405 0.22817959 0.98185647 0.6127057 0.51676166 0.854263 0.11863324 0.38612404
제일 0.028233198 0.87082756 0.46367648 0.192704 0.16813187 0.42232412 0.673112 0.69914716 -0.07867759 -0.087169506 0.3127571 0.71858567 0.4170979 0.56751925 0.3386298 0.8753789
아름다운 0.34307435 0.98942935 0.4889863 0.93038505 0.42422962 0.38803363 0.5569642 0.8998824 0.4920272 0.27134028 0.91363275 0.21810097 0.44372565 0.17395023 0.92124933 0.13046347
시대 0.46100232 0.9905932 0.9140168 0.7358951 0.7138131 0.7790274 0.43713617 0.6324489 0.49721164 0.7942287 0.68327254 0.4096372 0.28483707 0.24462952 0.5522619 0.90170276
ㅜㅜ 0.28706864 0.46130714 0.2282838 0.99396104 0.1847792 0.22114614 0.31478852 0.64424753 0.83240944 0.5950213 0.34797984 0.5626039 0.8021542 -0.15942563 0.34781936 0.51397467
어떻게 0.8727096 0.6899896 0.7891415 0.6866027 0.7156596 0.3743995 0.3193805 0.31646335 0.33077323 0.67897856 0.34419817 1.0334493 0.5049237 0.57340264 0.5903634 0.71819293
명 0.34367633 -0.0043802233 0.47419262 0.76106757 0.6840876 0.17358744 0.35375977 0.28725916 0.43774715 0.4922441 0.7745508 0.5604891 0.020594664 0.5756953 0.3514761 1.1777365
당시 0.24634807 0.28599313 0.21499558 0.18821622 0.68111706 0.61366904 0.26337197 0.7903257 1.0360523 0.7263607 0.29637465 0.032688715 0.65144217 0.40351886 0.88497657 0.49259925
엔딩 0.71202767 0.22447361 0.67745703 0.48341137 0.47249103 0.522504 0.2100641 0.20781916 0.22940013 0.6214051 0.21534465 0.7465368 0.567481 0.27144033 0.19110794 0.385773
나름 0.48229066 0.17542648 0.45873225 0.67547494 0.78050345 0.4092754 0.38865036 0.79845876 0.45524853 0.5222647 0.10504151 0.1466515 0.5970106 0.2711037 0.8226202 0.2572115
무섭 0.02171945 0.23366041 0.8153697 0.27367267 0.46879607 0.35226464 0.7221324 0.5417116 0.3991646 0.37194777 0.17269136 0.17131235 0.9113794 0.28706422 0.86076313 1.0789922
나온 0.6430676 0.23426189 0.034487844 0.44263488 0.55802196 0.7461701 0.63858014 0.47193077 0.6079708 0.27720535 0.78661215 0.3542361 0.61386955 0.9320799 0.6166052 0.8555289
사 0.011866831 0.5740046 0.7316658 0.33280712 0.69729745 0.28166834 0.714919 0.7562461 0.523791 0.0017540695 0.732356 0.53584605 0.60817915 0.32677463 0.28277102 0.8652767
오랜만 0.68869054 0.75219727 0.84766215 0.85501593 0.29597926 0.13223541 -0.004732894 0.5001686 0.71593416 0.6823756 0.50538826 0.7605001 0.8574656 0.3502194 0.5706432 0.14043531
니까 0.57803744 0.48804295 0.6463636 0.16078362 0.28968894 0.22854067 0.7704884 0.692673 0.78407323 0.24340539 0.9746882 0.51828337 0.42160693 0.09807191 0.87566876 0.24991515
해요 0.08366653 0.9559014 0.24115075 0.42208475 0.97447497 0.6022876 0.5943723 0.7945977 0.9721445 0.24503073 0.79894805 0.8120923 0.8490892 0.88915044 0.6357567 0.3341138
9 0.9031704 0.84069073 0.77060854 0.6289179 0.479436 0.99550974 0.27223787 0.8136027 0.6849109 0.27416086 0.53233117 0.41803673 0.9825891 0.3820027 0.8614354 0.43196234
이것 0.29611886 0.21943985 0.11714673 0.54505825 0.89359945 0.5144041 0.3736859 0.64030516 0.24649137 0.99469763 0.147522 0.1786911 0.87270653 0.7520027 0.43933338 0.49013364
팬 0.68109363 0.77809864 0.7939644 0.45519516 0.8021996 0.19498044 0.86343294 0.8638397 0.7747654 0.57346326 1.051369 0.6381993 0.87398154 0.47883224 0.30738756 0.47373897
차라리 1.1054442 0.3631687 0.60909945 0.33488575 0.637896 0.7249309 1.0682948 0.11007597 0.35068822 1.0861729 -0.07162761 -0.16976163 0.027782133 0.7825436 -0.14357883 0.10365135
봐 0.15194954 0.76399034 0.38302237 1.1096877 0.43953836 0.46615782 0.7917318 -0.04197478 0.3198984 0.3266617 0.575532 0.18058619 0.15460213 0.32281974 0.99634373 0.6942096
절대 0.19999127 0.059292823 0.6786231 0.09750213 0.008675025 0.7648637 0.41646966 0.6799647 -0.020724667 0.2415795 0.8352431 0.64138216 0.9846637 0.8584082 0.11682063 0.8699016
세상 0.61318946 0.3558885 0.1474647 0.8069623 0.051507726 0.1322164 0.1011843 0.4795364 0.5958091 0.2527889 0.43270412 0.05278566 0.3580843 0.27304742 0.68634737 0.2788211
세 0.47118437 0.4718607 0.39008343 0.14423223 0.070565976 0.54591465 0.9952018 0.61857116 0.4130966 0.33041215 0.5597748 0.7253642 0.9060148 0.22270805 0.8584831 0.30391744
못하 0.13701081 0.38118747 0.5206347 0.5469985 0.1008198 0.9341218 0.68775105 0.3914911 0.9631914 0.73498124 0.34561592 0.49409407 0.16783468 0.42579442 0.5425225 0.4133273
하지만 0.33799294 0.2609522 0.9000522 0.84553385 0.5212613 0.14691076 0.9053049 0.5572303 0.74378663 0.9464853 0.15989472 0.010365661 0.4604886 0.4974962 0.8359961 0.73432183
던데 0.71189123 0.87894934 1.0621636 0.59059346 0.49173754 0.12478807 -0.052969143 0.5271359 0.7110735 0.7427895 0.14522947 1.0076963 0.42015624 0.24559702 0.52119285 0.5756125
욕 0.913672 0.8371138 0.46278414 0.5923165 0.6118435 0.30645606 0.4020128 0.41119573 0.24687494 0.8779401 0.6610819 0.019144593 0.1748094 0.67466944 -0.11787265 1.001078
봄 0.50821173 -0.004978468 0.75187004 0.45532006 0.79696923 0.66460836 0.18659987 1.1055046 0.058498837 1.0002081 0.61929965 0.36564502 0.59994507 0.22107187 0.3136354 0.7474904
감 0.56171155 0.57267636 0.25273892 0.4282466 0.8533701 -0.029903503 0.7113444 0.7991694 0.34046948 0.11708659 0.083302185 0.6473291 -0.016752522 0.3621096 0.22494903 0.27689764
훌륭 0.8258676 0.89642805 0.64453924 0.45216 0.72933215 0.25324678 0.81072795 0.41848075 1.0854697 0.04239109 0.9804811 0.09997112 0.86753577 0.6720837 0.43820855 -0.042446773
너무나 -0.2587389 0.15608662 0.8520397 0.23433211 0.83320165 1.0220873 0.9504553 0.3297898 0.8095734 -0.01673598 0.8361711 0.71470815 0.07077526 0.82411903 0.19765046 0.72607726
강추 0.24461569 0.43576485 0.7068874 0.86493874 1.1261758 0.11777438 0.4243145 0.83323395 0.44382313 0.6587272 0.98859584 0.9919335 0.22491296 0.17054266 0.6340395 -0.06831156
해야 0.40166664 -0.05527329 0.42657122 0.18740416 0.5637548 0.39898786 0.24889404 0.3201116 0.186134 0.19131498 0.6037674 0.43428537 0.992351 0.5142492 0.46422628 0.5480647
됨 0.35350063 0.84895617 0.22796299 0.6849947 1.0179691 0.3056777 0.47407243 0.7776767 0.34096062 0.7039605 -0.05137185 0.7168113 0.30894685 0.100306936 0.9493248 0.38869837
ㅡ 0.53073376 0.6512671 0.31292728 0.49615738 0.89926016 0.71551204 0.8424084 0.62962675 0.42556775 0.7845833 0.1562998 0.5752769 0.24731013 0.8947992 0.74404824 0.14985128
따뜻 0.3404353 0.010315145 1.1356832 0.64907736 0.8146763 0.5053025 0.13528462 0.642227 0.16412687 0.13144195 0.58609927 0.4331893 1.0111454 0.44468033 0.6185752 0.121085174
빼 0.63411576 0.5773443 0.45885086 0.3522808 0.7813344 0.57493454 0.9688226 0.38426748 0.669008 0.70983076 0.37030426 0.39212888 0.51833075 0.7240223 0.6557256 0.83658844
느끼 0.2559539 0.67730474 0.32980913 0.66538614 1.054362 0.05007654 0.90732396 0.5587353 0.43795943 0.5922784 0.43278593 0.6381755 0.63516235 0.08439539 0.6448746 0.57279
드 0.86856663 0.29498097 0.2610734 0.5468145 0.8327324 0.31731242 0.3330383 0.7252611 0.8342342 0.9806066 0.82247657 0.82155764 0.110534616 0.7351628 0.75638264 0.39401942
도대체 0.8934483 0.76909405 -0.05518312 0.47460943 0.6496584 0.36391157 0.37275204 0.7486608 0.5657599 0.7012248 0.5316909 0.26049593 0.013220794 0.8171355 0.2530016 0.935373
어야 0.1731518 0.4518183 0.36215878 0.5406327 0.69308364 0.5301786 0.4392532 0.37804022 0.846671 0.9870376 0.49584842 0.36677527 0.27645394 1.0455114 0.10258503 0.3013947
글 0.10480781 0.50684595 0.36679223 0.60770136 0.18103532 0.050514206 0.57440746 0.50647855 1.055399 0.99246496 0.7847799 0.5558003 0.6708952 0.10967749 0.7772393 0.8388762
마다 0.8084908 0.4339214 0.7976328 0.25462565 0.73316634 0.54985964 0.40340787 0.80841345 0.5408123 0.30827856 0.77658296 0.8868616 0.5413959 0.67102647 0.54427683 0.48723802
답답 0.775015 0.35627055 -0.25472632 0.46265084 0.5361208 0.3761833 0.9823838 0.22162229 -0.09859485 0.3542307 0.57497036 0.055701338 0.33143562 0.3317861 0.12601107 0.6839734
준다 1.0583395 1.3811884 0.48988274 0.79292685 0.5119321 0.034206524 0.8818657 0.19707665 0.4453795 0.7015407 0.8973431 0.74708045 0.92781126 0.42072254 0.79027164 0.8320631
전쟁 0.112166114 0.52693444 0.77458155 0.3371004 0.6273043 0.6496649 0.3042185 0.775491 0.40409416 0.60966736 0.903922 0.6213392 0.6597361 0.62629426 0.7950841 0.63181293
놈 0.9443151 0.9554816 0.91093034 0.37930495 0.53061104 0.24986267 0.22112405 0.71246 -0.1413699 1.050087 -0.121377185 1.0432698 0.3626338 0.17246357 -0.001739807 0.4477713
설정 0.078384995 0.5916215 0.22731552 0.1810966 0.9098038 -0.15375012 0.27945706 0.64421195 0.33625892 0.9689968 0.5506177 0.1807722 0.09337104 0.9756953 0.052387185 0.13794746
무엇 0.89650905 0.24840514 0.97507536 0.26540422 0.17758472 0.41851172 0.41435537 0.95197034 0.6861496 0.5450946 0.047424056 0.5624954 0.8134972 0.057472453 0.6852322 0.36605275
수작 0.94609994 0.6021082 0.5886619 0.4633494 0.38362572 0.39232445 -0.0021089583 0.6808892 0.110505335 0.5222594 0.77290934 0.054138824 1.028961 -0.060098883 0.6791862 -0.11400071
그저 1.0837574 0.023063911 0.72318625 0.516021 0.8812354 0.41844752 0.8251674 0.73451173 0.29825416 0.67710906 0.8623181 0.7138346 -0.102884546 0.8622631 0.56676084 0.39036906
감정 0.9589357 0.68135375 0.11921831 0.960041 0.44973922 -0.040389 -0.16139524 0.53263986 0.7005922 0.79451835 0.2572411 -0.090520024 0.49976388 0.600652 1.0513356 0.5201511
흥미 0.6068951 0.59689534 0.15902257 0.36911416 0.24108556 0.6123936 0.218188 0.286793 0.5202002 0.65968406 0.3670624 0.05408128 0.9328218 0.6377523 0.7850547 0.4260857
미국 0.3671988 0.7863122 0.3281084 0.9138995 -0.028670538 0.97646666 0.07895604 0.86363584 1.0026762 0.5719703 0.5610831 0.03353084 0.17757806 0.5666533 0.41485062 0.20507541
만화 0.5905819 -0.015596103 0.12324724 1.0203568 0.11137035 0.08682343 0.573059 0.75422525 0.954078 0.7952482 0.67627084 0.20538443 0.46134886 0.5533419 0.5716949 0.34248647
행복 0.7244557 -0.08732061 0.82742095 0.33722275 0.76193637 0.39685494 0.5957346 1.0479348 0.94046444 0.14866678 0.5107 0.3970585 0.3991162 0.4991087 1.0968158 0.056774158
신선 0.4806267 -0.07608721 0.8423005 0.871751 0.2881624 0.16791712 0.0810118 0.7452923 0.51696384 0.23845893 0.69504595 0.43876916 0.9764172 0.087358005 0.8463615 0.4542941
뻔 0.04402555 0.10707027 0.49314576 0.6442247 0.7409526 0.10585793 0.64319056 0.20668791 0.8977473 0.87445843 0.14713691 0.7081802 0.52180123 0.5405572 0.27606744 0.7118275
형 0.30381525 0.92043895 0.7833558 0.3873706 0.2430168 0.12458187 0.8650921 0.34284955 0.3909352 0.72738266 0.44680977 0.28667286 0.27772373 0.54939836 0.973949 -0.052481078
앞 0.37503183 0.47459146 0.9093724 0.79145074 0.12698637 0.27453265 0.28978273 0.37604833 0.32714325 0.3568509 0.91233283 0.6173206 0.6644091 0.889475 0.6551559 0.33802333
어도 0.32869014 0.6583119 0.5530138 0.6688625 0.30273858 0.65277267 1.259074 0.3970484 0.16965014 0.75957114 0.46794316 0.4075338 0.566092 0.10277096 0.23308882 0.23790956
허접 -0.100781664 0.6696188 0.036680423 0.48700947 -0.0055637676 -0.0001869442 0.6731189 0.02343456 0.3691059 0.49988675 0.041048836 1.1146032 0.66060615 0.8763508 0.024944285 0.7679779
군 0.43820474 0.36872172 0.26485237 0.7486655 0.26817706 0.9385612 0.26716313 0.22341628 0.81821346 0.5760939 0.18834788 0.23140638 0.7959752 0.50439584 0.25859427 0.51984835
시절 0.37617517 0.32693812 0.93587023 0.679534 0.21490765 0.28106254 0.23134679 0.60421354 0.6569592 0.3899604 0.07130373 0.7181215 0.28081235 0.2922616 0.7667682 -0.027848314
관객 0.58538467 0.3880739 -0.07524016 0.5284444 0.27241403 0.010204939 0.78605765 0.6981298 0.8774683 0.35457587 -0.090432286 0.30013072 0.5823793 0.73555094 0.19275795 0.7018461
배경 0.6976973 0.2660785 0.48209667 0.73413277 0.78553396 0.24397276 0.7360732 0.6882612 0.9622593 0.44192433 0.15468189 0.6022481 0.51791626 0.17147535 0.6835467 0.378796
6 0.44661593 0.5127837 0.28737524 0.88256025 0.41116583 0.04469251 0.4429488 0.9724672 0.83430696 0.16920593 0.47526616 0.49233738 0.31330025 0.6594652 0.45988384 0.32487604
의미 0.43341342 0.43101636 0.36174405 0.75179213 0.07219109 0.9307899 0.3828736 0.15302359 0.08410301 0.37496635 0.31257758 0.6185027 0.7490684 0.25638235 0.63149995 0.14939854
초반 0.5208545 0.5730706 0.39759964 0.7476101 0.44497108 0.4120066 0.6819876 0.72146666 0.3312869 0.994236 0.14969133 0.6046816 0.3994417 0.66213053 0.27064174 0.6839204
사실 0.56551737 0.56071347 0.41683245 0.95554173 0.59271455 0.12941462 0.3417269 0.99023545 0.2510918 0.84638965 0.46408394 0.40971452 0.86083835 0.67220145 1.0231447 0.09904024
답 0.53896993 0.4272712 -0.1263635 -0.11061509 0.18187128 0.49444827 0.6607844 0.3898444 0.27889273 0.22644082 0.57433885 0.95190805 0.81596863 0.60744137 0.76498973 0.32632717
웃음 0.1725731 0.69514334 0.096887946 0.84645855 0.62863207 0.5019761 0.25377864 0.8490963 0.24487127 0.65390944 0.29419437 0.62144965 1.0273572 0.84021014 0.82028604 0.5688234
엄청 0.102135725 0.5134476 0.34722018 0.36045542 0.99029845 0.12808432 0.22731291 0.9077363 0.2674358 0.6295625 0.6284665 0.8495107 0.5568633 0.57452077 0.36621088 0.5987564
라니 0.50202626 0.49262628 1.1441524 0.26097086 0.5933185 0.67524177 0.6033507 0.5288126 0.38407615 0.701974 0.79895854 0.27821064 0.6051555 0.81491107 0.081545934 0.55082613
더라 0.7685083 0.5730213 0.18015182 0.29293305 0.4462783 0.5847455 0.22598623 0.17350133 0.4145237 0.22626978 0.12885389 0.85889906 0.3022714 0.7272335 0.94690335 0.4195619
자신 0.056552127 0.6834048 0.7354672 0.14603719 0.1469947 0.6803262 0.3545832 0.7794171 0.4146094 0.46998847 0.3355726 0.2909395 0.9422589 0.2931156 0.1691076 0.46735176
질 0.64163154 0.7309977 0.022145543 0.8068299 0.68868273 -0.03779582 1.0898422 -0.02622822 0.7209065 0.4720131 0.47867087 0.27413306 0.3263155 0.78553444 0.6808736 0.3797355
추억 0.4010934 0.3631422 0.7529172 0.228441 0.49299267 0.9491114 0.18729368 0.8496457 0.28954834 0.5962247 0.60717046 -0.031940117 0.93158156 0.010753882 0.96569407 0.6790137
캐스팅 -0.019278234 0.4737238 0.55411386 0.8208753 0.074415155 0.503781 0.8258764 0.30446947 0.16592829 1.117629 1.048426 0.7717935 0.44415265 0.12915501 0.17724034 1.0846491
머 0.80153733 0.84919584 0.38532954 0.4322603 0.42429453 0.842745 0.574925 0.64397526 0.9392588 0.16387175 -0.02716258 0.52464765 0.13131443 0.50894314 0.07028916 0.2265861
첨 0.3264221 0.6104621 0.8369878 0.8206001 0.6126386 0.6529575 0.33009192 0.00531342 0.26201 1.1179693 0.7073952 0.81233436 0.51370335 0.33830363 0.068215266 0.41765726
멋있 0.09739614 0.3263749 0.49097478 0.30508116 0.03446092 0.4046491 0.65347064 0.5322333 0.02610878 -4.794507e-06 0.87852436 0.53044844 1.1250907 0.033738315 0.97664756 0.30314425
류 0.7756563 -0.16011171 0.06823201 0.8595869 1.0326567 0.9289577 0.43995452 -0.2417432 0.72640616 0.72384214 0.012922946 0.7027648 0.8512194 0.35214925 0.7290934 0.5085293
시나리오 0.087385364 0.7530202 0.32377937 0.7329691 0.27895477 0.114608966 0.76318944 0.29401886 0.7428956 0.5640856 -0.111628205 0.48167923 0.10739372 0.34050795 0.33815572 0.24377249
어색 -0.05303152 0.47873247 0.25137922 0.6684824 0.2017047 0.42265388 0.6074835 0.96618104 -0.12927437 0.9619063 0.18361816 0.94065803 0.044147305 0.63211375 0.15618403 0.99310154
슬프 0.02440644 0.44397965 1.0277883 0.13467735 0.7886746 0.12878186 0.41161513 0.9171696 0.7616851 0.17770752 0.7915446 0.67287993 0.5809488 0.028669361 0.2573316 0.050794613
OOO 0.32303673 0.077413276 0.31212863 0.6795631 0.46115944 0.059823684 0.32600746 0.8883914 0.211285 0.8290032 0.1285453 0.0005192409 0.56257886 1.1904697 -0.0021043143 0.40378493
정신 1.0346144 0.46723363 -0.012045114 0.90949655 0.60924715 0.21536176 0.5412535 0.79599994 0.3362932 0.45539963 0.21412264 0.22998758 0.33514813 0.022171097 -0.08654935 0.54695666
분위기 0.4837047 0.7861896 0.78148705 0.8204228 0.66608554 0.75187624 0.35064647 0.61573774 0.2016336 0.7989496 0.7423342 0.04197163 0.6454879 0.64000916 0.3198435 0.44735426
소름 0.7275058 0.28596663 0.5414569 0.99534494 0.43023083 0.51339227 0.37460825 0.61505145 0.86109596 -0.10791641 0.1594455 -0.004438359 1.0710053 0.6886333 1.0590204 0.25324497
멋진 0.32845122 0.5061094 0.9587409 0.24003105 0.9644193 0.8639789 0.5375054 0.36679557 0.56186044 -0.18911844 0.6387359 0.071826845 1.1313368 0.8812583 0.8393936 0.4638316
힘들 0.25911218 0.6712401 0.08763043 0.22450168 -0.12803487 0.77937967 0.9230164 0.20828402 0.057145447 0.31034607 0.76130265 0.4417606 0.71658105 0.888297 0.40611526 0.3550945
오늘 0.22263707 0.5052772 0.4632825 0.7746461 0.98651737 0.17731391 0.41404498 0.5162019 0.45118535 0.2813294 0.11266803 0.24189493 0.7915971 0.22752349 0.7064229 0.86511016
어이없 0.7735097 0.32805958 -0.117972024 0.13235702 0.17727314 0.5582161 0.33434623 0.32105622 0.82961696 0.98217815 0.16994853 0.5077108 0.4709589 1.1424873 0.100196786 0.6007124
봐서 0.5794678 0.50527734 0.67091084 0.55920714 0.34082705 0.3746235 0.62181646 0.42052376 0.3897314 0.27074048 0.4609316 0.514812 0.45904276 0.6625449 0.80260193 0.5659941
구성 0.7978492 0.865832 0.6719188 0.1541596 0.6018331 0.24815495 0.4894413 0.08890077 0.1958926 0.31456476 0.0047758394 0.45976546 0.7444432 0.29407904 0.45029697 0.59101176
잡 0.16483957 0.10736273 0.6272843 0.7695899 0.1369555 0.1193518 0.68634754 0.30020043 0.7785545 0.22240798 0.20878498 0.4596819 0.4953945 0.20193852 0.81695825 0.6652316
엄마 0.665196 0.7396837 0.32061532 0.42420176 0.39386693 0.72387147 0.57973295 0.6898395 0.4396321 -0.017330365 0.98786026 0.81824565 0.8747786 0.5775465 0.5699844 0.71703315
함께 -0.039497018 0.6261708 0.30107248 0.30323434 0.8585987 -0.00044350134 0.4881755 1.1316019 0.36903086 0.28708985 0.674964 0.3570895 0.90098786 -0.14997372 0.8434812 0.83730304
문제 0.5281682 0.80998284 0.1552799 0.24798621 0.21789503 0.41257358 1.012528 0.62147397 0.40244728 0.592716 0.4699725 0.75265366 0.23122211 0.632157 0.48918867 0.25085795
위해 0.49520227 0.50245327 0.29100358 0.2768996 0.21988113 -0.012082887 0.37881148 -0.05922618 0.5810895 0.02603477 0.8946011 -0.028974324 0.9185625 0.11558678 0.22818375 0.9567548
졸작 0.6388316 0.3020919 0.28363034 0.7550871 -0.115207285 -0.029523594 0.5990477 0.4679782 0.5079915 0.7453017 0.32986802 0.2885708 -0.13741589 0.5528497 -0.035536584 1.1497458
잊 1.0100136 -0.11087752 0.58603454 0.97305924 0.51680034 0.22564791 0.3991463 0.8483643 0.3288937 -0.012287079 0.67804134 0.65633357 0.3627919 0.79835975 0.5652003 -0.2308445
등 0.6612041 0.50772256 0.18333288 0.48050347 0.5349972 0.32540894 0.4667616 0.9363218 0.43483984 0.022897508 0.49021283 0.79881674 0.20761459 0.40799502 0.8953134 0.71091866
집 0.4227122 0.8048369 0.587844 0.39235476 0.8179176 0.5058519 0.33043346 0.70350856 0.9089709 0.16221045 0.12267356 0.24523042 0.44846925 0.5891712 0.06348847 0.993041
유쾌 0.31006128 0.6842976 0.5584063 0.19692434 0.97455007 0.61960834 0.8793484 1.1258855 0.6117617 -0.03295585 1.1062179 0.2372389 0.98160887 0.8109713 0.89454716 0.07055746
스러운 0.7261469 -0.011081003 0.5513002 0.18421042 0.9640428 0.2550611 0.48198095 0.20349436 -0.14921258 0.55199444 0.0020520478 0.46544054 0.88729066 0.12438364 0.59404546 0.6726861
뻔한 0.81887496 0.9308154 0.46558085 0.5337983 0.24066138 0.32447258 0.9995198 0.18812585 0.3498574 1.0233012 0.34541875 1.0837487 0.64667493 0.688842 0.17207551 0.8253691
나요 0.32071504 0.9298197 0.59948146 0.50723004 1.0469488 0.6113277 0.55595535 0.2966245 0.14285314 0.78349346 0.6731239 0.870512 0.5821837 -0.0063048056 0.30691403 0.27873936
킬링 0.27308637 0.18870595 0.76147276 0.062165637 0.18127862 -0.08296735 0.29399052 0.44040206 0.1504125 0.5638226 0.1711525 0.7359358 0.05272528 0.3377325 0.2328619 0.8808604
결국 0.67370903 0.635768 0.72318685 0.53136146 0.6942895 0.6164518 1.0697615 0.40856433 0.9450973 0.8979205 0.81055695 0.91588235 0.6387647 0.26429516 0.6723897 0.24616022
낫 0.6477344 1.1137265 0.56257457 0.28861248 0.9917454 0.6756126 0.7903214 0.8934401 0.21924552 0.9389358 0.69729584 0.425673 0.2461997 0.94814897 0.7282021 0.0015287043
뭘 0.8543849 0.70119673 0.09687523 0.84299123 0.69333595 0.022294454 0.5352506 0.3679128 0.35241777 1.0175024 0.49315134 0.7281611 0.4011104 0.26847258 -0.068811536 0.3901862
간 0.5278984 0.9043464 0.09964968 0.41600397 0.6356961 0.6748851 0.50968075 0.33475915 0.5879992 0.32268503 0.4400904 0.7314649 0.59074134 0.14856659 0.5639075 0.87978446
소리 0.46434507 0.87413096 0.8470075 0.27804366 0.43213063 0.92805105 0.8334503 0.59738314 0.35688806 0.5399611 0.57057244 0.7973767 0.07420826 0.45069355 0.6008491 0.45354405
미 0.6484759 0.16970222 0.3099592 0.6765643 1.2108359 0.595135 0.4031309 0.17813979 1.0186577 0.763459 0.7889923 0.06508038 0.16001207 0.83061445 0.41746926 0.4692727
한데 0.41302094 0.37562603 0.73726106 0.8020958 0.7648834 0.27154595 0.543438 0.0035990817 0.14155118 0.64273953 0.61575955 0.7497394 0.6604831 0.31998605 0.3502201 0.40681532
20 0.81753075 0.053999186 0.3430878 0.18186457 0.3245077 0.6469209 0.4882744 0.8031847 0.15736105 0.77645814 0.47710028 0.45438063 0.18946084 0.37748185 1.0118217 0.603819
역사 0.44288012 0.26270798 0.70912784 0.4051353 0.39957133 0.45461786 0.21566303 0.58123094 0.60007566 0.50472474 0.34577194 0.21722281 0.06148457 0.18346082 0.7130018 0.8786001
뭔 0.50927603 0.4839353 0.037491612 0.80790406 0.14575684 0.8572041 0.5635337 0.68907684 0.7546189 0.8838463 0.49620637 0.74072456 -0.11665949 0.26464343 0.2826804 0.3535355
제발 0.33592537 0.65962 0.8537813 0.26281646 -0.073899284 0.16304694 0.648063 0.50487816 0.79801303 0.6003893 0.41987813 0.9973856 0.8235708 0.9727186 0.8837097 0.68817383
포스터 0.26111633 -0.1816291 0.8212322 0.58390933 0.6789641 0.6971459 0.9546361 0.21058592 0.8409188 0.5123764 0.95265985 0.038139764 0.5224861 1.0662162 0.2386703 0.88236403
아무리 0.8670008 -0.061288357 0.36666363 0.10729519 0.16697258 0.61891645 1.1240807 0.35267937 1.113902 0.3900717 0.09641403 -0.096820265 0.90406287 0.15153936 -0.08333091 0.65235585
코믹 0.08632975 0.8208397 0.6576208 0.09957237 0.35292286 0.2574977 0.5423457 0.04077451 0.56834304 0.69066 0.62048614 0.29533258 0.22424473 0.13741466 0.8523628 0.19851723
어떤 0.41270322 0.34947312 0.19117232 0.76169604 0.85476196 0.3181779 0.1426245 0.49938923 0.31729317 0.31064603 0.15168844 0.056468237 0.45771036 0.14279948 0.7818792 0.61050683
완벽 0.9503728 0.2483344 1.2192607 1.0826447 0.7545403 1.2238544 0.2126645 0.6460118 0.63504344 0.06275052 1.1843759 0.21034649 0.52856433 0.5356922 0.89892095 0.66336155
~~~ 0.36160704 0.6941016 0.699215 0.46054488 0.4813113 0.29440495 0.7523827 0.8151877 0.52585405 0.09819698 0.17653051 0.9472215 0.95671123 0.807308 0.45945266 0.027584257
얼마나 0.22944081 0.7132536 0.19071501 0.56249535 0.8903899 0.45696184 0.2895725 0.3051984 1.0273412 0.4699051 0.86370945 0.42858696 0.15501733 0.18137555 0.8452183 0.6298537
애니메이션 0.65013325 0.72494686 0.7112898 0.40173683 0.2380219 0.39229777 0.060557537 0.86380655 0.6464888 0.7813436 0.7508739 0.5083824 0.9426104 0.29896012 0.72871256 0.5922693
러 0.16286041 0.2820412 0.624433 -0.089019895 0.6853801 0.40891743 0.67071116 0.5137506 0.9787458 0.69319355 0.21909264 0.19313276 0.7335558 0.7812782 0.3543207 0.7406367
맘 0.7165648 0.37727788 0.24482268 0.8739831 0.40479085 0.90636456 0.6347119 0.9662775 0.348532 0.115408026 0.85693455 0.41769755 0.9208919 -0.040828854 0.6121987 0.69615644
!!! 0.21437006 0.8786575 0.76682365 0.36616987 0.5063889 0.46933156 0.8238924 0.32519764 0.23210655 0.18461935 0.5472612 0.24546537 0.8338113 0.440491 0.08086133 0.89844364
난다 0.7897065 0.8830061 0.9272952 0.81845176 -0.16083185 0.9023403 0.2862512 0.4188305 0.43285775 0.7357993 0.39954418 1.000503 0.2741471 0.32249027 0.30762848 0.4833468
주연 0.69906634 0.17231289 0.65988487 0.42611152 0.060249038 0.10798996 0.86427075 0.7635384 0.14305833 0.56582004 0.41019213 0.060550366 0.7155046 0.23239484 0.30903506 0.45899445
원 1.0107329 0.15657465 0.23411196 0.27369642 0.71127874 0.80860233 0.7396988 0.81172574 0.6552026 0.537435 0.5355777 -0.19469512 0.20693865 0.54030526 0.63094264 0.52546144
이딴 0.6843589 0.711285 -0.122478634 0.30962905 0.37149498 0.58958584 1.3164009 0.78503937 0.04589764 1.0841608 0.46114278 0.0014403887 0.53881055 1.1980444 0.41050524 0.41333777
버리 0.16758558 0.051078517 0.25584528 0.8971946 0.25988355 0.71712536 0.40524656 0.4869538 0.57030356 0.7062476 0.63660294 0.28313342 0.35406595 0.95356214 0.43711424 0.24432933
♥ 1.0405751 1.0771089 0.4759331 0.3824643 0.2552179 0.8160086 -0.15310849 0.63735557 0.21540047 0.63759214 0.8428866 0.7426691 1.113974 0.04535807 0.9012933 -0.009446376
어릴 0.12978601 0.7686053 0.20675038 0.52681434 0.53224325 0.21232344 0.30381405 0.57392997 0.52713346 -0.041561875 0.34311625 0.0034380427 0.5304009 0.8018526 0.17637804 -0.007220902
후회 0.81142133 -0.16094474 0.27261326 0.7738217 0.060462315 0.8252088 0.4728741 0.60066634 0.16228531 0.45191696 0.467918 0.25978652 0.93568057 0.94600284 0.1820608 0.13404346
진부 0.6963403 0.9275195 0.18894087 0.63372135 -0.23807351 1.0181816 0.42322528 0.48016587 1.1148123 0.64949316 0.3111672 0.49206454 -0.0024560196 0.6729683 0.20215818 0.81738853
나올 0.8349739 0.25777 0.5351838 0.6407475 0.29919648 0.5957311 0.40903094 0.31092656 0.26797223 0.74153423 0.82743573 0.4603998 0.14712405 0.920795 0.7357739 0.023021443
됐 0.5444933 0.12268285 0.48219252 0.22300729 0.4311567 0.63296896 0.51315 0.901989 0.9010953 0.12480455 0.7212499 0.12903205 0.37856194 0.9195713 0.7050823 0.32724774
보단 0.23609543 0.6625181 -0.02618272 0.7383032 0.73198795 0.36155307 0.1801873 0.6674814 0.5039277 0.75508606 0.20701277 0.5542229 0.1416342 0.32702327 0.68100506 0.7475152
장난 0.22746383 0.23001288 0.2932098 1.0574884 0.11694885 1.1191093 0.19685149 0.20188515 0.95090556 0.25653973 0.05574007 -0.26826784 -0.28090796 0.46742937 0.2344504 0.390202
책 0.735227 0.21753444 0.6342312 0.92043483 0.7689225 0.7593792 0.37945908 0.05111692 0.7040276 0.5691767 0.20199397 0.048116777 0.7609808 0.4418509 0.13620402 0.31979713
더니 0.35754472 0.7156159 0.4455802 0.750066 0.12093198 0.34300968 0.9296553 -0.017850783 0.89655614 0.40081382 0.798751 0.8942032 0.26394844 0.49462608 0.35757312 0.042797927
큰 0.6749044 0.54630274 1.0901445 0.90171754 1.06515 0.5365376 0.24627227 0.51245123 0.5977087 0.6735662 0.6871395 0.6783567 0.2695214 0.78401554 0.4008964 0.74680376
영화관 0.60005045 0.64246523 -0.020902786 0.46412015 0.23538382 0.19965622 0.8297776 0.5819191 0.7834603 0.22186418 0.6827539 0.30021513 0.35836098 0.33517686 0.41667524 1.0669674
둘 0.43245634 0.47922245 0.34588373 0.35352486 0.6228369 0.601802 0.13988787 0.5469048 0.73576874 0.593854 0.83627313 0.7250261 0.17649521 -0.027722344 0.8990579 0.290042
출연 0.78805524 0.63297486 0.2815511 -0.013763656 1.0065081 0.45178545 0.4569733 0.57324404 0.21922037 0.50142896 0.52222687 0.07358383 0.738542 0.39828885 0.042586226 0.9485738
극 0.6301151 0.16945454 0.28691798 0.21060233 0.08251523 0.33680066 0.23703893 0.2871149 0.9444603 0.43433404 0.8183051 0.37924722 0.9252452 0.36725333 0.76884717 0.82725585
ㅅ 0.66906554 0.41062766 0.6292779 0.4293894 0.26008424 -0.08844576 0.43447575 0.1932048 0.8411606 0.27016446 0.21607259 0.548145 0.5886993 0.0077218562 0.657505 1.033713
개연 -0.03266038 0.5356568 0.26780108 -0.16145335 0.62840295 0.72083735 0.119745485 0.7062694 0.39870238 0.38764113 -0.09928488 0.32408303 0.48369688 0.88002735 0.5573693 0.5284795
충격 1.2382362 -0.018352093 0.80872387 0.4126529 -0.233177 0.6659804 0.8489766 0.7318892 0.86527747 0.73208237 0.3304539 0.7816852 0.4498566 0.549428 0.9847044 -0.0490308
여기 0.984955 0.6987152 0.27926368 0.9486004 0.103253335 0.7834377 0.3257273 0.39430445 0.19694693 0.45535406 0.1934434 0.975787 0.8564591 0.76496726 0.21164969 0.5321013
평가 0.8363799 1.0221788 0.7538995 0.2915215 0.33279747 0.62107074 0.050905213 0.44723535 0.7719465 0.4666789 0.8381687 0.40066138 0.5163134 0.53793937 0.37050483 0.11383481
엇 0.4259938 0.86817133 0.17001012 0.64157647 0.85153615 0.24508959 0.8321443 0.33307135 0.16443767 0.12898645 0.9517128 0.923777 0.841109 0.7672203 0.59429353 0.5014233
꺼 1.0063691 -0.2117702 0.419115 0.3722444 0.7495247 0.46210983 0.1881964 0.029334819 0.56821406 0.050095707 0.34725237 0.89208853 0.25155094 0.76992565 0.3669036 0.8040574
잔인 0.094550826 0.19536237 0.94476527 0.3091394 0.6708515 0.6762958 1.0204703 0.036478743 0.73283434 0.24584174 0.61280066 0.21137026 0.47939146 0.01841315 0.1745814 0.26152465
아름답 0.03995901 0.83092964 0.71415955 0.43656692 0.41801432 0.8245438 0.10971878 0.12869714 0.036652382 0.3497498 0.6674324 -0.028237721 1.0654062 0.517124 0.78324455 0.6491366
얘기 0.2171699 0.67248255 0.40428242 0.9457412 0.3656279 0.8398725 0.8886765 0.9116995 0.96630836 0.17101282 0.17735909 0.93037814 0.9638021 0.2048215 0.45023954 0.766617
줬 0.56576294 0.4169672 0.021249536 0.4344851 0.41221794 0.34120265 0.7052419 0.7585729 1.1365066 0.31998774 0.1763636 0.02565589 0.49897864 0.8310811 0.25739312 0.14340663
자기 0.7365035 0.57973063 0.37218502 0.4420041 -0.035121985 0.9844421 0.4085604 0.54943347 0.91887474 0.5115444 0.24693018 0.8971965 0.09195471 0.19680259 -0.028664405 0.35596895
예술 0.5152088 0.56930786 0.6986391 0.40767 0.65782267 0.18343346 0.13400657 0.75590676 0.90636235 0.79451275 0.32625553 0.66694206 0.84053427 0.5281167 0.80729306 0.3699608
갈수록 0.12847358 -0.38117874 0.039044272 0.7073463 0.9047893 0.2080622 0.6277956 0.31824994 0.8874627 0.6186825 0.33330032 0.5174279 0.2701703 0.048771974 0.31375358 0.63246065
매우 0.39285275 0.9799337 0.15443242 0.2375976 0.32060602 0.30808958 0.06250271 -0.08552997 0.53556836 0.40149087 0.9105748 0.2843689 0.9625872 0.77393955 0.28923017 0.07866551
반 0.17053357 0.91373146 0.6800461 1.0155914 0.56111366 0.36882854 0.695171 0.51409566 0.33228248 0.7697185 0.469824 0.15531123 0.19035324 0.60445535 0.122904025 0.01169724
위한 0.27912465 0.5672948 0.5529641 0.7724362 0.502849 0.26045942 0.78678626 0.7038662 0.68238467 0.3888663 0.9233352 0.28311276 0.15292461 0.8109761 0.28133562 0.5955801
든 0.42344654 0.26265773 0.4970292 0.348303 0.50757384 0.0942523 0.15454471 0.54872966 0.77635336 0.30202782 0.47510222 0.37770474 0.5619797 0.3953346 0.50156415 0.6666897
이리 0.57691175 1.112574 0.3161622 0.44673046 0.9949225 0.59792465 0.30047357 0.7856135 1.2523023 0.5690507 -0.028188176 1.0035785 0.107498094 0.30395323 0.7464976 0.8432575
봐라 0.71425253 0.36228704 0.5753306 1.013671 0.4432592 0.36217988 0.65080875 0.06933947 0.2435142 0.22594193 0.19961318 0.15365693 0.3647705 0.8947557 0.8640335 0.049229078
이후 0.6662221 0.27988446 0.39700234 0.30918476 0.07201196 0.6770244 0.38695464 0.31151068 0.25941476 0.6293795 0.14947917 0.923311 0.6164441 0.28319585 0.084332414 0.71821535
읽 0.50571173 0.33773142 0.120094 0.8101879 0.7699299 0.5262377 0.8348549 0.5011245 0.7950937 1.0564837 0.9059863 0.2397447 0.56404495 0.48439592 0.47041056 0.97171825
얼굴 0.0963379 0.3301116 0.50434005 0.19745207 0.19954592 0.6840704 0.07117517 1.121322 0.2240716 0.6842639 0.6154053 0.7547013 0.4305114 0.67408955 0.113949165 0.8809005
꽤 0.18927333 1.0202336 0.25132436 0.15948167 0.8046565 1.0731844 0.41306412 0.9524034 -0.09787115 0.078411795 0.56889 -0.024255965 0.81147665 0.3071563 0.32237008 0.36830243
불 0.48004812 0.91402024 0.33211428 0.46987364 0.08336875 0.83314157 0.1380903 0.9234602 0.7377942 0.38705322 0.35834005 0.6817904 0.1488836 0.60184276 0.3344106 0.5018566
으나 0.7012315 0.5214621 0.38627282 0.5533357 0.560671 1.3629289 0.6962837 0.49393225 0.43495536 0.7191195 0.3635536 0.6992299 0.085558906 1.08108 0.65644616 0.3986994
깊 0.7569466 -0.076857604 0.4021683 0.27842984 0.75205505 -0.014620019 0.5075527 1.0881717 0.59273577 -0.15612753 0.6141432 0.790285 0.3379563 0.044452917 0.5558351 0.10472532
