10000 16
<unk> 0.31013593 0.49506888 0.615812 0.18408856 0.56424356 0.64201194 0.4867455 0.81604826 0.35627526 0.8099361 0.8610088 0.858725 0.53713405 0.6005604 0.8559307 0.3793695
<unk> 0.28353292 0.6274789 0.6288644 0.70714796 0.024042977 0.7572426 0.92341584 0.7433272 0.4864449 0.78516334 0.07733209 0.22610492 0.13914596 0.3884644 0.8169763 0.025857974
<unk> 0.5963658 0.4292874 0.74869734 0.44057983 0.12647584 0.852974 0.68920285 0.9796272 0.6766995 0.19695717 0.36877117 0.02295028 0.2670099 0.16944042 0.8352333 0.43123728
 0.49641696 0.7235952 0.6114542 0.5333111 0.2553519 0.59949696 0.17125098 0.35419795 0.24744414 0.64556146 0.8770824 0.7948923 0.8273752 0.677281 0.57179713 0.778637
. -0.01967495 0.58756876 0.6404926 0.6992349 0.7156432 0.8189871 0.059586897 0.31268123 0.79911745 0.11862274 0.58433366 0.61321187 0.7877988 0.14706267 0.41481224 0.36870593
영화 0.18551883 0.68090785 0.10887885 0.09432043 0.7899589 0.7625885 0.8562542 0.05051797 0.9553412 0.38920155 0.74663174 0.97542477 0.92630255 0.5126916 0.34631756 0.66025585
다 0.6269914 0.4591612 0.03308719 0.73516226 0.8299559 0.65333617 0.5643191 1.0217885 0.87901646 0.2612979 0.7259853 0.42068633 0.86347586 0.1268504 0.7252242 0.6348692
고 0.2730123 0.41616806 0.7225485 0.436547 0.7750469 -0.07204833 0.23319185 0.23762171 0.5544403 0.30350724 0.3004197 0.09365556 0.525212 0.122704305 0.904989 0.36426872
하 0.9991969 0.24228658 0.910062 0.95703346 0.22483176 0.34133568 0.832615 -0.018917926 0.7602337 0.3538998 0.17005426 0.6880322 0.28234586 0.57187474 0.7053967 0.4959305
을 0.27423424 0.84267664 0.276533 0.5954703 0.00077370595 0.46830398 0.20308438 0.2725606 0.7127715 0.43800113 0.64523846 0.6823902 1.082366 0.14458926 0.33734354 0.45269483
보 0.7809117 0.21678478 0.48260486 0.11594519 0.19553289 0.60164 0.92908955 0.28345716 0.7481778 0.028228771 0.7084169 0.39031342 0.09277547 0.6569435 0.12680493 0.5014407
.. 0.4143418 0.77212363 1.0156466 0.2901783 0.39481196 0.33099023 0.35736027 0.6457484 0.501206 0.22864692 0.70289975 0.3921174 0.24602112 0.13949785 0.3519374 0.39768833
게 0.87424546 0.1835142 0.3370332 0.36252597 0.7136203 0.47765148 0.32299507 0.6468894 0.6389971 0.82357436 0.20869048 0.82231563 0.6111792 0.28349805 0.75459284 0.24988446
, 0.3320797 0.8937531 0.26678807 0.95655394 0.48137861 0.37509212 0.4147806 0.8939357 0.7070057 0.62650126 0.20023505 0.30479378 0.3872682 0.3264955 0.6337996 0.16388187
! 0.44239473 0.929376 0.8635408 0.4639422 0.5624955 0.033311807 0.4718299 0.0024947233 0.42703193 -0.012696972 0.30777055 0.74221313 0.2554079 0.932924 0.18661825 0.44916034
지 0.9017976 0.42838928 -0.12104822 0.39642173 0.36070314 0.8770275 0.70723355 0.79855895 0.6282232 1.0432386 0.80899805 0.76371795 0.15816276 0.34596658 0.62516314 0.456875
있 0.03802183 0.25735426 0.058055725 0.80959505 0.084232725 0.85956466 0.4244682 0.44378677 0.55504686 0.7780798 0.08095608 0.6799008 0.5730355 1.0334127 0.41161337 0.2636138
없 0.4090401 0.25377092 0.107665055 0.87924683 0.45851696 0.5426732 0.2569411 0.60710526 -0.12827133 0.22927561 0.6614542 -0.020671397 1.0260073 -0.036049373 -0.10528199 0.25352362
? 0.2192474 0.4334289 0.80398095 0.4245055 0.568689 0.55240303 0.41408938 0.97767067 -0.10705765 0.78842694 0.20265742 0.50581586 0.70670897 0.22531581 0.12035679 0.40329117
좋 0.48392278 0.32171914 0.6776313 0.16956751 0.4785249 -0.1662845 -0.15994386 0.15997884 0.1452929 0.7797718 0.32523847 0.9595622 0.18253663 0.32486328 1.0223954 0.9172103
나 0.42937368 0.22729895 0.61629033 0.30218232 0.35377744 0.9314564 0.8489497 0.8637484 0.102587245 0.88646036 -0.07364324 0.8922888 0.7985895 0.5767687 0.123425856 0.66356474
었 0.7722829 0.7127557 0.17977372 0.78114176 0.18689339 -0.13113406 0.8181616 0.45460683 0.7012565 0.56155324 0.42659461 0.4445684 0.07315981 0.17715193 0.10133376 1.0502928
만 0.766483 0.43129808 0.21789533 1.1268522 0.4887653 0.49362975 0.88101935 0.3701308 0.9731 0.56824535 0.58898604 0.49431467 0.31015036 0.010177298 0.5860782 0.5404957
는데 0.24538897 0.92013043 0.33467582 0.14378086 -0.06176993 0.47279853 0.8524496 0.13482752 0.009934885 0.46089238 0.46128967 0.2913401 0.07975819 0.53373665 0.8476639 0.88191754
너무 0.35540077 1.4611031 0.35499427 0.34093353 0.54305226 0.31330824 0.5248831 0.421241 0.7942119 0.7126444 0.05293969 0.7149097 0.75006735 0.48635846 0.34115225 0.49209896
봤 0.9829207 0.26082525 0.6221612 0.123842776 0.5619692 0.54105747 0.40513274 0.53065807 0.48294893 0.5935803 0.1891734 0.28704676 0.4246818 0.26243156 0.9976149 0.5989215
적 0.22648913 0.4953307 0.11798809 0.8151078 0.07817292 0.6647601 0.59668344 -0.049992368 0.7397166 0.38364428 0.63137853 0.73977524 0.38554272 0.4287125 0.16908333 0.6884056
안 0.17721401 0.39813828 0.7938799 0.6149194 0.5095862 0.45077476 0.4161693 -0.07874666 -0.15323803 0.34178934 1.4287803 0.49231604 0.960005 0.26076058 0.26951998 0.43765742
로 0.94506156 0.5329395 0.7065945 0.5854438 0.37485033 0.6688562 0.227154 0.6198216 0.2695177 0.2852366 0.34302172 0.8658601 0.43082532 0.044911012 0.43510243 0.3224602
정말 0.8209846 0.73287034 0.52692 0.6584044 0.58994746 0.23512483 0.7600504 0.8679608 0.7483383 0.07905581 0.30506784 0.6460244 0.23313595 0.3267316 0.32917967 0.5390556
음 0.8829511 0.12831858 0.85483724 0.79874414 0.7572995 0.061191875 0.6910021 0.5652514 0.33203372 0.010153939 0.007048319 0.764183 0.7932975 0.2125129 0.44394282 0.77189976
것 0.36262047 0.31119367 0.35317445 0.6109967 0.2722846 0.75750256 0.045013614 0.8342024 0.16712813 0.19615361 0.19974266 0.018668458 0.6696346 0.13248716 0.28854302 0.5869379
아 0.15903512 0.7636768 0.9884826 0.33955452 0.11001258 0.44035718 0.15212305 0.4418382 0.12552877 0.29954115 0.5686452 0.29606375 0.27886868 0.7649168 0.53260094 0.2371543
네요 -0.06697009 0.3549976 0.15920593 0.7244239 0.9833477 0.84206605 -0.051295854 0.09563027 0.65899277 0.40927783 -0.070606254 0.22580011 0.99760425 0.78684664 0.38902286 0.54746795
어 0.75317085 0.42441183 0.24221039 0.08150908 0.61752456 0.6699004 0.7555858 0.5839896 0.6598009 0.65231395 0.47930932 0.5299197 -0.046398908 0.3891031 0.16173522 0.5600865
재밌 0.64851135 0.44791526 0.3956 0.4024191 -0.16442017 0.68025917 -0.08383859 1.0458592 0.84181505 -0.110612765 0.34957555 0.15901583 0.70243335 1.1270853 0.39360547 1.0154647
같 0.7074586 0.90944976 0.6612581 0.5953259 0.25610268 0.05009225 0.21615131 0.76283747 0.29954046 0.8100926 0.3318062 0.6235848 0.8994934 0.49665162 0.48090518 0.6893836
점 0.73346126 0.2613508 0.64953613 1.0739489 1.0423425 0.3140187 0.5348823 0.57940197 1.3045384 0.688466 0.12548955 0.18278503 0.8466473 0.30760753 0.7833105 0.22168587
지만 0.5959761 0.9945258 -0.2171773 0.264522 -0.754598 0.68222773 0.7190882 0.22894281 0.30027118 0.73682106 0.51420504 0.38862765 0.13289097 0.087917775 0.9269693 0.6098357
진짜 0.7792216 0.8495398 0.41118884 -0.027966823 0.4039833 0.36470354 0.571425 0.8232884 0.76039696 0.54170054 0.44129875 0.16923907 0.24103285 0.6489213 0.41741312 0.43225408
했 0.41175947 0.42912698 0.58466035 0.7698578 0.47362927 0.7164713 0.2471797 0.18207687 0.27326298 0.83209354 -0.1440491 0.52032226 0.81362414 0.9142296 0.6845073 0.6664949
기 0.17474075 0.76030606 0.84932923 0.4612315 0.5994212 0.06957839 0.61617935 0.69171214 0.65093505 0.67784804 0.44212967 0.7992895 0.7324385 0.23214717 0.4448801 0.13354103
에서 0.74424744 0.69658947 0.033668626 0.5215532 -0.030609312 0.41389444 0.22480556 0.2878929 0.15211941 0.3280968 0.2570274 0.6756148 0.7713327 0.20274888 0.36279318 0.701885
네 0.23550501 0.36523682 0.35490924 0.69061536 0.40340436 0.7793129 0.5647947 0.62870723 0.9767086 0.2872212 0.8873499 0.15514901 1.1184759 -0.15165003 0.74908376 0.7576562
않 0.64557403 0.3308883 0.21488018 1.1342375 -0.45189422 0.37578526 0.98074615 0.66028476 0.09200614 0.6967525 0.21800113 0.2226382 0.7825639 0.31703436 0.56026894 0.16991939
거 0.56029814 0.61517966 0.7939254 0.70104736 0.09150437 0.3069151 0.30427846 0.41049147 0.76687723 0.7805492 0.5393185 0.12726611 0.68592525 0.21932665 0.83247054 0.9077665
았 0.5149654 0.69505036 0.28662434 0.67798275 0.4390701 0.88570434 0.34986869 0.55832684 -0.050489746 0.27512002 0.28466308 0.82493645 0.8496699 0.10001139 0.45752412 0.9194759
수 0.25272846 0.1077406 0.9450536 0.14549284 0.08308498 0.0795153 0.87807316 0.042773426 0.5937753 0.3304346 0.47860274 0.8033041 1.024173 0.8270624 1.0828544 0.51349604
되 0.79268295 0.72900885 0.22196372 0.4636249 0.4987628 0.52511805 0.2621517 0.6770826 0.7373942 0.5553753 0.4982598 0.10579655 0.33790386 0.4063024 0.6448245 0.9472124
면 0.7792449 0.45061994 0.92170155 0.7498867 0.14813963 0.48494297 0.07886745 0.8631938 0.7301784 1.0021293 0.9880309 0.9019675 0.007043275 0.6880764 0.33163816 -0.007547426
ㅋㅋ 0.5974901 0.26838252 0.65660864 0.48737445 0.88945735 0.60186034 0.3728378 0.36430693 0.1939866 0.34229848 0.3378134 0.12942412 0.4624994 0.8592735 0.9591389 0.8078577
말 0.79781145 0.559565 0.73852205 0.606141 0.12471562 0.711596 0.3542265 0.937471 0.4740318 0.29058197 0.40520173 0.17057994 0.3009006 0.45628142 0.36812294 0.6556693
인 0.75149965 0.8701516 0.96770066 0.18223928 0.28923795 0.5349817 0.43975702 0.74518675 0.9056258 0.7208419 0.30239272 0.6463722 0.7540703 0.7159709 0.9807619 0.2057062
연기 0.26719782 0.62501454 0.44140896 0.31764823 0.4577774 0.4430185 0.3586374 0.6941819 0.4647923 0.46904758 0.37567633 0.5312169 0.037596807 0.15901467 0.77374583 0.20592876
주 0.54184645 0.63017607 0.75181663 0.18002306 0.17387216 0.52666736 0.6817403 0.53404725 0.41659838 0.23831493 0.18383993 0.30624777 0.14481606 0.9062384 0.37012672 0.21974953
내 0.8721016 0.337351 0.16561888 0.27436197 0.8544317 0.4084497 0.24288511 0.51893544 0.7689396 0.43789294 0.8912318 0.4287813 0.20758016 0.3848406 0.24616823 0.23660722
최고 -0.07227665 0.6516925 0.33158115 -0.12864581 0.28264663 0.4292175 0.3117569 0.50317806 1.0399973 0.15693519 0.43408373 0.4098553 -0.2574395 1.1707944 0.5037104 0.68743736
~ 0.44935656 1.0557215 0.6707565 0.5539613 0.75472736 0.08969831 0.26250815 0.3885825 0.40449142 0.7758712 0.47910422 0.61129147 0.7198492 0.53964794 0.93111324 0.97421
평점 0.70105505 0.81514895 0.9437809 0.36436957 0.092657864 0.21879414 0.45556977 0.58294505 0.33390692 0.40447164 1.0857134 0.8951813 0.6345337 0.9531053 0.7122112 0.110770606
이런 0.7094895 0.72580415 0.25974235 0.33467808 0.42807025 0.020809105 0.59819704 0.47193608 0.3092742 0.47482768 0.20750217 0.4061073 0.5425857 0.25763544 0.55833757 0.21389039
던 0.09788453 0.8583528 0.42459318 0.32969937 0.11694809 0.41353214 0.46950257 0.15567572 0.9778194 0.36665034 0.6362425 0.21166117 0.5714034 0.18871383 0.8415458 0.43477347
어요 0.929692 0.79596436 0.31388542 0.42588744 0.87516993 0.6861519 -0.064208865 0.11587224 0.54399306 -0.08597336 0.16482146 0.89491296 1.1367985 0.97530913 0.4218227 0.69852746
할 0.86822516 0.4939944 0.9036316 0.36063623 0.060104232 0.71674997 0.8198228 1.0032619 0.07041325 0.5046429 0.096222095 0.7642726 0.6907335 0.29646415 0.98131853 0.5291522
왜 0.41285113 -0.10912453 0.7329395 0.2711379 0.6103995 0.57692444 0.8521008 0.90157497 0.55750304 0.5815449 0.38462386 0.14482643 0.7373358 0.43481073 0.55228096 0.25177175
겠 0.7244189 0.6110879 1.0170329 0.6532523 0.6353458 0.81572926 0.6549274 0.5102098 -0.14294365 0.33211142 0.5397226 0.5643818 0.26031017 0.4702207 0.74415576 0.5554107
해 0.12644197 0.44164976 0.582228 0.7026652 0.46915862 0.7606371 0.67414343 0.24860153 0.8454029 0.37227106 0.5650768 0.41385022 0.49167606 0.15317807 0.72881657 0.96469903
1 0.64253956 0.25939947 0.8905313 0.7846641 0.0856163 0.095968924 1.1015046 -0.028782725 0.75075215 0.3122193 1.0580792 0.3960231 0.5516108 0.1919095 0.2157839 0.34280512
스토리 0.23591964 0.39142767 0.6248512 0.2848791 0.87529904 0.781229 0.5714146 -0.1377003 0.52328974 0.74450827 0.35507506 0.5144814 0.4927403 0.46778497 0.44751757 0.6029204
습니다 0.43623033 0.25273028 0.8560766 0.046506524 0.52782446 0.28948328 0.123160884 0.2644759 0.7394027 0.22332938 0.90681386 0.4656827 1.1249242 0.963759 0.8956052 0.21438368
ㅋㅋㅋ 0.13903685 0.6032176 0.94269747 0.7492369 0.7511076 0.45819706 0.759107 0.34594783 0.5961603 0.87508696 0.29098052 0.852513 0.38320935 0.8282535 0.6581856 0.5685404
... 0.49501836 0.83977735 0.58936584 0.21575284 0.83925885 0.20313191 0.4576868 0.8958031 0.80801314 0.7231756 0.80380166 0.25893965 0.6979073 0.83558655 0.29708928 0.4908182
드라마 0.3109645 0.30576327 0.34217578 0.7393488 1.0190257 0.223128 0.64957196 0.653303 0.49242952 0.54829055 0.07415573 0.439035 1.0196317 0.702731 0.4842594 1.0136763
아니 0.39372343 0.19195615 0.7313797 0.520621 0.53009 0.8400741 0.30396926 -0.19194114 0.12527151 1.3647469 0.8881618 0.4342944 0.2693333 0.5710469 0.6020122 0.72642326
생각 0.5236192 0.529301 0.67758733 0.32684907 0.03010745 0.13899387 0.3841843 0.9043163 0.68225396 0.02502181 0.824877 0.47721004 0.68332565 0.20839871 -0.02110535 0.75565434
더 0.43074322 0.6373276 0.0963098 0.877196 0.77254134 0.9198889 0.52381873 0.76648957 -0.02253932 0.37261257 0.6612807 0.92776996 0.48257598 0.463791 0.6658249 0.3753494
그 0.5530412 0.7813038 0.17068397 0.7722657 0.2600467 -0.043668937 0.4809729 0.72892576 0.41057312 -0.03696177 0.5252873 0.43682447 0.5675132 0.89191437 0.15177502 0.3573935
싶 0.6692073 0.22482505 0.46328285 0.57306665 0.8923654 0.73342997 0.97319555 0.8478924 0.6826606 0.8675356 0.069976695 0.5436519 0.29533243 0.88402677 0.081075564 0.76077
사람 0.17839134 0.16184257 -0.112492606 0.35825878 0.12308483 0.41178373 0.5301793 0.75093096 0.53796697 0.9914679 1.0116738 0.45837542 0.49894843 0.2395695 0.34307075 0.5905278
듯 0.61591715 0.15925331 0.25761265 1.0688717 0.7965396 0.891022 0.49725658 0.795171 0.7456206 0.6503627 0.74992394 0.45300335 0.4414526 0.2536006 0.7943191 0.6468284
때 -0.022737747 0.27273485 0.11870272 -0.11515437 0.027067138 0.7791638 0.081843846 0.6080105 0.26819953 0.48705944 0.7066798 0.15001374 0.9097987 0.6508875 0.42154315 0.20427936
감동 0.50555503 1.153274 -0.14601716 0.63691217 0.15673356 0.8120587 0.38698408 0.6737244 0.91579336 -0.017325621 0.05375263 0.90210867 0.603304 0.20030305 0.72916234 0.9103688
함 0.633848 0.82128954 0.039685443 0.41115057 0.28805652 0.63431543 0.72614825 0.58853215 0.4418375 0.73026687 0.19070037 0.34818107 0.7642699 0.9790367 0.13982993 0.8888964
배우 0.96301264 0.87312144 0.089614704 0.6641251 0.21089444 0.9597251 0.24707876 0.4181676 0.70556664 0.19997877 0.75843847 0.26640597 0.62821233 0.25217175 0.92020756 0.52954364
본 0.48243272 0.6987726 0.5119381 0.023214063 0.05590086 -0.0038999908 0.5911995 -0.02566105 0.56545144 0.7208091 0.51242703 0.6047826 0.5637982 0.92067415 0.8857666 0.16830403
까지 0.6023293 0.6171568 -0.053402685 0.23532839 0.84642535 0.3664526 0.3815757 0.21730521 0.20766717 0.3467307 0.7103597 0.37923598 0.30808792 0.41890344 0.7857584 0.4010016
뭐 0.9905241 0.7283985 0.85532105 0.81218535 0.06868244 0.5760611 0.54886824 0.84752715 0.6762632 0.4041912 0.45497638 -0.059258513 0.27584004 0.72569346 0.090713605 0.11305701
보다 0.28354755 0.49341395 0.5851245 0.45204785 0.54766715 0.71499133 0.67412573 0.118084535 0.4872227 0.8392571 0.1930134 1.0545641 0.36970147 0.4742979 0.81491673 0.66105545
알 0.7332765 0.00088999537 0.17536096 0.32678726 0.60609156 0.66836256 0.77106273 0.4170563 0.80447423 0.6208747 0.46371564 0.5321686 0.4155159 0.1365368 0.5597059 0.04328658
만들 0.98322093 0.27291855 0.87761945 0.7721172 1.1174973 0.36116716 0.105532005 0.6830676 0.83657557 0.5121838 0.92899907 0.46031645 0.40288672 0.6165304 0.73170024 0.33262414
내용 0.65158814 0.99069494 0.7420638 0.006212276 0.5861639 0.10903662 0.54897094 0.18774796 0.3326344 0.87634605 0.3354657 0.5971614 0.806448 0.5546727 0.21480022 0.8996154
볼 0.20951188 0.6587085 0.49072227 0.8782252 0.17371763 0.086125225 0.12425735 1.0664116 0.0866093 0.08428841 0.55879104 0.56427115 0.35279474 0.8249549 0.63412887 0.52869177
감독 0.54000944 0.40290236 0.79742837 0.49366182 0.7109379 0.32248312 1.0282707 0.521305 0.48072913 0.45089188 0.49837285 0.30526027 0.45121247 0.46550322 0.11617157 0.36964893
라 0.56567085 0.20033826 0.23922639 0.32222128 0.63822544 1.0089158 0.15896896 0.16779107 0.3057412 0.2652004 0.79211974 0.80421567 0.4531706 0.49583942 0.71582055 0.23422156
그냥 0.7991998 1.0605453 0.5341787 0.43340743 0.8881259 0.5866234 0.6911225 0.9009861 0.50207657 0.6891482 0.2621901 0.7429429 0.2135313 0.48093837 0.0011881504 0.4874042
재미 0.16701105 1.1561378 0.27327424 0.06942142 0.8593616 0.7635032 0.022430949 0.19296812 0.5365801 0.6879866 0.03555078 0.7778187 -0.026870884 0.014784509 -0.0079768235 0.95962745
시간 0.7333539 0.22483705 0.16413403 0.37157977 0.5986444 0.4147339 0.08877949 0.054960247 0.4059592 0.82330656 0.21696386 0.6546976 0.8563162 0.22555517 0.45494407 0.008254029
지루 1.086005 0.6616708 0.5090923 0.63734734 0.11418752 0.91042185 1.0716034 -0.19436067 0.17286403 0.8105878 0.609518 0.323226 0.3304644 -0.23078643 0.25608608 -0.3623794
중 0.17221376 1.1325089 0.70441943 0.124243185 0.7699004 0.19727683 0.2368433 0.4814169 0.7763139 0.99335736 0.50593233 0.78855425 0.45960954 0.27698547 0.84703285 0.58961
재미있 0.7023308 0.540951 0.2799385 0.31567806 0.0812266 0.37573528 0.114269264 0.8605023 0.6225328 0.24924253 0.5258347 0.87853485 0.34431353 0.9413882 0.6137385 0.6701735
년 0.69835985 0.16468716 0.546134 0.64391273 0.522145 -0.05670047 0.6830834 0.72349906 0.23670916 0.09409603 0.7143023 0.21324034 0.33235762 0.12988427 0.72258824 0.7828301
10 0.62009233 0.088516094 -0.123131976 0.38340208 -0.009967172 0.7063244 -0.057129685 0.6450643 0.73433465 0.17437074 0.9854313 1.0141417 -0.24330565 0.43970704 1.4146512 0.18513125
였 0.7976155 0.61106527 0.5803045 0.5467335 0.52344745 0.7363887 0.37259907 0.87138915 0.37080884 0.5450531 0.6341794 0.92454785 0.646905 0.54968804 0.85119075 0.94428897
잼 0.6721697 0.77650046 0.051636882 0.043005344 0.9588217 -0.2545687 0.44297937 0.7775478 0.87983704 0.33464205 0.3590087 1.0277048 0.680102 1.0305734 0.16613533 0.25981012
사랑 0.06686894 0.30767155 0.73272514 0.7932966 0.4874693 0.2574145 0.26243395 0.9083208 0.51959294 0.086352825 0.5664186 0.44630915 -0.061814107 0.9877718 0.543657 0.80884683
못 0.13567781 0.5195036 0.8910163 1.0296029 0.22981875 1.0100951 0.1460397 0.472702 0.009287706 1.155266 0.3706474 0.26906443 0.6573586 0.045674942 0.9751183 0.09173413
냐 0.43725064 0.6758182 0.67285997 0.90132314 0.8513286 0.45451605 0.20665179 0.04356174 0.39744106 0.9026269 0.71341527 0.563553 0.22055988 0.5282819 0.6259059 0.1039218
재미없 1.1761106 0.7201245 0.45561546 1.1973428 1.1326362 1.012822 1.0796144 0.6347973 -0.2148744 0.8361814 0.91925305 0.6143995 1.2357898 0.39797097 0.50650764 0.15951505
쓰레기 0.75541407 1.185317 1.1960639 1.2033113 0.8995617 1.2196875 0.524372 0.5988313 -0.15231608 1.1815186 1.249213 0.54634583 1.2221549 0.7087968 0.43163097 -0.16924527
서 0.75940895 0.8005872 -0.04419208 0.81108207 0.72420615 0.48248985 0.5988713 0.4533149 0.33677527 0.51781434 0.4519432 0.7085317 0.45992872 0.5452421 1.109131 0.45171666
야 0.07526337 0.31571403 0.15567441 0.9521473 0.9082634 0.3941348 0.13105139 0.37729713 0.4619841 0.17341627 0.37606734 0.11849711 0.2893183 0.16992061 0.32572493 0.09525019
2 0.164027 0.65418243 0.17050909 0.6394854 0.048638713 0.31872162 0.45287618 0.123646215 0.42010117 0.8834094 0.26980218 0.74915326 0.95571053 0.104283795 0.3826329 0.16706634
라고 0.7498422 0.17753576 0.15995023 0.9095509 0.11471622 0.5763841 0.5327442 0.44909617 0.45751187 0.45964918 0.68652505 -0.077641435 0.6924461 0.7665872 0.03428545 0.46821633
니 0.39858532 0.41093275 0.40409648 0.032851458 0.6166409 0.58812356 0.48625618 0.5615783 0.3481753 0.7674954 0.65482813 0.91442835 0.6590595 0.6778103 0.27908042 0.33282176
면서 0.18858285 0.6561152 0.47728997 0.5869541 0.3772231 0.47100067 0.3257224 0.42936686 0.33340135 -0.029108569 0.3437932 0.68708193 0.28022683 0.068657584 0.18665236 0.59810454
번 0.4999847 0.7111771 0.16800427 0.29310814 0.33811104 0.717504 0.44936773 0.8409692 0.2678905 0.30969727 0.7098151 0.17460679 0.25398436 0.9985192 0.32190326 0.8441032
다시 0.6981127 0.38457245 0.68243307 0.21055172 -0.21625496 0.110569574 0.4505523 0.69178253 0.6041729 0.15706488 0.54497975 0.5868312 -0.19749255 0.27437988 0.5930495 0.39998108
나오 0.2303921 0.9675561 1.0764104 0.44727132 0.2780986 0.16526511 0.104496755 0.5617741 0.09530321 0.38511312 0.72140044 0.26137707 0.5542104 0.57397765 0.19798882 0.65621114
작품 0.41095474 0.66103053 0.6453044 0.84591204 0.5573108 0.6036103 0.6242803 0.18937384 0.7338353 0.017521068 0.504629 0.84113234 0.16610016 0.65149325 0.5697254 0.6010152
이거 0.723154 0.42990157 0.31199118 0.54828644 0.27816924 0.33505628 0.5867596 0.68423164 0.5253339 0.21821958 0.780699 -0.096687034 0.27964655 0.37681666 0.5333709 0.6265267
하나 0.10506214 0.8753081 0.9091772 0.55170274 0.72674346 0.19694178 0.22582133 0.26957285 0.2884581 0.8023173 0.74653965 0.7166004 0.47525665 0.0038176521 0.9392102 0.57199126
줄 0.29358202 0.16985051 0.29535812 0.42667925 0.36065963 0.32823288 0.73845625 0.8939206 0.07173061 0.9585377 0.6259467 0.10519408 0.04785187 0.92049205 0.50741196 0.07175079
해서 0.76455384 0.7531427 0.68230695 0.3416628 0.25424168 0.668303 0.52874756 0.89180523 0.56935275 0.41006243 0.35418725 0.93194413 0.76501566 0.06502424 0.4609315 0.53290516
개 0.80537504 0.69045514 0.5339413 0.28648844 0.7501708 0.03747065 0.9356336 0.52894354 0.6649914 0.48437256 0.58886844 0.24617386 0.7402919 0.2733964 0.25062057 1.0382462
정도 0.41772023 0.6105599 0.42716488 0.85009986 0.8353614 0.8561037 0.50698626 0.12722999 0.547364 0.6170953 0.3578679 1.097078 0.020023607 0.9271018 0.17473343 0.17034496
남 0.20401184 1.109243 0.96015483 0.31179586 0.42260465 0.698731 0.14174105 0.6426829 0.89798754 0.52766526 0.74866426 0.7383107 0.5388637 0.3796387 0.59554994 0.20610395
마지막 0.39976382 -0.11510223 0.013943896 0.5820864 0.24815047 0.017504914 0.5965719 0.68484324 0.41512594 0.33773667 0.5908574 0.52965087 0.62957007 0.9503792 0.7215809 0.3329425
끝 0.5543645 0.49429378 0.97006816 0.56888705 0.17930135 0.29578587 0.441127 0.1943365 0.7287671 0.76804715 0.5525756 0.3147507 0.9734931 0.8414939 0.52021754 0.50894105
액션 0.15268053 0.20526469 0.7250021 0.048159868 0.7614798 0.70195204 0.44328228 0.7124116 0.6936652 0.2884129 0.74022585 0.79150665 0.45746678 0.4958522 0.083051585 0.4162713
이건 0.45779365 1.2572659 0.3021502 0.3583368 0.29009315 0.13776174 1.0179598 0.23822291 0.22280014 0.6715683 -0.396734 -0.004571816 0.11439389 0.32542408 0.0056432933 0.7672105
임 0.96770066 0.5604196 0.88505673 0.6250941 0.3844344 0.14736977 0.98545504 0.57451564 0.7096739 0.101072714 0.22720477 0.5898239 0.94414395 0.79382074 0.82640946 0.7710714
건 0.37714216 0.38373095 0.88959235 0.42071763 0.53640985 0.92468846 0.65871775 0.23136391 0.49553412 0.38360178 0.6525281 0.3105532 0.5624775 0.43400508 0.57904124 0.65355486
ㅋ 0.43014196 0.7079598 0.6203015 0.64558774 0.8703381 0.83389527 0.5020933 0.26688337 0.6887427 0.15681279 0.19987091 0.50311863 0.6658721 0.20300095 0.9717251 0.9155884
3 0.9500923 0.24277563 0.62512904 0.15333079 0.8585855 0.17388318 0.582732 0.79122853 0.7580512 0.961455 0.5095548 0.76197445 0.4903263 0.13255854 0.10790495 0.20594877
기대 0.8386016 0.62942195 0.055423368 0.670818 0.07414532 0.77796334 0.5855676 0.20726937 0.5646686 0.14379166 0.6228292 0.6761565 0.5074976 0.79170054 0.8572666 0.3207436
입니다 0.70622534 0.19466808 0.76671404 0.09352266 0.7845234 0.17846233 0.3946589 0.71880674 0.66798735 0.273852 0.116265394 0.5863924 0.4406126 0.43099102 0.20643097 0.34105486
라는 0.5567904 0.5373393 0.3035262 0.57420814 0.44172323 0.21000664 0.5939997 0.24719253 0.3988987 0.9242 0.67217 0.6402776 0.25051215 0.85865694 0.62728345 0.45374304
분 0.64655626 0.57036275 0.33646888 0.62593234 0.6367274 0.24323662 1.0724106 0.6796422 -0.2773724 0.68501866 0.95693314 0.53214383 0.09246784 0.33333227 0.09561528 0.46398574
완전 0.5331622 0.99150795 0.6310951 0.64160126 0.2936711 0.455586 -0.14499731 0.5862716 0.9671238 0.4345841 -0.10448424 0.44291016 0.38130188 -0.00033505473 0.5635954 0.31522942
다는 0.24750553 0.790506 0.64125687 1.0287054 0.12810327 0.3091561 0.27957845 0.40883636 -0.07044832 0.71757066 0.64219135 0.7145514 0.072424084 0.2962194 0.6751364 0.4228968
참 0.87945294 0.21342297 0.49481887 0.19593483 0.68877566 0.8799492 0.60108626 0.44380298 0.671534 0.22615685 0.49709123 0.36939296 0.15194201 0.3491416 0.43011647 0.016069103
많 0.064581975 0.5140964 0.40277067 0.6647773 -0.11777783 1.0146197 0.5465881 0.27554116 0.8082327 0.40959704 0.20520538 0.6833059 0.810816 0.9366174 0.30379197 0.5953368
처음 0.41226768 0.5895778 0.2756496 0.07565583 0.9171074 0.23725256 0.08945732 0.5550207 0.37818313 0.92397195 1.2090107 0.4399577 0.62991023 0.09206861 0.34856984 0.7071117
장면 0.5861997 0.8944369 0.056057714 0.9290928 0.14337786 0.6394381 0.8013559 0.919642 0.11777045 0.42792013 0.036146153 0.592782 0.5130007 0.49793562 0.30923715 0.680074
대 0.6917709 0.30903992 0.15118934 0.6828781 0.32933635 0.51801217 0.9144164 0.27160078 0.2204234 0.7135592 0.41292837 0.5670688 0.6390805 0.49914646 1.1217198 0.91265863
아깝 0.7969863 0.8857189 1.0522016 0.7525599 0.47898823 0.89831525 0.9888379 0.10708939 0.93269426 0.73318404 0.2751067 0.22048314 0.23889248 0.16078654 0.18243848 0.48775533
다가 0.9749061 0.5141255 0.4401503 0.611301 0.61659163 0.88141185 0.43114474 -0.035985604 0.2528989 0.009576699 -0.17088686 0.14740238 -0.02322877 -0.04412922 0.86194354 0.4958159
으면 0.30030343 0.20557475 0.48667946 0.98503816 0.42117798 0.27663952 0.7964082 0.94921225 0.7011789 0.7842002 0.54976076 0.001223073 0.6374497 0.5272708 0.28147018 0.87995124
지금 0.3325551 0.19994152 0.17331992 0.18926331 0.8396256 0.008764645 0.16986413 0.2094103 0.26406658 0.8449492 0.019523196 0.6361192 0.43704438 0.7640796 1.0104616 0.5321639
모르 0.5261892 0.9806105 0.3904033 0.7436664 0.50597537 0.94377154 0.15595372 0.77687645 0.56192267 0.5301772 0.28277245 0.9306716 0.077186055 0.80123395 0.2679686 0.39456064
이렇게 0.83527327 1.0796103 0.5326395 -0.12853307 0.20844461 0.1642214 0.10999349 0.060020003 0.6956029 0.8093333 0.08988873 0.40225637 0.35141125 0.8624789 0.35014573 0.22628494
' 0.29961434 0.88791454 0.4251259 0.42256674 0.5982655 0.3952251 0.99717116 0.7924588 0.36386883 0.64514667 0.32102343 -0.066081546 0.14161928 0.9209367 0.8741527 0.66631824
편 0.6386481 0.34902963 0.18809927 -0.03125629 0.35487902 0.6911204 0.5727477 0.87491506 0.4593582 0.6562635 0.8154325 0.5370761 0.73038185 0.8436776 0.533591 0.6672938
일 0.4768056 0.17480986 0.07385448 0.95934975 0.9521559 0.40092444 0.24974462 0.8253754 0.48170957 1.0089383 0.38337827 0.7389257 0.66919255 0.83964145 0.46484643 0.08118264
성 0.64901114 0.78859854 0.17519344 0.3327796 0.3652367 0.45154694 0.6296224 0.3719695 0.9147789 0.26986146 0.8717909 0.53461415 0.74009854 0.6724186 0.2588834 0.07993412
돈 0.30811024 0.5024196 0.32966083 0.38672122 1.193767 0.55546224 1.2963802 0.26750755 0.37447548 0.3792916 0.9891238 0.040305506 0.9585464 0.078412026 0.5260138 0.24025059
이게 0.3838803 0.6926122 0.17638175 0.95982534 0.52090883 1.0988004 0.29152042 0.8862671 0.15859826 1.1021065 0.38726965 0.7370182 0.86722434 0.17461091 0.49579147 0.80009717
느낌 0.89117897 0.6898233 0.81727594 0.21010901 0.68066794 0.72323227 0.17299554 0.8977537 0.41306597 0.3490745 0.5818112 0.6786396 0.16857602 0.05807754 0.6383486 0.21997052
시 0.026314983 0.4048119 0.5170429 0.4018443 0.5653168 0.6901218 0.48335 0.6653213 0.06907747 0.9513628 0.45067105 0.68463963 0.8069604 0.4961932 0.81261957 0.45764977
이야기 0.04084446 0.5834807 0.6682404 0.09000393 0.1474571 0.44708252 0.66319424 0.5877794 0.5034565 0.5534674 0.026240405 0.25119075 0.70773286 0.5382207 0.39472738 0.3597823
최악 1.0005276 1.4571587 1.1716732 1.0097558 0.688946 1.1693076 0.8438206 0.12081789 0.67887926 0.43745983 0.868834 0.36239266 1.4352459 0.39649555 0.108235925 0.12750915
된 0.48100942 0.98629993 0.4371643 0.3700535 0.34771752 0.6423887 0.6221452 0.9421416 0.78145623 0.73350036 0.6334004 0.63473433 0.16793357 0.91669095 0.28209907 0.44748488
봐도 0.36346248 0.41423783 0.4359981 0.10432386 0.56731486 -0.056834333 0.6985616 -0.04058696 0.7560931 0.43329415 -0.14596477 0.8180953 0.46248233 0.74594265 -0.06578152 0.7798635
님 0.02389884 0.58440065 0.30522406 0.23750122 0.3004036 0.9876511 0.20083392 0.070495725 0.54179794 0.46804276 0.79113126 0.64241517 0.75479484 0.9020281 1.0075876 0.6738373
어서 0.7779971 0.5884379 0.49836913 0.32264027 0.48104367 0.6095076 0.13568415 0.76280856 0.7620096 0.50937665 0.6590699 0.38809788 0.5395535 0.21993522 0.47345722 0.4438071
애 0.7249567 0.43094453 0.74031335 0.3520803 0.41285357 0.71175265 0.28651428 0.45347387 0.33562997 0.5667659 0.68471736 0.58431005 0.99312526 0.13757369 0.6086589 0.91512764
전 0.30737853 0.7018242 0.78340423 0.6389977 0.12849075 0.7678518 0.69771063 0.6621038 0.60756546 0.22826473 0.68487275 0.6444094 0.43247038 0.584637 0.19573402 0.7710627
넘 0.761287 1.1046796 0.30695692 0.38406447 0.21061905 0.25483137 -0.022750704 0.21971105 0.64049023 0.062372055 0.26936474 0.15645152 0.6752412 0.8241072 0.7886942 0.18769306
ㅠㅠ 0.3494333 0.42070326 0.74604464 0.5234856 0.21657929 0.011239118 0.20623618 0.7640542 0.09731446 0.21736978 0.26780686 0.3819473 0.75548375 0.87822413 0.5004877 0.7565229
다고 0.20463477 0.47194552 0.4907378 0.8784872 -0.45132557 0.9590581 1.0890326 0.36899078 0.4332483 0.9422561 0.5447706 0.106591724 0.32857415 0.63130885 0.6744245 0.6792765
인데 0.39506665 0.90291023 0.20609593 0.2805575 0.17438103 0.42019892 1.1072425 0.029078064 0.49468917 0.50968647 0.41502294 0.613629 0.21628192 0.79076356 0.10111989 0.70469224
그리고 0.27217028 0.8019988 0.074676424 -0.10920595 0.58628964 0.7133517 0.6826386 0.67448026 0.34356838 0.4261918 0.24991426 0.69616324 0.5536622 0.90737414 0.3618162 0.5326716
명작 0.034895048 0.90442085 -0.10970222 0.029103009 0.5466091 0.09436135 0.09502513 0.2950346 0.61506766 0.16726498 0.71928936 0.8404976 0.3441112 1.0164638 0.9716258 1.1117978
여자 0.4937736 0.19190632 0.7664178 0.885871 0.70174104 0.67852587 0.46099573 0.75875264 -0.056877203 0.5792385 0.8718276 0.86239874 0.75180846 0.8653679 0.53459483 0.14692281
이해 0.13123588 0.44546485 0.6492395 0.46035254 0.42796883 0.1467579 0.96101755 0.027701981 0.34255728 0.40508756 0.24695466 0.009255948 0.9250213 0.910909 0.76965255 0.7516845
^^ 0.6423831 0.5912466 0.18100335 0.2064637 0.7084662 -0.036601666 0.28043434 0.5146988 0.5208062 0.59911555 0.3377967 0.5134287 0.14863673 0.38281968 0.8972039 0.22418693
난 0.32898182 0.59454286 0.46463636 -0.12767966 0.18474376 0.7599001 0.6012121 0.7186324 0.30483395 -0.067862414 0.014266283 0.46575442 0.2980407 0.30611315 0.07832405 0.15429793
역시 0.085207604 0.55017406 0.2950909 0.26592347 0.6726668 0.110691994 0.3670233 0.78982043 0.7858688 0.45895317 0.43752456 0.32304442 0.42940265 0.3047938 0.66729707 0.37805268
또 0.21078795 0.12454738 0.8630306 0.03247696 0.25898165 0.6626433 0.23798735 0.34292755 0.8331813 0.4194584 0.72783583 0.69773686 0.50592715 0.3511186 0.29227725 0.5446381
걸 0.07117706 0.8186373 0.3482516 0.6448411 0.90758866 0.9534858 1.003985 0.96132076 0.14476669 0.21913916 0.5385397 0.17830317 0.46855578 0.40343282 0.62119144 0.77828944
한국 0.3726247 0.72231865 0.27187338 0.7035725 -0.08067977 0.6033012 0.23037286 0.6199686 0.6779854 0.31861356 1.0370429 0.4446529 0.15023273 0.40678886 0.43784553 0.060664114
이상 0.7319799 0.60228 0.3559823 0.22660136 0.64835835 0.550455 0.5525892 0.7026887 0.51155317 0.29476336 0.8357097 0.73140633 0.86069524 0.22346151 -0.00880004 0.7674293
부터 0.894547 0.634022 0.7026178 0.45068547 0.35863528 0.044344522 0.84294665 0.64090353 0.7047082 0.4996988 0.60355276 0.012489489 0.07275684 0.09190224 0.72956306 0.8185204
는지 0.52476656 0.5492112 0.8110142 0.26748517 0.41140974 0.37684008 0.69176084 0.8163234 0.0056088776 0.77126384 0.87096924 0.83969164 0.63838345 -0.0040506176 0.27659303 0.4730568
많이 0.87312967 0.15985717 0.9393942 0.82028544 0.43310815 0.24853028 0.70431423 0.20955342 0.111185156 0.2148286 0.01871754 0.8061211 0.18047097 0.8319273 0.29348645 0.45033675
에게 0.31182718 0.9244054 0.24518263 0.29076207 0.16353813 0.53496385 0.71257466 0.14731933 0.8061453 0.38614884 0.79700464 0.82466877 1.0524067 0.63254035 0.6773637 0.9536739
주인공 0.41199568 0.8043979 0.8589737 0.63282037 0.63480043 0.42950302 0.48426628 0.33129665 0.42358243 0.7332381 0.35931683 0.8308192 0.2515809 0.39147693 0.9625997 0.19202435
별로 0.44686332 1.1402297 0.5509891 0.7029236 0.3308011 1.2847948 0.5608881 -0.24292618 0.40356085 0.85630333 1.1478385 0.11340544 0.98504615 0.437426 0.18365638 -0.23733918
받 0.45062158 0.79051954 0.10687342 0.59041226 0.31222486 0.1519975 0.4703725 0.9420654 0.1354291 0.85636675 0.27260572 0.5245833 0.37599146 0.23154193 0.4390487 0.52399826
합니다 0.52473843 0.4561638 0.08978286 0.6457321 0.63083154 0.38581446 0.15952098 1.0648369 0.4328413 0.74077386 0.08063753 0.195271 0.76849097 0.18389392 0.16392891 1.0265874
두 0.985961 0.15685748 0.6646692 0.25116673 0.2613099 0.8471657 0.49901047 0.69670236 0.4100363 0.598963 0.38134757 0.73134464 0.238333 0.049594495 0.36651537 0.6803722
우리 0.55091745 0.7105549 -0.056861505 0.5195451 -0.055219077 0.10822225 -0.18228042 0.24481063 0.1643858 0.37974343 0.40730768 0.7529967 0.27778602 0.19530489 0.7096057 0.94370675
만든 0.32685083 0.60118276 0.3701156 0.55636895 0.46569052 0.6489294 0.46272144 0.42135316 0.39020142 0.6112877 -0.09946323 0.8730063 0.823216 0.6273851 0.6716471 0.1525317
살 0.13803616 0.7138259 0.42632982 0.33707896 -0.23731895 0.8823053 0.5147298 0.8652177 0.5035707 0.64978415 0.22668962 0.2233206 0.8099997 0.42225406 0.48910442 0.7622051
!! -0.036724713 0.4191542 0.7916627 0.47211304 0.954028 0.8831536 0.27701333 0.13527386 0.9708215 0.81622845 0.011078782 0.39850968 0.28766632 0.5519271 0.13680153 0.53017247
길 0.71871245 0.10887456 0.29118475 0.74869365 0.4842665 0.45067886 0.91195697 0.4146439 0.92682165 0.8475493 0.67021096 0.40352547 0.23332502 0.32859182 0.87803966 0.64202213
엔 0.138558 0.17517862 0.15635249 0.30459526 0.52502877 0.6885889 0.37602112 0.27192423 0.34114367 1.0210063 0.8257752 0.17439318 0.4750347 0.92417544 0.754399 0.034809764
괜찮 0.10300784 0.807103 0.21705358 0.38126108 0.24478567 0.6050387 0.19190073 0.8109883 0.8921745 0.3498922 0.7511785 0.94191575 0.80044556 0.7909418 0.5585873 0.90294325
기억 0.79265267 1.0229824 0.64277804 0.18225367 0.23003781 0.7703106 0.35166442 0.66566694 0.7105997 0.32396728 0.55029136 0.9584478 0.47643712 0.21992862 0.9632326 0.89542043
연출 0.42411917 0.9122563 1.0023118 0.37114787 0.15208982 0.10716592 0.7525428 0.80767125 0.8587851 0.31614554 0.20018178 0.31644472 0.6784608 -0.06592556 0.54366094 0.29295766
한다 0.53098273 0.45768905 0.20308214 0.8407335 0.53184545 0.2471379 0.48463345 0.22186655 0.33725202 0.4803487 0.36349952 0.9138307 0.68036675 0.32039258 0.8402088 0.39706203
때문 0.32258216 0.7444367 0.8658757 0.31354854 0.013376966 0.48755297 0.39764664 0.74208045 0.7338084 0.7925595 0.3722375 0.6572891 0.65675235 0.1814395 0.40707242 0.520759
ㅎㅎ 0.61236376 0.9787949 0.18928127 0.051478278 0.49208465 -0.070368305 0.7900494 0.57857764 0.440021 0.14949232 0.6873267 1.0781813 0.50653803 0.904708 1.0159868 0.16208984
이나 0.199619 0.32744548 0.5107415 0.33825177 0.7673614 0.74695593 0.74058 0.27913806 0.105121665 0.22445102 0.4666459 0.33672425 0.72532797 0.20686954 0.06300788 0.79683745
요 0.636404 0.46118593 0.8118362 0.3734303 0.33004344 0.29125172 0.016489523 0.1285906 1.0034983 0.66249144 0.5193956 0.9067343 0.6156543 0.3816892 0.93665695 0.2558617
저 0.5092214 0.4015958 0.5077125 0.20042959 0.34162065 0.6610654 0.046219733 0.3473953 0.5387893 -0.07702512 0.6946677 0.48025608 0.82506204 0.37962136 0.16222239 0.5336501
재 -0.06990399 0.5860431 0.020291572 0.16905254 0.63278943 0.29864776 0.44456115 0.40390205 0.79476094 0.31969106 0.2124108 0.4024439 0.26543674 0.14103001 0.34469888 0.47242284
꼭 0.40915993 0.5665231 -0.0099559445 0.72335315 0.40287077 0.11353336 0.41177067 0.93958217 0.7492935 0.10124917 0.9988857 0.9152511 0.16064963 0.4843281 0.65958995 0.91456217
며 0.36498192 0.6286243 0.088536575 0.44704533 0.23422137 0.87329507 0.48022297 0.7814576 0.5957685 0.11509601 0.50160563 0.42460167 0.4879075 0.7846869 0.094530866 0.277003
현실 0.48028582 0.0755121 0.68757945 0.47320223 0.7849776 0.64304775 0.60161465 0.38532835 0.62504226 0.26373875 0.12644182 1.1917638 0.64391863 1.1009446 0.9004874 0.36072135
랑 0.27252632 0.7448058 0.4231256 0.82042474 0.7263869 0.2103477 0.8789623 0.59425086 0.75975204 1.0279796 0.12714364 0.7526906 0.42580926 0.22055025 0.81678194 0.27441567
긴 0.5631992 0.7433968 0.11315229 0.93573064 0.22130479 1.0102384 0.3042732 0.23221153 0.24197395 0.91213536 0.83928764 0.6069931 0.115512535 0.32859623 0.846242 0.6492373
ㅡㅡ 0.59220934 0.0057935924 0.79657054 1.0154575 0.68529886 0.750352 0.60789645 0.42222217 1.0347037 0.703074 1.1488085 0.7246894 1.1879739 0.3195129 0.025069766 0.6046957
무슨 0.9362656 0.55567706 0.963148 0.16968219 0.49797168 0.62203664 0.7387838 0.55948883 0.12755644 0.44096646 0.21290156 0.47945097 0.74194473 0.47666332 0.08851559 0.23904978
내내 0.86933684 1.236866 0.4104256 0.17903848 0.860439 0.28170797 0.20461595 0.8132164 0.9148489 0.6842723 0.3695648 0.43080473 0.5213061 0.6822856 0.29273278 0.07787058
결말 0.8187067 0.08622089 -0.0014342682 0.8934359 0.8428804 0.5657669 -0.0003116429 0.7721447 0.42326266 0.62879515 0.5708656 0.64176977 0.62887365 0.13409193 0.93788344 0.25469565
죽 0.87788147 0.4637827 0.84088635 0.67591524 0.33545208 0.50349164 0.46735078 0.6895644 0.6311513 0.40035737 0.4679066 0.51572466 0.464081 0.6247078 0.2533319 0.52124184
세요 0.37827325 0.4739423 0.17791508 0.8782208 0.58072704 0.1497769 0.96483505 0.061262842 0.6386928 0.8438826 0.085525714 0.58160824 0.08298981 0.27673683 0.7107933 0.25585884
남자 0.6517307 0.060586464 0.8078152 0.8862934 0.8588672 0.752183 0.7351951 1.0251138 0.9834047 0.83095545 0.6851286 0.9935546 0.3899884 0.48750094 0.5580994 0.47188267
전개 0.5819555 0.7714003 0.93720144 0.5264732 0.6128037 0.78262544 0.34034437 0.5838781 0.49176598 0.2656112 0.07388504 0.15488267 0.85924244 0.07953609 0.6269899 0.91314805
마음 0.15041801 0.10866907 0.9134978 -0.022570109 0.71067727 0.55008477 0.19873877 0.36839736 0.8072804 0.23380949 0.54011035 0.9626503 0.25106052 0.053419005 0.4379532 0.91418004
별 0.2677401 0.6183021 0.5943702 0.57711893 0.33420035 0.34257063 0.862083 0.6757768 0.44829762 0.35581392 0.14931276 -0.0050386596 0.8972863 0.6244344 -0.117373936 0.44349203
소재 0.8135741 0.2657454 0.5433648 0.7168221 0.67430335 0.3770228 0.6109751 0.014722818 0.7066742 0.97253126 0.71099484 0.52183026 0.82618606 0.44522116 1.0551142 0.14768471
속 0.63417125 0.59719455 0.409404 0.65376514 0.800437 0.11375019 0.7292095 0.6670769 0.20643754 0.6127478 0.28135023 0.53853536 0.34561932 0.89577746 0.4412612 0.47055256
공포 0.78120434 0.17348458 0.9268101 0.77344275 0.82372093 0.09007743 0.7332902 0.047585532 0.9670618 0.7835462 0.6275945 0.44551378 0.6690398 0.39911017 0.8168942 0.7741259
다른 0.89419746 0.34799418 0.65482247 0.18255301 0.3813825 0.2783844 0.42078462 0.97787714 0.40232718 0.6722232 1.1677232 0.2806294 0.40295297 0.71101534 0.92138267 0.78941584
아서 0.9693196 0.84680223 0.8136388 0.20392092 0.60266906 0.10136839 0.4787023 0.6883366 0.61864436 0.65101314 0.5457633 0.49670592 0.023859 0.07876923 -0.025858268 0.7841198
씨 0.20793058 0.034939565 0.4495084 0.73160344 0.7528306 0.72271955 0.5852103 0.54781383 0.6522498 0.29303983 0.68140125 0.22215837 0.53678584 0.42541894 0.51115793 0.407435
인생 0.048619214 0.015217458 0.72169065 0.27457038 0.4641042 0.29896867 0.5963997 0.36046305 0.41502568 0.105980046 0.42775726 1.0351881 0.4813685 1.151553 0.1752541 0.49679825
~~ 0.7889787 0.92577565 0.66919285 0.12691398 0.3606028 0.4034418 0.8715406 0.5177865 0.85519415 0.56772375 0.045346107 0.9543418 0.7122849 0.69431746 0.396611 0.40611148
짜증 0.86538655 0.8104715 0.4958457 0.37737575 0.63479584 0.4823283 0.38408735 0.2256588 0.11525954 0.4054997 1.0966395 0.028554723 0.87534934 0.34927574 0.012354237 -0.25637883
짱 0.39133778 0.22415526 0.61669123 0.5947813 0.32924032 0.5055971 -0.007596727 1.0177045 0.3348471 0.30885223 -0.20174615 0.841031 0.368023 0.6586192 0.6810949 0.3397271
뿐 0.4436102 0.51098806 0.9716463 0.29165912 0.18519184 0.8817724 0.29076332 0.088395365 0.5892199 1.0051522 0.23843622 0.65400183 0.51856774 -0.02410359 0.7242645 0.1594927
은데 0.3898266 0.3767055 0.8565346 0.39670742 0.5958379 0.80404645 0.017369855 0.04862551 0.6360583 0.67717236 0.5737028 0.39842167 0.5074301 0.5191287 0.78047544 0.9169871
아요 0.16822775 0.107929766 0.9243137 0.6154633 0.48935786 0.14770477 0.12943266 0.18878324 0.36780897 0.61726683 0.33201733 1.0702674 1.0624487 0.265139 0.69527936 0.87102735
유치 1.1367666 0.4705359 0.6705262 0.62123954 0.86978436 1.1413587 1.1292212 0.58675 0.16301298 0.9813875 0.02801141 0.4864688 0.25165695 -0.11079865 0.55463266 0.5718351
필요 -0.34505728 -0.54719067 -0.057885397 -0.09334714 0.004507104 0.4579381 0.24710797 0.49200475 0.46742675 0.2306646 0.5295729 0.47016403 0.62120473 0.9751041 1.2596958 0.18120813
가장 0.5333849 0.78785443 0.6687853 0.3949986 0.19464096 0.12859263 0.18405682 0.44037452 0.23557106 0.1664957 0.45145515 0.3863876 0.320622 0.47932118 0.32445967 0.51224583
음악 0.28141704 0.01815715 0.69568914 0.6203692 -0.18398592 0.23320726 0.13298109 0.45344245 0.6447662 0.5773327 0.5554895 0.5112446 0.6240028 0.411688 1.0383813 0.62073135
) 0.6732348 0.028134376 0.89118636 0.41162768 0.24231967 0.82670045 0.76052827 0.5062969 0.6825934 0.6857283 0.35126877 0.3882338 0.3638876 0.2836028 1.0608883 0.5851929
일본 0.46631682 0.5295283 0.48866212 0.37990558 0.32969952 0.8265922 0.99655557 0.70556617 0.27077317 0.43233246 1.0665789 0.0341516 0.39874604 0.76589507 0.14695649 0.84908783
낮 0.31788668 -0.14120588 0.31013787 0.32707083 0.50112355 0.19724217 0.71124554 0.72648805 0.9290212 -0.20958988 0.40214062 1.2094413 0.53188366 0.94907486 0.6001452 0.21621057
오 0.7242498 0.10460313 0.06686178 0.074514486 0.86737937 0.7449033 0.43372715 0.8775656 0.46562877 0.42177033 0.73086673 0.74139893 0.6131934 0.29577926 0.6772287 0.25702724
;; 0.635418 0.07415717 0.8179078 0.7053768 0.7879665 0.012930882 0.7391502 0.9828699 0.23106961 0.31107232 0.7522879 0.12363741 0.58565235 0.19365884 -0.0034007512 0.8917887
아이 0.93149734 0.12588595 0.3873496 0.91499555 0.5541869 0.65531313 0.5881076 0.35506046 0.18297474 0.15902026 0.3807427 0.22226498 0.13296266 0.89240533 0.9505522 0.8027413
반전 0.5323617 0.6543151 0.8136568 0.64502037 0.040355723 0.6743852 0.09527922 1.0034688 0.55489075 0.607032 0.4454458 0.90651935 0.7781064 0.06937161 0.31590715 0.9430933
데 0.34555367 0.675314 0.6022141 0.6632336 0.33271217 0.65409106 0.26411656 0.37549648 0.17798959 0.1491779 0.3561294 0.38634482 -0.036718354 0.2755928 0.6402671 0.50240123
수준 0.34835678 0.566408 0.97087985 0.9231354 0.84391373 1.1358647 0.81321204 0.24748954 0.61294323 0.79023486 1.0106016 0.50486666 0.5751121 0.7398035 0.4570925 0.62748444
다니 0.23920256 -0.09419679 0.8093436 0.50712544 0.09152844 0.89308375 0.85010546 0.568086 0.58875257 0.87913805 0.4311825 0.2867695 0.7008919 0.511368 0.2748595 1.0747457
웃 0.63759136 0.9138288 0.20302816 0.63537854 0.60709804 -0.021524038 0.1325772 0.6700246 0.0053285006 0.97042394 0.6019609 0.84106463 0.32122803 0.9570012 0.05635548 0.8759929
매력 0.54846454 0.78297204 0.55750203 -0.20587628 0.25081992 0.4576364 0.17143233 0.29325768 0.76616937 0.35439447 0.33473808 0.85486674 0.43672088 0.42006952 0.7526232 0.48935702
맞 0.59612083 0.4548704 0.42937723 0.3492398 0.88455075 0.06981671 0.96002656 0.92154974 0.2658903 0.9794611 0.42204103 0.13776758 0.9230542 0.5021374 0.90847504 0.7464248
인지 0.49789688 0.71035194 0.38820267 0.065560386 0.7812358 0.8295731 0.55454123 0.9025318 0.6311469 0.61481416 0.50836515 0.14386566 0.8011188 0.2933652 0.99099636 0.4923012
가슴 0.6019779 0.47458827 0.3886879 0.81209564 0.060548745 0.64300656 -0.025638374 0.28070155 0.8620381 0.07918915 0.2290202 1.0872945 0.47269157 0.48801097 0.64972174 0.73860365
없이 0.24179073 0.9094328 0.5044874 0.61261576 0.17295666 0.16565505 0.51131105 0.6758151 0.34144592 0.95453197 0.2963236 0.5967842 0.04739095 0.021361556 0.5918373 0.1111407
원작 0.4219391 0.73710763 0.37642995 0.9940288 0.264923 0.67274094 1.1570582 0.30725357 0.24272452 0.7363377 0.41780883 0.7706508 0.29692343 0.8374455 0.06677049 0.27575517
ㄷ 0.7946407 0.31468514 0.2757797 0.6836898 0.39407915 0.06357885 0.2304466 0.78741664 0.25436318 0.1273774 0.7507258 0.47465265 0.5953008 0.27601928 0.4681291 0.5375292
인간 0.06692759 0.4367127 0.6945627 -0.060037445 0.37613004 0.8319021 0.73216605 0.44765082 0.69444525 0.047624007 0.9230774 0.46600255 -0.07292752 0.67111903 0.9420495 0.82791793
굿 0.4272208 0.83157986 -0.00909644 0.3531836 0.08618483 0.14542052 -0.07335022 0.3138257 0.7680884 0.6063992 0.48963496 1.189067 -0.04116267 0.74555326 0.8090032 0.617795
높 0.94163305 0.52968764 0.5992305 0.9624338 0.9762513 1.0293252 0.30460545 0.79260826 0.6443618 0.8783559 0.60042024 0.4649566 0.07740198 0.31311002 0.1957414 0.30654845
ㅠ 0.6332125 0.7732996 0.37152004 0.8893398 0.13560812 0.03959692 0.8247758 0.87415314 0.5414425 0.032618754 0.68195224 0.19371907 0.06315961 0.7773497 0.37996745 0.4769224
밋 0.77260774 0.20372905 0.4741486 0.6653429 -0.052852243 0.19469944 0.39479747 0.7112263 0.6656373 0.7786061 0.20054896 0.62923515 0.68158716 0.796922 0.80920875 0.8948952
( 0.7537671 0.14932404 0.7806451 0.3942844 0.5797336 0.19579406 0.5540804 0.3231348 0.27167812 0.103933915 0.95784646 0.80883884 0.87912303 0.5413176 0.034576125 0.6637528
급 0.9540867 0.91677797 0.67896396 0.58165663 0.50209385 0.46220025 0.17467284 0.32520086 0.9315248 0.45888215 0.384754 0.55077696 0.5114211 0.24318811 0.7649457 0.8443706
만드 0.20266418 0.7565837 0.811087 -0.019348288 0.4675558 0.25545818 0.5472673 0.05420265 0.7594124 0.11253485 0.6338877 0.22505559 0.23807372 0.2067093 0.5454671 0.36431703
눈물 0.86548173 0.45717457 0.2148733 0.09266873 0.59671116 0.20580336 0.36707225 0.80915123 0.6974273 0.13759567 0.19449271 0.6206543 0.2643543 0.92429525 0.22081518 0.9071149
보여 0.26805532 0.25540522 0.7695497 0.69084704 0.769696 0.80366313 0.14549106 0.9298123 0.85568815 0.3488084 0.71320736 0.1611533 0.39138752 0.29300267 0.3645618 0.50969505
준 0.4395805 0.64697045 0.7518044 0.63228124 -0.32777748 0.59406793 0.83551973 0.8911845 0.37184423 0.8121935 0.38851792 0.5998807 0.5510725 0.93665487 0.76307666 0.79297745
찍 1.0306679 0.71604097 0.3586016 0.45509607 0.89275146 0.6547943 0.4987379 0.75869906 0.08176529 0.68877244 0.29652405 0.6556941 0.16969694 0.15589851 0.58887506 0.18756971
인가 0.40662783 0.69646734 1.0634521 0.72619605 0.48111755 0.43613306 0.26220354 0.38635013 0.9100126 0.9156828 0.8147716 0.70048976 0.2654425 0.7983935 0.24304605 0.1101864
노 0.73278487 0.851769 0.8703368 0.7057842 0.72776574 0.89127773 0.79369676 -0.14820847 0.082061 0.6467148 1.1156852 0.39835167 0.7588169 0.5307257 -0.07153991 0.32870814
용 0.211502 0.22752771 0.171505 0.46997723 0.6502346 0.416733 0.70908266 -0.045306645 0.5309197 0.4287801 0.39297882 -0.056260064 1.0647129 0.40580204 0.4725344 0.63259983
을까 0.0031332383 0.47093457 0.49464187 0.15901917 0.42155698 0.691284 0.53902155 0.3007527 0.2507951 0.8822199 0.116474465 0.10631017 -0.009329074 0.17022489 0.7905149 0.21002911
화 0.7649818 0.03825257 0.8022003 0.8340784 0.5986763 0.54034704 0.7508595 0.4935612 1.081633 0.6819261 -0.15904972 0.5825809 0.6725161 0.45133343 0.2294645 0.09887211
코미디 0.9748288 0.32858163 0.2979139 0.49152938 0.20880234 0.79836637 0.74794966 0.84016997 0.877442 0.6553986 0.46171382 0.16853896 0.5021718 0.41923064 0.8097674 0.066981286
여 0.5944327 0.27781653 0.6756747 1.0129181 0.7635422 0.3346158 0.14587781 0.50873524 0.6703344 0.19073243 0.22391489 0.084529616 0.48555017 0.08956149 0.38146934 0.78567296
마 0.71809363 0.22459885 0.7784979 0.2633326 0.93319404 1.1070198 1.0688238 0.3845859 0.35139173 0.67221653 0.3554299 0.77245396 0.455237 0.7138614 0.4550636 0.32048064
쓰 0.526093 0.1855222 0.719815 -0.051960614 0.22312714 0.71089894 0.7272453 0.3292716 0.37343565 0.6879369 1.0007483 0.82283473 0.7004957 0.118824184 0.6510431 0.072223045
모든 0.46234855 0.6988119 0.6913997 0.13825947 0.3111858 0.57591677 0.56907403 0.6282861 0.67374265 0.30842698 0.028812723 0.69100595 0.18295433 0.53568584 0.77843094 0.35771692
신 0.8647665 -0.08314312 0.68121004 0.20030132 0.068337224 0.018344486 0.9041488 0.15409578 0.5156468 0.41510788 0.92337394 0.32839718 0.039636124 0.29997325 1.104692 0.7013252
5 0.41381416 0.6162693 0.21711738 0.8820181 0.59978044 0.62512285 0.30062217 0.83575106 0.1124046 0.034448862 0.30445534 0.06926727 0.48808044 0.9819749 1.0011413 0.8129691
아직 0.10312532 0.4045369 -0.073706955 -0.019320229 0.5194402 0.6193794 0.0063539613 0.597198 0.24813832 0.18032107 0.5018191 0.22897889 0.6453647 0.48473385 0.3221908 0.5102555
처럼 0.25674862 0.7584782 0.62190676 0.33682463 0.43727183 0.24550639 0.33663812 0.6830107 0.71009326 0.88155323 0.71066654 0.5773407 0.69508964 0.42520863 0.43430412 0.6718126
눈 0.5972733 0.5254906 0.32396364 0.89393646 0.13646881 0.53427744 0.13324203 0.9090669 0.03485749 0.6777001 0.792848 0.53438294 0.6389709 0.53676224 -0.023824066 0.2715798
추천 0.5293216 0.82795 0.7200106 0.7688249 0.3776685 0.2932616 0.83966935 0.96626174 0.7625922 0.12406411 0.86088246 0.65581125 -0.017288469 0.75257844 0.92569566 1.0286362
아닌 0.7621273 0.525116 0.30973288 0.37658164 0.38748834 0.47717652 0.75057906 0.22325592 -0.035149194 0.9694367 0.7190565 0.70296395 0.75289816 0.6917279 0.7310167 -0.0030924685
울 0.7065726 0.8014108 0.5696322 0.18867625 0.7358721 0.21995386 0.41856703 1.018557 0.7851842 0.6395373 0.39291692 0.3904969 0.092569016 0.919624 1.0203724 1.0427512
자체 0.88483876 0.7356004 0.4656988 0.42101792 0.6011292 0.66636336 0.93015915 0.78969246 1.170365 0.27950954 0.5931092 0.03429164 0.04507705 0.15957949 0.31382394 0.82573366
몰입 0.6429915 0.7988542 0.43577176 -0.09875388 0.83383656 0.78181624 0.31443015 0.36336264 0.33008605 0.28974932 0.20145456 0.7328048 -0.16432548 0.8390007 0.27585113 0.85325164
4 0.5528453 0.6125716 0.23505174 0.2768906 0.42777085 0.80946165 0.8562744 0.10285866 0.8061172 0.5650191 0.5938987 0.21907952 0.37157857 0.27454802 0.52625155 0.2528134
대박 -0.08316593 0.39629644 0.3510658 0.7670821 0.15465382 0.7751594 0.6522128 0.8841348 0.6389417 -0.10357925 0.68570846 0.6057611 0.20344056 1.1355125 1.0623544 1.0431762
몇 0.030036181 0.3836842 0.102866516 0.5662422 0.25747272 0.13301098 0.19551381 0.39448634 0.20222448 0.2840311 0.31548974 0.9571596 0.77145785 0.0065189605 0.3867216 0.33851877
스럽 0.34343874 0.9747902 0.3378547 0.63305706 0.5681569 0.101396 0.26147392 0.23597597 1.002327 0.9440721 0.81555647 0.8196414 0.07870191 0.20363905 0.11585093 0.7021892
실망 0.8258916 0.6427671 0.48743898 0.7317827 0.62769514 0.71511036 1.4699941 0.35092407 0.11611423 1.3223362 0.7173546 -0.10727443 0.96749645 -0.1230529 0.31649318 0.14565638
는다 0.46350655 0.023776975 0.9046509 0.56953335 0.90533596 -0.02615638 0.079169326 0.19317448 0.15439701 0.450448 0.28070083 0.5015896 0.5272668 0.28069705 0.4646977 0.67472816
대한 0.39639217 0.75033665 0.7307482 0.06765202 0.23242082 0.088006325 0.03495156 0.5180592 0.51882833 0.5452698 0.7640469 0.13799292 0.34699306 0.2716215 1.0457268 0.85211825
죠 0.5162988 0.22994313 0.26993054 0.21540587 -0.032385193 0.4522836 0.13362585 0.55208176 0.47506756 0.20520723 0.44953158 0.8973068 0.7624667 0.30498862 0.39377788 -0.007940898
란 0.47103938 0.52465445 0.29694575 0.30248544 0.104329765 0.2121773 0.3089581 0.4452727 0.3297213 0.6760664 0.5660957 0.7447478 0.7267974 1.0296232 0.12792252 0.14172444
그런 0.4430688 0.015734464 0.63235825 1.0491205 0.5284978 0.20085636 0.82916456 0.5307525 0.8357004 0.619975 0.006702158 0.20023704 0.57535094 0.5370625 0.850051 0.06415811
솔직히 0.42224693 0.31995043 0.8827314 0.3491306 0.3196351 0.2793508 0.6944076 0.10369153 0.0701056 0.6389613 0.5389172 0.6743826 0.4722434 0.45730212 0.27290374 0.31301165
캐릭터 0.5643797 0.5411247 0.98028845 0.7944808 0.39242777 0.8948467 0.7093031 0.4323694 0.74794203 0.6673783 0.11789519 0.9131995 0.042102743 0.39665392 0.2924896 0.4974522
ㅎ 0.43538272 1.1021413 0.45605436 -0.009968426 0.09476507 0.7122202 0.10252371 0.65079534 0.38335472 0.25438768 0.4604128 0.23164052 -0.07273737 1.0191327 0.43481922 0.33773595
모두 0.581941 0.85811096 0.58026165 0.6490214 0.12631981 0.7482763 0.31727597 0.69306386 1.0538307 -0.014645743 0.1776012 0.12211041 0.63243955 0.9866794 0.8813784 0.35638952
아주 0.7171127 0.44548407 0.5792067 0.15257044 0.9304025 0.16653544 0.08634934 0.61537147 0.79605466 0.46279138 0.6092106 -0.03381028 0.27391404 0.34148803 0.098466985 0.86473423
- 0.3127188 0.808017 0.9602409 0.3381856 0.027562635 0.5940075 1.0394132 0.20626083 0.539009 0.17076197 1.0503306 0.6444573 0.672513 0.51488423 0.6563506 0.9187155
가족 0.4557739 0.6726771 -0.13523106 0.67680675 0.45038366 0.12954538 0.6754216 0.1751548 0.85020536 0.6862572 0.54431725 0.70626116 0.47746244 0.13710564 0.67733324 0.9789685
여운 0.7181032 0.76426667 0.3600209 0.46891698 0.008273717 -0.18577354 0.14722942 1.013618 0.76240885 -0.088668354 -0.07408392 1.1525254 0.42404068 0.46302474 0.24308982 1.0276755
건지 0.70373523 0.1817093 0.89992476 0.015221733 0.72565776 0.0788709 0.7087133 0.16462635 0.124018125 0.6215448 0.43400708 0.099448964 0.6661054 0.5446755 0.09959784 0.6748835
전혀 0.41577253 0.8684646 0.8970212 1.0770922 0.16233443 0.97115743 1.3554345 0.69855225 0.2931383 0.9650598 0.6431124 0.7394905 1.0655484 0.37411267 0.37457332 0.56866676
나라 0.58196676 0.22072917 0.36039117 0.21355784 0.3281321 0.21489608 0.9514907 0.17276508 -0.017900452 0.6110232 0.8382618 0.80471694 1.002576 0.9855846 0.89289254 0.5227733
연기력 0.554451 0.18597983 0.78160435 0.50196147 0.5403431 0.56291693 0.7126918 0.5899417 0.4289716 0.5883826 -0.15885523 0.3934754 0.50744325 0.96760124 0.08865532 0.6480257
후 0.515424 -0.058365155 0.31789032 0.8737379 0.10838182 0.49735874 0.8137344 0.6343161 0.27988854 0.6688822 0.44630012 0.717241 0.6025088 0.42175934 0.13869688 0.12840402
다면 0.12158914 0.66792625 0.24518122 0.15995672 0.47209582 0.07328115 0.6467625 0.6567162 0.6292668 0.9683991 1.153227 0.9959194 0.54098225 0.5330951 0.15899517 0.039917674
될 0.19127949 -0.01980986 0.6220087 0.9670899 0.6208994 0.8253849 0.52047354 0.5937656 0.32327694 0.18949409 0.8864237 0.25000525 0.45543864 0.90492076 0.92930967 0.16949466
뭔가 0.31991163 0.09806953 0.5655747 0.8087006 0.73714685 0.26932186 0.5053704 0.35540235 0.3294856 0.20926169 0.3870817 0.63503975 0.4462722 0.35665858 0.116563335 0.6226564
그래도 0.7619095 0.14826386 0.7077756 0.3666527 0.5546152 -0.10885491 0.47684607 0.4871772 0.32888666 0.7405211 -0.035573322 0.33947408 0.038561244 0.4387557 1.1622536 0.19830652
; 0.8218329 0.25628912 0.4371821 1.065131 1.0182816 0.360128 0.9650559 0.77614444 -0.11521484 0.30510926 0.8447719 0.6117562 0.065357625 0.6462417 0.9063735 0.23434424
시리즈 0.41916806 0.47111833 0.34152657 0.37830228 0.18267918 0.058772467 0.38004157 0.80774367 0.21640225 0.7885997 0.23272735 0.60569495 0.7985415 0.5613318 0.35093355 0.7688867
근데 0.1539947 0.54045504 -0.014516171 0.926458 0.83027387 0.9269079 0.36142892 0.94392055 0.20083106 -0.048524328 0.8216755 0.623576 0.8276811 0.69589585 0.8839776 0.972861
작 0.551312 0.65863526 0.90449786 0.6649286 0.13453019 0.38378897 0.88469136 0.92046875 0.5386448 0.69452065 0.26480162 0.5727419 0.27117723 0.38118598 -0.024187561 0.93368214
표현 -0.09244637 0.43596238 -0.102639504 0.6584018 0.25829235 0.531866 0.16289766 0.5243799 0.4037107 0.19250208 -0.18445253 0.33959803 0.4121272 0.37498242 0.7297129 0.62564975
모습 0.5446502 0.4443164 0.114913695 0.31984836 0.55766207 0.31867713 0.91794956 0.7439981 0.78575474 0.07145328 0.7517671 0.34165308 0.08613475 0.3436954 0.42545584 0.34298107
제 0.84312975 0.8184127 0.30404335 0.62653136 0.23094541 0.050474398 0.10273924 0.2504407 0.9967309 0.80512935 0.50303507 0.5179496 0.7495229 0.1506614 0.40664366 0.39800608
공감 0.17769124 0.99011886 0.6104616 0.2769426 0.42570412 0.3973237 0.40766576 -0.07184226 0.09794694 0.1998613 0.21639746 0.82661533 -0.009513469 0.9011786 0.2534977 0.7254501
밖에 0.36859494 0.7558699 0.74273676 0.5942792 0.33143142 0.65965253 0.16578892 0.5669765 0.82995886 0.065754384 0.9005803 0.21403925 0.85247606 1.0042245 0.95371205 0.9991833
먹 0.865404 0.0348169 0.70155203 0.7945381 0.16130236 0.93741286 0.21714598 0.49816015 0.25234726 0.7038134 0.5541853 0.54075164 0.0008249401 0.8963952 0.10362809 0.16515075
계속 0.08988146 0.774462 0.8978046 -0.014488565 0.56684667 0.012288615 0.3325733 0.6182296 0.69166535 0.9347596 0.015256556 0.0030041796 0.06835209 0.73881215 0.74374527 0.08793614
이랑 0.95012814 0.38853684 0.78213334 0.24592073 0.13882732 0.5081346 0.18084207 -0.07205439 -0.10060543 0.22471812 1.0043253 0.6775577 0.6151555 0.4118314 0.116097964 0.4835231
제목 0.18629737 0.5644536 0.5333766 0.12564903 0.5966092 0.6657093 0.9107997 0.16383845 0.67046076 0.89935297 0.51133907 0.1260412 0.30128658 0.5542176 0.70809585 0.790401
"" 0.84685135 0.6597931 0.39303005 0.44719666 0.47072572 0.6422155 0.7553143 0.9479258 0.25727156 0.6497852 0.7318642 0.2530296 0.4436393 0.2903333 0.28059927 0.8763061
7 0.38182712 0.22972913 0.04998482 0.11456787 0.31321982 0.82879037 0.78195435 0.34238634 0.91674393 0.19751927 0.77206534 0.8545137 0.10866 0.18981294 0.90320885 0.43854922
극장 0.2925461 0.46599156 0.72576517 0.47448498 0.95413166 0.4670111 0.61104244 0.3466323 0.55758166 0.74081016 1.1377875 0.59244466 0.68208724 0.46085855 0.2530424 0.5998709
비 0.4803153 0.47706792 0.62819856 0.9238327 0.9559425 0.32492197 0.27093965 0.08485842 0.45529732 0.82115793 1.0704887 0.8263569 0.3720634 0.07479962 0.447423 0.74115956
진 0.7740916 0.09867573 0.32965702 0.8973235 0.15851568 0.89326864 0.33494237 0.20578544 0.68137354 0.6641379 0.29963538 0.9575632 0.8667089 0.28921285 0.5993233 0.9440519
이걸 0.87828076 0.76731 0.46710622 0.2859574 0.18507029 1.0577086 0.7832416 0.7821701 0.49203035 0.9315545 0.75043947 0.21884848 0.73047256 0.24390663 0.50377834 0.45771933
바 0.7706842 0.70704097 1.1830382 0.3918193 0.3921075 0.7039639 0.7941206 0.58553857 0.40674317 0.31559902 0.6540193 0.28784296 0.49520582 0.042137578 -0.072906025 0.48375812
그렇 0.82848877 0.10901563 0.5519089 0.6774686 0.8042856 0.9230092 0.35603398 0.031909592 0.18027544 1.0040861 0.3823704 0.7031117 0.27707943 0.3650749 0.34593982 0.41104823
대사 0.7975993 0.32743958 0.12734053 0.09830847 0.8107252 0.83735573 0.6828729 0.21869531 0.47341248 0.58591956 0.1951742 0.5298807 0.8609925 0.96524847 0.76676005 0.2896523
개봉 0.58538365 0.85323375 0.94975805 0.036053833 0.41526702 0.91788566 0.5120485 0.65627116 0.9519493 0.7973281 0.95744276 0.032172434 0.3300345 0.8117276 0.34771594 0.76766926
부분 0.6280029 0.6281972 0.22651546 0.69178164 0.4375087 0.31843624 0.3706986 0.44746825 0.567053 0.9352824 1.0622996 0.85807455 0.62814724 0.7461756 0.32904714 -0.06515338
0 0.8487245 0.67226285 0.079775855 0.7673296 0.87419236 0.32707712 0.75540733 0.09022645 0.03173236 0.05145233 0.5066428 0.29646888 0.7998653 0.31612647 0.8042011 0.26971704
OO 0.9092429 0.509958 0.72569734 0.77004224 0.75320405 0.7525343 0.34281063 0.66683203 0.8120455 0.9454155 0.4599819 0.7164876 0.53724045 0.20817064 0.63899094 0.024848776
대단 0.5638462 0.6263132 0.80913866 0.8669012 -0.09319926 0.24739312 0.08398694 0.21876906 0.43427563 0.0892998 0.40448493 0.8871127 0.2340826 0.51919454 0.20349467 0.9218829
된다 0.5805722 0.34070104 0.26086175 0.708167 0.696965 0.4209423 0.27617565 0.47720674 1.2061841 0.36582536 0.93195325 0.97004986 0.9224312 0.5500025 0.7213663 0.19750597
작가 0.8462537 1.0238775 0.44978333 0.83403593 0.12694329 0.888007 0.15722889 0.3286289 0.70777076 0.7740513 0.65915793 0.41544175 0.7976595 0.4074866 0.034148477 0.7767673
어디 0.7405605 0.50021785 0.10189951 0.27761793 0.63276184 0.262237 0.62511533 0.24730574 0.46167168 0.47132713 0.5023955 0.5452434 0.6575713 0.10090376 0.42045757 0.86431557
기분 0.35217926 0.3365627 0.1719436 0.48778695 0.9220596 0.94044214 0.19248348 0.06372055 0.18106885 0.77571714 0.17832689 0.15015061 0.9415924 0.85194594 0.38804907 0.85999507
아쉽 0.020982511 0.36858362 0.70784485 0.84678346 0.68466985 0.11763088 0.80528176 0.9028731 0.72615874 0.6282095 0.32382885 0.4270159 0.660914 0.80405706 0.2424734 0.6275474
치 0.6673207 0.13322619 0.2611446 0.32834107 0.5611805 0.2339113 0.8667046 0.5237425 0.67624784 0.44975293 0.9837601 0.29026383 1.0536773 0.44474304 0.1339643 0.43193752
진심 0.87101793 0.52859235 0.7306701 0.7008797 0.8912414 0.39127323 0.13502844 0.50238883 0.54541975 0.34918416 0.6782968 0.57884604 0.65988153 0.4555496 0.3959632 0.929433
해도 0.63196385 0.6530833 0.9010305 0.36611894 0.057660967 0.1929461 0.23872042 0.46222275 -0.080159135 0.39701095 0.30454266 0.46559086 0.70374036 0.61380255 0.28097042 0.22863124
보이 0.33427918 0.030917972 0.071337365 0.58938277 0.64236724 0.8141812 0.86804724 0.20217377 0.7145076 0.12916346 0.6546182 0.3002296 0.32945803 0.28996268 0.41188356 0.5731189
타임 0.27741787 0.14918523 1.0614539 0.46966767 0.64975184 0.49027428 0.46783194 0.3176524 0.45220974 0.16735989 0.7011299 0.8086528 0.4286172 0.56636864 0.6922143 -0.087566316
놓 1.0072236 0.15762733 0.2084529 0.59106773 0.5361347 0.66598123 0.9603224 0.61403215 0.8678551 1.0493101 0.8465627 0.1574504 0.19440664 -0.065665886 0.57588744 0.6881198
/ 0.6218692 -0.12715782 -0.008028809 0.017669683 0.7788406 0.43599322 0.6533696 0.576928 0.27616557 0.16993171 0.6189393 0.43322346 0.24361779 0.10783886 0.21144266 0.23493811
웃기 0.011720695 0.21337377 0.551786 -0.03655027 0.9080816 0.84544283 0.8663324 0.79580635 0.54555804 0.6402166 -0.04274091 0.18631254 0.30506986 0.26301003 0.80211043 0.772058
봐야 -0.030798301 0.2267336 0.6626747 0.49660516 0.3707006 0.54794955 0.3745781 0.80374706 0.48733288 0.24495848 0.2312707 0.9854324 0.42870322 0.66475165 0.6153354 0.49039528
이제 0.4705925 0.543137 0.53784764 0.4055711 0.7743583 0.4027163 0.27871236 -0.0573221 0.32783225 0.6022807 1.0516548 0.7276084 0.14027184 0.567233 -0.018902363 0.37090683
물 0.0745509 0.6221085 0.7372198 0.32113665 0.59053576 0.23088582 0.4635008 0.61038285 0.24280661 0.44282758 0.5587585 0.10538202 0.4744952 -0.03532655 0.8156294 0.08544875
막장 0.9581586 0.26186484 1.1265823 0.88976485 0.5172761 0.454217 1.1656165 -0.16920802 0.7938065 0.5018421 0.8211836 0.66488624 0.40074003 0.47432086 0.010595261 0.49159822
삶 0.8095429 0.21952593 0.31425536 0.3560221 0.5761883 0.80991143 0.195413 0.96548307 0.7360041 -0.083543964 0.27575582 0.9168836 0.5389007 0.43282914 1.0096669 0.36966768
친구 0.5589935 -0.006857247 0.20630458 0.5597054 0.31078094 0.9280595 0.59618556 0.16481286 0.40276575 0.96070874 0.94839877 0.8286501 0.073250264 0.3839836 0.3635123 0.6091523
잔잔 0.8552683 0.37436926 0.8553083 0.043482803 -0.049171545 0.11506932 0.17297386 0.8981007 0.15003519 0.66183436 0.37746292 0.9834853 0.65761995 0.41937965 0.8047025 0.2367471
조금 0.06978133 -0.11760948 0.29999778 0.773747 0.4617412 0.6913874 0.16898972 0.39539504 0.09955478 1.0203294 0.6350911 0.3917524 0.98830765 0.78742504 0.9145534 0.67044157
씬 0.47360054 0.2040499 0.8081258 0.59306663 0.6646721 0.22175466 0.20160018 0.2608618 0.04573778 0.16705368 0.2479488 0.81167954 0.67537016 0.64473665 0.31877124 0.21877886
딱 0.9748848 0.79934514 0.7744325 0.02444113 0.33864158 0.1929274 0.45459828 0.4663032 0.6391709 0.80111825 0.88209915 0.8129382 0.75732005 0.102780156 0.03535571 0.65315056
영상 0.20849566 0.4432984 0.6791721 0.39244467 0.67377293 0.28875214 0.45315403 0.25674662 0.6354754 0.80382645 0.1250497 0.6784365 0.9197134 0.4045945 0.71703595 0.37751698
찾 0.790455 0.8694659 0.43913212 0.07786329 0.017681848 0.5013874 0.9643313 0.8939869 0.46599048 0.1654863 0.7920378 0.8385076 0.1932042 0.70247406 0.091884896 0.33327025
억지 1.1340117 0.94826436 0.4037689 0.77689284 0.21425076 0.7179288 0.91133577 0.31472367 0.27250925 1.2268912 0.8537448 0.1978372 0.71570414 0.22997192 0.52066565 0.1020619
중간 0.28997675 0.569168 0.6380893 0.85764325 0.80629206 0.17590915 0.7787398 0.66091233 0.060646575 0.6809576 0.3922748 0.13827604 0.16858043 0.86783135 0.63104016 0.36529267
요즘 0.13682956 -0.13566512 -0.0042610215 0.70889384 0.40282583 0.5180362 0.14457214 0.8902261 0.85348845 0.35659322 -0.11855743 0.30537868 0.82590693 0.965502 0.45430893 0.23197763
같이 0.49238843 0.49106503 0.5211774 0.18796298 0.62614244 0.5425118 0.78522086 0.47889996 0.25636524 0.47918525 0.67772067 0.86313635 0.1762384 0.62424076 0.5817135 0.45731598
구 0.34641284 0.18983603 0.38934237 0.07829044 1.0540211 0.41238153 0.18713325 0.56975156 0.23861094 0.21752553 0.3649565 0.73534644 0.92467225 0.55706286 0.0663074 0.23972961
" 0.57680565 0.7761519 0.33775684 0.6991645 0.68868697 0.11959768 0.79223865 0.92061716 1.097083 0.5724967 0.78137 0.36752355 0.41982034 0.26993704 0.1434224 0.8871193
가지 0.4465092 0.66830474 0.4267497 0.70293045 0.3400923 0.41928652 0.22513524 0.11578414 0.57922614 0.71639544 0.5798651 0.6149992 0.39728555 0.4206912 0.1764675 0.90934354
스릴러 0.5993874 0.7543464 0.13269483 0.23804617 0.88859254 0.4844466 0.68372107 -0.09079671 0.2088931 0.07819029 0.09081259 0.7912272 0.5169078 0.40185088 0.7509979 0.41662887
8 0.7110235 0.20447409 0.6452156 0.34966192 0.24245559 0.42872882 0.48659298 0.62771225 0.7567761 0.30324727 0.84930325 0.8880302 0.34380066 0.8458387 0.51150763 1.08059
믿 0.20612699 0.60070217 0.88161886 0.1273044 0.208992 0.7152013 0.28766394 0.73966396 0.5060576 0.47535414 0.21254832 0.35939708 0.055729363 0.8451861 0.17292427 0.59840107
싫 0.6737402 0.008954252 0.7922536 0.8729335 0.69629085 0.46631604 1.1268173 0.4085358 0.2888263 0.39855218 0.41277212 -0.022446953 0.823285 0.5998238 0.05743033 0.6196731
.... 0.72571355 0.6853913 0.14905545 0.894124 0.98265535 0.52075934 0.4739535 0.32256296 0.46012187 0.22695543 0.7239333 0.75213057 0.5770543 0.29005408 0.118604854 0.81489277
보고 0.73417133 0.08641609 0.6841266 0.8413895 0.0064278664 0.07708108 0.75887036 0.42118666 0.34890443 0.12843643 0.7333599 0.5885556 0.72004426 0.7380713 0.5978921 0.6595911
라도 1.0031625 0.28288278 0.89176697 0.8527795 0.72713614 0.38727373 0.6952242 0.96811014 0.6356569 0.07793185 0.24090648 0.50004643 0.47409382 0.6067648 0.032428384 0.4365781
나왔 0.85224575 0.046654627 0.6121293 0.46666723 0.8725063 0.7463007 0.7453153 0.66207975 1.0208812 0.23639664 0.49149403 0.14113605 0.4984092 0.25957504 0.81253713 0.5369844
아까운 0.6609345 0.70285064 1.1249431 0.37714702 0.8744138 0.65195817 0.17312367 0.028751893 1.1814795 0.7418418 0.75608 0.21216808 0.36191446 0.43335238 -0.096778914 0.8867375
긴장감 0.23602188 0.99038035 -0.09382866 0.29923266 0.8372614 0.8037125 0.0853469 0.10396127 0.428413 0.057892665 0.22064582 0.57365656 -0.2624744 0.8664611 0.09538487 0.78933704
점수 0.62920743 0.1535939 0.050902314 0.83650565 0.3535321 1.1312248 0.4847162 0.49205887 0.6665053 0.59142643 0.67736113 0.34937328 0.6740443 0.6379184 0.59868926 -0.10125652
개인 0.18525523 0.3442282 0.62445396 0.83663803 0.43390593 0.19652 0.34682763 0.47941828 0.42289224 0.21183714 -0.10122786 0.0020044171 0.93811655 0.7187563 0.72420126 0.41688251
제대로 0.51501095 0.9330576 0.03514649 0.12185061 0.08098199 0.54014766 0.366374 0.65178543 0.9180656 0.9551872 -0.02604225 0.6300353 0.8516759 0.39073467 0.58214533 0.25702092
부족 0.23582451 0.42446434 0.46190053 0.52362406 0.74341613 0.31224796 0.40564185 0.4828715 0.11069911 0.7926729 1.0526922 0.17239004 0.7793261 0.3295349 0.031932592 0.18833101
이유 0.6488279 0.4377996 0.73668706 0.051625688 0.25630003 0.032609288 0.2392849 0.059089072 0.6247085 0.759781 0.7967381 0.68216246 0.4467617 0.24801362 0.57524276 0.0472398
노래 0.40727422 0.74153346 0.67597216 0.47552234 -0.024179548 0.53930306 0.84752786 0.7898591 0.74850637 0.91849047 0.763276 0.8151225 0.4809071 0.4425276 0.93324536 0.3081598
만큼 0.66519487 0.20257428 0.52103645 0.07526928 0.56082064 -0.014611693 0.2901614 0.9935259 0.33971444 0.5613781 0.23882826 0.6404189 0.55865735 0.29877925 0.11936642 0.18403412
라면 0.37522212 0.10963855 0.44690412 0.0131577235 0.69654137 0.73991734 0.4803956 0.877261 0.44683376 0.90723735 0.42204586 0.80271 0.47890547 0.6747632 0.48246336 0.2158905
시작 0.25428838 0.22465403 0.17272055 0.7806932 0.79748845 1.0343227 0.22098275 0.2812769 0.52252924 0.97859234 0.17515758 0.21633284 0.43542954 0.40926555 0.51026946 0.9054537
잇 0.6259781 0.4123172 0.30257455 0.5574415 0.28974506 -0.02778998 0.58977705 0.76315993 0.14155795 0.29397458 0.29990333 0.19703084 0.33711573 0.6795534 0.6477438 0.5647399
구나 0.22188127 0.1509653 0.84406006 0.441333 0.7585775 0.26522776 0.41377735 0.49853796 0.46982506 0.41607672 0.3683787 0.17274965 0.99643373 0.41952288 0.18328193 0.32014975
특히 0.3002789 0.6269554 0.79014695 0.58222467 0.9801695 0.2755092 -0.08845031 0.3326464 0.83205485 -0.060157865 0.33722898 0.44462338 0.62174207 0.3111621 0.8138411 0.8849462
한테 0.71942383 0.7442788 0.87202287 0.7384312 0.13359168 -0.04721096 -0.022177422 0.3303733 0.2797931 -0.010170359 0.6981954 0.68272007 0.708871 0.46733356 0.1423915 0.24135326
날 0.17029971 1.0254886 0.6041495 0.75923634 0.12111264 0.34486502 0.15555991 0.14778738 0.699239 0.2847929 0.72410697 0.40948048 0.9529842 0.58456874 0.5722832 0.8717017
려고 0.9221379 0.75759125 0.29466662 0.86842465 0.32197368 0.3781522 0.7219455 0.6006658 0.3649418 1.0580999 0.23398677 0.095955685 0.70915353 0.61358416 0.6009485 0.41280127
제일 0.67154413 0.8731008 0.80130947 -0.029020013 0.3480268 0.75648123 0.23961017 0.6259572 0.4350085 0.43524483 0.6307603 0.49006918 0.47743416 0.22982825 0.25507662 0.90740824
아름다운 0.12535015 0.56982887 0.06740646 0.78814644 0.03380022 0.053733855 0.59956175 0.6576665 0.58578855 0.36812848 0.500644 1.0587084 0.13877356 0.40371394 1.1456053 1.1947665
시대 0.9753816 0.2741249 0.17260489 0.425276 -0.025173774 0.8928376 0.3817386 0.11081004 0.86771876 0.48156407 0.23549013 0.04596956 0.48792714 0.6376088 0.923178 0.31339473
ㅜㅜ -0.14276679 0.1817019 0.23161942 0.23490535 0.8656807 0.7502778 0.77014637 0.3461741 0.20849678 0.18372525 0.21627668 0.869949 0.3108241 0.1111759 0.50956273 0.51640743
어떻게 0.40899932 -0.21803287 0.50695056 0.366823 0.11125309 0.53391284 0.5911758 0.11692704 0.08382274 0.4431213 0.9517019 0.20200716 0.9596225 0.9468911 0.5017105 0.4601716
명 0.9139928 0.5571714 0.06995945 0.9416847 0.6878229 0.2893069 0.7961326 0.209034 0.15718974 0.25247282 0.12750989 0.093652986 -0.060521282 0.8359555 0.95715845 0.3565063
당시 0.5487444 0.18435504 0.24508443 0.9247394 0.38044518 0.732507 0.46434784 0.70765674 0.4660271 0.39449096 0.6837173 0.98608595 0.14660306 0.32671022 0.64853644 0.31647688
엔딩 0.1300734 0.06521289 0.271742 0.8524087 0.30341843 0.34835666 0.3866179 0.7900801 0.71727866 1.0205327 0.27195227 0.7948831 0.7486978 0.41479716 0.379635 -0.047415983
나름 0.22637352 -0.16902614 0.038660616 0.084955975 0.3073824 0.77733624 0.6110912 0.92095774 0.18137263 0.573099 0.5597985 0.15357588 0.77502745 0.855923 1.018496 0.5860561
무섭 0.41492224 0.7685386 0.29131624 0.8299345 1.032521 0.32870102 0.35024986 0.65350693 0.565719 0.26803577 -0.10241237 0.6263246 0.35011905 0.45926216 0.15209956 0.64928645
나온 0.14909746 0.31949103 0.49905285 0.8850763 0.54482645 0.9265081 0.44007373 0.254007 0.46436685 0.022505388 0.12914656 0.28864166 0.39603868 0.71392447 0.71274406 0.16983923
사 0.25189182 0.36656412 0.5656458 0.24065232 0.067765296 0.56623757 0.16270575 0.11165374 0.9292403 0.45419696 0.5966422 0.50252765 0.7347957 0.8459208 0.98800045 0.4226465
오랜만 0.046511687 0.5220878 0.61270875 0.43613547 0.39650095 0.69159204 -0.09485517 1.0520794 0.6234849 0.7376261 0.3726156 1.0470375 0.8082887 0.3705299 0.08495323 0.9086763
니까 -0.02964484 0.5390117 0.44038692 0.4299123 0.045040764 0.6884427 0.78631276 0.17991683 0.69001716 0.6175973 0.38066757 0.6339875 0.08487374 0.83764607 0.9684483 0.25454998
해요 0.5629607 0.49880213 0.68561345 0.024269491 0.36972484 0.5587171 0.46146944 0.4894556 0.38354346 0.16603501 0.10731776 0.9249773 0.41016448 0.38951662 0.33881706 0.30449444
9 -0.034235887 0.413989 -0.15679404 0.77471876 0.35245702 0.7156619 0.5513692 1.1119022 0.72694767 0.5954143 0.66108924 0.8281631 -0.16247962 0.30642107 1.1537879 0.9790164
이것 0.35114184 0.5441948 0.24719235 0.8720528 0.74989563 0.60482365 0.43139526 0.39465773 0.59189934 0.11231144 0.15561666 0.8240838 0.5012948 -0.09516003 0.20995153 0.4341678
팬 0.19160615 0.8437668 0.94888985 0.21696389 0.33133265 0.62848544 0.8077404 0.6766156 0.5840805 0.4241132 0.4183837 0.8035825 0.75421077 0.21218407 0.6115948 0.53777623
차라리 1.019903 0.5894418 1.1476064 0.53236365 0.6992732 0.84002304 0.79911923 -0.13808416 0.5877113 0.87352085 1.0221608 0.16020985 0.8170972 0.0077460003 -0.31564355 -0.00521557
봐 0.117244475 1.051348 0.37744212 0.1631384 0.1461401 0.35298005 0.28859082 0.36191496 0.13145818 0.7921212 0.505861 0.9144436 0.8693352 0.25779957 0.9869258 0.28716466
절대 0.7276439 0.1558218 0.24655198 0.5918614 0.9807169 0.14632356 0.7154711 0.59100133 0.23528428 0.87052995 0.16584724 0.23744468 0.021868885 -0.00077805156 0.6170728 0.81652766
세상 0.74096614 0.77711004 -0.031601977 0.459482 0.31617317 0.3616709 0.54401267 0.28979707 0.6772612 -0.019353466 0.7152332 0.96863544 0.013315675 0.24293883 0.33593652 0.392037
세 -0.1847664 -0.06510574 0.62392473 0.340468 0.26320404 0.7350608 0.7800735 0.3652315 0.26244518 0.63764995 0.17397757 0.25470674 0.75939775 0.12332802 1.0552486 0.7262193
못하 0.9565886 0.5753457 0.5071085 0.7554895 0.47539756 0.9261668 1.0914501 0.32606262 -0.1772925 0.44229823 0.46793085 0.7231418 0.5788194 0.27969366 0.5216105 0.65287584
하지만 0.30403513 0.8808655 0.22092178 0.16351524 0.2132158 0.3564711 0.59001577 0.7255176 0.659647 0.99345505 0.3476409 0.5469055 0.20108421 0.26802325 0.24090059 0.026908496
던데 0.5594164 0.17313778 0.45283067 -0.054104973 0.55401486 0.43542516 0.41906855 0.2645157 0.6740639 -0.13551036 0.5480633 0.6446637 0.6726004 0.23154923 0.47205177 0.64992505
욕 1.2733707 0.37107626 0.39374503 0.6092481 0.8389199 1.0501658 0.7288619 0.5244396 -0.08377801 0.47041342 0.6960536 0.38099167 0.66701156 0.5555052 0.4744797 0.28213453
봄 0.5775048 0.7670643 -0.03676968 0.77928376 0.9252085 0.09819772 0.4245934 0.73440105 0.5474573 0.42850646 0.7016089 0.9873827 0.42086154 0.53343445 0.43917942 0.35305136
감 0.21606146 1.0708256 0.7001918 0.83416545 0.44158116 0.41340178 0.080537796 0.49174786 0.74414444 0.8804679 0.20823367 0.57439655 0.5204043 0.36760098 0.8353831 -0.0035655948
훌륭 0.29439592 1.0248256 -0.12823483 0.75294334 0.7754608 0.014511686 -0.1197452 0.8582143 0.31145334 0.5944678 0.13632752 0.6273125 0.11115269 0.77853996 0.7242216 0.56756705
너무나 0.71168745 0.76034987 0.8759583 -0.044417422 0.4417789 0.6518226 0.36587635 0.7529636 0.94985706 0.7801251 -0.103576645 0.13307938 0.94283134 0.5365547 0.72781885 0.6032861
강추 0.66459686 0.010555707 -0.21556465 -0.14823952 0.4574747 -0.22588232 0.6922557 0.40356168 0.94561154 -0.100191586 0.58540726 0.453976 0.3369766 0.46994835 1.0906258 0.2613358
해야 0.7281661 0.88636 0.17368199 0.5968148 0.79251003 0.73983926 0.20565282 0.5010419 0.7332307 0.92479604 0.70858943 0.7041537 -0.02149545 0.6720722 0.77588016 0.49158517
됨 0.69055915 0.19316265 -0.03354146 -0.10328294 0.43023604 0.6862393 0.7799715 0.9720233 0.78132004 0.54146737 0.61119926 0.45384714 0.85100675 0.64646286 0.44533473 0.53145933
ㅡ 0.83707 0.34519532 0.9941086 0.80945337 0.18138374 0.6424067 0.1817079 0.68187284 0.8158031 0.9814358 0.18885621 0.11131324 0.4784148 0.38814524 0.5676205 0.4705732
따뜻 0.3509714 0.38972238 0.52588016 0.71103275 0.53566957 0.5852258 0.08056002 0.67989737 0.45739278 -0.1048964 -0.076450765 0.30557585 0.6039247 0.9548196 0.54813933 1.186408
빼 0.36057323 0.5977444 1.0544615 1.0162978 0.31715667 0.82225263 0.48291364 0.07228201 -0.044974063 0.44046587 0.30798414 0.22638446 0.0025745835 0.5486024 0.78780377 0.6733829
느끼 0.47914138 0.4154581 0.69858736 0.840661 -0.105785765 0.7561918 0.09708626 0.76794636 0.3139528 0.22144121 0.49215597 0.7662552 0.5775268 0.65495867 0.40332025 0.7061907
드 0.5275214 0.30166534 0.80280733 0.729454 0.31685773 0.8550862 0.48670027 0.40451196 0.5631035 0.62716836 0.09914657 0.10894148 0.21777922 0.9099387 0.7699331 0.4943132
도대체 0.26282036 1.0836089 0.38870662 0.4901515 0.6703401 0.8680894 1.0585996 0.18814763 0.15894762 0.2651514 0.75986797 0.37122694 1.1343702 0.5583236 0.65754765 0.6801074
어야 0.95873356 0.24474539 0.3369539 0.5455404 0.84060615 0.7004805 0.9493049 0.440694 0.6832407 0.76153684 0.48348948 0.35805583 0.5903985 0.14897007 0.47155988 0.75682425
글 0.7652653 0.7483885 0.8228091 0.31616542 -0.049324032 0.52501035 0.54159284 0.35045943 0.2998353 0.39549297 0.591533 0.380276 0.59094423 0.3510329 0.16542472 0.42014277
마다 0.160886 0.56844836 0.2920109 0.2707122 0.94001865 0.18973638 0.46077204 0.13592204 0.38684005 0.41699305 -0.08350496 0.5466536 0.7925279 0.43050936 0.64696896 0.34807134
답답 0.6280696 0.36564624 0.7721103 1.0559868 1.0582781 0.77922714 0.29022127 0.43420088 0.2704727 0.55216473 0.24246071 0.27225196 0.53421277 0.047519065 0.37373596 0.5863321
준다 0.029542046 0.01831639 0.15634394 0.5047648 1.1846997 0.84444445 0.3700449 0.23795442 0.48695087 -0.13142094 0.95059466 0.49716341 0.7178675 0.16770954 0.76993877 0.28400204
전쟁 0.31937143 0.32850498 0.23356555 0.15774642 0.5475687 0.29744646 0.7446899 0.5789224 0.54818165 0.31569794 0.71127284 0.3099853 0.5021249 1.0046612 0.16498755 0.32356322
놈 0.10864862 0.21700044 0.806191 0.6224264 0.09943887 0.21761848 0.45325035 0.24515434 -0.07113254 0.73521674 0.10715194 0.3845811 0.038882535 0.83197784 0.14018711 0.087582946
설정 0.66670054 0.5832383 0.38801622 0.9817079 0.6474529 0.73978364 0.4795726 0.6757982 0.69225043 0.8952726 0.73933065 0.6002234 0.33728358 0.5972013 0.15162632 0.12339451
무엇 0.21825849 0.82401454 0.8773204 0.48183855 0.2556285 0.38700762 0.45975947 0.6597976 0.8222314 0.45213798 0.2598189 0.5525114 1.0563542 0.73827857 0.9588483 0.7285104
수작 0.18461102 0.51214105 0.113026395 -0.22660296 0.27362978 0.049426932 0.59531564 0.83409625 0.7098133 0.26840022 -0.0146439085 0.46186483 -0.21515475 1.1409974 0.6565754 0.9387511
그저 0.8115147 0.49421063 0.811386 0.9468459 0.28553808 -0.04779361 0.18248218 0.0565162 0.6361424 0.18223101 0.7095024 0.3217211 0.7879456 0.5382679 0.07229758 0.5460081
감정 0.2866946 0.7527429 0.7945922 0.531665 0.84965724 0.12991492 0.5766135 0.76628774 0.4430958 0.05701197 0.036121074 0.6122334 0.85559183 0.79788226 0.81830263 0.9857171
흥미 0.7123873 0.97739875 0.31569508 -0.07767503 0.7885544 0.6107847 0.9114117 0.83798885 0.97961336 0.20634246 0.5708609 0.56041723 0.6784838 0.55284446 0.98552436 0.25345328
미국 0.50783366 0.4448049 0.81016684 0.68101865 0.0007702283 0.44261584 0.33878595 0.45284677 0.07002164 0.2772645 1.1017126 0.54692787 0.506129 0.4663964 0.7544502 0.81624573
만화 0.117041215 0.5597464 0.4348965 0.7428573 0.73793304 0.057028584 1.0085926 0.28116855 0.24121037 0.71483177 0.87568027 0.66126317 0.90598667 0.47428772 1.0361063 0.3553054
행복 -0.22160342 0.059090007 0.38620692 0.3285721 0.42128763 0.6490937 0.6046152 0.65410864 0.24757779 0.27996132 -0.10645115 0.87768275 0.024416128 0.29500908 0.6357665 0.96048135
신선 0.54167867 0.6471998 0.4193569 0.3279913 0.19902182 -0.11885066 0.03941469 0.45196322 0.21486118 0.3873792 0.4183134 1.0211083 0.6689869 0.90436196 0.7411123 0.78237
뻔 0.88161033 0.30465263 0.7311039 1.0615622 0.39009237 0.15545422 0.11196432 0.5880014 0.81186396 0.82572085 0.7175182 0.593862 0.5206441 0.0014359474 0.21671684 0.2164231
형 0.5624856 0.42072856 0.063696295 0.30290455 0.15876855 0.6611115 0.6213352 0.6402772 0.5331155 0.69404274 0.54674095 0.43081447 -0.172386 0.6817138 0.35450962 0.42623177
앞 0.6565666 0.7554221 0.85664934 0.26110846 0.6034895 0.09361449 0.11724334 0.7452559 0.79491246 0.5505961 0.5418225 0.4671153 0.5801079 0.6862448 -0.0078547485 0.52263385
어도 0.2195512 0.40084612 0.58294386 0.95041156 0.93312347 0.85529304 0.5204275 0.5601104 0.52319664 0.21715456 0.66140777 0.5616721 0.46805358 0.3232247 0.7778039 0.54151237
허접 0.49859232 1.1741403 0.55180526 0.8030008 0.7780937 0.95982116 0.39400825 0.1883014 0.6717609 0.9067889 1.0490459 0.14215901 0.6790185 0.5219106 0.11589727 -0.24050467
군 1.006044 0.00021316612 0.36665952 0.16380751 0.6577882 0.8540806 0.20409155 0.77950966 0.61891824 1.0056221 1.0287817 0.09873511 0.20245871 -0.05790651 0.5193935 0.71268535
시절 0.38442737 0.26737213 0.6241998 0.019967625 0.57982534 0.02037368 0.3287983 0.6786233 0.64092433 0.5022177 0.2727179 0.38875765 0.69323397 0.6907111 0.13743694 0.5243821
관객 0.5640751 0.7071525 0.65994847 0.44316947 0.56493086 1.1772598 0.9463913 0.8527229 0.28330132 0.6794131 1.069766 0.06359812 0.6723231 -0.03179579 0.5129014 0.6473793
배경 0.81968266 0.08296288 0.5170772 0.5484377 0.4442151 0.79933685 0.26718822 0.3102567 0.76807106 0.029091405 0.07893723 0.5039703 0.50501335 0.47731796 0.4714415 0.14508069
6 0.19718985 0.05488678 0.51713526 0.7358184 0.1775025 0.7237805 0.54120135 0.29817024 1.0967902 0.6393384 0.8940042 0.47534773 0.28472745 0.37015188 0.52648526 0.58404434
의미 0.99848634 0.12232979 0.3794557 0.27394098 0.28203377 0.3294536 0.3581446 0.42590317 0.47772318 0.3775419 0.060878884 0.18092339 0.43102482 0.09530065 0.45317587 0.5596357
초반 0.77827305 0.07546177 0.4373272 0.43733472 0.6583071 0.89900863 0.26788533 -0.010307585 -0.12736917 0.45853153 1.1312019 -0.057648603 0.47263187 0.17629363 0.7771011 0.8545974
사실 -0.06737568 0.3276234 0.03279412 0.45579714 0.6308503 0.4803157 0.75119126 0.4145966 0.6082885 0.38407767 0.57309073 0.49932814 -7.85186e-05 1.0894268 0.4899902 0.49271172
답 0.8633905 0.062191356 0.44511378 0.77387923 0.55427665 0.620102 0.68107444 0.5738303 0.9154741 0.27814245 0.6584084 0.72178406 -0.0018658447 0.46158412 0.12488295 0.2066221
웃음 0.50479513 0.92126775 0.23659256 0.5108372 0.62408125 0.5088012 0.61011404 0.9657431 0.7274482 0.34083125 -0.041020077 0.20169428 0.79394853 0.24149035 0.83939826 0.48151344
엄청 0.20884416 0.8058563 0.5252246 0.1773372 0.58841366 0.18933386 0.57079214 0.8101116 0.2931845 0.06040356 0.697034 0.09013752 0.3790026 0.79306483 0.29537222 0.7922863
라니 0.7734761 0.5337614 0.09076645 0.34924775 0.7179216 0.66352063 0.827787 0.6046639 0.33488432 0.97986275 1.0584526 1.0540205 -0.015102147 0.3875869 0.793219 0.5440479
더라 0.5104421 0.6270907 0.77923673 0.8894901 0.62862134 0.65270406 0.5462836 0.8836277 0.7536579 0.1194925 0.4962637 0.9340733 0.93249077 0.08875291 0.8556498 0.49322972
자신 0.22346589 0.027770063 0.6398616 0.77693135 0.32148576 0.38816285 0.6297204 0.41535625 0.8637143 0.049747664 0.6381598 0.2930257 0.5062952 0.5433491 0.20485571 0.16506808
질 0.620819 0.91050786 0.23971449 0.42917848 1.0096632 0.64293647 0.41671354 0.40249902 0.28612798 0.35359997 1.1425316 0.17075972 0.37099537 0.42169818 0.5205455 0.44265446
추억 0.7753254 -0.006259135 0.50312394 -0.07076804 0.5659759 0.09879859 0.13988405 0.23225614 0.3909363 0.5222562 0.8100629 0.74891746 0.28873762 0.7710373 0.7453499 0.37103182
캐스팅 0.39423466 0.25405347 0.84594774 0.43822008 0.792892 0.47872257 0.9540422 -0.1345059 0.07965888 0.21027848 0.7671064 0.35698542 0.44173646 0.42640054 0.5453908 0.589235
머 1.0232894 0.3757605 0.89506584 0.30329213 0.1847082 0.19674677 1.0319228 0.6448583 0.7743482 0.6601284 0.77413434 0.50644106 0.45931503 0.040045504 0.18149391 0.5154904
첨 0.66545933 0.16938438 0.8912687 0.33248544 0.3578977 0.73374295 0.59176207 0.2249202 0.6962599 1.0158192 0.9409444 0.55349135 0.8177233 0.376356 0.49877152 0.84583247
멋있 0.5873115 0.1645882 0.51133424 0.5099858 -0.045902018 -0.14803788 0.28782412 0.8614431 1.1196822 0.28463778 0.72474456 0.56257945 0.15979347 0.49797258 0.5285659 0.8252489
류 0.91744894 0.2655997 0.61199373 0.6911232 0.9442852 0.84784013 0.6023351 0.81758976 0.19514245 0.60930765 0.24396287 0.6582045 0.5222324 0.4256254 0.34154528 0.34277123
시나리오 0.6583703 0.91847664 1.0726918 0.8787371 0.89810914 0.6528525 0.69337296 0.5677208 0.47107223 0.7992974 -0.10614454 0.62643856 0.17699729 0.21670721 0.27083254 0.98430806
어색 0.67733485 0.26973107 0.34599933 0.9325392 0.8556022 1.0224836 0.9911015 0.33672386 0.262266 0.95944375 0.7330401 0.13917653 0.78402257 0.6144038 -0.045040477 0.28173852
슬프 0.018425541 -0.3336845 -0.038105033 0.55206203 0.24704282 0.6489203 0.12379927 0.7263635 0.8655984 -0.0188253 0.30365235 0.17015286 0.44059336 0.35735944 0.6189229 0.58370835
OOO 0.61424536 0.31689858 0.65406543 0.64452296 0.5724029 0.9823943 0.431272 0.19131556 0.28679973 0.43090746 0.6751704 0.5585358 0.5089521 -0.16377465 -0.23300247 0.20269129
정신 0.42794695 0.52809393 0.9471457 0.15045612 0.46175972 0.485511 0.3380563 0.04246345 0.48096558 0.71484166 0.4898959 -0.002986421 0.582931 0.76394737 0.5103827 0.17056753
분위기 0.80693346 0.1700854 0.9070661 0.6848523 0.19826868 -0.015805855 0.82869947 0.6110696 0.2570509 0.49719828 0.35479087 0.30819926 0.32191536 0.5288534 1.05792 0.8931009
소름 0.5932132 0.3731098 0.35338098 0.070032306 0.31701514 0.2769345 0.3273279 0.69684595 0.8764662 0.3099812 0.6687079 0.5598439 0.65683204 1.0890312 0.44942534 0.68071955
멋진 0.22253965 0.9041061 0.3493165 -0.07392028 0.19848257 0.47335705 -0.13892184 0.13910241 0.504962 0.059420783 0.5049565 0.4077424 0.2025826 0.5598296 0.37818307 0.9805685
힘들 0.62148577 0.6153756 0.56976485 0.6813968 0.7934865 0.5262471 0.5733069 0.8049663 0.4897338 0.77725273 0.9603985 0.768735 0.66633207 0.10089713 0.47775733 0.12656736
오늘 0.898194 0.5357788 0.72437865 0.570611 0.07975748 0.45262825 0.04315611 0.53892213 0.62669826 0.19219127 1.0269547 0.51574624 0.7035347 0.82899755 0.16256331 0.33187753
어이없 0.46333754 0.32099786 1.0166446 0.93895286 0.21377483 1.2413203 0.8097325 0.37444502 -0.028257448 0.8223058 0.3738151 0.2965749 0.7448717 0.34962752 0.10813386 0.030623522
봐서 0.652974 0.3483763 0.5131105 0.5116731 0.36004406 0.19613236 0.30343977 0.6881722 0.39165992 0.7243119 0.3903169 0.15962473 -0.19100231 0.46970385 0.6828206 0.40647885
구성 0.6346012 0.4643562 0.6774257 0.22688925 0.33772174 0.0891458 0.17649955 0.2819455 0.71311325 0.62116075 -0.015502802 0.8921886 0.87028074 0.1399163 0.769527 0.27701113
잡 0.10781113 0.4062748 0.36071575 0.8293367 0.81779397 0.36350116 1.0292722 0.0697537 0.85629493 0.25073683 0.72410595 0.6952273 0.7051994 0.28667176 0.4910843 0.8249905
엄마 0.77115166 0.4745878 0.81253546 0.8008543 0.28249183 0.32067004 0.09890673 0.1567463 0.8784705 0.65001136 0.29549393 0.6841126 0.46391663 0.38810673 1.0479275 0.7928994
함께 0.35608226 0.6688096 0.6368988 0.88205045 0.2404294 0.06652196 0.40856484 0.2997732 0.6402839 -0.056872305 0.72222203 0.9596941 0.11716866 0.9860895 0.30984378 1.045566
문제 0.38859597 0.84192574 0.23306929 0.48163772 0.88357985 0.21172561 0.321886 0.062946774 -0.023074297 0.6296738 1.0354567 0.78119034 1.0264338 0.42196152 0.06979714 0.6782602
위해 0.78740245 0.4153908 0.8161248 0.39305213 0.8635475 0.13645965 0.6402678 0.03704626 0.32987836 0.7934487 -0.0591124 0.70369565 0.5437964 0.6881295 0.67283046 0.27554312
졸작 0.9091814 0.6415454 1.117727 0.74544054 0.8999624 1.2239615 0.62261724 -0.3151462 -0.06199636 0.55656457 0.76717377 0.29222748 0.840887 0.3428313 -0.1633591 -0.2088077
잊 0.53430444 -0.2567009 0.26552135 0.3941835 0.57182485 -0.20693599 0.56546086 1.1175053 0.8919993 0.5439574 0.7017493 0.6881564 0.17453644 0.8649097 0.9283019 0.93096733
등 0.9640846 0.88302445 0.5336409 0.025193922 0.30941767 0.40731135 0.5470244 0.14877683 0.1900094 0.20939663 0.82027054 0.82484007 0.1852935 0.871188 0.9274664 0.98143333
집 0.89800894 0.5503049 0.8719311 0.43694055 0.13719839 0.360314 0.3590935 0.62265366 0.38759646 0.29419497 0.880976 0.773504 0.31137466 0.16329426 0.14677359 0.11955439
유쾌 0.9172454 0.37972346 0.6608917 0.29814035 0.6306314 0.057941623 -0.083291166 0.3252457 0.13450056 0.23988187 0.10632511 0.9751753 -0.14765911 1.0452415 0.6255672 0.8963668
스러운 0.34565523 0.15140164 0.68525344 0.075283125 0.68900317 0.25355172 -0.032610193 0.17516065 0.51200944 0.28119245 0.42750636 0.21113996 0.34646457 0.29611993 0.85629964 0.5827893
뻔한 0.60455775 1.0206215 0.62064874 0.6931201 0.14965901 0.6542913 0.72345704 0.04210369 0.7865368 0.82831603 0.27078852 0.08972698 0.9629816 0.38091025 0.65053725 0.7966935
나요 0.47012085 0.71749485 0.12178911 0.8937145 0.73082465 0.51609933 0.036345907 0.69318336 0.04300549 0.24966052 0.7252892 0.712272 0.6678759 0.6099708 1.0341606 0.10128033
킬링 0.49258217 0.46927723 0.40633518 0.7482406 0.46334836 0.5247302 0.5875587 0.47077808 0.35132772 0.0573851 0.31191698 0.8342342 0.71557486 0.4625844 0.4811896 0.13402417
결국 0.51579016 0.7016776 0.08138143 0.35688144 0.95829254 0.5837413 0.9646087 0.7951541 0.113754585 0.3608947 0.4362106 0.26542163 0.6265507 0.44611618 0.5608059 0.9076683
낫 0.50560886 0.41485393 0.6754288 0.39937717 0.006744802 0.29161894 0.42444128 0.36264163 0.20520328 0.4447472 0.3091117 0.45841524 0.15092051 0.5648796 0.4406971 -0.0023693955
뭘 1.0864697 0.4929012 0.3548178 0.27096733 0.4126954 1.0397891 0.36724904 0.25397924 0.65024716 0.27992988 0.71493447 0.33901522 0.9734155 0.1603093 0.6091558 0.78379714
간 0.22627483 0.6274519 0.5685771 0.54197425 0.7661129 0.6244479 0.376333 0.6123962 0.7391019 0.8752986 0.51865566 0.33586824 0.18450648 0.17938797 0.50935465 0.7398969
소리 0.7399685 0.50826234 1.058738 0.5424323 0.20301366 0.9220015 0.38860527 0.5269331 0.81393117 0.50146085 0.18485533 0.5054421 0.27909753 0.025252491 0.48761892 0.6837832
미 0.8029337 1.0751148 0.32465097 0.14248815 0.7452377 0.15040796 0.66195536 0.032882657 0.5365514 0.41041937 0.23690239 0.23090771 0.35299188 0.0047567473 0.43850482 0.8194645
한데 0.5407405 0.1871266 -0.008419974 0.0446842 0.56490237 0.8040063 0.99376976 0.39664993 0.49275282 0.6251508 0.1856064 0.3157993 0.58820283 0.68872035 0.38008747 0.783998
20 0.11094613 0.58727527 0.7222775 0.9556854 0.40750784 0.18047282 0.7941506 0.7469188 0.79229116 0.87824 0.1687237 0.7206673 0.19773881 0.25097176 -0.0463852 0.7008952
역사 0.57390994 0.18552913 0.6471497 0.7711006 0.3214108 0.25963575 0.5059486 0.36897868 0.41447207 0.64610523 0.4114036 0.9764004 0.018405024 0.14127137 0.3432458 0.31556222
뭔 0.70969236 0.8757582 0.48020133 0.591455 0.8992869 0.27148125 0.3090241 0.57813376 0.019763898 1.0088303 1.0211252 0.43056113 0.57786393 0.546083 0.12867859 0.57120854
제발 0.13405885 0.4413192 0.93252367 -0.023024637 0.28666145 0.887379 0.93564475 0.36484247 0.117511526 0.947354 0.24518378 0.039208565 0.66321725 0.89480144 0.7377618 0.021287724
포스터 1.0145403 0.15211797 0.56689274 0.7952179 0.5739247 0.81200355 0.45187658 0.33674976 -0.23967348 0.23394723 0.6453694 0.5846279 0.7872785 0.39721698 0.94715244 0.18197235
아무리 1.062152 0.46234906 0.34174922 0.37170953 0.33291593 0.57008284 0.7782977 0.6370965 -0.11980751 0.31187868 0.61413443 0.72659487 0.7971405 -0.04787981 0.19652084 0.08848809
코믹 0.76342225 0.5729455 0.25158808 1.0310723 0.23363829 0.4999173 0.1108197 0.8788292 0.8689417 0.6740969 0.5935435 0.80342954 0.57639164 0.5521886 0.21588105 0.17114168
어떤 0.95758873 0.064788364 0.50034446 0.52246916 0.6286576 -0.006037919 0.224808 0.77772444 0.25674343 0.860394 0.66133493 0.28049698 0.12403087 0.914758 0.67879635 0.798955
완벽 0.06929324 0.65082896 0.39077914 0.50432724 -0.17241547 0.403291 0.047964476 0.842647 0.7966086 0.30119127 0.4719714 0.5101186 0.11221911 0.4559174 1.3663751 1.2482529
~~~ 0.659167 0.5674465 0.27656418 0.35129324 0.7750178 0.044431686 0.9466891 0.32869503 0.68395543 0.564787 0.13252182 0.14258179 0.16169782 0.46004537 0.53108233 0.9047304
얼마나 0.19718242 0.6994197 0.9653189 0.53384805 0.9198273 0.36111912 0.8169216 0.86241597 0.8925816 0.38011023 0.37937364 0.3648677 0.38445202 0.46629423 0.78130215 0.52843237
애니메이션 0.03133875 0.42493755 0.43780336 0.8082068 0.67974126 0.16749693 0.13674878 0.46521538 0.7553511 0.61212057 0.06385688 0.41800055 0.082214944 0.17227817 0.5386622 0.37415424
러 0.68172026 0.91263187 0.7423915 0.37223867 0.8343221 0.05447588 0.91423124 0.44262752 0.15224563 0.21913996 0.85044885 0.70512855 0.32124886 0.52633506 0.23108736 0.58719146
맘 0.49680743 0.9646779 0.35288352 -0.014916406 0.39367208 0.33467832 -0.007535191 0.96255565 0.34755936 0.3039501 0.60463154 0.7307791 0.19410478 0.7615479 0.2894997 0.4557475
!!! 0.60313535 0.14021835 0.68734396 0.069148876 0.38693675 0.37227115 0.54966027 1.0528736 0.5022691 0.5899826 0.09747223 0.17727235 0.5608276 0.38448712 0.37761992 0.7137901
난다 0.4157976 0.7630397 0.985977 0.72727555 0.9001847 0.2783074 0.7915277 0.8834995 0.74045074 1.073447 0.44214574 0.7957931 1.030766 0.8186126 -0.048507765 0.6546742
주연 0.6012659 0.48010132 0.32134998 0.16434768 1.0952346 0.87721384 0.32189202 0.29639837 0.538245 0.42074987 0.9516197 0.5760643 1.1145446 0.42611098 0.2630805 0.62508655
원 0.19731975 0.62935865 0.06860947 1.0380535 0.5863207 0.21397193 0.16080923 0.5381712 0.3385433 1.0935767 1.0815473 0.3596806 0.932123 0.3715308 0.07242744 0.68110585
이딴 1.1321005 0.68148875 1.1785489 0.60634196 1.1223304 0.7440547 0.3441043 -0.25298735 -0.2019445 0.84058005 1.2314248 -0.09178192 1.0584407 0.20541169 0.5860408 0.33846122
버리 0.7891068 0.22901052 0.26049888 0.7433629 0.8760153 0.07113541 0.8526972 0.09202695 0.9094097 0.9070267 0.48574388 0.27856168 0.7223376 0.76587456 0.14159435 0.77452666
♥ -0.0002702719 0.9083534 0.2163515 -0.16585708 0.4537255 -0.2683116 0.17456634 0.23793083 1.0350474 -0.34770384 -0.04306878 1.0562601 0.10423358 0.5445309 0.39860156 0.5597094
어릴 0.85461175 0.043781098 0.8389084 0.07531697 0.86442286 0.69147867 0.30442765 1.01669 0.8766626 0.65196306 0.33958703 0.53048414 0.26539773 0.7987256 0.71205974 0.7930026
후회 0.503131 -0.11039266 0.36372623 0.36599898 0.42140797 0.7744265 0.44967702 0.55495906 -0.09609609 0.3437631 0.6924049 0.20355074 0.14261499 0.39926356 0.013775166 -0.030516148
진부 0.3318937 0.9237488 0.82767695 1.0520436 0.51714563 0.28009003 0.57023466 0.4418761 0.06207895 0.7836877 1.0018486 0.5041639 1.1806972 0.47426006 0.041929193 -0.1704577
나올 0.5103383 0.23960671 0.84408015 0.63385475 0.59946996 0.7652357 0.6403862 0.8663902 0.7045438 0.8573524 0.3285831 0.37168157 0.24949718 0.33165735 0.16662888 0.9187417
됐 0.01692265 0.3540071 0.65302795 0.08931793 0.4141136 0.8066756 0.1564224 0.3235145 0.35414693 0.85430133 0.09201703 0.37265962 0.82781374 1.001178 0.6459319 0.7649576
보단 0.33730245 0.39394054 0.84379315 0.6318336 0.36781672 0.16781755 0.44121137 0.6629314 -0.1712035 1.2450538 0.9364044 0.80622905 0.6325377 0.84187007 0.27645147 -0.06164787
장난 0.7578883 0.46153635 0.20633054 0.5366982 0.7481537 0.66298306 0.94606733 0.9329998 0.14341165 0.49940172 0.77329606 0.36339545 0.60896933 0.6587888 0.18981276 0.82647395
책 0.049498715 0.95597404 0.77003443 0.58184034 0.3604431 0.17072111 0.9743328 0.7699186 0.7140734 1.027122 0.50848365 0.6318235 0.17678256 0.017549254 0.32163715 0.3710733
더니 0.89613175 0.48173115 0.29943675 0.35867175 0.05406062 0.43299246 0.3273259 0.2052097 0.016438426 0.9451662 0.42936864 0.05797758 1.0005921 -0.097134046 0.75854784 0.73420167
큰 0.10641337 0.41449386 0.07976624 0.80405223 0.6249147 0.51640546 0.24876162 0.7791192 0.46358863 0.25204468 0.3123544 0.3046871 0.42865005 0.885727 0.2839639 0.21837988
영화관 0.9839845 0.6421722 0.18376626 0.97333956 0.5391621 0.14123346 0.645845 0.12408998 0.6945597 0.5536356 0.90904146 0.11299205 0.39619324 0.6087685 0.97250426 0.4340608
둘 0.394825 0.67509806 0.022396512 0.36839947 0.65348154 0.75456417 0.8695441 0.27152875 0.2569999 0.36097464 0.569303 0.66419315 0.28958717 0.968245 0.3786028 0.9953932
출연 0.6150714 0.4688583 1.1728344 0.46401238 0.5904866 0.215934 0.6832834 0.5423089 0.3619626 0.94451314 0.26544407 -0.06453038 0.2755846 0.619714 0.7152405 0.6156154
극 0.070990995 0.6940903 0.94099534 0.0069310064 0.87898827 0.19953583 0.15749839 0.037760187 0.42991218 0.3926636 0.69425917 0.78507924 0.12372996 0.6879822 -0.019610593 0.6393788
ㅅ 0.8389319 0.26336336 0.66389555 0.6511467 0.18596594 0.4210652 0.4641676 0.198915 0.73328465 1.0234991 0.591689 0.8935718 0.251762 0.8258085 0.024361713 0.61444
개연 0.88435036 0.8664346 0.70234185 0.4138425 0.6726521 0.7628121 0.805002 0.2924304 0.13742821 0.2402653 0.74011743 0.13790232 0.759681 0.8664146 0.28050187 0.23438336
충격 0.22218001 -0.10659008 0.3077412 0.24385892 0.6823577 0.6619916 0.1907992 0.14574867 0.10043845 0.55088353 0.51019996 0.31444177 0.18728516 0.36744365 0.32673317 0.93565947
여기 0.5535214 0.66155165 0.34463662 0.09917992 0.7917787 0.038104728 0.3041797 0.85979253 0.70760113 0.47125193 0.9433676 0.30557534 0.8966572 0.68448454 0.51419914 0.19571173
평가 0.4741965 0.31839684 0.83705676 0.36584413 0.6872567 0.3095692 0.83382213 0.58316815 0.8024625 0.19458368 0.87710524 0.51532763 0.20835914 0.8036996 0.81684554 0.91714716
엇 0.31704304 0.4591538 0.32567048 0.08504212 0.16851126 0.7478973 0.761788 1.0371753 0.92774147 0.796734 0.71137744 1.0301124 0.59508616 0.35479742 0.5095315 0.34183368
꺼 0.5798751 0.6973892 0.8651051 0.5023881 0.6328309 1.0011798 0.7750374 0.73151314 0.77402544 0.7321558 0.32875368 0.1864545 0.43676558 0.8120874 0.6801826 0.7241245
잔인 0.8696761 0.50421697 0.8665386 0.7624527 0.17592064 0.31539565 0.49706998 0.45265684 0.36033818 0.23168306 0.28713894 0.4509409 0.8633177 0.9534803 0.74471563 0.6773679
아름답 -0.01821474 0.5385192 0.19057383 0.11607709 0.09379627 -0.17999466 0.49075362 0.3086411 0.32601637 0.3291375 0.708625 0.37918097 0.045605 0.40679166 1.0619 0.75063455
얘기 0.5133724 0.72658277 0.90845317 0.27024636 0.41567814 0.2606564 0.9062263 0.7345385 0.52518225 0.5037675 0.7076318 0.6794165 0.35432085 -0.049244378 0.87066066 0.29556498
줬 0.6206424 0.5693706 0.44282264 0.9695661 -0.0013857763 0.54440075 0.19091253 0.03634877 0.5450634 0.21967427 1.0733402 0.30920443 0.21337602 0.7240226 0.05123938 0.6162103
자기 0.7513469 0.36049426 0.56062317 0.68773407 0.45859048 -0.015245033 0.729671 0.123052694 0.6713555 0.45284247 0.5444064 0.24195512 0.48170877 0.21645571 0.5798623 0.41849494
예술 0.44712338 0.78242415 1.0047932 0.81875217 0.117656656 0.5860813 0.37337676 0.7102312 0.16905035 0.36529422 0.21371613 0.7754843 0.8590471 0.5395084 0.4116825 0.99449104
갈수록 0.41200522 0.9873347 0.5715753 0.20667177 0.5762001 0.32646453 0.4380047 0.49086735 0.03163631 0.7043205 0.37802875 0.3313518 0.3902655 0.2884231 0.4897027 0.7164406
매우 0.6499769 0.781467 0.0019149063 0.64025724 0.6731149 0.19930166 0.3886774 0.46184573 0.9182419 0.35518327 0.54011214 0.10844734 0.1555589 1.0029831 0.07590438 0.74471813
반 0.85280555 0.6022688 0.6604809 -0.058128085 0.33383048 0.1432345 0.24906537 0.17382044 0.44553623 0.017676238 0.4232462 0.66711384 0.48830038 0.14331527 0.39896652 0.16038497
위한 0.94927305 0.3707088 0.30559358 0.38664326 0.49339554 0.37191895 0.44597095 0.59560996 0.54371494 0.9961635 0.56227726 0.46718043 0.4640332 0.9441044 0.83866024 0.09099253
든 0.14505598 0.007825644 0.20507589 0.5455119 0.48383427 0.65737134 0.19457135 0.1065421 0.4662117 0.88099176 0.5240675 0.18890804 0.07512676 0.15098573 0.22097291 0.5241738
이리 0.7887488 0.6864162 0.91164494 0.06471525 0.480238 0.6736932 0.22000983 0.22166789 1.0066626 0.34965703 0.1864551 0.57789534 0.87954444 0.5616979 0.28260624 0.96888334
봐라 0.87489736 -0.15185925 0.81581974 0.695793 -0.17474535 0.36924514 1.0039306 0.6955134 0.8734296 0.40351853 0.38488322 0.44554666 0.49127167 0.2658361 0.7073268 0.8533157
이후 0.29069355 0.32874244 0.75423473 0.30185297 0.5487909 0.17104614 0.21627095 0.5212953 0.017350497 0.8801884 0.4781774 0.36961395 0.44218507 0.331799 0.7611514 0.54001486
읽 1.0089295 0.9995354 0.4612813 0.34339243 0.3801474 0.9889994 0.38398045 0.50609076 0.056761943 0.6917554 0.28039524 0.595021 0.1622774 0.88352513 0.93506396 0.66099656
얼굴 0.34841964 0.44707882 0.32742295 0.5978713 0.5408942 0.8628049 0.039908875 0.38352168 0.050900314 0.949479 0.44177136 0.64573 0.55629665 0.023274979 0.019075532 0.51274747
꽤 0.5555556 0.032431383 -0.027635567 0.6187582 0.52780694 0.7672108 0.47375146 0.91661304 0.70950615 0.29161656 0.0033191885 0.5027915 -0.2215476 0.29661867 0.2355958 0.3660792
불 0.43516845 0.54308075 0.42138615 0.9254769 0.28460994 0.43443406 0.5081517 0.20795041 0.6384967 0.22227083 0.85759944 0.4959199 0.19238974 0.26135135 -0.027518153 -0.056962147
으나 0.175271 0.83668417 0.82182515 0.62936574 0.06954032 0.6420422 0.47730845 0.3546732 -0.17436396 1.0894907 -0.05427292 0.07408584 0.67887354 0.070147574 0.33005816 0.5672618
깊 0.4178236 0.23458998 0.48884773 0.2609997 0.49405235 -0.23634548 -0.0029859482 0.6264876 0.25158983 0.5810521 0.7254432 0.78635705 0.11071587 1.1328317 0.58327675 1.0135856
