10000 16
<unk> -0.88508546 0.53699803 1.8952307 1.0380765 -1.7182242 2.045322 -0.1124663 0.2993367 0.30225125 -0.8102271 -0.123828866 -0.7606208 -0.43713552 -1.0711614 0.011316606 -0.2637252
<unk> 0.9592525 -2.1962833 -0.24032348 0.9828101 -0.67162436 1.6830448 1.4433361 -0.5102528 1.2681937 0.74960333 -1.4990948 1.7931668 0.2860158 -0.87276816 -2.2633724 1.0769211
<unk> 0.21960175 0.13358347 1.1423271 0.61997855 -0.15459722 1.5380073 -0.21495813 1.2583771 0.29590783 -0.037705373 -1.4102385 0.97205824 0.6957461 2.081694 1.1728971 -1.1994025
 -1.2168466 2.5204506 0.68305385 -1.1278263 0.087568864 -1.7327002 -0.40989235 0.17991243 -0.10573575 0.14015172 0.8952406 0.60973233 0.8600619 -0.47141713 -1.2741942 1.0184146
. -0.94185114 0.98736316 1.4665968 2.4140499 -1.1737996 -0.07819312 0.21611655 1.3728379 2.0978537 -0.38540193 -1.0168686 -0.37885824 -1.3126 0.69014037 -0.06926023 -0.115841754
영화 -0.36608252 1.3231378 1.7433788 0.28164575 0.35558763 -0.36834398 1.268928 0.5214115 0.76951164 -1.1538427 -0.92158186 -1.9848249 -0.72428894 0.5347553 0.7157442 -0.82891434
다 0.26810086 -0.6106891 0.57102156 -1.1883653 0.6662828 0.9891862 -0.38143086 0.09547065 2.5178962 0.21668608 0.30344304 -1.5742776 -0.95859617 -0.0006138045 -0.096657045 -0.43924528
고 -1.052757 1.1415687 0.053720426 -0.5923659 -0.017466009 0.3806594 -1.6728584 0.82395786 0.63570446 -1.1981397 -0.5010166 0.5101382 1.3223777 -0.9677962 -0.542509 -0.1615491
하 -0.75888747 1.2494187 0.005333231 -0.038470283 -0.9381388 -1.110576 0.6277764 -0.035755582 0.45315096 0.44010586 0.18808344 -1.4601616 -1.5731632 0.5551021 0.91007423 -0.2568212
을 0.36979297 1.2221775 -1.1303242 -1.2682939 0.74400574 1.4432222 1.1525626 -0.99865144 1.5867485 -1.6875569 -1.1502362 0.41910985 0.14496739 -1.2602495 -1.7749211 -0.87404466
보 -1.962084 -0.7020425 1.4500859 0.5175084 0.7399846 1.9660132 0.8207699 -0.4033381 -1.1276265 1.0402176 -1.5975018 -0.37365562 0.21169007 -0.38607672 -1.6358774 0.20320936
.. -0.9628184 -0.79738754 -0.77078617 -0.7304646 -0.87338865 -2.042188 -2.364223 1.281575 2.517453 0.5771487 0.21203578 -0.45584998 0.264911 -0.3748146 1.1338531 -0.1714135
게 0.14807503 0.18665831 0.9207646 0.54406863 0.9803858 1.4422901 -0.10183415 -1.4519445 -0.1657632 -0.27588704 2.2161388 -0.59811735 1.1124064 1.6650991 -0.2655974 -1.3609271
, 0.33133486 0.5637859 -0.5635523 -0.6053617 0.23088172 -0.17998062 -0.6893101 1.4539353 -0.06689988 0.8896007 -0.18096048 -1.6160688 -0.7907415 1.7140646 -0.70249766 0.5786661
! -0.06271247 -0.36647314 0.27659687 -0.76545346 1.4987863 0.45579216 -1.0202751 0.5497677 -1.5301383 1.7504452 -1.4800913 -0.4031578 -2.732735 0.1872268 -2.1499138 -0.6680467
지 0.89572257 -0.3711715 -0.11410122 -2.6241462 -0.62734085 -2.0018828 -0.124069035 -0.9746655 -0.36970744 -1.7887566 -0.3012034 -1.6007795 0.21311893 0.12021358 -0.27289712 -0.53716886
있 -0.75264764 -0.40220672 -0.32223698 -1.2025654 0.02217366 2.6812649 -0.251723 -0.122312844 -1.1634524 0.2151099 0.12863553 -0.99901336 1.3088366 -0.88251925 -1.4510254 0.39811113
없 -0.5483093 1.4235282 0.7258211 1.1255888 -1.2646993 -0.38762975 -1.7652137 -0.06112527 -1.1810306 -2.0654476 -0.8217109 -1.5152736 -0.8331981 -0.16704537 2.1125443 2.0444906
? -0.24910975 0.1579457 1.9739624 -0.46986592 0.4108103 -1.0330763 0.16175036 1.2792541 -0.67796034 -1.2315795 2.8579545 -0.16249338 0.12264785 -0.7691237 -1.380467 0.3745632
좋 -1.1727908 -1.7271256 -1.310499 -2.288985 0.7191017 -0.29516298 1.525312 1.5502983 0.31054115 0.56204706 1.0092071 0.03380127 0.94092447 0.77301025 1.2373333 0.88381034
나 -0.8356682 -0.4153144 -0.6961084 0.2204845 -0.6810006 -0.59399974 -0.8532648 0.028527739 1.4307836 0.045680225 -0.3919725 -0.67411745 0.80387306 0.092222065 -0.58115196 0.3140278
었 -0.16125028 1.2001985 0.0214981 -0.4051975 0.29003868 0.11531682 2.1406703 0.85186124 0.38174263 -1.4771104 -1.1671772 0.041810434 0.25926813 1.2075975 0.042050783 -0.7131027
만 -0.09285609 -0.42975077 0.338883 1.163701 -0.91575867 -0.16182514 0.28053346 -0.6326749 -0.5459518 -0.99969006 0.216115 -0.77080876 -0.60254085 -0.8099265 0.04388615 0.89305955
는데 -0.5689372 -0.8240745 0.18219697 -0.39886674 0.90557194 -2.1265018 0.33349124 -1.5807786 0.20630074 -0.74443054 0.1349837 1.8872706 0.62413245 -0.24714826 -0.07434808 -0.56639373
너무 1.2206407 -1.6483485 -1.1325771 -1.5650045 0.88772327 -0.8029888 -1.0212331 -0.48718145 1.833742 1.5057224 0.89219457 -0.8356361 -0.534561 1.1589391 0.31255373 0.35281077
봤 -2.7802827 -1.2924908 -0.19348642 0.082158364 1.0798664 -1.1302634 -1.3102703 0.5395714 -0.23393123 -0.1448407 -0.1173618 -0.6601874 -0.39821163 -1.4114379 -0.90543145 0.9316725
적 -1.3064766 0.3527714 0.57794505 0.3963066 -0.13116436 0.28521875 1.0784332 0.88973683 2.1086628 1.430452 -1.8579515 0.27657545 0.3484302 1.50423 0.45611906 -0.31035143
안 1.1969278 1.5459133 1.8453287 0.6635452 0.50778675 0.7462335 -0.20115949 -1.4889374 1.8964704 0.9671638 -1.2029936 1.2444851 1.0722708 -1.0619131 1.5116785 -0.29696307
로 0.5802724 -0.32238683 0.77267814 0.3442693 0.4523627 0.49947676 -0.87335384 0.47486168 -0.9927567 -0.09817974 -0.56913066 1.4977967 -0.4697947 -0.9167706 0.91712457 -0.05489605
정말 0.14705616 -0.66835326 -0.8930347 2.6797955 -1.9716275 -0.6850972 0.78888476 -1.7961216 -1.6046981 2.357752 0.8065337 -0.2429765 0.3530665 0.027283356 -0.7865669 -0.46259302
음 -0.50187105 0.11639512 0.102010936 -0.1342532 0.97571146 0.65431225 -0.21621647 0.4452868 -0.39547047 0.08145267 0.93664414 -0.28209797 -0.62273693 0.41637108 0.114328444 1.2611811
것 -0.58100575 -0.15813275 0.8934811 0.18447804 -0.7079282 0.32005364 -0.6632302 2.5966947 0.631444 -0.8498343 0.9413651 -0.40730467 1.1317655 -2.3326988 0.87193227 -2.0884812
아 -1.1690239 0.51387393 0.18475029 1.2102766 1.8298088 -0.84396684 -0.8241048 0.54411525 -1.3549231 -0.71281964 -0.5182394 0.277816 -1.211671 1.3292698 0.026482727 -0.66214436
네요 0.58827823 1.5552787 -0.49956238 0.77141935 -0.11719729 0.8793821 -0.012387387 -0.4225302 -0.901743 0.5659257 -0.50645757 0.6756288 0.3192961 -1.3328073 -1.9028358 -0.24183092
어 -0.18871172 0.2303481 -0.6300766 0.5742668 0.5185266 -1.1062396 -0.521575 2.323733 -0.9518884 -0.18954708 0.41125673 0.02009268 0.36534694 0.5319956 -0.3900893 1.2273366
재밌 -0.21391135 -0.63955194 0.5455056 0.1802887 1.4840934 -0.012535809 -0.3165862 1.3019036 -3.0478199 1.158588 -2.1318216 -1.2283802 0.63919085 0.8302338 0.5337774 -0.8246071
같 0.20279357 -0.1279397 -1.458807 -0.069169655 -0.26401976 -0.18370137 -0.36566553 0.20851564 -1.0045251 -1.0758249 -1.0302931 -0.063747644 -1.090936 -0.36936405 0.5170026 -0.63515186
점 0.57443887 0.15927076 0.14273411 0.844579 0.27128467 0.76452965 -1.2926625 -0.21148695 0.34300077 -1.7680736 -1.5106691 -0.44380262 -1.2928169 -1.356783 1.2636081 0.22779618
지만 -0.95550686 -1.5848513 -0.62539613 -2.483964 -0.047264937 1.0897264 0.8227122 -2.5549564 0.99962676 1.6797723 -1.1613144 -2.681215 -0.42014435 -0.0043572406 0.0050177714 -0.61387885
진짜 0.28301245 -1.6555496 1.9215518 1.4438431 0.092162214 0.8071666 0.23622997 2.6832705 0.12464677 -0.19389695 0.8025826 -0.15994145 -0.42791876 -0.6078042 0.6733923 0.19625433
했 0.15558386 0.69423074 -0.9341495 1.2300757 0.64909536 0.2409935 0.25179538 -0.86322206 -0.27888617 -0.72476137 -0.36130947 0.4888435 0.868229 -1.1535996 -0.12660153 -0.73366135
기 0.42464486 -0.09122458 0.56948596 1.6006838 1.4868962 0.7866095 -1.1535746 0.06750124 -0.9788624 0.31176728 -0.8521357 -0.5649532 -1.6262281 1.260628 -1.5126634 2.142929
에서 0.10449108 -0.50853795 0.66063786 0.7094266 0.41768986 0.53453773 -0.17842568 0.8933534 0.441111 -0.18801937 1.0528823 0.11529556 0.40939346 1.3092986 -0.11506263 0.11675144
네 0.47431007 0.6850913 1.0576317 0.32091388 0.66836447 -0.5613335 1.3057693 0.2677559 0.8301347 -0.2987538 -0.27523565 -0.044024795 0.6515635 0.23114137 0.99837524 0.32413733
않 -0.91230655 -1.0862972 1.4796458 -0.808032 -1.2232857 0.14635605 0.45199764 0.5720964 -1.4326853 -2.6230335 0.97558135 0.34331188 0.66192704 -0.13554828 1.4934213 -0.45572826
거 1.1414112 -0.64428246 -1.3395282 -0.4593543 0.15329567 -0.63448226 1.0167811 0.15577477 -0.3361795 -1.0811079 0.3388153 0.40053612 -0.21085563 -0.283515 -0.6097704 -0.10430893
았 -0.7140792 0.2326515 -0.50910705 0.8452214 -1.1691788 1.0407596 -0.41711968 -0.7758342 -0.7460256 0.067887224 -0.21802172 0.07283522 -0.71382093 0.77034616 -0.5137068 -1.3201816
수 -0.21950018 -0.45401025 -0.42010564 1.0393918 0.87113416 0.08608148 -0.31391028 0.21371421 -0.95234114 -0.41276342 -2.640313 -1.9781573 -1.316993 -0.44181958 1.343342 -1.0616827
되 -0.533407 0.64271134 1.377516 1.1168478 -0.092835605 0.23704919 0.76157886 0.3048986 -0.74301165 0.25108513 0.3424486 0.64141715 0.3457872 0.40565306 -0.80132824 -1.1141856
면 -0.45522282 -0.15995051 -0.3322796 -0.21755107 1.0613289 -1.8500062 -0.06962772 -1.0196103 0.34239373 0.10675392 0.7369235 0.19783589 -0.7144207 -1.7902864 -1.074461 -0.44722268
ㅋㅋ -0.8945353 -1.5426521 -1.145727 -0.49173567 -0.21588153 0.5784573 -0.69140095 -1.0789856 1.1609303 -0.37673068 0.80475456 -0.05749275 1.4826747 0.8632735 0.17791699 0.3303594
말 0.95542216 0.56837976 -0.07016497 -1.6664011 -0.939424 0.6536658 0.28880826 2.838722 -1.0891262 0.19788666 -0.85421616 -0.050152063 -0.18632387 -0.39599633 -0.07291306 1.37473
인 -0.053310018 -0.29265183 -1.2989521 0.3579296 -0.5678208 0.793379 1.1845374 -0.9305895 0.07171786 -0.6094862 0.62530565 -1.0709699 0.5318664 -1.9654136 0.45336604 0.068681784
연기 -0.27154472 0.7499671 -0.584334 0.7593135 -0.71352243 -0.1770491 0.8040412 1.2689263 0.89586693 -0.019197248 0.7977908 0.10499694 1.316228 0.07548641 -0.3426487 -0.9092083
주 -0.072010264 -0.16430952 0.33277938 1.6954231 -0.88353676 0.19014467 1.8384414 0.96853256 -1.4783512 1.5481663 1.7992293 0.08229395 -0.23406866 1.2123972 -0.7335937 0.17469189
내 0.73432136 0.6677472 -0.45736447 -0.34028313 -0.23804343 1.6914184 -1.6043314 -0.8733861 0.54245627 0.35329401 1.5124569 -1.3703191 1.0993431 -0.5304624 -0.7681262 0.7395776
최고 -0.69130194 0.23503175 -0.47057748 -2.2204413 0.61380583 1.2244134 1.7799733 -0.618952 -0.6054353 1.3839463 -0.615862 0.51380503 0.511832 2.075003 -0.14654061 -1.7771616
~ 0.24290492 0.699649 -0.52759904 -0.7054253 -0.4577702 -0.13178465 -0.22896302 0.8854873 -0.6357561 0.6644731 0.29321152 0.2628901 -2.1789243 -1.1247348 -1.7619449 -0.052663483
평점 0.0557275 -0.41447344 -1.1947284 1.3996304 -1.4254192 -0.46511963 -1.3336436 -0.4168122 -1.8220272 -0.96054876 -0.9556686 -0.59312254 2.7031934 -0.13847023 -0.67912275 0.8347359
이런 1.1135439 -0.38130555 1.5151626 -1.6077044 0.62887275 -0.6354071 -0.26261196 -0.5439218 -0.7342905 -1.365964 -0.45899457 -1.1011263 0.12254379 1.7462909 -0.9849922 1.8841398
던 0.5489595 -0.10223194 0.12006431 0.50051177 -1.8517808 0.2849777 0.016344301 0.0314426 -0.6598204 0.086788476 -1.938949 -0.23861998 -0.42066315 0.40739116 -0.62855524 -0.20687406
어요 -1.1913939 2.446567 -0.26132903 0.22891718 1.8818042 0.66194767 -1.5289117 0.54617035 0.34076607 -0.44650373 -1.2976195 -1.2094512 0.42169136 -0.57558894 0.3361966 0.761349
할 0.62859166 -0.3231932 0.5576629 -1.0117173 0.19499946 0.78255737 0.087771 0.63793015 -0.12010164 -0.42486548 -0.88316894 -0.455802 0.24644907 -0.48005015 0.7126734 0.1555585
왜 0.26298913 -0.9158813 1.0255071 -1.3042585 -0.83122826 -0.24472736 -0.077353254 0.57024103 0.07510881 -0.07247925 0.20921457 -0.7850294 -0.44765258 -0.65549296 0.8863279 0.87705725
겠 -2.258369 0.16015516 0.687447 0.17341122 -1.5858473 -0.42186764 -1.0923539 0.06631041 0.14291267 -0.38444754 0.5728494 -0.49326164 -1.0601581 -1.3840269 2.08773 0.07207551
해 -1.0341215 -1.0165678 0.21584024 1.611766 1.6537384 -2.6093373 -0.5787961 0.68178 0.9077231 0.47681788 -0.14588584 1.7206846 1.2245171 -1.6813438 1.970741 -0.40116197
1 0.58034325 0.61485684 0.62714046 -0.5642189 -0.71667594 -0.66682595 -0.41005713 -1.7605191 0.42659578 -0.3718615 0.45367527 -0.4434417 2.0052319 -2.1957247 1.2122775 1.9323167
스토리 -1.2050047 2.3480966 -0.080331385 1.5564246 0.43641856 -1.5964179 0.66790026 -1.2089854 2.6087072 0.43019208 0.10615513 -0.6960879 -0.3834976 -0.35689113 -1.2458144 -1.8787636
습니다 0.47834998 1.9643546 0.6960057 -1.7412083 -0.60178 0.84077847 -0.7287379 1.365404 -0.2497606 -0.16337809 -1.5931034 0.38835278 -0.27965325 -0.19358937 -0.5813746 -1.1674582
ㅋㅋㅋ 1.880235 0.12074976 -0.5625863 -0.72343886 -0.64098656 -0.03768909 -1.4464362 0.4814397 -1.0019255 1.2690308 2.2033992 -0.8765931 -0.33705798 -0.7157383 0.71701723 -0.66524935
... 0.6605579 1.12139 -1.5465785 0.40398046 -0.0702266 3.043338 -0.31814304 2.7578263 0.80578756 0.00097111607 -0.304172 0.6706336 0.7395179 0.8520642 0.4380133 2.3674862
드라마 0.5700004 0.9791901 1.0268791 -1.2314779 -0.64942706 2.5368998 -1.6023502 0.41118056 0.93885857 0.48806754 2.3754694 -0.612477 -0.10607948 1.644997 0.39301404 -1.9202391
아니 3.0301745 2.2999487 0.7958634 1.3171365 -0.15605225 0.42154613 0.52763724 0.21855018 0.570413 -1.4286507 0.07857828 0.37259707 -1.065836 -1.2995815 0.5751562 0.4411121
생각 1.404331 1.0504727 0.026012799 2.9033005 -0.6873032 0.40758842 -1.2337587 0.34724784 0.8293089 0.91608703 -1.2918215 0.30265644 1.5286044 0.4996292 -0.083682135 -1.0150694
더 0.4048079 -0.40141878 1.0418332 -1.107729 1.621321 -0.40186733 1.1320887 -0.14560162 1.6404978 -0.5555002 0.021563902 0.47974977 0.4121975 1.0674129 1.7865466 0.13730183
그 -0.8013977 1.9520209 -0.5076958 -1.0812957 0.29429555 0.8362505 -0.12520453 -0.68285716 -0.05629968 -0.16593473 1.5608867 0.57750654 -0.3695101 1.2804111 0.24449092 -1.1331601
싶 0.6298732 -0.70487875 -0.07002301 -0.867082 -0.32208505 0.97768664 -0.31392688 0.33528662 -0.61355 0.88645196 0.5192642 -1.7039835 0.40209258 -0.8030276 0.32210806 -0.3288652
사람 2.1695843 0.36694226 1.2264187 -0.69003046 -0.24281956 -0.5054379 -0.3764091 0.43919283 0.25056612 0.051860273 -0.6100678 0.4845115 -0.3218598 -0.47841987 -2.4718812 0.728302
듯 1.1204096 -2.1252565 0.1802477 0.27504885 1.3466032 2.3495526 0.080325596 -0.7265283 -0.2490968 -0.15519658 1.3840833 1.6940005 -1.452782 0.042560678 -1.7739334 0.016091099
때 0.72151184 1.2092283 1.1995047 -1.5033382 -0.4263126 0.8378959 0.37451485 -1.7344545 -1.4989067 -1.2327468 0.3494904 -0.29935795 0.40107465 -0.13091628 -0.5218058 -1.9340838
감동 -0.6130568 2.4908948 -1.2470462 -2.512388 -1.2876935 -1.9861794 -0.227768 -0.85327345 0.33077314 1.6394607 0.011309109 -0.09384397 0.33763182 0.87312335 -0.14540818 -0.87287074
함 -0.46961123 -0.17017472 -0.44746998 -0.73582125 0.09967724 1.0654931 -0.29203844 -1.1352218 0.46954444 -1.7539217 -0.42705098 -1.3859696 -0.29008138 0.697573 -0.1369887 -0.73106563
배우 -0.04723293 0.33853942 0.7501426 1.0010277 -0.1330989 0.2709358 1.1346269 1.829802 0.18587442 1.7259076 -0.36165184 0.06948527 -1.4260577 0.021777933 -1.4942724 -1.107563
본 -0.9726434 0.10225477 0.46026275 0.39977455 -1.8030566 1.2369746 -0.2701822 0.30975524 -0.09695913 -0.17861585 0.83627367 1.0658838 0.19683966 1.3389328 -0.14076951 -0.49552095
까지 -0.5329145 0.191356 0.32953823 0.270783 0.76012874 -0.9949716 1.1924132 0.5429487 -0.11741159 1.1629946 0.5784592 -0.64403707 -2.1363492 0.093003884 0.22952539 -0.7565245
뭐 -0.118557036 0.0046699834 -1.1144505 -0.06100838 -1.0261471 -2.1787002 -0.016093446 1.5604314 1.2881683 0.009854508 0.63508964 -0.06005459 -0.15939018 -0.6110676 0.5329833 0.7653536
보다 1.0207857 -0.3589202 1.7151029 1.8629955 -1.2787689 -0.3050919 0.79988194 0.16895102 -0.119127996 0.27969614 0.10863757 1.3588604 0.7416809 -0.72661716 -2.034713 0.38551867
알 -0.015074174 -1.1289932 1.1909702 1.7146114 -0.3276865 0.2997 -2.420602 1.7372551 0.48166403 -1.4964787 1.9554535 2.2460835 -1.4047109 -1.7760093 0.02730378 -1.4139869
만들 1.1336486 0.23624444 0.08831603 -0.27766657 0.19118536 -0.8105636 -1.4325585 0.9670424 1.9140289 0.606315 1.0127647 -1.167805 -0.26294652 0.14666589 -0.2462128 -1.5486333
내용 1.4562157 -0.33189383 -0.6500258 -0.7413771 -0.54155356 -0.64736044 -0.7414035 -0.9474844 0.16781875 2.0260656 -0.48505244 0.59292936 0.39785486 0.57891834 1.430102 0.7412191
볼 -1.4384075 -0.62889624 -0.3965242 0.044050246 -0.701936 0.87310535 0.66877323 -0.06286481 -0.825407 -0.903577 0.48957828 -1.4874913 0.7733632 -0.043107275 -0.23361333 0.7790021
감독 0.24230948 -0.15264143 -0.1002117 -0.057300705 0.9274687 0.5985471 0.058627773 0.49982285 0.07230495 -2.4061031 0.008745058 -1.1608435 -2.1453946 0.22536977 -0.09871457 0.01994423
라 1.0771056 -1.3345096 1.742161 -0.9051699 -1.1085366 -1.2429038 0.14889982 0.68222374 -0.25359482 -0.30486476 -1.0392164 0.11063809 -0.09867424 -1.1742612 0.4131199 -0.36619782
그냥 -0.37453386 0.5716351 -0.5922109 0.5239995 1.1906656 -0.6874025 0.54629755 -1.9348894 -0.016006611 0.13632484 -0.69769007 0.5588182 0.003478384 -0.26047033 1.7631313 0.99473464
재미 0.8571573 -0.59292537 -1.3057177 -1.5556734 1.1806544 -1.6561283 -0.17805012 -0.35521472 0.09253947 0.11715731 -0.8698561 1.9094437 -0.057729304 0.7092886 -0.2558625 -0.48648605
시간 0.54727256 0.39253107 -1.4190953 -0.44161204 -0.95261645 0.45053318 0.75064397 -0.11027753 -0.6327949 -0.03866601 0.9905362 0.38227057 0.33476084 0.53616047 0.16464117 0.8325991
지루 -0.8670931 1.2910589 1.1018702 -0.60671514 1.3074123 0.41569272 -0.50497484 -0.79440856 1.1835583 0.65348184 1.5265496 2.1596751 -0.044228874 -3.4174018 3.4138231 0.8976849
중 0.033458497 -0.52615565 1.0804346 1.5538462 -0.7664392 -0.023245474 -0.103298925 0.25902057 -2.4694674 1.4142298 -0.07708558 0.11578397 0.5097545 0.08034192 0.48841253 0.70137596
재미있 -1.5065242 -1.4300133 0.53852266 -0.8260925 0.57195014 -1.2450244 1.4280894 0.3266631 -2.3075442 1.4730929 -0.6229088 0.28686455 0.47144628 1.0383195 -0.5588351 0.004590483
년 -0.5603342 -1.3198307 1.4018543 0.23975159 -0.52627516 -0.094028935 -0.23446535 -0.3655532 0.7266062 -0.25448564 -1.1995827 0.01456206 -0.13691425 -0.6883034 -0.38419995 0.1819848
10 -0.9734797 -0.483113 0.3550805 -0.77624685 -0.92695385 -1.0621288 0.33610043 -0.27187082 -0.4758964 1.3503225 -0.46128094 -0.948532 0.16884279 0.030022671 -3.506209 0.2105864
였 0.49301508 -2.311213 0.2099827 1.1726305 -1.1473168 0.46206763 -0.7403529 0.4246147 0.060702875 -1.1655622 0.7594814 -0.8485501 1.5476825 0.102876574 -0.6250846 -0.13427718
잼 -0.05205098 0.69298446 -2.1217933 -1.4313705 1.3972698 0.8213297 0.36693132 -1.3981532 0.90203446 -0.370977 1.7089562 -1.211942 1.2795521 1.2188783 1.0681844 -0.74441874
사랑 0.6343325 -0.54479694 -0.20954168 1.5472583 -1.1095728 0.22084005 0.8537704 0.9462016 -1.5176932 1.5897299 -0.28723264 -1.0305924 1.4724627 1.1931065 -0.54316723 1.1200606
못 1.077874 0.048001643 1.9334475 -0.18450885 -0.8787913 1.2220819 0.5556577 -0.8630553 1.4019041 -1.5791812 0.673046 0.53591275 0.6603891 -0.14084432 2.3713703 1.8646652
냐 -0.829285 0.6014098 -2.750966 -0.79756904 -0.54049385 0.21574768 0.7204835 -0.6820152 0.86808455 -0.94443953 1.1606119 -0.3914714 0.81495875 0.07677841 1.041811 0.5789222
재미없 1.04434 0.95298946 -0.104411036 1.0567546 1.4148155 -0.8220822 -1.385785 -1.1644456 2.895938 -0.21817607 0.33919513 2.5949407 2.6257107 -1.4533561 -0.29937616 1.6886002
쓰레기 -0.068846375 -0.32167995 -0.41195416 1.9514406 -0.8650527 -0.48818555 -1.3463651 -3.191051 0.43979722 -1.4431739 -0.45324796 1.5718324 -0.418953 0.26773787 -0.32600507 0.062087033
서 -0.40826088 -0.4822285 0.40038273 2.086014 1.475284 -0.1046196 0.48644683 -0.034423374 0.7777062 -0.047309753 0.29866856 -0.8702586 0.45259526 2.4176722 -1.2101328 -0.070070535
야 0.4376333 -0.014344926 -1.0545324 0.15861486 0.60490704 0.3920588 -0.75224555 -1.4369926 0.57437074 -0.34235543 -0.8287671 -0.96073955 0.2612912 -0.22776565 0.3892244 -0.78413683
2 1.3133892 -0.55995476 0.5832989 -0.33183908 -0.33039415 -0.86038643 2.16864 -0.27628034 1.1101294 -1.543121 0.67368686 1.206787 1.5419077 1.4963495 -0.1867345 1.3510313
라고 -0.5363516 1.6595314 -0.39352977 0.7807639 -2.2663667 -0.29660717 0.01580003 -0.25712085 0.80299425 -0.7959427 -1.0356714 -0.143398 0.20145942 0.28359327 -0.5282798 -1.1517197
니 -0.4921168 -1.2533375 1.7599272 1.1869981 1.1392927 -0.37880746 1.4837455 -0.71330875 -0.717455 -1.2816783 0.5227531 0.75374216 -0.060392596 -0.40797746 -0.26682982 0.029530026
면서 0.45585105 0.19518511 0.557152 -0.4715489 -1.403949 -0.32409072 0.66167367 -1.597925 -0.34385318 0.81755954 0.27743694 0.6470126 0.86345416 -0.1389663 -1.6248775 0.7465215
번 -2.0147696 -0.74535346 -1.2090932 0.13724485 0.34364933 0.83125645 1.4468324 0.11064926 -0.031886294 -1.5507933 -0.7929388 0.874597 -1.2252678 0.7205297 -0.6352026 -1.551759
다시 -1.68646 0.80949146 -1.7030208 -0.7716243 0.36163786 0.5343602 1.3214668 0.632984 -0.62427557 1.461689 0.4620195 -0.4970139 0.62030613 -1.2933607 0.73202294 0.05431944
나오 -1.8772678 1.1448573 0.6863448 1.5321716 -0.07015562 1.6171081 1.1704488 -0.09555754 -0.87549883 0.62702006 0.2835927 -0.41686004 -0.6811486 -0.78021777 1.1395264 -0.25482848
작품 -0.22458239 -1.0087895 2.7591684 0.06422931 -1.1343311 0.54017186 -0.07091105 1.7600493 -0.62639916 -0.23229492 -0.694542 0.6972519 -1.1182442 -0.8130268 1.0828942 -0.30408847
이거 -0.60992855 -2.1076214 0.8199506 -0.61773133 -1.5139163 0.77792215 0.7124136 1.1942867 -0.5238588 0.45395875 -0.4651141 -0.8719392 -0.24753664 0.34587145 -1.0838209 0.3985312
하나 -0.49546564 1.0572934 -1.4618258 2.1285508 -0.15721627 0.865068 0.7350525 0.3693448 -1.0283355 0.5334445 -0.5612173 -0.02550707 -1.3980323 1.6296257 -0.4806905 1.9540584
줄 -0.07326793 0.82493544 0.7814857 -0.23955001 1.73488 -1.9263041 -0.5873849 -0.7619797 -0.4324509 -0.52787757 0.4939944 -0.11082992 -0.028405176 -0.3848822 -0.94245803 -0.5271022
해서 0.33313745 -0.9001601 1.7344189 -0.122257285 0.10897301 -0.56419325 1.5710748 -0.0062484597 0.38598117 0.08844498 1.188208 -0.24445458 1.1096876 0.5076478 0.57183856 1.3298391
개 -0.9961444 -1.2890675 0.73916996 0.025163708 -0.09867322 0.016050773 -1.5862586 -1.5888761 -0.4186035 0.17984343 0.7256492 -1.3157618 0.00029424072 1.0097485 0.99124485 0.8108999
정도 -0.541173 1.0330746 -0.008662034 0.26435754 0.7350086 0.60709745 -1.0841411 -0.4433326 0.13415603 0.38111943 1.1124105 0.97562647 0.53493327 1.9735385 -1.067795 0.074877195
남 -1.5564271 0.52855796 1.0938052 0.4900846 0.31087452 -0.95525086 -1.137268 -0.45972705 0.39800817 1.6582819 1.2663082 -0.48126543 0.61558765 0.6542285 -0.8635356 0.21726432
마지막 -1.6163447 2.049149 -1.5606625 -0.26404595 -0.9553766 0.07947248 -0.970332 0.85165757 0.6908774 0.31124702 -1.136439 -0.0027469222 1.9678644 -0.13899268 1.4619662 0.5451023
끝 1.4806254 -0.10011361 1.6617126 1.6911234 1.7718155 0.37636504 0.39479652 -1.5780816 -0.17175868 -0.77674246 -0.6878893 0.81582457 -0.32158577 -0.19217798 0.84221244 -0.72305965
액션 -2.0250492 0.9439827 0.3466575 0.758653 -0.6073113 0.5093963 0.18277282 1.2297271 0.27824655 -0.29808497 0.82231283 -0.40259033 0.59378254 -1.6963544 -2.0476754 0.28316376
이건 0.16227643 2.007478 -1.5161365 0.8714889 2.2965894 0.04240114 0.12107783 -0.13909419 0.41253516 1.1176612 0.73067105 0.27416736 0.39597076 0.7090882 0.2743819 0.5771187
임 -1.7835122 0.6765215 -0.12364638 1.842055 -0.19686314 -1.3570046 1.4164011 -1.4403245 1.0837072 -0.6311853 -2.1684198 -0.50295913 -0.621865 -1.2946291 -0.38219553 -2.4123662
건 2.6746624 1.7112657 -0.3576723 -0.016767941 0.21355048 -0.1840045 -0.6437279 -0.083493955 0.25752634 1.4897486 -0.4257045 -1.3971057 0.83300596 -0.4506497 0.92264163 -0.33701175
ㅋ -0.3259168 -0.13122964 1.6472667 -0.14227352 1.840681 -0.2715599 -0.119122185 1.7714674 -1.1302991 -1.2757425 -0.3194499 0.12612711 -0.9252414 -1.0328176 0.36263984 -0.9165453
3 0.93610126 -0.10172068 -0.4255945 -0.099645965 1.3050275 -0.22619016 -0.57492036 -0.66763985 -0.43913138 0.2868091 0.6430779 -0.13009411 0.42921928 0.87011594 -0.7033446 0.08287812
기대 -0.0663055 -0.4378745 -1.4982243 0.4895194 0.64285505 -0.22662185 -1.4666749 -1.7507306 -1.0284739 -0.24777132 0.62205595 -0.70713985 1.7615201 0.061077345 -0.33051226 0.11256531
입니다 0.021834653 1.4056904 -1.25924 0.51979494 1.1238626 -0.49641204 1.3005216 1.9085835 -1.9166061 -1.4020721 -0.92229205 -1.2065152 -1.4846032 0.047173083 0.29291296 -0.7225993
라는 -0.42679894 0.10834898 -0.05897537 0.3511945 -0.4839984 -1.4693197 1.4476223 0.4840795 -0.6059972 0.15464307 0.94816923 0.018552512 0.3356182 -0.4927115 -1.2568116 1.5838842
분 -0.65317756 -1.5557323 -0.7934852 1.144613 -1.3342413 0.44462472 0.37777135 -1.1779977 0.6185244 0.13855469 1.4656281 0.4758344 0.0036797598 1.0852181 -0.11188363 1.4301134
완전 0.5561157 -0.681399 1.825129 0.435183 -0.40755984 2.4954288 1.7480099 1.1298594 -1.2355859 -0.18014117 0.26457682 0.6507217 -1.0790521 -0.7679745 3.2498221 -2.2583213
다는 -0.74417543 0.92326385 -1.5392343 -1.0360124 0.3060116 0.29187042 0.8831018 -0.65762764 2.3758345 -0.95013016 -0.1343064 -0.24836901 -0.18933713 1.263788 -1.4278126 -0.23591982
참 1.5495024 -0.59552056 -0.89918053 0.26733977 0.44061482 -1.7227759 -0.82289106 0.8597321 -0.24831098 -0.78952265 0.2518947 -3.387395 -0.013567155 -0.5954152 0.14570072 -0.18535715
많 0.8325736 0.5476644 -0.33723322 -0.6754891 -0.40980303 -0.13773556 1.6363175 0.76119447 -0.14266494 -0.15880205 -1.3023614 1.4935299 -0.34330136 -0.6709854 -0.41626608 -0.6619012
처음 0.057281405 0.71052045 2.1635358 0.24107629 -0.38486424 0.25531667 0.5427554 -0.9105095 0.054901186 0.43678284 0.11928747 -0.33182746 0.5497695 0.82876915 1.5074801 -0.017460203
장면 0.52716476 -0.89068764 -0.4638191 0.6671511 1.0170242 -0.7153669 1.968165 -0.40256253 0.72005993 0.15608907 -1.8514634 0.42687854 -0.08525307 -1.4052145 -0.08404419 -1.1602902
대 0.6444111 -0.8471641 0.94934595 -0.36875665 0.33849826 0.30920145 1.0995234 -1.2801843 0.17929211 -0.3566983 -2.1353645 -1.1521436 1.6086388 -1.3038305 -1.1022502 -0.18453781
아깝 -0.35903066 0.3308229 -0.6074214 1.4135796 0.7519462 -2.326685 -0.44559315 1.1550506 0.8464981 -0.7288564 1.2226838 2.2563653 0.5861988 0.16425575 -1.5724586 0.4843424
다가 1.6802024 -0.41984463 0.39746833 0.012391779 1.8010619 -0.27174652 2.4749193 -0.3615738 1.0132389 -1.0126157 1.2309289 1.5562208 0.14514385 1.7402748 0.35930544 0.44505265
으면 -0.2435615 0.7616022 0.045884613 0.64953583 0.8270534 1.7081681 1.1516219 -2.1391923 0.38586172 1.7120055 0.99576396 -0.6481514 -0.03141881 -1.5535785 -0.37390986 -0.060159545
지금 -1.0746377 0.18969257 -2.202015 -0.97508 -1.8985778 -0.58138704 0.033020675 -0.90305173 -0.08297671 0.3028876 -1.3230901 0.7440443 -0.43987074 -0.3448063 -0.829172 -2.0329905
모르 0.9216168 -2.8943992 0.9752321 1.0720431 -1.4203626 0.25355893 1.52979 0.7180644 -0.68161976 -0.13844034 -0.53878903 0.124505915 -0.6091398 -0.65386903 0.081627555 -0.381797
이렇게 0.3000562 -1.1312269 -1.0572565 0.7358732 0.50795346 2.2590237 -1.635412 1.6252421 0.23125789 -0.56451905 -1.4875692 0.98662037 -0.19916815 1.3541695 -0.7320882 0.6614786
' -2.1272283 0.21376094 0.84915584 0.6091336 -0.2958343 -1.5469989 0.6126227 0.0470882 0.7174722 -0.12264319 0.97297513 -1.1655468 0.47700137 -0.6960966 -0.37162286 0.49384445
편 0.33607054 0.718057 -1.7236187 1.3989702 0.57886714 0.70561063 -0.57656425 -0.47871745 -1.5395436 -0.6583202 0.5203184 -1.7219312 1.7917348 -0.88948816 0.1919045 1.2186141
일 1.2406574 0.6933768 -1.8709073 0.38939416 -1.4570692 2.0234976 -0.15526041 0.13148133 -0.094825305 -0.25485265 -0.7719585 1.0294043 0.6950999 0.111097835 -1.0549519 -0.45610973
성 1.059096 0.52781576 -0.24672331 0.9294556 -0.4388307 0.6558051 -0.29041833 -0.6225358 -0.56756234 0.8815985 1.4242206 1.5676874 -0.39081767 0.47715104 0.08772998 -1.739275
돈 -1.3835697 1.263619 1.8274378 0.9523393 0.17789857 -0.23465374 0.10187089 -1.0993522 1.4832331 0.8371572 1.4735806 0.29831728 0.057919037 -1.618005 1.995879 -0.71991235
이게 -0.0814168 -1.2982277 -0.03964498 -0.8486555 -1.0886632 -0.46713167 0.72600543 1.3477194 0.51063436 -1.9181565 0.17606837 -0.5174203 -1.4535785 2.285023 1.2760634 0.8228891
느낌 -0.12218492 0.7645565 -0.6482676 -0.47428948 0.66798705 1.6425529 -1.1332997 1.0563904 0.43002945 1.5600505 -0.1192851 0.78229815 1.3598813 0.7739329 2.4392216 0.36746955
시 1.7879962 -1.0854347 -0.79141784 -0.44555688 -1.4809772 0.2944075 -1.7373385 1.8456427 0.7496891 -0.13796724 -1.8454015 0.5017648 -1.2159586 -0.9781576 2.2585528 0.4277315
이야기 -0.9764424 -0.041129578 -0.35448924 -1.3528322 -0.8215849 1.23553 0.58394396 -0.3251761 1.0206424 0.94485843 -0.8714032 -0.3683817 -1.2706405 -0.12884322 0.5057803 -0.22052005
최악 0.9632692 2.1095483 -0.8550924 0.670263 1.1821989 -1.8805882 -1.7953403 1.0258627 0.45440727 -2.7120068 1.3294448 -0.13551973 -0.8339238 1.155876 1.0495787 2.8549242
된 -1.641637 0.3552748 -0.98437864 0.6109115 -0.73481995 0.95195323 1.2645738 2.5850508 -1.719259 0.47640237 1.0459533 -0.60718006 -0.46966085 0.18765804 -0.827039 0.46884048
봐도 0.342121 -0.9174716 1.6969151 -1.9392774 1.05323 1.8525407 -0.31658003 1.8046101 0.9370791 -0.31835556 0.3276374 1.1585019 -1.9333136 1.1846471 -0.30677253 0.25325328
님 -0.31769705 -0.1737158 1.3881334 0.014391978 -1.2234981 -0.66374373 1.0033512 0.07768935 0.25410572 -0.9805326 -0.44417357 -0.18720686 0.34106275 0.46507478 0.20148586 -2.291925
어서 0.6035686 1.3115553 1.3663535 0.1930544 -1.1185316 -0.63110185 0.0012672542 0.97931284 0.3739572 0.122379445 0.20347537 0.21601002 1.3932437 -0.10344422 -0.45257506 0.35989618
애 -0.2394852 -0.61987305 -1.9731907 0.48165268 0.27910066 1.8044719 0.7503188 1.4882238 -0.34113318 -0.93539226 -1.3100194 -0.7628796 -1.2541044 -0.15230681 1.0268595 0.24784133
전 0.08256675 1.5569421 -0.9757676 -0.0035603663 -1.0235372 -0.8236697 -0.8140492 0.7933879 0.36889684 0.45762756 -0.34755448 0.52452 -0.7736544 -0.8653189 -0.2988914 -2.2680516
넘 0.0091418745 -0.09244258 -2.5077593 -1.7213222 2.7207067 0.4902727 -0.27712628 -0.66055524 0.5312382 0.29478115 -0.024552943 -0.9379263 -1.4845836 -0.5026938 0.5356834 2.698956
ㅠㅠ -0.035161197 -0.040344555 0.34417537 0.38486308 -0.16739798 1.4116575 -0.068922184 -0.66922957 -1.7810322 0.272634 -0.37265635 -0.67578703 0.010254672 1.6362017 1.6896867 -0.5334971
다고 1.1894221 1.2362621 -1.7463732 0.5229469 0.31821972 -1.0951335 -0.37443978 -1.3098187 -2.6572347 1.8734107 1.1668615 -0.86132157 1.4636695 -0.779692 -0.23225877 0.7667997
인데 0.20187396 -0.3598402 0.5243822 0.06716789 0.7276479 0.04872452 0.301648 -0.47156537 1.5729446 0.432366 0.08356677 -0.23465346 1.058709 -1.115072 -0.7991919 -2.021779
그리고 -0.43812093 -0.29757008 -1.0678397 -1.446352 -0.9924478 -0.7060526 -0.1327495 0.3041899 -1.9126625 0.82256734 -0.35492942 1.2577765 -0.4012201 0.34415296 -0.820573 1.6112903
명작 0.92296314 -2.4068105 -1.9948838 -1.0654231 1.1766931 -0.654968 0.7803027 1.2996649 -0.9099596 1.3457147 -0.9048997 0.4066906 -0.68765926 0.42739525 -1.6711949 -1.4143233
여자 -0.019114217 1.1738666 0.50651354 1.3125647 1.0387813 0.87935823 -0.6973118 0.003653761 -1.3956933 0.42902368 1.5145692 -0.13984916 -0.038896915 -0.36952692 -0.6397315 0.2796816
이해 1.4755864 -0.25342804 -0.53153783 0.11467779 -2.065692 1.4588659 -1.160083 2.2473037 -0.7050829 -0.24378559 1.3366894 0.78668505 -0.108279586 -0.33772117 -0.03386633 1.1077505
^^ -0.95386046 -0.9420146 -0.79150766 -2.024256 -1.9658083 1.944678 1.3134162 0.040076762 0.08902164 0.47377053 1.3597598 -0.78798515 2.0994842 1.103911 0.4094991 -0.51945734
난 -1.9462842 -1.0308306 -0.99992865 -0.4093425 -1.2314163 -0.6279793 1.4547329 0.27129924 -0.12555464 0.20363434 -0.29167116 -0.8429214 0.4239432 -0.2791672 1.5488638 -0.81468844
역시 -1.8034626 0.0071827103 -0.08782341 -0.29200983 -0.3281523 0.45402244 0.66259426 -1.267126 -1.2652911 0.85510564 -0.76387894 -0.2929492 0.21141048 -0.3441447 0.19289172 1.4656
또 -0.14987119 -2.261317 1.0060105 -0.12686966 0.07161276 1.2067305 -0.7167311 -0.05125891 -0.79494643 -1.7747377 -1.4368993 0.4787407 -0.5485537 -0.5287202 -0.06408762 0.7012865
걸 0.3055666 1.0496899 1.80565 -0.9794506 -0.61316746 -0.28431532 -2.4240332 0.6767751 0.7049104 0.39831516 1.2922499 -0.6700235 2.0114417 1.9305757 0.03837375 -0.5377594
한국 -0.25314614 -0.34879965 0.5153153 -1.3087957 1.1105088 -0.0621889 0.65033203 0.5867981 -1.914448 -1.8835366 1.1161094 -0.6838907 -0.33711258 -0.58921003 -0.1448601 1.9733858
이상 -1.9407058 -0.40224105 0.5792108 -0.6083502 2.172415 -0.20707281 0.47818166 0.27790704 1.6035495 -0.9039436 0.2367151 0.98669314 0.7908653 -0.8422772 -0.024092842 0.48698935
부터 1.5212389 -1.2658625 0.810286 0.9341652 0.51839674 -1.1247566 -1.3720897 1.7564529 1.0629771 -1.4840616 -0.8379616 1.1014416 -0.2681573 0.23602177 0.7301262 0.5698689
는지 0.90286475 -0.5361966 -0.55489343 -0.17198044 0.27633595 -1.1885943 -0.736891 0.34362677 -1.3590884 -1.0498911 1.0821855 0.45180804 -0.3962431 -0.38581586 0.5043451 0.40304992
많이 -0.51244533 -1.0949357 -2.5781932 0.5056961 -1.277749 1.2916138 -0.5834781 -1.2183566 -0.9778322 0.62112075 0.39883932 -0.31332687 0.30255228 -1.4275093 -0.053097952 2.131078
에게 -0.48839054 1.2042671 0.73706 -0.43926668 0.9791232 -1.3361536 -0.8456753 0.2467692 0.15474153 -2.564428 -1.285675 -0.10565367 -1.1282855 -1.3062228 -0.05888203 -1.8905499
주인공 -0.0009626131 -1.7261498 0.063722074 -0.043801673 -0.656523 0.10626438 0.07608315 0.9144522 -0.34935036 -1.8790622 0.25295612 -0.6157268 -0.1055979 1.3270168 -1.6901985 1.5857275
별로 1.2820104 -0.54226494 -1.0279628 0.040644668 -1.8332224 -1.0981799 -1.846556 0.19644964 -0.5127224 -0.12509398 1.1087016 1.36775 -1.3759196 1.2390804 0.9036024 2.763645
받 -0.8376407 -0.029322531 -1.5387723 0.10305318 0.61479247 -1.768596 -1.6828202 -1.1790168 0.58253115 1.8975097 -2.8239803 1.2716541 0.838191 0.3845701 0.8702251 -0.538935
합니다 0.7709676 0.57725346 -0.69612134 0.8793497 1.0018507 -0.033070672 2.3219373 0.9387602 1.0566717 -0.7487626 -0.25077766 0.38325146 1.8115427 -1.464918 -0.41484347 -0.72282445
두 0.64989084 -0.55484915 0.7960784 -0.34955695 -0.38950783 -1.4400997 -0.7748365 0.45135114 -0.60859716 -0.019016871 0.62832016 -0.4275868 1.2967771 -2.2250786 0.082342654 0.62919766
우리 -0.2915198 0.59854805 0.62470466 1.1007018 0.9486265 -1.2890694 0.5819529 0.17441101 -1.1570247 -0.44481844 -1.8584155 0.38143513 1.546072 -1.6460233 -1.6900053 -0.34546936
만든 0.4602381 0.12360181 -1.1388175 -0.9093043 0.87137884 0.34150425 -0.53793234 1.2887667 -0.7909291 0.13058609 -2.3293786 0.35393825 -1.1772258 -0.14785463 0.6034337 0.9136363
살 -0.22600408 0.41493967 1.7382224 0.20329791 -0.27611586 2.0256534 -0.82575077 -1.4146274 -0.015122311 1.1847247 0.2666326 1.0555071 1.028277 -0.1829816 -1.6738217 -0.2871322
!! 1.0895159 0.76141953 -0.4857307 -0.5985944 -1.3089169 -0.84189427 -0.83143866 2.0508058 -0.26136717 0.80145156 0.24281254 1.5629563 -0.3034269 -0.6067089 -0.39368328 0.709085
길 -0.08093844 -0.91375965 0.36394796 -0.061787274 -0.79651946 -1.1965419 -1.1861353 -0.8429175 -0.645513 0.40026152 -0.552162 0.9210317 0.5655578 -1.2970269 -0.3151066 -0.62889916
엔 -1.0539408 -0.24161065 0.48692355 1.2625834 -0.27015862 0.69789124 0.87780833 -1.856331 0.66664314 -1.7038581 -1.7725012 0.198517 1.178766 -0.927215 -1.3131568 0.2820631
괜찮 -1.1313298 1.2680143 -0.6552807 -0.78923655 1.1836333 0.60446465 0.42845026 -0.24056372 -0.46164635 1.2842636 1.7093318 -0.884014 1.4072839 -1.0435911 0.2615468 -0.4328999
기억 -0.30325338 -0.59583634 -0.26873812 0.23469338 -0.100198686 0.54746354 0.23384826 -1.0346409 0.8356244 1.2873449 -0.5718013 0.16578399 0.9073713 1.2354689 0.42992797 1.8631356
연출 1.1502515 0.40843245 0.4498751 1.5458792 -0.7734354 -0.48447552 0.15788423 -0.5501878 -0.6218526 -1.3321733 -1.4786832 1.5955777 0.64786875 -1.193045 -0.9808468 -1.3781544
한다 -2.0259182 -0.24677959 0.22897767 0.12889685 -1.4747316 -1.4975361 1.4911039 -2.5223615 1.9153372 1.0825386 0.8568729 -0.9015269 -0.13775115 0.6234871 -0.08709294 0.38540035
때문 0.046150792 -0.17701449 0.62545943 2.4074156 1.5448853 -0.3899971 1.3255068 1.8833342 -0.09573695 0.4078522 -0.37851834 -0.99102074 0.29963905 3.8736408 -0.22209775 -0.8358227
ㅎㅎ -1.6234738 0.56215733 -0.09877498 0.062666446 1.3843042 0.9306678 0.37757537 0.015454883 -0.10997249 1.4630276 -0.3410037 0.6469526 0.5984989 0.6834203 0.09158333 1.7801185
이나 0.9063783 -0.829214 -0.7679625 0.100562446 -0.80675846 -0.54304224 -0.42050585 -0.60315734 -0.03278221 0.57459265 0.4563463 0.46740618 -0.19927563 0.70051867 1.8837442 0.4655208
요 -0.41034627 1.2882305 0.62886053 0.9623459 2.3020046 0.7704127 -0.52411634 0.20209077 -0.54485303 0.4836527 1.2316685 -1.3247168 -0.10583206 0.82690746 0.3487337 -0.123912476
저 1.8689214 0.13993032 0.9722625 -0.6272142 1.4713211 0.7814835 1.3567531 1.4411584 0.86390465 0.17847566 -0.58623487 0.021669338 -0.48670015 1.76808 0.23964082 0.1298461
재 0.72425705 0.2682069 -1.5210704 -0.031894 1.2226828 0.6799703 1.1855699 1.3801538 -0.9276147 0.36981565 0.4760299 0.6797892 -0.70660996 0.6262885 -0.0500969 -0.55266047
꼭 -0.27797836 -0.5440679 0.28034863 -1.5198948 0.9820629 0.51965725 0.1109964 -1.841649 -0.0845379 0.32152972 -0.6113969 -1.0448959 -1.0488251 0.13054314 -1.1638461 -0.2193159
며 1.2678446 0.83961684 -0.15383264 0.051779684 -1.4936529 0.02887405 0.41881832 1.0795963 -2.4197903 1.3735946 -0.052924886 0.022272645 -0.48195824 -0.408246 1.3817935 0.63238764
현실 -0.2489108 -0.9809553 -1.1763444 -0.49665093 -0.12307894 1.0890061 -0.6357591 1.7847129 -1.2722274 0.68872565 0.8184056 1.1122984 0.46479672 0.53948724 0.29642332 -0.49007618
랑 1.6415242 -0.32182074 -0.26691288 0.032346185 -1.8893921 -0.37484962 -0.8517777 1.6124911 -1.2671437 -1.3867056 2.0175576 0.6424621 0.49184063 0.9418918 1.6772891 -1.3757439
긴 0.52104956 0.45206082 -0.075956404 2.1082702 -3.1642938 -0.5807946 0.14405398 -1.4340233 -0.7890042 1.5488175 0.621716 1.1628222 -0.957974 2.2246263 0.7455104 -0.20340464
ㅡㅡ 0.5637102 0.90784234 -0.36210555 0.3906386 1.2109722 0.12526524 -1.0275468 -0.07058341 1.1745728 0.08081852 -0.617057 0.06928804 -0.6730828 2.5138273 0.104661316 0.103640616
무슨 -0.12615028 0.32635048 -2.514565 0.5444099 -0.40708482 -0.44422507 -0.52717215 -0.5765354 -0.7828747 -0.9250015 0.23938696 2.0132236 2.3295426 -0.010076418 -1.2429574 0.35633266
내내 0.24169445 1.5658183 0.0860434 0.32652113 -0.34989798 0.75153834 -0.67563355 -0.21519825 -1.2637894 -0.99559265 -1.2070833 0.12769784 0.3296393 -1.30944 -0.6315968 0.64205945
결말 -0.5895228 1.1230632 0.42296967 -1.9823277 0.29446805 -0.46155387 -0.5126841 1.0380738 1.3137907 0.6461453 -0.15404867 2.1114044 0.55560523 -0.11128288 -0.016896984 2.3938186
죽 -0.00012661965 0.66017264 0.06736795 -0.2659789 0.23820111 1.2151226 1.3727647 -0.20633133 1.3003178 1.7339387 1.8082627 1.1018273 -0.050704632 -1.2145941 0.1344844 1.1662716
세요 0.08029278 0.50803304 -1.3343441 1.9277723 -0.6700106 0.5873173 0.07087802 -0.16815202 -0.67099875 -0.082400955 -0.56875414 -0.68165964 -0.8681221 -0.14408474 0.34332326 -1.9829075
남자 -1.6565915 -0.88931257 -0.53962266 0.67866296 0.7020994 -0.6884704 -1.4737004 2.4042203 1.0981001 -0.014942886 0.335358 -0.73152256 -1.0501733 -0.26082435 -1.9835196 0.78431225
전개 -2.1042643 -0.53922695 1.2780966 -1.4686992 -0.03738943 0.030647984 0.066029675 -1.3745449 -0.077366665 -0.8862686 0.81185406 0.4399769 -0.6059759 -0.4012136 0.8135411 0.31337476
마음 -0.16693579 0.07943968 -1.5229187 -1.9201521 0.7709089 0.783178 -0.22919443 -0.60212225 1.5731206 1.0110365 -1.0655303 -0.13286711 -0.1282256 -0.18553136 -0.4490745 -0.27438453
별 0.25323015 0.93493265 -1.4807831 1.643188 -0.27072266 0.1667348 -0.49441063 0.62351936 -0.06479428 1.2719588 0.29598156 -0.637105 -2.0700788 0.64840144 0.16972595 -0.442573
소재 -0.3957843 -0.41629812 -1.2245637 0.5083803 -0.47075814 0.66937435 -2.1377218 -0.71018237 -0.16876459 -2.0637372 0.8704313 -1.336481 2.6999834 0.6008682 1.116601 0.8892801
속 0.50691175 0.311136 0.43923533 0.18037741 0.12527236 0.062914595 -0.24471205 -0.41731578 0.45365918 0.035713922 -0.23947532 0.35168204 1.2511716 -0.2331281 -0.86579466 0.5461082
공포 -0.6589518 0.051047757 -0.66832787 -1.1196594 -1.2433753 0.5158008 -0.5021942 -0.25979716 1.4346956 -2.4952567 -0.7480744 1.4796771 -1.6579913 -0.4356665 1.2594372 -2.3577611
다른 1.5009481 0.6220333 0.8954451 1.0757724 1.3560649 0.2429317 0.3519043 1.4855797 0.28649762 0.18970855 -0.7766284 0.08409427 1.8336535 -0.5262754 -1.4972762 -1.3753726
아서 2.9239092 0.1989166 1.2640408 -0.158086 -0.004689281 -1.865436 -0.8907833 -0.14503837 -1.9300063 0.05182755 0.7240196 -0.17278762 -1.037038 -0.61693573 0.69871956 -1.3538276
씨 0.770757 1.0433216 0.58024037 1.2758607 0.14761096 0.1717803 0.39096174 1.0446517 0.63768214 -1.2196659 0.5789556 -0.6725922 0.33983025 -1.1310506 0.27624643 -1.537971
인생 0.2645561 -0.023002334 0.77434146 -1.5214889 -0.6462587 -0.29226395 1.4986857 -1.1570085 -0.16647081 0.37941778 0.6148732 1.1953454 -0.62801003 1.5366056 -0.92530495 0.6589957
~~ 0.14770721 1.2600591 0.07902057 -0.4941936 1.2128781 0.39574915 1.2708423 0.112936504 -1.1176243 1.3812851 2.4714992 0.6731044 0.34436595 -0.15126638 -0.20222162 -0.20256673
짜증 -0.14603163 0.11586822 -1.9124601 1.9218367 -0.97632724 0.59025836 -0.8563588 -1.710007 0.5241874 -1.3164201 0.13605957 -0.21016082 0.8312799 0.55394703 -0.41138718 0.064034194
짱 -0.05589221 -0.020090843 -1.7256404 -0.5905096 -0.50561553 0.6720766 1.6191533 0.67475986 -1.227671 0.99523735 0.29030102 -0.30159807 0.63093686 0.6412584 1.1178598 -0.06624842
뿐 1.0964372 -0.45403683 -1.2866141 -0.5059314 0.0054867193 -0.8472667 -0.685419 -1.1598732 0.39756742 0.30210504 -0.6762532 0.063243024 0.05210351 -0.25656015 -0.024073454 -0.20376311
은데 0.5273673 -0.07150256 0.8609193 0.21414107 2.106319 -0.40204185 -0.013270062 1.1047784 -0.97177184 -0.38341862 -0.8928949 1.7655386 0.11591792 -1.2378466 -1.3675666 -1.3344983
아요 0.74605924 -0.7966483 0.9379499 1.0083339 0.43183944 -0.36896867 -0.4794689 0.9748945 -0.39749983 0.42651254 0.40219796 0.59456915 1.5609019 0.8492142 -1.5560762 1.2869345
유치 1.4290054 0.85271424 -1.4301583 -0.1112052 0.84443456 0.3491606 -0.1384476 -1.3715749 0.73915744 -0.72817874 -0.3363465 0.3032013 -1.1101174 0.3144178 0.21539626 0.2894153
필요 -0.88841015 1.393501 0.45566452 -0.76806474 0.27380064 0.69218266 1.2423064 -1.1913736 0.23112649 2.6157131 -0.5088643 -0.3238894 0.79246694 -0.4432348 0.524081 0.98214006
가장 1.0868169 0.017717851 0.7265932 -0.22192241 -1.3026401 -0.029889155 -1.7069616 1.1429609 2.7425036 0.9868864 -0.81999594 0.4925975 -0.867217 -0.06985061 -0.30846575 -0.371387
음악 2.1810665 -0.041446224 -0.58486927 0.77762485 -0.3383001 -1.8850576 -0.38254935 -0.38880172 -1.3103335 0.3730422 -0.3828305 0.24696359 0.3875144 -1.3329135 -0.17007735 -2.1778142
) 0.81629384 0.4132379 1.2917676 0.10374879 -1.0218539 -0.3459577 -0.02152265 0.7744389 -0.012499039 -0.578603 0.21282956 -0.04646917 -0.4149185 -1.2060354 0.45315847 -0.10072098
일본 0.44354185 -1.0763452 0.17799653 0.36840922 0.25716066 -0.401512 0.2016106 -0.95983124 -0.5356707 -0.26358196 -0.02956486 0.99530584 -3.5526898 -1.2428569 -1.7236935 -1.0908929
낮 -1.5731472 0.062207323 -1.0861497 -0.6134814 3.0745926 -0.15700246 0.49516773 -0.1283377 -0.15116549 -0.46239933 -1.46046 -0.1540567 -1.0609833 -0.71318203 -1.0372149 -2.2248714
오 0.3633462 0.52354455 0.7711232 -0.5542437 1.565349 -0.06098468 1.0618175 -0.043704107 -0.39750132 -0.0860885 0.12764928 0.75678915 0.52894324 0.9983645 0.198289 1.7068883
;; -0.22220469 0.118005715 0.49630302 1.204751 3.0439286 0.26391494 0.41795072 -0.17203394 1.8011025 -1.430553 1.8417293 -0.6946572 1.013815 1.2578838 1.3376259 -1.0997564
아이 0.27547005 -1.3659474 0.38651896 0.74923927 -0.6088114 -0.008438543 0.05828643 -1.2526926 0.8260197 0.82788444 0.26339296 -0.10219618 1.1586933 1.2529429 0.91451204 0.7188604
반전 0.8209103 0.22909507 -0.7453417 -0.659946 0.6173793 -0.83983785 0.33581668 -0.42041522 -0.83547163 -0.8322686 0.090518706 0.76910233 0.82767624 0.18026099 -0.2028419 -0.92724174
데 -0.614512 0.66984046 -0.3315298 -0.29603896 -0.068860084 0.4615608 -0.29183093 -0.37213102 1.6001097 -0.76614016 0.94738936 -0.36051208 1.2498114 1.6950035 -1.1605507 0.82388526
수준 0.72941864 -1.8407427 -0.05618199 0.5431892 -0.25101006 2.0194788 -0.6860207 -0.046652883 0.57305974 1.6781079 0.62301534 -0.055151343 -0.9626391 -2.0934622 2.2310343 -0.048043948
다니 -1.3800901 -1.0772595 -3.390294 0.47760925 0.03412461 0.8494741 0.20654461 -0.46565244 0.81623477 -0.20754492 0.4377313 1.7051715 -0.1894074 0.64817214 -0.13835138 -0.63030356
웃 1.1525383 0.5142943 0.80652714 -0.25616258 -1.0369197 0.07400027 -0.9943328 0.29779992 0.10477301 0.97017944 -4.144761 1.3246088 0.9127205 -1.185778 0.3637282 -0.377232
매력 0.39442748 0.059231654 -0.63006 -0.3896403 -0.8248084 -1.0614108 0.8402217 -0.48942217 2.5637586 1.5788242 -0.48466325 0.34746444 0.9918263 1.3702391 -0.994772 -1.5885643
맞 0.86728776 -1.091409 -1.6772851 1.091121 -0.47755197 0.1791883 -0.47958487 -0.88956195 -1.0130141 1.0356761 0.22456141 0.45105496 -1.3712488 -2.2321224 -0.10414989 1.2308476
인지 0.45150527 -0.78654253 0.7659009 1.729261 0.82226557 1.5624056 -1.8070753 -0.41013584 -0.19828433 -0.33365402 -0.17214927 -0.2186707 -0.37467143 -1.2550279 -0.6112547 0.010405802
가슴 1.0754951 -0.6145987 -0.0794611 0.42189717 0.03152123 -1.0819286 -0.16758843 2.0273209 -1.4526231 -0.25071445 -1.6025023 0.74313825 -0.36974013 0.5718714 0.14774585 -1.7886889
없이 -0.18563266 -0.78267425 0.26202017 1.5309645 -1.7291248 0.42595884 2.4841976 -1.4126338 -2.4847436 -0.4300265 0.15840249 0.54751927 -0.23835023 -1.2996504 -0.5922871 1.1054858
원작 -0.9677633 -1.0961338 0.7792102 1.6049424 -1.5134002 -0.49107388 -1.2463224 0.53670716 1.1241764 0.3988169 0.95095456 0.24583247 0.5640313 -0.64379466 1.3225356 -0.61127484
ㄷ -0.7944177 -0.19506088 2.114559 0.5770797 -0.37854192 0.8407725 -0.47367543 0.60555446 0.7633307 -0.36019298 -1.2926071 -1.7576864 0.8423292 0.95174336 0.10738053 -1.2714717
인간 -0.6438758 0.40107346 -1.7869691 -0.17979585 0.9714246 2.4429724 1.0348079 0.36124176 -1.2740976 -0.83037984 -0.39978996 -0.6860194 0.43477264 -0.7978102 -0.13066004 0.4503025
굿 0.016609265 -0.51030546 0.59498215 -1.2576194 1.0681931 0.8606575 0.78469616 0.6605458 -0.048799586 0.015824156 -0.28079006 -0.6076123 1.5903434 2.5795693 -0.7674494 -0.16371372
높 1.0864375 -0.16364712 -1.1687233 0.9030877 0.47087598 -0.6653362 -1.7844775 -0.3506554 -0.43158093 -0.614936 -1.3649783 1.7159343 -0.64967906 -2.5971735 0.6030682 1.0741847
ㅠ -0.6935149 -1.4623969 -0.7658444 0.66256243 1.0337331 -0.6084611 0.45815545 -0.57699686 -0.21037576 -0.9631985 -1.4316368 0.99968106 -0.3620291 -0.41568828 -0.036211457 -0.1765701
밋 -0.39397606 1.0553614 -1.0115168 -1.8181295 -1.7819222 1.8858474 0.82408214 -0.75809866 -1.9375565 -0.5231186 2.1449351 -0.9455282 -1.076092 0.05815749 -0.9721594 0.093878575
( 0.7217874 1.8407584 -1.4945469 -0.9166444 -0.29163775 0.7572681 -0.40405196 0.060923282 -1.0507689 -1.5734789 -1.8250316 -0.7323635 0.555257 -1.3469799 -1.2384298 -1.11736
급 -0.25761145 0.10430099 0.47364753 1.1618909 1.5420115 1.1578537 0.25462517 1.1364086 -0.28267357 -1.972596 0.74332017 0.15150492 0.0402044 -2.192696 0.44963628 0.64972514
만드 0.08270186 -0.27491084 -0.53381824 0.10796485 0.77764285 0.020391429 0.4971569 0.06758391 0.271397 0.7380388 0.7425096 -0.77362746 -0.34460288 -1.2677602 0.75793153 -0.5216474
눈물 0.63022494 0.2801611 -0.7922406 -0.28213078 -0.12171802 -0.06303956 0.091341965 0.65910983 -2.146665 2.0603945 0.63242346 -0.4687171 1.084655 -0.11056979 -0.57970893 0.36690292
보여 -1.2754877 0.5502521 0.06224111 -1.0048109 0.63218045 -2.5533755 -0.14106992 -1.296502 1.8614558 0.020886092 -1.3382176 -0.3069211 0.054521214 1.7508545 -0.3255251 -0.0081282845
준 0.5766566 -1.1495907 1.2729632 -0.627773 -1.1033251 -1.0815629 -0.63049173 0.32488593 -1.4541664 -0.5837663 -0.13962299 -0.65157354 -0.53015506 0.4289308 -1.4368253 0.55398315
찍 -0.75568014 0.92303795 -1.7281443 1.0997732 2.2080054 -1.5757562 -1.4640514 -0.15058614 0.12671198 -0.88126725 0.71665895 0.8528844 0.30436972 -0.7476969 -0.25358897 -0.19384165
인가 -1.6100521 -1.6125557 0.988712 -0.97569877 -0.026819222 -0.11685446 -0.35040906 0.77551305 -0.6027757 -0.7994165 0.9684333 0.1302682 -0.28087083 -2.0289476 0.63301295 -0.46744645
노 1.3593426 -1.7009186 -0.2519388 0.10110371 2.2858868 1.4350903 -1.9151815 1.302576 0.70568615 0.9856858 0.92340535 0.54632777 0.44079682 -1.8383065 1.5065912 2.157087
용 -0.5011383 -1.2262836 0.5209085 -0.08416514 1.4033734 1.0137048 -0.89891857 -0.4418563 -0.1709137 -2.28475 -0.72621155 1.5324144 1.1193558 -1.1751935 -1.1834743 0.99603355
을까 -1.2550012 -0.48239738 -1.0621825 0.76032317 0.016514014 -0.103643805 -0.96785665 -0.5308198 0.22699179 -0.39620954 -0.5639498 0.34382987 -0.7373808 0.48416832 -1.1006197 -0.6952475
화 -0.036081128 -0.44970247 -0.4526864 -0.61004406 0.67794955 -1.0657209 -0.65439653 1.8531088 -0.07990466 -0.525043 0.47698787 1.1698903 0.8776493 -0.1808403 1.5068723 2.0373163
코미디 -0.2936314 0.19005659 0.51048046 -0.117935106 -1.1861026 -0.070295766 -0.8814149 0.41697967 2.3013513 0.086829364 0.57294804 0.3362183 -0.7398473 0.23758271 0.63006544 0.041090358
여 1.2876264 1.629984 0.92359036 -1.5113041 -0.64901453 -1.2419599 0.60910004 -0.04028546 -0.5293625 -0.24513486 -0.5077305 -0.93467134 -0.9767462 1.0534948 -0.3246115 -0.33659658
마 1.278811 -0.35997126 0.4938772 -0.2948269 0.47593868 -0.6311775 0.26225248 -1.3693606 -0.37992892 -1.040137 -0.7928688 -1.2516278 -2.446401 -0.8140277 -0.037305765 -0.2747824
쓰 0.9595202 -0.49931392 1.2414758 1.6426952 -2.1097507 -0.259816 -0.89221406 -0.6197728 -0.26078406 -0.7375552 0.16226098 -0.8853322 -1.3745215 0.26563025 -0.061785173 0.73118967
모든 -0.11550158 0.420274 -0.46579033 -0.28102508 1.2953019 0.2996312 1.372082 0.36211547 0.45266926 0.3694939 -1.3834935 0.64930624 1.092777 -0.280702 -0.4953985 0.7220867
신 -1.0644299 -0.8548177 0.83661544 -0.31028777 -0.973172 1.4200917 1.3745762 -0.31046185 0.48929775 -1.6029512 -2.0812283 -1.4297966 0.16124533 0.057384275 0.10339758 -2.0206807
5 -2.2045918 0.9457443 1.6767465 -2.62712 -0.5303238 2.0940433 1.3763592 -0.008495775 -0.5365275 0.1099584 -1.6193007 0.48025957 -0.982765 0.45596072 1.3512932 -1.8291413
아직 0.8020431 0.27754712 -0.109064534 -1.3518044 0.906773 -0.3724847 0.37197867 -0.5561805 -2.1046548 0.94623107 0.46049568 -0.291904 0.41593808 1.5457313 1.3361735 0.8463436
처럼 0.9955299 0.19260749 0.3363082 -0.013974055 0.8772758 -0.9924051 0.7390487 -1.3855535 -0.68066305 -1.0913233 1.5515065 -0.39662802 -0.5627592 -2.6140747 0.98814917 -1.341584
눈 -1.5245292 0.39233878 0.5741454 0.34403366 -0.13285275 -0.20294762 -0.75766784 -0.51771957 -0.8114247 0.023733499 0.224879 0.69292176 -0.7399645 1.1722738 -0.60756725 -0.67140836
추천 -0.0037111288 0.61500037 -0.46570954 -1.491247 -0.30783242 1.804169 -0.63082063 -0.8375416 -0.9499661 0.45556334 -0.8992787 -0.9574876 0.38895208 -0.19753993 0.9079523 -0.57233703
아닌 0.56856453 2.7469175 -1.3422174 0.309614 0.2993172 -0.725822 1.4984977 -0.47644 0.17884505 0.43172377 -0.2606299 -1.7144328 0.07404069 0.50585574 1.4551779 -0.6498777
울 -0.37618142 1.4221927 0.43290195 -1.4739149 0.8941271 -0.97255224 0.63196146 -0.06349736 0.5607707 0.87152785 -1.1680895 0.26906613 -1.0468619 -0.37785047 -0.98221684 -0.7759646
자체 -0.5299344 -1.7917198 -0.7797609 0.74042606 -1.7043471 0.18617405 -0.8107807 -1.2184048 0.06434101 1.8779222 0.23955451 -0.5502933 0.3431309 -0.5246416 0.5053586 1.0439105
몰입 0.60882235 -0.71164906 -0.07877367 -1.2632405 -0.6981825 0.45852056 0.76594853 -0.03742294 -0.6206635 1.4433746 -0.36842713 -1.0133492 0.4374438 0.43553865 -0.4195797 -0.27649403
4 0.25861007 -0.3784182 -0.77015334 -2.128002 -0.13359635 0.19255829 -0.769581 -0.2207059 -0.092806615 1.0292785 -0.4501873 1.0565834 0.7460562 -1.1833606 1.1183256 1.2961569
대박 -0.23706156 -1.0921245 -2.094829 -0.41184938 0.4433241 0.70255363 -0.68818235 -0.613234 -0.6392777 0.58945155 -0.005977053 1.2146106 2.3075051 -0.9478778 -1.2714069 -0.29507515
몇 -0.76033545 0.48306787 0.3837077 -0.77084535 0.33734807 -0.5803198 1.6665292 0.2311554 -0.3761068 1.3129377 0.28504902 -0.906082 -0.08249062 -0.57311124 0.3740242 0.22475529
스럽 -0.5709044 0.63527054 -0.51513374 0.5890983 -0.32287192 0.50839806 -0.32550508 0.462946 -0.44926167 0.418059 2.06847 -0.8852324 -1.189481 -0.20239203 -0.022344721 -1.9075321
실망 -1.2292929 -0.40879726 1.1809279 1.0191075 1.1122508 0.03223828 0.35337687 -2.0333471 0.20710209 1.7428322 1.3234638 1.8067945 -0.97011316 -1.9064473 2.0226307 -0.2554699
는다 -0.049120035 0.015685437 1.0707623 -0.5252254 0.34933487 -0.26201335 1.6367084 -1.8170125 0.22653453 -0.049405158 -0.5584656 -0.34416372 -0.38275334 0.1285916 1.0220785 0.34078947
대한 1.5705146 -0.21091364 -0.022594137 0.3483145 -0.8135944 0.19933838 -1.82032 0.016907824 0.47602022 1.149055 0.12920125 -0.878312 1.3938135 -1.385396 1.3930011 -0.8022937
죠 -1.687911 1.2994434 0.9219804 -0.18773195 -1.0668668 0.47383702 0.19560911 0.46119145 -0.07443945 1.2447314 0.039089356 -2.200885 -0.033635017 -1.1843641 -0.16686574 1.7168477
란 -1.1163043 0.59050524 -2.2755492 0.8786877 -1.6775306 -0.59803045 -0.73711795 0.60631907 0.51605576 2.0270567 0.004594233 -1.6800252 -0.087171935 -0.32470748 1.1793718 0.2918296
그런 0.3350771 0.12793425 0.55167234 1.6463481 -0.44010457 -0.5565755 0.043557443 1.0693163 0.79068965 -0.07605498 0.44141343 2.0585866 0.2696235 1.2379148 -1.3227907 -0.10947571
솔직히 -1.7623053 1.9271647 0.18003604 1.3773147 0.14541368 -1.2682768 -1.0062752 0.67731285 0.12728606 -0.00065092056 -0.8202323 -1.5449473 0.9479278 0.4305966 1.6791067 1.6303937
캐릭터 1.3270282 1.6476597 0.7148762 -0.22878635 -0.24944456 -1.4996778 0.44111452 0.48270306 2.142586 0.95287794 0.11738135 0.8489046 2.1382086 0.38996482 -0.15748599 1.0411353
ㅎ -1.8783765 0.15046033 -0.63487285 -0.8898875 0.20515838 -0.2006895 2.1478722 -0.60777676 -0.70272297 1.0116731 1.4008987 0.4103782 -1.0323143 -0.3724658 -0.37027007 -0.20724432
모두 -1.9858285 0.6508511 -1.376042 -0.39712447 -0.72755754 0.2826096 0.061901122 0.5351283 1.3452865 0.18828583 0.8034218 0.8595865 2.970945 -0.48212835 0.6415771 -1.3817158
아주 -0.013379339 0.5176041 0.32949418 -0.81132394 -1.2014536 -1.4632835 -0.008322863 0.22410057 -0.47783265 1.3659289 2.0771987 0.46059135 0.5709156 1.0842577 0.12233282 -1.6232178
- 0.35830298 -0.8441367 -0.9753094 -0.052920323 -1.4377987 -1.6510555 -0.23183908 0.099493295 -0.09236296 1.6939722 -0.9036229 -1.16391 -1.4097835 -0.21255523 0.14072894 0.69615304
가족 0.70589286 -0.16766928 0.31901246 0.76916 0.2568962 -0.8438617 0.99078685 1.4847876 0.22281985 0.6001871 0.5899115 -0.009755451 -0.49385592 -0.09814567 -1.2266004 -1.6333615
여운 -0.8284184 0.38194513 -0.5349889 -1.7065047 0.7453332 -0.5921887 0.02575681 0.096677616 0.40793797 0.7474158 -0.6539415 -0.16581348 1.1536032 0.37160555 -0.15377705 -0.37850413
건지 -0.23785584 0.43962508 1.5575107 -2.090199 -0.48154852 -0.18452366 -0.92604446 1.7641647 -0.16912782 -0.7246501 0.23327631 0.78513926 -0.030697992 -2.711163 1.587544 1.2953267
전혀 0.7446686 0.32211858 0.6527547 0.39771026 -1.0565627 0.13847148 0.70629376 -0.943205 0.3417154 -1.4522811 0.565001 0.29181352 -0.85404265 0.33474153 0.68628234 -0.89089084
나라 -0.117605515 -0.7716241 -0.22754112 -0.49477977 -0.72620183 -0.26172778 -1.7731904 0.2780062 -0.46526307 -0.38392588 -0.8437597 0.34533778 0.2832118 -2.190404 -0.7637897 -0.6244349
연기력 0.08910215 1.0329065 -0.3272542 1.2928491 -0.56649536 1.1816221 0.9247331 -2.3125536 -1.3610032 1.1827167 -0.33413333 0.06437798 -1.4160112 1.2709417 -0.21860936 -1.7320253
후 0.7304645 0.8195789 -0.39029133 1.0323421 0.018491881 -2.5667698 -1.4080387 -0.17737846 -0.9193602 -0.2113873 0.42152116 -0.19950277 0.4169825 -0.4449217 1.2901908 -1.7374146
다면 -0.73966867 0.21551529 -0.096683115 -0.3283432 1.3352497 1.460683 2.1515095 -0.5124746 1.9963996 -1.6787367 -0.07431439 -2.012726 0.14023912 0.23704359 0.08166481 2.2378085
될 0.2341588 -0.74954015 -1.6041408 -0.02953779 -1.0996075 -1.114647 0.074467234 0.120139524 -0.52045137 0.07692749 -0.79401267 -0.2125245 -0.6805437 0.16912742 0.6048639 0.4391601
뭔가 -1.1752497 1.7726375 0.89043254 1.266149 0.40462413 -0.53731984 -0.46729967 0.44297177 1.3696626 -0.1527613 -1.1129088 0.5182522 -0.28415027 -0.44711822 -0.94469154 0.9756956
그래도 0.9734988 -1.0852811 0.21226765 -0.55551505 1.5380201 1.3997072 0.46387672 -0.2396295 -1.599618 0.64753115 1.0641733 0.33752653 1.2239238 0.20082933 0.10194 -0.25447747
; -0.22074945 0.35656157 -0.2817225 -0.1976845 1.1814897 -0.9246892 0.7552338 -1.4862322 -1.5333952 -0.5451008 -0.39679423 -0.18305987 -1.2301377 -0.91153437 0.67481834 1.6487285
시리즈 -0.24667116 -0.44788435 0.57040477 -1.3102287 0.04893355 -0.7269043 1.2187914 0.75752264 0.56171113 -0.8507968 -0.1611245 -0.5442416 -0.4638817 0.3818537 1.2874519 0.63504624
근데 -0.70520204 -0.9471505 -0.36562628 -0.5577323 -0.83627033 1.2603686 -1.0224752 -0.66151494 2.2179718 1.6680772 -1.8583182 -0.09195398 1.0350127 1.2250092 -0.4574847 0.36472937
작 2.1354885 0.15811205 0.07844343 -0.25995517 1.2069166 -0.9015171 0.56143147 1.3874587 -0.3274423 -0.36858612 -0.42714095 1.2908078 -0.9365409 0.124114595 -0.7719827 0.23151086
표현 -0.47375587 -2.2549794 -1.5845841 -1.2060871 -0.1937017 -1.2166591 0.6619616 -0.45149618 -1.286886 -0.797111 -2.2474318 1.0075547 -1.178386 -0.572368 1.6484295 1.0544308
모습 1.4463974 0.048016213 0.09057165 0.5080921 -0.1584619 0.7162319 0.058715057 -0.15605502 0.033184014 1.1272501 -1.5190943 1.0107697 -0.4309328 0.7932271 -0.16537847 -2.0810359
제 -0.5297012 0.9200655 -0.18110295 -0.6267502 0.82991093 -2.952996 0.6454747 0.55476177 -0.06434933 -0.55607384 -0.975238 0.21579376 -0.9497622 0.52547437 1.1990272 -0.15764269
공감 0.34151793 -1.2478118 0.011275282 -0.5196477 -0.888497 -0.9845906 -0.73966074 -1.293209 -0.56405556 0.8460129 0.38534492 -1.1624476 -0.09161806 0.107267626 -0.76745355 -0.34196517
밖에 0.46342015 1.6306839 0.358897 0.77338904 -1.202568 0.7300618 -0.6703997 0.45207262 0.9968802 1.0733795 -0.48956653 0.43867847 -0.5981774 -0.079592295 -0.80514544 0.39216077
먹 -1.243793 0.3146844 -1.1722574 -0.55240315 -0.4046743 -1.0467614 -0.0114955995 -0.39792195 -0.25258458 -0.39441264 2.0111253 -0.46054262 0.549062 0.117722385 0.71054846 0.48138782
계속 -0.52290154 0.5601283 1.1924546 -2.0589519 0.43854997 0.36473525 -1.5858248 2.4502864 0.016357323 -0.20665431 -1.0563067 -0.9041159 -0.5588877 0.22290729 0.65362847 0.6062466
이랑 -0.28185457 -1.8468382 -0.19148058 -0.35790238 -0.45917332 0.777154 -0.21075417 -0.12779221 0.4842572 -0.56505364 1.3690705 -0.52355164 0.19776984 0.35841843 -0.074920595 1.0865837
제목 0.11434216 0.44310057 -1.5044948 1.6053759 -1.3181114 -0.8517368 -1.4255425 1.0711287 -1.3945779 -0.5042592 -0.26268336 -0.5002967 0.8248296 -1.3999673 0.35573727 0.27694377
"" -0.8363786 0.51557225 -0.7316345 1.5626681 -0.5024147 -1.0664916 0.30442291 0.102701746 0.42289865 0.7381807 0.4264237 -1.6251693 1.5996218 -0.80695593 0.43015972 2.6222382
7 -1.4554085 0.28082937 1.0910462 0.61510515 1.549436 1.4067004 -0.6621419 -0.7746933 -0.59383726 0.9553288 -1.6102881 0.47383127 0.6316584 -0.24997166 -1.4082464 -0.46248636
극장 1.1032856 0.46798125 -0.0228307 -1.6217588 -0.34829575 -1.1568519 -0.24612394 -0.6878957 0.5423506 -0.8983962 -0.62549245 0.034808658 0.0839061 -0.38124967 -1.2371715 -0.1271361
비 -1.331358 -0.5452339 -1.6050177 2.4921353 -0.87491024 -1.5262241 0.6857069 -0.011510932 0.029894367 -0.93661416 -0.38337114 0.4409795 -1.6263672 -0.06946924 -0.69433534 -1.2277887
진 0.7881122 0.18724087 0.19761829 -0.34486943 -0.5280688 -0.6204251 -0.24022153 1.7150087 0.9214057 -0.43163383 -1.9688039 0.46328193 -0.759817 2.6242309 -0.2342793 0.39043364
이걸 0.85513884 0.05276987 -0.30504367 -0.45218828 0.274764 -1.5176101 -0.1559618 -0.31801593 -0.15279582 0.37204573 0.06491411 0.97160155 -0.49642897 -0.2508629 0.582439 0.93833476
바 -0.081725374 -0.9498399 0.08202701 -0.15172096 1.2274922 -1.2792538 -0.076272406 0.85067326 1.7007841 -0.23926517 0.47758183 0.49321264 -1.3478483 0.5891184 0.06421439 1.5377781
그렇 1.441698 0.5121262 -2.2075152 -0.62257785 -0.25200805 -0.1736941 -0.1081637 -0.20270225 1.7715055 0.6449559 -0.4643955 1.5445799 -0.50989085 0.20385583 1.4024754 -0.3228608
대사 -0.037580904 0.98049694 0.96024626 -1.3146898 -0.92174166 0.492151 0.27875617 -0.8543527 -0.30819133 -0.3126959 0.25178093 -0.59399736 -0.3183431 -0.76319414 0.50452477 -1.3706331
개봉 0.20984651 1.552642 0.40460995 0.23693518 0.8290181 1.3701409 -0.09578449 -0.3966327 -1.8597088 -0.6328063 0.77717656 0.06648027 -0.20992354 0.30202866 0.3648435 1.324488
부분 0.8567688 0.31376192 -0.1859802 1.2590462 -0.75095457 -0.4360197 2.1229846 0.46535286 0.07535934 -0.6244044 0.69892913 -0.32180133 0.2008747 -0.16541825 0.19358198 1.4478375
0 -1.483838 1.1243119 0.26665363 0.14868549 -0.8712931 -0.48284996 -1.4437854 -0.35966754 0.02426072 -1.0216659 0.16850936 1.0593108 1.5434006 1.5284708 1.3128339 0.37602437
OO -0.5157183 0.3730487 -0.08566639 -0.030193957 -0.064580105 -1.1128159 0.46857047 -1.576934 0.008305037 -0.64292705 0.23426585 -0.550327 -0.0461752 -1.1345434 0.008398537 1.3361824
대단 0.4909576 1.9095173 0.29027098 -0.8360572 1.6369044 1.7054793 -0.07194241 0.12798697 -0.6719717 0.8109426 -1.6253787 -0.23293997 0.044677317 0.37210962 0.4542728 1.6261528
된다 0.31989577 -0.77128035 1.4967879 -1.2447034 -0.30845058 -0.97647077 -0.93914044 0.29481825 1.3432876 0.5816836 0.27867317 0.9836279 -0.05416601 1.0691223 -0.5400088 -1.170518
작가 0.06850594 0.8021332 0.1965406 1.8013879 0.8745313 0.37222332 -0.14378895 -0.03248492 -0.2033587 -1.1213942 0.087872386 -0.06270785 0.6718654 0.16042067 0.5882122 0.8020919
어디 -0.89794195 0.34876484 -0.5309044 -0.15535097 -0.28499234 -1.8339571 0.5188288 1.2522491 1.0167671 -0.6870298 0.22029595 -0.49655247 -0.9905557 -0.5187902 -0.710003 -0.8182245
기분 -0.7807411 -1.3399887 0.552201 0.26486835 -0.28175896 -1.0105181 0.5248441 0.18927422 -0.74710506 1.0967326 -0.07169039 0.5098468 0.7072824 -0.956115 1.4351665 -0.03758442
아쉽 -1.163579 -0.4382313 -1.5544995 -0.051410757 -1.7139527 1.0771946 -0.19492885 0.3671413 -0.20663394 -0.12556578 -0.54723555 -1.6140916 1.0777946 1.3799483 -0.04316689 1.8406545
치 1.3112047 -0.51065505 -0.20638755 -0.4648922 1.3899585 -1.5582216 0.21684182 -0.70940334 0.587565 -0.265743 0.79629254 0.004817057 0.7712967 1.0619264 1.4352704 -0.89643884
진심 -2.9667282 -1.8007833 0.5338686 -0.6375814 -0.7535449 -0.5889808 0.29165602 -0.3831451 -0.38969964 -0.2228293 -0.84331155 -1.1201049 -0.4720446 -0.8085034 1.6844677 -1.2102355
해도 -1.8294911 -0.7248976 0.23203968 -1.3148913 0.07517762 0.6881244 1.815675 0.05971932 0.4123222 1.0165621 -0.5888654 -0.14941646 0.62475586 -0.15437321 0.5659578 -0.2225956
보이 0.5443704 -0.46915412 0.003697799 0.3103069 -1.0153283 1.2057422 -0.17878652 0.85241896 -0.24789344 -1.1665783 0.80160254 -0.4032605 0.26313758 -0.5163864 -0.1090488 -0.46242377
타임 -0.09491306 0.4056157 -0.116797455 -1.2677921 0.6667388 0.5029463 0.52964133 -0.6768955 -1.2870712 0.43076065 0.26206434 0.36222875 -0.32126832 -0.9206908 1.3343537 0.684212
놓 1.0135754 0.22406906 -2.3932433 1.5802274 -0.5594722 -0.82439554 0.5929258 0.39520794 -0.57739663 -0.27629146 0.15016276 0.54930943 0.7466635 0.23097563 2.0736232 -0.57420945
/ -1.4731703 0.607837 -1.6638798 1.2361019 0.06164685 1.2757581 0.6627951 -1.0888162 -0.24538106 -0.12307362 -0.09548839 0.40023273 -1.018953 0.14517315 0.67600876 -0.38724676
웃기 0.27836573 -1.4508513 -0.21077487 0.13404414 1.851085 -1.7803227 -0.22878267 0.38418007 0.27020246 1.3412243 0.65533847 1.0942589 1.5256515 -1.6394964 -0.9706254 0.9597966
봐야 -0.017213292 0.09010483 -1.9883555 -1.147489 0.80541265 -0.20271063 -1.264055 1.0848829 0.5760948 0.3881525 -0.13385735 -0.2131154 -1.2353334 -1.0771899 0.32880422 -1.910005
이제 -0.1257794 -1.1589284 0.5747223 1.5147398 -0.24039151 0.83793306 1.3558215 -0.5556473 0.2885914 -0.8443838 1.3058014 -0.975287 -0.8749072 -0.34714395 -0.84448117 0.31324717
물 1.5043384 -1.6560907 -0.022835512 -0.9763165 0.5713706 -0.64274967 -0.71123224 -0.09814611 -0.1432508 -0.3390299 0.08103781 0.59776723 -1.8974917 -0.91317064 -0.8653613 -0.16106135
막장 -0.40547207 1.0357436 -2.2115738 -0.84223634 -0.12913977 -0.6317786 0.72382593 -1.8145881 0.23426683 -1.5438203 -1.1682098 1.2474018 -2.115666 -0.4720391 0.8132077 -0.4221723
삶 -2.7075663 -0.038135003 0.7796395 -1.9657533 0.78544396 0.3968105 1.0378975 0.98130965 -1.6478028 0.43522954 -0.5934271 0.13024393 0.20037428 1.2787882 0.13372429 1.3961487
친구 0.1417306 -1.2800972 1.0938991 -0.6706805 2.0403736 -0.702794 -0.30242014 0.30494386 0.11317411 0.20195866 0.2908925 -0.22756179 1.467073 0.76322794 0.55810165 1.6863744
잔잔 0.23957974 0.532472 0.32248652 -1.4142098 0.26863453 -1.1449525 1.7458571 0.91984195 0.13277994 0.30814704 -0.89076436 -1.2502365 -0.5144622 0.6529529 0.06260792 -0.34023505
조금 -2.266422 -1.8263805 -0.2159134 -0.7558585 0.8371199 -0.48557365 -0.057986785 -0.032755807 0.6849662 1.6403319 -0.30238438 -0.3286968 0.26882538 0.61269087 0.113077834 1.1782402
씬 -0.31641188 -0.31770626 2.3300586 -2.6831129 -1.4272174 -0.19629726 -0.9285085 -1.0883427 -0.7542372 0.8004295 0.7814745 -0.5511698 -1.0060257 -0.11671596 -0.4244132 -0.8104311
딱 -0.11890657 -2.0740418 -0.48533288 0.10841188 -0.82603073 -0.4165263 0.5673319 -0.42970985 1.0122519 0.6701024 0.07746174 -0.15197137 -0.75545204 -1.8725225 0.34965476 -1.7478801
영상 -0.9245208 1.6390774 1.6930891 0.87569124 0.51052 -0.20019975 0.5847357 0.9421487 0.95787597 1.5160916 -0.70795935 -0.8625523 0.3466639 -0.6716318 0.5438375 0.36492103
찾 -1.3233399 0.6832418 0.47281396 0.98450774 -0.6851778 1.2072998 1.3164091 2.1712313 -0.061147638 0.30084285 2.013737 0.24078873 2.4217274 0.0146727115 1.247563 -1.0067526
억지 0.9833755 -0.39712247 0.6686922 1.0094837 0.5712119 -1.2147151 0.25910896 -0.41132724 0.5480725 -0.4680933 1.0441694 0.35205138 -0.29642117 -0.4952416 0.45931432 2.543137
중간 1.1196922 -0.09192312 0.1275732 -0.54227656 -0.40529174 -0.7935087 -1.5590243 0.32585272 0.33230507 0.92891 -0.32937995 1.4547231 -0.44575498 -0.8908216 -0.25214303 0.2692688
요즘 0.34110096 0.8874475 -0.2235184 -0.69220436 0.4349909 0.5798312 -0.8037724 0.9371208 -0.34553888 -0.0056983423 -1.087816 -0.11639222 2.1323605 0.2629734 1.371935 -1.1006999
같이 -0.33177143 -3.039174 1.0870954 -1.100898 -0.3385397 1.2431002 1.0989238 0.5989609 -0.2299244 0.50047475 0.17051156 -0.1631503 -0.63230485 -0.6731952 -0.2662528 -1.1199299
구 -0.07086792 1.8622489 0.27542248 0.34798962 0.06781613 2.2198052 0.7820037 -1.2277995 -0.6149914 -0.13297977 0.93838346 1.4461014 0.24187575 0.5700784 -0.1848959 -0.1036164
" 1.3608772 0.41780126 -1.7496302 -2.5291214 1.1789185 -1.0144832 0.6594087 -1.3639673 -0.9268723 -1.5663613 1.1044902 0.5428409 1.685139 2.0034547 -2.1344037 -0.59773594
가지 1.4059745 0.2940283 -0.18028231 -0.52449566 0.06876491 -0.3128045 -1.0699247 0.67678165 -0.3808795 -0.27009 0.51983064 0.9736478 1.8905249 1.1062891 -0.4364893 -0.33133936
스릴러 -0.5453265 0.3991583 0.9312793 -0.14031792 1.2122465 0.056367777 -0.9913805 -0.1853889 -0.17067406 -0.48978186 1.6584193 -0.87483907 -0.57675284 1.6107513 -0.9860058 -0.28752097
8 0.5036682 1.7417892 0.3807314 -0.2948675 -0.47357067 0.9352213 0.18164751 -2.2688208 0.25140166 -0.1641398 -1.0674633 -0.85566723 -2.2067387 -0.8189475 -1.8734392 1.3585387
믿 -0.19295853 0.47620425 1.8630702 0.22295216 -0.49274266 0.4312306 -0.045690063 0.8850392 -0.14115267 0.7404292 -1.3894681 0.35464057 -0.7244859 0.06985854 0.73117024 -0.0011668219
싫 0.6452208 0.17083341 0.34206375 0.39795887 -1.0178452 -1.730479 1.3103311 -1.4857702 0.49058694 -1.2718228 0.78490114 -0.6497327 -0.052539047 -1.1779592 -0.06534457 0.6848427
.... -0.37702045 0.8319929 0.86402637 -0.8300638 -1.1857195 -1.877858 -1.2987587 -0.77205 -0.99427176 0.8438233 0.16882709 -0.5414139 -0.6623724 0.48788512 -0.5536339 -0.5595798
보고 -0.49556425 -0.4723914 0.61458635 -0.42997217 0.8821881 -0.33126998 0.035752144 -0.5392886 -0.3079117 1.8059357 2.0526621 0.5674768 -0.55440265 -0.008975226 -1.8123109 0.09544329
라도 -0.69072586 -1.1633829 -0.21392043 -0.09167915 -0.3992585 1.1456279 -0.7391997 -0.1272161 -1.510922 -0.98096 0.37956756 0.2985827 0.02573858 -0.54760325 0.13709292 -0.5063738
나왔 0.91636896 -1.3431643 0.54467916 0.32259336 1.2727525 -0.3149779 -1.5492669 -0.575245 0.7164418 0.90769935 -0.8480503 -0.5705384 -0.8836714 1.939564 1.0391561 0.051600374
아까운 -1.044409 0.79796636 -2.0231907 -1.0475258 -0.68342584 -1.1950127 -0.5393785 2.3131921 1.4667417 -1.2525879 -2.1513174 -2.0339618 -0.73039395 1.0772998 -0.8282943 0.12097211
긴장감 2.017434 -1.2570465 -0.30329457 -2.2298598 -1.7924513 -0.96018153 1.2127746 0.052754644 0.0600063 1.3766125 0.27280584 -1.2869397 -0.6546684 1.171324 0.16429995 -0.5723422
점수 1.5106926 0.3670219 -0.3694061 -0.57199097 0.93682724 0.47755498 -0.63325286 -0.60924447 -1.650701 -1.4733961 -0.35619628 0.32767606 -1.5253519 -0.05301911 0.40389428 -1.2604895
개인 -0.9032984 0.8618316 1.0995197 1.4540753 -1.1591933 -0.11564239 1.2260216 0.16642164 0.49619198 1.1710722 -0.62566483 -0.2771737 0.5585973 0.09468585 0.03520409 -0.6956674
제대로 0.774103 1.1422348 1.1070296 0.9307945 -0.8899123 -0.92732114 -1.1069465 2.2271514 0.21269456 1.9756243 -0.4351496 1.1392621 -0.62304986 0.118817106 -0.51831406 -0.7978723
부족 0.6372595 -1.5561606 0.14320491 -0.36266187 -0.32324728 -0.8249889 -0.637635 -1.0890481 2.4264886 -0.7303618 -1.0016825 0.55283004 -0.8986999 0.01720196 1.2595425 1.178816
이유 -1.8777729 0.07221109 0.5044385 -0.39951506 0.011344503 0.30836296 -1.1204271 1.2163327 0.31780708 -0.023991305 1.0852997 0.5343605 0.4282746 -0.73156613 -0.58556813 -1.0032284
노래 0.69667864 -0.6243156 0.25460047 0.7187673 0.7984498 -0.7953483 -0.6653182 0.039131936 -0.87430024 -0.97682476 0.36071804 1.1479234 -1.3220346 -0.5568599 0.42720795 -1.5388122
만큼 -2.4453447 0.4077285 -0.5639914 0.22282048 -0.21551526 -1.0732096 -0.25053126 -0.12028136 1.0406798 0.25035098 -2.379588 -0.9014474 -1.8214235 -0.8606698 2.3677778 -0.49566054
라면 -0.72827274 -1.6597877 -0.6322386 -1.6321489 -1.2214099 -0.45554966 0.8247377 -2.0451133 -1.0546805 1.6606605 -1.0773177 0.5189489 -1.5424641 -0.86530185 -0.4522362 1.4629045
시작 0.4354861 -0.811646 -0.21404636 0.33680624 -0.17828049 -0.091260344 0.9772606 -1.4625741 -0.17568673 0.3680161 -0.318212 -0.30633572 -0.28931016 -0.7399727 -0.08784182 -0.055213902
잇 1.4806339 -2.0681376 -0.3736695 -2.2572389 -0.1328117 0.589713 0.37084374 -1.0898039 0.5460067 0.6699749 0.85863954 0.11013254 -1.0206927 0.9515567 -0.57905746 1.0088693
구나 1.6768868 -0.80795354 0.6297448 0.35010153 -0.43558753 -0.016548948 -0.12538645 0.3340247 -0.8025303 -0.76728785 1.1473541 -0.38985312 0.3052087 -0.5171601 0.30911836 0.71300286
특히 0.17049243 -1.2572529 0.37852585 -0.44759 1.2104808 -0.09171503 0.18879895 -0.9505598 1.6018717 0.58778906 0.4906699 -0.49343306 0.3719863 1.4995439 -0.38419688 0.06905426
한테 1.3393831 0.8590648 2.1184697 -1.6196647 0.0070797363 0.01793903 -0.11040127 -0.1859789 1.7272999 -1.0830196 0.49397424 -0.03915055 0.27088702 -1.8214003 -0.3425035 0.356781
날 -0.9733766 -0.2764193 -0.59627837 0.065483235 1.5039402 -0.73570955 -0.106002115 0.3619897 -0.55928415 0.05374613 1.1374774 1.025932 0.018165138 0.12370035 -0.17816947 0.38007423
려고 -2.7037702 1.4109674 0.27195165 0.94794995 -0.73647064 -1.7997391 0.5203 -0.74272823 0.80316114 -0.3536267 0.8668449 0.752853 1.8969646 -0.1273256 0.49263212 1.4024899
제일 1.43551 -0.47332066 1.2471331 1.281732 -0.5769159 1.1649973 1.6296597 1.061552 0.14451928 -1.9666829 -1.4331925 -0.5539212 -0.36034495 -1.666715 -0.2688064 -0.33598733
아름다운 -0.122358754 0.96157 0.1562514 -1.1386914 -0.039539758 -0.7678714 -1.1615554 0.053857535 -1.3592979 1.5337512 -0.6602048 0.41787276 0.7851431 1.4447485 -0.39114362 -1.3105845
시대 -0.682759 0.430492 -1.4075257 0.14539282 0.26940224 0.5901236 0.30000943 -0.48425144 0.9114703 0.14775658 1.1208298 -0.7444364 0.18059027 0.7698146 1.0221723 -0.5251678
ㅜㅜ 0.0632271 -0.5782496 0.93725044 0.51683384 2.3503442 1.911724 -0.5008986 0.9916058 -0.039994996 -0.81488603 -0.2495764 -1.2337945 0.6824021 0.99362814 0.4380173 1.0229896
어떻게 -1.2170228 -0.58390194 1.1580461 1.2318457 0.1040283 0.37140968 -1.160425 0.09989692 -0.6504252 -2.1555777 -0.4333448 1.602846 1.6721311 -0.85915 0.102197036 -0.788998
명 -0.59016055 0.16044492 0.98462445 1.2425455 -1.2502337 -1.9962535 -0.06922736 0.5068719 -0.35174474 -0.55606604 -1.1154507 0.178262 -1.2750145 1.1978879 -0.83805585 -1.197269
당시 0.305393 -1.8382965 1.1505976 0.31640574 -0.21972485 -1.0880995 0.2855863 2.1201363 -0.22233167 -0.39418304 -0.5320096 -0.27343965 -1.096272 -0.8973574 -1.0927738 -0.37424257
엔딩 -1.3471519 0.07196591 -0.6297245 0.1357222 -1.6349254 1.0375082 -0.545715 1.5589215 -0.40276724 0.30840614 1.2775201 0.46928436 0.40563026 0.53565884 -0.05273956 -0.6823168
나름 -0.884053 0.65165854 0.8362849 -0.18577138 -0.11100761 -0.2230801 0.9438305 0.47088102 -0.72584975 0.021781806 -0.5793117 0.92442566 -0.095641 0.22141099 -0.5751409 -0.77651346
무섭 0.43505943 0.70276254 1.0753361 -1.0965722 0.8301379 0.40069357 -0.6834257 1.5882583 1.0899415 0.58031994 1.5681944 -0.8594213 0.47003567 0.50123024 0.46470836 0.9441827
나온 -0.16735509 -1.2661632 2.8695834 -0.64659446 1.6199354 0.93109465 -0.6241567 0.17580172 -0.19839157 -1.2326962 -0.24264875 -0.15571974 0.66116035 0.37917602 0.60135037 0.34786272
사 0.627902 0.62488997 0.0045876466 0.17700322 0.17161451 -0.15700695 1.1266975 -0.25542203 -0.7409726 0.71996605 -0.49790233 -1.028059 0.05451179 0.15596673 0.24065761 -0.08455061
오랜만 -0.9913918 1.4695516 -1.3632172 -0.31222227 0.44030327 -1.9301249 0.86582106 -0.1644236 -0.20222701 -0.45174593 -0.50803477 -0.060823712 0.24931738 -0.55245346 -2.4310775 0.28742698
니까 -0.69035184 -1.9883239 0.51138836 -0.3863816 -0.4998103 -0.24102826 -0.37877688 1.7134356 1.1462123 0.16917638 -0.93251306 0.7762109 1.6973588 -0.11270871 -0.92850864 1.0071892
해요 -0.19712196 -0.43516907 -0.8138536 0.18643191 -0.07762677 0.57686585 0.8577518 0.74355084 0.76699096 -0.057099376 0.34931102 0.33652148 0.8802857 0.49834937 -0.9769125 0.99053144
9 -0.41053152 -2.0465906 -0.8138352 -0.6972386 -0.8257874 -1.2397249 -0.17845476 0.9243653 -1.7989646 -1.8828026 -0.14311859 -0.9510361 0.49704581 0.025107093 -0.6982577 -0.5808621
이것 0.707473 1.2651495 -1.1712688 -0.118612476 0.34915522 0.17182052 -0.5711672 0.13203749 -0.75039995 -0.6031384 -1.2338493 -1.5913763 0.0139828725 0.85388863 0.685757 -2.2393208
팬 0.38197732 1.4331686 -0.16547021 -0.4676895 0.98263663 -0.8253389 0.41154835 -0.87472576 0.87331414 0.28119802 -0.96031976 0.880945 -0.6890712 -0.6533223 -0.79912496 -0.06813807
차라리 1.1140163 0.4968278 0.14720498 1.1935091 2.2043917 -1.1871915 -1.4127095 -1.475338 1.4086834 -0.28995383 1.4082078 0.028987424 -1.9806544 1.2265247 -0.31563997 -0.41273752
봐 -0.82881236 0.070989676 0.65939116 1.336761 0.08510639 -1.1048719 0.95605594 -1.3639395 0.63780075 0.818105 -0.24525577 -0.5414152 -0.34122285 0.026653616 -0.6678432 -0.18751574
절대 -0.79825866 -0.4310246 -1.365164 -0.26933047 -1.4644296 -1.0309571 0.24784677 0.24443166 -0.6916632 0.99146825 0.76015806 0.32995835 -0.6613659 0.5861946 -0.7501863 0.7863603
세상 0.1350496 0.07453407 -0.07801552 -1.0051966 -0.859434 -1.1941432 -0.6596028 -0.37538794 -0.8159951 0.24077831 -1.2314104 -1.1166513 -0.75539666 -0.45340863 -0.7660864 -0.53467536
세 -1.3172917 0.84018683 1.0810198 -1.254879 -1.004036 -1.1089615 0.0022739214 0.6570187 -2.3681479 -0.32913482 0.5714611 -0.76889914 0.08651373 -0.47069788 -1.0325524 1.3144741
못하 -1.1594104 -0.9019629 -0.69795144 -1.0464551 0.5978996 1.4647038 0.8076762 -0.68118984 0.28647873 -0.96936446 -0.2177295 1.4796375 0.17920737 -2.8713226 1.090902 0.21778257
하지만 -0.94026005 -0.56793946 0.31329647 -0.3131511 2.9770422 1.3333924 -0.24982099 -0.16457938 0.06738829 1.3416402 -0.9834168 1.1018353 0.44526342 0.47575662 -0.10186353 0.37306434
던데 -0.3029438 0.26407135 -0.78243214 1.8219852 -0.7518452 -0.9407844 -0.9834281 1.6698759 -1.306874 0.6329651 -1.6954654 0.9509678 -0.05308769 -1.4881259 0.50299525 -0.43130443
욕 1.4241972 0.56691945 -0.9816047 0.28535601 -0.9155918 0.6056478 -0.10768093 -0.48951343 1.6994061 -0.04784003 0.92507726 -1.7133319 0.075727224 1.8630338 -0.8493494 -0.61650777
봄 -0.87614197 0.81211567 -0.7333298 -0.16897231 0.738427 0.6065577 0.5094737 -0.9370426 1.3992273 -1.4606013 0.39866155 1.1405963 0.48170215 0.96593475 -1.0647995 -1.7591591
감 -0.82286036 -1.0687218 -1.4399726 -0.6021217 -0.29973206 -2.3226175 -1.0224911 0.1915713 0.5547116 -0.23882513 -0.5209403 1.6631126 0.8458472 -0.08762957 -1.6008315 1.1451554
훌륭 -0.3900356 -1.5458741 -1.0176618 -0.47786885 -0.48750243 -0.8081167 0.040816817 0.4598844 0.22611943 0.6077761 -0.02196368 -1.3843659 1.0744243 -0.83758616 0.79445964 -0.5813333
너무나 1.2512133 0.3692423 0.7710975 -1.2281106 -0.16299433 0.06064322 0.5176754 0.5992122 -1.3848453 2.115589 -1.6882956 -1.2146096 -1.4940714 0.49006897 -0.43080604 -0.020969989
강추 0.9483052 -1.9104571 -0.34384462 0.78666663 0.28833902 -0.9885563 1.5600652 0.3520285 -0.10787827 0.8339819 -2.1569796 -0.21076041 1.2594317 -0.19337983 -0.014418094 -1.0856593
해야 0.71584195 -0.7100543 1.1223116 1.9270937 -1.4930702 -1.0093846 -0.08960543 -0.7004294 -1.1482942 1.3677047 1.4735674 0.009739188 0.90222347 -0.18186225 -0.48497546 0.19929107
됨 0.7498123 -0.114445716 0.75727695 -1.0177671 1.4402535 -0.90812325 0.12549819 0.91151834 0.31491643 -0.6671159 0.4942085 -0.5776535 1.3740938 -0.6942335 -0.9264283 1.9079347
ㅡ -0.741249 0.91457313 -0.52301735 1.1839314 0.68699485 -1.6093621 -2.0265925 0.057780027 -0.25097135 -1.3633484 -0.9397892 0.38019142 2.2314758 0.40071464 -0.5080384 -0.9893314
따뜻 -6.9827685e-05 0.30472893 -0.5035878 -1.557366 -0.5728692 0.78589606 -1.5132496 -1.5723155 0.6391008 0.65169084 0.68664724 -0.31392366 -0.30418688 0.26138023 -1.8727039 -2.7197647
빼 -0.39865565 -0.4752967 -0.3529016 -1.0921053 -0.5737975 -0.91623473 -0.07076275 -1.7582517 0.2918023 0.3710721 2.1510544 -0.6348191 -0.5097317 -1.3434145 -1.8680785 0.8117822
느끼 1.2257941 -2.606051 -0.16622274 0.21516642 -0.7326379 -2.2591252 -0.5854381 -0.5389069 0.78215647 0.9805466 -0.3635754 -0.80227125 0.2187179 -0.09283467 0.47150117 0.194378
드 -0.57532674 -2.897867 0.73384184 1.9362395 0.052971497 1.1494856 0.51141346 -1.6276435 0.7401965 -0.6982431 0.28961658 -0.45722935 -1.3584138 0.0730811 0.86827385 -0.800971
도대체 0.85170096 0.7545844 -0.3669062 0.8498286 1.5061866 -1.270256 -0.8244997 0.138811 1.1220281 1.0865675 0.17851032 0.7766674 -0.5573647 -1.7132908 -1.0807174 1.1327674
어야 0.46369034 0.6429862 -0.33829945 0.3332584 -1.0461923 -0.6424759 -1.1133733 1.5382737 -0.1546499 -0.6735522 -1.0657848 -0.46521717 1.43677 -0.5225098 -0.27806014 2.6405103
글 1.0557983 -1.5825325 0.52355874 1.1105143 -1.1868943 -1.2360277 -0.80550504 1.8014591 0.27063358 -2.374865 -0.5790076 -1.4330044 -0.9410631 -0.022109883 0.738626 -0.39439878
마다 -1.6002401 -1.3919977 1.4707948 0.099162854 -0.9549551 1.7993731 -0.6409185 0.58879983 -0.13222487 0.29610997 -1.548015 -0.13350217 -0.19664717 0.27554244 1.6960374 -0.12803268
답답 -0.35422683 -0.14684387 -0.4746388 0.6666551 2.3102536 -0.021509675 0.6550159 -1.5145094 2.339251 -0.5847238 0.58478546 1.3095053 0.9103271 -0.69675255 0.056842785 1.0881189
준다 -0.6770445 -0.75262296 1.080257 0.9894094 -0.110248424 0.36184347 1.5009632 1.3663863 0.57954144 -0.21103245 -0.76858604 0.017347788 -1.8814365 -1.3011478 -0.13576768 2.7565637
전쟁 1.461321 -0.8270905 0.16726086 0.67934424 -0.68335736 1.532454 0.445254 0.054388717 -0.28248507 -0.48597968 -1.56518 0.12522496 -1.0160954 1.4202178 0.685284 1.4817166
놈 -0.30757678 1.6182535 0.44414172 1.0825818 -1.4636221 1.1185813 1.7080514 -0.46188265 0.28040212 -0.561302 0.85324526 1.6811544 0.6653166 0.6146231 0.703318 0.6652614
설정 -1.3552301 1.8281151 -0.66633236 -0.11908734 -0.4262913 -1.0422196 -1.2438171 0.30172637 -1.018995 -0.14911915 0.6959919 0.02066398 0.42161456 0.7757308 -1.0169861 1.144354
무엇 -0.5569421 -0.19989076 -1.7731085 -0.12487706 1.7940657 0.52056086 -0.124714084 -1.1173787 0.16251776 0.8416496 1.9185207 -0.9961059 -1.5515954 1.5718906 -0.6915854 -0.34585103
수작 1.038457 0.34071657 -1.4798621 -0.7316724 -0.49469945 0.10135613 -0.26008835 0.60477895 -3.1461735 -0.7324458 -2.657201 -0.43572733 2.462993 0.35377344 0.26847598 -1.0859768
그저 1.3341649 -0.02943114 -0.75655705 -0.063852176 0.7655125 0.35029402 1.0860629 -0.69824904 -0.19876274 -0.1209966 0.5085245 1.0765003 1.0344236 0.53360677 -0.37312374 1.5003039
감정 0.7715696 2.3025787 0.55259037 0.73349506 0.028406674 2.0047078 -1.2792133 -0.8801579 0.55433387 1.1816274 0.04598029 -1.0931579 -1.9905037 -1.0804532 0.010119553 3.3674726
흥미 -0.9078572 2.027851 -0.35910842 0.21636426 0.065593295 0.6851723 -0.1373349 -2.0341754 1.5010949 -0.780163 -1.510381 -0.954052 -0.37040335 0.359031 -1.0902811 -1.4656965
미국 -0.23955767 -0.055391226 -0.77173 -1.4859858 2.0782633 -0.090715304 -1.1586144 -0.54512167 -1.6895356 -1.3837523 1.3219507 1.065796 1.1312038 -1.0395275 2.8205152 1.9520718
만화 0.5235031 -1.3188018 -0.22298807 0.05596376 -0.43901056 -0.8894776 -0.2141263 -0.2594017 0.6494782 -1.6084018 1.4147068 -1.991542 1.9179214 1.0388944 0.052810814 -0.5867869
행복 0.6648085 1.003989 -0.059693098 -1.59608 0.30090296 0.4479 1.506462 0.70655274 0.6083678 1.3098588 0.32829446 1.0868784 1.3334095 -0.14865266 -2.2245104 0.0668356
신선 0.4947184 1.545591 0.94626087 -0.88664466 1.2934682 0.9260397 -0.107348576 -0.33223438 -1.4015505 -0.21254788 -0.6258117 -1.015995 -0.09812014 -1.2584532 -1.5841872 -1.1252298
뻔 0.9149339 0.66221845 0.050085273 -0.34758186 -2.0600717 0.29550615 0.24047275 0.9979574 1.2629471 -1.0762911 1.2419441 -0.091191754 1.0321323 -0.0073599964 0.73615676 -0.9208206
형 0.34678343 -0.8486648 1.4797765 0.75906587 -1.600662 0.66627145 -0.84377444 -0.5379898 -0.75905967 0.5731632 -0.6675798 -0.36218235 0.28216404 0.5269508 0.21350138 -0.6016082
앞 -0.2402242 -1.3126587 1.1243249 1.5988737 -1.72611 0.33518764 1.7164658 -0.2601345 1.2663629 1.2508783 0.17989205 0.83658034 -0.49061012 -0.4558414 0.42192715 2.740022
어도 0.108471945 0.5995348 0.0043110563 -0.95986265 0.19667238 -0.8466258 -1.3489572 0.4138221 0.22558682 0.66635275 0.052272044 0.37593567 0.6374164 0.3812375 -0.43889508 0.82890314
허접 0.8968434 2.8214505 -1.9700783 1.9165002 0.5208001 1.016032 -0.89091384 -0.3611182 -0.19831522 0.47683442 1.0113894 1.0061383 1.2679459 1.2610751 2.0827725 -0.19332871
군 1.381678 -0.33289626 -0.20678315 0.32672545 -0.85034823 0.36091885 0.35195014 1.7978712 0.450425 -0.64887357 -0.73928374 0.08048817 -0.80151844 0.7515695 -1.8774196 -0.8356541
시절 0.07462645 -0.31231478 1.5324072 0.4296687 -0.21093124 -1.755656 1.5920255 0.45733047 -0.76366556 1.282276 -0.6739593 0.3073996 -1.0968294 0.739192 -1.3355463 -0.47740296
관객 0.7383837 1.3799205 0.9164748 0.2441383 0.19662358 0.54665875 -0.19214857 0.2599557 0.8966149 -1.2371806 0.0248073 1.0122578 1.404847 -0.39254966 0.43404773 1.5496445
배경 -0.29618907 -0.97732383 -1.8157281 0.64217913 0.6612197 -1.590893 -1.3274201 0.19318314 -1.0979025 -0.36755788 -0.53503525 1.1246127 0.49916267 -0.34630215 -0.84646165 0.7827177
6 -0.118692115 -1.7981219 -0.7794403 0.3203327 0.2871091 0.39060786 0.9045085 -1.4469796 0.7007908 -0.48363513 -0.7970059 -1.791522 -0.009324046 -1.3918157 -0.30733153 0.35157537
의미 -0.87059844 0.73303485 1.7529162 1.017427 0.23819903 -0.9055471 1.2984934 1.4250549 1.0670118 -1.1569182 -0.28999296 2.495975 -0.098226115 -1.0735738 -1.2079468 -1.5425001
초반 -0.39836726 0.33334973 0.33225635 -1.4224668 -1.45116 -1.4801357 -1.5685652 0.32336655 -1.2983077 0.15705186 -1.3719879 1.2626046 -0.8861742 -0.29519463 -1.5194501 2.3927283
사실 1.1894325 -2.100524 1.361542 -0.48389763 1.845132 -1.6145326 0.8860954 -0.6501124 -0.5565105 1.0741748 0.17360388 -0.9393752 -0.30177137 1.8824868 -1.0151763 2.0401857
답 -0.18429434 -0.48976338 -1.4487785 -0.97101057 0.09979818 -2.8195105 -1.6971114 0.5981037 -0.69892085 1.3919334 0.84602624 1.4131281 0.64439815 -0.6000692 -0.8324606 1.6572199
웃음 1.037013 0.75816333 -0.3477404 -3.1309154 1.6566368 -1.3977406 0.6125443 0.65383613 1.176913 -0.6210804 2.3181145 0.141202 -0.51835394 0.45001498 0.5457748 -0.5806087
엄청 -0.37566113 0.08551033 -1.5776172 -0.83036965 -0.36867523 0.062506996 0.1411711 1.574952 -0.38587502 -0.21869753 0.09466422 1.8643239 -0.009127126 -0.08513756 -0.259478 0.33939368
라니 -1.6360434 -0.5194793 -0.13398978 0.094730526 0.6745878 -1.3902382 -1.2434856 -1.1059053 -0.43704674 -1.0663949 -1.5134809 1.0938563 0.053654242 -1.3234457 -1.2090307 -0.7478996
더라 0.62648666 -0.82123965 1.3432978 -0.7167033 -0.014647801 1.2397053 -0.3135897 -0.20928866 -1.6179191 -0.24771519 1.1121981 0.02098688 -1.5791124 -0.35729575 -0.9485863 -0.2753601
자신 -0.35062253 -0.16341607 1.0172787 0.41898805 0.39067033 -0.37459904 -0.888125 -2.1743627 0.35526773 0.7094195 0.31967998 -2.3056395 -1.2706391 -0.39995152 2.2013875e-05 -0.9139544
질 0.56014776 1.4762948 -0.39056662 1.2388339 -0.8829105 0.19224884 -0.09820713 1.3757285 -0.9415897 0.06371693 0.9554706 0.08789206 0.36603665 -1.1084516 0.10206916 1.5896809
추억 -0.45140228 0.72241557 0.9040202 -1.033645 -0.22619005 -0.65164757 1.2317853 -2.0026975 -1.1622007 0.032998722 -0.7672401 0.10322782 -0.1161724 -0.37717563 -0.6012282 -0.02304414
캐스팅 2.3170047 -0.24461569 -0.5896816 -1.4902748 -0.022514699 -1.3320897 -1.3188441 -0.117182896 0.17291601 -0.42861181 -0.37755847 -0.41660595 -0.3392231 -0.9898989 -0.4127984 0.10528949
머 -0.526291 0.5577446 2.742503 0.14832051 0.27099746 1.2097046 -2.4413407 0.7448629 0.9398799 -2.368777 -0.27014294 -0.7991557 -1.2216955 0.20476785 0.9758301 0.47726777
첨 -0.017983267 -0.62724125 2.1621847 1.5087174 -0.77395827 1.6038245 -0.61886746 -0.3901487 1.7425 -0.0007452525 1.8600062 0.012672003 0.13750811 -0.6625878 -0.7519084 1.4224013
멋있 -1.6251979 -0.98571724 0.98567796 0.5570066 0.48383278 0.04805491 0.9949571 -0.5298939 -1.0206382 -1.2009634 1.5659078 0.121718064 2.418951 1.5250282 -2.142072 1.2545851
류 -0.66708785 -0.31589985 -1.1547127 0.53627175 -1.8916723 -0.818387 -0.79513824 0.12153289 -0.10024234 -0.07752562 0.014761039 -1.0796102 0.15842727 1.5705245 0.7792413 -0.10271217
시나리오 0.47839674 -0.129686 -0.586544 1.5804622 0.1379974 -1.3200392 1.1440319 -1.2079055 0.8764879 -1.4033257 0.8515512 -0.43676364 -0.26929477 0.003421978 0.22437419 -2.9011245
어색 2.3465974 -0.6197574 -0.3183796 1.0439482 2.1906273 0.2506788 -0.5847161 -0.71315235 0.2574937 -0.77928835 0.2767896 -0.7451703 -0.84347737 -0.28305224 -0.5267355 0.40168267
슬프 0.3995868 -1.0160394 -1.2556337 1.7222204 0.21527505 0.73845375 0.40726137 0.7590956 -1.9185132 1.4613247 -2.1828012 -0.22348219 0.6493468 0.36327842 0.3839542 -1.1289889
OOO -0.6838807 0.8090907 -0.091245726 -0.3537567 -1.1281132 -0.7950858 -0.88327795 -0.78754073 0.8989801 -0.5999544 0.8118277 -0.07313316 -0.69478464 0.4500534 -0.18989508 0.13408968
정신 -1.0251392 -2.1196172 1.0325028 0.55048364 0.7047509 0.6049278 0.46479374 -0.67096925 -1.0189203 -0.61903447 0.75547713 1.5897194 -0.95541394 -0.12783112 -0.045935247 3.6222866
분위기 1.5199592 -0.86430967 0.18701755 -1.895886 1.0962228 0.38991353 0.58224183 0.20360506 -0.60891014 -0.24214762 -0.82055616 -1.7236015 0.051088568 -1.0904448 -0.09542459 0.3266689
소름 -1.3780396 -1.4667515 -1.9483229 -0.34890032 -0.4166079 -1.0189598 0.19853967 0.71726346 -2.58462 0.5184148 -0.48364848 -1.0750775 -1.1826737 0.4462652 -0.6403544 1.376683
멋진 0.6802405 0.387825 -0.14504808 -0.83800226 0.79248816 -1.5952699 -1.4253869 -1.0394042 -0.4436292 0.13617748 -1.7509911 -0.39684978 2.3327026 -0.9084932 -2.1067445 -0.67626476
힘들 -0.4500193 0.11442694 0.94832796 0.9921841 1.3590317 -0.8680023 1.0977386 -0.7046847 1.463873 -1.524682 -0.5099019 0.28018993 1.405725 0.08309502 0.90552956 0.57254076
오늘 -1.8354478 0.753027 0.46521884 0.96163636 -0.7757581 -0.085087426 -0.25584918 -1.1671739 0.5415988 0.7571418 -0.38498962 -1.2131168 -1.00904 -0.007862049 0.9070417 -1.1475804
어이없 1.0976394 0.6116029 -0.8309855 -1.4954827 -0.5259304 0.26031372 -1.1264626 0.2539491 0.87434304 -2.1904163 2.352754 1.5154127 -0.40838793 -0.15198383 0.33952296 0.027372152
봐서 -1.854007 0.72824216 0.30715784 0.35385132 -0.34587932 -1.0725111 -0.52010244 -0.27302206 -0.47940835 0.39519748 0.8205906 -0.5894363 0.09030302 -0.13525516 -0.91741097 -1.3092532
구성 1.1997485 0.047367968 -1.5165062 -0.15101592 0.9131135 0.18326324 -1.7258414 1.5026964 0.40605524 0.22672968 3.0589654 0.44217825 -0.31213328 -1.150313 -0.22287011 -2.7227843
잡 -0.83719057 -0.755519 0.8334628 -0.35840857 -0.6329319 -0.543855 -0.51549846 0.5399094 1.2398956 -2.3221712 -0.4799203 0.3190881 -2.9370956 -0.2945973 -0.63203394 -0.41673312
엄마 -0.03270883 0.2126309 -0.74233985 0.39231914 -2.3767278 1.5765908 0.37444595 1.554787 -0.80551547 0.66895705 -0.6786064 0.7109743 0.6812413 -0.5343053 0.97522205 0.5837368
함께 1.111279 0.22096531 -0.47107232 -1.0916095 -1.3977338 -0.9502888 0.6616975 -0.064469405 -2.4183662 -0.9971268 0.7345435 -1.4211236 0.25369242 -0.78423434 1.6062858 -0.4137438
문제 0.056058325 2.7709265 -1.7436036 -1.999731 1.1169887 -0.3042771 1.5399917 -0.8641579 0.03095201 -0.8931109 1.6781226 1.0222874 -0.8085905 2.4788644 -1.2548136 0.41888475
위해 0.1123901 0.09016817 -0.54050857 -0.7979822 -2.2761204 -1.1617119 0.05034841 0.06838744 -1.0297208 0.079015866 0.94693404 0.27318743 -1.6650453 2.017104 0.20784365 -1.9942783
졸작 0.31436214 0.807075 -1.2856349 -0.07323699 1.0824004 -0.37089226 -1.6501368 -2.2392695 -0.9914335 -2.6991844 0.96755064 -1.026389 -0.59387803 -0.013907202 0.029893031 -0.39455292
잊 -0.19319418 1.2166234 1.5696415 -0.8490107 1.8621044 -0.6677599 1.2973909 1.2306823 -0.21227 0.35373437 0.44103238 -2.184964 0.52622426 -0.04326824 -0.7183246 -0.46661445
등 -0.69048816 0.031496983 0.11029771 0.19260047 0.85409635 -0.8958518 0.95687854 1.1889822 0.13615115 -0.27517226 0.9447019 -0.65041053 1.0858128 -0.13539506 1.307834 0.38664895
집 0.09479091 -0.07137757 -0.11853049 -0.37803373 0.6631516 1.4349492 -0.6500722 -0.67857766 0.7768764 0.297212 -0.66910434 0.13404635 0.04408636 -0.4180932 0.04167855 -0.26474598
유쾌 -1.6481589 0.6431217 0.4390498 -1.3700784 0.17632934 -0.510246 -0.153448 -1.1514333 -2.8274977 -0.5588643 -0.91978675 0.10263336 1.4674808 0.7887008 -1.2522298 -0.8026547
스러운 -2.7798283 -0.69405985 0.23114076 -1.0139409 -0.0056980867 0.1800896 0.08607432 1.7695735 -1.237525 -0.13498051 0.62017995 -0.7100579 -0.10098702 0.08351266 1.0683912 -0.5568776
뻔한 -1.2392081 1.4136529 -1.4239017 0.84376067 0.7093507 -1.2845544 1.1650157 -0.42533177 -1.2388943 -2.275876 -0.35956654 2.445932 1.0247775 0.3308218 -0.24096362 0.85374546
나요 -0.39993986 -0.34524018 0.19334987 -2.605157 -1.6890712 0.1823517 -1.0811412 1.2688546 -0.47876075 -0.16066216 1.1197731 -0.29563677 1.5567249 1.4057013 1.2961838 0.9984331
킬링 -0.95933175 -0.8523573 1.3469907 1.0298529 0.65573776 0.16480824 -0.8018415 0.57590646 0.69963455 0.0063127354 -2.0178876 0.8071514 -0.10434605 0.4950526 0.2580067 1.1045308
결국 -0.02010886 0.99187326 -0.6026703 1.6996069 0.4481759 1.8067111 0.79750544 0.88382906 -0.41436362 -1.0204248 0.45947406 -1.0098307 -0.5882551 0.1361286 2.0398004 -1.1575264
낫 -1.7146195 -0.4375481 -0.68227655 -1.3864559 0.119176805 -0.007124529 0.462578 1.3248216 0.35540867 2.7942228 -0.13621858 -1.1025432 0.10917851 -0.7804279 -0.4714622 -0.43952444
뭘 0.9556099 0.2984227 -0.21434037 -0.09168595 -0.2800666 -0.36268577 -1.0352261 -0.036050506 -0.56150293 0.8609934 1.4405687 1.062879 -0.7557408 0.9064104 -1.0287987 -1.329445
간 -1.4124506 -0.8255076 -0.1622572 -2.0054073 0.0008619333 -0.6706433 1.009039 -0.39003468 -0.9402229 -0.5219715 0.15760778 -0.100437306 -1.255159 -0.72318715 1.1933475 1.5953408
소리 -0.57168925 2.1963582 -0.22089794 0.25734115 0.5521525 -0.19958004 0.06827713 0.41234967 1.130698 -1.4138865 0.2004092 -1.0796186 1.9159501 0.24995643 -0.84364486 0.3989034
미 -0.3932274 1.7702552 -1.8284768 0.93805784 -0.6385191 -0.004745238 -1.8279591 -0.38992974 0.19486216 -0.45520145 -0.78346264 -1.6680363 1.5912648 0.11214089 1.0710493 -1.2492448
한데 1.3033335 0.18800749 -0.42994937 -1.410697 -1.9756377 0.067478076 -2.3244636 -0.6321071 0.48446658 0.5459826 0.523989 -1.3935066 -1.2893318 -0.68420154 -1.7888204 -0.4378652
20 0.19799577 -1.2638532 -0.4908695 -0.3162851 -0.70852655 -1.9421207 -0.0346922 -1.1368523 -0.4767235 1.1918715 0.12290598 -1.1928303 1.2418898 1.7418259 -1.5264722 1.1942383
역사 -0.6299165 1.495296 0.48031422 0.44214088 0.9674235 0.007413524 1.9589585 -0.10852728 -0.9496517 -1.4569316 -0.10132006 0.8395617 0.2578537 -0.5704038 0.6197247 -1.6081082
뭔 1.1313343 -0.44740832 -0.4732507 -0.035664663 -0.95127994 0.6235336 0.7891516 -1.4521179 -0.28479582 -1.454703 1.6321967 -0.3050462 1.4233371 -0.24900301 0.60415447 0.44623357
제발 -1.428405 -1.0637652 -1.8480057 2.917055 -0.3210646 -0.3557899 -0.474065 0.45783618 -0.88200027 -1.238687 0.16141072 -2.6615741 -2.7671561 -0.54099137 -0.8328696 1.3129208
포스터 -0.1467696 -0.119621836 1.2336994 -0.61571515 -0.6444891 0.086506255 0.85905296 -0.4237154 0.10016098 1.2109095 -0.44215685 0.15817752 1.0756629 -1.6683662 1.0643405 1.4975766
아무리 0.11201672 -1.0987197 -0.59132874 2.1600254 0.21851845 -1.3689748 -1.3461719 0.44589442 1.7419018 0.72485787 0.9282859 -0.78129214 -1.938225 1.2928978 1.1846046 -0.8830033
코믹 -0.7404395 -2.637741 -1.037084 2.1026542 -1.0296242 -0.36511478 -1.7853291 -1.0645996 0.3119211 -0.31304085 0.621322 0.7289652 1.1274189 -0.49165857 0.10439905 -0.62993497
어떤 0.9398189 0.52863276 -1.5561996 -1.3186622 -1.0698509 -0.8023838 0.4734333 0.03151109 1.2030859 0.56007516 0.78537804 0.32774743 0.03537423 -1.2467898 -0.38135967 -1.9690243
완벽 -0.8721178 0.18464541 -0.797231 -0.23772584 1.0435352 0.43480602 0.040871844 -0.72428834 -1.3368809 -0.00019199477 -1.7471448 -1.0138928 0.6291358 1.587661 -0.41203454 -0.5070399
~~~ -1.1259366 0.73135567 -0.67876565 -1.1044729 -1.739912 -0.12960112 -1.6324147 -0.3276401 -0.18182534 -1.0963411 -0.07866177 -1.4022999 0.43331665 0.11881804 0.03548914 -0.75207996
얼마나 0.4020435 -1.3580016 -1.435376 0.88224334 1.1998652 -0.5342438 0.11335548 0.17529052 0.3170424 0.8364258 0.22061877 0.08768467 -1.3748893 -0.6941737 -0.43565774 -0.024395466
애니메이션 -0.16887344 1.981378 -1.589479 -0.10304842 -2.104033 1.5562501 0.6103421 -1.1058722 0.6142306 -0.68371236 -0.43097717 0.35770282 -0.11529837 0.20523477 -1.54032 2.1063306
러 -1.2487861 -0.07274424 0.28218296 0.55921 -1.2995348 0.9778845 0.5317559 1.449912 0.24174654 0.1833854 -0.9991387 -0.62436056 -1.813724 -0.2423145 -0.6446714 -1.1924928
맘 2.1012626 -0.59963286 -1.2858531 -0.6428958 -0.6635226 0.25690898 0.40634724 -0.36507398 -0.53496015 0.09824282 0.021852685 -1.4360696 1.2236295 -1.0368173 1.3349386 -0.5649125
!!! 0.57138413 0.44976252 0.14136972 0.26724598 -0.10904437 0.19887589 0.8370571 0.107694544 -1.7517713 -0.10368954 -0.49743915 -0.027495652 0.39000344 -0.0071879923 -0.5330094 2.2839744
난다 1.0737076 -0.6029944 0.17812866 0.27996576 0.35740495 -0.97705925 0.6331112 0.0720132 -0.88288915 -3.0380282 -1.0615772 -0.40714306 -1.3524688 -0.36746046 0.8756905 -0.42380348
주연 1.8347989 1.9072453 -1.3502371 -0.5575909 0.47753707 0.07184467 -0.8187282 0.5443574 -3.2328079 -0.7669827 -0.8123867 0.99754643 -0.1518134 -0.89162403 -1.909914 -0.018467337
원 0.268386 0.7611688 -0.8577966 -0.36037216 0.6500028 -0.62780917 0.6639903 -0.27085462 1.6283184 -0.06770999 -0.44827002 0.9358583 0.094269365 1.8476453 -1.1182228 0.97073984
이딴 1.1064436 -0.1442119 -1.3179626 0.26043433 1.9297737 -1.349595 -1.089188 -0.7637836 0.85942644 0.06305351 -0.6011483 0.59960055 -2.201865 0.83915573 0.68358475 0.8222711
버리 -1.5745971 -0.75368947 -0.46602055 0.31427664 0.79045665 1.3452598 0.45794564 1.5972549 0.016702138 2.3100908 -2.584791 1.6173215 -1.3643761 0.34562522 0.11557597 0.40899858
♥ 2.6877937 -1.2300444 -0.43863684 0.7657419 -1.3417693 -1.0656285 -0.20948485 2.6131866 -2.020742 2.7328517 -0.71841764 1.2803866 -0.7726711 0.87056696 2.8179505 -0.19280602
어릴 0.26574972 0.80552155 2.3305347 -0.106151044 -1.4940073 -0.22303541 0.037759103 0.109414406 0.25780115 -0.6814631 -2.131196 1.788215 -1.4590516 1.6687999 -0.85668594 0.078061245
후회 1.601662 0.29751495 0.4580509 0.94349504 0.21962635 0.19855611 2.2836149 -0.43010297 -0.9987545 0.32266003 -0.25824925 -0.8818999 -2.3434243 -0.34026027 2.4309685 -0.08200322
진부 0.3027201 1.3681501 0.16969587 -0.35332885 -0.16699131 -1.3418947 0.53255975 -0.35997614 -1.4056542 -1.8826709 -0.8030744 1.5796936 -0.49695858 -0.41244835 0.63246834 0.72004974
나올 0.45895958 1.1602753 0.42513016 0.52246666 0.90933156 -0.13270319 0.2861121 1.8065506 -0.2605259 -0.031727586 -0.06670313 -0.0917932 -1.334448 -0.055258524 -0.66963273 0.9665449
됐 1.2007163 -1.9879956 1.754824 0.9264124 0.079016246 -1.3612404 0.6067737 0.37595204 0.45560604 2.0351052 0.7212263 -1.2081447 0.6833248 0.45748082 -0.3149313 1.5015455
보단 1.9513794 1.0985944 -0.5182378 -0.13898091 -0.97422624 0.26043963 -0.8189941 -1.3361453 1.0403354 0.8226177 -1.5754734 1.227825 0.20822643 0.5809477 0.85703284 -0.18991677
장난 0.08654858 -0.22800232 -0.29601204 0.9841747 0.32735586 1.9673504 -1.213914 -1.55726 0.66777414 1.5186663 0.66532457 -0.3386406 0.6186197 -0.4040283 -0.5218716 -1.6245391
책 -0.9473702 -0.05120847 -1.2315577 0.30353993 -1.1222156 -0.45806327 -0.19739923 0.511479 -1.6047269 0.47139475 1.7609121 -0.923705 0.5058197 0.18158337 0.64063144 1.3169699
더니 -0.79497766 -0.8041415 -0.82469887 0.82913005 -0.0754033 -0.66708064 -0.11856589 0.6493747 1.0667237 -1.2499641 0.61235887 -0.14306808 -0.8878221 -0.37516844 0.09375898 0.9162184
큰 -1.0789143 -0.4022244 1.6519877 -0.24831228 0.22146322 -1.1008823 -0.8612143 0.8285968 -0.4648704 1.0018575 1.0566325 -1.5973501 1.3059375 -0.905805 -0.4087834 -1.7319803
영화관 0.5774294 -0.83021504 0.90715384 0.5479524 -0.58982 -0.434263 0.24563344 -1.4542457 1.3006548 -0.9610132 -0.41053018 1.3014467 -0.6388867 -1.659118 -0.18522663 0.21106736
둘 0.8239057 0.6143749 0.017060246 -2.1656473 -0.11514311 0.55998653 0.7163954 -1.4024361 -1.2396573 0.24440578 1.2072952 -0.25083998 -1.713778 -1.1443076 -0.56412023 -0.11746264
출연 -1.0943711 -0.5974918 0.312516 0.2752283 -0.5645923 0.39142567 0.5081763 -0.006030815 1.3458669 0.009710693 0.14597614 1.843877 -1.3226236 0.31782395 2.0401433 0.35449463
극 0.5938602 0.9078321 0.13569406 1.3543329 1.0364953 0.9422638 -0.38646838 1.1165067 -0.082034215 1.1937276 0.93525136 2.5013719 0.42668334 1.7503893 -0.37147275 -0.7200121
ㅅ 0.30465177 -1.9056642 -0.6163216 0.7036513 -0.40648168 2.0515335 1.2065338 0.11498605 -0.5487884 0.2107608 -0.73813885 -0.5496337 -2.3619564 0.37102428 2.5082614 1.5078204
개연 0.80853 0.3704572 -0.6520991 0.80320495 0.754605 -0.78193325 -0.9568917 -0.31204864 0.49720627 0.44564664 1.934445 0.17582355 -0.27590755 0.74822205 -1.2468488 -0.90035534
충격 0.052511405 0.90583825 -0.53746694 0.12608534 -1.4116642 -0.12875614 0.5510972 0.031897906 -1.0844492 0.709331 0.335608 0.91799235 0.24669893 1.1637319 -0.51952857 0.48608005
여기 -0.40860933 -1.293978 0.86552995 -0.09080123 -2.6427202 -0.10274344 -1.370295 0.33993432 -0.73791367 1.0291443 -0.9267518 0.82382077 -1.3529669 -0.05093528 -0.46814036 0.90574944
평가 0.1781887 -0.39276263 -2.3529813 0.7409113 0.15134339 -0.8313648 1.0114548 2.7614763 -0.04431078 0.51186883 1.4671509 -1.1656792 0.31236732 0.24315569 -1.1407202 -0.28002632
엇 -0.64972144 -0.2837839 2.090645 0.43448403 0.6714575 0.37212074 -0.33301714 -1.3270066 -0.39103258 0.14255433 -0.26437294 -0.41275248 0.8738986 -0.25925896 -1.6024301 1.8600789
꺼 0.34643826 -1.0753595 0.5614773 -0.27838188 -2.1266255 0.2387296 -0.94475996 -0.33350506 -0.7112282 -0.8634408 0.5773226 1.2499068 0.30031013 1.3438575 -0.56113595 0.11340067
잔인 -1.2789232 -0.38892356 0.119008884 -0.059345342 -1.8303975 -0.31213725 -1.2116003 -0.060079068 1.4119626 0.024151772 1.8346972 -1.0489933 3.1550796 -1.6250637 0.30317792 -1.619349
아름답 -0.2771218 -0.18197851 -0.8661435 -1.0352821 0.6458372 0.96736 1.249901 -0.71481186 0.038934164 0.80243886 0.11227971 0.20104821 0.10734684 -0.0059047258 -0.9844805 0.44676647
얘기 -1.2936413 -0.5154197 0.9908759 -0.63499725 -0.7950382 1.4175576 1.2736609 0.051470585 0.47341645 -0.005441029 -1.2132024 -2.3322253 -0.06095954 0.23637192 0.54932433 0.3373432
줬 0.85111314 -0.42692178 0.52971786 0.005686273 0.80965793 -0.6606439 0.1028614 1.398081 -2.3789897 -1.1897694 0.1649879 0.874239 -2.1549292 -1.1169281 0.029671505 0.32941017
자기 -0.5009487 0.05116466 -0.9140734 2.5617058 0.47134063 0.7020749 0.5364285 0.12914428 0.4710972 1.0954244 -1.6205518 -0.5328743 -0.15315947 -2.5148318 0.42540097 -0.0484349
예술 -0.6533378 -2.0067987 0.0001522736 0.6791755 0.73176557 0.34077728 -0.014597633 0.2583954 0.90343803 -0.6706729 0.44588047 -1.4487801 -0.43268532 -0.28605482 -1.8296452 -0.072759025
