10000 16
<unk> 0.3196744 0.90837646 0.27469614 0.9765238 0.26613393 0.6066914 0.8252875 0.4649237 0.9129227 0.52069426 0.25720742 0.66575027 0.51973075 0.70096457 0.47705162 0.8770529
<unk> 0.38695568 0.2132819 0.2520385 0.4132125 0.009730419 0.40220273 0.59851384 0.7841127 0.45302355 0.7731991 0.8298495 0.44073603 0.22704506 0.9637767 0.96691996 0.86340934
<unk> 0.09713652 0.15628609 0.03511742 0.86040187 0.70106167 0.47177413 0.90343684 0.15284099 0.80873615 0.15092325 0.3127014 0.57115227 0.51572466 0.54224354 0.877813 0.978013
 0.38986915 0.725318 0.36720344 0.40113476 0.8217396 0.66613585 0.31282246 0.24030486 0.8278992 0.5014664 0.19891131 0.66712797 0.44409034 0.7336501 0.07909717 0.11426596
. 0.8953806 0.4219679 0.48263872 0.5453568 -0.006934609 0.07900776 0.7259747 0.10558339 0.70210063 0.08638198 0.4144551 0.040579196 0.7095645 0.48105466 0.17839007 0.1344073
영화 0.313517 0.6479082 0.4339881 0.84414774 0.75895166 0.7952947 0.31794694 0.17608261 0.35756078 0.68201447 0.07921967 0.6559463 0.58663726 0.0036105367 0.9486246 0.4682214
다 0.8471254 0.087737866 0.9654569 0.5175678 0.39816508 0.6209925 0.90450543 0.27728075 0.06681997 0.65825546 0.8628838 0.8328284 -0.07766515 0.3745008 0.34616083 0.79771453
고 -0.083641626 0.95848817 0.46307787 0.5461418 0.35575584 0.3014892 0.56801045 0.5091218 0.5207916 0.60716105 0.38262093 0.81208754 0.7332961 0.765806 0.08797314 0.40160516
하 0.31699312 0.2845347 0.2952228 0.71492904 0.3289325 0.68429166 0.17255484 0.5538376 0.23667526 0.28552964 0.5242436 0.85010797 0.57137674 0.45819554 0.2929015 0.5188156
을 0.8192139 0.059785243 0.57056546 0.58081144 0.62320364 0.6237635 0.13011834 0.5989678 0.6477152 0.17056398 0.8151029 0.26151747 0.46776578 0.8105896 0.1456886 0.10537742
보 0.24502923 0.36743507 0.9456969 0.24065831 0.6899251 0.2634309 0.6128947 0.5170709 0.80836135 1.18106 0.8570011 0.24363981 0.82087207 0.8746203 0.10505276 0.9195489
.. 0.14427449 0.62789243 0.23101386 0.6444598 0.7660701 0.3180058 0.47507602 0.35101163 0.26984146 0.8389853 -0.05689975 0.48912984 0.7818784 0.5982716 0.19925722 0.7615752
게 0.15220684 0.9762736 0.36118713 0.27058265 0.8825342 0.31483 0.2808258 0.39255705 0.8705994 0.33326346 0.5845325 0.546444 0.7039556 0.89732873 0.6401193 0.06248287
, 0.518359 0.7837744 0.61047536 0.46166363 0.45951343 0.10633904 0.44800293 0.4285618 0.4415684 0.26798657 0.36835858 0.15788394 0.33560678 0.15819062 0.026966443 0.5030007
! 0.23073298 0.9916268 -0.009892622 0.1084787 0.12755185 0.7428233 0.52019304 -0.13522388 0.097662136 0.769602 0.16224386 0.57115924 0.84874374 0.2700132 0.5467999 0.78887075
지 0.20931287 0.7675359 0.23688233 0.20473467 0.22223352 0.6502326 0.43906868 0.56268895 0.6759245 0.03833254 0.26724154 0.39019412 0.027988384 0.15174462 0.3462851 0.8532406
있 0.07384216 0.7500653 0.61310506 0.2370638 0.7364829 0.72906613 0.4306703 0.40520567 0.45651707 0.45737338 0.6773744 0.34869587 0.0763822 0.7213397 0.22225273 0.0550815
없 0.8262931 0.8668521 0.55552685 0.49909422 0.352245 0.011666894 0.6153154 0.8480036 0.25931412 0.58806247 1.0035571 0.71086067 0.5146403 0.025520278 0.11698128 0.75923496
? 0.8174437 0.9305159 0.26336175 0.097838685 -0.008999367 0.7173737 0.71006995 0.27532923 0.71725774 0.887131 0.8634252 0.15674545 0.5453869 0.13283587 0.27265888 0.3763785
좋 0.041741963 0.78790236 0.905652 0.8338423 0.35888472 0.9267221 0.49428365 0.6138411 0.14934815 0.4657006 0.65665966 0.5072635 0.750062 0.8512396 0.1449267 0.21793671
나 0.6761427 0.19787458 0.24445257 0.84201837 0.1207983 0.8969403 0.86530554 0.56532747 0.09803591 0.55707705 0.33967897 0.7610616 0.2829379 0.19246717 0.34299853 0.58950216
었 0.88695246 0.23410305 1.0603237 0.4613873 0.45216995 0.39979014 0.010314032 0.533672 0.7786649 0.5246296 0.9153365 0.6280716 0.69563025 0.46940848 1.1060296 0.20525953
만 0.20763445 0.21607856 0.8368394 -0.067047864 0.36862725 0.94779634 0.1989077 0.088732995 0.8557042 0.5323501 0.80316067 0.39760932 0.7503771 0.34460723 0.76789165 0.790445
는데 0.52293056 0.5796167 0.906327 0.3945702 0.7542953 0.47659168 0.43879917 1.1189882 0.5448937 0.2969427 0.740529 0.30638587 0.24578996 0.10108073 0.39364436 0.49746078
너무 0.09647028 0.11815747 0.27015635 0.9328603 0.58073616 0.33718917 0.42295736 0.12646253 0.53197294 0.48197442 -0.16281284 0.26440284 0.4361235 0.27204767 1.1329925 1.0435438
봤 0.58377594 0.80545133 0.10288899 0.5097675 -0.046248935 0.74638003 0.57645637 0.21144156 0.55759037 0.41839325 0.6762072 0.09388202 0.37361044 0.8156115 0.804702 0.6240934
적 0.45141283 0.31997842 0.14031503 0.08054331 0.13577285 0.47532663 0.7436058 0.49552482 0.28503922 0.2466914 0.18368378 0.9198698 0.28073823 0.16830014 0.84076625 0.2701649
안 0.9056914 0.18513346 0.30616334 0.4544682 0.4136428 0.24772593 0.23059858 0.648594 0.3051583 0.5015536 0.98984 0.36933857 0.74128354 0.26425815 0.4275095 0.32842815
로 0.07851996 0.22831976 0.58061445 0.051546887 0.8941006 0.6517573 0.6504832 0.8502833 0.21682775 0.28183392 0.16919026 0.83028376 0.9269366 0.42601532 0.7567811 0.38390678
정말 0.35157284 0.2676568 0.22652741 0.71694505 0.11695943 0.04442577 0.8696574 0.3335112 0.5898809 0.27048546 0.13201778 0.4598467 0.8787794 0.0066768937 1.0277286 0.3844153
음 0.8010684 1.1112295 0.35604617 0.83904415 0.7933818 0.8987071 0.25618583 0.7260234 0.5061498 0.74505824 0.09378111 0.5206568 0.878454 0.59585214 1.0491427 0.77033526
것 0.08452128 0.684763 0.14857912 0.8221162 0.4832694 0.48471117 0.7637558 0.5516482 0.43287936 0.42406625 0.9210254 0.07139594 0.7110109 0.57016367 0.88973755 0.7730576
아 0.2502879 0.274197 0.39239964 0.118402764 0.18644069 0.5319625 0.8050044 0.74521065 0.4467392 0.779432 0.82780534 0.1784846 0.5069214 0.62021774 0.5290732 0.28616324
네요 0.04793042 0.57180977 0.15783548 0.65972865 0.47476974 0.648914 0.65739936 0.3744262 -0.055008437 1.0094091 0.64444035 0.3137498 1.0112958 0.75440663 0.1682295 0.50555027
어 0.15549026 0.9110171 0.52480716 0.036426257 0.05338446 0.30485407 0.20342246 0.5706784 0.5843089 0.7917165 0.92782336 -0.023227647 0.77286416 0.044519503 0.30805653 0.523752
재밌 0.3694734 0.2627287 0.6974632 0.90830797 -0.17636056 1.0245821 -0.0649796 0.82374716 0.57468635 0.2994164 0.53293836 0.6889516 1.190165 1.0362195 0.36170092 0.37196732
같 0.2317162 0.4579355 0.42430088 0.33835122 0.603022 0.22937503 0.41638702 0.65288544 0.46850002 0.16697098 0.5785144 0.8526166 0.76287997 0.7836535 0.63384616 0.29965395
점 0.7976625 -0.1086196 -0.20460317 0.70736986 0.28784484 0.69041 0.4589393 1.1961471 0.7837282 0.8961626 0.004485533 0.74915606 0.9006616 0.6142284 0.20813663 0.79292434
지만 0.44179064 0.5162308 0.71299565 0.28060558 0.5159451 0.63424176 0.24561316 0.7845179 0.9295182 0.012359791 0.789465 0.04934826 0.25169793 0.36496353 0.39230263 0.39444447
진짜 0.26057506 -0.16483936 0.9328328 0.84726495 0.60479355 0.63645625 0.92246926 0.80016667 0.878244 0.11487502 0.09389968 0.9148443 0.38749418 0.023531543 0.6956292 0.11988906
했 0.10751771 0.14140104 0.5327616 0.6870533 0.080811195 0.11038011 0.42553756 0.74975437 0.82507443 0.5509435 0.77553886 0.42915922 0.47365633 0.27353168 0.0863585 0.65532863
기 0.7035962 0.6586669 0.71150863 0.1171903 0.3224133 0.68242854 0.34651005 0.6082665 0.7854516 0.6093385 0.8509548 0.31523508 0.20630449 -0.102324605 0.83685327 0.36345738
에서 0.08843432 0.67502785 0.35003015 0.41968662 0.29240516 0.30857882 0.65475625 0.548217 0.39992508 0.2449658 0.8878016 0.4970934 0.10163471 0.2626761 0.15702048 0.46482804
네 0.7660112 0.75115144 0.500003 0.1698858 0.47675815 0.31949398 0.37353086 0.899716 0.93200177 0.38894528 0.72990155 0.3246762 0.86693704 0.6168419 -0.054262195 0.57801884
않 0.47412416 0.056290522 0.035298005 0.6873189 0.41644514 0.037273444 0.0951379 0.8597474 0.52150846 0.07723524 0.6352316 0.25654462 0.13217556 0.3395873 0.73678094 0.21273962
거 0.8857444 0.8497878 0.43832275 0.64947265 0.12526572 0.8850325 0.56608546 0.28776166 0.953481 0.37981996 0.21449912 0.5421154 0.4560497 0.0126627255 0.6736625 0.19267656
았 -0.059223473 0.7767873 0.51094794 0.51739305 0.68646413 0.68061775 0.64845014 0.48676887 0.28802538 0.0059499773 -0.051630564 0.43921605 0.66740656 0.6977994 0.2403565 1.0924712
수 0.19103406 0.5262403 0.28978807 0.6407866 0.4561348 0.3444973 0.31838238 0.6878209 0.48304984 0.5288456 0.26917267 0.5844593 0.18297067 0.88126713 0.5810321 0.3011061
되 0.5346542 0.84119344 0.7581976 0.38235644 0.17985874 0.8772996 0.45754996 0.6714218 0.533418 0.35521924 0.6959373 0.20767546 0.8894251 0.2212609 0.10634157 0.04746599
면 0.35787708 0.3994709 0.19640125 0.12490024 0.9385713 0.6648698 0.20990112 0.85497636 0.7705547 0.92932826 0.62679535 0.35775036 0.46206257 0.4445064 0.48088923 0.83152896
ㅋㅋ 0.3969261 0.023000974 0.16482775 0.7265593 0.09969691 0.80511683 0.6117579 0.3563144 0.3135419 0.7857298 0.7159297 0.19170253 0.36866492 0.39848283 0.49738592 0.8538866
말 0.25587258 0.25911477 0.65034527 0.8543088 0.29405367 0.43003485 0.38962117 0.37802184 0.33369893 0.08022543 0.18021408 0.6423778 0.6972708 0.41299635 0.2985244 0.355634
인 0.66596764 0.8443089 0.6998706 0.5832833 0.36382303 0.9012293 0.32359564 0.33951417 0.50875163 0.409724 0.57690203 0.5296544 0.53805983 0.3144331 0.22814271 0.84969723
연기 0.79551005 0.34649613 0.8048184 0.39578378 0.89258564 0.63986033 0.38739178 0.90401405 0.18558791 0.8626238 0.571768 0.32700384 0.36272305 0.36054954 0.5537024 0.9262834
주 0.7768644 0.7218453 0.21875027 0.22467779 0.2741151 0.30786404 0.77755326 0.1590567 0.58729565 0.64558023 0.39466682 0.6381766 0.14183122 0.79064155 0.8521391 0.77855295
내 0.73443 0.8491975 0.46435013 0.78311414 0.45698515 0.57509935 0.899465 0.11833006 0.5907643 0.42218968 0.040299315 0.88502884 0.351907 0.41650692 0.9322259 0.8686674
최고 0.570352 0.68919015 0.7900351 0.8078927 0.5395753 0.58577704 0.25739548 1.000717 1.13035 -0.22071579 0.62708116 0.03858377 -0.10136906 0.55451477 0.4032371 0.8417642
~ -0.12734346 0.03547346 0.42003495 0.75589323 0.6881544 0.7070812 0.90937406 0.66543216 0.5550491 0.9684546 0.79900676 0.36630595 0.57444364 0.48661512 0.15758584 0.78011405
평점 0.8137323 0.8435196 0.61587363 -0.039668087 0.6086881 0.50626904 0.8102012 0.55599433 0.6792862 0.8333026 0.5671732 0.93878114 0.13146758 0.9819078 0.9038479 0.25785252
이런 0.5604314 0.43536383 0.33118197 0.41291222 -0.14050299 0.14637512 0.2449993 0.11020654 0.7979239 0.3553457 0.43350777 0.9114547 0.6643541 0.17883839 0.36915216 -0.027235137
던 0.45883307 0.6398709 0.3968238 0.6483772 0.060208768 0.27080965 0.8615649 0.23749055 0.9458243 0.40172106 0.5724387 0.1935814 0.47424942 0.8604279 0.709336 0.6477898
어요 0.99734277 0.61587954 0.7405275 1.0375961 1.186533 0.005533349 0.17943245 0.5596291 0.78083724 0.44374833 0.31569657 0.30526054 1.2004318 0.8776193 0.94306225 0.26643252
할 0.66893333 0.5577181 0.87257606 0.3214272 0.93495893 0.4576823 0.25778756 0.018977018 0.5198622 0.21494141 0.13743694 0.05947302 0.18518049 0.7183092 -0.106156215 0.41824314
왜 0.92744553 0.8629028 1.118318 0.8452308 0.34597465 0.27197522 0.83735466 0.100510284 0.85791373 0.44600567 0.9188468 0.17574114 0.74933136 0.766967 -0.019438026 0.83573586
겠 0.6403806 0.812797 0.001150516 0.6702118 0.48470277 0.77274144 0.09978221 0.45355216 0.8926162 0.23378311 0.41019258 0.2364658 0.78017807 0.277079 0.46278113 1.045916
해 0.036060117 0.48205256 0.48431447 0.44412398 0.77828765 0.7427032 0.18140982 0.6157905 0.7267464 0.33620432 0.2731669 0.6320176 0.18144691 0.115021765 0.5858335 0.63270247
1 0.47197467 0.773628 0.22925547 0.77693623 0.94838077 0.37683573 0.54194075 0.39963734 0.119263105 0.6354727 0.6779447 0.65834445 0.6321879 0.22190453 0.11720054 0.47835642
스토리 1.1024004 0.38183373 0.75975597 0.3276603 0.57583106 0.17197788 0.7191632 0.74779445 0.6460389 0.6003431 0.8609421 1.1001565 0.18553168 0.37504086 1.0497005 0.7799472
습니다 0.20332703 0.31608352 1.0072858 0.60740113 0.4422562 1.0057985 1.2220635 -0.17720896 0.77165395 0.8681747 0.3237266 0.26096326 0.50715345 0.54877037 0.28525165 0.59399813
ㅋㅋㅋ 0.2510872 0.5829966 0.044261 0.44715774 0.2630515 0.97164136 0.37338927 0.19091628 0.51995236 0.3971798 0.23607463 0.58839697 0.20578691 0.5279305 0.91443825 0.7063039
... 0.08298296 0.29971823 0.25973144 0.78891516 0.38657376 0.56255573 0.20801257 0.40924954 0.5292614 0.21403901 0.67309487 0.79082215 0.66531944 0.5483054 0.92564744 0.439989
드라마 0.41572383 0.32830295 0.36209685 0.4253709 0.53420466 0.13737667 0.5489297 0.30599517 0.16369097 0.7232283 0.51906216 0.81647843 0.14330715 0.5810005 0.9399644 0.22012933
아니 0.8071216 0.6300864 0.15159029 0.26099843 0.8678463 0.304113 0.5956849 0.2833003 0.4298898 0.18312824 0.5724519 0.17697948 0.5890866 0.54458606 0.5520348 0.23661721
생각 0.36639917 0.7791172 0.23760776 0.71925956 0.53556585 0.5873567 1.0360619 0.33905977 0.20484193 0.693394 0.27644366 0.46355745 0.06861155 0.8261735 0.13853672 0.0746315
더 0.5988601 0.22450577 0.86200666 0.46142668 0.62893885 0.71018755 0.81536824 0.7180572 0.37177798 0.5816464 0.48227808 0.65086555 0.97971916 0.32105383 0.7719699 0.7564422
그 0.28807107 0.09963867 0.7270474 0.7666743 0.514783 0.24063304 0.95060277 0.81782234 0.2780885 0.6295172 0.6155867 0.91624826 0.17728607 0.37755358 0.62524515 0.107345924
싶 0.9074691 0.5571088 0.48765448 0.66444856 0.264587 0.6888619 0.34095606 0.089196675 0.527733 0.26844475 0.12097252 0.9394113 0.29571673 0.8316453 0.6412323 0.64161414
사람 0.47451776 0.3263325 0.72425765 0.7568512 0.8492856 0.72144777 0.36275148 0.62907225 0.8181305 0.3039304 0.69507337 0.25839272 0.5182275 0.4511938 0.704672 0.039855402
듯 0.631761 0.74109465 0.50496465 0.43345898 0.4632857 0.3903032 0.07392742 0.36928117 0.483751 0.6960528 0.8395633 0.11166922 0.88864136 0.21133532 0.4386239 0.19367388
때 0.6657488 0.54346544 0.9016772 0.7768989 0.77256787 0.19443598 0.6177577 0.71468407 0.07849087 0.08229951 0.8251061 0.13385203 0.90907454 0.98569655 0.44580376 0.09904474
감동 0.39455867 0.91456085 0.98434156 0.86479527 -0.0053192102 0.22847861 0.7940277 0.6935401 0.63431805 0.6288948 0.52270365 0.3210738 0.30164 0.4608886 0.48896807 0.07136307
함 0.46237832 0.620397 0.088986695 0.85146254 0.7404384 0.4318497 0.26226804 0.19737992 0.57363456 0.81457925 0.3226202 0.16984451 0.78979933 0.5252558 0.8272953 0.44098067
배우 0.35309976 0.50961053 0.21265712 0.35993934 0.9208451 0.6971989 0.282554 0.25988477 0.6234996 0.50633 0.75400305 0.26805338 0.6704409 0.7760325 0.41446185 -0.01912115
본 0.20689984 0.34439892 0.6997167 0.7042151 0.26567936 0.58675665 0.394429 0.26410598 0.23601164 0.27009705 0.5282501 0.02281153 0.6687792 0.11651773 0.28299266 0.25007963
까지 0.08655576 0.08654537 0.7136866 0.05063591 0.042685036 0.4886245 0.5605381 0.8719466 0.22546603 0.4444111 0.7035457 0.36236194 0.774652 0.30041566 0.5304393 0.50986534
뭐 0.6730688 0.28008842 0.41514233 0.50536114 0.54537386 0.5128449 0.8893255 0.17882304 0.54346555 -0.097515896 0.7278361 0.56614274 1.1284434 0.60264844 0.7702467 0.3303108
보다 0.20273472 0.13600394 0.39751545 0.7261154 0.9306104 0.54068595 0.36702737 0.09268234 0.5199174 0.56826454 0.06828873 0.16942821 0.9949293 0.9207453 0.81965244 0.14520817
알 0.23465495 0.35081005 0.6883377 0.31955433 0.98045236 0.59870106 0.959677 0.2710553 0.20559467 0.40022594 0.5923769 0.5630815 0.2876942 0.79666334 0.28275907 0.51384556
만들 0.89416975 0.104656525 0.43262973 0.46033177 -0.08648179 0.15055308 0.86119455 0.8092009 0.19232328 0.094365634 0.52264774 0.08244291 1.001049 0.013664892 0.6283832 -0.1551418
내용 -0.006271156 0.8987204 0.1284522 0.059185784 0.7114308 0.58543634 0.3478889 0.14078961 0.7779201 0.3522884 0.27551374 0.575816 0.83560085 0.43138537 0.82861614 1.0352963
볼 0.3464501 0.57376397 0.41637287 0.82038945 0.9203346 1.2142268 0.05098882 0.9095695 0.48745584 -0.074864194 0.47748557 0.085016735 0.8470087 0.54660416 0.4894744 0.29341382
감독 0.064381555 0.42261815 0.093062274 1.0656266 0.49518177 0.45693395 0.9355541 0.08784641 0.72392094 0.7011906 1.0258976 0.5401708 0.77718115 0.7424699 0.24650042 0.25215074
라 0.41069376 0.35691175 0.2641739 0.2247629 0.21765432 -0.047700763 0.5976955 0.42848793 0.31507525 0.8867026 0.89940655 0.11628937 0.3935676 0.7970292 0.5036497 0.47556216
그냥 -0.27277577 0.3840523 0.5348363 0.7648606 0.29538038 0.80641884 0.04527138 -0.00776072 0.5840162 0.20579854 0.32720047 0.8141807 0.5566978 0.7072062 0.91216576 0.81256455
재미 0.85869986 0.41581526 0.29322642 0.099026 0.09234443 1.0863237 1.0013103 0.98036516 0.49368188 0.75249344 0.77289677 0.10278698 0.0053397003 0.8244109 0.16762957 0.9673286
시간 0.6254915 0.18546773 0.05252187 0.9751483 0.29421163 0.09431866 0.8416935 0.67718416 0.5597424 0.2705356 0.99329954 0.63380015 0.37131485 0.20428163 0.85917693 0.9240598
지루 0.8785023 0.27870914 0.26491854 0.33995116 0.32745594 0.32400724 0.20189747 0.051935025 0.47206107 0.36045447 0.81282836 0.8715291 0.054451633 0.034440894 0.008174374 0.9115662
중 0.7910753 0.5373138 0.7925986 0.63892424 0.105713665 0.16409975 0.5737355 0.2553408 0.5717651 0.31799716 0.53405166 0.70788234 0.35034627 0.9903038 0.87817144 0.29080427
재미있 0.3879495 0.72740984 1.1020062 0.5351949 -0.16495883 0.32325804 0.84654033 0.066844314 -0.04561515 0.14294377 0.41212124 0.8417824 0.11296023 0.8094119 0.7152853 0.5957286
년 0.09930912 0.45891574 0.2421379 0.6115275 0.5658325 0.2867092 0.62519157 0.93806976 0.10221058 0.9581127 0.3812217 0.14882167 0.83134794 0.6784244 0.109942615 0.71932304
10 0.31518358 0.44991624 0.42097035 0.992532 0.28782722 0.40483838 0.5798008 0.8806251 0.917922 0.7078291 0.5336408 0.60896325 0.52049476 0.30597034 0.9738795 0.056402754
였 0.8497539 0.43156162 0.19083504 0.32151288 -0.058365457 0.19027281 0.72343886 0.11375263 0.55125976 0.757439 0.3463551 0.14893585 0.8630874 0.60820967 0.7570433 0.6277021
잼 0.92560655 0.5510993 0.4680632 0.3748141 0.7961595 0.88777566 0.16113637 1.2919552 1.4743423 0.65651786 0.6516932 0.16247989 0.22056672 0.13409536 0.96141183 1.0825989
사랑 0.019614823 0.34498972 0.6375631 0.93636763 0.31321934 0.6816099 0.38144514 0.967754 0.10378662 0.45749477 0.6590562 0.24987595 0.6211862 0.6937435 0.51241255 0.19587007
못 0.5739633 0.22991386 0.028551476 0.39926973 0.95176023 0.2608045 0.039627153 0.10626436 0.81532705 0.24124718 0.26539424 0.042730846 0.21548449 0.8891109 0.09457871 0.19027773
냐 1.0416625 0.4604564 0.084993966 0.84564114 0.45160973 0.3675613 0.18224101 0.25925916 0.89039934 0.55286807 0.81548643 0.47064576 0.4286898 0.28165564 0.89997566 0.27557015
재미없 0.87636685 0.82634115 -0.024885494 0.10595915 0.5031578 1.1222774 1.0220633 0.18730679 0.52928275 0.19331922 0.7760341 0.47013143 0.56232995 0.5571271 -0.039731756 0.76332927
쓰레기 0.4274203 0.5418897 0.017487513 0.9654503 0.6366947 0.017717345 0.35809618 0.0020612464 0.3036955 0.22205414 0.72504437 0.75379956 0.35008863 0.5322258 0.1481057 1.0047295
서 0.7605835 0.5648999 0.5799372 1.0114275 0.46158767 0.7839756 0.7540045 0.9621052 0.70485234 0.46788862 0.5884218 0.6603376 0.7202424 0.9270032 0.49088714 0.46135178
야 0.795537 0.09783356 0.87486273 0.42015642 0.9320814 0.27319404 0.6199262 0.89403224 0.11953228 0.013077379 0.5017495 0.3794333 0.3690409 0.9810593 0.48428774 0.83334833
2 0.40322015 0.18187691 0.6776917 0.7421923 0.30437502 0.43903 0.9641707 0.49773479 0.42857698 0.05529384 0.37994325 0.77736247 1.1039884 -0.05427299 0.89818805 0.4564011
라고 0.85552365 0.035332546 0.64339435 0.76181334 0.7510806 0.03676806 0.64070576 0.23685627 0.9565399 0.77119446 0.87741977 0.3411382 0.72792214 0.38194975 0.70411944 0.31903648
니 0.9710544 0.24494791 0.62743425 0.17973372 0.36039764 0.06283725 0.19308273 0.107859254 0.59277594 0.29237318 0.4097938 0.32120624 0.6855552 0.85478616 0.25616848 0.11790921
면서 0.15451391 0.35683998 0.75151366 0.7239443 0.772117 0.77045673 0.15436839 0.8850862 0.50323 0.2615978 0.8264088 -0.0031740002 0.18247838 0.46718583 0.13731466 0.80707455
번 0.09786207 0.90150607 0.48590216 0.60664606 0.96153903 0.1483039 0.85243434 1.0288948 0.22740343 0.33694524 0.6236407 0.47375235 0.12621477 0.94136304 0.5488791 0.4111708
다시 0.6692976 0.8665317 0.28340653 0.93863 0.35727113 0.80077624 0.5656036 0.5558773 0.25901452 0.46490556 0.19767332 -0.047414582 0.82671446 0.9411734 0.18703592 0.090945564
나오 0.7096739 0.23534222 0.37163013 0.7091045 0.37510625 0.22416069 0.60848904 0.94492036 0.30864263 0.3211497 0.8005208 0.5988697 0.7270915 0.475676 0.70151997 0.16544245
작품 0.8009764 0.66219354 0.47685996 0.33417097 0.6360501 -0.033029802 0.6150208 0.9263313 -0.050595846 0.33991587 0.27056375 0.04587163 0.047729515 0.4138252 0.52668464 0.4598519
이거 0.33013812 0.7486525 0.5574882 0.6090122 0.34811202 0.49955916 0.67910707 0.21939622 0.74561876 0.262371 0.76758224 0.029158128 0.618113 -0.06988041 0.46301895 0.31646544
하나 0.439814 0.1369497 0.60741353 0.3115181 0.76550144 0.57594186 0.6679654 0.46515703 0.7791478 0.2425029 0.16095336 0.61789584 0.5680855 0.6433935 0.44957328 0.19650795
줄 0.48726854 0.8126126 0.21239811 0.07649781 0.084394455 0.8933988 0.6318541 0.87241924 0.7085731 0.22097674 0.6190388 0.0051671313 0.35132247 0.816013 0.3685809 0.898679
해서 0.7425946 0.3536007 0.167467 0.86210406 -0.015434521 0.6682824 0.1506036 0.9366397 0.11457133 0.080007866 0.7298784 0.4732858 0.36871272 0.3105264 0.4120065 0.28062543
개 0.61547226 0.12266636 0.08617945 0.059556276 0.7987008 0.34903046 0.29437876 0.9980973 0.3034878 0.13366555 0.8095768 0.5623676 -0.06368755 1.15764 0.9292723 0.82627195
정도 0.7244103 0.5232709 0.38669708 0.48298043 0.7877572 0.9389058 0.8972263 0.4891181 0.842739 -0.009728383 0.5836266 0.27362227 0.10049222 0.088732496 0.78837895 0.17890334
남 0.60850805 0.115547925 0.09565151 0.8448326 0.059274346 0.8729281 0.46044394 0.7789619 0.9610388 0.93324804 0.80595225 0.8952921 0.121062964 0.78382725 0.8345771 0.5437538
마지막 0.34797677 0.3137365 0.9039226 0.28519276 0.87133086 0.5548256 0.08924927 1.121304 0.9245546 -0.004268964 0.39037195 0.76924855 0.13660026 0.42838895 0.38173464 0.4317291
끝 0.79243433 0.28013074 0.72255343 0.5988881 0.5324259 0.2772461 0.24807845 0.51749694 0.42531067 0.80200166 1.004021 0.70696867 0.20428345 0.1776457 1.0051694 0.7374809
액션 -0.069197625 0.29293486 0.5428027 0.421483 0.1965746 0.70838493 0.9081099 0.41523805 0.54557484 0.8438153 0.47218287 0.5618988 0.78606176 0.4995792 0.8955734 0.3432708
이건 -0.089096114 0.2292957 -0.07931341 0.56189716 0.6614736 1.0509316 0.4268546 0.4756783 1.2606899 0.48132598 0.44346008 0.96644086 -0.041277 1.0354961 0.7799626 0.19369514
임 0.9489314 1.0323457 0.4059881 0.17847589 0.36568645 0.29435977 0.7972819 -0.06009065 0.14890057 0.4594388 0.91253585 0.05317115 0.13237716 0.6778899 0.60164565 0.03300538
건 0.51809573 0.41390744 0.49625394 0.7659869 0.57899684 0.6781768 0.5073193 0.10424803 0.4759132 0.48527274 0.34957442 0.77877975 0.97416514 0.25124422 0.12968367 0.44446528
ㅋ 0.44698906 0.35246402 0.025108919 0.79835653 0.18435791 0.28529152 0.6035901 0.1640793 0.42126527 0.961985 0.85768634 0.18899436 0.19233273 1.1124953 0.06406111 0.27077
3 0.7025879 0.68579507 0.34152994 0.24262564 0.72270036 0.8298866 0.6475796 0.36274064 0.30244705 0.2639366 0.69932353 0.44071472 0.5672236 0.41034958 0.75606257 0.15612857
기대 0.058890674 0.40582246 0.13283819 0.58698696 0.16593802 0.15828848 0.7466512 0.1158067 0.557338 1.0194724 0.59867585 0.82538146 0.37189367 0.36490676 0.3862613 0.38627067
입니다 0.024550762 0.41392863 0.44401786 0.8582734 0.7881139 -0.09578532 0.56453204 0.78856456 0.34973553 0.9518021 0.80204225 0.6319729 0.6083238 0.5484636 0.6591759 0.08488153
라는 0.45699826 0.76216274 0.16826949 0.46189958 0.8876708 0.49544704 0.21363789 0.63493365 0.63110393 0.45321077 0.71558106 0.06310613 0.119822465 0.56632096 0.7257007 0.54909945
분 0.5937399 0.2785529 0.4544785 0.8294073 0.76358235 0.7338544 0.19276513 0.31735313 0.16765471 0.69671386 0.5776198 0.22917698 0.9655464 0.1771258 0.36308536 0.7706437
완전 -0.029043794 1.0634729 0.09266636 0.6107557 0.34141207 -0.099831656 -0.09825242 0.39613438 0.9483222 0.35854417 0.8185694 0.4397057 0.8119661 0.37044606 0.59513104 -0.025295531
다는 0.23308268 0.49527514 0.30976167 0.023252567 0.4950669 0.5145052 0.42004892 0.59882027 0.8279742 0.61455536 0.712417 0.3259859 0.1318652 0.6464998 0.6308814 0.79389673
참 0.76626456 0.28145707 0.29009575 0.91259575 0.93424076 0.1435027 0.43951365 0.9197371 0.5990228 1.0113553 0.7748837 0.66191715 0.58406585 0.30320194 0.22070561 0.17367381
많 0.72494787 0.18774043 0.42038172 0.9360968 0.799528 -0.08411639 0.2133342 0.16828412 0.826779 0.67724097 -0.033373438 0.37501976 0.6418857 0.40844092 0.7492108 0.16504785
처음 0.45795214 0.59756166 0.26850006 0.68376434 0.6620867 0.55748224 0.09607363 0.77299803 1.0436999 0.10328245 0.9186678 0.63928914 0.5588197 0.12515171 0.9106824 0.3443707
장면 0.877091 0.2981425 0.706909 0.38013664 0.48436728 0.32176524 0.6531426 0.5168301 0.7847894 0.2083401 0.5834022 0.44912052 0.22404665 0.6790905 0.34555548 0.19297566
대 0.95490074 0.4467475 0.8169908 0.59973484 0.8826037 0.44212404 0.55997145 0.46214333 0.49759707 0.2858272 0.15995404 0.7429797 0.24984139 0.1931823 1.0098383 0.28282937
아깝 0.83583814 0.91263384 0.32670859 -0.09590764 0.5188281 1.0578735 0.19651894 0.94984174 0.34066778 1.2088661 1.3574657 1.1088638 0.14956021 -0.17680138 0.32863155 0.33887336
다가 0.33224005 0.044805184 0.5874346 0.39475825 0.42624378 0.6780831 0.70988864 0.47180802 0.6444915 -0.25539893 0.37658805 0.74055713 0.45849222 0.5753711 0.21230243 0.3685971
으면 0.29645982 0.49013767 0.6312045 0.08934306 0.3816209 0.6851335 0.06365172 0.40878657 0.5149993 0.69706535 0.74425346 0.7174145 0.3307024 0.31836367 0.76245725 0.5997048
지금 0.91823393 1.0304785 0.8405916 0.5571639 0.119077474 0.32178587 0.6654156 1.0921866 0.67891467 0.23968743 0.30584788 0.58896303 0.30172616 -0.026841503 0.86337525 0.2501549
모르 0.032360937 0.03263323 0.44491023 0.09385007 0.99280924 0.6850419 0.36672705 0.91896886 0.8781381 0.92274505 0.8192525 0.30064896 0.28189707 0.8362326 0.6210864 0.3164022
이렇게 0.0664156 -0.21714503 0.55364543 0.74477816 0.29511362 0.66896886 0.3330597 0.27176934 0.46516404 0.5869037 0.04367161 0.33247042 0.36702546 0.20842034 0.11201838 0.6442789
' 0.72371995 0.318455 0.77929 0.18043792 0.27362284 0.30164808 0.9697171 0.61212456 0.4588384 0.68891835 0.17821164 0.50770706 0.74273735 0.5112332 0.61560816 0.41459915
편 0.94495946 0.7721321 0.8795314 1.0248121 0.24855572 0.9222685 0.7786295 0.34495914 1.0612978 0.5187418 0.4798773 0.21975201 0.779248 0.4792252 0.9550771 0.7526713
일 0.6055078 0.30896762 0.93475467 0.4707834 0.29828793 0.6792351 0.04348396 0.33117086 0.25478318 0.63241434 0.8507174 0.59668386 0.30471593 0.161424 0.66360754 0.3007288
성 0.7563015 0.07310312 0.4668012 0.5466552 0.15658027 0.14516981 -0.08241864 0.17617387 0.90820795 0.23168299 0.5095244 0.9818758 0.7369832 0.81685805 0.27220005 0.15027112
돈 0.4996992 0.10390399 0.06632715 0.9131025 0.5555337 0.82634425 0.63244313 0.22372842 0.2552487 -0.072144635 1.1206628 0.69920963 0.029134484 0.28661823 0.71891654 0.45473522
이게 0.77305466 1.0130869 0.5804055 1.0633445 0.4271219 0.7518606 0.5235451 0.4669259 0.38906118 0.020948486 1.1220676 0.4677602 0.2731188 0.24271967 0.8863184 0.7670807
느낌 0.61557907 0.57290685 0.6696666 0.71435434 0.06898852 0.899345 0.7354758 0.76946795 -0.02749574 0.2118023 0.84473324 0.7108239 0.82659596 0.09430937 0.14692828 0.24129541
시 0.41163924 0.3856199 0.3300259 0.20879902 0.3628406 0.13669522 0.1876519 0.34327683 0.4184797 0.6934901 0.14086106 0.47280326 0.7651515 0.08050827 0.9545895 0.67723197
이야기 0.40681982 0.63731456 0.53324395 0.2059941 0.3724666 0.073266454 0.2803903 0.38948074 0.50392807 0.6522397 0.43202522 0.7306588 0.4143976 0.71321934 0.75785476 0.455457
최악 0.97343343 0.670554 -0.1178038 1.0216311 0.7945052 0.2613708 0.062239457 0.123103335 0.28570172 0.21440028 1.1490486 0.6723267 -0.045832343 0.48757082 0.8433873 1.1724045
된 0.58021337 0.79064685 0.77596915 0.37538955 0.32962963 0.8304079 0.73990124 0.85278064 0.08499239 0.46767768 0.7050465 0.99235874 0.23112622 0.52428097 0.28366798 0.97960865
봐도 0.5098199 0.4140752 0.74465233 0.6913122 0.24439774 0.8894421 0.7556437 -0.027698072 0.07563108 0.64636683 0.31979486 0.27313542 -0.052153535 0.06038557 0.6894985 0.21367389
님 0.93867403 0.14246328 0.4805954 0.5930432 0.07551917 0.6028995 0.6084189 0.8320743 0.17559731 1.0135312 0.2987743 0.19488491 1.0510417 0.59488183 0.42800656 0.795301
어서 0.6736849 0.36775127 0.26261353 0.8108586 0.3244119 -0.06987567 0.6967331 0.15570103 0.31452358 0.3325242 0.15746817 0.83449936 0.22728708 0.6996518 0.06783388 -0.03709762
애 0.17675282 0.12793864 0.8685588 0.105042025 0.56839556 0.01670445 0.36252576 0.41679588 0.6730331 -0.02827975 0.36250424 0.57230043 0.4062913 0.3955081 0.62141556 0.5175758
전 0.33305675 0.27401775 0.31900814 0.28409514 0.8752383 0.5440353 0.8269903 0.30561846 0.5266279 0.9069548 0.7342703 0.481263 0.3298872 0.64580375 0.90825474 0.5533778
넘 -0.062544726 0.2607455 0.7064942 0.59489965 0.25556308 0.2960276 0.41439685 0.00095601834 0.3256278 0.074356 0.13039513 -0.051389378 -0.068532266 0.7750446 0.2843134 0.72541696
ㅠㅠ 0.0963819 0.74693173 0.6123697 0.7361282 1.1839033 0.9290543 0.044638053 0.82691664 0.9335306 0.36870974 0.80001336 0.480692 0.54696023 0.5734444 0.042779032 0.043192603
다고 0.67190367 0.5885092 0.18449764 0.00051492103 0.33338004 0.5415228 0.6571864 0.3307585 0.7928842 0.4900239 0.40831715 0.458591 0.20545693 0.7017034 0.5840759 0.76429236
인데 0.33522034 0.22187552 0.46465775 0.30914825 0.08979046 0.22230811 0.8532206 0.27304435 0.6092876 0.73642886 0.055878956 1.0095048 0.26546335 0.22809601 0.35806248 0.7087703
그리고 0.25954786 0.33633235 0.99486345 0.31679866 0.61031103 0.80258757 0.38545403 0.53255033 0.019178404 0.72608453 0.6460689 0.13074076 0.5614552 0.5681939 0.113662295 0.37852097
명작 0.5717565 0.8900782 0.2592097 1.1534058 -0.20928106 0.3471121 0.32233566 0.73755455 0.51215386 0.333651 0.5172749 0.3308919 0.078370266 0.18529375 0.83963805 0.013757765
여자 0.41346604 0.22833848 0.04059336 0.27330983 0.76431465 0.881669 0.6073345 0.4802654 0.4784172 0.31208703 0.52647614 0.08721137 0.41914612 0.7091468 0.31771716 0.06987244
이해 0.78323114 0.8066246 0.23794077 0.28295124 0.35277987 0.58046585 0.8923747 0.22916849 -0.05203857 0.37151018 1.114889 0.32819936 0.36228395 1.0135359 0.40503812 0.01915553
^^ 0.6623004 0.099358335 0.8282246 0.8707968 1.1050298 0.70237106 0.6171354 0.7223921 0.7110233 0.8891111 0.90155685 -0.12787616 0.3037373 0.85410136 0.21159619 0.27899864
난 0.76016694 -0.12745626 0.9408418 0.80603236 0.1874572 0.690521 0.6133787 0.6928992 0.7164628 0.6104311 0.13721958 0.4891294 0.6999138 0.52993715 0.31823966 0.14565137
역시 0.18736365 0.8834243 1.002941 0.4614666 0.077546604 0.89985806 0.69110864 0.62384653 0.85588133 0.17294614 0.005513629 0.7182304 0.17916219 0.72118545 0.16195036 0.5502724
또 0.39823344 0.6095987 0.10749573 0.51847005 0.3061794 0.18048249 0.90335816 0.29798263 0.43777227 0.12036232 0.2319336 0.5102015 0.10762462 0.9890509 0.68351054 0.23275481
걸 0.009348717 0.6143214 0.79077053 1.1704766 0.8716092 0.48496023 0.84906715 0.35162625 0.8769752 -0.08613746 0.2803609 0.40431973 0.6760224 0.20742613 0.804741 0.82663447
한국 0.027251583 0.5696312 0.4295839 0.7132574 0.74263114 0.02014551 0.40476698 0.7848646 0.5607121 0.14807805 0.13861983 0.5787454 0.10481987 0.64975655 0.5791412 0.4017487
이상 0.8757803 0.36211795 0.30409634 0.4432274 0.30870575 0.51801485 0.3177568 0.49453 0.43838444 0.00085025607 0.02284383 0.6148006 0.18231928 0.12122306 0.5441711 -0.07938428
부터 0.32303548 0.46094987 0.52565986 0.70949197 0.9348374 1.003008 0.53756505 0.7199785 0.31183848 -0.02998734 0.4586897 0.6247424 0.6371967 0.38081008 0.8234236 0.4249323
는지 0.43591514 0.5995451 0.26340505 0.646836 0.52916986 0.82846737 0.4545029 0.46442586 0.9905706 0.6117375 0.21075013 0.9321036 0.28102908 0.30859363 -0.02904591 0.39050508
많이 0.6206227 0.7885342 0.83369595 0.5278144 0.3513535 0.4844456 0.5218206 0.8926994 0.54007477 0.12893713 0.17140962 0.91721004 0.4120274 -0.19575389 0.54323506 0.7842639
에게 0.24957769 0.6145847 0.6001228 0.17404088 0.3315835 0.77764213 0.2333047 0.087723106 0.4851275 0.69222736 0.36141536 0.43031856 0.6170136 0.34742785 0.6187228 0.14305969
주인공 0.33113083 0.6519247 -0.083649844 0.14944983 0.50683147 0.7305984 -0.056706633 0.4468173 0.5306224 0.573261 0.75869423 0.91647214 0.06641852 0.41302788 0.7761914 0.13629632
별로 0.5266397 0.08050253 0.0043246113 0.69045204 0.84926593 0.5851351 0.09175829 0.60652107 0.29392493 0.35263008 1.1831908 1.0137359 0.7387235 0.5527118 0.5170249 1.0238004
받 0.24301915 0.28274587 0.5832882 0.953064 0.22393718 0.45062193 0.7777827 0.16121192 0.23956707 0.43040934 0.64611554 0.12032517 0.65929884 0.20165353 0.30499804 0.17387044
합니다 0.5447825 0.3953047 0.87436306 0.86309433 1.0117095 0.2754876 0.1917178 0.6785433 0.40520483 0.19006012 0.1626489 0.61591953 0.22014712 0.6908445 0.4796629 0.61970174
두 0.29621375 0.17975463 0.18507284 0.2790421 0.6718676 0.8060369 0.9461699 1.0418999 0.59700245 0.13594456 0.010174975 0.7006211 0.2615508 0.38594988 0.76721716 0.18706512
우리 0.43414995 0.947513 1.0367033 0.41297534 0.30838978 0.72980696 0.13547544 0.5742282 0.2680177 -0.015118513 0.12996224 0.5503567 0.4022886 0.33012226 0.5564723 -0.039762657
만든 0.82076085 0.62750745 0.17361842 0.3379209 0.56714326 0.28862762 0.542516 0.794661 0.47754863 0.9689481 0.32107508 0.8770556 0.7821799 0.6823164 1.0234711 -0.40798143
살 0.6522082 0.86846423 0.3425493 0.795185 0.578078 0.10573076 0.19187304 0.2975153 0.35431504 0.93557924 0.33851278 0.4095416 0.58162594 0.86885804 0.44086516 0.2992082
!! 0.8065751 0.14059104 0.32134718 0.12818092 0.26467282 0.29998887 0.4881232 0.529093 0.3552012 0.3182274 1.0497106 0.5325796 0.25556326 0.9298826 0.8515591 0.34558254
길 0.84564084 0.5725378 0.64495844 0.65930617 0.6244608 0.46130306 0.17486565 0.2620738 0.8703084 0.5041906 0.07320051 0.4347612 0.68932813 0.018557359 0.2201461 0.5725924
엔 0.54196906 0.4210933 0.8719724 0.6063958 0.26084423 0.34564036 0.35386872 0.8299043 0.17312467 0.750681 1.0220674 0.7052444 0.6288027 0.7052403 0.20338292 0.7788978
괜찮 0.33930716 0.27886406 0.9865792 0.3821815 0.18759406 0.58502436 0.82609385 0.9922028 0.36000735 0.9596878 0.54946727 -0.06837813 0.3648745 0.8667199 0.48092026 0.049907546
기억 0.58672965 0.11178077 0.73155755 0.26810172 -0.13639806 0.26417774 0.46417022 1.1426818 0.48171407 0.20605755 0.51746684 0.036876112 0.7143637 0.90120167 0.37395388 0.43565246
연출 0.13842858 0.74601483 0.7134766 0.69783247 0.04639619 0.58288455 0.5304914 0.34211877 0.6334132 0.07750485 0.96853775 0.8538782 0.89164835 0.3446841 0.17193557 0.4871305
한다 0.066992745 0.7589429 0.77380544 0.6836668 0.55720854 0.7628075 0.23109186 0.72408 0.5985397 0.046210557 0.21367054 0.7089739 0.67565376 0.101444885 0.17766105 0.5946191
때문 0.6646751 0.7208141 0.83785653 0.88554865 0.17980362 1.0097209 0.0015637066 0.056337576 0.14960632 0.5446772 0.6222312 0.8193463 -0.10035542 0.21523848 0.5148093 0.58478254
ㅎㅎ 0.79341984 0.023944207 0.51385355 0.18054515 0.17434187 0.5022539 0.39843833 -0.056876555 0.3284064 0.9445977 0.47778347 0.5385521 -0.06065304 1.0931933 0.17585662 0.24608834
이나 0.35486463 0.8267201 0.7065395 -0.038460128 0.50994503 0.47543713 0.44979924 0.05849555 0.9320924 0.23652504 0.5714235 0.88126546 0.28021294 0.39564133 0.35067666 0.407665
요 0.5707229 0.88833946 0.8938914 0.19169621 0.09563634 -0.008520778 0.7601452 0.8296412 0.5313262 0.41732743 0.17828146 0.95732844 0.07320333 0.27820998 0.31475818 0.32545078
저 0.36458835 1.0414743 0.16668375 0.4882389 0.56080484 0.54355067 0.15227145 0.7128629 0.75192374 0.10852102 0.18576038 0.8455516 0.09166236 0.66359025 0.9004264 0.7014927
재 0.7167178 0.5609124 0.44511408 0.85381633 0.08086674 0.7400315 0.94233936 1.0093154 0.20694208 0.78250283 0.34293592 0.46187702 0.065661415 0.11946023 0.5036236 0.24511927
꼭 0.618596 0.5213019 1.0052108 0.4276912 0.6571451 0.46899801 0.21708399 0.9053822 0.24506702 0.7911991 0.08475949 0.6019034 0.17809124 0.8758923 0.8594502 0.48749825
며 0.08281824 0.453828 0.40917116 0.8679948 0.33129838 0.7639191 0.20405726 0.2910639 0.21368212 0.4418913 0.2757601 0.41660863 0.8595242 0.9569863 0.18357654 0.46151003
현실 0.11218214 0.67238057 0.70817786 0.1104512 0.16514194 0.15420328 0.1898843 0.05977713 0.84374815 0.18193972 0.09356517 0.028033957 0.94325686 0.91396636 0.6919663 0.32925966
랑 0.41401124 0.2788817 0.8380157 0.3404933 0.53264564 0.9061293 0.95530057 0.7623504 0.7082776 0.38038388 0.24467191 0.25898767 0.6569113 0.15818983 0.67820054 0.5771062
긴 0.89175725 0.41173616 0.24206947 0.729743 0.43800387 0.91111296 0.22018753 0.8068871 0.55421835 0.21736088 0.86804783 0.29246044 0.6284659 0.5459313 0.8322192 0.6377672
ㅡㅡ 0.5052516 0.88227063 0.64496315 0.55060285 0.21806045 0.60621035 1.0428691 0.16341752 1.1390918 0.43316117 0.98794746 0.73585457 0.39505255 0.13870971 0.14021128 0.024847522
무슨 0.35102606 0.07710709 0.25182056 0.63509846 0.6616962 -0.035333432 0.41483843 0.23709147 0.478843 0.06663806 0.24594194 0.7640988 0.73507845 -0.055815306 0.73540753 0.63188314
내내 0.500677 -0.012545607 0.41415817 0.07090232 0.16719598 0.33497944 -0.054542754 0.94065404 0.9986933 0.947565 0.9115289 0.60323566 -0.041815046 0.07096166 0.83678514 0.43793148
결말 0.50248885 0.07573185 0.836412 0.8217622 0.9732112 0.7004008 0.5448194 0.1636736 0.3654722 0.6193757 0.56203043 0.230235 0.43496612 0.3051124 0.49231008 -0.07340626
죽 0.83893347 0.3967829 0.65610176 0.57033753 0.39922383 0.58750015 0.87288857 0.98987395 0.5976191 0.42326045 0.41533214 0.9821698 1.0067084 0.68115664 0.016040497 0.6979463
세요 0.109139316 -0.08525587 0.82985747 0.86787796 0.8522475 0.35354546 0.11594722 0.3004642 0.90040463 0.88248533 0.3394537 0.4802539 0.30269918 0.74980265 0.9156539 1.0246531
남자 0.43446898 0.6809828 0.54142666 0.91785604 0.037658468 0.7159108 0.09235774 0.271039 0.658758 0.43419698 0.89096606 0.69091547 0.3251974 0.28803366 0.7127161 0.6575436
전개 0.21878661 0.7021078 0.0035168359 0.52115774 0.08130652 0.6954926 0.6878385 0.7138077 1.1861279 0.40691647 0.5223745 0.6441319 0.6542746 0.15303694 0.4873971 0.5759164
마음 0.023876512 0.027031561 0.9458241 0.7834052 0.074486345 0.3881758 0.84543747 0.41834158 0.52679825 0.7353543 0.097431935 0.23012549 0.31470495 0.5823768 0.18981983 0.37692901
별 0.2175729 0.27325675 0.5521967 0.06859059 0.54288787 0.13431175 0.786434 0.21281767 0.89613825 0.65237033 0.51672626 0.36354223 1.0380712 0.5103499 0.04265896 0.23828281
소재 0.2788237 0.61247665 0.108726874 0.64737946 0.7315551 0.23900695 0.9598031 0.55504996 0.39287013 0.20609415 0.6134833 0.70903295 0.7951487 0.016205916 0.31091982 0.7341708
속 0.30852148 0.47168383 0.01060852 0.8479935 0.08687396 0.7709974 1.1168251 0.94266576 0.8317853 0.6177967 0.7145472 0.26639605 0.81376535 0.05025818 0.6430329 0.48785552
공포 0.38486776 0.6404566 0.77792656 0.8828635 0.9497842 0.47654825 0.5768704 0.62708443 0.44222733 0.2137462 0.41289136 0.24026234 1.021182 0.3445978 0.29403377 0.92217237
다른 0.14790027 0.51248723 0.57892174 0.6622497 0.45486397 0.51545167 0.28230068 0.23772766 0.42244703 0.7147477 0.12456332 0.39518386 0.8426878 0.35453272 0.3681735 0.60837704
아서 0.68385947 0.69379187 0.060504116 0.57160795 0.535795 0.49361384 0.3286207 0.9425824 0.39053643 0.7039281 0.5910112 0.17241322 0.79683656 0.5686193 0.9413861 0.28441143
씨 0.30406424 0.51357317 0.21210898 0.39691675 0.036963757 0.4548822 0.75347435 0.124596514 0.33941558 0.19458584 0.6177309 0.9924874 0.21507823 0.33314908 0.59543 0.4999995
인생 0.57456213 0.7464668 0.8290629 0.13873126 0.14256735 0.49815682 0.12182787 0.48572195 0.18933235 0.39781705 0.22283602 0.68888384 0.91860646 0.95255536 0.18568131 0.28983146
~~ 0.023543429 0.50218123 0.7457518 0.5024875 0.05655814 0.49118072 0.756644 0.50563097 0.68719494 0.23010369 0.07499664 0.8175009 0.7202489 0.32864147 0.17299938 0.49310663
짜증 0.91617256 0.012169737 0.08053879 0.87869024 0.67714274 0.42333886 0.17919758 0.4892863 0.4783824 0.20429523 1.0236902 1.0091028 0.57230943 0.3520015 0.845341 0.93127406
짱 0.88736165 0.3615612 0.6206436 0.63419664 0.6344696 1.1188239 0.2347872 1.0091648 0.70330715 0.42984486 -0.03977179 -0.0055799996 0.16448621 0.30548295 0.33586437 0.60556465
뿐 0.18062943 0.9344801 -0.04933474 0.019294212 0.6389922 0.7408833 0.28934932 0.29657775 0.45074746 0.65178686 0.63804656 0.02353579 0.5861022 0.4005966 -0.22368266 0.071043976
은데 0.5749013 0.13954593 0.49796724 0.58101505 0.8234744 0.6797776 0.84572315 1.1303548 0.2412126 0.71175414 0.6641731 0.7004249 0.67449415 0.59400374 0.6985868 0.62918305
아요 0.057471387 1.1568972 0.4594734 0.82878786 0.82871217 0.29522142 0.8744515 0.91613644 0.55604684 0.25714824 0.70345914 0.4085828 0.4289858 0.85046804 0.8869941 0.47773993
유치 0.6955351 0.8069962 0.54209983 0.07017418 0.8060129 0.14628904 0.8198456 0.14030173 0.999701 0.6627769 0.89222914 1.15289 0.7623411 0.5018037 0.017000467 0.8259087
필요 0.29411972 0.95269936 0.567458 0.8196095 0.43342286 0.8534901 0.030764624 1.1072128 1.2083577 0.055509925 0.7245789 0.8109753 1.358757 0.64410067 0.37631202 0.14773163
가장 0.2995691 -0.09071945 0.48475465 0.3514832 0.09192086 0.56559795 0.95653355 1.3162615e-05 0.8741383 1.083904 0.8206722 0.3844784 0.2868616 0.85533285 0.6985193 0.15601622
음악 0.17484857 0.3444246 0.33501023 0.7793487 0.7357002 0.6784306 0.58580023 1.0926877 0.2933459 0.3109709 0.55308235 0.49011764 0.326799 0.43544295 0.96674454 0.06739617
) 0.25305307 0.09768351 0.35846984 0.61071247 0.14466482 0.65793407 0.81329256 0.92903006 0.93872607 0.15084834 0.49430954 0.19703436 0.57580835 0.13471678 0.08856239 -0.0069936
일본 0.95697623 0.48214993 0.1156624 0.6886246 0.9038987 0.30251426 0.558167 0.3593749 0.6379139 0.666866 0.5748174 0.74625826 0.507637 0.4839113 0.58302826 0.5973343
낮 -0.09441181 0.40591332 1.1338651 0.9541438 0.9774064 0.99589574 0.34996438 0.14625035 0.7231787 1.1256499 0.28065324 0.76527977 0.6102628 0.9774135 0.08566933 -0.045666043
오 1.0294517 0.24345034 0.8463394 0.8631833 0.040615216 0.45633116 0.5072397 0.64969754 0.7941963 0.4700987 0.8644065 0.3414014 0.58569103 0.60050523 0.26616046 0.7851964
;; 0.13931563 0.27573818 0.7150676 -0.029999686 0.51460654 0.13673067 1.0663725 0.6900206 0.9360855 0.15409254 0.39421254 0.34114882 0.19966209 0.3612658 0.063632526 0.25674057
아이 0.52779484 0.87745893 0.77127665 0.84484565 0.73963463 0.3970288 0.70177025 1.0059738 0.22053279 0.49517778 0.14997156 0.8447929 0.46249223 0.52721214 0.18030488 0.70523006
반전 0.36849618 0.58156735 0.5358867 0.51693165 -0.10304668 0.58847404 0.25522032 0.31593704 0.792883 0.5544972 0.72835654 0.19214448 0.4415531 0.7537034 0.35416314 0.35586184
데 0.52829677 0.39631236 0.70659244 0.33634576 0.46660662 0.5669195 0.25074404 0.66801536 0.024171038 0.43933737 0.7459231 0.73185194 0.44395933 0.2835821 1.0110433 0.08838196
수준 0.7576358 0.23747963 0.04889431 0.28160012 0.8717814 0.9776032 0.13273765 0.08908985 0.016141687 0.52797806 0.5462685 0.48810726 0.6733734 0.70641047 0.25569913 0.3566305
다니 0.8348529 0.5575561 0.39826602 0.7162913 0.63547826 0.0036112422 0.2959236 0.8853161 0.48754743 0.5311768 0.6987435 0.47302598 0.6201183 0.5137793 0.7665545 0.50891757
웃 0.7996977 0.86367273 0.9502446 0.34614325 0.5048313 0.5357829 0.6665215 0.4479502 0.605218 -0.03643347 0.15898843 0.52858627 0.12079551 0.32468402 0.2140181 0.46539477
매력 0.50743467 0.80756086 0.9645865 0.7521079 -0.03232851 0.15559322 0.58893657 0.51674587 0.080129854 0.5942371 0.1789635 0.26521525 0.19884913 0.6028586 0.35180256 0.61893183
맞 0.85406643 0.56097823 0.60990626 0.4272722 0.09453258 0.67727834 0.7797117 0.29502264 0.82928723 0.24078712 0.8517325 0.64836746 0.41650105 1.0476276 0.20638825 0.9731648
인지 0.45098442 0.50468665 0.98975503 0.3628721 0.61207724 0.10679734 1.048558 0.14299642 0.24964465 0.15595727 0.26672912 -0.08895486 0.5439977 -0.055874407 0.37227303 0.27074626
가슴 0.040507864 0.5757372 0.68323916 0.941879 0.15619954 0.57988185 1.0420684 0.88982004 0.5580895 0.4825597 0.1884612 0.19398823 0.23698644 0.54230636 0.45204136 0.18679018
없이 0.5385288 0.78907776 0.6715094 0.17811352 1.0900087 0.4819817 0.46657193 0.68244296 0.95034504 0.31342256 0.51627594 0.352239 0.6726665 0.60618085 0.8533094 0.9523894
원작 0.34920168 0.8497737 0.09982159 0.35563707 0.4733617 0.7813328 0.8729069 0.555897 0.85110486 0.24079005 0.849221 0.85847884 0.45715478 0.31426102 0.74110615 0.64489657
ㄷ 0.47641477 0.745104 0.70879203 0.14518222 0.29016623 -0.030024031 0.4753494 0.38180602 0.34394187 -0.15966634 0.4604616 0.23806901 0.062581114 0.5053441 0.6031381 0.58850586
인간 0.30083063 0.33072072 0.6582898 0.7442014 0.16651408 0.47343546 0.5809887 0.66742665 0.9691502 0.9806991 0.6902406 -0.020980023 0.6060344 0.030634606 1.0396146 0.8363204
굿 0.3879096 0.8305376 1.1143305 0.3992027 -0.0017244143 0.6650332 0.32005522 0.5603679 0.25343165 0.36054924 -0.11499643 0.14770098 0.60857475 1.0909897 0.3607764 0.5560179
높 0.5659219 0.61871564 0.030596217 0.52766675 0.64978135 0.53927916 -0.21643691 0.260161 -0.033103045 0.5339241 0.26669517 0.5395078 0.57308096 0.19567956 0.47188765 0.77277863
ㅠ 0.22017477 0.22288486 0.22153223 0.12337966 0.17256823 0.4380175 0.20331025 0.41415885 0.48558012 0.91925025 0.85515714 0.48914483 0.4399922 0.9387396 0.8946365 0.6030653
밋 0.22460161 0.46345726 0.75388044 0.66833246 0.2978335 0.44391876 0.71248704 0.3338494 0.037954584 0.14311841 0.4355738 -0.033571623 0.021191208 0.39027226 0.46008208 0.5692924
( 0.4247364 0.3738675 0.8170449 0.48060223 0.03383995 0.30598798 0.81552285 0.7432875 0.8485814 0.22795027 0.7834714 0.32386118 0.7998759 0.52699864 0.55941427 0.23953404
급 0.6736799 0.67923576 0.16021618 0.98242337 0.59586525 -0.13991441 1.1269982 0.84080076 0.16952251 0.77809936 0.14448991 0.6194009 0.90099686 0.68628556 0.26006767 0.5266611
만드 0.53802574 -0.039769277 0.020221729 0.736107 0.11055993 0.53630346 0.77267206 0.18436015 1.053024 0.36949545 0.7098509 0.47874877 0.40083182 0.48041287 0.9930147 0.3986845
눈물 0.40291572 1.0785842 0.8211576 0.69510835 0.49016422 0.9737153 0.21076298 0.057069212 0.9062634 0.43402845 0.04175237 0.008844995 0.1647398 0.88287944 0.39303017 0.1321604
보여 0.3245149 0.34077778 0.21980196 0.18864954 0.26702294 0.48230463 0.9808353 0.74772954 0.4960743 0.59971756 0.25191095 0.65421623 0.07382658 0.4610967 0.40490288 0.03463234
준 0.6102216 0.4917281 0.20962155 0.54705834 0.35277194 0.773119 0.4561286 0.68531543 0.38535985 0.7454071 0.3932394 0.73533046 0.4872583 0.76845497 0.57317734 0.8439198
찍 -0.0633973 0.47855705 0.015248281 0.7086952 0.8254257 0.20600417 -0.037551116 0.09004025 0.4770095 0.56593615 1.0950001 0.040773705 0.90331715 0.7749649 0.8213575 0.32859582
인가 0.28120443 0.76544744 0.015766839 0.11482825 0.9529216 0.50609785 0.4602572 0.2825384 0.48818964 0.7523345 0.41011918 0.13253544 0.5344588 0.42816654 0.18276916 0.42876115
노 0.76158744 0.20940317 0.457928 1.0788127 1.1223933 0.018564781 0.9296659 0.20956509 -0.08242508 0.86239576 0.6141092 0.9204878 0.86825264 0.17266907 0.6591185 0.76540667
용 0.37841254 0.29089698 0.066544905 0.17735578 0.18245043 0.8236273 0.542826 0.6576425 0.72197074 0.33235255 0.6155489 0.34496617 0.56645906 0.59635484 0.29389843 0.31391433
을까 0.3292355 0.62364006 0.9009838 0.13096762 0.3443623 0.853117 0.3745974 0.80698276 0.8166538 0.68460083 0.30431315 0.6945738 0.8455809 0.39797866 0.3331433 0.83402926
화 0.10486632 0.5406136 0.90628266 0.43003508 0.5894048 0.2704056 0.92540944 0.035046607 0.28252226 0.02499129 0.45673147 0.79897624 0.796773 0.29992482 0.2211286 0.6913109
코미디 0.71899724 0.9801979 0.2129415 0.9777266 0.9048382 0.7803208 0.92220694 0.93939227 0.28880966 0.5653732 0.062083445 0.5266185 0.7652358 0.26622847 0.8429991 1.0159707
여 0.35397306 0.31136027 0.27819985 0.73373604 0.20313108 0.84536976 0.26177555 -0.016202696 0.2728476 0.6573651 0.8949493 0.47819135 1.1006172 0.54301405 0.5479651 0.2923592
마 0.092643395 0.04705753 0.5974508 0.61306846 0.7054841 0.22025627 0.25011304 0.60739505 0.7833718 -0.017616589 0.82712847 0.16246292 0.7932788 0.21742906 0.50758207 0.094330646
쓰 0.52782315 0.1748889 0.382718 0.10320006 0.53230727 1.0555613 0.31026053 0.18222424 0.6726861 0.7302766 0.5334613 0.7919184 0.59068644 1.033153 0.8790148 0.57942
모든 0.5397883 0.71017975 0.45205566 0.35912216 0.62622964 0.79351634 0.08256565 -0.010718507 0.038868148 0.787042 0.006399598 0.6807821 0.11010354 0.48137283 0.6019538 0.44858968
신 0.87337524 0.7198633 0.27177924 0.4034729 0.08699242 0.6497685 0.086919226 0.8835262 0.3246577 0.38405514 0.63891655 0.6977016 0.56631064 0.88803804 0.3928882 0.7109259
5 0.4367623 0.31820074 0.07796664 0.25862983 0.11409611 0.45414367 0.8528779 0.9080366 0.94426334 0.5180032 0.48672903 0.3466681 0.06862198 0.23999831 0.57626754 0.22243187
아직 -0.056838546 0.96008795 0.18721761 0.055745456 0.032138918 0.67465603 0.45234534 0.22820342 0.20678054 0.32763785 0.4760133 0.04158836 0.20564085 0.51261276 0.22485453 0.7421201
처럼 0.7142383 0.06672339 0.23463494 0.73784846 0.9046381 0.52899784 0.48730242 0.10702172 0.59864146 0.802573 -0.0015544211 0.14213458 0.86588436 0.85549027 0.55807537 0.04076034
눈 0.8311027 0.24593352 0.07697505 0.6882909 0.98126537 0.3462207 0.57994753 0.81130344 0.13265441 1.1478081 0.53929883 0.159221 0.615972 0.8446301 0.4915259 0.5951142
추천 0.6069289 0.67687494 1.0027986 0.6591303 0.44927743 0.9656071 0.44326904 0.32598373 0.16449456 0.11268885 0.36258638 0.24001399 0.75372875 0.9354411 0.35142186 0.011199125
아닌 0.51198184 0.29814315 0.67933965 0.4624695 0.93734217 0.8396572 0.5008534 0.10066407 0.14289185 0.5298431 0.483001 0.9752039 0.80309707 0.78153354 0.5414013 1.0147996
울 0.6332467 1.0832187 0.3365176 0.48773906 0.52499306 0.16079439 0.018895576 1.083021 1.2063686 -0.014845033 0.49102953 0.23979557 0.6735409 0.7657042 0.71305406 -0.20787284
자체 0.65254885 0.12541197 0.59842914 0.59080637 0.80181724 0.19399056 0.60504353 0.72628367 0.12937993 0.3949341 0.3590824 0.13019148 0.28674656 -0.025162987 0.9156532 0.79503155
몰입 -0.06446122 0.27540842 0.6858058 0.726551 0.8612716 1.0973287 0.11858347 0.81876373 0.08617206 0.66036505 0.34185404 0.35765022 0.09451093 -0.07673057 0.32902193 1.0220026
4 0.9422353 0.41738886 0.7807254 0.27941433 0.27147707 0.8742115 0.86610097 0.5509848 0.986242 0.4342996 1.0640706 0.11624847 0.40623266 0.087439455 0.6959525 0.1257914
대박 1.0725675 0.5460926 1.0968297 0.5016914 0.08780146 0.796449 0.022481564 0.97247803 0.86262023 0.70515335 0.5161901 0.5354173 0.4207128 0.6213304 0.30645666 -0.079818554
몇 0.36811545 0.29272327 0.8021067 0.33578783 0.5718873 0.6245983 0.07321785 0.7544354 0.3966924 0.34296468 0.7338372 0.46791995 0.1920249 0.7880317 0.23878178 0.63133043
스럽 0.5419172 0.7891757 0.36713812 0.4072972 0.5018607 0.85394573 0.3331981 0.7816592 0.88207245 0.70586413 0.35271102 0.21775343 0.2855773 -0.21074004 0.08210315 1.132061
실망 0.5010663 -0.043453377 -0.239637 0.40750235 0.7824204 0.27223605 0.80767024 0.35648182 0.68527836 0.00014091696 0.9463358 0.4046665 0.32147896 0.9940284 0.15597486 0.3767512
는다 0.43210897 0.55738705 0.36611837 0.83440703 0.15402317 0.78165674 1.0476669 0.32645005 0.075122625 0.43693447 0.8042085 0.54758996 0.2543782 0.10283385 0.29044026 0.30518755
대한 0.13914734 0.53440654 1.1305007 0.79146504 0.80692136 0.60587686 0.63332564 0.47065258 0.7177522 0.7280573 0.36531967 0.37773114 0.4464924 0.82024395 0.6185171 0.642893
죠 0.87082636 0.21127567 0.6750858 0.4603836 0.022654882 0.90137136 0.79689074 1.0605011 0.8538689 0.67336565 0.40575284 0.7062711 0.051336244 0.8587507 0.42331833 0.4321133
란 0.6775337 0.09245342 0.59835714 0.50156575 0.69184244 0.3850278 0.59024876 0.7712419 0.25823623 0.19297414 0.23862423 0.7807917 0.12907164 0.6419487 0.8465469 0.4723078
그런 0.46927607 0.6095087 0.5043483 0.16682976 0.5100527 0.050557513 0.5154712 0.6264607 0.48541453 0.66870034 -0.022510517 0.54705113 0.79727215 0.4837078 0.4442206 0.93794525
솔직히 0.9298919 0.16650735 0.8876129 0.84191734 0.6603445 0.45782155 0.83875537 0.13949175 0.9204839 -0.08531621 0.42689002 0.23095268 0.5798944 0.49457708 0.77597684 0.65992993
캐릭터 0.5903302 0.35819536 0.63395566 0.90181655 0.56465477 0.5270417 0.8234227 0.20235763 0.8453781 0.47653288 0.08851499 0.657966 0.5527918 0.56976724 0.35569155 0.4410804
ㅎ -0.05753254 0.5986166 0.45160425 0.82656926 0.22482662 0.19109553 0.73705995 0.6741071 0.41023025 0.7685771 0.40230379 0.27350932 0.4951141 0.59611493 0.7904883 1.0482775
모두 0.15795274 0.47091308 0.9467766 0.92127585 0.49632028 0.5635193 0.8209405 0.4603417 0.4642424 0.85897166 0.6283875 0.7005325 -0.027701398 0.1688489 0.8903604 0.9762689
아주 0.31035954 0.9116557 1.0728769 0.27625662 0.4262504 0.32063672 0.8481797 0.028932197 0.8323453 0.7126693 0.0586254 0.37638852 0.95382804 0.6212138 0.5264478 0.6234501
- 1.1276436 0.8386202 0.20185132 -0.058699496 0.19893357 0.4991738 0.74111027 0.8701848 0.2726585 0.55385077 0.3599027 0.74497205 0.4193759 0.81610435 0.70121366 0.29449528
가족 0.77564454 0.74446577 0.79620457 0.281464 0.776912 0.4180636 0.57057935 0.62090474 0.22875893 0.30487928 0.20921935 0.5853813 -0.119136445 0.6323822 0.4461023 0.11479582
여운 0.28643292 1.0972003 0.5084132 0.902115 0.2169089 0.79915076 0.13232271 0.8451637 0.43409815 1.0620741 0.7216812 -0.0059782285 0.54933065 0.78544724 0.6035519 -0.10483996
건지 0.6881996 0.5594561 0.4305239 0.5753927 0.72507274 0.20485938 0.5011182 0.5754498 0.63721734 -0.04653632 0.32899174 0.98991954 0.99184585 0.76060647 0.9830101 0.9379748
전혀 0.58118063 0.47324416 0.5305452 0.007906864 0.59333324 0.48877776 0.8633032 0.18885636 0.7627901 0.5870643 0.5185529 0.46147874 0.7341908 0.24762385 0.2570257 1.0089612
나라 0.81592894 0.24343115 0.6321688 0.8913034 0.6391634 0.7684821 0.46494493 0.73775125 0.9436461 0.319778 0.29001084 0.4816235 0.43203217 0.6859247 0.26471227 0.5377153
연기력 0.021048296 0.2132484 0.15893942 0.2325124 0.48681176 0.17866787 0.52614707 0.8600305 0.87704605 0.86810935 0.4626396 0.65590686 -0.00036730536 0.47100234 0.3296017 0.8165965
후 0.40738788 0.6133023 0.03708026 0.8282674 0.9232635 0.80001503 0.6959285 0.21926272 0.50826335 0.86409694 0.35497817 0.53466046 0.17468011 0.36396503 0.47282287 0.1462171
다면 0.2987975 0.4303131 0.20697813 0.7811061 0.85098255 0.9134895 0.31115443 0.8594224 0.58142114 0.23095867 0.33927956 0.2922152 0.7022215 0.8404896 0.73879665 0.2039003
될 0.35065746 0.6421537 0.3069871 0.43220824 0.50458395 0.33913374 0.67097044 0.4120304 0.6882916 0.37965205 0.3486473 0.35563886 0.3087831 0.6017923 0.17140333 0.5246611
뭔가 0.6629784 0.5021779 0.22785348 0.601769 0.2722969 0.24965413 0.18503796 0.78845394 0.48419422 0.9639322 0.7858088 0.22651866 0.24843082 0.36073375 0.8300767 0.98792434
그래도 0.24428 0.1832611 0.1578035 0.80209655 0.47543347 0.5999445 0.17891651 0.85114974 0.83234745 1.0302007 0.24663593 0.9798448 0.5004198 0.22045738 0.71170706 -0.082932524
; 0.67851454 0.7408891 0.7442494 0.723312 0.33696708 0.680293 0.9187696 0.53678554 1.0355805 0.29241174 0.34200183 0.73539954 0.50801843 0.28196397 -0.061172165 0.06186995
시리즈 0.63405293 0.7637507 0.88871455 0.76453143 0.58672035 0.5243767 0.3212919 0.68903446 0.6781042 0.266206 0.72015214 0.19365825 0.46884194 0.39532885 1.0035192 0.25495112
근데 0.13517456 0.28076535 0.89449364 0.8482852 0.54773134 0.8910471 0.8222908 0.09354372 0.9089677 0.9242418 0.48217338 0.14994642 0.6600692 0.8024668 0.9036983 0.6366307
작 -0.038939714 0.46884096 0.0005118601 0.38912755 0.62948805 0.8556551 0.84928095 0.31700847 0.25129706 0.23683053 0.8637274 0.34725562 0.7387854 0.43577883 1.0481027 0.42482892
표현 0.50726956 0.36538386 0.98989457 0.23745137 0.10566157 0.6014129 0.74088365 0.64449286 0.6446231 0.71874547 0.53881204 0.27795482 0.056308135 0.9965929 0.7278176 0.061364997
모습 0.2538025 0.20348147 0.31602955 0.24999292 0.5337308 0.11997933 0.3894952 0.89019 0.6984242 0.9383889 0.09950358 0.50830877 0.08710867 0.2741992 0.15538734 0.1010264
제 0.5596465 0.82226014 0.27189925 0.35905048 0.72010857 0.11331351 0.69966304 0.7924096 0.19124697 0.82605183 0.8420364 0.9653748 0.47535816 0.8178932 0.22637986 0.24652474
공감 0.3626839 0.94144195 0.33449453 0.9926243 0.39833012 0.43538645 0.57525957 0.60633945 0.70014924 0.73778975 0.604684 0.2080477 0.6556345 0.6927166 0.441683 0.41544357
밖에 0.9856416 0.008287975 0.7624028 0.6898132 0.15479717 0.18702145 0.20146827 0.82602507 0.11894663 0.35823596 0.41372114 0.72065073 1.100831 0.4089365 0.7490168 0.37558416
먹 0.32535905 0.6847869 0.71451694 0.24166921 0.69502527 0.691479 0.93705654 0.22709177 -0.007954181 0.09060733 0.86464626 0.588953 0.30784914 0.28077596 0.7692238 0.8151855
계속 -0.012945141 1.0184805 0.43541595 0.7917131 0.07326981 0.50666904 0.578683 0.5143271 0.700861 0.8263362 0.16722594 0.6131838 0.7573454 0.6308225 0.7960307 0.9693367
이랑 0.9278237 0.39882636 0.42812327 0.30981183 0.45319822 0.67907035 0.21404314 0.5506316 0.77463317 0.49007973 1.0860966 0.43538383 0.38276988 0.41727355 0.24248451 0.369669
제목 0.44486403 0.79825556 0.01308253 0.12509444 0.9424299 0.29070836 0.26838052 0.21478757 0.45227405 0.8425489 0.3908635 0.07617733 0.087524086 0.1990405 0.9032863 0.2659077
"" 0.721507 0.20236687 0.3259096 0.16880122 0.4057541 0.39220166 0.48303843 0.357859 0.2761086 0.11483593 0.3479585 0.2158426 0.74754524 0.81966835 0.2610084 0.37458462
7 0.3168621 0.62893033 0.3190232 0.20245871 0.62109625 0.21665609 0.3200508 0.89670926 0.9179012 0.7614901 0.3600423 0.047636673 0.53223926 0.4536047 0.86151266 0.13466239
극장 0.3631837 0.57635117 0.08826567 0.4605337 0.6991635 0.23856725 0.58352214 0.79727936 0.25695282 0.7016046 0.31267682 0.8428367 0.75518155 0.04554593 0.37913948 0.60067844
비 0.15527377 0.3176734 0.14120245 0.36573547 0.81460744 0.4335641 0.27957797 0.27537614 0.08893608 0.43929744 0.31997287 0.7324888 0.7131265 0.24363305 0.5349798 0.39491525
진 0.40593988 0.08431068 0.7180776 0.022767892 0.6009147 0.5583991 0.9346517 0.49715358 0.44273737 0.7656833 0.27749312 0.34441978 0.18051702 0.86185473 0.37758878 0.47298396
이걸 1.0470273 -0.028394677 0.69516003 0.17870209 0.29433155 0.5676239 0.52707183 0.18691778 0.25922465 0.09849293 0.82476676 0.5189544 0.7041946 0.3154651 0.27299562 0.43463498
바 1.0902828 0.39026535 0.27642834 -0.07508756 0.22835326 0.58727616 0.12896094 0.46389303 0.31173718 0.96963567 0.78476447 0.22022976 0.97056854 0.18259448 0.7907025 0.020788588
그렇 0.4443416 0.7104839 0.1712066 0.69063324 0.3007712 -0.032289837 0.116403066 0.2508553 0.1446204 0.105140075 0.6791664 0.1844239 0.913212 0.41005856 0.35203275 0.6658183
대사 0.48580924 0.34632882 0.8339593 -0.060064863 0.8979323 -0.072383255 0.058371488 0.42964494 0.2375144 0.7977989 0.73085284 0.67052275 0.86368924 0.69411397 0.58443546 0.34040612
개봉 0.7795181 0.69949776 0.61143094 0.09062969 0.6919165 0.5702995 0.6689108 0.7214718 0.68827236 0.60392386 0.48582456 0.39902994 1.0570939 0.65080875 0.23160899 0.2612844
부분 0.26754442 0.57959104 0.58716476 0.28533554 0.695933 0.4488541 0.6968658 0.79536706 0.38336 0.27280372 0.821876 0.43855837 0.4607189 0.22228827 0.5893717 0.71827346
0 0.39643455 0.63704467 0.3661722 0.2851385 1.1178722 0.94723314 0.6263005 0.029066933 0.008978899 0.64098376 0.11059019 0.572601 1.0027727 0.018979594 1.1506747 0.35046312
OO 0.08841945 -0.08065044 -0.03687424 0.787757 0.35550198 0.8366895 0.14644413 0.3500377 0.065536395 0.7166406 0.8693738 0.99905527 0.3840004 0.5529186 0.52125764 0.8278887
대단 0.028822681 0.112894505 0.98069465 0.2326074 0.19923876 0.43578497 0.68487793 0.5446014 0.86478907 0.89616513 0.67558527 0.2191475 0.6834145 1.0026652 0.7080579 0.3656271
된다 0.7783951 0.3345542 0.38797513 0.44078553 0.01738329 0.6374695 0.45519948 0.4202587 1.0341406 0.8247158 0.0076235444 0.47487807 0.08279444 0.1094104 1.120343 0.38159564
작가 0.31414166 0.08953646 -0.10169875 0.53656375 0.3640065 0.45890188 0.41946352 0.04670768 0.08271963 0.44027275 0.39817274 0.8397972 0.98212314 -0.028720852 0.4679515 0.26481786
어디 0.30814186 0.64254254 0.6981497 0.75977147 0.84081393 0.22245176 0.54736704 0.6818324 0.7271692 0.31239146 0.8899431 0.08450303 0.7390392 0.7074863 0.3364374 0.6744782
기분 0.10101106 0.33697632 0.47369632 0.74201536 0.12438104 -0.004983632 0.31520236 0.054037943 0.752892 0.13838443 0.15282938 0.17116915 0.8953642 0.8991448 0.3711606 0.8918476
아쉽 0.24249652 0.016829206 0.2365197 0.6014979 0.31416062 0.42870882 0.27706766 0.8952277 0.12718286 0.8686161 0.34883365 0.35214356 1.0600631 0.9086091 0.10494785 0.98835945
치 0.21845283 0.40774342 0.13938111 0.15041815 0.37841722 0.80481774 0.4880872 0.1706816 0.68608755 0.7786238 0.70143646 0.48813817 0.5138196 0.68682283 0.27342397 0.2994927
진심 0.32043257 0.72735816 0.14447044 0.73162925 0.44411486 0.49164847 -0.09752772 0.29607648 0.13485952 0.85152125 0.39424667 0.5402277 0.57085615 0.5116735 0.81255084 0.95710564
해도 0.9023037 0.67595696 0.35314643 0.48524863 0.38320094 0.3288554 0.14564946 0.31279483 0.54371583 0.39260477 0.9276381 0.33444726 0.41388935 0.20540747 0.2905704 0.24675682
보이 0.1582989 0.62396175 0.59998286 0.53836143 0.32319278 0.45346543 0.60747284 0.22464657 0.8210495 0.121526286 0.4503266 0.43843892 0.34633526 0.7580438 0.14265592 0.5695801
타임 0.9693381 0.73189676 0.93803865 0.8114329 0.96807224 0.8433085 0.88187706 0.35289466 0.4276177 0.6437367 0.66250527 0.7855838 0.34625116 1.0712547 0.8285267 0.899971
놓 0.25769004 0.72283894 -0.052430198 0.93372905 0.2567532 0.01787048 -0.007294217 0.21435295 0.24998522 0.18311086 0.3597901 0.18952206 0.7753439 0.7321308 -0.08928371 0.40102202
/ 0.35743606 0.8487355 0.7603185 0.93412143 0.7828851 1.0368478 0.7490191 0.30058664 0.10466335 0.1887109 0.47969246 0.7072598 0.44665268 0.29375634 0.41684818 0.5211778
웃기 0.36356106 0.35135496 0.7292543 0.6953962 0.31995663 0.9150341 0.2860828 0.20414427 0.6928712 0.59817666 0.7219863 0.77462715 0.92804784 0.7752245 0.8517323 0.34824944
봐야 0.42268813 1.1625705 0.65958166 0.38393614 0.68811923 0.2570859 0.7319125 0.6174658 0.50766176 0.277405 -0.06495641 0.652208 0.2682741 0.8781949 0.87087417 0.286752
이제 0.3665571 0.5323704 0.17242403 0.27733165 0.34778756 0.39526007 0.81297404 0.8090605 0.13435222 0.5728829 0.85176116 0.42011943 0.650622 0.5500564 0.7989028 1.2309846
물 0.47987375 0.30293444 0.673443 0.1103442 0.33847353 0.1849357 0.32302314 0.7057533 0.31846318 0.24335524 0.40786093 0.5934851 0.89781874 0.47048458 0.3728748 0.6035641
막장 0.38782242 0.74350446 0.28427306 1.0733074 0.861887 0.11342683 0.4932229 0.093782604 0.048616946 0.17111029 0.34396628 0.51956207 1.0051824 -0.11638447 0.07024771 0.5339934
삶 0.55382323 0.67404115 0.30200106 0.9069479 -0.09745178 0.5189673 0.59416515 0.4568458 0.5837096 0.44929454 0.5673471 -0.042013712 0.4281401 0.56994694 0.66760623 -0.101827204
친구 0.39880702 0.6209515 0.7075514 0.41953245 0.58031857 0.22064222 -0.060588095 0.24197896 0.20907436 0.8067954 0.9666455 0.32386425 0.7148425 0.8323311 0.61126447 0.5885319
잔잔 -0.08122114 0.72156 0.1736854 0.86096257 0.6549317 0.11352425 0.8972271 0.7537601 0.8847771 0.87708837 0.41554368 0.077135734 0.6394331 0.076895826 0.6710322 0.41509426
조금 0.19840987 0.92408824 0.69014573 0.6548773 0.73728645 0.8436219 0.37224126 0.66880023 0.18587774 0.45741573 0.51711875 0.31790125 0.50786376 0.3957471 0.67535746 0.7903448
씬 0.59958637 0.68942624 0.6917971 0.21763046 0.8278924 0.79882 0.15101421 0.16883203 0.67384726 0.96444046 0.5033882 0.18525283 0.41470084 0.5446112 0.52940595 0.8319139
딱 0.52399176 1.0193598 0.36274058 0.5676438 1.0240216 0.7888945 0.66694283 0.47358203 0.31237012 0.17735617 0.768263 0.36240867 0.28259182 0.24634704 0.56691456 0.79475796
영상 0.83396465 0.40870002 0.7207447 0.56751126 0.42170638 0.0058637457 0.6374838 0.79285187 0.57421637 0.33104482 0.41739684 0.5503246 0.7036831 0.38577402 0.6769293 0.1711328
찾 0.86201143 0.25065318 0.7975779 0.73291606 0.39505976 0.5674759 0.32720536 0.015969787 0.8353476 0.59117466 0.8870304 0.4804616 0.599095 0.5386099 0.8751413 -0.05450053
억지 0.7951058 0.1337011 0.07645719 0.37515607 0.63149554 0.86414087 0.48433232 0.21750373 0.42562756 -0.16026907 0.7420339 0.55806744 0.6325949 0.46359655 0.8044362 0.45917127
중간 0.86506176 0.9147748 0.44315296 0.27994984 0.5881733 0.93388104 0.82485014 0.5679946 0.6225153 0.27059725 0.1673078 0.8233103 0.29309216 0.17667903 0.24412799 0.80772775
요즘 -0.048849225 0.08447096 0.92606455 1.0080196 0.73216826 0.12169604 0.45151463 0.51709634 0.73099697 0.5163418 0.8314278 0.29769394 0.052818187 0.6333239 1.0508399 0.05287747
같이 0.62086713 0.9227568 0.26435485 0.9529234 0.7556407 0.52317953 0.7038614 0.33368573 0.6279299 0.74503106 0.29802972 0.58974546 -0.079904914 0.31750235 0.5898415 0.8675619
구 0.25546417 0.7821743 0.8710931 0.69088674 0.2624889 0.58548427 0.5911995 0.07332055 0.34199616 0.8791924 0.45015496 0.6232378 0.42645139 0.049794007 0.49009675 0.44474843
" 0.35245916 0.33540705 0.9303542 0.541003 0.8957927 0.22555974 0.76059985 0.9751697 -0.018403266 0.60294867 0.0721619 0.6942379 0.6511771 0.061875626 0.28792277 0.33018914
가지 0.6844516 0.36352018 0.51886153 0.4690401 0.5286328 0.6994792 0.07214884 0.82673806 0.4711202 0.11520965 0.8654983 0.1048299 0.3018743 0.9137165 0.26586887 0.66467476
스릴러 0.47477108 1.034274 0.24569502 0.42984512 0.6583663 0.01815062 0.5790694 0.44082364 0.18644673 0.27873772 0.3603572 0.056209184 0.3298129 0.12123346 0.8122375 0.36943576
8 0.20663263 0.39955407 0.45530185 0.60728616 0.13148263 0.46531925 0.366134 0.47599477 0.8664908 0.33030304 0.07569865 0.09781947 0.044699218 0.26924556 0.16448474 0.67256707
믿 0.5420529 0.60095316 0.2877097 0.3454533 0.123362705 0.9221846 0.8063081 0.47890073 0.69228107 0.5209426 0.009171037 0.0017885657 0.35510388 0.92831224 0.901805 0.37017137
싫 0.5823217 0.054876003 0.49718624 0.8876687 0.7301433 0.14368722 0.82170296 0.25319093 0.09007908 0.24546187 0.3888686 0.42344192 0.56675845 0.55209583 -0.08138745 0.20817307
.... 0.7116292 0.285484 0.20253515 0.013669422 0.1643644 -0.114753544 0.50007707 0.7496086 0.753442 0.11539979 0.41419896 0.31816572 0.42552042 0.507751 0.36765492 0.7553823
보고 0.49992272 0.27830878 0.8820264 0.36475614 0.0595476 0.7262627 0.35403973 0.435398 0.6335325 0.8620362 0.8690138 0.5180589 0.77874595 0.2893084 0.27306652 0.5268108
라도 0.69467306 0.96134406 0.8958039 0.18515743 0.36121377 0.539379 0.5033489 0.34718308 1.0245912 0.74767685 0.883633 0.5157294 0.9930689 0.5265491 0.36075675 0.92960227
나왔 1.1350558 0.4717161 0.6367007 0.5643212 0.93050843 0.9736516 0.93167615 0.7556664 0.32113752 0.78219646 0.6209839 -0.03237875 0.8147986 0.62767273 -0.021756796 0.59701353
아까운 0.91465825 0.7810685 0.7119143 0.16815111 0.575713 0.6920604 0.9823473 0.7202596 0.77531236 0.36426264 0.55911213 1.078578 0.33777192 0.4776021 0.4306879 -0.1102711
긴장감 0.42731264 0.27326888 0.49551114 0.4069111 0.19358726 0.042595763 0.70119536 0.66801447 0.8307875 0.047384523 -0.016248971 -0.17558388 0.52884716 0.0013459083 0.69773614 0.0719157
점수 0.750168 0.73644114 -0.03602034 0.80840164 0.13570714 0.8909239 0.30008107 0.2710753 0.11070612 0.423218 0.14656265 1.0969684 0.40964332 0.69742244 0.2285392 0.9499923
개인 0.5650844 0.38857412 0.85347813 0.73907596 0.36226034 0.5129959 0.39744553 0.6298203 0.51456773 0.30007878 0.5851048 0.34897754 0.72447467 0.29158854 0.76346666 0.49647388
제대로 0.9994926 0.22347784 0.36712876 0.9412039 0.63482356 0.48096702 0.4155441 0.87504965 -0.009007662 0.602059 0.42888397 -0.11694672 0.9703125 0.69616115 0.50478 0.014899812
부족 0.23145579 0.4591265 0.7045198 0.74399793 0.91105294 0.24993688 0.3596517 0.11526081 0.65869457 0.17934546 0.71916 0.3258875 0.8057924 0.6623457 0.33014986 0.7927779
이유 0.50124556 0.6077227 0.6482331 0.6075683 0.32706037 0.9255437 0.3169629 0.14257929 0.17096393 0.39752477 0.908993 0.5626702 0.3987663 0.05372988 0.21117532 0.49644747
노래 0.28050363 0.7109833 0.13548312 0.47471434 0.38664392 0.80439436 0.34405962 0.93233526 0.25918034 0.20337552 0.7406781 0.835763 0.20361322 0.57329196 0.09344191 0.33277526
만큼 0.2065071 0.90035754 0.47838807 0.60218453 0.25045934 0.73621327 0.007370246 0.14617321 0.92846423 -0.19362073 0.95332104 0.16308299 0.116316006 0.6934702 0.6942342 0.09306424
라면 0.5902702 0.84969264 0.7166816 0.16920033 0.2173938 0.74562323 0.3942044 0.29396248 0.14917594 0.2871967 0.8115369 0.6587351 0.13096021 0.8232961 0.52383006 0.4217882
시작 0.5887963 0.10657228 0.58741707 0.17939709 0.09779363 0.58365214 0.13448755 0.18863273 0.87490857 0.8301876 0.17031635 0.7506254 0.82887256 0.775979 0.72544724 0.67332435
잇 0.652168 0.4293929 0.74990565 0.498561 0.45702747 0.8353238 0.17320108 0.62278 0.103927225 0.24164355 0.06083312 0.6211268 0.7487741 0.75177 0.9323061 0.664544
구나 0.15687823 0.75432366 0.71161455 0.107103206 0.8852158 0.9897339 0.32778442 0.07400505 0.4484402 0.84924763 0.75409853 0.85397905 0.6237951 0.02525791 0.59256786 0.15521058
특히 0.62535495 0.46552968 0.31179476 0.683504 0.046856284 0.3757103 0.9232417 0.16944908 0.62580943 0.9116265 0.11518269 0.13889228 0.44682685 0.2990821 0.97071856 0.3544253
한테 0.3558363 0.2212527 0.7189608 0.31459516 0.24932674 0.90765584 0.54989624 -0.065462954 0.8993555 0.34789103 0.27300933 0.21811408 0.67504805 0.07549277 0.9213541 0.23849672
날 0.26200455 0.8866922 0.9162878 0.24535704 1.0303371 0.7335573 0.4513887 0.70450497 0.21445864 0.39946425 0.4904019 0.41595292 0.92778283 0.9133073 0.1765499 0.606985
려고 0.29356706 -0.15573876 0.3950547 0.46363837 0.3035236 0.7207679 0.90277916 0.1568272 0.84124404 0.88007724 0.7069424 0.22068207 0.6746403 0.405008 -0.090071574 0.38507804
제일 0.47412214 -0.07334158 0.80061144 0.55035454 0.03016154 0.14374647 0.44982746 -0.040386833 0.89848506 0.27572083 0.13152948 0.64259994 0.81346464 0.37783402 0.9147897 0.5275717
아름다운 0.6257876 0.48749006 0.6408612 0.8359773 0.15384363 0.55874693 0.34698686 0.9679902 0.7877716 0.8347808 0.059085324 0.4806435 -0.084707916 0.4367508 0.89414704 0.5854572
시대 0.78687924 0.85612005 0.24327332 0.4074145 0.15797639 0.058392238 0.56083536 0.63114315 0.36202055 0.06870424 0.4905905 0.20560627 0.0855465 0.49246922 0.27384028 0.7590367
ㅜㅜ 0.93293834 0.6870073 0.43365398 0.4205543 0.10329586 0.23330761 0.4257263 0.76293314 0.2836606 0.1131063 0.0920288 0.65327984 0.2702404 0.27781156 0.07554889 0.18914029
어떻게 0.58392644 0.10221688 0.49971595 0.18304285 0.4515757 0.5601558 -0.010115287 0.65033764 0.059816204 0.856787 0.34787408 0.6332105 0.2619118 0.17532286 0.07313291 0.20115541
명 0.6319726 0.79122895 0.37534276 0.7597394 0.43860313 0.8965333 0.38761836 0.5531587 0.73722076 0.54599345 0.37771657 0.6435388 0.6152177 0.7288145 0.77870727 0.5508171
당시 -0.03976816 0.61585873 0.832122 0.5973855 0.028330162 0.7689152 0.865702 0.3869528 0.66857964 0.6275129 0.7942892 0.48507607 0.4589042 0.30091122 0.13204876 0.81203336
엔딩 0.29015297 0.58845377 0.3200105 0.5881063 0.12752174 0.88433534 0.32113883 0.22808686 0.5837205 0.28825504 0.3731306 0.73105425 0.8274029 0.28187805 0.37757844 0.07901285
나름 0.28058553 0.99119735 0.684506 0.7705465 0.5000281 0.7184215 0.7156405 0.22728422 0.62841517 0.9996569 0.28377417 0.4169321 0.42240515 0.48957813 0.20023651 0.6462086
무섭 0.5679597 0.123217605 1.0218557 0.9375305 0.55419856 0.30229393 0.5381938 0.39829695 0.85982895 0.11755938 0.0669872 0.537586 0.9148521 0.3969266 0.6999565 0.5147125
나온 0.34432974 0.5880491 0.1633929 0.29630047 0.22758798 0.6833792 0.19404869 0.5606105 0.38155928 0.20004854 0.51241237 0.04553356 0.38490716 0.112095326 0.57441473 0.7503155
사 0.53010863 0.4992852 0.99772537 0.4313972 0.43709743 0.24527508 0.347074 0.47403914 0.3831943 0.488583 0.29445437 0.5526159 0.18252984 0.790522 0.8759627 0.93027747
오랜만 0.14560339 0.4785125 0.43025702 1.0700538 0.17150652 0.53738755 0.40296045 0.451119 0.23049608 0.6560103 0.59931105 0.47493905 0.58728045 0.09501357 0.7184354 0.1230275
니까 -0.17250006 1.0840346 0.52973604 0.24402267 0.5820914 0.7711419 0.27751145 0.2959633 0.27094844 0.20340818 0.5577266 0.3226631 0.5268873 0.3147492 0.06502304 0.3796365
해요 0.48271966 0.8661602 0.8964736 0.59920615 0.9011484 0.6368963 0.2772261 0.76507753 0.47396988 0.71351874 0.7269839 0.9617414 0.7340358 0.8268725 0.74443376 0.31002274
9 0.6800642 0.9042368 0.68316513 0.36997822 0.14968158 0.29005876 0.0017901101 0.82300955 0.6434183 0.8883295 0.29011482 0.6748932 0.07431528 0.21595064 0.9633562 0.4824768
이것 0.48940557 0.88119286 0.26760513 0.221557 0.34619996 0.5638572 0.4298824 0.9594082 0.63914794 0.19149014 0.6749102 0.5694878 0.66037804 0.22199318 0.7647261 0.08125954
팬 0.6531097 0.3803853 0.10575123 0.9171107 0.3288461 0.79134125 0.5540825 0.5548872 0.040059436 0.78897226 0.56227475 0.56428677 0.66710037 0.20211881 0.5815127 0.053840514
차라리 1.129432 1.3622739 0.12716399 0.8689807 0.96832377 0.20871167 0.5799524 -0.23751314 0.47972578 0.9530704 0.9945817 0.25757208 0.7706137 -0.084473476 0.20727788 0.4968625
봐 0.06413759 0.16861384 0.44627044 0.86882687 0.6777474 0.80336833 0.81960577 0.023852251 -0.032984063 1.042891 0.7683381 0.49114296 0.5077165 0.21632771 0.5041119 0.1440222
절대 0.66803163 0.8245514 0.852469 0.20098825 0.35368565 0.103791095 0.4126776 0.64834934 0.49422324 0.4769119 0.6479482 0.23934683 0.8690639 0.420214 0.23500602 0.54432505
세상 0.2266389 0.7024745 0.99244016 -0.05377909 0.27404228 0.5136102 0.61387587 0.8615322 0.59733784 0.8430988 0.19327876 0.38918257 0.20771416 0.5071334 0.046488542 0.39854303
세 0.40509123 0.19371384 0.7737888 1.0270953 1.0017458 0.5574729 0.28789833 0.7485254 0.5846519 0.47955757 0.6863431 0.62481993 0.5214388 0.47102943 0.12131745 0.034808643
못하 0.6241704 0.29802367 0.61336994 0.83665234 1.0405383 0.67547446 0.059524838 0.3488855 0.49544477 0.37244278 0.5553196 0.59228945 0.6197873 0.121144265 0.61945844 0.88738984
하지만 0.71492165 0.66140634 0.14013705 0.63608724 0.37476084 0.4821791 0.8140577 1.0460647 0.8712007 0.075628124 0.23942834 0.8712003 0.8301894 1.0890068 0.7626934 0.27978292
던데 0.3047796 0.7606149 1.120568 0.101206265 0.85789233 0.24671507 0.36632508 0.5998886 0.10265476 0.46129966 0.06716417 0.7413466 0.32000807 0.21969338 0.51358867 0.31303528
욕 0.6403051 0.8823322 0.3743918 0.02630558 0.1523811 0.9037463 0.9053795 0.04472898 0.79476374 -0.03120695 0.24625197 0.90620464 0.092100635 -0.009710647 0.16943102 0.52352875
봄 0.42385823 0.21076776 0.55466235 0.81462437 0.00069688045 0.46120328 0.22832914 0.59510607 0.23333973 0.23148552 0.4962277 0.58637893 0.9477025 0.8282963 0.80312365 0.60569644
감 1.0701904 0.76711947 0.23499334 0.13414857 -0.087188326 0.9852692 0.27734292 0.7125525 0.66532004 0.19287075 0.39974558 0.17092478 0.32357377 0.10091496 0.31500828 0.41506243
훌륭 0.6832078 1.0312015 0.28961724 0.6134501 0.11108234 0.10905662 0.63387626 0.70750916 0.4775561 0.69636226 -0.21652691 0.638237 0.19274525 1.0574299 0.64670575 0.12767881
너무나 0.19212884 0.71425074 0.37789682 1.0481758 0.5121596 0.3725991 0.9500809 0.16372088 -0.0319537 0.62026757 0.6877024 -0.05449166 -0.035054278 0.14393105 0.0972525 0.36960807
강추 0.5030191 0.6923411 0.1523022 0.99678946 0.2669957 0.41884175 0.18912305 0.92017066 0.5759667 1.0210767 0.3875185 0.48808798 -0.06419549 0.40062565 0.91864926 0.11689426
해야 0.36244696 0.90954 0.5229295 0.5944535 0.40326872 0.6657414 0.49465096 0.2813406 0.29834664 0.7782218 0.6161573 0.823101 0.39447522 0.66573465 0.33854017 0.9507024
됨 0.34030503 0.9966981 0.19203667 0.6664125 0.228911 0.75412667 0.9560376 0.13024294 0.17629834 1.2434725 0.6573667 0.46636054 0.4311532 0.56206393 0.24692993 0.8630471
ㅡ 0.30510345 0.8611243 0.26223615 -0.06689056 0.2693097 0.6813864 0.88004106 0.17258486 0.9859254 0.34737495 0.8477697 0.332373 0.09576267 0.74377555 0.3934576 0.34546635
따뜻 0.73318446 0.451895 1.0377738 1.3160771 0.18116161 0.6128351 0.39248142 0.41996786 0.5206558 0.58067125 -0.05506219 0.63945687 0.64234936 0.43682677 1.0829729 0.32110068
빼 0.70382345 0.68930894 0.17516199 0.38160944 0.26832438 0.84009624 0.59022164 0.5090708 0.7539645 0.6248982 0.86718976 0.48730785 0.46996737 0.32947707 0.59844947 0.66714114
느끼 0.7446715 0.7008809 0.16759004 0.87256616 0.1735936 0.11850248 0.38445112 0.44811252 0.33435312 0.6253128 0.4142539 0.34531432 0.19573723 0.6574838 0.37252572 -0.0060779247
드 0.838211 0.5938 0.32361868 0.40274918 0.3276834 0.15524518 0.7814528 0.14468364 0.586637 0.255904 0.93343323 -0.04758694 0.68914306 0.85649765 0.97981274 0.046454195
도대체 1.0294752 -0.009390485 0.5860743 0.23910663 0.31828102 1.0452899 0.65544885 -0.04987876 -0.12800463 0.6089958 0.46770924 0.6082403 0.8729352 0.13596568 0.3641551 0.36235395
어야 0.9031717 0.88066274 0.47212738 0.3857596 0.6834238 0.15260307 0.5353763 0.34454054 0.5726086 0.7376473 0.9912245 0.090612814 0.683912 0.076024525 0.41325635 0.20739809
글 0.5698002 0.07070189 0.6237399 0.5545319 0.5269276 0.74876744 0.92098916 0.12955356 0.8648332 0.62169677 0.78727865 0.5655338 0.9113829 0.6430677 0.33346877 0.389235
마다 0.08057867 1.0947809 0.5825513 0.22742938 0.22395046 0.119908236 0.10426192 0.68673587 0.28153166 0.20784667 0.41464 0.6617642 0.64698756 0.23375629 0.8708555 0.30203104
답답 0.18803605 0.03382233 0.13986507 0.13700764 0.4487051 0.7948969 -0.05880972 0.39880642 0.0740585 0.31611586 0.84717107 0.12902619 1.0281173 0.11277456 0.42981476 0.9392254
준다 0.28154603 0.24866007 0.49602166 0.64088017 0.21421437 0.6952295 1.1664244 0.8500667 0.25273788 0.6442755 0.8001152 1.1108834 0.5300605 0.53826123 0.40338108 -0.088008724
전쟁 1.0054929 0.44104844 0.6079023 0.46233055 0.2005078 0.45438144 0.53334564 0.28196263 0.087281525 0.6469218 0.17212567 0.2746506 0.7482292 0.44932443 0.62225485 -0.030097943
놈 0.032090653 0.29454306 0.08634287 0.6707943 0.2802252 0.25553071 0.22456077 0.7456951 0.7207226 0.6311387 0.57976055 0.81291074 0.47619835 0.6192773 0.011998257 0.11258027
설정 0.87859035 0.037669506 0.38424936 0.5000963 0.75965446 0.21391557 0.87660855 0.47878274 0.16489106 1.208022 0.7551401 0.90011394 0.5471509 0.3452204 0.20673032 0.46386388
무엇 0.7922881 0.8401166 0.8609079 0.23575082 0.6466264 0.70911765 0.11086048 0.071775496 0.4664759 0.5286464 0.10459767 0.15914756 0.13232404 0.7602384 0.4143012 0.82574713
수작 0.2266026 0.5118211 0.8881201 0.31321478 0.12494269 0.47959498 0.56242806 0.3610198 0.15176183 0.83557826 -0.3511834 0.51056707 0.38552916 0.56604654 1.2056655 -0.047416575
그저 0.29765403 0.4760888 0.5530642 0.6941474 0.24533086 0.5644077 1.2541907 0.37341654 0.30665395 -0.07910506 0.97844356 0.33183664 0.11638686 0.66688466 0.28453445 1.1007743
감정 0.8253176 0.7962391 0.25900447 0.81499153 0.12763983 0.70550925 0.3630762 -0.10599085 0.22284058 0.86334646 0.523942 0.65862554 1.0117261 0.7602207 0.890881 0.43234697
흥미 0.7313654 0.07459618 0.81732905 0.40705657 0.09416841 0.29043657 0.8295788 0.5267613 0.26720056 0.56188 0.060035978 0.60249275 0.78924185 0.35541865 0.38506564 0.09357033
미국 0.51586676 0.5510849 0.4068312 0.48498353 0.045180995 0.48916578 0.81913054 0.8356519 0.51645744 0.2729115 0.70232844 0.2550654 0.13884345 0.6199227 0.2694071 0.55035764
만화 0.51076907 0.9222719 0.42681167 0.7883477 0.29007977 0.28227112 0.31270158 0.37105078 0.40454426 0.119115315 0.85307246 0.8985616 0.086424395 0.99551606 0.16759917 0.71564686
행복 -0.0017107247 0.8400002 0.54553026 0.45305845 0.6774591 0.26879656 0.85100096 0.48214042 0.4013609 1.0058417 -0.0326588 0.6046522 0.2953467 0.60766506 1.0297351 0.64609444
신선 0.20569442 0.6067133 0.849116 1.0450882 -0.10684302 0.66484 0.3274685 0.29809612 0.15529287 0.49829566 0.53213626 0.32059473 0.43089372 0.5343524 0.5497414 0.3424825
뻔 0.66677266 0.3068174 -0.04434468 0.6451047 0.5022675 0.82140857 0.461606 0.5070881 0.73638314 0.2985542 0.038649682 0.4318782 0.72551614 0.37711304 0.04808526 0.37042734
형 0.56076723 0.2887569 0.6022909 0.37580106 0.19817612 0.4297258 0.50996137 0.2465371 0.35534012 0.54944766 0.601506 0.09809725 0.5528931 0.510245 0.6694963 0.60425234
앞 0.3543342 0.49064806 0.9220396 0.96036184 0.6224124 0.04501218 0.0041922196 0.29581946 0.71490395 0.30328867 0.85374105 0.06450498 0.602404 0.35204312 0.85877204 0.04391218
어도 0.40862152 0.7553802 0.53237176 0.032914106 1.0713186 0.49537864 0.27049568 0.16011417 -0.10735326 0.5796969 0.36150923 0.15889467 0.4308872 0.48490787 0.49105647 0.6742063
허접 0.96861476 0.3965942 0.28464624 1.0188075 0.93136644 -0.024615178 1.1147655 0.23579918 0.16551791 0.25761572 0.53488207 0.48646674 0.2860956 0.040670846 0.07109904 0.76667327
군 0.84691197 0.14908983 0.08758239 0.46716782 0.03478606 0.010842377 0.61308134 0.1240933 0.5148934 0.8912046 0.54989195 0.43822688 0.5756902 0.4809391 0.17513023 -0.02371535
시절 0.7214708 0.33771595 0.96445405 0.40846014 0.23027974 0.180831 0.5322422 0.83538043 0.28353643 0.96899223 0.091042906 0.913564 0.73173857 0.7417568 0.5852217 0.44972172
관객 1.3089904 0.48752192 0.67852587 0.5886419 0.46207663 0.395523 0.5470721 0.7470655 0.120459594 0.14456089 1.1473756 0.29799068 0.6863969 0.10005055 1.0278941 0.5442991
배경 0.58350843 0.9007519 0.37574473 0.57760054 0.16300821 0.24054912 0.098737806 0.77070266 0.36893377 0.6490671 0.982131 0.16594808 0.72643405 0.38618156 0.73449886 0.7882997
6 0.6235105 0.6370699 0.53795093 0.6225511 0.49390927 0.66647506 0.71362454 0.038465872 0.38305715 0.8518359 0.64637333 0.71726596 0.12082771 0.73767596 0.67852587 0.25856286
의미 0.59445477 0.6787943 0.42303368 0.34702817 0.23072705 0.18644752 1.0429968 0.83072704 0.40395966 0.37730047 0.37234408 0.52599615 0.26151744 0.24594511 0.6360134 0.7141456
초반 1.0824775 0.8170416 0.3774165 0.5232036 0.5820949 0.7528766 0.5480662 0.31394565 0.42099038 0.51547045 0.61209553 0.67505 0.4279983 0.5217381 0.58441556 0.6124745
사실 0.7472423 0.7958438 0.8318086 0.08328169 0.045603164 0.16819808 0.5231827 0.10838174 0.8539618 0.2743462 0.14611313 0.04922134 0.48891455 0.66680515 0.42123288 0.13169053
답 0.80017674 -0.050487857 0.502513 0.8230347 0.44193104 0.8234556 1.2063012 0.5351305 0.41196737 0.7940315 0.3286178 0.83096886 0.41972625 0.7383433 0.64190155 0.51849055
웃음 0.27965263 0.4177445 0.24333787 0.41913328 0.26882657 0.77672887 0.52470845 0.115306035 0.14914969 0.27747917 0.59578246 0.25371614 0.05317872 0.33863825 0.24361637 0.698667
엄청 0.65215284 0.8507527 0.21225809 0.42261836 -0.1405254 0.54268473 0.39387003 0.88869256 0.3372547 0.6178452 0.040443867 0.66158617 0.97282827 0.32519236 0.19432071 0.30032593
라니 0.5706784 0.20502631 0.28073516 0.76773965 0.65360856 -0.16079815 0.888716 0.59719306 0.88857055 0.73250014 0.659886 0.4530422 0.061562937 0.36361235 0.7003813 0.06782472
더라 0.30231336 0.1784816 0.32897094 0.6944616 0.3494649 0.60201925 0.09262476 0.4072366 0.85631496 0.7754996 0.62769264 0.7374846 0.8536312 0.49944517 0.24181089 0.04706721
자신 0.3264794 0.80680186 0.9997207 0.31626892 0.93524 0.73301756 0.7994771 0.13338344 0.8031171 0.87675387 0.4136847 0.48615757 0.23473245 0.67649275 0.79103136 0.45587417
질 0.32351542 0.13045782 0.1591159 0.71974075 0.6701537 0.7965578 0.9753398 0.54564774 0.23518215 0.75543207 1.1546781 1.0528086 1.0150346 0.5788172 0.92908376 0.52432215
추억 0.1317595 0.61607 1.015345 0.43148646 0.48243904 0.5530429 0.51705927 0.8903821 0.68491334 0.7629531 0.64079344 0.75336057 0.034743886 0.90329754 0.3804608 0.50666636
캐스팅 0.3104418 0.96230316 -0.08610772 0.61566573 0.5508505 0.24075912 0.04041837 0.39930272 0.70143515 0.6803607 0.9095439 0.3696526 0.3018405 0.16764693 0.5374593 0.7042382
머 0.5379914 0.8556178 0.40246373 -0.015745705 0.051940843 0.7958516 0.27451336 0.2429741 0.8484226 0.62082094 0.9701134 0.7350563 1.164375 0.65084666 0.46206105 0.7770048
첨 0.5825853 0.1833763 0.20070241 0.67797863 0.42100313 0.77483034 0.039174605 0.6295773 0.3342127 0.14476319 0.50956964 0.35813266 0.4804043 0.42149207 0.13189296 0.43709674
멋있 0.06022455 0.6551404 0.98314416 0.32269615 0.27271768 0.8005469 0.22149545 0.886366 0.017945593 0.49807796 0.9246473 0.8825071 0.30550385 0.6992546 0.8076931 0.110012665
류 0.7501701 0.021563696 0.5682019 -0.16182876 0.52548045 0.25698122 0.97091067 0.12444217 0.10106267 0.737547 0.8893723 0.26234278 1.1737038 0.76240176 0.72328305 -0.19349764
시나리오 0.61005676 -0.09907505 0.3137766 0.24022278 0.6008852 0.94833344 0.5836201 0.90441525 0.17736644 0.18431002 0.41320288 0.20705537 0.7982147 0.45715815 1.0286081 0.34788916
어색 0.6149094 0.45511588 0.16614157 0.6319097 0.15467288 0.47194967 0.91408736 -0.05247575 0.88944954 0.04303178 0.9265748 0.6629034 0.8212565 0.01641312 0.06230961 0.6319622
슬프 0.33240825 1.0918165 0.36412796 0.43912524 0.043645415 0.38817552 0.16595508 0.82133645 0.36125746 0.1477058 0.34526786 0.108207546 0.23116913 0.42303732 0.33348867 0.097430624
OOO 0.9148774 0.10216377 0.6849129 0.43907 0.51787573 0.38064215 0.111430995 -0.032599356 0.6905397 0.3337592 0.47768354 0.900794 0.034306023 0.23347194 -0.15135965 0.534971
정신 0.8047681 0.6837406 0.21885149 -0.0022998909 0.06597743 0.7681254 0.8097841 0.78703886 0.34840903 0.55049866 0.8865973 0.36139813 0.651908 0.24139003 0.4306359 0.6486282
분위기 0.1544449 0.5488195 0.94929093 0.2598871 0.119196296 0.26888016 0.55837876 0.41256967 0.4184979 0.16734764 0.6292467 0.32532516 0.5145406 0.7274314 0.14513938 0.19729137
소름 0.898488 -0.12878765 0.90890056 0.5248887 0.08807226 1.1718841 0.023343876 0.7596238 0.1133986 0.80211186 0.018167488 0.1790465 0.6451854 0.46317396 0.6239664 0.29947138
멋진 0.79081315 0.7810059 0.9668677 0.60334855 0.56384075 0.3129362 0.0020220224 1.1918938 0.5342609 0.68896085 0.09433299 0.6743776 0.29127145 0.4354738 1.0833428 0.73602563
힘들 0.8052544 0.4616353 0.6996792 0.40817878 0.69965637 0.18827124 0.11578166 0.43392518 0.36061186 0.34823132 0.78516203 0.27307194 0.07008702 0.25359464 0.6289203 0.85287017
오늘 0.8518423 0.57106805 0.5118501 0.2718254 0.18155117 0.2655894 0.8177935 0.25051495 0.6677205 0.1134152 0.4009476 0.42693725 0.3380035 0.58599687 1.1150436 0.06253197
어이없 0.76075506 0.30243745 0.4875205 0.504851 0.73741895 0.27501738 1.2408913 0.47826073 0.65386605 -0.16503479 0.7072616 0.6253756 1.0111758 0.8362381 -0.07414653 1.1501555
봐서 0.20101142 0.7284166 0.85284096 0.5588622 0.15445267 0.3842619 0.6530142 0.9104503 0.81879455 0.75032073 0.46216807 1.0077974 0.14829265 0.40887123 0.95717007 0.83694035
구성 0.21181509 0.49411702 0.37372726 0.83934915 0.29018438 0.5069349 0.32462606 0.10438616 0.6884285 0.59693915 0.6029037 0.48639935 1.0068507 0.43898672 0.5642449 0.28817108
잡 0.25422102 0.18535806 0.97853 0.71718466 0.80091304 0.7329395 0.72550726 0.78562456 0.6853321 0.076522045 0.71494174 0.40594897 0.6319218 0.32788175 0.17712002 0.39802065
엄마 0.72589314 0.32811603 0.7657228 0.8777793 0.70768666 0.48759985 0.7965605 0.4995074 0.8716615 0.5231578 0.16325502 0.2742423 0.5391474 0.63029855 0.84968823 0.37951097
함께 0.4910978 1.0788325 1.1319841 1.0037125 0.784242 0.35070646 0.5570719 0.41736573 0.20368792 0.18744926 0.72694516 0.32535017 0.30405733 0.7444071 0.5114698 0.1083023
문제 0.8056159 -0.0059089805 0.63248175 0.356906 0.35004354 0.8051629 0.24362405 0.51456445 0.45866534 0.09118815 0.5270298 0.31140974 0.45041102 -0.05336478 0.36968842 0.27934954
위해 -0.09607736 0.054466806 0.22796321 0.7936662 0.79396033 0.14173755 0.86043054 0.5807671 0.87174314 0.15984367 0.75244015 0.13529798 -0.074264966 0.5081973 0.1858095 0.064574696
졸작 0.45985904 -0.072517134 0.32542577 1.0546207 1.1400589 -0.11138676 0.2421468 0.47546092 0.87126875 0.19685431 0.9460412 0.39203084 0.62432 0.56210715 0.17251752 1.0651405
잊 -0.03035753 0.28193194 0.79583544 1.2095927 0.4910107 0.078261964 0.96674263 0.3789658 0.22664344 0.6963386 0.9603968 0.51172435 0.034301087 0.32607502 0.61153793 0.24177405
등 0.37561953 0.7380328 0.63811374 1.0420289 0.0044138087 0.6199555 0.6138496 0.52619123 0.52371967 0.37388965 0.59040743 0.76142853 0.34845364 0.7313156 0.15764968 0.38180158
집 0.25492418 0.36108217 0.22573882 0.36685446 0.331458 0.45277312 0.35173878 0.20695496 0.48334077 0.68526477 0.41734278 0.3848895 1.0260708 0.3744049 0.30452013 0.55056435
유쾌 0.36650056 1.0585747 0.6810926 0.7091756 0.5899374 0.21864125 0.22916865 0.9257275 0.7331686 1.013194 0.04461721 0.68667746 -0.023055566 0.2969426 0.73868877 0.41251788
스러운 0.41946346 0.40311 0.93869466 0.8561412 -0.0315873 0.09487493 0.7432014 -0.039856028 0.42983428 0.81642336 0.91134673 0.35457617 0.5964196 0.46586096 1.0306503 0.68362087
뻔한 0.61568373 0.8216073 0.08971606 0.57655865 0.59075266 0.39933977 0.069195986 0.29156193 0.61499095 0.28628486 0.89802873 1.0911067 0.7400515 0.3752799 0.11766002 0.968564
나요 0.42518878 1.002718 0.16378431 0.43703154 0.15591985 0.37532339 0.58150685 0.76687115 0.58113396 0.26012418 0.3472068 0.42103082 0.093509085 0.6047622 0.15026738 0.99048775
킬링 0.46078926 0.19711146 0.4620414 0.57688284 0.38122293 0.0490347 0.6199382 0.24390286 0.5214762 0.7796235 0.33435938 0.714855 0.18152043 0.12028035 0.88910204 0.14574362
결국 0.9059111 0.6061063 0.6688312 0.24525547 0.7072146 0.8319601 0.8214268 0.30574808 0.50395083 0.57452285 0.838765 0.36919925 0.5596261 0.65111333 0.11866473 0.41893238
낫 0.058610182 0.025346354 0.49367917 0.46454042 0.6725844 0.2511987 0.25064132 0.19689775 -0.19371599 0.3761166 0.32395822 0.13599159 0.46260855 0.53100234 0.8887636 0.5536911
뭘 0.535585 0.36331877 0.33355635 0.3574024 0.5263822 0.27016214 0.76762885 0.7553267 0.57439595 -0.036200106 1.0047387 0.8388397 0.5252762 0.10576229 0.84322613 0.7199607
간 0.26605415 0.09016792 0.79200387 0.57233125 0.60633755 0.8501317 0.27586174 0.86375713 0.34130237 0.45465523 0.88463676 0.49213058 0.6491321 0.03255121 0.15614884 0.33183387
소리 0.70992553 0.7309366 0.53172916 0.5185701 0.8764025 0.16669373 0.7154924 0.0829154 0.52641934 0.80137986 0.33073282 0.9352283 0.21568975 0.68621725 0.1050626 0.78109497
미 0.08291335 0.7972807 -0.011370499 1.0153952 0.1577354 0.13511816 0.270819 0.018378545 0.3308799 0.28564546 0.8442425 1.087926 0.3028012 0.6541449 0.99703574 0.26925632
한데 0.26364362 0.73453355 0.7296771 0.8205334 0.6227488 0.24515252 0.26009354 0.13454738 0.9945848 0.48379028 0.01864178 0.7253676 0.5722082 0.34602123 0.28508732 0.8011093
20 0.5594601 0.32958016 0.8359779 0.24217986 0.32486528 0.22659294 0.21300034 0.41527775 0.11004763 0.45061734 0.32977623 0.0268518 0.50939363 0.5422324 0.20823953 0.78613394
역사 0.72178745 0.44690335 1.0044903 0.91661334 0.4756179 0.2641963 0.23160309 0.5630309 0.80724585 0.25733817 0.40779802 0.89282084 0.87128407 0.4376039 0.734416 0.38066715
뭔 0.96571887 0.20938602 0.5906814 0.5664873 0.30592766 0.82592326 1.0501282 0.4591982 0.491021 -0.15523615 1.0786237 0.44600236 0.4402121 0.43395963 0.22684553 0.6682419
제발 0.48445415 0.6794113 0.36225265 0.11294612 0.12346729 0.33897722 0.99669063 0.89115757 0.7878016 0.7997176 0.5260701 0.434266 0.55385584 0.47994933 0.05158896 0.062122785
포스터 0.95177025 0.055479802 0.24068215 0.3545147 0.40554518 0.21718034 0.14609858 0.5172498 0.28881052 0.34629074 0.83438206 0.7111411 0.24856277 1.0481071 0.35789 0.10280715
아무리 0.78432643 0.6096701 -0.103774965 -0.11606688 0.7444768 0.18507244 0.81664145 0.6535668 0.39204794 0.19606169 0.3709493 0.31766722 0.8487356 0.5600324 0.21882604 0.7146229
코믹 0.1939483 0.29198393 0.6691327 0.09625604 0.9537672 0.48587334 0.7736052 0.371293 0.4465038 0.12971303 0.2177626 0.72633624 0.15536214 0.8228028 0.6827351 0.32651347
어떤 0.06260101 0.3821336 0.4445306 0.6027301 0.42561352 0.18562326 0.6083086 0.795113 0.35300806 0.4174072 0.52803975 0.5711522 0.20901841 0.30544645 0.7001053 0.48060834
완벽 0.40066582 1.0223353 0.49551055 0.4606039 0.17190436 0.1643026 0.01098076 0.17122516 0.6010695 0.80137324 -0.018288309 0.25616252 0.39387327 0.7821908 1.2501944 0.41930446
~~~ 0.48309886 0.81817144 0.17677876 0.86449796 0.081811026 0.31082734 0.66905093 0.1395058 0.670686 0.654381 0.02631331 0.9479976 0.7750013 0.77313036 0.5996812 0.037273496
얼마나 0.1314414 0.28724656 0.9060983 0.9655549 0.7841637 0.019599127 0.34018752 0.71371627 0.9072468 0.011100042 1.0751625 0.13911569 0.21543458 0.91269785 0.8417503 0.77735275
애니메이션 0.8422652 0.70907074 0.2818605 0.79957575 0.6345312 0.38784304 0.77566046 0.37136698 0.18218313 0.8959795 0.24719664 0.7135315 0.108477876 1.031893 0.80723065 0.2626569
러 0.8249355 0.572335 0.4861901 0.59912825 0.42075896 0.9014444 0.2697838 0.11857988 0.46892193 0.66580164 0.13509694 1.0714444 0.45439452 0.8337173 0.8704804 0.90127295
맘 0.20709403 1.0022832 0.96678364 1.1499127 0.0597444 1.0106968 0.22013584 0.0012395452 0.10109201 0.0416824 -0.081655055 0.804108 -0.03361837 0.16826981 0.445828 0.72972363
!!! 0.42181063 0.607027 0.91980207 0.99244535 0.36000815 0.2508675 0.88983005 0.5503633 0.7409867 0.24100956 0.790674 0.40981084 0.49446288 0.8966993 0.36959755 0.96098185
난다 0.77522177 0.7098235 0.16302161 0.376791 0.3159152 1.1828779 0.25655803 0.53835493 0.5395046 0.3466742 0.54534465 0.2619749 0.90678537 0.14620739 0.5210154 0.8374348
주연 0.40532467 0.09231359 0.5849067 -0.047908742 0.18300152 0.4777772 0.65164906 0.62700206 1.0565077 0.15462415 0.24416602 0.3256593 0.566749 0.91807115 0.75092596 0.29925695
원 0.9337366 0.544027 0.9334153 0.7215596 0.37556946 0.7732275 0.2161793 0.016382469 0.44267672 0.34546775 0.10518582 0.94077086 0.91741097 0.28041083 0.22872679 0.4520418
이딴 0.8469446 0.42815724 0.29290262 0.29376033 0.9748338 -0.013506387 0.94767594 0.04086864 0.6996554 0.26701596 0.7358082 0.88917553 0.8387723 -0.14914595 0.20133542 0.7629331
버리 0.082425095 -0.215972 0.4509314 0.46492535 0.8319939 0.24620418 0.3431739 0.3254079 0.41141835 0.7585484 0.96980435 0.47428194 0.22385792 0.30301863 0.79149836 0.75257576
♥ 0.5566157 0.027918637 0.8289769 0.58688635 0.06043809 1.0952543 0.8616755 0.55532014 0.27027667 0.5519818 0.02458918 -0.0046052695 -0.1282688 0.6908144 0.89452726 0.82186884
어릴 0.0929271 0.18927504 0.94239473 0.50488377 0.53304636 0.8272334 0.837357 1.0575823 0.05780788 0.3049784 0.27170622 0.36049616 0.4069642 0.4950205 0.66635025 0.088797815
후회 0.53978145 0.40493903 0.83198047 0.55765665 0.6037561 0.54135126 0.80507904 0.44788536 1.1642553 0.51640457 0.5793303 0.7879895 0.8834912 0.77672416 0.4054203 0.67090243
진부 1.0856421 0.38871384 0.0076408884 0.63332033 0.3365779 -0.044236332 0.49207 0.023222372 0.11093018 0.31856078 0.5212133 1.0509163 0.4092121 0.47408408 0.007740461 0.51518923
나올 0.50601536 0.7515643 0.76852757 0.8291409 0.6010382 0.5590287 0.35175398 0.11134648 0.3301039 0.77173525 0.96991074 0.91071045 1.3002203 0.6125759 0.45246828 0.6034056
됐 0.34354073 0.28324744 0.34886009 0.64943695 0.45869794 0.6864841 -0.1321552 1.0214679 0.39915 1.0895205 0.42131603 0.60097 0.9145145 0.51563674 0.5098434 0.67455846
보단 0.27727416 0.6410321 0.7139358 0.25699905 0.81134254 0.672545 0.81801194 0.10810199 0.5892627 0.7721717 0.68375504 0.22599901 0.78244656 1.0275899 0.6840873 0.7169541
장난 0.4789404 0.50529397 0.50468534 0.1454288 0.8771315 0.2172343 0.08346803 -0.0025689483 0.20359366 0.48792914 0.5861168 0.5474911 0.88114965 0.78526217 0.8783633 0.46470264
책 0.77156836 0.25145605 0.30330557 0.1783937 0.11802015 1.017398 0.27995387 0.20782605 0.24794392 0.7533546 0.45817712 1.039214 0.28321666 0.66732335 0.21831113 0.834967
더니 0.022001164 0.19846064 0.50435853 0.11088459 0.4993116 0.34356806 0.46783772 0.4299413 0.83893985 0.20313035 0.9618221 0.4396679 0.48850474 0.7851222 0.65947443 0.9910207
큰 0.60448164 0.5522571 0.6416849 0.57714874 1.0009173 0.8767328 0.30730182 0.25331846 0.8759255 0.57462984 0.41873196 0.07033211 0.11675911 -0.013395229 0.82011825 0.28330764
영화관 0.09296322 0.2657491 0.3477298 0.606715 0.9004403 0.7103077 0.80929303 0.2338594 0.36183035 0.35790107 0.9433612 -0.004294271 0.70940137 0.50334114 0.28303444 0.16773285
둘 0.6317765 1.022525 0.37160382 0.9487445 0.82740456 0.9398451 0.14498249 0.42157957 0.3622454 0.64696914 0.35951915 0.5433077 0.37994486 0.23545778 0.82197374 0.083515406
출연 0.1047971 0.40385458 0.43337226 0.5687151 0.3063477 0.3156647 0.83151513 0.51885206 0.86750126 0.011555078 0.8501135 0.44855154 0.34677824 0.48421177 -0.05739414 0.42408508
극 0.592626 0.46903428 0.40978277 0.40574852 0.16569887 0.1956811 0.3885072 0.6855825 0.60635406 0.44163883 0.22677428 0.51019263 0.8511137 0.4901492 0.0917529 0.38562828
ㅅ 0.1069066 0.14233588 0.8432662 0.94119895 0.44693562 0.51197416 0.5825358 0.46413144 0.42351335 0.26979104 0.11083331 0.55584556 0.5422289 1.1065253 0.31630352 0.89505476
개연 0.79569775 0.82939386 0.71665543 0.32976177 0.07379114 0.37182248 0.250385 -0.21222849 0.8529861 0.7299717 0.8880289 0.20248516 0.9088049 -0.027031038 0.04101062 0.7887504
충격 0.8502608 0.54316086 0.6974754 0.034965355 0.8346552 1.146019 0.08994221 0.9979924 0.03877096 0.14698839 0.27968094 0.7222942 0.34463206 0.5915494 -0.011737611 0.6051419
여기 0.48607856 0.6360363 0.9289072 0.53385764 0.690032 0.14950171 0.409648 0.50500697 0.4692956 0.378346 0.30081514 0.7904743 0.67238116 0.3698242 0.09629111 0.7380966
평가 0.6873108 0.51039964 0.44233322 0.16517253 0.76643646 0.8198889 0.36191428 0.25615492 0.18953082 0.30535573 -0.11657363 -0.006362232 0.52730185 0.30212152 0.6256984 0.5321116
엇 0.92800486 0.981009 0.15402679 0.5754493 0.4362104 0.5374532 0.04971394 0.7941295 0.31055883 0.32383496 0.115472734 0.9012239 0.29963487 0.92236215 0.29503796 0.46756485
꺼 0.47782493 0.37630853 0.30593535 0.5267716 0.91752356 0.1832353 0.29412428 1.045565 0.56680095 0.20808205 0.70194584 0.83259 0.9339967 0.73808926 0.22627887 0.75978035
잔인 0.7524119 0.75027794 0.4949893 0.26308927 0.6954105 0.17260367 0.7392249 0.8503343 0.55845034 0.63387936 0.74010885 0.07957464 0.6618179 0.5471778 0.83453846 0.43607724
아름답 0.13240695 0.7817327 0.6849546 0.7129042 0.41482347 -0.0060457336 1.0025162 -0.011109966 0.33715475 0.67694473 0.075816944 0.51189077 -0.057458602 0.8392266 0.4965596 0.60449624
얘기 0.5883143 0.03419967 0.64318573 0.055929974 0.38223594 0.64032745 0.579223 0.5285315 0.7989677 0.7687401 0.8034524 0.4899134 0.37194052 0.7106526 0.5606488 0.1840856
줬 -0.09672513 0.19105032 0.27267507 0.7950731 0.4584937 0.4251696 0.3501098 0.31490648 0.3389841 0.123066984 0.78791165 0.72596353 0.0551178 0.48154992 0.7498182 0.49882123
자기 0.86179864 0.04850669 0.5715617 0.5303643 0.10173833 -0.11574681 0.6606346 0.291716 0.0929874 0.10699145 0.20795123 0.7434114 1.0407528 0.29875404 0.79453844 0.22588171
예술 0.32637393 0.73901534 0.9871979 0.7453952 0.67932534 0.5228884 0.39738795 0.7652373 0.39644012 0.21080324 0.57012105 0.42194614 1.0541363 0.6117063 0.848507 0.6416807
갈수록 -0.21200545 0.09445544 0.7504321 0.45825535 0.46923807 0.582759 0.92909455 0.2564022 0.64012563 0.72933394 1.0504655 1.0127084 0.7901793 0.163177 0.70855635 0.4429183
매우 0.1425525 0.3779514 0.46825936 1.1296856 0.57887363 -0.028283484 0.5874508 0.5466814 0.5830403 0.8582192 0.73597413 0.1447631 0.002941827 -0.0047856574 0.31588662 0.2240173
반 0.803998 0.5080086 0.2785049 0.90418804 0.55250376 0.5008125 0.085570656 0.611909 0.8778812 0.66635245 0.7929947 0.30338266 0.14650394 0.9454811 0.6965586 0.6759729
위한 0.036617637 0.8652635 0.733919 0.57405937 0.5131512 0.801048 0.3776847 0.24094227 0.593967 0.2119424 0.7488169 0.7953603 0.7284716 0.35422894 0.9936982 0.75819963
든 0.41453597 0.58113253 0.08341895 0.12247868 0.6534526 0.6645633 0.38893175 0.58720607 0.12762162 0.45655864 0.4388317 0.068595044 0.3074183 1.0182009 0.6521045 0.7601217
이리 0.12333102 0.1495261 0.3485982 -0.08502397 0.18900715 0.09710058 1.1023018 0.887368 0.06970951 0.8699213 -0.12617248 0.3873679 0.43121308 0.4487351 0.1774596 0.44641694
봐라 0.7235161 0.8980053 0.2850048 0.80138654 0.19215679 0.17756018 0.61144286 0.63342386 0.28594163 0.52370584 0.5763124 0.91353613 0.81093717 0.6393927 0.34816292 0.06351224
이후 0.84479046 0.63629335 0.5525751 0.56171525 0.63278776 -0.036444116 0.9311273 0.7475957 0.8772703 0.5413695 0.012790886 0.61661404 0.9186821 0.08841212 0.7058349 0.7639867
읽 0.4504908 0.066220015 0.565146 0.799976 0.4909527 0.4609028 0.5278986 0.7569983 0.88487273 0.14339247 0.8408723 0.33304378 0.3671708 0.4566026 0.60041493 0.6090833
얼굴 0.984023 0.79444057 0.9473909 -0.015080186 0.7707652 0.68162566 0.7225343 0.13771896 0.08862621 -0.045249112 1.0708796 0.55246264 0.33387253 0.78572065 0.33462486 0.26796973
꽤 0.1965916 0.7362103 0.7748081 0.27163348 0.7724288 0.68946916 -0.037959784 0.45634532 0.70355123 0.97580236 0.5511481 0.38579932 0.23241489 0.68149215 0.6062989 0.16682455
불 0.90055805 0.30894485 0.29249927 -0.022736877 0.23798232 0.55555785 0.54131603 0.17356178 0.57925063 0.31884706 0.3202613 -0.117645696 0.8392335 0.61625046 0.6519521 0.28612074
으나 0.9996907 0.37829092 0.34131667 0.9929499 0.31417847 -0.053513713 0.4270373 -0.030453194 0.6158172 0.24067406 1.0599188 0.71683264 0.55181086 0.48624173 0.65820885 0.75713897
