10000 16
<unk> 1.5573834 0.22644304 -0.63565135 -0.14497228 -0.30078378 1.0008525 -1.7626445 0.062756985 -1.9682341 0.000129832 0.47982073 -0.96149015 0.49690303 -0.46115017 -0.62360245 0.4851205
<unk> 0.4735474 -0.18769948 -2.8983502 -0.21207404 -0.21245508 0.46640196 0.45351422 -0.9248045 -0.64085275 -1.0620979 -1.4732537 0.016605515 0.739424 0.67705446 -0.31809527 0.9039273
<unk> -0.7765292 0.10279673 -0.98539394 -0.709568 1.2023367 -1.0542656 1.2492785 -0.62931013 0.8733606 -1.2606705 -0.045598708 0.6433071 1.2806265 -0.09771455 -0.037955914 1.5926754
 -1.1644169 0.95496804 0.021221325 0.54120064 1.6587968 -1.2250403 -0.6047766 -2.0339353 1.2109255 -0.28295156 -1.3484343 -0.74846876 1.3596735 0.99541533 -0.17207864 0.72101086
. -0.40836352 -0.26673236 -1.0860258 -0.39364454 0.30201125 1.1363515 -1.4635448 -1.4061552 1.1068714 2.6316533 0.6183209 0.16859345 -0.8712228 0.3234858 -0.49141905 -0.94819415
영화 -1.3574238 2.6074023 -0.30381966 0.9059079 0.17891516 2.3478448 0.28585926 0.18561645 0.09939266 1.4690732 -0.6085167 -0.19889459 -0.14775178 -0.9130777 0.58932525 0.8008226
다 1.2605268 -1.6959928 0.3497998 0.9781209 -1.0729692 -1.4673654 -1.0571165 -0.18014203 -0.23747712 -0.46133372 0.7109618 0.37928456 -0.306215 1.4619244 0.84037715 0.4439016
고 -0.49746916 -0.59243983 0.41088724 -0.3283588 0.9812235 -0.9660134 1.8775575 0.041319624 0.16068375 0.33786476 -0.029735174 -1.3011299 0.11949526 -0.00055922853 -1.1660433 0.15917948
하 -1.0735711 -1.8069861 1.9998295 1.5041146 -1.8609328 2.184329 0.5943519 -0.7701823 0.19752976 -0.78100944 -0.4938165 -0.6457958 -0.414953 0.67194355 -0.6135801 -0.2513154
을 1.1381537 -0.5639031 -0.12280972 0.19323604 -0.9992357 0.88086766 0.1966497 1.3582602 1.2194577 -0.044676673 1.1674631 0.21620055 -0.41416192 -0.9773046 -0.45034805 0.637004
보 -0.15723677 0.6259634 -0.90602547 -0.38602033 0.9340246 0.62984425 -0.3058507 -0.5107785 -0.4469967 1.0358235 1.4545076 -0.6645513 1.4013549 -0.32298613 0.43795407 0.52221316
.. -0.34734753 -0.058944467 -1.0006318 -1.6636059 0.94857657 1.2550193 -1.4055519 2.4080281 -1.5493009 1.0348271 0.065765776 0.97286594 0.75286114 -0.3747348 -0.4756801 0.008076727
게 -1.1208837 -0.683022 0.2052822 -0.98879826 -0.5029272 -0.17632958 1.3648875 0.9008882 -0.74834514 -0.8914007 -1.4542569 -0.32988685 1.3727239 -0.18170883 0.4548486 1.1712403
, 0.67213506 -1.3575517 0.13447519 -0.15912898 -1.8779573 1.2452593 -1.8700703 -0.25993785 0.74878883 0.7052291 -0.42690527 0.12929577 0.93097883 -0.6971099 1.6381521 0.25696003
! -0.14445023 -1.3091584 -0.7196925 -0.33692944 0.2593605 -1.1895325 0.5958808 -0.3245009 -1.5442662 0.7242443 -0.05720015 -2.164094 0.19427185 0.15122327 -0.7562307 1.208886
지 0.7070778 0.28266144 -1.8000041 -0.009535912 -0.9697533 0.8488994 0.6785944 1.7407901 -1.6404773 -0.09239247 1.2775828 0.88427114 1.1450924 -0.3203977 1.9527981 -1.6336569
있 0.9086991 0.12777093 1.4562826 -0.93631864 -0.78198445 0.49813092 0.46445793 0.32167992 0.28239113 -0.19095436 2.1340108 -0.29515147 0.7642619 -1.5140394 -1.008771 0.33878
없 -0.40361056 -0.6457539 0.52127093 -0.11791846 2.0714374 0.07520603 0.3643698 0.9661302 0.12204862 -1.3646867 0.065596536 0.14848326 1.1450338 0.9941312 1.1405171 1.5834606
? -0.0064856703 0.66085285 1.6075679 -0.22662242 1.7981371 0.32783434 -0.26837334 0.9975402 0.0011384983 -1.3278003 2.0040998 -0.009206481 0.926924 -0.7406833 -0.26665246 -0.8782699
좋 -0.30780536 0.19070674 -0.05097916 -0.61867344 0.29148287 -0.1996382 1.5955014 0.7573341 -0.35089433 1.3040357 2.1007748 0.3930252 0.6044198 -0.2613219 -1.288843 -0.27083042
나 0.81645024 -0.7851018 -0.7672121 -0.40250164 -0.408069 -1.5320399 -1.0783918 0.5109172 -1.7826377 -1.4554815 1.1426897 -0.84580386 0.544091 -0.17193359 -0.29612806 -0.51353323
었 -0.049683403 -0.075266846 -1.2348427 0.36731973 1.4516733 0.086236365 -1.2088608 -0.053498417 -1.9877303 0.9007791 0.88064545 1.6365767 0.15838464 -0.7666335 1.6444426 -0.5717121
만 -0.3743933 0.31359297 -0.7072289 -0.5317027 0.6680571 0.6303616 0.32053277 1.4230853 0.5175051 0.16257885 0.2713456 0.88776886 -0.46518728 -0.70192856 0.0883263 -0.36070403
는데 -0.8453997 0.46467116 0.71808696 -0.93056476 -0.68022096 -1.9657543 -0.20010431 -0.9845443 -0.75628895 -2.329899 0.44014892 1.9981135 1.7794294 1.0609771 -0.23042679 -1.1017747
너무 1.6380949 0.11074347 0.82406723 0.1446793 -1.3559227 -0.3546784 -2.2478871 0.8162077 -0.83704007 1.3942184 1.2305558 1.4902707 -1.2294483 0.2834036 0.003594354 -0.67263126
봤 0.8427206 0.33140457 0.3862615 -0.250349 -0.58438605 -0.1313537 -1.4190731 -0.0070253126 -1.3373841 -0.26224738 1.6131892 -0.12921156 1.5281549 0.25104457 -0.49751088 -1.3822262
적 -1.7545586 -0.7999009 0.28846112 1.6877196 -2.1917787 0.6552456 0.82834685 -2.4057257 0.7268173 0.41179165 2.0416372 -2.1235225 1.3414086 -0.93179905 -1.2940922 -2.2002904
안 0.3282653 -1.7292202 -1.243115 -0.92714596 -1.0660194 0.94959295 0.15385126 0.61187273 -0.26639786 -1.1303425 0.114092804 -0.82958674 -2.0532055 -0.28723136 -1.1975445 -0.12939166
로 -0.07648326 1.11339 -1.2045039 -0.14360271 1.1889099 -0.7817484 -0.5470686 0.81476295 -0.124575496 -0.671564 -0.54962415 -0.2430674 -0.29692006 -0.28343242 0.04377956 -0.8426687
정말 1.0958725 0.24230804 -0.971883 1.5259893 -0.48469567 0.36464345 0.11432583 0.035705242 -0.8362792 0.44146025 -0.06336072 1.1713831 1.0798758 1.659222 -0.41898432 -1.3221436
음 2.0936747 0.18513264 0.07736297 -0.07073903 0.77432615 -0.4795676 0.8272875 -1.8688139 -1.332935 0.49142098 0.51899093 0.40484422 1.456556 -0.91021055 1.6713811 -1.1634423
것 0.08348344 0.6572118 -0.4273503 0.48300886 -2.3006012 1.0070647 -1.0813308 0.34843975 1.971687 -0.87205225 -0.44547516 0.47178152 -0.2241353 0.63039076 -0.35285276 0.47867438
아 1.2033795 1.0864723 0.8570259 0.2600612 -0.33461916 -0.61423653 0.6996882 0.30199057 0.64460516 -1.9705633 0.19105694 0.3714947 1.6608914 0.041796714 0.33691496 0.22686674
네요 -0.021678885 -0.932024 0.88593405 -0.51237684 -0.36176652 -0.5155706 -0.5774669 -0.6567782 0.9744066 1.4638538 0.6978867 0.22531176 0.25543308 -0.030952185 -1.4362084 -0.25977746
어 1.1597071 -0.21026678 -2.6012921 0.51695603 -0.6290146 0.19896454 0.2724489 -0.55814266 -1.0467209 2.5880287 0.49075773 -0.10163198 1.280017 -1.7272564 1.2336442 -2.0705035
재밌 1.6717397 -0.53833663 1.2598424 -0.020384569 -2.1508973 1.4009473 0.9076845 -0.72701526 1.1238295 0.6102656 1.349375 2.4193308 2.5650225 -0.3524972 0.38260058 1.2498344
같 0.46174225 -0.11913733 -1.0966927 -0.74963105 -1.5818918 1.398188 -0.31124732 2.0444791 1.9884651 -1.3983645 0.4135841 -0.3182824 -1.192523 -0.8801377 -0.6142106 0.35960868
점 0.88153166 -0.29669112 2.7150977 1.8578589 -0.057738673 1.556907 -0.67659765 0.20742725 0.9024623 -0.272799 1.292557 -0.5747909 0.51754326 -2.8024516 0.25813413 -0.40438983
지만 -2.3266747 0.11345688 1.0799276 0.38554627 -0.37049794 -1.1340437 -1.4649001 -0.36804488 -0.34681478 1.5766321 -1.9596282 -0.33033702 1.580985 -0.78633547 2.4123912 -0.8648666
진짜 -0.38535765 -0.9503968 -0.024228761 0.971268 -0.4786043 0.6921424 -0.76609564 -0.43466866 -2.1075308 0.1813833 -0.877965 -0.77462906 -0.3795569 -0.4779668 -0.94365716 -0.19745825
했 0.68233883 0.36548883 1.3953667 -0.8451541 0.42125058 -0.3551541 -0.2919942 -1.3044424 -0.6533957 1.6569582 0.43598747 -1.5864204 -1.6256635 1.3648072 -0.9946026 -0.3610929
기 -0.42065737 -1.2326895 0.50217706 -1.1846101 0.1542705 -0.18588506 0.48999524 -0.68781203 1.774115 2.1600924 0.13785493 1.3466228 -2.037197 0.5684703 -0.06610196 -1.0789274
에서 -1.684771 -0.3749767 0.08723101 -0.28384528 2.7394636 -0.8608162 0.9902317 -0.735243 0.6322654 0.26760742 0.75957614 -0.65379834 0.040213596 -0.2980375 -0.07073562 -1.1072443
네 -0.08584755 0.09120986 -0.08631882 -1.6733545 -1.7101905 -1.419151 1.6594113 0.39737123 0.004021866 -1.392239 -0.21097024 0.82610965 -0.8869987 -0.9847728 0.38350117 -1.1087992
않 -0.010589487 2.2699296 -2.076194 -0.010542693 1.8215464 2.0689723 -0.43252125 -0.15170929 0.76369375 0.79064363 -0.50789034 -0.18559045 0.1679274 -0.2971512 0.09858409 1.1259983
거 2.6201591 0.3133309 2.3988986 0.30839932 0.47214663 0.0150696775 1.5302484 0.87271786 -1.323945 -1.8121581 1.9183784 0.34968054 -0.81095994 -0.33482 0.53640693 1.2196547
았 1.8480304 0.46578965 -0.0931965 -0.35876545 -0.10344746 -1.0152323 0.2351886 -0.3454839 1.6678896 0.23765594 0.3785617 -0.5173911 -0.30045038 -1.7863292 0.7234573 0.5888652
수 -1.8451543 -1.0726337 -1.0099747 0.3169057 1.1515468 0.36207083 0.5079014 -0.4348677 -0.80912966 0.727375 0.060483947 -0.70645744 -0.6793372 0.6307331 0.08443206 0.43319902
되 1.1630783 0.5530749 -0.33283532 1.5803277 -0.86937773 1.4898455 -0.53650045 -2.032412 1.3380573 -0.004248015 -1.6789767 1.7743654 0.047751844 1.0915719 0.43837434 0.19907375
면 -1.4242558 -0.0938546 0.22859912 0.8675659 0.8005063 -0.42551777 -0.70499104 1.1674153 0.669368 0.7254049 2.0998256 0.71654886 -0.16981386 -0.65260875 0.6008329 0.6246288
ㅋㅋ 1.4934247 0.11796252 0.7055135 0.2726806 -0.84683394 0.93831617 -0.06961669 -0.17401345 -0.9407181 0.94248444 2.2342248 -1.2018557 -0.025528386 0.40180483 -1.6228521 -0.3204108
말 1.3463078 -0.76600015 0.07220035 0.76337713 -1.5384066 -1.4403293 0.50294524 1.0646378 0.73912233 -0.89218116 1.7399902 0.8767776 0.29089364 -0.59861827 0.27357876 0.20987307
인 -0.43907988 0.29940328 -1.0505737 -0.7719402 -0.28369352 1.095621 0.44221342 -2.2187219 0.9693833 0.9349137 1.4066862 -0.56975883 1.682296 0.07053481 0.7343751 0.53318596
연기 0.7722849 -0.8404805 1.9163266 0.99801254 -0.4927084 1.4340656 2.293617 0.31681678 -0.7013123 -1.2839006 -0.25567007 1.3410171 -0.4226775 0.3842358 -0.6621744 -0.039125767
주 -0.045389216 -0.69755596 -2.1374156 -0.4724894 0.9592788 -0.19755493 1.3019958 -0.5002873 0.5660779 0.632689 0.3287557 0.23481601 1.480383 -0.6555385 -0.5207775 -0.34920225
내 0.5930308 -1.5003674 0.081002556 0.81948006 -1.5048361 0.12077559 -0.98912 -2.721948 -1.1270335 -1.1432942 3.037306 1.3849996 -1.6413126 -1.0023515 -0.06590741 -1.0786854
최고 -0.8775579 -0.167259 -0.8331725 -0.28089824 -1.9113119 -2.3596964 0.5311585 1.0330324 -1.5575092 2.0403004 0.9795711 1.8616426 0.41734806 -0.8986249 -1.1235132 -0.6198171
~ 0.50404346 -0.0974857 -0.6112419 0.5368439 -0.066962 0.34295386 -0.26944366 1.0636126 0.24249953 0.42692488 1.1024356 0.17220178 0.31529918 1.9213375 -1.5703813 -1.2656889
평점 0.9573441 -1.3148702 -1.7050055 -0.780169 -1.5926496 0.6268062 0.8213113 -0.48338053 0.115557365 -1.3036803 -0.5900421 -1.6675336 0.30710208 -0.1580823 0.19131859 1.8919945
이런 -0.20991258 -1.3101747 -0.48790714 -0.12597619 -0.8111165 -1.8611474 -0.8169228 -0.2581984 1.1063409 0.7131624 -0.42286757 -2.147229 0.08307857 0.11584185 -1.7217028 -0.28295484
던 -0.93967867 1.3113503 0.9721758 0.04350323 1.1249291 0.47599924 0.8134841 1.5216925 -0.5446299 0.26722914 -0.2229358 -0.17247851 0.13457112 0.7401489 -1.433889 0.04476555
어요 1.5917293 0.51278573 -0.16777687 0.73645896 -1.4618729 -0.34750935 -0.27987862 -1.7946976 -0.74112606 0.3863684 1.001233 0.31123406 0.25957623 -1.0348884 0.80808735 -0.44642052
할 -0.11143852 -0.12991022 -1.5600386 -1.2295319 0.3523965 1.2973377 2.0435853 0.6502473 -1.8616612 0.7141969 -1.4416457 -1.0812542 2.0095353 0.19966519 1.3305987 -1.6004922
왜 1.0358267 -0.30019116 0.10854096 1.084662 0.6230582 1.0664378 -2.0495791 -1.1143411 -0.13747981 -0.55526716 0.46682343 -0.8203169 0.3117347 -1.3041644 -0.07802525 1.7034311
겠 -0.014960329 -1.0095811 0.35125008 -0.4255096 0.6150486 1.8273547 -0.9760468 -2.427512 -0.2927194 0.00072290393 -0.5259597 0.8018153 -0.5384104 0.6727543 0.84189695 -0.84307855
해 -0.24076386 -0.4103344 -0.020888155 0.058184117 0.20766707 0.42082307 1.342806 -0.34236068 1.2094027 -1.3332788 -0.34188813 0.79752725 0.34556067 -1.4917694 -0.31414416 -0.53758377
1 -1.0917237 -1.3746696 0.0052755196 -0.59912914 0.04927533 -0.06822377 0.5990988 -0.20911306 0.2392134 -0.588956 -0.042184062 -0.42931208 1.5364064 0.07281133 0.12154635 -1.9429755
스토리 -0.7657819 0.51836705 1.004208 -1.2606574 -0.42965332 -1.600781 0.29203868 0.33493102 1.6495993 -0.33976814 -0.20524266 1.0832723 0.098133154 -0.90018135 0.7347157 -0.72498214
습니다 0.12968957 -0.5896186 -0.686664 2.0595076 0.021577403 -0.5976559 0.99655926 -0.22211085 1.0115466 1.0527666 -0.9884959 -0.03319 -0.6860205 -1.2326134 1.6528906 2.4835174
ㅋㅋㅋ -1.955244 -0.6998319 0.63230187 -1.2826897 -0.27513435 1.709299 -0.5180142 -0.7855739 -1.2658225 -0.8932327 1.3603134 -0.09138729 0.4846108 -0.5568913 -1.2563263 -0.69532037
... 0.36626244 0.46613342 -1.0717484 0.060680658 0.19607246 -0.6009091 0.40900746 1.077434 -0.6695772 -0.24278922 -1.1600891 0.06459272 0.09218602 0.09986278 0.061539017 -0.7675785
드라마 1.6385416 1.3942677 0.14847186 -1.7950075 -1.7525132 -0.08811678 -1.7733089 -0.56084746 -0.8947492 0.43345004 0.566644 0.48347208 0.25539777 -0.27308953 -0.022159224 -0.69460297
아니 -0.32086176 -0.12756772 -0.37432992 1.3125169 0.4767352 1.2053134 1.1717237 -0.5966715 1.9103513 0.3162977 3.1095886 -2.4437344 -0.038123593 0.906133 -0.105864495 -0.12443294
생각 0.34649912 0.55524546 0.27170694 -0.8493991 -2.0478873 1.4617292 1.1615973 0.66865623 -1.4786654 0.544718 -0.22248492 -0.9567744 0.08760025 -0.7914846 -0.030272933 0.19909391
더 0.32257575 0.5769439 -0.38613147 0.23040903 -0.9003079 1.2951094 -1.7750401 0.19671586 -0.66278076 1.2108122 -1.0269431 -0.6410358 -0.16342647 0.2712765 0.09080537 0.6690552
그 -0.49125704 -0.20393115 -0.44966468 -0.0183913 -0.2852108 -0.26445112 -0.02941913 -1.4925343 0.5152336 -0.54992425 2.2641442 0.48987263 -0.81228304 0.7309947 0.32132682 0.7658848
싶 0.3118957 0.18172617 -1.0685476 -0.8542932 0.6714455 -0.99714774 0.36412153 1.5929271 0.6860341 0.70161813 0.46277586 0.30533907 -0.17842777 1.3640518 -0.89273703 2.3200974
사람 -0.7542032 -0.9763264 -0.68008953 -0.15456423 0.17242225 0.5445385 0.9665823 -0.50234866 -0.2942642 0.8540154 -0.16293569 -0.43229336 -0.7669339 1.8287084 0.5669388 -0.034712914
듯 -1.5109843 0.73101264 1.759154 -0.4251707 0.13371384 0.6997151 -0.8269129 0.42229664 -0.11742795 -0.47539377 1.4078282 -0.47566068 -1.2122177 -0.34564763 -2.0315804 0.19751917
때 -0.27506444 -0.83512866 1.0505514 -0.8178474 -0.5163521 -0.12050527 1.3917683 0.41106445 0.10116596 -0.4705569 0.83124465 2.1426537 -0.86420757 -0.6558299 -0.32585505 -0.23693998
감동 -0.93769217 1.516954 0.6289714 -0.2538602 -0.99429345 -0.55971175 0.13369803 0.87987715 -2.0226963 0.535564 -1.072264 0.1472049 0.613993 -1.1387746 -1.0026796 -0.7405312
함 -0.47714725 0.092420705 1.2163227 -0.47785434 0.06727018 -1.0930448 -2.4474902 -0.7477798 0.03647244 0.97688496 1.3668995 -0.7351763 2.770741 -0.32930198 -0.5484908 -1.5580492
배우 -0.36562613 1.0659415 1.7144068 -0.97352386 0.34320047 -0.68599457 0.5849659 0.6791196 0.7190455 0.25622347 -1.5594348 0.4953509 0.65842324 -0.883109 -0.467608 -1.4504427
본 -0.57685035 0.07806514 0.32049575 0.11258564 0.29098856 -0.122292235 -0.2199773 -2.3766394 -0.29855064 -0.42091006 -1.6673247 0.9764451 0.053288125 1.4642475 0.25895724 0.58841336
까지 1.8239075 -0.97000515 -0.022937862 -0.47865486 1.4991802 1.6880101 0.8440055 1.7805154 -1.4829407 1.216058 0.37505803 0.5855917 1.1717402 -0.38730475 0.5397601 1.8307238
뭐 -0.3114756 -0.91152525 0.2172657 -0.13135765 -1.2630583 -0.7597018 -1.3085622 0.23055288 -0.07966016 -1.9236194 0.039964583 0.30126953 -0.55184454 -1.6542864 0.6337021 0.27546594
보다 0.13989052 -0.029990152 -1.2295605 0.31800586 0.9516447 -0.7472254 -0.6089744 -0.8897477 -1.2684971 -0.60140246 -0.029198218 -0.92758644 0.3415183 1.5661972 -0.18497175 -1.7286432
알 1.917284 -0.22266613 -0.551288 0.22691324 0.6365339 -0.2557052 0.19733211 -0.4790498 -1.6261383 0.043023873 -1.4999644 -0.16255066 -0.6125608 0.8498427 -1.2441015 -0.11448423
만들 0.15245809 -1.6677362 -0.44096112 0.17423873 1.196379 -1.2519759 0.4234421 0.076624125 1.0005412 -0.3864649 -0.56599224 1.2830461 0.44269058 1.7486887 -0.29192117 -0.4720848
내용 1.901694 -0.41468522 -0.030790882 0.43769166 -1.341714 -0.7568889 -2.3357987 1.2240206 -1.1959059 -1.3097199 0.6568377 1.0691131 -0.18420133 0.846744 1.0236316 -0.11033492
볼 0.34238476 -0.48143262 -1.0628638 0.25513965 -2.3436415 0.24025999 0.74860424 0.3397201 -0.9197998 -0.35757342 1.4168802 0.92712957 -0.063841455 0.90820324 0.8422706 -0.029239694
감독 1.0023258 0.71739465 1.2018584 1.6859895 0.7408062 -0.043150976 0.559045 0.5260409 0.6234882 -0.881631 -0.51406735 -0.6306094 -0.1521541 -0.6398454 -1.3711777 -1.0740335
라 -0.15089747 0.27714688 -1.3588363 -0.89835656 -0.05599019 0.22616744 0.5507092 -0.67282176 -1.1690396 -0.869906 -1.8188875 -1.0860996 -0.4245461 0.80080175 -1.5919782 -0.88046086
그냥 1.752184 -1.5756605 -0.04496422 -0.8463923 1.0163567 -1.8804848 -1.0486526 0.87505364 -1.6829579 -1.0727906 0.78238785 -0.9286416 2.513224 -0.30238926 -0.58373535 0.082311764
재미 -1.6683275 1.46985 0.19190416 -0.5408495 1.0623714 -0.8895993 0.3189986 0.3300735 0.36798778 -0.31003907 -0.6705934 0.8704781 0.12956417 1.4229182 0.66069126 0.2351488
시간 0.2554754 -1.1016278 -0.06834509 1.0113729 -0.09507073 0.36371928 -0.84063625 -0.24657746 -0.018510245 -0.29455453 -0.71418935 0.5991989 -0.97962046 -0.1947596 -1.5194418 -0.9317076
지루 -0.525127 0.6316902 -0.7544981 1.6452436 0.509341 1.1617993 0.7548291 1.8677313 1.367008 2.4685066 -0.19130352 -3.1356182 -0.119794235 0.3883032 1.7245846 1.2056079
중 -0.5548033 0.5219348 0.53796697 0.19708446 -1.5229032 -0.5735009 1.7926315 -0.9977188 -0.3491232 -2.355544 0.7613619 0.30613455 0.03249365 0.960736 1.3929024 -0.5306031
재미있 -0.4555652 -2.091678 -0.51516366 0.47797474 -1.6279844 -1.6606327 0.42277113 -1.3632663 -0.028042926 1.4693984 -1.1908888 0.5108004 0.39617467 -0.83647853 -1.6886864 -0.9437654
년 -0.3996809 0.7602106 -0.96190315 2.548527 1.00659 -0.15990931 0.28664598 -1.4003116 -0.5419045 0.7163509 0.29829714 -0.60930973 -0.5089258 -1.2225083 -0.25935036 0.44118598
10 0.9563646 0.19697571 0.21183476 1.155419 0.11103052 1.9561194 2.185059 -0.0064561693 -0.087727346 1.072152 0.68610585 1.1703326 0.31661308 -1.416934 -1.5362037 0.70720196
였 0.29070315 1.6541339 0.6834325 0.45069107 0.1313836 1.0609262 0.67420655 0.6389805 -0.12897186 -1.0207486 0.79447895 -0.31975386 -1.4503609 -0.0928557 -2.026572 -0.2845052
잼 -1.0578064 0.018463237 -1.1255444 0.6872244 -0.8192566 0.7968766 0.66436374 0.2634194 -1.3546468 1.1476136 -1.1111012 -0.27526796 0.017429976 1.2062551 0.9294803 0.67975354
사랑 0.6079125 0.52751356 -0.53305763 -2.0692832 0.42035785 0.8555217 2.1889274 -0.7022197 -0.2366181 1.7647593 0.93112236 1.7487634 0.17770064 -0.17455035 -1.4398367 -0.90989506
못 0.3696278 -0.95594734 0.746976 0.45931545 0.39418525 -0.1299748 -0.14610416 0.9721073 -0.75237006 -0.51785487 -1.7745332 1.6976886 0.7787088 -0.20174596 2.0308387 -1.0948569
냐 0.31297496 -1.3763945 -0.8883856 -0.6269664 -0.2574618 -0.33551937 -1.0826422 0.42112988 0.5534827 -0.6546411 0.35668924 -0.28231442 -0.039045546 1.2584482 0.03657861 -2.087422
재미없 1.400569 -0.7117493 1.5976702 -1.4898716 0.7407723 0.19927609 -0.750699 1.3585786 0.43620807 -3.1984987 -0.44052312 -0.9910197 -1.1229714 0.27840853 1.6824797 0.81431943
쓰레기 1.8247949 -0.90570456 1.3122823 0.46935627 0.794036 0.25285888 0.38135022 0.80476636 2.8617675 -0.32425958 0.2157318 -1.5182825 -0.4277802 0.51307184 -0.28087097 -0.5046109
서 0.5333146 -0.017282426 0.8370256 -0.84275854 -0.1793893 -0.29183504 -0.64588636 0.33326504 -1.986854 -0.41905612 -0.29725674 0.7829435 0.24723366 1.4734279 0.37617135 1.4063326
야 0.19710568 0.79861516 -1.1592671 -0.4237297 0.9765083 0.17113063 0.44723123 -3.459112 -0.26973876 -0.09648715 -0.42918217 -0.6540686 0.15756392 -0.5178367 1.2119508 -1.0963087
2 0.34021148 -0.9286535 0.47758836 0.26991954 -0.5840419 -0.6143492 0.009765138 0.04096306 0.06280311 0.10617077 -1.3883827 -0.7934627 0.34417492 -0.44584402 -0.81165063 -0.27341926
라고 -0.40180194 -0.34578818 2.5132992 -1.6186458 0.9909972 0.33364642 0.28267592 -0.26984474 -0.6275568 0.1966182 0.98366636 0.1553065 0.8728371 0.3760916 -0.267065 0.007706329
니 0.91107273 -0.0039378842 0.15412329 1.2897463 0.6121774 -1.2286927 0.19945407 0.31707722 0.3186366 0.97438943 -0.15178984 -0.9877751 0.83442754 1.2463106 -0.9133349 0.69073296
면서 -1.295925 -0.4085966 1.2397319 0.9761004 1.2768111 0.10687772 1.1367221 0.35855356 -1.5520834 -0.5468272 0.22155307 -0.11051623 1.1099064 1.1210381 0.8454666 -0.96033746
번 0.1757735 1.9006865 0.052884515 1.3996856 -1.8209518 1.9603366 1.6768433 1.4100082 -0.54185313 -0.37751338 -0.10608267 0.27293822 -0.028812695 0.87108475 -0.0008630582 0.76937616
다시 1.314875 -1.5887582 1.1388024 0.33516085 -1.6806707 -0.81511945 -1.2526927 0.6636674 -0.73038286 1.1253754 -0.2845083 1.8174099 -0.6529151 2.0226912 -0.1699233 0.78256947
나오 -1.9925474 -1.2103132 0.1012495 0.5437562 -0.7932233 0.10448435 1.4131595 -0.011326818 0.5176193 -1.4432882 -0.3360093 0.22484083 0.39152065 -0.25213465 -0.015643366 -0.4934596
작품 -1.9610705 0.1795619 -0.78560984 0.16159719 -0.57404304 1.0957345 0.22917792 1.1562849 1.1886969 0.9080238 -0.35731554 -0.788934 1.5998119 -0.01496213 0.18903978 1.5123307
이거 2.9893587 0.31320122 0.594598 0.7418266 -0.82148415 -0.6910089 -0.063628204 -2.0329974 -0.07911929 -0.48073205 1.1633393 -0.23068722 -0.22723055 0.21843028 0.032305527 -0.5967583
하나 -0.35647494 0.008852872 -0.65560824 1.1559348 1.7994353 -1.4058152 0.21564539 -0.38964552 1.6748608 0.05345299 -1.3098114 -0.6855033 0.74851424 -0.8676358 0.30828893 0.7022725
줄 -0.010635799 -0.70205396 0.6151673 -1.1687709 -1.4770314 0.57030493 0.6051113 1.4424016 -0.5868931 0.99784714 2.4972432 1.6274405 0.3040823 0.078880824 0.8509239 -1.7889956
해서 0.89820313 -1.2367004 -1.1362739 -1.3438126 -0.47218934 0.2369396 2.8554683 -0.025048066 -0.11229714 -0.38027516 0.41584855 0.077695064 0.55787855 0.9373406 -0.094204724 0.44954282
개 -0.99781126 0.8579613 1.7470981 1.337309 -0.32521158 0.304307 -0.16152366 0.61479485 1.4291388 -2.6821477 -0.6023316 -0.007638851 0.61103344 -1.7803156 2.0505733 0.56687516
정도 -0.73421746 -0.7776745 -0.4523357 0.120777614 0.069795 -0.5269321 -1.6975669 -0.9632257 -0.084573254 0.9857214 0.85433316 -0.06699838 -0.6892578 0.48492792 1.5533246 -0.102836005
남 -1.019146 1.8176429 0.49508974 -0.60040015 -0.22123867 -0.4936248 0.28844568 -0.8044078 -0.49065536 -0.8680141 -1.3600413 -0.31954783 -0.7170423 0.69165176 0.003985439 -0.19766729
마지막 -0.03526929 -0.9735913 0.6545331 0.80988634 -0.90646386 0.034815557 0.42446506 0.028830677 -0.78562486 0.22828148 -0.1627355 0.67143124 -0.72454506 -1.450284 0.1931066 0.5279724
끝 0.96782243 0.85310894 2.3499987 0.07389588 0.033562783 1.1770071 0.828098 0.402503 -1.157133 -0.76178634 -1.2263921 1.3760529 -0.5847693 -1.2553959 -1.0965327 -1.6144034
액션 0.4202004 1.8602935 -1.399728 -0.5179492 0.64652675 -0.28828585 -0.04417431 -1.0886571 0.8764055 -1.489815 0.121426865 -0.2798879 0.24071349 -0.32751402 0.6847551 0.83728313
이건 1.6277721 -1.0167608 -0.90529084 -1.1624213 0.25366732 0.29939964 -1.1874629 0.8820951 1.3404902 -1.690182 -1.3165406 -1.1419698 1.7102023 -1.9795973 -0.84942436 -0.08487592
임 0.1522225 -0.95032364 -1.3106663 0.46709868 -1.5938516 -0.09741944 0.85281694 0.4296928 0.43350482 -0.061325837 0.044098683 -0.7782883 -0.9344401 0.784044 -0.47791484 1.8766731
건 -0.6102228 0.19341923 0.8695073 0.1338013 0.51696485 0.009050822 -1.6450958 0.2929851 0.7916525 1.1853399 -1.0223659 0.6754522 -0.35155872 0.50146693 -0.08678342 -0.35599464
ㅋ -1.3277225 -1.6700832 1.6189483 -0.29244784 -0.24239314 0.5509972 -0.4745958 1.0179783 -1.073374 0.44637063 -0.31067115 0.4160279 0.18642163 -1.7597533 -0.710898 1.4203974
3 -0.4987371 0.5150602 1.4028559 0.68950915 1.6959441 -0.040391378 -0.3780554 0.5129062 0.7652167 -0.11245458 -0.5563333 0.62885875 -0.46864176 -1.5312525 -0.27023387 0.3570848
기대 -0.38585094 0.9579274 0.459974 0.92969537 -0.61249346 -0.76042956 -1.1050644 0.59616554 -0.95687884 -0.25855166 1.3060476 -0.6149404 -0.7271467 0.39298782 0.42181507 -0.412187
입니다 -0.9333653 -1.2780331 -0.5774457 0.30223277 0.99634606 -0.9439092 1.6949046 0.22744521 0.3250405 0.75427455 0.43521765 0.26962823 -0.45927402 -0.29701662 -0.43442157 -0.54549444
라는 0.96562994 0.34990612 0.43140545 -1.039303 -1.7799008 -1.2578608 0.37775627 0.4519924 0.31218925 -0.5194103 -0.66431373 -0.65165967 -0.010687258 -1.5683715 -0.04214616 0.19985083
분 -1.2200142 -0.031501867 -0.7967528 -1.1696633 1.4519057 -0.42011583 0.40750498 0.57979316 0.08924553 -0.66843116 -0.31069133 -1.2396592 -1.4036427 0.8160904 -0.87412786 0.8602362
완전 0.36762416 0.12429946 2.6040757 0.015115921 -0.43763995 -0.72013646 -0.48256412 0.39662147 -1.0707456 0.36054525 0.6123263 0.5530549 0.38645083 0.33685547 -0.66401887 -0.3169598
다는 -0.15400866 0.7069018 -0.2955328 -2.327915 0.14968894 2.0801084 0.105002314 0.5781745 -0.7224589 -0.76980424 1.0604414 0.6764552 0.70864195 -0.5040892 0.06657359 -0.6104001
참 -1.2196671 -0.6253767 1.81478 -1.7315174 -0.45067465 -0.88102865 -1.8849787 1.1799817 -2.2429624 -1.7312777 0.09450248 -1.0279185 1.8354288 1.1928829 0.027553001 0.5341455
많 0.5683285 0.5991872 0.6524896 -1.9101888 -0.36631787 -2.9605367 1.3952156 -2.0610497 -0.14341374 -0.0101689 1.6513242 -0.93425214 -0.5108344 -0.12695853 -0.10863841 -0.7413608
처음 0.26326564 0.56706566 -0.44115233 -0.12817004 0.43245208 0.28042942 -0.2250124 0.7097867 -0.305618 -0.4192752 -1.1505358 -0.6032547 -1.1346642 -0.4673944 -2.367721 0.101100974
장면 -0.6297499 0.3548795 1.6001098 -0.028810048 0.37866092 -1.50765 -1.864087 -1.4689795 -0.2047731 0.67934346 -1.3394016 -0.92322373 0.97118634 -0.14683957 0.07310058 -0.903916
대 -0.73926353 -0.1435531 0.430443 -0.83409715 -2.0739717 -1.5600924 -0.7783406 -0.081861556 1.1803329 0.76300466 -0.6116232 -1.477219 -0.93318677 1.4567488 -0.18798344 -1.4951472
아깝 -0.11308328 -1.0120215 -1.4224877 -1.9588344 0.6065237 1.7378606 -0.8836407 0.4971348 1.4325029 0.06920853 -0.4505473 -0.63655484 1.0601174 0.050730627 2.348005 0.20361082
다가 -0.8276327 -1.542214 0.94038343 -0.6730766 -0.4320014 -0.15399982 -0.80194235 -0.58265996 0.2799573 0.07149892 -0.18277885 -0.18257107 0.67190075 0.32941893 -0.47586164 -1.0819858
으면 -0.8803747 0.45534447 0.5148876 -0.41630447 -0.1594446 -1.0631521 0.40321633 0.49839568 0.99488986 0.8376333 1.3665117 -0.2066478 -0.41837865 -0.11319602 1.3989499 1.0602264
지금 -0.640692 1.1392536 0.108384386 1.5098833 0.79195637 -0.5401237 0.4338246 2.4228058 -0.09774219 0.1712476 -1.207429 1.9455543 0.8071201 -0.10400166 -1.2255961 0.39497712
모르 -1.4793035 1.7656292 -0.23533076 1.0653007 -0.39684454 1.0675024 -0.14397411 0.42403302 0.18584694 -1.6035165 -0.74483067 -0.06100809 0.48469123 -1.5959344 -0.1695828 -0.5368328
이렇게 -1.0067966 -0.4557081 0.23566571 -0.7035044 0.59783274 -1.0877475 1.1166493 -0.57269424 -0.54678535 -1.022975 -0.9427758 0.26761556 0.5105833 -0.21886979 0.60478157 0.20185933
' 0.5004663 -0.2354968 -0.37426585 -0.22937623 -0.5992804 -1.4198911 -1.116166 -0.15653305 0.04018794 1.548985 -1.4022048 -0.5404899 0.40513018 0.0943224 1.3957356 -0.32608387
편 0.7207334 -0.057532873 -1.203721 0.27740654 -0.016988331 -1.3777573 2.2241158 1.1807708 -0.6154139 -0.63932914 0.55912864 0.039690223 -0.084746055 -0.6305291 0.45408198 -0.21654753
일 -0.08453884 0.8464983 -2.921179 -0.6115682 0.2646355 -0.9339781 -1.6699698 -0.08886739 -1.0003732 0.5055363 0.007998007 -0.8346396 -0.9832132 1.3185058 0.64211404 1.9339395
성 1.0034554 -0.42115235 -0.19355844 -0.1315793 -0.9042737 -1.9802134 -0.33023286 0.8916756 1.146155 0.16783342 -0.9338862 -0.939224 0.8872574 0.3288286 0.31382993 1.0463372
돈 0.41269642 -0.3154665 1.3205777 -0.088822074 1.2374785 0.018877935 -0.3691067 -0.095909856 0.734115 0.85001844 -0.56714934 -0.20200676 -1.3139504 -0.7479259 0.17916441 -0.050659094
이게 1.6333408 -0.9990302 -0.4477828 0.32821316 0.3737878 1.122174 -1.2544188 -0.58328307 2.3352563 0.04275091 0.869439 1.2173262 -0.35841113 -1.8320804 -1.6488937 -0.67378545
느낌 0.34460658 0.34063238 -0.7009296 1.153461 0.72962487 -2.8743236 0.7710151 0.047345366 1.3870313 -0.52767897 1.6153054 -1.6214876 0.14987138 1.8701136 0.49608532 0.46028352
시 0.13070342 -0.080685996 -0.29661125 0.1380649 0.08792493 -1.4774593 -0.48888204 -0.24161391 -1.0229361 -0.6881182 0.62858325 -0.22011843 -0.368234 -0.0026636352 0.024325421 -1.5734056
이야기 -0.36931536 0.850583 0.010124694 -1.276069 -0.953932 -0.03951871 -0.27356493 -1.4448972 -0.58283037 1.4737333 2.0672638 -1.2023683 -1.2019433 1.2040497 1.3757663 0.24791849
최악 0.9808634 -0.75605714 3.429355 -2.484643 0.78828746 -1.1200848 1.4773992 0.3106266 1.6172037 -2.6505072 0.8239437 -1.9127694 -1.7287077 -0.13423096 2.3281384 -1.1272761
된 -1.1341404 2.210601 -0.98238933 0.07569468 -0.48831335 -0.31684512 0.49798352 0.1785365 1.1670697 0.06768147 0.24867009 -0.12648873 -1.4940636 0.29099637 -0.44069895 -0.90114653
봐도 -0.5662089 0.7733709 0.34767082 0.9928321 -0.5066999 1.664759 0.5933391 -3.2700279 1.0758017 1.2440107 0.5400996 0.021153007 0.74520165 -0.020367831 0.7893689 0.44587144
님 0.65194726 1.04237 0.510738 0.11269605 1.1309887 1.5262244 0.2726457 0.6692585 -1.0505147 -0.31484258 1.3063192 0.73426294 0.70746624 0.31248647 -0.82855344 -0.6044018
어서 -0.6244776 1.0960859 0.56604487 0.44840792 0.03427196 0.48706865 -1.3090916 0.66703933 0.08899071 0.6253001 -1.0304005 0.25409862 -0.5075039 -0.047168225 -1.5649301 0.5401094
애 1.5341752 -1.229852 0.4070313 -1.4634249 0.73404384 -1.7754441 0.32683033 -0.97412694 0.82749397 0.06299741 -0.8211897 0.46299693 0.332261 0.3333466 -0.7238641 -0.404779
전 -0.714196 -1.4927195 1.0295029 1.8510658 0.046088677 -0.28621405 -1.5093076 0.21406236 -1.1644828 -0.5087578 -0.57006365 0.81641674 1.1707945 -0.82798845 1.1162074 0.7471334
넘 0.6424608 2.0265913 -1.7030388 2.1641693 -0.677894 -1.0275481 1.9474818 0.7111893 -1.3802277 -0.3277151 -0.9131596 -1.0518305 1.2275584 -0.50946075 -1.0793122 -0.702024
ㅠㅠ 1.737202 2.5887241 0.8663571 -0.16759188 -2.5019293 1.6810279 -0.08344181 -0.80818796 0.9836866 -0.13874075 0.56412673 0.4272405 -2.2351243 0.12901096 -0.84533685 0.6593386
다고 -0.20976768 2.6683393 -0.06428335 0.145352 1.477037 0.49603587 0.06344652 1.2416049 -1.7538494 -2.4007704 -0.0050087566 -0.98399055 0.6688238 -0.82495296 2.9763708 -0.5754803
인데 0.59901106 0.14932407 -1.6952546 1.3169343 0.29675928 0.07671872 -0.50138676 1.0266411 -0.13745521 1.1036948 -0.1765384 -1.0791513 0.30851293 -0.4959782 -1.0863978 -1.1155438
그리고 -0.96028095 0.43163127 -1.213997 1.9238759 -0.06834546 0.23896007 0.651391 -0.6469309 0.7661736 0.64811546 -2.117883 0.36103463 -0.4737403 0.021065071 -0.04242493 1.0516042
명작 -0.4636332 1.6250094 -0.008433331 -1.160779 -0.90488756 -1.0924807 0.81262904 -1.9522318 -1.1810877 0.68310094 -0.20630725 0.90561 -0.8246869 -1.1637858 -0.79849416 1.1988988
여자 -0.59897953 0.07339147 -0.26937574 0.23223588 -0.4051819 2.3482108 -1.6224732 0.6284434 -0.5456427 0.8600698 1.8259045 0.043720357 -0.6763611 -0.7977591 0.35416603 -0.07187407
이해 0.72931474 0.46133947 0.20018962 -1.3487147 -0.038979653 -1.1502905 -1.3265011 0.7008648 -0.064350516 2.3335586 -0.10009457 0.46925876 0.43432146 0.35806236 0.3354315 -1.3087873
^^ -0.51379144 1.1341803 -1.5475209 0.6441765 -0.914745 0.33814788 -0.07964831 -1.5651469 -1.074096 -0.09485015 1.631466 0.72927034 -0.24980827 -1.2512125 -0.7043195 1.5253873
난 0.7037515 0.0749475 0.35924345 -1.0854111 -0.72777796 -0.77120477 1.8094732 -0.5076396 -0.23426318 0.2116224 -0.13042432 -0.14498591 -2.7905784 1.912039 -1.7577572 -0.3017789
역시 -1.6990066 -0.6878058 0.7201216 0.5766347 -0.55461043 -0.3701022 -1.5523005 -1.444979 1.1176915 -1.4290874 0.7235287 0.6693193 0.6658011 -1.5158342 -0.5259928 1.2241255
또 0.36368534 -1.0952985 1.5447904 -1.1452745 1.704062 -0.9566034 -0.9588345 -1.0329353 -1.1458658 1.5688792 -0.5623246 2.6767983 -1.1134603 -1.090975 -0.63512415 0.5285394
걸 -0.58686936 -1.613268 1.2407029 -1.4755605 0.18012196 0.04103154 -0.03114958 -0.1060651 -1.3431821 -0.0073174736 1.2455119 0.42008507 -0.24019052 -0.0865071 -0.21358344 -0.1876372
한국 -0.14156215 -0.45313993 -1.1188215 0.79829174 0.9050374 -2.4176192 0.5694535 0.88076425 0.50894487 0.111158535 -1.508906 -0.10421686 -1.2759922 1.75487 -0.61118644 -0.46363017
이상 -0.41015905 -0.8378893 -1.317979 0.8518282 -1.0601009 -1.1507319 -1.3326672 0.8712729 0.8621853 -0.4374047 0.61110425 -0.3447375 0.975336 1.2052169 -0.4438106 0.7798617
부터 0.43480492 -1.1800451 -1.3514006 -0.9765492 0.6704517 -1.7483683 -0.41259542 0.57053524 -0.28453007 -0.5284349 0.114739634 0.34178102 -0.5056853 1.3169076 -1.1654203 -1.1017264
는지 0.9525714 0.16210881 1.4786417 -0.27766097 -1.1590319 -0.11314384 1.2269622 0.90683836 -0.7530047 0.419877 -0.13115714 -0.76865727 0.047445532 0.56017613 2.2269228 0.42618865
많이 0.48458034 2.5202022 0.8325829 -2.4382255 -0.09701551 0.17609334 0.023309268 0.6754867 1.1411732 0.99071175 0.27228558 0.89743155 0.009006902 -0.086111754 0.12767297 -0.90419394
에게 -1.3902438 -0.33970076 0.7375995 -1.0350049 -0.87468725 1.56768 -0.23277268 0.8066546 -0.8101221 -1.7612575 -0.43069676 0.897852 0.31644464 -1.0690794 -1.0814875 1.0788531
주인공 2.0226705 -0.21848306 0.5927136 -0.52655065 -0.1388723 0.33586913 0.1302739 0.017303273 -1.4139119 0.042957574 -0.06914556 -0.75405365 0.8242233 0.030473916 -0.35969073 0.36123306
별로 -0.803173 -0.18981792 -0.18034597 -1.2984388 1.0035874 0.6884776 0.043902032 0.47766963 1.4548491 -2.1175692 -1.3359257 -0.705919 -1.0894289 -0.103227906 -0.0013066086 -0.9410502
받 -1.2334552 0.14018327 -0.26619667 0.112855315 0.7266012 0.27135044 1.399212 0.7788781 -0.09170496 0.8140112 -0.22551009 -0.06818296 0.15503888 -0.19003625 0.65770733 -1.6809928
합니다 0.13765487 -1.7577908 -0.09007227 0.5430187 -0.13723248 -0.7599834 0.86799157 0.47258514 -0.28009623 1.5637234 0.6526218 0.6760858 -1.1493518 -0.49221465 0.31512848 -0.16859272
두 0.12906116 0.8170048 0.9789582 0.62763566 -1.00829 0.7333877 -0.11043093 -0.5771893 -0.62947536 -0.19927873 -1.5060209 -0.8794362 -1.0115943 -1.6870176 0.67910045 0.72997624
우리 -0.43209532 -1.2443368 -1.155757 -0.1447655 -0.5318571 -2.5833633 -0.46148548 -0.71327895 -1.5049784 0.037401203 1.5537026 -0.97680676 1.3480555 1.0160905 0.720725 0.4102308
만든 1.2644305 -1.31988 -1.475316 -2.120567 0.097339965 0.2028428 -0.9387568 -0.90283006 -1.2310321 -0.39885145 0.45318168 0.41872305 1.0426625 -0.51844394 -2.2837114 0.8881773
살 0.5633196 1.4679861 -0.27798092 0.18555747 0.87468296 0.15771607 1.4310828 0.52039576 0.3929106 0.5764421 0.46144655 0.9835231 0.37639815 1.1385733 -0.2242426 -1.0041939
!! 1.3783308 -1.5616708 -1.3912567 -0.840847 -0.2666836 -0.19145496 1.3738769 0.018806582 -1.0784452 -0.048428327 1.4951506 1.0934346 -0.2871057 -0.9973595 0.8387116 0.135589
길 1.5561585 -0.5190158 -2.1715999 0.6944979 0.5441328 -0.9756303 -0.090659946 1.3351164 -0.212031 0.28826958 -0.39417565 -0.34281826 1.1317967 -2.3935068 0.32654765 -0.16797787
엔 -0.9617164 1.1851978 -0.2368161 -0.15544856 -0.16337544 0.43961233 2.2335918 1.4625996 0.1979725 -0.3918688 -0.46480203 0.32064536 0.08052764 0.3268957 2.2941332 1.061893
괜찮 1.2844526 -0.6680705 2.2769384 -0.44651452 -0.50997466 -1.3700211 1.1728429 -1.42343 -1.6390903 0.34933737 -0.043316685 0.16572137 1.2223682 -0.20183203 -2.3146698 -0.07511977
기억 -0.5634299 1.0701336 1.4595777 -1.7190893 -0.5908613 -0.38789904 -0.3001183 -1.1265849 -1.7480042 -0.4314527 0.87889135 0.53660244 -0.381069 -0.005676721 0.10236178 0.054704644
연출 0.42084536 0.60111344 -0.017176501 0.8098464 1.2781459 0.8249038 0.96251345 1.878709 1.4396307 0.0694624 -1.9935182 0.5825443 -0.46276444 -1.1942214 -1.0280405 0.7106794
한다 -0.2513878 1.437585 0.49714655 -1.2504864 -0.30630308 -0.20150241 1.2327988 0.022325648 -0.17879307 0.14338215 1.2529199 -0.20616317 0.92066705 -0.1617443 2.108312 -1.3028723
때문 -0.273592 1.6068674 -0.7259197 0.219254 0.58820325 2.501067 0.41322142 -0.790271 0.35985824 0.6509419 1.3791529 1.853703 0.42068648 0.01774004 1.8529543 -1.1471621
ㅎㅎ -0.38601565 -1.5807042 -0.6224045 1.9488996 -0.85200095 0.26588523 0.573398 -0.008595394 0.22234617 1.8576397 0.09072213 2.0932758 -0.16992268 -0.023660764 1.1700343 -1.0939103
이나 1.8544341 -1.5346617 -2.5473619 -0.104558595 1.2409291 -0.7862279 0.88667834 -0.531527 0.48373613 0.861593 0.8509219 -0.28129387 0.49816355 -0.40983358 -0.68886024 0.10798909
요 -0.5000981 -0.3312655 -0.78700763 -0.34618878 0.04399718 0.98145604 -0.05476963 -1.3723812 0.8634211 -0.14092109 -0.17555216 1.2152364 1.6967705 -0.89210606 -1.1501774 -0.07110568
저 -0.8348996 1.4088484 -0.108064555 -1.6652809 0.90362 0.07501317 2.0292618 -0.9224074 1.02083 0.14947732 0.85654855 -0.052856088 -0.7804487 1.8983518 -0.5240331 1.4413363
재 -1.589009 1.3968143 2.0916052 0.2604405 -0.5794541 -0.99933183 0.28366303 -0.95682853 0.7829562 -0.12024997 -1.3133004 -0.70221776 0.18893093 1.8153499 0.1714671 2.7562473
꼭 -1.2208644 0.9154811 -0.5528922 -0.6669246 0.47518703 -1.4004301 0.3108974 0.40761513 0.3463571 1.4093325 -0.75183934 -0.26252508 3.3438833 0.089377135 -1.7633185 0.12623481
며 -0.77151906 0.20600176 0.20493273 -0.6283983 0.67068326 0.49101445 0.5836277 1.0623368 -0.73569685 -0.4537608 0.9934124 0.8493849 0.2885653 0.8179294 0.11736045 1.4790012
현실 -0.08256185 0.6798219 -0.8524168 0.5237774 0.24685165 -0.2571138 0.8288008 -1.5652794 -0.43684366 0.33123115 0.15827496 0.07487515 0.6392801 -0.23106815 -1.0798489 0.4160994
랑 1.1972402 2.3003128 0.18786801 -0.75204897 -0.034939803 -1.5922759 -0.27067024 -0.104047485 0.17835018 -1.635262 -1.1389875 0.04143755 0.79196566 -0.511214 1.3535055 -0.6529414
긴 0.70744234 -1.322908 -0.74095905 0.2592883 1.5844887 0.42263055 0.42503598 -0.05229616 -0.46606508 -2.8928094 0.74385816 -0.2885373 1.7002686 0.32646644 -1.1654105 -0.84945446
ㅡㅡ 0.19556579 -3.6388333 -1.5821117 0.023498174 0.7282965 -1.5190617 -0.61114424 1.029939 0.13909483 -0.6836933 1.0219375 1.7037998 -0.7003935 -1.2539539 1.6415473 0.9023615
무슨 -0.11514384 -0.66254073 -0.88026714 -0.6847394 0.29038334 0.18352449 -0.3905137 1.4102298 1.0907812 -0.51075166 0.04437002 -0.58001673 1.4479246 -0.8894329 0.4204782 -0.83508426
내내 0.19458288 -1.8905914 1.801447 2.5328636 -0.21241473 -1.5241439 -0.24138987 -0.34077772 0.6036249 0.010768079 0.4706449 1.3546375 0.07292442 -1.7160401 0.8996093 -0.57385886
결말 -1.1784115 0.38405135 -1.1817681 -0.7387856 0.20822048 1.3142399 -0.45438424 -0.88696975 2.7043824 0.5016504 0.28992003 -0.841867 -0.78337246 -1.9035813 -1.3806888 -0.9126676
죽 0.5691801 -1.7220299 -0.7123535 -0.47095123 -1.222675 -0.13757764 -0.5875975 -0.618072 -0.20948222 -0.93767107 0.18346691 0.6955648 -0.60515594 0.31562138 -0.5523918 -0.7347886
세요 0.53666025 1.1365877 0.046311077 -1.3327905 -0.47822076 -0.9566397 1.5781707 0.17132184 1.3965636 -0.7294855 -0.5340719 -1.6745598 -0.008490128 -0.2479114 -0.7564951 1.0696051
남자 -0.04446652 -0.40232584 -0.30966848 0.022868317 0.67612517 1.4256185 -0.61932075 -1.6668112 0.9860031 -0.05140903 -1.8314621 1.9268262 -0.23553607 -0.78464496 0.54822797 0.21710365
전개 -0.3600087 -1.6281979 0.8999256 0.11207171 -0.7864375 0.22071114 -0.11804437 0.10870636 1.9071082 0.37855527 -0.11400837 1.0394775 0.2211563 1.6733166 1.318429 -0.7183749
마음 0.098938696 0.48059642 -0.7257215 1.5186169 -0.7156801 -0.4134522 -0.36331937 0.5666371 -2.3323548 -2.25217 -0.23294748 0.41209802 -0.058301896 -0.71347004 -2.4775963 2.1097062
별 0.18599676 0.8313079 -0.022096798 0.047933225 -0.53857964 0.47365165 -2.0976627 -1.4235497 -0.92579067 -0.6819481 0.4495085 -1.311878 -0.9436919 0.5654904 1.0533973 -1.4384972
소재 0.44968447 1.2445974 0.10634921 -1.0642104 0.98098177 0.9216169 -0.25505525 1.4239521 -0.53866637 -0.41415036 0.011655966 0.29180345 -1.2603347 0.0017490222 0.45560163 0.35151157
속 -0.016799873 0.61140233 -1.4488472 0.4854647 1.8953692 0.5170741 -1.1747557 -0.9402173 -1.4782856 -0.7781136 -0.3605811 -0.8353509 0.0066811177 1.1011792 1.9027785 -1.7179945
공포 1.1586479 -0.53795564 0.42999923 1.7679865 -0.6611076 -0.636655 -0.6265854 1.3483276 0.033514936 1.0166074 0.00825282 -0.58377856 -0.038542345 -0.16795678 -0.32205766 -1.004526
다른 -0.5525291 -0.5561484 0.6752828 -0.034313865 0.4433982 0.80703104 0.26875806 0.5898059 -1.2540743 1.9875863 -0.30821902 -0.30621466 -0.80487365 0.9935019 -0.06914852 0.9306112
아서 1.0008206 0.39787093 0.095289834 1.0107881 0.62118703 -0.71558356 -0.4960782 1.7719184 0.49677914 0.1890731 1.6088285 -0.2044035 1.857892 -0.4511533 -0.14744683 -1.2526759
씨 1.3301144 0.23408894 0.09358115 -0.23855902 -1.8352022 0.21973154 -0.68769455 -1.915863 1.4236982 -0.88122857 0.7392242 0.89142644 0.035477675 0.1966385 0.9952157 -0.4317573
인생 -1.2102453 0.647071 -0.96270305 1.0483348 -1.1873333 0.08696875 0.663813 -0.77210975 -0.6785432 0.93861824 0.7935151 -0.09799718 0.13644339 1.0678759 0.75163794 -0.8968746
~~ 0.7990575 -0.6292893 -0.61839545 1.7496041 0.16246541 -1.5392317 -0.7774931 -1.1833271 -0.9405876 -1.7635266 -0.3772414 -0.5214276 -0.8499012 -2.0670521 -1.0421665 0.28431928
짜증 0.86219996 -1.174371 0.6948297 -0.80330783 2.135251 -1.1590216 0.33498445 0.8262859 0.58989906 -2.7399707 -1.0552258 0.09749146 0.11458038 0.60889465 1.2160139 -0.31486234
짱 0.84336966 -1.4444151 -0.78100985 0.082725435 0.13349505 -1.9593985 0.26043645 1.2957042 -2.093014 2.3044431 0.6937588 0.71274585 -0.052718647 -1.4084197 -1.4172924 1.1374937
뿐 2.1016638 0.09548097 -1.0591092 0.38542694 -0.16508776 1.7401468 -0.14939652 1.2080051 0.20398416 0.94136316 0.82576346 0.5435385 -0.91202116 -0.35516977 0.5621784 0.2588782
은데 0.15253983 0.6542162 0.6185661 0.63625747 -1.3563277 -0.952797 -0.87706095 0.70732373 0.8984728 0.63653064 -1.7834977 0.6286175 0.6093488 -0.5914309 1.7680329 -0.02519799
아요 -0.74003917 -0.6517094 0.24620318 -1.5397196 -0.88418216 1.0579456 0.30783856 -0.03487578 -1.0312606 -0.019730696 0.06435886 0.47031602 0.820128 0.7335623 -0.22201417 1.4874966
유치 -1.8211372 -0.92205614 -0.33894446 -0.5675046 0.4133435 0.16797067 -0.04645464 1.1608465 1.4373264 -1.3505932 -1.3290071 -0.5127134 0.83235615 0.051615436 0.7862561 -0.34897536
필요 0.38704696 2.256534 -0.15056045 -0.37849596 -1.0893823 -0.22913876 1.4093007 -0.60465884 -0.8753729 0.9671357 -0.9734875 0.080123775 -0.575291 -1.7232724 1.3192236 -0.30787122
가장 -1.9298809 -0.026743254 1.4687673 -0.7910217 0.38670623 -0.092494994 -1.11666 -0.14515644 -1.2162659 0.10781533 -0.47471488 0.6556909 0.31653988 -1.4300444 -0.29167444 0.6456706
음악 0.5156152 -0.841152 -0.5328763 0.0967036 0.65315557 -0.5586715 0.039184403 -1.9102489 -2.1700804 1.3936954 1.0622065 -1.6593827 1.4419618 1.3030097 0.07409939 0.63590664
) -0.7612261 -0.7243123 1.1410081 0.48809442 0.25822335 -1.5525322 -0.11504234 0.23919126 1.670766 1.7467092 -0.046363644 2.3259928 -1.5094267 -1.21146 -0.048381217 -1.9345129
일본 0.82302386 1.0045689 0.14763537 0.23770955 -0.4752869 -0.92703366 -0.74592775 0.70915914 0.47696373 0.8024556 0.98747534 -0.36277217 -0.092435256 0.114588544 0.4675153 -0.48342156
낮 -2.000656 -0.58145183 -0.004756215 0.6050266 -1.97759 -1.8255457 0.8346094 -1.5390989 -1.4549875 -0.43302342 -1.3917891 0.48210666 -1.3121648 -2.037098 0.709057 1.2510839
오 -0.24222204 -0.23612003 -0.50324744 0.680378 0.5754207 0.3778397 -0.5418251 -2.1839948 -0.05003642 -0.27604818 0.24312955 0.2955534 -0.48836207 -0.43304634 -0.46589825 0.4546399
;; -0.5655491 0.3442985 -0.5405107 -0.05835928 0.704271 0.30392718 -0.4347704 0.6392113 -0.80156124 -1.5877761 -0.37833264 0.11347111 1.0646745 0.79797834 0.4875345 0.3708898
아이 1.0278153 0.15430221 -0.04799926 -0.029925976 -0.97038084 -0.6305881 1.7269253 -1.4043422 -1.0107862 -0.74538 -0.22675022 -0.9523825 -1.0245456 -0.6256863 -0.5291884 -1.5040554
반전 -0.31601012 2.101349 -0.09475525 -0.90410125 -1.6081821 -0.26608795 1.2045832 0.55611706 0.23211446 -0.3593721 -0.1838145 -1.0488302 0.75835615 1.5767223 0.08594655 0.033969324
데 -0.5475982 0.9903688 0.36922842 1.1909463 -1.2609377 -0.85076433 0.09625965 -0.31083915 0.07856624 -0.29038647 -1.0770943 -0.91519284 -0.15647829 -1.3796583 0.84570694 -1.591048
수준 -0.23008081 -1.235442 -0.05229805 -1.6957947 0.29261518 -0.87481 -0.6764231 0.89546937 0.15754035 -3.0096934 0.7859588 -1.5589694 0.75710464 -0.62056935 0.08450342 1.1228006
다니 0.7117829 2.5931673 -1.119373 0.48067468 -0.45859385 -0.7565901 -0.7406203 1.8667053 0.7992742 -0.48969483 1.2979732 -2.1705017 0.33762833 -0.54266894 0.53402 2.330742
웃 2.8761902 2.2250748 -1.6412705 -0.2686586 -0.49942252 -0.0837006 2.2259822 -2.427613 0.6909817 -0.07309253 -0.12069622 1.0593505 -0.26067853 0.102541044 1.1085441 -0.96843904
매력 -0.8277228 0.20090032 -0.6542137 0.9629792 0.41549817 -1.227319 -1.484524 0.09775007 -1.1140866 1.1110461 -2.255898 0.67434496 1.3018988 0.0925555 0.6802161 -1.1914276
맞 -0.49078754 -1.8854359 0.12015205 -2.1239815 0.33260927 1.7876076 -0.3091815 -1.5350869 -0.36583388 0.8666726 0.49413297 0.24871291 1.0582329 -0.8389739 -0.512306 -0.26527596
인지 -1.1735411 -1.0088108 0.034669872 -0.91552424 -1.2361989 0.07191398 -0.57903403 -0.86390704 -0.56684154 -0.16963042 1.9207702 1.597226 -0.008906185 -0.5493112 1.4498206 -2.2268975
가슴 -0.5964544 1.0998241 0.5128202 -0.78173774 -1.0521746 0.0700394 1.1954335 -0.69115704 -1.2759416 -0.32674307 -0.38368642 -0.16064979 -0.9272691 0.86541396 -1.6401587 0.96799046
없이 0.7797394 -0.7621796 -0.9475481 -1.191951 -1.0274006 2.7743573 0.30228037 -0.20334853 -0.98231155 1.2048175 -0.4879157 1.0143071 0.092416115 0.4571705 0.67972267 -0.014835713
원작 0.16660626 0.37663844 0.5761938 -0.5003666 0.29490295 0.7407338 0.029703189 -0.11341939 -0.80352736 -0.026191248 -2.3544607 -1.7759589 -1.7248119 1.3500599 -1.3122852 1.6445142
ㄷ -2.4544709 0.39681944 -2.0075252 0.7839489 0.1953887 1.3691031 0.5095083 0.6421535 -0.1653695 0.40880936 1.2388179 0.52388525 -1.8880006 -1.1984986 -0.10226714 1.3058544
인간 1.1267467 1.7487321 -0.07274942 0.15578148 -1.3823872 -0.22470078 1.2048999 -1.5920157 0.64721143 0.48985362 0.99222136 -0.08146815 0.1468427 0.013632888 -0.088365726 -0.39018017
굿 -0.7129358 -0.6696158 0.6413733 1.0073336 -2.2409327 0.5311977 0.82708055 -1.3418392 -2.0840013 1.0475762 -0.0353452 0.5576489 1.6389433 0.06770643 -1.4375973 1.227954
높 0.037545893 -1.8386421 -0.59825546 -1.8548362 -0.02971615 0.15625677 -1.7679868 -0.71816814 0.8552919 -1.2053678 -0.49489322 0.94245756 0.20182109 0.71762115 0.20513524 1.2729415
ㅠ -1.03156 -1.9827515 -0.6968899 -0.56610453 -1.8159392 -0.6172939 0.6142022 -0.13572761 0.92584187 -0.4200851 -1.3339155 0.99040526 0.9821397 1.2703174 0.019891338 -0.87401885
밋 -0.20213942 -1.7385178 -0.0762423 1.3566579 -0.88194144 0.18313962 0.53294563 0.20164444 1.2785418 0.11327443 -1.7569257 0.7070713 -0.9885848 -0.12087476 -1.9471573 1.232763
( -0.4437933 -0.10350452 -0.08042775 -0.5430662 -0.19800287 -2.695249 -0.13605486 1.2863947 0.4310268 -0.81274444 -1.0451777 -0.18057376 -1.4038823 0.91720116 -0.6787606 -0.66300803
급 -0.93622196 -2.2459998 -0.870007 0.1755633 -1.4151508 0.24370639 1.5044534 1.7336997 2.8204257 0.6284849 -0.32010636 0.8678797 -0.50692654 -0.060365606 -2.482504 -0.4788015
만드 0.017800359 0.9095299 -0.91653633 1.3927906 -0.16380396 -1.0566251 0.41127685 0.19287676 0.9671762 -1.574945 0.7578174 -0.800299 1.6850106 0.9693817 0.22368707 -1.2310827
눈물 -0.8690428 0.2029453 -0.80138636 0.8525022 -1.0980654 0.7339333 2.3646297 0.26326028 -2.5345302 2.013689 1.0625731 -0.56847906 1.7818469 0.29207027 -0.09112181 0.4427853
보여 2.152923 0.32646987 -0.56155044 1.0832087 0.6524133 -1.6882467 1.5089332 -1.283969 0.14535795 -0.7185642 0.19855669 -0.05711642 0.8802823 -0.9846243 -0.63722426 -0.78140867
준 -0.44374633 0.6714468 -0.36591694 -0.86107516 1.13271 -1.1778096 1.1121961 0.7950175 -0.2964051 -1.504417 0.033606622 1.0909543 3.2413888 1.0633934 -1.0886356 -0.85987526
찍 0.6300277 -1.0928348 0.7561896 -0.3273553 -1.8099545 -0.18502967 -0.3780994 1.4703813 1.1484317 -1.0227313 0.54338187 1.5817443 -1.1875632 0.078785524 -0.49380422 -0.12744763
인가 -0.38764638 -1.8107529 -0.46141836 0.7417704 0.80003685 0.8203224 0.16167559 0.2392846 -0.2239079 0.73402333 0.27777454 -0.6493379 -0.67906845 -0.56738377 -0.25559503 -0.033519763
노 2.4062955 0.0021832723 0.6933939 -1.1155664 0.7868104 -0.09510448 -1.7348197 -0.09305481 0.33118075 0.34154603 -0.98760027 -0.34851527 -2.4587767 -0.7610031 0.09176099 -2.0304832
용 -0.9870072 -0.32745415 -0.08597061 0.03785503 -0.32550463 0.41613868 0.9222426 1.0060929 0.40444776 -1.2233998 -0.34976634 -0.50138545 0.49985448 0.5473813 -0.934342 -0.010958813
을까 0.9599667 -0.5566609 1.2021142 -0.41231516 -1.1711671 -0.32964328 1.0707697 0.040065773 0.17422232 -0.80818594 -0.05414012 1.2809541 -1.0956066 -0.8119692 0.9685882 0.5003784
화 0.8295082 -0.860392 -0.5927638 -0.8378511 -0.40787268 1.5349661 -1.7902584 -0.11546499 0.62044543 0.026557896 -0.13389291 1.0140151 1.0124553 1.2208029 0.5340825 0.9183679
코미디 -0.69322103 -1.1572331 0.13366222 -0.93675554 -0.23271562 0.512227 -0.28030547 -0.7780902 0.35253143 -0.35367718 -1.3001384 -0.2892119 -0.055065032 -0.6318838 -1.9561814 0.32516924
여 -1.2365885 -0.2931566 0.35821244 -0.5289497 -0.36652786 1.2273144 -2.6900036 -1.0997767 -0.17341062 -1.1554449 -0.11878585 0.4032892 -0.40501356 -0.75523114 -0.017632913 1.7831692
마 0.37385267 -0.08505393 2.4071853 0.7928175 -0.54104424 -2.1244338 -0.7136095 1.0556108 0.10671203 -0.3253132 -0.0042053815 -1.3787621 0.9040509 -0.6491447 0.86793625 0.55878866
쓰 -0.3450399 -0.621192 -0.626609 -1.0435271 0.41179407 -1.3758843 1.6953623 -1.2622699 1.9592383 -0.74378204 -0.7837002 -0.38467398 0.23744194 -0.32686445 0.8561759 0.9923931
모든 -0.74451554 -1.4071567 -0.9523843 1.1163334 -0.36140215 0.35435846 0.7532031 0.86904854 -0.5640485 2.0507417 -0.5780188 0.7879545 -1.2183315 0.42003593 1.2062457 -0.22485763
신 -1.2833147 -0.77323663 -1.2687011 0.06891992 0.023181366 1.6301194 0.50880545 -1.5441307 0.92616 1.5228993 0.83774334 0.62637085 0.7677351 2.6387453 0.38567787 0.8101283
5 1.4023198 -1.0728852 -0.39154994 -0.71014094 0.09209095 0.8752589 0.20808022 1.1592978 -2.5522943 0.2117322 -1.1702119 1.2894145 1.3264409 -0.1524433 -0.6249591 0.28622457
아직 0.38442212 0.2789878 -0.27620736 1.4427352 -0.03592188 0.9042497 0.9066344 1.5793902 -2.3249323 0.00066348776 0.014476952 -1.0236539 0.9239249 -0.56084484 -1.6259873 0.3554049
처럼 0.66024375 -1.2377768 -0.0036781568 1.1208237 -1.1769168 -0.04886707 0.33382857 0.7577259 -1.3302594 -0.7966347 0.97291887 0.54162514 1.6702131 0.2566857 1.1677481 -1.3737434
눈 -0.622755 0.27573356 -0.257374 -0.12241033 1.1199465 0.38547865 -0.08552791 0.96564925 0.12638195 -0.08547426 -0.12622304 -1.6996851 1.2417903 1.1863333 -1.6476969 -1.2257901
추천 0.48571217 0.79883176 -0.66270643 1.3152788 0.030842371 -1.3235441 0.22828428 -0.3191243 1.427709 0.83630383 -0.6226621 0.6537391 1.6305879 -1.5698959 0.056814276 0.536496
아닌 -0.29760078 1.0362045 0.5317282 1.2064555 1.8763188 0.7402715 -0.98151696 0.795266 1.4009422 -3.0613725 0.60577476 -0.08657861 1.4830017 3.2510064 -1.4107103 0.4116692
울 -0.6813512 0.70189255 0.0057222303 0.84374404 -1.6539716 0.33768168 0.93100226 -1.3362272 -0.85076815 -1.4921509 -0.45641837 -0.05011038 0.5381939 -1.1801163 -0.5571579 0.3035554
자체 -0.18697485 0.10043865 -0.09638179 1.8088031 0.6684938 3.1747892 -1.1512403 -0.55398273 -1.6822577 1.4274334 0.027203064 -0.07095536 -0.31279412 -1.9245492 -0.9992733 -0.7151151
몰입 1.0861763 0.02798345 0.09104802 0.40523174 -1.1631336 0.06274883 -0.59945333 -1.9877365 0.08490475 -0.33102483 -0.19531764 3.2772114 0.6280048 2.0860074 0.6839541 -0.8148726
4 0.35631514 -1.2120498 -0.3776221 0.72236514 -0.5727882 -0.3735987 -1.2187724 0.11128762 0.7304341 0.63108325 -1.032775 0.021360768 1.0132289 -1.7142167 0.91868454 -1.2222344
대박 -1.9609143 1.5378529 -1.0944464 -0.5992866 -1.4339617 1.1694614 0.95754606 -1.0160439 -2.3084571 -0.07485169 -0.8916211 0.6429021 1.6478035 0.5459811 0.092645794 1.3657405
몇 -1.5521624 0.11117311 0.72626084 -0.83374053 0.92375326 -0.48025748 -1.2480568 -1.0691178 -0.10000229 1.1416074 0.17046386 0.62376213 0.23323989 -1.0170965 -0.69865274 -0.12395948
스럽 -0.92615384 1.0225195 -0.4417411 -1.9784596 0.46417296 0.064007275 -0.54043704 0.88968503 1.4475166 0.48733568 1.5560799 1.4621015 -0.5388211 -0.61566484 0.12014725 0.13275011
실망 0.48325327 -1.0644481 0.9961156 -0.53934515 0.79153836 1.1432892 0.054421645 1.5254761 0.15440722 -1.6971294 -2.3176756 0.21388818 1.3445761 0.32588798 -0.8522461 -0.8505228
는다 0.95385766 -0.0639496 -1.9983526 0.3653952 -0.4432584 -0.30359617 -1.3297579 0.81231433 -0.22772053 0.5020551 0.21593224 2.7779212 0.5477324 1.3490235 0.87714934 -1.8204348
대한 1.5727152 0.0676606 -0.14801084 1.6676137 -1.1868834 0.0016615666 0.8886977 0.532365 -1.7832909 0.12055864 0.42663404 -0.49641716 0.65595 -0.3786677 -0.34191275 0.90552
죠 -1.1222744 -0.053010195 0.4248636 0.21127395 -1.0095687 -0.2683776 0.8635424 -1.2013332 0.9313123 -0.5590284 -0.4626138 0.91920334 2.2296762 -1.8895944 2.6334884 -1.0586774
란 -1.8339934 0.62623554 0.2247284 0.5250382 0.6162846 -0.128313 -0.19477056 1.1705377 -0.5558972 -1.2631425 -0.28901464 -0.5949257 -1.1335821 1.2211088 -1.0787855 -0.21673758
그런 -0.9299932 1.176373 -0.12753788 -0.82872725 0.13004899 -0.81577235 -0.8292383 1.7822787 -0.113314465 0.6832843 -0.36137596 0.4615708 0.2798064 0.81420684 0.07606729 1.5659633
솔직히 0.19091897 -2.1866167 0.72609496 0.73899525 0.74696356 -0.6480859 -1.0346249 -0.93437463 0.5222813 -0.02998224 1.222226 -0.6624313 0.56968355 0.23019034 -0.31856784 -0.120429784
캐릭터 1.5094393 -1.6310247 0.27197516 -0.47290173 0.59657294 -0.46594405 0.6950248 0.507597 1.0562011 1.1141157 -0.51349646 1.7300245 -0.24482128 -1.2522087 0.6324568 0.05051037
ㅎ -1.1598188 0.9261936 -1.2343748 1.1756899 0.33431932 0.107581705 0.38895324 0.43236822 0.4753274 0.37530258 -0.536281 1.049359 0.39920393 -0.49134573 -0.014623039 0.9453642
모두 -0.73274577 0.7361856 -0.36755505 1.8144577 -0.63025814 0.23610418 1.9549062 -0.26735592 -1.058863 -0.6993453 1.4230127 0.12610331 -0.8868926 1.8147814 0.04494365 0.27401114
아주 -0.49066755 1.696149 0.08160726 0.06253338 1.1475791 -1.4830521 0.20458882 0.08051641 1.7851943 0.99067473 0.38600913 -0.3341902 1.472626 2.4664464 -0.8755523 -0.61027354
- -0.1534163 -0.8693032 0.78685105 0.90572786 0.9287536 0.037413683 0.06007853 0.63724494 -0.9477182 0.26308364 -0.16148852 1.3053023 -0.84033936 -1.3524218 1.1152785 1.0398678
가족 0.15031064 -0.057444066 0.79722303 -1.6596962 0.20222871 -2.2966232 0.13867107 -0.4747921 0.39876154 0.16009876 -1.0216985 0.6296969 0.7307143 -2.4760425 -0.17276251 0.038853038
여운 -0.82585746 3.1965153 -0.054066934 -1.6413003 -2.2141964 0.119534016 1.2442876 -0.21665628 -1.2753061 -0.13396831 0.22973388 -0.60594696 -0.2588514 -1.019055 -2.8735607 1.3075482
건지 -0.32037756 -1.9698398 -0.73361415 1.4495951 1.3183762 -0.2149994 -1.7807657 -0.9410976 1.3009057 -0.20618582 -0.377902 -0.33708486 -0.049608603 -1.3516049 0.15386258 -0.53376913
전혀 0.20401491 -1.3010725 -2.6630177 0.23249532 1.5913731 2.2928576 -1.3555295 1.6225122 0.7553031 0.3646822 0.8237914 0.8524138 -0.55347866 -1.927325 1.4594576 -0.5027351
나라 0.06883599 -0.35528648 0.28389394 0.088203795 -0.2368235 0.2077588 1.2925496 0.107923664 0.87893504 0.5532851 0.93408895 0.36159125 0.042221643 -0.7337142 1.4292665 -0.16412418
연기력 0.18223114 0.51291215 0.84816825 0.6384065 -0.31331474 0.05282373 -1.4652573 -0.51842356 0.57504904 -0.17824481 -0.28778318 2.2353952 0.73462963 0.8532366 -0.29919302 -0.87825274
후 -0.19566612 -0.9501361 -2.0630686 0.6864387 0.91747403 -1.8152139 1.3185282 0.61244667 0.2723366 -1.6674196 -0.19831987 -0.13221629 0.8694619 0.099079385 0.16644089 -0.4486088
다면 -1.1380743 0.2143295 -1.304636 -0.7713157 0.89167327 1.4584502 -1.8871195 -0.50926787 -0.4123509 1.5127064 0.2999352 -1.1553518 -1.4711758 -1.0947672 -0.9624253 1.884714
될 1.2131331 -0.44174874 -1.2689718 0.748514 0.34988174 1.0646003 0.51707166 0.34910685 -1.0370657 -0.5621749 0.72154534 0.7141677 -0.6399782 -0.41486052 0.23978773 -0.11053295
뭔가 -2.3643725 0.060731065 0.01833149 0.20498413 -0.44209296 -0.33219838 -0.24789937 0.9847034 -0.1887319 -0.8111492 -1.227729 -2.710489 0.9786007 0.15868115 -0.92130446 0.40545642
그래도 -1.4759083 0.69372165 1.3503969 -0.6108043 -0.07872035 -0.7119941 0.14559713 0.4119496 -0.07022964 -0.15193354 -0.2318338 2.0737047 -0.6016758 1.1267737 -0.43901667 -0.22961785
; 0.43613252 -0.5451942 -0.53820527 -0.9685641 1.0473368 0.38089108 -0.26990548 0.2734899 -2.1045804 -1.3433144 0.9693636 -0.49274883 -0.37054604 -0.29134032 -0.16957016 -1.7353909
시리즈 -0.052430242 -0.114654675 0.018406354 1.3032756 -1.330582 1.277264 0.65833646 -0.94178206 0.20056017 -1.0604968 0.19669788 0.45047125 1.2164148 -0.14361651 1.8711749 0.054261904
근데 -0.9595117 0.4337298 -0.02430738 0.82476974 0.59824365 -0.4698671 0.63522214 0.37511873 0.3932312 1.653009 1.543374 0.8419967 -1.6790403 -0.3508839 -0.2005482 -0.036918472
작 0.7865937 1.856219 -0.47696102 -0.8048583 0.0886179 0.4413143 -0.23469815 0.320651 1.393584 2.7681513 0.63083607 0.23676868 0.19803864 -0.39883032 0.9922579 -0.363152
표현 -1.4253914 0.23965003 -0.3482117 0.5652464 0.7121426 -0.41091284 0.6682718 -0.7806869 -2.2004304 0.5731667 -2.5355463 -0.5750353 0.82310164 2.5999637 0.76936716 -0.5524894
모습 -0.15111123 0.7892838 -1.417994 0.25812453 -0.09622759 0.86085945 -0.00046689302 -1.9468083 -0.39209577 -1.2137805 0.979868 0.9476655 1.4572781 0.6488581 -0.90163296 0.5840628
제 0.8314464 -0.6537807 0.3349744 -0.5429832 1.5339924 -0.047957316 0.36316377 -1.7185334 1.3648441 2.6033216 -0.8786842 -0.34550425 -0.51833624 1.2713991 -0.27998978 0.4471229
공감 -0.72026896 -0.5323753 -0.77641815 -2.3875866 0.5591147 -0.8848341 0.14075708 -1.7250403 -1.0822715 0.30921382 0.60494834 -0.042865127 0.38804737 -0.09892908 -0.29609922 0.660626
밖에 -1.1274233 2.267025 0.48897672 -2.0335867 0.42035887 0.12438309 -0.10127823 1.0628471 -0.5771508 -1.2266062 1.2052703 0.3481654 0.31428227 -0.74792296 0.24635948 0.46578395
먹 0.8232813 -1.5154121 1.3231637 -1.3323652 -0.97013915 -1.3950446 1.1743381 -0.8490576 -2.613863 -2.0312846 0.22257408 0.6148163 -0.6844309 -1.0190676 -0.034670882 -0.9634774
계속 0.14634602 -0.9573737 0.9409853 1.0445063 -0.86393404 -0.9499678 0.44055662 0.9280738 0.4124514 -0.57444143 -0.13029082 -0.53557515 1.9082791 -0.73013675 -1.853538 0.050815135
이랑 1.0878795 -1.0288849 0.056423713 -0.8370142 0.19752634 -0.82274663 0.45919093 -1.0114219 -0.70190704 -0.81250983 0.7397839 0.96983075 0.5734098 0.8238378 0.673557 -0.37815344
제목 0.5557617 -0.89682686 -0.39771643 0.409055 -1.1752894 -0.17800781 0.16855317 -1.0385013 1.2589421 -0.24478476 0.28714222 0.120789416 -1.0407469 0.5542897 0.5405421 0.66460013
"" 1.0428133 -0.5198491 -0.637714 0.38670787 -0.64475656 -0.9581016 -0.9505984 2.3418992 -1.076419 -1.3942707 -0.21629572 1.566546 0.702973 0.8316528 -1.1613971 -0.42770705
7 0.2812581 1.1422279 -0.8073279 -1.2842078 -0.113744356 -1.1482618 1.55925 0.036706656 0.33772108 -0.41919047 -0.69418836 0.43679088 -0.8206975 0.10296619 0.32304132 2.540439
극장 0.7523582 -0.9419643 0.12346349 -1.4221851 0.6478721 0.036524493 -1.0030533 -1.7351918 -0.2730018 0.6002634 -1.6864432 -1.1283244 3.1594605 -0.7626071 -0.5809253 -0.75482047
비 -0.92447877 -1.6950566 -0.34029335 0.4480148 1.0329047 -0.37987489 1.1103753 0.96926177 -9.066833e-06 -1.4851435 1.0633032 1.0155436 -1.4200674 -0.39319196 0.47706163 0.1968687
진 -0.81767356 -0.14003156 -0.23368025 -1.8391767 -0.21856408 1.3368955 1.1151845 0.7843559 -1.0788792 -1.0008346 0.57725114 0.86331177 0.21532983 -1.0738028 1.6906787 0.2500726
이걸 -0.26958373 -1.2160454 -0.09642051 0.8244298 0.95645106 -0.18512568 0.9689397 0.5217356 2.0043783 0.70850235 0.7927861 -0.67826265 0.5139996 0.44067177 -0.16661856 0.20239715
바 -0.58537936 0.35390753 0.93408483 1.0577903 0.5911475 1.0671024 -0.7513725 -0.1785784 0.78792477 0.096078746 0.5483085 -1.4501464 0.5120186 0.88640875 0.81642675 1.02289
그렇 0.5853359 -0.26054478 1.139603 0.8437019 0.65393424 -1.0909909 -1.2104931 -0.17906214 0.29201612 1.0254172 -0.027517205 -1.2294923 -1.011301 -0.14868698 0.28577736 -0.4545799
대사 0.30830753 0.56681085 0.024303189 0.16003731 0.25956956 -0.5114881 0.6683264 0.18266475 0.3517586 -0.43554235 0.123539634 1.6690805 0.81106913 1.72199 0.40408358 0.60101205
개봉 -1.4177879 0.6851999 -0.8300457 0.37019947 -0.839697 1.2173418 1.1279898 -0.30910993 0.8743465 -0.2560346 -0.6979269 -0.81690735 -1.1097027 0.69545496 0.5559709 -0.5238425
부분 0.05988048 -2.4281564 0.40957415 0.5661135 1.3730855 0.18955337 1.1253037 -0.18483374 -0.13968831 -0.8840274 0.10150406 0.2658197 -0.85457426 1.3232943 -1.3794465 0.47413528
0 -0.09726976 -0.12981597 0.96040267 0.36987922 -0.3675039 0.048309855 -1.4549583 -0.031883802 -0.16389476 -0.8714515 -2.201058 -0.15927821 0.91363275 0.5357604 1.0351815 -0.4365182
OO 0.06762688 -2.0446339 1.9924657 1.2876453 0.37198657 1.1471632 0.39099413 -0.8492454 1.1420238 1.6992 0.18264958 -1.5518742 -0.5079769 0.38280028 -1.6259414 -1.5542126
대단 -0.8328609 0.74197847 -1.941285 0.014797576 0.11213223 2.078054 0.35553643 -0.5536175 -0.53193015 0.9148787 0.7344833 2.0710843 2.203052 -0.64769053 -0.5587243 -0.1749067
된다 1.1396967 1.975635 -0.21833825 -0.7694441 -0.46217796 0.8136184 -0.5159984 -0.38062352 -0.33093947 1.0055269 -0.8994862 0.13141666 0.5797835 0.32320443 -0.56288844 -2.5064783
작가 0.7171369 -0.120584905 0.17787123 1.8085784 -0.024896385 -1.9082557 0.6348027 2.1756687 -0.23018952 -0.15616997 0.3901899 -0.8147578 0.11350263 0.7335047 2.1155457 -0.18010312
어디 -1.2828345 0.11260056 -0.3818255 -1.2559272 -2.2184892 1.9294574 0.39491287 1.5230656 0.751746 1.0345713 -0.44399586 -0.8059388 -0.90531844 -1.6601148 0.5930232 0.3040801
기분 0.6002049 0.96748054 0.6568938 0.29116878 0.37214762 0.05978782 0.74442214 0.10584169 -0.03639175 0.42740127 -0.27994564 0.2954671 0.62147444 1.7189747 2.1177206 0.7912736
아쉽 -1.0903912 -0.11983446 -0.87508243 -1.6907986 -0.8188231 0.72374266 0.85966915 1.1696823 -1.1474993 0.12404505 1.4088918 0.016985787 -1.5812874 0.7002042 -0.3771658 -0.77535194
치 0.31444502 0.10396291 -0.5959909 -1.1371679 -0.6608972 0.82730556 -0.6595076 2.492333 0.19274879 0.26036543 -1.4942929 1.5094903 1.3855969 0.14860807 -0.30015543 -0.42480674
진심 2.4930463 0.6205877 -0.7086464 -1.4197104 0.4148324 -0.7518717 0.23764572 -1.0086946 0.8131151 1.4778693 0.44645748 0.784062 2.2844005 0.951914 -1.147855 0.22935785
해도 -0.21843839 1.4528695 0.92217535 -2.7556171 -0.35653666 -2.2931635 0.55104727 1.9670978 -1.3946242 0.4339863 -0.95866776 0.11987381 -0.8806461 0.04916999 0.35034683 0.7261354
보이 0.5820437 -0.015447411 1.1928552 0.6612994 -0.12152517 0.0030911544 -2.4366674 0.23510633 -1.7937045 1.4709104 -0.8469524 -1.1215407 -0.7099007 -0.70312434 -0.5368269 1.1702102
타임 -0.13262048 0.8247374 -1.2172726 -1.1195264 1.5309129 0.722952 -0.72797257 -0.87638265 -0.034305196 -0.9117996 1.161784 -0.6843132 0.06955577 -0.5796784 -0.3208167 1.5260558
놓 -1.1063589 -1.9172716 -0.34012815 0.43635604 -0.21804257 -0.20938273 -0.5527274 1.029246 -0.40909082 -0.44730052 -0.83139205 0.119443454 0.25282854 0.1733027 -0.61489767 -1.1241885
/ -0.17592639 -1.5907935 -1.0153165 -0.36912742 0.8139474 -1.0260781 1.9460776 -0.23864964 -0.055805925 1.0815256 -1.2512571 -0.55106723 -1.4685984 0.10009172 0.3699346 -0.29686782
웃기 -1.0657684 0.005907479 0.3787482 0.4391361 -1.2337936 1.8675262 -0.2180259 1.3847868 0.46452147 1.6337314 0.8851364 0.828859 -0.20432788 0.20081241 0.08570877 0.5135966
봐야 -1.0477629 -0.3970519 -0.0017003117 0.23549645 -0.084667005 0.076872215 1.6249789 0.51880324 0.40314132 0.46976542 -0.95274097 -0.063968115 -0.55843484 1.1954975 -2.9265993 1.9500545
이제 0.041517153 -0.14683598 0.2826287 -0.46634817 0.19228597 -0.08475789 -1.3106989 0.51592064 -0.957098 -0.67491543 1.5116075 -1.3825114 -0.6931261 1.2155772 0.031130906 0.34041783
물 0.20188145 -0.56754124 -0.16101813 -0.42911553 0.4246847 0.39409602 1.5842407 0.06666087 0.76927227 0.23149161 1.1018996 0.35048407 0.104360014 0.31744504 -0.5061824 -0.53947556
막장 0.2839015 0.2095454 0.27088082 -1.6032151 -0.029478187 1.1909046 -1.4781979 0.96387756 1.0481409 0.43799162 -0.53513443 -1.0710788 -0.2341275 0.108552136 -1.929288 -0.121652216
삶 -1.7145338 -0.057027236 -0.7456252 -1.0435096 -0.7526279 -0.175861 0.90243655 0.3121603 -1.4611708 1.6161784 1.2891339 -0.76809454 -0.20317449 -1.7510363 -0.89490443 1.3738902
친구 0.5133816 -0.24568327 -1.1046629 0.32680568 -0.45499516 1.5288213 1.5496117 0.93315494 -0.8729056 -1.4545059 -0.9507777 0.6808116 1.1049095 1.8210181 -0.08420382 0.50582397
잔잔 -0.47147396 -0.02556491 1.4116377 0.25244504 -2.022837 0.5727871 0.60403746 -0.58862996 -0.62357527 -1.6113966 -0.7876311 0.9131046 -0.39351803 1.38789 0.49472094 0.8469814
조금 -0.71639234 0.8235091 -1.0252658 0.3800038 -0.12032676 0.52806693 1.3430551 -0.040909145 0.4409217 0.20106891 -1.3093442 0.28824562 0.29314968 0.7207632 0.5863483 2.0924897
씬 0.027974116 0.30573928 -0.051005527 -0.5003338 -0.9946267 -1.5048015 -0.65487695 -1.47013 -0.7921267 -0.14550246 -1.0096039 -0.7172477 -0.8129327 0.0029580395 0.6168092 -0.91762114
딱 -0.32803366 0.20003963 0.1689859 -0.3403582 0.7391007 0.07866245 -0.33109275 0.69486624 0.5141962 -1.3646291 0.40164077 -0.13900217 0.23981443 -0.46935734 -0.28386223 0.4332004
영상 0.26402196 -0.57877904 0.011344138 -0.4936102 -0.025901757 1.2083333 1.4647042 0.027915662 0.27924243 0.75315255 1.5850395 -0.043722857 -0.39235893 1.8323916 -0.5608291 0.36611077
찾 -0.46439588 0.17278858 -1.4782736 -0.51447695 -0.48387387 1.3713117 -0.44395554 -0.88017434 -0.47073534 1.2916365 0.11894678 -1.0805882 1.103526 1.2021695 0.22466692 -0.41083425
억지 1.4111389 -0.15319777 0.3642868 -1.8597512 0.37609398 -1.3097453 -0.4644979 0.64584845 0.30738908 -1.6324166 0.08951796 -0.6323658 0.8636166 0.109368525 0.9519003 -0.19169416
중간 1.876424 0.1834451 1.518792 -0.6629551 -0.6257563 0.81704956 -0.9299914 -2.4289067 1.5332124 -1.2578416 0.16120578 -0.5738036 -0.022244658 0.046205394 -0.3416449 0.020355852
요즘 -0.33748636 -1.7873191 -1.0346738 0.4955986 -1.6866214 -0.1548219 0.7478054 -0.97163147 -0.9702977 -0.22670344 1.431077 0.5657694 -2.2394917 0.3199825 -2.097009 0.86023676
같이 0.671504 -0.06870452 0.3155511 -1.3452762 -0.4768549 -0.006510369 1.0971316 1.0413432 0.83406657 -2.3079572 -0.052675813 -0.75581545 2.4316607 -1.7046705 0.18845002 0.7389951
구 -2.1446064 0.54908985 -0.089186445 -0.82196164 -0.24083349 -1.1787896 0.4777295 2.1649256 -0.47308224 -0.3803467 0.36875185 -0.9185926 -0.20413046 1.3435452 0.5213572 -0.436986
" -0.18379341 -0.673154 0.9406017 0.7882105 0.82500136 3.464373 0.7845947 0.30647415 -0.39895838 1.69915 -0.9916086 -0.5683405 -0.16019925 -0.9716733 -0.6303385 0.40577683
가지 2.0981288 1.1050408 0.73435503 0.76147 0.23113866 2.195922 -0.5246254 -0.69961107 -0.69108206 -0.029090248 1.2973797 0.2622469 0.85322374 1.8176374 0.38059384 1.0156847
스릴러 0.6317842 0.52053434 -0.122251146 0.35860637 0.17253488 2.6176214 -0.42273366 -0.5752481 -1.95333 1.1139469 -0.051128298 -0.058477204 -1.2049955 -1.7691253 -0.52834636 0.49469945
8 0.7729137 1.7261261 0.29115456 -0.053470455 0.56284344 -0.15806752 -0.4989738 0.18635999 1.2928747 1.8808135 -0.88762915 2.194312 -0.95661926 -0.279965 -0.847054 1.2414162
믿 -0.43268725 -0.011093419 -0.51140493 1.037312 0.72374374 0.22480933 -0.18932605 1.3922015 0.72158235 0.41800097 -3.5258095 0.75289756 0.9508619 -0.6853773 -2.052689 -0.42989966
싫 -0.48167205 -1.0099862 1.4023482 0.6037345 2.140479 0.35083428 0.45703337 0.40006918 0.49677375 -1.3848962 -0.3689564 -0.6078714 0.35831293 0.022838758 -1.6967632 -1.8824798
.... -0.22930774 0.60439295 -0.06363307 -1.5245483 0.3288716 0.39033678 -1.1046013 -1.3307207 -0.2594883 0.76036 -1.4072169 -0.7531799 -1.6063435 1.3235303 -1.103762 0.7443428
보고 -0.19453102 0.6166274 -0.7024165 -0.73290753 -0.41982323 -2.1479938 0.61239725 0.14790182 0.8318473 -1.015621 -1.4779834 0.11356293 0.99845433 -1.1817626 -0.17967932 -0.9948169
라도 0.47191855 -0.7310141 0.3129178 -0.48290837 0.29746532 1.093728 -1.755665 1.130642 -0.6404316 0.91895473 0.7673209 0.36871195 0.18871565 1.6675605 -0.95716786 -0.16150132
나왔 0.2291776 -1.4541523 -0.25834703 0.7511419 -0.641254 -0.3968335 -0.061344493 0.65785646 0.67903894 -1.8621328 -0.3553767 2.4174392 0.526483 1.4470656 -0.7488772 0.37549132
아까운 -0.27623853 0.44202927 0.38971806 0.6009003 -0.31034595 1.0852 1.8737899 -0.5366026 0.16179076 -1.9421483 -1.3233135 0.104951955 -2.7867274 0.6842567 -0.074697345 -0.04031763
긴장감 -1.1088055 1.0809163 0.5566565 2.2563543 -0.7504509 -1.8033242 0.50548947 1.7857801 -0.107658006 -0.75875616 1.6488756 0.5082918 -1.9131099 0.32119885 -1.0412421 0.5817432
점수 -1.8965248 0.26674923 -0.9290587 0.22672983 2.434813 -0.25574782 0.5976404 0.8284059 -0.43734732 0.4859713 0.18212374 -1.8372123 0.77308357 -1.262051 1.7506953 0.7605466
개인 0.118056946 0.9167511 -0.56463635 1.4762968 -0.0062561184 0.10481972 -0.6440003 0.3464173 1.3158242 1.3562547 0.244693 0.789263 -0.3717734 -1.4443933 -0.15353791 -0.26739252
제대로 -0.0228456 0.8539295 0.39636922 -0.8147126 0.15555423 -0.81045735 0.54624814 0.003021861 -0.65175396 0.9935779 1.3670452 0.6247388 -3.069073 -0.2526367 0.52814096 0.26121512
부족 0.678064 -1.7453732 2.6462345 1.4021668 -0.63437766 1.6162788 1.0598342 1.8472682 1.5157644 -1.5531766 1.4402643 -0.561083 0.21025729 -1.0414776 0.7499418 0.56508285
이유 0.5600709 -0.15615746 0.13564782 -1.4181563 -0.24692214 1.2957278 -2.1081831 0.6234135 -2.809882 -0.62035066 1.8533161 0.45838165 0.501466 0.47093645 1.8339144 -0.971579
노래 -0.6243705 -1.2436869 -0.030831104 0.6348699 -1.2676595 0.10715557 0.45274898 -0.0768625 1.9139456 0.8549898 -0.9189988 0.20001926 -1.041057 1.4740185 0.266967 0.19654468
만큼 -1.6501809 -1.8147405 -0.2998841 0.76070046 -1.3815811 0.5561732 -0.011982082 0.97212034 -1.6218652 1.1675977 -0.53203124 -0.51293707 -1.3769369 -0.46732587 -0.1491387 -0.37428397
라면 0.11871956 0.52641004 0.69634825 -0.45419997 -0.47190356 1.1491437 0.81315494 0.7826286 -0.9353305 -0.6499472 0.64008784 -0.124810934 1.0650214 0.9205943 -0.28213778 -0.3120431
시작 -0.25124326 -0.18499117 0.44791356 0.16467601 0.6902571 -0.04223882 -0.19228868 -0.014006354 -0.78222305 -0.03980523 0.28927758 0.7478797 -1.4318694 -1.3194183 -0.57665896 -0.24652728
잇 -1.8362858 -1.0940225 0.35741106 0.6502599 1.5220264 -0.56572694 1.8359022 0.56083804 -1.6241828 0.6478545 1.3545872 0.26255083 -0.121230066 -0.33836818 1.0664546 -1.7875776
구나 -1.0075043 1.6862994 -0.27228028 0.48499918 0.47813243 1.3347083 0.19689685 0.58798647 -0.557425 0.22751787 -0.66480553 -0.5889405 -1.2349288 0.51194245 -0.21743216 -2.2918153
특히 -0.08969875 0.66253906 1.5754825 -0.97837603 -0.1749338 0.2835464 1.047286 -0.84713686 -0.32625058 -0.42148125 0.51418126 -0.048890222 0.98515475 -0.9424572 -0.2969261 0.4077653
한테 -0.041487996 1.5022322 0.098105684 0.15811245 1.7969675 -0.35997263 -0.3662882 1.2102827 -0.60999024 -0.11613259 -0.58156073 0.03801898 0.37676656 -0.046816774 -0.44790328 0.28291073
날 -0.6457955 0.75522786 -0.66516894 0.76496065 1.7893552 -1.4514909 -1.1987193 -0.69990605 -1.0830885 -0.9665361 -2.151535 -0.6753553 0.9663419 -0.51405346 -0.27298734 -1.507765
려고 -1.3971479 -1.1699362 0.70311093 -0.83057445 0.61568004 0.94642663 -1.9771532 0.39842847 -0.9539752 0.3531622 -0.026771802 0.27950853 -1.2500259 0.8939304 0.42367643 -0.54419184
제일 -0.70932966 -0.68278277 -1.1456566 2.6411312 -0.45132035 -0.11774805 0.56011176 -0.17521544 -0.012420213 -1.022268 -0.42208463 -0.05999762 -0.53501034 0.45334467 -0.35579652 0.8797798
아름다운 -0.52293855 0.08465673 0.52062607 -0.0499692 -1.587941 -0.19703637 0.6055383 -1.6053637 1.9023823 1.4191087 -1.0969889 1.0076455 0.40636623 -0.23500763 -0.32552034 -0.8151448
시대 -0.36823535 -0.79986614 -0.36634955 -0.5940934 -0.9370083 0.64185834 -0.35780883 -1.1489838 1.3008341 -1.5550694 0.4936397 0.48643094 -0.34692392 2.4345124 -1.116849 -0.17434776
ㅜㅜ 0.40378496 1.5649226 -0.54208493 -1.3303046 1.6533623 -0.3826075 0.1563482 0.24732554 -0.33739838 0.081000805 -0.3437176 0.9329878 -1.3401585 -0.4413155 -1.4081436 -0.26639244
어떻게 0.20072503 -1.1005774 0.2645208 -0.82898104 0.62186915 -0.80662817 2.031957 -1.4481035 0.009356217 -1.9515537 1.068887 -0.5815714 -0.34178966 0.93464744 -0.9195965 0.2478945
명 -0.7886992 0.52952546 -0.72674793 -0.8363671 0.31511927 -1.2977253 0.900121 -0.5461277 -0.39960384 -1.65654 0.9150082 -1.0978673 -1.4757004 0.99038345 0.34567916 -0.36648118
당시 0.39030957 1.5368882 -2.0816836 -0.3774983 0.972574 0.6462001 -0.6166239 -0.07180147 -0.0075631803 -0.19670555 -1.2870927 0.016491741 1.282122 -0.64553195 -0.007880056 1.7762597
엔딩 -0.54842705 -0.47380117 -1.0314132 -0.14749996 0.073214255 0.08619093 -0.8350367 0.0500079 -1.7025627 1.3136511 1.4058164 -0.5127924 0.31481472 -0.49805066 1.0956545 0.90394735
나름 -0.39153275 -2.3213477 1.2967893 0.6064637 -0.9542806 -0.29317248 0.52697563 -0.59243184 -0.35750487 0.7187396 -0.057077453 0.48279086 -0.5426095 0.094421 1.3341569 1.8478482
무섭 0.050318126 -0.54843986 0.5831019 0.57593447 0.74570525 -1.862267 1.0726812 -0.8865477 -0.90338403 -1.0685998 -0.23437688 1.1673299 -1.8998042 0.79143995 1.0762913 -0.18329553
나온 -0.4711673 -0.5676762 1.1862932 -1.1198596 0.019647975 -0.6092396 2.1935875 0.30579007 -0.008050328 -0.43949023 -0.16699877 -0.8003876 0.86495274 0.07467832 1.4111022 1.4665449
사 0.28083247 -0.68573666 -0.35909793 -0.42179796 0.7723826 0.37386647 0.7794223 -2.150798 -0.8890653 -0.10986368 0.5199639 -0.20157869 -0.13375896 1.1023464 -1.8781018 -1.0587298
오랜만 0.23655277 -0.9614719 0.05124776 0.05230242 -1.1983987 -1.4816538 0.06537236 0.59559107 -0.38370404 -0.4077745 -1.3496782 0.47344908 0.39853722 0.822436 -1.7789279 1.1477495
니까 -0.2935745 0.35167196 -0.3778603 1.8824947 -0.3513447 -1.5770819 -0.22596538 -0.5910826 -0.6595966 0.61818135 0.14939368 -1.0519547 0.9202422 1.6704432 0.3931193 3.0746737
해요 2.3010764 0.6210231 0.7351214 -0.59212595 -1.6139922 -1.1027977 -1.3656954 -0.7118313 1.425497 1.0101761 1.2930496 0.37533313 -0.3977984 -0.2620407 -1.6173937 0.30186367
9 0.6135747 -0.21022606 0.074757636 0.59018147 -0.8524827 1.3474623 1.2971709 0.29249752 -1.7569609 0.65185684 2.1356146 0.5850715 -0.23028891 -0.9646257 -2.6379924 -0.6402482
이것 0.12059928 -1.369561 0.554394 -0.21107121 1.5525365 1.6970913 0.79625815 -1.6538546 1.141164 -0.23416057 -1.0413827 -0.48262385 -0.3359299 -1.9922464 -2.554947 0.6312478
팬 -0.42408508 -0.6177571 1.2895468 0.0005465826 -0.17593691 -0.5282821 0.106337436 -1.7058109 -0.34990776 -0.88410753 -1.2057598 -0.1951719 -0.5193152 -0.4146311 -0.74958366 -0.23062846
차라리 1.5949388 -1.4276242 1.9930284 -1.5283481 0.51107544 1.5897908 -0.8171715 1.9423791 -0.14704268 -1.1341118 -0.82490325 -1.908035 1.0927252 -0.012982244 0.8669937 -1.6883129
봐 1.0797414 0.96820474 0.41664597 -0.1000856 -0.11193769 1.4901612 -0.70235455 -0.18155779 -0.21070562 0.8711215 -0.38215673 -1.9133551 0.023198796 -0.5346014 -1.5369906 1.5461419
절대 0.63296884 0.06659424 1.0031029 -0.14463626 0.8084198 0.11253816 1.5793086 -0.10816419 1.1974171 -1.4110384 1.1099411 -0.48468742 1.5462677 0.019542241 -1.4927016 0.075998776
세상 0.52032393 0.33715135 -0.030882869 -0.18057224 -1.1315086 1.05365 0.7807553 -0.37020788 0.069638476 1.0339272 0.6751615 0.28979072 -1.744178 -0.6923752 -0.5940673 -0.46690282
세 0.17630479 0.5161567 0.89230627 -0.64827347 0.81812346 -1.1368403 0.43218017 0.28432807 -0.5874169 0.3261048 -0.4480402 0.8211507 -1.3363172 -1.3359095 0.031055463 0.1348191
못하 0.0734389 1.041974 0.8139197 0.1134209 -0.50952095 0.35904482 -1.0920572 -0.023597106 -1.1939226 -0.288016 1.1565346 -2.5130002 -1.1955423 0.41124767 0.65192634 0.8211435
하지만 1.8662335 -1.0680938 0.7484885 0.6388786 0.029242104 -2.215171 -1.4472086 0.71022004 -1.0401614 1.9739459 -2.4619784 1.508756 -1.4714061 0.9589022 0.7628628 0.34150177
던데 -0.99258107 1.1715829 0.029000727 -0.24009608 -2.08257 0.34202632 -2.0052638 -2.2796679 -1.357072 0.5933656 0.7060175 -0.75780296 -0.5620334 -0.57471454 -0.722652 -0.9418557
욕 1.2574786 -0.07434706 1.7275358 -0.43118417 -0.7747946 -0.36479217 -0.049338352 0.71127886 1.8643996 0.77687246 -1.3413602 -1.3249737 -0.6896708 0.3562626 0.049322724 -0.20352624
봄 0.16795035 -1.0880587 0.08583043 -0.85685855 -0.8654874 0.40646917 0.5746698 -0.92844564 -0.7406515 -1.743366 -1.0177054 0.7949351 -0.033944312 0.4370134 -1.8310393 -0.8651749
감 1.5589458 -0.18355073 -1.1452012 -0.3280116 0.10509437 0.9913388 -0.12931725 1.0118744 -0.93865895 1.0237375 1.3451202 0.54406315 1.0287963 0.20122053 0.41588578 -0.7100259
훌륭 0.3747653 -0.17535862 0.47438857 2.145838 0.8352042 0.7814021 0.8224896 0.21693255 0.8135149 0.57308096 -1.0546283 1.7267586 1.6334696 -0.90980256 -1.3709972 1.4852699
너무나 1.4454166 1.5950896 0.9389788 1.2030905 -0.21272334 0.18272844 -0.6531599 -2.3778107 0.08549214 -0.6184469 -0.4318676 -0.40041673 0.5953768 -1.2005064 0.012657556 -0.9850737
강추 -1.8247101 0.13414863 -1.0308936 -1.14237 -1.7911718 -0.34163192 0.35882038 -1.6114242 -1.3354348 0.34332988 -0.54422027 -0.49685508 0.112423845 -0.18239528 -1.2669423 1.7892816
해야 0.37014383 0.2788537 0.497406 -0.11571015 0.91382754 0.44765842 -0.62683403 0.7142551 -1.7599891 1.3275483 0.85549784 -0.56328315 1.3644897 0.40123412 -0.19765967 -0.25466385
됨 0.34418565 -0.66347975 -1.4775666 -0.32734346 -2.0529304 -0.49401972 0.4465777 -0.47940007 0.12364791 0.2601167 -0.1544636 -2.0258737 0.8631669 -1.6490903 -0.044580173 0.3342528
ㅡ 0.040846594 -1.9246732 3.0493443 0.9202767 -1.4201802 -0.5407761 -1.6840297 -1.8298542 1.5127244 -0.44463938 2.6958776 0.73883367 1.5961751 -0.058686014 -1.0235986 -1.9212276
따뜻 0.34815302 -0.4180629 1.158008 1.5074259 -3.2768579 -0.76544595 -1.117182 -1.0979613 -2.284605 1.7147825 -0.94398373 -1.5697556 0.7017072 1.47396 0.8544758 1.2429565
빼 1.9659337 -0.3934686 -0.29280674 0.667307 -0.90201956 1.5320379 0.26278135 0.5757539 -0.34466633 -0.9145068 0.4991789 -0.32381204 1.4494764 2.3661509 1.7244066 -1.399994
느끼 -0.15224697 0.70823115 -1.8866576 -0.22726594 0.13218357 0.019092977 -0.68550014 -0.6575171 -0.22951598 -0.27540693 1.5563432 0.23282017 0.70564824 1.4913816 -0.75045073 -0.8015157
드 0.32693923 1.3811817 0.4655703 -1.1479112 -0.4532571 -0.13193054 -1.2304214 -0.46000955 1.1778328 0.62467355 0.114676654 1.1953766 -1.3283037 -1.3823651 -0.5701795 -0.52773714
도대체 1.9300325 0.7655676 2.268796 -1.7583016 1.0233405 -0.709367 0.036806807 -0.4630024 0.8899375 -0.0664208 0.27490053 -0.3220104 0.24960679 1.1237472 -0.27626052 0.23812634
어야 -0.35688493 -0.77805626 1.4839351 1.4145353 0.627052 -1.6281381 0.34911513 0.29785383 -0.36886045 -1.0430406 -1.0632066 -0.4594349 0.3466173 0.336602 1.9611555 0.26926464
글 0.38807654 -0.9502831 -0.2888612 0.1258856 0.26448876 -0.23057249 -0.5645207 1.3178444 -0.7827737 0.08674365 0.41171733 -2.0692751 -0.2038371 0.2619141 -1.8617452 -1.1539545
마다 -1.3248928 -0.57856566 1.0836143 1.124567 0.73048335 1.1757311 0.12553832 -0.4927018 -0.41991696 0.6178868 1.9875096 0.028769212 -0.5778058 -0.62568915 -0.7784938 0.8205038
답답 0.92730397 0.43492416 0.5837655 -1.5171599 0.3808789 -0.075965434 -0.35301352 0.13670544 -0.049187813 -1.0926614 -0.7075273 0.3679229 -0.60968494 -0.4644104 0.6560594 0.07844986
준다 -0.13408177 0.8393176 1.6789244 -0.5730543 -0.41655138 -1.0840139 -0.6664422 -0.70721036 -0.13242915 -0.74883586 0.51547265 0.101240836 -0.5264844 0.13068184 -0.06883573 -0.39779449
전쟁 -0.5671845 0.20938423 1.4524673 0.1693944 -1.0700566 -0.50368446 1.0308031 0.9533359 0.4816333 -1.0746243 0.9927164 0.3043092 1.5772719 -1.7467712 1.424714 -0.91777855
놈 3.3344193 0.58759683 0.5604162 -0.09740753 1.0354325 2.5746493 1.1469237 -0.35202378 -1.134216 -2.8409145 -0.20517668 -0.5567906 0.25780383 0.55486494 -0.47472423 1.5293757
설정 -1.6324649 -2.6109746 0.2095552 -0.44731173 -0.9437125 -0.10047792 1.4090643 -0.09162483 0.65222925 0.19337958 -0.6503522 -0.14150086 0.26688164 -0.9106516 1.1735668 -0.7644498
무엇 -1.3653793 -0.14927499 -0.26972947 -1.1759481 0.004503459 -0.5466252 -0.5137487 1.2380358 -0.536077 -1.7913971 0.1377177 0.6553893 1.3385539 0.542133 -2.0758822 0.9605006
수작 -1.6499747 -1.4839292 -0.47625455 0.94172126 -1.1458907 0.29223543 2.2765217 -0.6872518 -1.5165527 2.0301228 -0.791385 -0.5554291 0.508635 1.2585112 -2.764249 0.5465899
그저 0.11195552 1.3066792 -0.2536017 -0.40815932 -0.22997905 1.0826566 0.18550798 0.94999504 0.15595889 0.24008453 -0.10186722 -0.96705997 -0.1404496 1.3092015 0.3170035 1.401537
감정 -0.24990822 0.27722833 -0.11889669 0.02587368 -1.07505 2.0141134 -0.015349631 0.01910223 1.7843612 -0.9447489 -1.3359615 0.84347075 -0.11431638 -0.08299215 -0.85165054 1.1721666
흥미 -0.42763722 0.0916834 0.5849243 0.30107415 -0.3256973 -1.077386 -1.1631728 0.43712103 1.0267369 1.3499317 -1.0058597 -0.040315717 -1.2427242 1.1281064 -1.0040215 -0.61691195
미국 1.3629988 1.1375558 1.4132653 -0.0012644678 0.35997355 1.7816074 -1.4937683 0.15997672 -1.0757203 -2.5793374 -0.32180902 1.4024125 -0.35976136 0.4573929 -0.30930862 2.6012447
만화 1.6435474 -1.0232441 -1.4808398 0.37822652 -0.28157827 -0.9407158 -1.16297 -0.95074093 -0.835234 0.8076418 0.22307059 -1.2529536 -0.16739671 -0.5510683 1.2080464 0.53251153
행복 -0.57911503 -0.5735579 -0.5378712 0.3862441 0.24488452 0.68087876 1.583035 -1.7387278 -2.3946195 1.8303744 1.1898379 0.6153728 0.37725258 -1.282298 0.8269994 0.3985032
신선 -0.40371102 0.8070009 0.6183158 0.76392895 -2.0499945 -0.37577456 -0.7339327 0.73270804 -0.9384918 1.7261105 0.33256447 -0.047006227 -0.3775285 0.9282877 1.0063721 0.8416741
뻔 -0.55148476 0.30709103 -0.6759527 -1.4434448 1.8568512 -2.1143367 0.06303559 -1.1010677 -0.113378964 -0.5480082 1.3543688 -0.3117324 -1.035347 -1.2826829 2.9206436 -0.35840645
형 1.2150431 -0.520701 -0.020918848 0.108363435 1.0761826 0.94565165 0.99824774 -0.012099423 0.089527525 1.3033814 0.87530637 0.6107785 0.5836161 -1.1453184 -0.5116099 -0.008256623
앞 -1.5437033 0.62994033 -0.7746997 2.5609035 -0.5673608 1.3238336 0.03960504 -0.6695474 1.7099476 0.04968609 -1.0378171 -0.073739156 0.05798382 0.78322256 -1.4928886 2.260554
어도 -1.2440819 0.45270514 -1.8540486 -0.69000614 0.82494426 1.2229049 -0.55061173 0.60499126 0.26450467 -1.7721239 0.22162393 -2.143583 0.3191282 -0.80610496 -0.027966728 0.43063027
허접 0.2794054 -0.09965573 1.661416 -1.0649191 0.18396723 0.65603685 -0.61367816 -0.97810835 0.047140498 -1.029116 -1.4122689 -0.6405689 -2.25117 -1.6992772 -0.666757 -1.8649968
군 -0.4256404 -1.5743726 -0.6527926 0.23496957 0.18860388 1.4002666 1.8331332 -2.996662 -0.19153658 -1.8631504 -1.0101061 -1.1799002 0.1635607 -0.2363755 -0.9355447 -1.1386375
시절 0.6169851 -0.027709782 -0.91271853 0.54799986 -0.9670104 -0.6719914 -0.8476791 2.1174955 1.0569282 4.3477807 0.32382953 0.13806522 -0.062350985 -1.2827203 -1.5118736 -0.50252694
관객 -0.47589347 -1.2990159 0.567551 -0.6105417 -1.054555 1.1187471 -0.915806 -0.08902175 -0.3310048 -0.80116075 -0.90399545 -0.7314029 -0.81795895 -0.30995697 -0.22662441 -0.5442009
배경 -0.21105681 -0.7061781 0.49181172 1.1447909 0.48464373 -0.32167765 1.9670326 0.042210303 1.3582281 0.04892958 1.3655916 0.7386014 0.09748702 -1.3991467 1.5040804 0.12583992
6 0.19751737 0.029065529 0.103675894 0.2011239 0.6823351 0.30072084 -0.25916412 -0.19323264 -0.028550992 -1.668519 -0.21533763 0.80548334 1.026923 -0.4269763 -0.40513244 1.5313393
의미 -1.0574381 -0.39322984 -0.6218555 -0.7520631 -0.08096326 -2.0393028 0.820731 1.1949079 0.1766597 0.013698575 0.18662138 -0.37587273 -0.11106741 1.5316054 0.7349082 -1.3355764
초반 2.3553052 -0.27963713 -0.9376802 0.13051836 -0.28476653 0.057788298 -0.19384566 0.0302659 0.9739901 2.3624065 0.16502821 -0.0052448437 0.7292851 0.75846654 1.1827402 0.003203182
사실 -0.03206751 -0.19491208 -0.9262216 -0.1881117 -0.9944375 0.17076612 2.1063976 -0.2616748 -0.17934348 -0.12472827 0.03705851 0.08160939 -0.32057554 -1.5187911 0.2969655 0.0062499596
답 -0.066164665 -0.7993931 0.3401427 -1.0158771 -0.17897101 -0.48666447 -1.24821 -0.50303113 -1.0290408 -0.43397132 1.5749115 -1.4428778 1.0305231 -0.62776405 -0.16163372 0.545292
웃음 -0.38258943 -0.15071954 1.3648814 -0.6222793 0.37073317 -0.8145818 0.08648948 0.3839673 -1.5645621 -1.499056 1.3274024 -0.08727553 1.3169533 -1.8248924 0.87881076 0.17928666
엄청 -0.13632931 -1.29733 -0.26284102 -0.29135033 -0.256816 -0.26752785 1.9506983 1.6061988 0.6482018 0.9424623 -0.6575128 -0.2625405 1.2112998 -1.2227224 -0.36406067 -0.39919496
라니 1.0495349 -0.67222905 0.16571847 -0.60160863 0.6138666 -1.6000047 0.9664433 0.16347042 0.90677357 -0.8656696 -1.2628378 2.6931558 -0.12646814 -0.7963662 2.0561883 0.78751975
더라 0.17083633 1.1504241 0.1615042 -0.04400174 -0.47736374 0.6814285 1.0570123 -0.25519928 0.4166043 0.09454513 -1.1431662 0.6571058 -1.1502212 -1.2193097 0.3359125 -1.4050491
자신 -0.916426 -0.43872127 -2.4014485 -0.28049177 0.27980545 -0.39741448 -1.0067115 -0.33428904 0.25039345 -0.067445375 -1.4817806 0.85104096 -1.2271546 1.0676347 -1.1487628 -0.2119094
질 2.233155 -1.0901923 0.007943017 -0.55250776 0.2710492 -0.36454728 0.35229933 -0.07319568 -1.182276 -2.2715352 -0.16853505 0.3033952 1.215661 -0.8922003 -0.86686474 -1.5652441
추억 -0.6404634 1.2437435 -2.0977561 0.6067074 -1.2422184 -0.40077722 -0.66190785 -0.355235 -0.8125478 -0.29547164 -0.62475044 0.25476116 0.11853576 -0.31342906 -0.36203417 0.8341442
캐스팅 -0.030322079 -1.5954865 -0.11136699 -0.35412848 0.10507383 2.2723901 -1.737068 -0.25258192 -1.7567387 -1.4040896 0.97053444 -0.29543683 0.14502758 -1.3174489 0.5294686 -0.15555829
머 -1.1096296 -1.1759355 -0.72853476 -0.7905472 -1.1214402 1.2575853 0.5810261 -0.6012737 -0.40672413 0.001157425 -0.6743005 -1.5131108 -2.1421254 1.0100086 0.07841855 0.68703663
첨 0.55985266 -0.33033395 0.056415565 0.52873087 -0.80812633 -0.056798767 -0.4404041 0.90662104 0.8890127 0.30493128 0.19999708 0.4603424 -0.4381353 0.56845677 -0.18458025 0.7609665
멋있 -0.5444788 -0.61717546 -0.40640208 -0.5286806 -0.42075673 -0.60017025 1.4234385 -1.2270944 0.9274951 1.2925951 -0.7230787 1.3113375 -1.5178821 1.602486 -0.8173355 1.7131354
류 0.21013045 0.4473611 -0.04383174 0.12879324 0.8335331 -0.75547534 0.010108942 0.3515896 -0.11844631 -0.84827346 -0.7872427 -0.080135316 -0.50554687 1.5923918 0.54021174 1.2348233
시나리오 1.6031162 1.4325631 -0.3984489 1.3980618 -0.541597 0.028631488 -0.21201581 1.3693016 -0.5466347 0.73655826 0.33813524 -0.52181697 -0.7333649 -0.30392596 0.9714209 0.09051255
어색 -1.2235202 0.32440412 1.0268896 -0.7881039 1.1723492 0.7269754 -1.1576862 1.3095475 0.95695764 -1.4247767 -0.6390759 -0.7661671 -0.19308417 0.973709 0.43459707 1.4339494
슬프 -2.6301353 1.2926981 0.58025014 1.0927196 0.16470937 0.30967793 1.0830485 -0.79758686 0.526827 1.057012 0.8456845 -0.15388831 0.7862099 -1.6853555 -0.026030036 0.29641837
OOO 0.99933064 2.0365868 -2.331328 -0.06310536 1.7293967 -1.8696253 0.47969562 2.0117004 0.23028785 1.1571422 -2.3347092 -0.44654617 -1.4980758 0.9398484 -0.003937025 0.77738667
정신 -1.0822811 -0.8528732 1.5118624 -1.1957253 1.0158 -0.016959844 0.2076594 0.21971576 -0.08310622 1.4082199 -0.6462383 0.23377052 -0.47565404 1.4045756 1.7108083 -0.20503244
분위기 -1.2276295 0.9683955 -0.7658498 -1.0565654 -0.5792293 1.451109 0.4507931 0.5360472 -1.15125 -0.12567975 -0.17982958 0.7997696 0.011264588 0.04044002 1.4292971 0.4057984
소름 -0.4528949 1.4435251 0.5951136 1.4180884 0.2692615 -0.0637226 -0.30948475 0.48812345 -1.5976231 -1.3768618 0.6991918 0.16637318 1.0717329 -0.85306066 -1.4625248 0.67845464
멋진 -0.6061969 -1.019105 -0.81567144 -0.2956136 -1.1914905 -1.462375 0.2760931 1.1421218 -0.3775389 0.2014021 1.1692086 0.9502784 1.7813486 -0.058117483 -0.39961898 2.2533462
힘들 0.637085 0.051795848 0.6482621 0.03763819 0.1453327 -0.3669609 -1.2576416 -1.1322145 0.41481483 -0.9169177 -1.1963513 0.59331006 -0.28980184 0.76097304 0.120556556 0.30822524
오늘 -0.57843316 0.9455151 0.66882473 -0.9965106 0.36042935 1.1691144 -0.10242401 -1.1986786 -0.16564272 -1.1687232 -1.0735916 -0.5404825 -0.11917924 -1.4632744 -0.53952366 1.2930195
어이없 1.3990182 -0.7725723 1.7249119 0.071653835 1.3992639 1.0804259 -0.79016536 0.19825488 -0.16611925 -0.9899492 -0.73879206 -0.8817334 0.9119954 0.6841543 -0.8192974 -0.46076894
봐서 1.3271406 1.1514933 -1.1011287 -0.07805939 1.364063 0.65874726 0.82879215 -0.8307111 0.8481553 -1.1205328 1.66165 0.6777663 2.4277568 1.7124267 -1.0585679 0.6860278
구성 -1.1749398 -0.8489858 -1.3905281 -0.18480843 -1.5245227 -0.59961766 0.26182893 0.47388658 0.8431001 0.047693945 -0.28044876 -1.1221765 2.038212 0.6774279 -0.5044385 -0.13309424
잡 1.327806 -0.3378611 -0.60127246 -0.6548062 1.3388822 -2.0936356 0.76099104 0.5044741 -0.51241094 -0.09650197 -0.15126318 1.2166978 0.519289 0.44266483 0.13417199 0.6165947
엄마 -0.33799958 -0.04337711 -1.3442996 -0.09492362 0.43052682 -1.2573937 -0.13357696 -0.5885191 -0.72559875 0.18719646 0.076902024 -0.2233327 -0.009796157 -1.0570874 0.9792927 0.33411375
함께 -0.2985272 0.8665513 -1.8149515 0.8310377 -0.7943327 0.4090863 1.2786025 0.54227334 1.3367 0.98289883 -0.29918915 2.3838534 1.7495332 0.05175816 -0.58448094 0.14227025
문제 1.4692488 0.29846475 0.05913206 0.26085743 0.3904787 0.78983194 1.1974531 -0.35401008 1.9876262 0.8228424 0.91473174 -0.4370056 0.7251181 -0.01989976 0.11080143 -0.5946109
위해 0.23292445 -0.5359249 0.12007955 -0.49225715 -0.989121 1.0906507 0.977581 0.30968153 1.7235545 1.8120244 0.4772255 -1.0425806 0.69883966 -0.343244 -0.35454276 0.188832
졸작 -0.80609566 -0.39524695 2.6049178 -2.7458417 0.8050926 -0.23546308 1.285078 1.6618483 1.5280447 -0.84667206 0.3074361 -0.89550596 -0.35880104 -0.6049916 2.4011254 -0.24029408
잊 1.0597847 0.59261173 0.83346945 0.84619284 -1.9092714 -0.80610406 1.2313195 -1.5600262 0.52366036 -0.82655394 0.12428109 1.046247 -0.5384902 -0.9093033 -0.04169032 0.38851622
등 -1.2183862 1.8197736 0.681571 0.12564468 0.7624332 0.4164664 -0.51100516 -0.31023484 -2.2036116 -0.048336938 -0.59131986 -0.6434055 -0.02283397 0.63440454 -0.62943393 0.8225202
집 0.17032821 -0.6318541 0.6009354 -0.27363372 -0.124020346 -0.081075996 -0.2841797 -0.53047556 -0.15617122 0.66118306 0.42333192 -0.7773531 0.030061277 1.014431 -0.46635264 0.16589254
유쾌 -1.6147528 2.1617339 -0.9123395 0.14392477 -0.14292563 -0.86121565 2.3675883 -0.29572913 -0.025036672 -0.47567734 0.19772276 0.7974134 0.11808108 -0.90417516 -1.6124997 -1.3181092
스러운 1.8709794 0.6982366 0.48599127 -0.055367287 -1.2163087 0.18567796 -0.5205141 -1.0846976 -0.8376559 -0.9169089 -0.85638875 -0.4875333 0.51490074 0.4796929 -2.0700278 -0.76962584
뻔한 -0.25748074 -2.0824468 0.20991307 -0.4567642 -0.55449027 -0.9013434 -1.1878471 0.8172494 0.554152 -1.8753992 -0.45065492 0.01020294 -0.45227715 0.3412928 0.64411 2.4705606
나요 -0.24139963 -1.0250211 -0.43871608 -0.7015909 -0.68370736 -0.45056498 1.0628026 0.07580739 1.8500168 1.5172918 -0.8445373 -0.15914173 0.36486086 0.32921323 1.1870358 1.6535602
킬링 -0.7774054 -0.43192717 0.7309574 -0.9241098 -0.69361126 0.47277203 1.147434 0.31561226 -0.111278825 -1.8394648 0.5833026 -0.8693047 0.60620326 -0.54331905 0.04528905 -0.42712307
결국 1.8563342 0.43567765 1.2362823 0.28501 1.3848822 -1.5987378 -1.1617669 -0.4151122 -0.13107757 -0.33111843 -2.4138124 0.9234061 2.266101 -0.32386386 0.72790986 -2.1370091
낫 -0.32331154 1.451671 0.8418564 -0.17789203 -0.9796399 -0.3746432 -0.85730565 -0.036570076 -1.6460319 -1.4634632 -1.6079024 2.3785346 1.418101 1.0712113 0.26114684 -0.7199844
뭘 0.16988753 1.5162772 3.1173086 -0.7260042 0.68582726 1.3565978 -0.14727926 0.7475704 -0.092138626 0.73746777 0.2003378 -0.09885334 -0.63499886 0.09947264 -0.4026482 1.6852779
간 1.3949802 0.8557688 -0.23878255 -1.3271157 0.024213756 -0.5837516 -0.80808085 -0.07656183 0.24582005 -0.068070024 0.7772452 0.29340214 0.7706432 -1.4405642 0.88433594 0.037455592
소리 -0.6112718 -0.21120897 -0.5721356 -1.1601509 -0.5011209 0.5950871 -0.2086401 0.09929873 -0.4447504 -1.5674759 0.6689926 -0.74565315 0.6666581 -1.5245697 0.36946142 -0.8029898
미 -1.5806955 0.67063415 -1.2720141 -0.7602542 0.017151572 0.32130942 -0.7948377 2.8424792 -0.25267082 1.5048497 -0.84259695 0.67360604 -0.36745486 -0.21816829 0.16443634 -1.5388312
한데 -1.0124325 0.8065759 -1.065186 -0.17232965 0.89401984 -0.7526288 -0.03225993 2.464514 0.40813506 1.1452518 0.07849165 0.59210825 -0.6163454 0.3974655 -0.9984114 -0.7318091
20 0.12630059 -0.2603894 -0.1954163 -0.5357921 -0.09647271 1.0950553 0.15312785 -2.0391192 -0.22038531 1.0048987 0.9390678 -1.1523485 0.6812354 0.9362234 -1.0079453 -1.510629
역사 -1.3748426 -0.036654994 -1.1548216 -0.342622 0.73485416 0.72489065 0.32116246 0.61134565 1.2701131 0.35240322 0.42490852 1.2045755 -0.72062075 -1.8033442 -0.5041393 -0.90440303
뭔 -0.07709252 -1.3838613 0.985289 -2.1991317 1.4951906 0.72181094 -0.5710071 0.026101815 -0.82722694 -0.28926194 -0.41483822 1.7332138 -0.22828469 -0.33200386 -2.356365 -0.95154464
제발 -0.081836596 0.0957545 2.7605038 1.4584208 0.7792179 0.4894934 -0.583741 -1.0418841 2.7626655 0.71535444 0.1293097 1.8043342 0.12852576 -0.52923465 0.9777702 -0.8667051
포스터 1.612801 -1.7792813 0.5684285 1.7884864 0.59594226 1.0746608 -0.47604418 -0.011001897 1.185762 -1.0732945 -1.0648348 -1.2751195 0.8649284 -0.35335988 -0.35995463 1.7023327
아무리 0.54255015 -0.14974663 -0.17116149 -0.3381448 1.1303823 -0.84009624 0.40805146 -0.070686 1.7696855 -0.6313756 -0.18923576 -0.22545874 -1.2507715 -0.34277275 -0.6798266 0.5327966
코믹 1.6100096 -0.63753515 -0.71320105 -0.76984006 -0.27029288 -0.7480038 1.2189474 -0.6340369 0.40117452 0.7787525 -2.1316483 0.60697556 0.5530075 0.12234517 0.5361222 -1.5652685
어떤 0.12227892 1.7160784 -0.23980232 0.502884 0.3603391 -0.23062018 1.0957493 0.44491482 -0.29754627 0.09321167 -0.562352 -0.4597104 -0.22105165 -2.3919754 0.4309403 -0.12898445
완벽 -1.6180806 1.259356 -1.0479969 -0.017300893 -0.5496285 0.7256566 0.78446615 1.3614049 0.3721526 -1.1104156 2.1064317 1.0444236 0.52954274 -1.794494 -4.939605 1.2417115
~~~ -0.037134312 1.1889353 1.4408283 0.089975305 -0.2695377 0.11692347 -0.23178193 -0.64904207 -1.24971 -0.6301767 -0.49871895 -1.2817024 0.8065812 1.4017069 -0.5094001 0.70941514
얼마나 -0.6111558 0.2930612 0.89289725 0.76929367 -1.0534573 -0.753789 -0.37843034 -0.68763447 -0.65512794 -0.7376342 -0.5864928 2.5084314 -0.507344 -1.2310147 1.1259634 -1.6595297
애니메이션 0.16571236 1.8585143 -0.892981 0.069900915 -0.23359689 -0.3299311 -0.11165254 -0.35591748 1.0416738 0.08040723 0.769686 0.15358235 -0.20516536 0.07314101 -0.435996 1.1056318
러 0.27948448 0.71583986 -1.6398791 -0.58491975 0.6596911 0.62111 0.19393983 1.6324698 -1.2240806 0.32661203 -1.9494346 -1.1245078 -1.2029873 0.51953137 -1.8706688 -0.9122047
맘 0.78567773 1.6866764 0.6900861 2.3629103 0.72130054 0.1504756 1.0018698 -0.5730051 -2.3541584 -0.29470566 1.3574046 0.24118994 0.3432781 -0.5750366 -0.2852006 0.6039496
!!! -0.45973352 -0.1894906 -2.4539545 1.2275356 0.75414515 1.6736529 -0.28265616 -0.8726966 -1.1564385 0.86951786 -0.60251004 1.536586 0.7832158 0.29332384 -0.61912537 1.6105039
난다 0.36110762 0.2933983 -0.44653043 1.0112219 -1.9266312 0.8654921 -1.1439447 0.8670466 0.76065826 0.060269333 -1.5375966 -0.1602708 -1.0624708 0.16075462 0.4714548 0.10312396
주연 -0.39037102 -1.3675342 -0.8473904 1.1760381 -1.1019944 0.36910018 0.847975 0.0867052 1.6809334 -1.4468323 1.4711962 -0.44510657 -0.85703725 1.7562025 0.3254301 1.5738683
원 -0.08739962 -0.64102113 -0.023553478 -1.9059842 -1.1164228 -0.67881453 -0.58327246 -0.49401718 -0.67986614 -1.5093256 0.3973006 -0.6405933 2.1517744 -1.9153144 -1.0166097 -0.091815315
이딴 1.3554492 -1.7087065 1.5876238 -1.714401 2.0375705 0.6023175 -1.6085619 0.40412194 -0.8486956 0.1479923 -0.53790563 -1.2794924 -0.91691184 -0.5646207 -0.64836454 -0.33211213
버리 0.40414605 -0.2420521 0.8183445 1.3383292 2.5461295 2.481566 0.19056326 0.98723704 -0.9530786 1.3765782 1.1184529 0.81374717 -0.10528852 -1.6426641 0.14671262 -1.6565193
♥ -0.7172167 0.71483094 -0.15545063 -0.0950315 -0.17384836 0.17691238 0.3985219 -2.1362882 0.24166599 2.546466 -0.58282834 0.5696889 -0.089923956 0.09431964 -1.5286475 -1.280212
어릴 -1.216184 0.9435981 -0.6268609 0.3765913 -0.28136533 -1.5581613 0.23194396 1.3419167 -0.5874593 1.1685892 -0.37246257 -1.05586 -0.06727386 0.67335457 0.15237163 -0.85694325
후회 1.4852526 -0.42449394 0.19209597 -0.2440909 -1.9555944 0.6704577 -0.77387637 1.3410889 -0.9916057 0.4403778 1.7650472 -1.6186122 0.4831519 -0.9541662 -0.5088415 -0.12206267
진부 1.1638725 -0.8936257 -0.7921868 -1.2814635 1.2009643 0.8234359 -0.22295792 -0.28182748 0.52316535 -0.24766287 -1.9733336 1.4785933 0.060150053 -0.15274915 1.2447845 -0.33213735
나올 -0.4417688 0.31036383 0.42296386 -0.24791037 0.0813888 0.68028814 -1.1187003 -0.22843693 0.09133162 -1.9711459 -0.18540376 0.5482913 1.7430907 0.95178735 -0.20883705 1.5985527
됐 3.2357717 0.10416907 1.2815026 -1.4000181 -2.158367 0.8431729 0.64541894 0.4296053 2.3640814 -0.82445335 -0.86061126 1.8340601 1.4917412 -0.03516312 0.042696252 0.029441891
보단 0.45086536 -1.5333352 -0.46824464 1.6743468 -0.95765126 -0.66323763 -1.1488078 1.2607517 -0.36149853 1.4005572 -0.8707757 -0.029789317 0.43369225 -0.9704864 1.5932206 0.2682108
장난 -0.52459 -0.21512207 1.3412277 0.050601535 0.68786985 0.9339601 -1.1996855 -0.906479 0.17210984 1.6061842 0.740028 -0.5899289 -0.88870966 -0.032529846 -0.6281533 0.7634632
책 -0.54642504 0.8082697 -1.4226806 0.29278105 -0.14346069 0.2029287 -0.497935 0.6472832 0.3822001 0.11428581 -0.89947796 0.12616089 -1.2656085 -0.268859 -0.43901888 -0.28948182
더니 0.7958811 -2.4547617 1.2914903 1.5709331 -0.46251246 -0.15460475 0.37426034 0.6080929 0.13854496 -0.009239975 -2.9119384 -1.0887197 -0.6281522 0.29059464 0.16629615 1.9297116
큰 0.6109719 0.90390825 1.5904614 -0.5551609 -0.19301005 -0.62365353 -0.104693964 1.7439368 -0.5122082 -0.10110819 1.5976161 0.38997272 -0.15208381 0.14034444 -0.32284874 1.1540617
영화관 0.7280879 -0.40466592 1.7777704 -1.0179096 -0.3532516 -0.93313646 0.4654905 1.9245644 0.3116485 -0.23234817 0.6906515 1.1961 -0.2928297 1.3733561 -0.8411679 1.4659545
둘 0.32359147 -0.7204989 0.75163054 -0.20455098 1.561301 -0.6719743 -0.3614152 1.4709646 -0.8594647 0.5741185 1.2111694 -0.417927 -0.16896196 -2.015682 -0.9631363 1.8920778
출연 -0.6978942 0.42694733 1.2876691 -0.52314043 0.8167768 0.81714267 0.31259158 -0.6161691 -0.3157495 -0.6764655 0.06804614 -0.46066782 -0.1427815 -1.1448528 -0.6466932 -1.5374938
극 0.12579057 -0.5655548 1.2969667 1.3940629 -1.2308815 0.21984778 0.3860365 0.8458235 0.7495824 0.047963306 -0.9568886 0.23545846 0.946799 2.2469583 -0.18095082 -0.15668419
ㅅ -0.3961554 -0.79984796 -0.14211439 0.76471704 0.75769347 -0.15336601 0.13049349 0.023516733 -0.112039715 1.4500766 0.460715 -1.3695159 -0.61289346 -1.2740217 -0.02214718 -0.19328468
개연 -1.0418466 -1.0200127 -0.62544215 -0.15880753 1.4832346 0.9312201 -2.4038017 1.8747667 1.1651088 0.012898063 -1.2918458 0.15774775 0.4238617 0.9136345 -0.6292915 0.8674288
충격 0.65736187 -0.6516167 -3.0207593 -0.25847292 -0.548345 -1.1550272 0.75099254 0.34893176 1.2129663 0.6342297 1.5140865 0.44773635 0.5232946 1.6936169 -2.2823665 -0.45802525
여기 -0.13572134 -1.2243315 -1.1424367 -1.5940936 -1.6328235 0.37037152 -1.3426523 -1.1599718 -2.3153691 1.5450594 -1.5189233 -1.6925974 -0.8245178 0.051167797 0.46770182 -0.5350297
평가 1.5121632 0.4730099 -1.516139 1.3091635 2.4273267 0.63642395 -0.7111789 -0.78580475 -1.6839545 0.94259256 -0.41910025 -1.0254469 -0.33816844 0.6510821 -3.0894027 0.36971113
엇 0.011841343 0.1638181 -0.14390396 0.29301453 0.17732425 -1.2431042 0.79103696 -0.9879744 -0.48786727 0.74895513 -0.282389 -1.128737 -2.2149289 0.5077151 -0.7045375 0.61514056
꺼 0.77545327 0.15752041 0.50732964 0.40495557 -0.39051276 0.5785785 -1.5258442 -1.1520643 -0.16753612 -0.67273724 2.3135908 -1.3283403 -0.9203283 1.2943234 -1.239812 -0.37473592
잔인 -0.30128932 -0.95345426 -0.4546321 1.4678743 -1.2747179 0.6237541 1.6946172 0.89787203 0.14171115 1.1203772 -0.24095066 -0.80971324 -0.4146979 0.7958169 0.5496397 -1.3616039
아름답 -3.7772622 0.21984877 0.18241167 1.0095553 -1.52524 -0.34397593 0.17914942 -0.27042618 1.178502 0.10559803 0.9465384 -0.50916153 1.0909297 -2.0095584 -0.63076514 0.72611123
얘기 -0.26914883 1.0313711 0.18728004 0.66797024 -2.9589853 -0.6764851 -0.8660453 0.73504317 0.24334818 -0.92884034 1.6189588 0.66333544 -1.4109414 1.6546957 2.1843176 0.12056789
줬 -0.16875686 -0.94908386 -0.3744924 -1.1094006 -0.40200168 1.0369848 0.656458 -0.14935528 -0.5217836 0.8636548 -1.0630134 0.13057016 1.1001856 0.6215483 0.96453756 0.008332306
자기 -1.6170282 -0.383238 -0.92976713 0.7483626 1.0366198 -0.037517015 2.3400273 -0.44344276 0.44026655 -0.46730816 0.77862626 -1.5999557 -0.6239763 -1.206249 1.0909339 -2.1046913
