10000 16
<unk> 0.85977 0.16498251 0.588544 0.35934776 0.36570498 0.94750607 0.72443867 0.6918658 0.7370324 0.30901623 0.9145022 0.6618777 0.13952048 0.14716862 0.30755284 0.07129588
<unk> 0.5844727 0.7700204 0.10232825 0.98855746 0.36045775 0.48079866 0.015208348 0.45582712 0.31148753 0.26696485 0.87557507 0.84349513 0.7053915 0.9311528 0.08333825 0.20794342
<unk> 0.29830077 0.085355334 0.6855596 0.47533906 0.54616493 0.6959555 0.96619767 0.76180047 0.6540406 0.7898217 0.5194713 0.7443992 0.63157475 0.013318195 0.21490757 0.72416675
 0.6348462 0.13955836 0.68737394 0.81241864 0.17499754 0.9056136 0.672177 0.72785455 0.48105925 0.09736124 0.7063584 0.24421187 0.46082464 0.28654748 0.15704598 0.46217772
. 0.8426694 0.47216818 0.9736243 0.015365032 0.5363772 0.15362462 0.99613065 0.6869225 0.9690091 0.03043348 0.45753527 0.77900356 0.52189624 0.13672303 0.0063952957 0.29548258
영화 0.60478747 0.246193 0.5641791 0.49419367 0.94822174 0.1764419 0.21363471 0.048197906 0.8179867 0.013111869 -0.009765953 0.9219239 0.4781879 0.7899161 0.57827085 0.7971171
다 0.5597233 0.8850034 0.69273174 0.98206127 0.75369614 0.54515755 0.10706868 0.74393594 0.2571106 0.020169102 0.08344951 0.3785489 -0.054860707 0.8989144 0.67145115 0.7905701
고 0.31662616 0.51738054 0.66628957 0.56006014 0.21419857 0.62885267 0.7607859 0.6143155 0.4302326 0.24772714 0.0014939514 0.2059638 0.56518996 0.030709913 0.20809555 0.7037593
하 0.057710063 0.58520013 0.16211027 0.17434482 0.4620135 0.47027594 0.9079998 0.55154943 0.91088915 0.38547948 0.549838 0.2182687 1.0257072 0.6795261 0.5883825 0.23773514
을 0.24622558 0.5261729 0.033975452 0.33008885 0.08579006 0.14384054 0.3988426 0.41195357 0.6272759 0.2550096 0.6047726 0.36731994 0.68988276 0.089852065 0.79879886 0.12094567
보 0.83063304 0.7425339 0.23317975 0.21440043 0.24151413 0.6436108 0.10050067 0.85594004 1.0716078 0.6665099 0.6329545 0.5028847 0.52464855 0.28366658 0.6208044 0.27767453
.. 0.3756585 0.24268349 0.94335604 0.20057322 0.40698248 0.5731618 0.97982925 0.41642419 0.6887235 0.23795442 0.42581943 0.8092361 0.33977547 0.27689174 0.6595889 0.24192359
게 0.06250701 0.20770268 0.6646965 0.735837 0.49034503 0.5354682 0.68162197 1.0864289 0.16765727 0.34195122 0.5344425 0.7191231 0.06692105 0.27647308 0.5821203 0.2291857
, 0.36124122 0.43476507 0.57709724 0.1376353 0.331741 0.5069401 0.86548895 0.60679793 0.7424207 0.82308984 0.21834147 0.8012497 0.61637133 0.49538362 0.30517235 0.56801456
! 0.63175786 0.54413503 0.7808782 0.38995698 0.9066105 1.1693085 0.6213122 0.11398262 0.58444303 0.83072853 0.47377715 0.16134283 0.06539771 0.295771 0.61696124 0.45166394
지 0.9144468 0.6130217 0.7930442 0.16625506 0.5338132 0.12218132 0.6181744 0.79820585 0.34727055 0.7496076 0.8719798 0.77287847 0.1648588 0.85415107 0.15819544 0.8836349
있 0.78607744 0.8441088 0.7296755 0.79295427 0.78020525 0.18232003 0.5469718 0.49598733 0.86716664 0.5022874 1.0808281 0.68196195 0.63034475 0.4867715 0.8004791 0.99459183
없 0.49395794 0.13999157 0.69895464 0.14980517 -0.086161956 0.6758484 0.5315747 0.14126547 0.22285852 0.3555139 0.7080597 0.24637702 0.48535532 0.85849583 -0.01686616 0.42742097
? 0.2515514 0.5070566 0.5015446 0.111115724 0.5117177 0.1365641 0.21451107 0.42899927 0.9280915 0.327499 0.8171692 0.73352504 0.48215207 0.5851086 0.18295431 0.5822891
좋 0.09768698 0.29376945 0.25432107 0.96899706 0.47817943 0.11124834 -0.07198552 0.42851293 0.74178225 0.8908893 0.11817637 0.3079724 0.7154403 -0.022879537 0.54892397 0.49111062
나 0.26956716 0.20436805 0.6735778 0.7434028 0.7532112 0.38430366 0.15564023 0.746133 0.33540997 0.7804556 0.31628984 0.8206442 0.09477237 0.9289857 0.3025465 0.4256777
었 0.26827547 0.5570304 0.5585984 0.38216144 0.84146935 0.42148694 0.7394996 0.819895 0.5215721 0.45101586 0.39808264 0.49765784 0.49964666 0.5741071 0.2863838 0.7783633
만 0.37549272 0.06643879 0.7922302 0.32828742 0.7410898 0.827115 0.5368647 -0.028767128 0.8179377 0.37263605 0.69401807 0.65833265 0.66291225 0.27725205 0.5571247 0.17130628
는데 0.47542498 -0.011931737 0.6526529 0.023031713 0.3558177 -0.11531529 0.056755707 0.6692683 0.22380826 0.90351546 0.8606433 0.5439969 0.11911708 0.4076414 0.24182718 0.5857354
너무 0.71284646 0.97026336 1.1615367 0.17096035 0.96538466 0.9899295 0.5829788 1.0365548 0.6969075 0.51084805 0.31362778 0.790193 1.1994447 0.06285205 0.867411 0.73129874
봤 0.7525772 0.7801767 0.9941872 0.76706284 0.2204029 0.653075 0.61284983 0.8642152 0.56874555 0.9978313 0.13696514 0.7397043 0.5467189 0.46510622 0.5264166 0.53819513
적 0.60080147 0.66250503 0.35657334 0.72370416 0.7281671 0.4166165 0.30126873 0.4236858 0.7523889 0.7558472 0.85063225 0.9982649 0.81298673 0.3204026 0.7267002 0.76528007
안 0.121462844 0.11248134 0.41331813 0.1488463 0.02998302 0.71706206 1.0237427 0.14098284 0.2722884 0.30689794 1.1852195 0.4521523 0.7592655 1.0814193 0.59114164 0.6154556
로 0.8355393 0.7082003 0.9224673 0.12143795 0.15387565 0.2958652 0.77675104 0.10688131 0.739367 0.52186644 0.15796866 0.3160398 0.60280526 0.8159851 0.10389123 0.88726497
정말 0.44335374 0.24170876 0.57100123 0.13000222 0.6813695 0.34330702 0.30840728 1.0321156 0.73542315 0.75099486 0.27694827 0.79933393 0.62265426 0.47626036 0.23404908 0.91586584
음 0.73559636 0.9473049 0.6863321 0.41792497 0.6471478 0.7989209 0.6768702 0.6600177 0.67198884 0.60605836 0.052524567 0.18276912 0.34882894 0.33619708 0.056502473 0.029772744
것 0.45631075 0.5807184 0.2643187 0.44221416 0.1171464 0.52015215 0.71962744 0.6518428 0.8514586 0.5389684 0.27135354 0.4928433 0.2137952 0.46272102 0.042899173 0.36621112
아 0.9013937 0.5416748 0.78599983 0.81098294 0.46814024 0.1532932 0.08377236 0.27420497 0.844114 0.7961227 0.638229 0.6303152 0.7575927 0.72131085 0.57335615 0.72675717
네요 0.69264674 0.9670465 0.6230615 0.35123855 0.70647466 0.90838015 0.36033523 0.78083694 0.88024116 0.29087836 0.5864678 0.09939233 0.42292795 0.012081633 0.93772244 0.1396008
어 0.5672241 0.58603126 0.56334877 0.22745289 0.6463856 0.012376735 0.9305999 0.7507698 0.19698468 0.8041021 0.24850526 0.91852534 0.8670182 0.31659958 0.06882521 0.5871451
재밌 0.5861866 0.55800384 0.82256514 0.6861637 0.94930536 0.23330016 0.51926243 0.57410014 1.0378474 0.26610008 0.5668264 0.30537385 0.44908136 -0.06371336 0.90089256 1.2013428
같 0.90189874 0.6801193 0.7552772 0.4141077 0.41801804 0.6224593 0.72720295 0.5792399 0.8258853 0.77770513 0.4630708 0.48444328 1.0429723 0.49901146 0.66731405 0.3010093
점 0.80512166 0.9547762 0.71209145 0.08650093 1.0834824 0.37916565 0.63064605 -0.16045266 0.46795225 0.8351298 0.18498413 0.9463712 0.6249491 0.29343808 0.4054813 0.09844825
지만 0.7901421 0.5907944 0.4865756 0.31936255 -0.124318354 0.24774262 0.46608695 1.17835 0.8619857 0.90709966 0.9590652 -0.05258669 1.0950611 0.7707372 -0.084194034 0.7181705
진짜 -0.027700866 0.31380752 0.53088266 0.58694136 0.2999828 0.9841169 0.79760385 0.6823786 0.8809521 0.91998494 -0.07500504 0.22566807 1.0432876 0.50594854 0.89901334 0.25754812
했 0.20203036 0.87114507 0.7017763 0.57449543 0.4015932 0.56497836 0.3427705 0.7344981 0.53464305 0.8576995 0.66077024 0.19970259 0.52844346 0.0364476 0.19290854 0.5422464
기 0.072869375 0.29025483 0.52817225 0.505866 0.23521195 0.030291924 0.9635258 0.13087285 0.8753078 0.18912101 0.12495871 0.72744226 0.34471866 0.7637953 0.21458292 0.010258075
에서 0.88008136 0.4095474 0.7983842 0.75882643 0.6552294 0.43490434 -0.0288474 0.74391186 0.59367 0.08417656 0.96705306 0.054922402 0.41255927 0.5844157 0.5558303 0.66571707
네 0.7843222 0.86409795 0.91180825 0.63867444 0.33307612 0.19251238 0.52696717 -0.075240694 0.7703884 0.36684194 0.27405933 0.18307015 0.7799693 0.6472331 0.77684265 0.376726
않 0.4386868 0.027687296 0.9716949 -0.050543994 -0.10710064 0.54290396 0.4039976 0.6344356 0.7388943 0.61674273 1.4475178 -0.008183231 0.5976851 0.80500835 -0.14674418 0.5905206
거 0.17547227 0.53760856 0.4271828 0.21202661 0.6430678 0.38654977 0.35516033 0.30692714 0.46499634 0.35601017 0.46282732 0.25870013 0.055850606 0.8046079 0.5107809 0.6242613
았 0.48493055 0.78774804 0.9121719 0.43056822 0.524785 0.13000834 0.40308467 0.64640015 0.5289366 0.9361933 0.55648106 0.9288935 0.37357235 0.22795689 0.057325967 0.48504993
수 0.94722605 -0.032663368 0.12281971 0.7870407 0.7091506 0.6496565 0.839307 0.71505564 0.30995387 0.79566175 0.8917785 0.904068 -0.040901437 0.97789335 0.42183778 0.67884624
되 0.34323627 0.49570352 0.53303707 0.58991146 0.7697431 0.78356224 0.22396441 0.7976695 0.39686638 0.29253334 0.5160644 0.2375778 0.29552975 0.3581593 1.0625927 0.60515547
면 0.77117014 0.76142186 0.047971327 0.18132173 0.65965736 0.86939836 0.73356813 0.29949215 0.27470016 0.9095922 0.4828361 0.5504411 0.5792902 0.9702401 0.65509343 0.95776844
ㅋㅋ 0.35596043 0.13664776 0.26171136 0.24179932 0.60123163 1.0873865 0.500162 0.7318627 0.43179595 0.7244499 0.8583054 0.22000423 0.6161253 0.101563275 0.6973675 0.27152455
말 0.532142 0.28957865 0.26073694 0.43531826 0.21890116 0.28758132 0.99003077 0.5586719 0.23679374 0.3474689 0.6116635 0.6811972 0.7127098 -0.056795843 0.19865404 0.48309237
인 0.56127477 0.48168266 0.4909212 0.29769382 0.6532249 0.85565925 0.68628436 0.14151596 0.38797536 0.9470566 0.09136742 0.8861324 0.059440263 0.9556785 0.907976 0.9606328
연기 0.10868756 0.7046824 0.17512383 0.2836367 0.88764614 0.32945192 0.31300235 0.6860893 0.54591197 0.33116162 0.27260178 0.6150613 0.3438811 0.11216049 0.73885405 0.59224796
주 0.31102845 0.20412262 -0.003485554 0.16486162 0.5830284 0.4097436 0.115850754 0.10956389 0.25136483 0.5932394 0.09969806 0.11690259 0.40035087 -0.011731683 0.08357351 0.22673494
내 0.041521 0.4068554 0.14513043 0.117704146 0.87311167 0.770719 0.8818655 0.62074673 0.448162 0.7370128 0.42005694 0.38059458 0.53823674 0.884599 0.59612155 0.65869194
최고 0.523872 -0.008741523 0.63315964 0.33486766 0.79954094 0.16851996 0.53067636 0.63304627 0.40370458 0.60697746 0.35520744 0.22119705 0.013610858 -0.12516019 1.1091652 0.9992439
~ 0.54390264 0.22222245 0.28028315 0.7746194 0.23728742 0.499719 0.75242907 0.5477582 -0.03319772 0.36977533 -0.08465866 0.5624889 0.3247186 0.6049731 0.6675203 0.3166074
평점 0.104361646 0.7330368 0.48290893 0.48788238 0.3104175 0.325241 0.9931183 0.08598135 0.42411548 0.5448306 0.67048615 0.27931067 0.7460687 0.30519596 0.53623736 0.9938578
이런 0.32666692 0.68729645 0.8921183 0.46130282 0.70679843 0.63984495 0.0858028 0.8438242 0.774351 1.0780376 0.44193754 0.8628666 0.05691802 0.77725375 0.616415 0.20791067
던 0.15640937 0.18450646 0.5650869 0.3024179 0.39840043 0.10840893 0.6998002 0.2389824 0.35718933 0.35720947 0.39808604 0.17258196 0.43022108 0.59596574 0.7509664 0.38696244
어요 0.27300942 0.5324657 0.7186787 0.14895582 0.522951 0.6705392 0.8862066 0.444305 0.5840379 0.9201865 -0.22079338 0.49380103 0.09965265 0.29907742 0.7336851 0.20599441
할 0.28573918 0.6694548 0.42290428 0.02178886 0.6780092 0.2581277 0.656637 0.8131252 0.49428967 0.9073598 0.8547514 0.6524951 0.46123752 0.71315914 0.6765439 0.44834092
왜 0.07446624 0.39467874 0.45304677 0.5487399 0.2512555 0.53058964 0.88672906 0.40734708 0.42508572 -0.11291898 0.4306719 0.19873808 0.72478485 0.3304051 0.77564466 0.3941685
겠 -0.02040661 0.47827536 0.55877227 0.88873935 0.31055322 0.2303525 0.51664513 0.8675669 0.2606799 0.008271328 0.52450055 0.9429919 0.5264662 0.6315906 0.0050202557 0.8732855
해 0.6386691 0.5270769 0.60371476 0.81444955 0.20293458 0.3774628 0.629114 0.72035027 0.16060749 0.6256367 0.28073594 0.17981435 0.45975193 0.724731 0.42777535 0.038969114
1 0.26609352 0.5434646 0.6095073 0.4354357 -0.020402538 0.60181767 0.5330205 -0.116397314 0.19786981 0.7569518 0.6382468 0.0852952 0.8611231 0.2507198 0.27213728 0.28164548
스토리 0.08155244 0.41685548 0.8427619 0.28049508 0.2926849 0.81505656 0.2843645 0.4643089 0.62646145 0.3074364 0.026090307 0.2984171 0.12890089 0.8419425 0.6941303 0.6873423
습니다 0.8287354 0.20653659 0.54274833 0.44174206 0.32138127 0.831932 0.18823737 0.6030617 0.75126195 0.33778048 0.09189513 0.07142591 0.33500105 0.12679262 0.48083454 0.014003607
ㅋㅋㅋ 0.24762237 0.68268114 0.19190167 0.727871 0.3485023 0.60956943 0.4110537 0.10079812 0.5761135 0.623411 0.49327093 0.3968406 0.5730981 0.35400635 0.8497906 0.7404162
... 0.3982263 0.797193 0.17752178 0.20563635 0.96355784 0.5108386 0.47548014 0.51966006 0.64631516 0.26339737 0.38716954 0.3504858 0.7573548 0.93936527 0.5628762 0.8559895
드라마 0.09787095 0.2505732 0.21072713 0.7078759 0.66032034 0.4999537 0.77356565 0.119111024 0.41309243 0.048128124 0.35212338 0.4931644 0.84067285 -0.08164741 0.8230115 0.58142084
아니 0.63636404 0.04051626 0.6572418 0.012635681 0.33350632 0.60480267 0.5252271 0.5033 0.19181183 0.832105 1.1357132 0.17526445 1.0197797 0.72631973 0.076607175 0.50709635
생각 0.35115775 0.5356672 0.35504436 0.1651445 0.4406477 0.23455063 0.7567434 0.54151034 0.9272282 0.39562035 0.3282765 0.06454073 0.8202143 0.43073577 0.8737359 0.30195728
더 0.2799041 0.4776186 0.049406394 0.8438442 0.14597744 0.44100684 0.036847573 0.6690176 0.7584507 0.5037972 1.1491618 0.4950268 0.42217264 0.5246594 0.6975257 0.039164323
그 0.647866 0.4235057 0.7116095 0.34392965 0.53475696 0.170789 -0.04164246 0.7888216 0.31656575 0.6447821 0.5213259 0.43888426 0.14081128 0.40797493 0.82185906 0.4302179
싶 0.8203544 0.8430734 0.8946033 0.8695536 0.95881784 0.40023762 0.9690095 0.50178427 0.09357216 0.15820682 0.5692408 0.5819279 0.6304301 0.52349913 0.76619166 0.6375557
사람 0.9027321 0.72137666 0.22715537 0.9272103 0.62129503 0.6759548 0.46779454 0.6183402 0.97681105 0.8732315 0.80093014 0.22546023 0.56691635 1.0683784 0.08557535 0.6794292
듯 0.5557748 0.98265773 0.912495 0.37855914 0.20196085 0.08585013 0.59961534 0.6999043 0.28944233 0.86264545 0.7837274 0.32822874 0.74774486 0.12062357 0.3888902 0.61567515
때 1.0247756 0.91151893 0.2572759 0.9404012 0.3273806 0.9943547 0.9039152 0.58543915 0.93940467 0.14741534 0.17563851 0.60586053 0.70746744 0.47619343 0.77231747 0.8640991
감동 0.7464033 0.44339815 0.5920194 0.12382444 0.72808546 -0.015329065 0.83132434 0.6874404 0.8252864 1.0764035 0.45176053 0.18513644 0.64909697 0.6650819 0.7678289 0.69516295
함 0.3859203 0.2574931 0.8916718 -0.034838915 0.64085877 0.28983128 0.68420017 0.82966465 0.81035334 0.48016828 0.32740542 0.5196955 0.8466855 0.8033958 0.6956737 0.5768437
배우 0.8775004 0.71653783 0.61735207 0.25590888 0.73744416 0.65418243 0.52608496 0.7284576 0.4637049 0.43999484 0.38179842 0.99153787 0.31381145 0.34739864 -0.010276381 0.5364613
본 0.8366538 0.33339632 0.3878188 0.47835195 0.7685227 0.3955242 0.7433136 0.8263059 0.18781693 0.26961043 0.4378925 0.63662106 0.94995946 0.81987864 0.84313864 0.7101996
까지 0.77804613 0.7535637 0.6753222 0.19206855 0.3224359 0.13752063 0.45539278 0.627698 0.28354934 0.1513338 0.3309825 0.5891937 0.24725363 0.6008669 0.5925728 0.7392578
뭐 0.24846049 0.9380301 0.20074181 0.6649854 0.16822802 0.8360045 0.13680148 0.6996189 0.59263587 0.7680194 0.50697625 0.6382667 0.5415264 0.51508105 0.16600296 0.2867297
보다 0.21575914 0.45170453 0.24356322 0.80756915 0.030639226 0.2390168 0.14546989 0.96292937 0.2716256 1.0072477 0.37583435 0.18920372 0.7626137 0.36252013 0.10013304 0.52705246
알 0.87850004 0.7084492 0.6650441 0.17840765 0.70333254 0.36992577 0.44437212 0.7363709 0.4171545 0.5109289 0.7859062 0.44052368 0.7716468 0.7618852 0.518419 0.7259137
만들 0.21169528 1.0127338 0.56697166 0.3329709 0.94691616 0.0389766 0.112285264 0.24692902 0.63184863 0.05483835 0.19879326 0.040391598 0.80913585 0.3690211 0.68767595 0.1344936
내용 0.6997494 0.9049385 1.2113556 0.6029177 0.3210327 0.5857129 0.62900615 0.5389075 0.6856618 0.59933925 -0.030154282 0.20970982 0.96547985 1.1224715 0.6427593 0.5813909
볼 0.5328731 0.3856537 0.29754022 1.0694034 0.17939961 -0.08836444 0.9198949 0.29322928 0.48653495 0.8209868 0.3711229 0.25791562 0.7387443 -0.0017103327 0.23469086 0.22446387
감독 0.4262297 0.34378245 0.9051973 0.61108065 0.79116005 0.86165863 0.42923018 -0.00017954403 -0.04165149 0.50131273 0.2018822 0.84210134 0.917829 0.27949858 0.4529962 0.7531931
라 0.42152268 0.39926443 0.3164101 0.8447156 0.3077827 0.5095821 0.7452284 0.3572778 0.7366893 0.35771835 0.66171265 0.33745548 0.6042278 0.33883876 0.15985416 0.39910522
그냥 0.33049738 0.9050313 0.60869646 0.43252304 0.32353088 0.198397 0.15769808 0.9969692 0.018323068 0.54885995 0.033086732 0.17060223 0.9606216 0.38104615 0.21909726 0.26863834
재미 0.6910582 0.59612226 1.2192094 0.87219715 0.43478468 0.33415937 -0.051927302 1.1959792 0.23917013 0.33263415 -0.38507295 0.12750193 0.4153074 0.18526305 0.105551586 0.42504746
시간 0.8736046 0.80828464 0.28571138 0.4553459 0.25306052 0.65359217 0.47183466 1.1718557 0.053775616 0.37180603 0.40193105 0.4992332 0.86802 0.62668324 0.47392583 0.074885055
지루 0.10580889 1.0375676 0.6407329 0.7306874 0.14916414 1.0075467 -0.039024845 0.46534756 0.5518288 0.7297936 0.7803651 0.8986764 0.9928665 1.1789216 0.15433009 0.8452515
중 0.09151487 0.63224494 0.3578547 0.75322044 0.2845524 0.63869154 1.1042467 1.0545092 0.37791014 0.24633871 -0.04242949 -0.03159358 0.75365126 0.21290164 0.058951475 0.7226856
재미있 1.0900983 0.6878675 0.8853916 0.46714303 0.2999351 0.0009798051 1.010109 1.1443548 0.49984485 0.6152757 0.40456784 0.32584643 0.7511832 0.033234995 0.82348007 1.0770582
년 0.5727162 0.870697 0.01750834 0.7506225 0.50502956 0.45222276 0.9978592 0.8588584 0.36463878 0.3430953 0.70531714 0.30162165 0.6973209 0.8007931 0.5168887 0.2539285
10 0.8831693 0.45938557 0.43484578 0.7263231 0.3769584 0.18364164 0.3438263 0.89023834 0.6475084 1.1087642 0.70415175 0.22976571 -0.1964108 0.41258988 1.0392609 0.362015
였 0.80361354 0.3115105 0.46122348 0.57226497 0.4508226 0.30272415 0.10606344 0.39507636 0.84354913 0.35658053 0.5511396 0.4048739 0.12110638 0.6368687 0.71610445 0.28440264
잼 0.5139995 0.96856886 0.78645694 0.060210317 0.81072396 -0.053920005 0.54738414 0.77891433 1.1387976 0.42591974 -0.20326912 -0.011872506 0.34837103 0.45030478 0.68870205 0.23570275
사랑 0.9404309 0.46632782 0.6096421 0.9120207 0.52592206 0.59795326 0.40189177 0.47379103 1.0341256 0.6709161 0.19643398 0.014016816 0.079719305 0.61716413 0.9799653 0.18859531
못 0.7410534 0.2453455 0.25267172 0.25091997 0.15591116 0.42294517 0.22950758 0.41358423 0.57290524 0.118079014 0.7152076 0.9639488 0.64168197 1.1838677 0.12989408 0.33647317
냐 0.043365177 0.5972298 0.74364394 0.08293704 0.41800138 0.6766729 0.43995628 0.8769903 0.18742013 0.6919339 0.61434436 0.33640292 0.55401385 0.5929317 0.34964642 0.3014486
재미없 0.18610427 0.98573154 0.9141849 0.5376875 0.17380309 1.0960331 0.46397433 0.20936829 0.5096911 -0.39716238 1.2132609 1.3080996 0.52241755 0.4872792 0.05251371 0.43951365
쓰레기 0.4541603 1.1412909 1.2449877 -0.033405017 -0.29047537 0.6445077 0.27025166 0.59635216 0.63674545 0.17912354 0.9655498 1.0745857 0.32745832 0.34846413 -0.20547931 0.6217311
서 0.62730455 0.71111673 0.4606455 0.70064837 0.46015647 0.19225077 0.21977286 0.28671363 0.39087412 0.7704861 0.4537958 0.67341477 0.2595692 0.8499748 0.30652246 0.992496
야 0.19817545 0.4958008 0.8656866 0.39890358 0.61214775 0.35404626 0.14413396 0.22408836 0.62488705 0.31966105 0.7797776 0.09234094 0.17786351 0.57471293 0.6710238 0.54642165
2 0.57784396 0.8276567 0.73031926 0.029452028 0.37037173 0.35943618 0.8747629 0.5374713 0.7414071 0.602354 0.55534106 0.6455969 0.6456828 0.77609855 0.83859205 0.18690039
라고 0.59922457 0.47922593 0.010964519 0.18235365 0.47871137 0.26878792 -0.019395104 0.4814951 -0.055370294 0.83455855 0.55929446 0.8928373 0.52672434 0.26358226 0.06320128 0.086815014
니 0.37525696 0.5884909 0.4311492 0.7783616 0.4445887 0.7432923 0.32889172 0.89881676 0.93803763 0.39532173 0.47910592 0.8021271 0.07865878 0.22397278 0.08180598 0.31859347
면서 0.6008521 0.103937306 0.9887915 0.501829 0.7601409 0.27534595 0.8080394 0.37329897 0.63745064 0.41671944 0.48181406 0.9166432 0.4221734 0.25531083 0.35904983 1.02082
번 0.6054255 0.6560016 -0.22784847 0.5837139 0.40831742 0.37643054 0.36434945 0.34475052 0.47263283 0.8219377 0.20682639 0.25859234 0.33887511 0.69769907 0.79737157 0.2553769
다시 0.6260673 0.7700755 0.61812246 0.85551584 0.11392744 0.81696427 0.8521618 0.58302414 1.0720031 0.97874737 0.55456007 0.25145257 0.3506392 0.28064755 0.941393 0.6542509
나오 0.60296017 0.7080228 0.08807302 0.6548255 0.32383025 0.19385517 -0.049986385 0.6751834 0.3326344 -0.17409682 0.4002906 0.75801325 0.6616078 0.21943717 0.743602 0.7911461
작품 0.39187098 0.6933532 0.3940519 0.72912204 0.31685984 0.28334266 0.88998985 0.8730285 0.3260518 0.7005465 0.077970974 0.6633454 0.3031623 0.3039489 0.30292937 0.4172414
이거 0.08088872 0.09428197 0.60339534 0.8227254 0.70251346 0.36615437 0.8496183 0.12162551 0.15813091 0.7707807 0.20460208 0.67232627 0.08708452 0.68979925 0.11086921 0.27256426
하나 0.66654396 0.56688595 0.40024242 0.31112853 0.66934013 0.66548556 0.21132277 0.9543153 0.22854717 0.60189635 0.6408581 0.16672799 0.63228416 0.630819 0.13897115 0.35534438
줄 0.79835176 0.94020534 0.04817112 0.9368121 0.8608859 0.04531144 0.27382296 0.5367609 0.00041595157 0.5790236 0.82599133 0.52061826 0.13613364 0.84617 0.24418321 0.17155209
해서 0.24343924 0.30336338 0.8965895 0.54719794 0.35645512 0.59050804 0.96793 0.34590414 0.83120054 0.7995087 0.49218214 0.6343945 0.9240707 0.4574867 0.5988192 0.559297
개 0.2975864 0.9030667 0.6599032 0.55879724 -0.04113106 0.5006365 0.17429984 0.572047 0.8209726 0.6621309 0.0959083 0.765335 0.7421621 0.48563346 0.7118307 0.86037236
정도 0.81632525 0.5321879 0.58568335 0.822855 0.06737977 0.7759148 0.60868895 0.43154648 0.4000456 0.60703796 0.46526936 0.2020323 0.8673403 0.5416973 0.9658087 0.1325069
남 0.20686276 0.48544756 0.9170492 0.33428782 0.36353222 0.48120373 0.5199681 0.40036014 0.35876563 0.5282846 0.51324445 0.39895484 0.39968616 0.16152973 0.52789783 1.0029199
마지막 0.5671885 0.5408972 0.028671872 0.8644462 0.53479415 1.0525464 0.84172934 0.2245734 0.82564384 0.6131433 0.23175146 0.6055336 0.3030798 0.29913375 0.7742368 0.9180918
끝 0.8690447 0.21591516 0.1598976 0.2863727 0.08179022 0.8875243 0.3562886 0.71695065 0.46088302 0.6877984 0.19939432 1.1211517 0.37915155 0.6100076 0.24406666 0.13044563
액션 0.66485643 0.49109405 0.25639474 0.11741648 0.6380143 0.1987537 0.58358 0.5191658 0.46465775 0.1552305 0.6330285 0.47303513 0.70458436 -0.07873057 0.30968624 0.81397235
이건 0.5773089 1.2129108 0.48367178 0.081895865 0.7754937 0.49787104 0.4629817 1.062107 0.03348474 0.9045542 -0.4476624 0.5792055 1.0683175 0.7079566 -0.029644178 0.8401087
임 0.8242171 0.463215 1.005501 0.7851054 0.7242899 0.91501826 1.0286223 0.33190522 0.51824814 0.8119972 -0.08865707 0.17179357 0.7203151 0.9129796 0.3914081 0.47330764
건 0.47974333 0.31522235 0.3092423 0.46610874 0.13462092 0.560072 0.3218264 0.19821946 0.012346562 0.71153533 0.7148878 0.53788686 0.8813064 0.3552453 0.53049654 0.49200785
ㅋ 0.7448485 0.8548649 0.7029954 0.2179944 0.3077951 0.28059408 0.8223501 0.6200997 0.12587588 0.8872828 0.6581097 0.93043154 0.4383416 0.17441668 0.87111896 1.0434473
3 0.29992372 0.91092324 0.4348892 0.8289777 0.5819234 0.41565 0.8519262 0.9341197 -0.021612078 0.20738548 0.38675052 0.42096964 0.527523 0.9940684 0.4614389 0.14249831
기대 0.82510686 0.34500927 0.5061571 0.71767247 0.051522624 0.84556204 -0.102394916 0.14778472 0.5325917 1.0112482 0.5478553 0.46883765 0.24045776 0.013777269 0.11352279 0.82832575
입니다 0.26172888 0.5921393 0.68157095 0.46352443 0.5846431 0.83828974 0.75571525 0.72021013 0.7169051 0.7467885 0.091883816 0.31228128 0.7091745 0.25164512 0.5652686 0.84516877
라는 0.26775992 0.74107075 0.8330045 0.64808995 0.57725674 0.013120442 0.64230895 0.35890022 0.022513412 0.59796715 0.57771546 0.083458394 0.21826132 0.7002832 0.5713077 0.23336254
분 0.30322316 0.6915492 0.7002625 0.7969177 0.30812597 0.3756753 0.08089574 0.42394066 0.2701179 0.53360367 0.76719314 0.829333 0.2775592 1.0861437 0.28155676 1.1062741
완전 0.604268 0.81302285 0.9450187 0.47128165 0.7253568 0.87022203 0.67042863 0.58903146 0.6515738 0.4762369 0.02497887 0.12076069 1.2020402 -0.06478545 0.65328085 0.5738479
다는 0.7836832 0.060529746 0.09669477 0.8218503 0.09725149 0.71349007 0.12022129 0.4803485 0.41554692 0.6345513 0.6661857 0.94911927 0.3604855 0.4251357 -0.06625157 0.6884896
참 0.2687284 0.58175045 0.5374559 0.34459817 0.89921695 0.9112515 0.93191063 0.52720016 0.13839695 0.6377524 0.3603859 0.93426955 0.37592652 0.9023142 0.9448023 0.8421225
많 0.5950514 0.07170254 1.0006421 0.5898468 0.48891324 0.3711672 0.8083445 0.8708786 0.11890471 0.8416794 0.58459085 0.39382115 0.95470285 0.53279024 0.7619011 0.8402332
처음 0.79907036 0.36345616 0.47006154 0.34295714 0.4523676 0.9595572 0.8010051 0.031220486 0.8217243 0.3815216 0.31391308 0.8017083 0.20565452 0.9021958 0.9639396 0.4360612
장면 0.6818941 0.095314726 0.08114202 0.28238416 0.80206645 0.7317311 0.761387 0.6575492 0.25063023 0.011824301 0.35158736 0.33515257 0.78010964 0.9860158 0.13127059 0.9121733
대 0.783694 0.4837024 -0.18257241 1.0707228 0.7843864 0.8770977 -0.033197176 0.29039392 0.5599267 0.33239824 0.9907265 0.8465302 0.86171967 0.25216275 0.8618901 0.53207153
아깝 -0.07019146 0.6443951 0.46119308 0.3485686 0.13942562 0.7729089 0.76456064 -0.076673776 0.45278797 0.49580896 0.16371001 0.9691226 1.0464727 1.02822 0.7290335 0.35472375
다가 0.6100801 1.1819997 0.8225655 0.6681357 0.6878865 0.47024754 0.06084027 0.49954644 0.7226161 0.8463853 0.60087585 1.0564322 1.0219476 0.2163649 0.6971965 0.7809039
으면 0.2340765 0.15609588 0.28646997 0.30250585 0.909505 0.8013199 0.7370676 0.63021624 0.6535452 0.64432335 1.1062878 0.43765834 0.07081206 1.0058818 0.38435867 0.5087924
지금 0.39142808 0.41892263 0.56389314 1.1050733 0.47327772 0.60720074 0.6822995 0.65792143 0.26837736 0.8452646 0.25472328 0.22155777 0.7146709 0.14595124 0.5250005 0.7577975
모르 0.43352482 0.73831296 0.54909354 0.5041684 0.1288712 0.18344694 0.44081283 0.7676186 0.057987537 1.0443972 0.06107125 0.20910822 0.3107007 0.26317587 0.06003545 0.058413576
이렇게 0.47112277 1.073862 1.1168756 0.27082077 0.7505483 -0.01622081 0.5309475 0.97369474 0.8611408 0.11874478 0.47916508 0.015319547 1.1936358 0.61299753 0.68968093 0.88888454
' 0.16527335 0.121349275 0.2984176 0.856654 0.44136822 0.9098287 0.07685711 0.99863946 0.077646084 0.22542462 0.7273259 0.28940213 0.051357195 0.5261048 0.8371397 0.06395288
편 0.41525877 0.07901062 0.34156924 0.95458126 0.308366 0.6347317 0.4360872 0.6587674 0.12524201 0.82833654 0.6982449 0.06394666 0.81058437 0.47690466 0.6957623 0.38393235
일 0.2800275 0.7422375 0.3701242 0.06141384 0.83466864 0.43589893 0.48166773 0.5999732 0.22711748 0.99204546 0.9231717 0.24851622 0.009221864 0.4180752 0.19333759 0.38902617
성 0.7595104 0.6552656 1.0397032 0.9394085 0.8946009 0.42730457 0.55530006 0.13904876 0.035155788 0.25313386 0.09823437 0.38674033 0.5461932 0.43418166 0.09575314 0.5232935
돈 -0.18241456 0.6686882 0.62420356 0.19369893 0.7550006 0.3921071 0.42702815 0.11500543 0.06099639 0.14402416 0.65868694 0.23829247 0.7144303 0.91900814 -0.09511842 0.54810214
이게 0.90892255 0.96799606 0.3981811 0.68996954 0.76469314 0.9080003 0.26117307 0.64005584 0.32800326 0.7448055 0.95517 0.75738424 0.313616 0.15427573 -0.020470195 0.21211511
느낌 0.55534285 0.5969152 0.39717942 0.7451988 0.45051485 0.7754329 0.44904527 0.44088024 -0.031952627 0.67752516 0.17384104 0.6624157 0.65188795 0.40070102 0.85773873 0.49716577
시 1.0837647 0.3681844 0.6838165 1.1090503 0.08002211 0.35511145 0.2869577 0.62671554 0.48968428 0.18811068 0.8187757 0.21351486 0.73359126 0.8681543 0.9912225 0.10323786
이야기 0.9689851 0.0044146758 0.20657852 0.8806453 0.37097076 0.6466106 0.08563386 0.48906678 0.79887533 0.634375 0.09511387 0.8141963 0.6285851 0.549566 0.13334458 0.17264313
최악 -0.3940909 1.2105819 0.5749269 0.21206123 -0.1913387 1.0227388 -0.48418936 0.32556498 0.19453086 -0.19790806 0.3419098 0.5172316 0.60741574 0.50223404 0.54500866 0.56398106
된 0.91982454 0.8099497 0.19438303 0.68946815 0.14622708 0.3470422 0.22839428 0.23928227 0.22696808 0.45007688 0.00085520686 -0.015854672 0.2176699 0.8269273 0.6749803 0.85967803
봐도 0.9859747 0.29897296 0.9561476 0.1514257 0.4147938 0.39553034 0.73058236 0.5590341 0.90821975 0.36224115 0.17057833 0.19705069 0.86411965 0.023233375 1.0918808 0.27920952
님 0.40033025 0.22378057 0.3390711 0.77196044 0.42079717 0.42673516 0.3977045 0.049162857 0.3873939 0.43963385 0.5142463 0.30677333 0.33346498 0.35096923 0.9535472 0.7646951
어서 0.73390985 0.37659958 1.1549509 0.022201708 0.25013396 0.29042685 0.72853136 0.2983494 0.8811766 0.7392553 0.52666515 0.69871384 0.7151337 0.6583959 0.9506506 0.5726201
애 0.46139657 0.24419323 0.9507051 0.5279688 0.5305985 0.41794103 0.30006334 0.6498029 0.16673695 0.33545843 0.39528015 1.0279331 0.29611048 0.3957666 0.7059073 0.481975
전 0.7575136 0.89305174 0.12662898 0.05111425 0.7152478 0.25487065 0.53068566 0.71327746 0.16382508 0.7004358 0.4115607 0.92140824 0.6699375 0.3501863 0.5260555 0.8940069
넘 0.07997972 0.78052247 0.4582102 0.28964746 0.67667115 0.07604257 0.1818788 0.98895806 0.84419507 0.8923868 0.5174579 0.7829362 0.9027475 0.21510254 0.66021085 0.90975344
ㅠㅠ 0.8392314 -0.0381398 0.796423 0.9589607 0.5075847 0.85664636 0.39277104 0.27252635 0.81080663 0.57305497 0.5938587 -0.03937725 0.7621289 0.24317057 0.80664307 0.24674235
다고 0.3881568 0.7564268 -0.24469231 0.4421018 0.595369 0.69734174 0.7187249 0.41402546 0.35204807 0.5027576 1.4350008 0.50170565 0.95425326 0.36497387 0.5137369 0.79500246
인데 0.5855342 0.05579993 0.938962 0.31597015 0.8213496 0.5141225 0.2715524 0.84368217 0.73006386 0.6747318 0.8068171 0.33750406 0.4577696 0.7930511 0.18384364 0.5162399
그리고 0.42535713 0.6944673 0.16783816 0.3912299 0.9149757 0.2980003 0.93699086 1.0242608 0.26785758 0.28077197 0.5729072 0.17880763 0.7404046 0.7171311 0.56672263 1.0949682
명작 0.9541872 -0.014595729 0.743109 1.1590185 1.1134113 0.48202333 0.3863398 0.7192908 1.062527 0.48554775 0.59874266 0.124770574 0.44452184 0.1687268 1.1275471 0.6558255
여자 -0.036737192 0.2607611 0.09664978 0.4254344 -0.02022656 0.25123182 0.4640856 0.13555394 0.7664067 0.55527437 0.32341453 0.75830203 0.7783472 1.0432354 0.8030458 0.5222884
이해 0.22855444 0.32671553 0.5066615 0.67754996 -0.022594089 0.2614142 0.52483714 0.84741557 0.6231071 -0.034810863 0.34240067 0.071585 0.59378517 0.3852006 0.40807593 0.11796922
^^ 0.72803044 0.34287685 0.10867702 0.4015453 0.75881076 0.6454604 0.64529115 0.23886974 0.28686705 0.33789194 0.019092655 0.651403 0.12642205 0.6139708 0.9517815 1.084407
난 0.6761027 0.5762135 0.9519647 0.26011062 0.84543765 0.033562396 0.17818142 0.4887425 0.63489425 0.6773677 0.33627674 -0.04244942 0.10608956 0.7497268 0.4973167 0.07965662
역시 0.6623717 0.70619035 0.38379955 0.7780955 0.95610565 0.3353669 0.469996 1.0690331 0.4760026 0.30270717 0.82197326 0.18232277 0.22828178 0.75043076 1.0178895 0.29283035
또 0.6329045 0.46478704 0.4857382 0.33705184 0.8773141 0.628655 0.3956968 0.3514791 0.9789917 0.8815526 0.3287422 0.2445017 0.01317764 0.66960394 0.18319777 0.1541206
걸 -0.009711514 0.46778953 0.85450506 0.9182962 0.4992372 0.73842776 0.6951272 0.38887152 0.33943084 0.6647137 0.37422246 1.0244324 0.2871579 0.5276227 0.40432653 0.9214283
한국 0.21357475 0.023374481 0.033141956 0.60499644 0.49929404 0.30611035 0.30926228 0.5178529 0.33330497 0.82800424 0.5984049 0.5594614 0.71302617 0.8562112 0.51453817 0.78512746
이상 0.12080745 0.53202295 0.9193247 0.35643852 0.6922561 0.68511224 0.61452425 0.6838342 0.84729946 0.23144573 0.70746267 0.19703545 0.889548 0.34341758 0.56047446 0.8473465
부터 0.31207764 0.3748568 0.6811591 0.13071582 0.73678255 0.47447225 0.57374686 0.9267476 -0.010245843 0.308428 0.8216744 0.59854263 0.28846776 0.05330538 0.028548421 0.8764698
는지 0.6291053 0.24634467 0.4341558 0.14736338 0.5688937 0.52610993 0.81011075 0.014234667 0.09392692 0.7882483 0.8190517 0.6561011 0.6659947 0.92767406 0.4696387 0.41306666
많이 0.53287923 0.53670144 0.7919283 0.4799148 0.57190543 0.49005735 0.14621304 0.53284544 0.79366124 0.36947685 0.41008937 0.58161473 0.37872165 0.06356391 0.18705265 0.58141655
에게 0.84426445 0.2549761 0.22558707 0.8478235 0.6681304 1.0143192 0.49204 0.29413408 0.023572732 0.8883172 0.19518179 0.7432517 0.6301317 0.083132915 0.1806737 0.93778855
주인공 0.87606174 0.8115544 1.0045847 0.1262464 0.26842263 0.31057036 0.596228 0.62616515 0.2178761 0.05269089 0.28001264 0.84365195 0.13278662 0.2647444 0.6447978 0.9018483
별로 -0.26413852 0.75907904 0.3056204 -0.111242846 0.19441031 1.1823158 -0.26868555 0.25815105 0.1671877 0.28675222 0.84907824 0.41924548 0.6345544 0.56616634 0.5174325 0.61955905
받 0.17602032 -0.027113158 0.39004633 0.22361334 0.045964148 0.6406269 0.8600604 0.14649984 0.9269506 0.20784536 0.8540936 0.1751486 0.31378224 0.18120857 0.79696727 0.51844937
합니다 0.9169651 0.9083357 0.64003634 0.966711 0.21638952 0.014501562 0.3584566 0.45472485 0.5752455 0.6946622 0.39629042 0.09320409 0.81251645 0.2694397 0.40541863 0.2625628
두 0.3447911 0.69789416 0.7539014 0.6543018 0.43978494 0.20962533 0.6407442 -0.0067940685 0.59251475 0.6746825 0.3958512 0.47328484 0.118365705 0.5832328 0.5968618 0.71178514
우리 0.41170615 0.03180029 0.16813593 0.98159295 0.88426906 0.5503031 0.48469666 0.96700984 0.18523322 0.05772413 0.93021345 0.24811918 -0.015026291 0.22906332 0.640348 0.9016316
만든 0.2199409 0.64652103 0.46945477 0.5329822 0.6683155 0.36794767 0.32648692 0.77102053 0.2874023 0.28242284 0.11836185 0.08970308 0.68976253 -0.001727357 0.13407728 0.23580149
살 0.8560998 0.21812488 0.31487277 0.7485192 0.48273346 0.24154939 0.5237405 0.31021622 0.24977772 0.7140125 0.5238919 0.13426839 0.8715154 0.5501964 0.21982056 0.83425707
!! 0.7491901 0.45350763 0.61627513 0.85246813 0.77772874 0.63235384 0.77140373 0.6435492 0.12869358 0.5210255 0.9094304 1.000673 0.17781514 0.8108535 0.75142246 0.46960714
길 0.2632618 0.78972083 -0.13877256 0.5396257 0.2644542 0.19296923 0.4420706 0.7742438 0.37098587 0.23297329 0.67222226 0.5001485 0.5337835 0.5878297 1.06447 0.37717584
엔 0.39686626 0.12509215 -0.18332611 0.13686681 -0.013777773 0.8622676 0.817197 0.4765719 0.5757745 0.062022846 0.36596614 0.24741629 0.27365756 1.0501095 0.27130812 0.7896185
괜찮 0.9101427 0.484921 0.30650988 0.28055564 1.0970405 0.49243385 0.8925296 0.3274097 0.40271616 0.73665303 0.512757 -0.031185342 0.14068006 -0.019595047 0.4534394 0.39810762
기억 0.36416447 0.7392129 0.7114936 0.7911441 0.9773324 0.10974364 0.72135824 0.27313823 0.74162865 1.0450795 0.18526924 0.7747586 0.66354585 0.2955295 0.2129012 0.524004
연출 0.18978934 0.45988524 0.7423738 0.5134083 0.06897378 0.15366413 0.51440805 0.94050056 0.68902564 0.53124064 0.45090634 1.0241379 0.23493785 0.25152114 0.021863109 0.7495798
한다 0.6051408 0.9199496 0.99686813 0.11462811 0.66107213 0.17724584 0.6064724 0.7445837 0.83337504 0.36130637 0.89005697 0.1042127 0.1908723 0.40883607 0.6206157 0.3592999
때문 0.16747506 0.71234435 0.5381246 0.63589 0.57215405 0.5364194 0.9430183 1.0246909 0.24398023 0.64753145 0.41427782 0.039224245 0.7058176 0.70872265 0.6081493 0.31097424
ㅎㅎ 0.9020474 -0.011982375 0.4359071 0.3749868 0.9910977 0.5164991 0.71178913 0.50188655 0.77139944 0.293177 0.66308343 0.104803026 0.78590083 0.04002181 0.6645993 0.17121479
이나 0.2508833 0.6042254 0.19307879 -0.022885283 0.19550572 0.2195882 0.1457137 0.67696524 0.1935329 0.13229153 0.6603282 0.45279658 0.3091022 0.7526249 0.7214957 0.6802473
요 0.8972701 0.6669326 0.62592465 0.9556747 0.6851844 0.051180895 0.13085486 0.57385683 0.025384713 0.23531713 0.23121339 0.6088562 0.43376487 0.3772092 0.73322684 0.50476134
저 0.33587575 0.2761957 0.2233346 0.19567357 0.3006195 0.7307791 0.36044705 0.32837644 0.21093045 0.8219389 0.35162595 0.60366815 -0.026873877 -0.14915274 0.37180948 0.9860873
재 0.86084884 0.63688385 0.40477684 0.58492965 1.1469219 0.5851681 0.64508015 0.9377052 1.1055644 0.6488544 0.7953904 0.039100893 0.29610118 0.7828556 0.2261394 0.3496122
꼭 1.0530401 0.6898586 0.33681723 0.95225525 0.25398993 -0.1127453 1.0364295 0.30593464 0.28935844 0.4111872 0.03580574 0.2503502 -0.1306408 0.1376658 0.59819984 0.3671548
며 0.6481359 0.10585458 0.85392576 0.82955796 0.24861635 0.3802848 0.093960315 0.5405064 0.80538774 0.35707346 0.16465655 0.60102046 0.10745839 0.49380508 0.22098033 0.45388508
현실 0.8350128 0.58796525 0.8671826 0.3166922 0.20994394 0.7341205 0.9018053 1.0148635 0.8583832 0.9393934 0.37482104 0.39110288 0.35618347 0.2658286 0.5232119 0.6677805
랑 0.23564254 0.84580487 0.70474815 0.4553416 0.3332862 0.11099038 0.30718464 0.10654214 0.90657705 0.55150634 0.26814777 0.11637265 0.38046223 0.20228353 -0.032294434 0.5560266
긴 0.920852 0.5046805 0.7072222 0.34538823 0.3991908 0.8442373 0.29612178 0.2081866 -0.01786493 0.7883125 0.9394017 0.27432075 0.7327744 0.5923336 0.8213128 0.685896
ㅡㅡ 0.16364428 0.6488022 0.4736515 0.35420322 -0.060727306 0.66418755 0.8752901 0.3822497 0.1930159 0.33684435 0.39151835 0.6947451 0.8736701 0.32965982 0.7436582 0.39883938
무슨 0.5699407 0.39566967 1.1013763 0.08409539 0.44313505 0.40055835 -0.101281136 0.6126812 0.5001184 0.17890428 0.27115896 0.21760005 0.7366381 1.0714912 0.20322245 0.23012684
내내 0.22618276 0.6025377 0.55622417 0.38372162 0.65134305 0.68046474 0.27148923 0.8524208 0.09975614 0.3970278 -0.2609027 0.97374296 0.7474465 0.22619069 0.7038289 0.5845002
결말 0.8502552 0.25069836 0.9670902 0.5259075 0.46085867 0.2109582 0.7165397 0.5443068 0.35876936 0.08348131 0.21577427 0.78105605 0.11609828 1.0454953 0.80704695 0.36735842
죽 0.19607739 0.5276005 0.4133432 0.6362925 0.45788327 0.8953649 0.49747324 0.6345043 0.42344394 0.32465774 0.50598127 0.8521183 0.098422065 0.7947572 0.8451148 0.66892034
세요 0.7927733 0.4319607 0.6395365 0.22011742 0.6111886 0.48929513 0.5916858 0.30531067 0.5386752 0.716526 0.8653431 0.2767652 0.56284016 0.93662924 0.52518886 0.5771373
남자 0.307612 0.62290406 0.23008004 0.23131679 0.7106064 0.7577355 0.82475907 0.74714386 0.08706259 0.2046775 0.80053204 0.15461886 0.78310305 0.2864511 0.8677349 0.9774298
전개 0.43644342 0.85428184 0.99449563 0.787327 0.43931475 0.68372226 0.5685507 0.45357862 0.19955231 0.5868462 0.389978 0.3808237 0.8552828 0.044130243 0.13278203 0.50570506
마음 0.45779258 0.4752282 0.018055968 0.1095316 0.09395801 -0.0077852425 0.62502635 0.93548155 1.0076209 0.36353534 0.048409533 -0.061402828 -0.079738766 0.3739976 0.26966625 0.4614473
별 0.7540626 0.97183555 0.36427906 0.05081472 0.9532926 0.2641221 0.1757894 0.56065565 0.7887365 -0.099138506 0.6027581 1.0518199 1.1021428 0.22905025 0.7420604 0.5901721
소재 0.61553746 0.2917289 0.7597959 0.51700664 0.4163834 0.42625883 -0.11496006 0.6416794 0.33449775 -0.10169649 0.9291207 0.17329548 0.9459292 0.28836045 0.04759799 0.62084293
속 0.4388274 0.22519636 0.7688873 0.6991857 0.9604819 0.11051263 0.6560394 0.5103679 0.52117014 0.44666645 0.68005407 0.5406726 0.7610291 0.63737386 0.22880393 0.24373043
공포 0.32731766 0.8129852 0.2063669 0.4071136 0.8845825 0.44363582 0.12207018 0.40879768 0.7024879 0.21518219 0.6819871 0.20999685 0.67840207 0.20569095 0.09345454 0.34154636
다른 0.6061477 0.8866456 0.57130665 1.0998211 0.8467156 0.3519998 0.42132995 0.7513346 0.89763963 0.31898427 0.67365056 0.67137897 -0.022618517 0.5241335 0.14067674 0.032680627
아서 0.7416757 0.81359726 0.9083307 0.21438102 0.72257924 0.5672166 0.61868095 0.24023546 0.26633057 0.67877245 0.0881615 -0.044626523 0.7347293 0.87625414 0.15327553 0.7138704
씨 0.4121358 0.60982364 0.65106905 0.8679191 0.080135584 0.83097184 0.48420745 0.73833734 0.9521205 0.13038893 0.19231208 0.6158843 0.37042987 0.28242227 0.21192631 0.4332855
인생 0.94680446 0.70325166 0.19540447 0.47869802 0.7020442 0.35611662 0.34251478 1.0332512 0.24242611 0.9112726 0.26883435 0.6689033 -0.13657492 0.29324603 0.24132416 0.7670209
~~ 0.9165465 0.30291614 0.23566249 0.4815964 0.6644044 1.0224961 0.18006249 0.07752453 1.0049863 0.7540981 0.3867876 0.11987188 0.85732716 0.38617715 0.38244838 0.40768966
짜증 0.13187736 0.6654746 0.7775803 0.4115008 0.36241353 0.9599147 0.3365383 0.5466979 0.0673399 0.015401808 0.6969757 0.93952435 0.4089253 1.012784 0.35133186 0.26389334
짱 0.40524307 0.012634345 0.12668377 0.9596898 0.70016277 0.41138238 0.5837833 0.47839552 0.21083021 1.100507 0.10596922 0.49490193 -0.027912235 0.24655198 0.18768938 1.0223525
뿐 0.35237515 0.50075746 0.82407737 0.12978625 0.6279732 0.40858012 0.5545555 0.3770522 0.62083364 0.59751666 0.8133143 0.33870158 0.8266251 0.8203992 0.167894 0.58917636
은데 0.40399843 0.001106065 0.084674604 0.60026747 1.0168847 0.5832255 0.04660515 0.6063188 0.1937791 0.5641205 0.60565555 0.6923314 -0.03637745 0.85492796 0.1504842 0.7721047
아요 0.3180362 0.20144089 0.86638373 0.6397963 0.67364305 0.84009224 1.0743642 0.88999724 0.2908023 0.36095607 0.561452 0.05811207 0.3222977 0.6742991 0.9836951 0.3091199
유치 0.014427124 0.4182029 0.7362454 -0.12737644 -0.05906683 0.52154684 0.52342725 0.067931615 0.3341966 0.4177017 0.12781382 0.26161823 0.878477 1.1286296 0.5879359 0.18668142
필요 0.99753326 -0.06789807 -0.3565619 0.79395866 0.4968275 0.060738754 1.0415828 0.6834257 0.6137095 0.550848 1.0897717 -0.03716427 -0.06415991 0.6208401 0.37053815 0.79036313
가장 0.49068636 0.14167 1.099878 0.025771651 0.3521787 0.07923112 0.63396156 0.73140544 0.083428346 0.60289496 -0.051508635 0.5668353 0.2682911 0.8349228 1.0195113 0.37048203
음악 0.8230554 0.022472829 0.17804518 0.50408685 0.8597087 0.64059854 0.6044954 0.6588535 0.15877911 0.44413608 0.9124609 0.19376042 0.08047721 0.08864087 0.3392939 0.2702766
) 0.72469515 0.32255253 0.10927168 0.6664129 0.6143027 0.2770328 0.61095905 0.20275937 0.0059649614 0.6287672 0.7055656 0.8017507 0.32029036 0.7359825 0.016527493 0.5994023
일본 0.8192272 1.0480794 0.17119332 0.40592048 0.42420688 0.4150074 0.43767136 0.4002895 0.4117685 0.3314654 0.4167276 0.21314868 1.0885113 1.009534 0.70558083 0.5823918
낮 0.5455935 -0.100985855 0.16447514 0.99783075 0.4618753 0.7489235 0.77868205 0.62832433 0.642357 0.4298281 0.31328884 0.09792716 0.06994514 -0.2797604 0.81452984 0.8741318
오 0.8681066 0.8971425 0.40985176 0.41847956 1.0067232 0.5587089 0.33210623 0.47559288 0.2895812 0.23226993 0.70401275 0.056972414 0.11674982 0.59788895 0.67273605 0.7752332
;; 0.15490066 0.33459005 0.18220276 0.20625193 0.124050185 0.97169363 0.025711896 0.86359686 0.44287714 0.6340128 0.6595988 0.7923923 0.70326346 0.18547928 0.92274654 0.36228985
아이 0.0905056 0.3132235 0.5728957 0.16148074 0.35591948 0.19645953 0.53083 0.6535244 0.48161843 0.88170135 0.93391865 0.04265613 0.77724636 0.7920617 0.8208174 0.66691226
반전 0.79816335 0.7216349 0.7886413 0.47472027 0.84046566 0.7182347 0.4321146 1.0122252 0.12649207 0.992685 0.25527874 -0.08055465 0.0952699 0.8965105 0.2040539 0.28686875
데 0.0678003 0.07132647 0.09090906 0.13566065 0.51882 0.28893432 0.08872482 0.96920174 0.11797132 1.0070258 0.460283 0.45425025 0.7396754 0.3982443 0.06268208 0.5510903
수준 0.6611428 0.921765 1.0191779 0.6598888 0.7338846 1.0007374 0.76059306 0.06993504 -0.12789501 0.63629 0.54241127 0.9533398 0.08265205 0.31881806 -0.13088702 -0.041202985
다니 0.55513376 0.2275781 0.6688508 0.9821914 0.19576935 0.8950847 0.9005467 0.21409477 0.5834569 0.46672112 0.80504644 0.4704212 0.5859914 0.34854004 0.5395924 0.22482686
웃 0.2093008 0.30927172 0.7490482 0.25917405 0.94298077 0.68297714 0.40469128 0.49196675 0.92604727 0.97914195 0.34379512 0.5731649 0.13154632 0.67411464 0.42809004 0.39145783
매력 0.6116075 0.32865492 0.5082947 0.5414207 0.9132597 0.6901918 0.47765708 0.9551487 0.69397444 0.33446896 0.49481225 0.036476538 0.35008228 0.09872135 0.46000934 0.6222793
맞 0.8886008 0.8703818 0.672882 0.5405067 0.57460916 0.22665517 0.11418004 0.6196213 0.03190268 0.45061636 0.026343126 1.0082028 0.09700749 0.7173834 0.42177808 0.66689485
인지 0.22419739 0.53092873 0.5698049 0.4976853 0.84277445 0.7773179 0.68635917 0.0841507 0.29592285 0.5158424 0.7493059 0.28452727 0.35684475 0.6484305 0.7018681 0.045469522
가슴 0.31365362 -0.13184763 0.049624205 1.0545058 1.0882876 0.55025923 0.72001487 0.6379127 1.0087284 0.63846624 0.5521741 0.2949874 0.29432595 0.68320936 0.5098024 0.25555694
없이 0.12230734 -0.006990936 0.55351305 0.93194956 0.17660297 0.7256939 0.26978475 0.2260071 0.71753323 0.28344676 0.6675111 0.06800615 0.9468884 0.8117386 0.75541776 1.1700728
원작 -0.0151850525 0.8374312 0.40496105 0.2602162 0.31759998 0.49326354 0.38848096 0.23792285 0.7879789 0.19160573 1.1146722 0.83719665 0.23805268 0.12539628 0.6365265 0.61778957
ㄷ -0.0007037928 0.8364967 0.09504438 0.52258635 0.29864463 0.26636434 0.53744435 0.8762811 0.5498474 0.8029165 0.25628373 0.9948782 0.8701682 0.18152684 0.47349694 0.8367278
인간 0.91405505 0.87033784 -0.08653874 0.4385142 0.11034342 0.330041 0.2907085 0.8646926 0.8424177 0.96020734 0.73559207 -0.05028955 0.08479353 0.95350623 0.789075 0.7771906
굿 1.0079672 0.21113966 0.12547913 0.3748376 1.2718458 0.065990366 0.43628904 0.992381 0.9940777 0.35699457 0.37581134 0.4515775 0.7645389 0.16720888 0.31827065 0.7438261
높 0.36073995 0.6872572 0.7664536 0.70667434 0.4918438 0.24448675 0.698436 0.06782657 0.45921043 0.7335216 0.6182449 1.0263945 0.34872323 0.7430273 -0.18365078 0.12709755
ㅠ 0.13532251 0.15084112 0.24503003 0.91814816 0.53498966 0.66668427 0.86721635 0.20924231 0.4251886 0.4640409 0.82218564 0.051393423 0.81346285 0.31346956 0.5674578 0.81462383
밋 0.5896763 0.72371584 0.5103594 0.3553166 1.0274879 0.2768859 0.8020859 1.0583068 0.5054454 0.42362306 0.61536616 0.4599641 0.70145047 0.026746131 0.949878 0.614524
( 0.7741689 0.613041 0.1417397 0.63427854 0.8513846 0.3012685 0.23735273 0.4018393 0.45275548 0.26580822 0.20137185 0.2771233 0.8627768 0.82277757 0.6138484 0.5194992
급 0.8515196 0.3361827 0.6092469 -0.0065605273 0.9598796 0.51725847 0.7616903 0.3555866 0.3958757 0.24610579 -0.1975563 0.21742459 0.84190404 0.88251436 0.22512594 0.5253896
만드 0.38030428 0.5561894 0.9161124 0.86462337 0.49394855 0.6673117 0.45601717 0.44958737 0.26703608 0.70263404 -0.096509404 0.8024026 0.34594017 0.721887 0.8301884 0.63380855
눈물 1.1904309 0.33521536 -0.07822853 1.260376 0.9744932 0.55940133 0.5748661 0.5767876 0.70032203 1.0211905 0.25449353 0.21250539 0.66666204 0.6406413 0.40103728 0.6222358
보여 0.7109681 0.74169636 0.03942038 0.09324662 0.29013294 0.4604891 0.2953505 0.30442095 0.89330786 0.4002875 0.64025414 0.22180015 0.52835596 0.2848391 0.99538666 0.15762061
준 0.3039954 0.43433124 0.031871572 1.0867445 0.35908923 0.24926794 0.46134782 0.7884873 0.3668113 0.5585446 0.7590598 0.6938369 0.40602195 0.3231738 0.38229308 0.29669628
찍 0.18585746 0.30085823 0.26924384 -0.04080335 0.5863067 0.9114742 0.73608863 0.027059805 0.5162191 0.106965035 0.21104254 0.9018438 0.31687504 0.4341298 0.6790006 0.14624313
인가 0.43524244 0.3655921 0.41222322 0.6966148 0.9128289 0.7161394 0.1807213 0.7632833 0.47438017 -0.020429473 0.4529204 0.5217225 0.54692525 1.0540605 0.7965976 0.4369805
노 0.36503485 0.89483804 0.62655205 -0.1621146 0.27888316 0.85992926 0.0006446571 0.3399686 0.3537535 0.22858703 1.1258888 0.9608773 0.2614158 0.59395385 0.16816947 0.4825146
용 0.7656423 0.98546225 0.09263454 0.66248935 0.4677877 0.13096502 -0.01327649 0.72986585 0.17540643 0.8174842 0.26786384 0.9237508 0.6680957 0.9552332 0.679217 0.010345926
을까 0.34004822 0.5872788 0.280526 0.65290755 0.4799545 0.74716413 0.8486626 0.6356829 0.572238 0.5805194 1.0056603 0.08904899 0.5809317 0.6730969 0.2299795 0.12585242
화 0.7189216 0.5239135 1.0845835 0.6397722 0.12038757 1.0998387 0.27262723 0.36717358 0.79157263 0.28415236 0.62062126 0.18033868 0.64112025 0.2812127 0.74114263 0.18543953
코미디 0.30295423 0.26757294 -0.041972052 0.18013948 0.96995294 0.49646422 0.6189393 0.24783497 0.45718485 0.12118455 0.6517207 0.76514286 0.77012956 0.66798526 0.57235163 0.25608385
여 0.40840712 0.9784236 0.99880505 0.89556307 0.34303728 0.37424606 0.94129163 0.9281039 0.18590735 -0.010804071 0.59914 0.3409614 0.55768603 0.06929251 0.40398762 0.82316065
마 0.06219895 0.14883342 0.40228954 0.31764174 0.21406502 0.7815243 0.20297115 0.65521795 0.6319945 0.06612355 0.3480169 0.5260954 0.8299211 0.23038171 0.3320577 0.2037962
쓰 0.35423046 0.92536867 0.26678565 0.8521269 0.7570738 0.14960566 0.4422745 0.5643929 0.5024115 0.66595197 0.5520267 0.9203156 0.49845132 0.67554826 0.018761816 -0.07456294
모든 0.57875854 0.5738883 0.69213796 0.42737126 0.2119783 -0.10684359 0.567048 0.3052894 0.53739274 0.3675871 -0.008393472 0.370374 0.6331401 0.3274565 1.1081347 0.33151075
신 0.7323025 0.7329935 0.12911943 0.23464654 0.56800073 0.100880004 0.4819781 0.47575957 0.7182011 0.19319707 0.5877765 0.48435777 0.4032506 0.76516706 0.5459034 0.9999477
5 0.4319557 0.9754994 0.089371145 0.6141978 0.04505265 0.80511826 0.85624725 0.6174692 0.45267418 0.41965204 0.581876 0.45139712 0.11061511 -0.030563883 0.9987293 0.93698853
아직 0.49877363 -0.115716234 0.6112145 0.4126956 0.25585067 0.68414694 0.31386542 0.4937409 0.6642198 0.97082794 0.39665163 0.0013030824 0.4958638 0.19970955 0.18155135 0.9025108
처럼 0.7367883 0.51409364 0.91399825 0.058356088 0.7053791 0.63522327 0.7434688 0.51952946 0.38609236 0.78777677 0.7058642 0.087223075 0.4022352 0.45652935 0.39978427 0.61488193
눈 0.54767996 0.43737578 -0.024217922 -0.05337543 0.010955457 0.9856401 0.7651385 0.5312186 0.8672792 0.8286601 0.6690193 0.37086222 1.011122 0.46262684 0.023694597 0.36431602
추천 1.1279038 0.13225743 0.70306534 0.71288675 0.66671544 0.42890093 0.54935014 0.34706256 1.1549112 0.5388915 0.6776953 0.47244763 0.6883359 0.57159615 0.9405989 0.8883866
아닌 0.6597617 0.6702888 0.42255232 0.7144763 -0.012883691 0.95929956 0.13489911 0.47020596 0.22705927 0.18969768 0.6175329 0.5740913 0.30723032 1.0019908 0.6205203 0.9554623
울 0.6149044 0.7806822 0.16448662 0.7465859 1.2018967 0.4851437 1.1034226 0.4052907 0.93307835 0.4525218 0.45696548 0.4252965 0.5747265 -0.14376979 0.56850547 0.43108466
자체 0.80985385 0.92024374 0.8392557 0.59719926 0.15750147 0.7199628 0.6038546 1.0673302 0.6831179 0.77999914 0.3650687 0.42605236 0.8190852 0.36915007 0.2726921 0.33733904
몰입 0.103974454 0.38981247 0.9869468 0.20351554 0.31179747 0.46896031 0.36241472 0.913012 1.068516 0.99602026 -0.057684503 -0.061118465 0.16082074 0.60203016 0.86566395 0.21628883
4 0.57664126 0.70883954 0.7883794 0.21995498 0.67579114 0.21535888 0.31575105 0.6416077 0.20456663 0.26402923 0.71604264 0.7067895 0.6159511 0.25602853 0.29471374 0.6248446
대박 0.5893744 -0.0020500685 0.83409894 0.5385568 0.25762075 0.54763067 1.0191491 0.5683993 0.80706984 0.72700477 0.3661987 0.4558095 -0.0027260939 -0.023767695 0.7097216 1.0790308
몇 0.19757475 -0.09295834 0.3529199 0.4141136 0.58716846 0.8165214 0.91174805 0.70015705 0.71061504 0.21559593 0.8581215 0.16432366 0.6577039 0.17334557 0.6828106 0.6376955
스럽 0.0936472 0.14262407 0.755075 0.10776499 0.54917365 0.23139204 0.91467005 0.33494517 0.29515597 0.7794034 0.46665955 0.9234178 0.6858141 0.39098534 0.7357569 0.8809513
실망 0.22335623 1.1834025 0.46673802 0.6692272 0.105957694 0.6384903 -0.24980287 -0.1821895 -0.069736704 0.2055984 1.161773 0.90772945 0.73009735 0.49002367 0.046096172 0.10810436
는다 0.04162681 0.62449974 0.7103757 0.051894274 0.6958649 0.7880233 0.96431285 0.4767452 0.8471156 0.8481695 0.32167426 0.50277674 0.8430923 0.22943898 0.79892755 0.64094704
대한 0.8714345 0.15898685 0.6131763 0.59248984 0.6432799 0.7546084 0.6596923 0.6847891 0.613963 0.7482704 0.8614938 0.5915817 0.46619788 -0.023102963 0.6128371 0.2933401
죠 1.147715 0.80790746 0.24520902 0.6543347 0.40263665 0.6741113 0.7448553 0.7347115 0.49832723 1.066807 0.385978 0.76057327 0.8260877 0.7206194 1.0032809 0.56052643
란 0.28800204 0.43722975 0.43618953 0.21593054 0.5980121 0.90717703 1.1085635 1.0526502 0.26553974 0.8769362 0.7308671 0.79768217 0.43144593 0.22037485 0.58205616 0.6199186
그런 0.3816253 0.1332683 0.8542912 0.63741004 0.78957874 0.33733335 0.47252163 0.44968683 0.75273776 0.7190446 0.59453607 0.42000815 0.8767962 0.4589373 0.23869869 0.012397757
솔직히 0.5693451 0.33878535 0.56528705 0.34076598 0.0009455744 0.8366369 0.66289866 0.6345169 0.32516295 0.59879106 0.113657594 0.84936744 0.5574354 0.5399072 0.7351236 0.45145935
캐릭터 0.6163469 0.34184793 1.1443378 0.15356645 0.62218523 1.0340213 0.51549286 0.08964972 0.8191134 0.55006504 0.7321235 0.2615927 0.33818245 0.41880244 0.77492964 0.88442856
ㅎ 0.047538713 0.16947018 0.2777006 0.42603108 0.7788462 0.096445754 0.42182887 0.841443 0.18439078 0.8641557 0.35475165 0.5699044 0.46238768 0.6270964 0.80040693 0.6367196
모두 0.67224073 0.3756709 0.83410436 0.6358122 0.47457954 0.2958025 0.53784424 1.21664 0.8853009 0.27292058 0.5040838 0.8599175 0.48456144 0.6468074 0.7555418 1.081543
아주 0.21293731 0.08185737 0.66249865 0.44345048 0.46481696 0.74230176 0.5502518 0.9398801 0.94416076 0.7842074 0.4044497 0.962945 0.58529 0.5262036 0.7097898 0.58392155
- 0.81660044 0.3903637 0.2674877 0.17380418 0.44491988 0.8035606 0.7232061 0.8337783 0.50144833 0.90033406 0.5032905 0.77593094 0.67298275 0.965119 0.76398116 0.080388844
가족 0.22992852 0.16369143 0.2102964 1.0678765 0.40508035 0.039257646 0.46378052 0.65682065 0.5893216 0.97833276 0.8368586 0.59856856 0.63522786 0.8628751 0.30512184 0.8761077
여운 1.2621515 0.4435475 0.7256917 1.0363218 0.64086777 0.047775805 0.57742494 0.78326625 0.45513973 0.7494852 -0.3131418 -0.25844577 0.71906257 0.014379828 0.35654405 0.7636536
건지 0.09221289 0.3120952 0.86920667 -0.048327427 0.2810844 0.20655064 0.41403875 0.057107076 0.47740364 0.045224663 0.5526075 0.507759 0.48683357 0.18809482 0.15916616 0.8985463
전혀 0.50487095 0.8302335 0.59604937 0.2208312 0.21961749 0.45954385 0.28280297 0.31785864 0.53602356 0.25086743 0.60013956 0.5087034 0.5054048 0.7264895 0.11762103 0.6708056
나라 0.92767566 0.536767 0.22185194 0.2879018 0.025035903 0.2515588 0.36712512 0.2094983 0.5786747 0.58963567 0.6186889 0.80357975 0.31864432 0.624662 0.39797541 0.79929876
연기력 0.38812917 0.67212266 0.8333572 0.47892922 0.6799583 0.082019545 0.80380154 0.24554564 0.9517123 0.671022 0.035429213 0.5849181 0.35660788 0.6866614 0.033468034 0.19186321
후 0.07575915 0.31196457 0.13715604 0.9158059 0.041956138 0.45800775 0.33811498 0.5739055 0.3095857 0.5721542 0.8666244 0.9676462 0.99263376 0.10414676 0.6855222 0.9618481
다면 0.9586972 0.2259759 0.69211864 0.4707931 0.1675748 0.96728504 0.69362783 0.27175167 0.69877833 0.9006317 0.6493748 0.06527512 0.92877567 0.92427856 0.11682692 0.9854336
될 0.962161 0.88914204 0.45044383 0.47153404 0.76138717 0.34502864 0.705586 -0.09634642 0.46528214 0.8518737 0.65839857 0.28952414 0.8029335 0.9745476 0.5500349 0.32975057
뭔가 0.1898564 0.7674988 0.42110088 0.5198107 0.7022322 0.20099206 0.1655952 0.9621203 0.3482879 0.92030126 0.21464112 0.6517729 0.3273597 0.33924767 0.061301943 0.11418596
그래도 0.17375077 0.47646573 0.6076881 1.042144 0.5839344 0.02590589 0.38082102 0.7145184 0.069287315 0.62663 0.90333104 0.4447725 0.36490527 0.2673627 0.4738534 1.1190397
; 0.53833866 0.26069522 0.57802093 0.5162132 0.5901118 0.73018146 0.3030542 0.19197439 0.05082164 0.37085435 0.67824066 0.85002095 0.11609329 0.30859855 0.7129155 0.3214892
시리즈 0.48574752 0.13307503 -0.0041459785 0.8834678 0.23368979 0.2506534 0.48283914 0.5948236 0.6168552 0.3679472 0.14728731 0.47304493 0.95750177 0.3828117 0.50147927 0.16948745
근데 1.1103308 0.62003976 0.4493539 0.44688317 0.5545745 0.7493711 0.33198944 0.7441779 0.6497868 0.6182135 0.46005696 0.032684904 0.49268132 0.4397074 0.5139554 0.80741936
작 0.50853366 0.6368837 0.111600064 0.19391927 0.8558724 0.065148465 0.13282998 0.017905448 0.50556713 0.018708209 0.34746063 0.4012773 0.05277514 0.8921334 0.2098439 0.8226866
표현 0.92480713 0.20465292 0.22376838 0.9203948 0.32126865 0.50776535 0.42533866 0.90969527 0.4227304 0.9457769 0.5793095 0.3936925 0.21062653 0.30584037 0.4771234 0.78814346
모습 0.7634859 0.15202436 0.8203227 0.12531134 1.0553883 0.8785407 0.8778123 0.41253546 1.0150175 0.5661662 0.7996118 0.62721896 0.7568194 0.031099059 0.4700408 0.70050997
제 0.3898256 0.53316355 0.2486866 0.06402564 0.9382581 0.63705575 0.40250602 1.0296274 0.036413632 0.41310754 0.19249444 0.7993446 0.07089045 0.47644055 0.23099361 0.49929908
공감 0.42876542 0.22927672 0.5545558 0.6559417 0.9896678 0.21114041 0.41958666 0.2159217 0.8245875 0.48115146 0.04916278 0.7590898 0.238679 0.3246918 0.08340419 0.26314896
밖에 0.52245146 0.6973278 0.5245653 0.75717247 0.85974556 0.922592 0.8993839 0.7810911 0.84907454 0.5245693 0.2986837 0.28100267 0.08320172 0.122148514 0.49888244 0.22598332
먹 0.64536756 0.7337827 0.3384439 0.33779576 0.61623883 0.8471464 0.22019598 -0.051080126 0.26270822 0.5223794 0.4932774 0.08845174 0.2663729 0.49034667 0.34138948 0.8607704
계속 0.33962297 0.58658487 1.0252807 0.13018239 0.8557709 0.5774609 1.0057843 0.9863834 0.35755268 0.06839389 -0.0065054256 0.6090023 0.16664167 0.005051545 0.56622535 0.27955323
이랑 0.65678674 0.23439157 0.12538068 0.24918585 -0.06673807 0.47602654 0.7978994 0.7279312 0.23576045 0.17246887 0.4203847 1.0184374 0.26726425 1.1217479 0.53880465 0.24387658
제목 0.37170938 0.545666 0.33108944 0.20920122 0.53325504 0.7336068 0.1757223 0.7791313 0.6804398 0.20905209 0.64174163 0.15638724 0.5179097 0.638276 0.3088389 0.7851908
"" 0.05482351 0.25024235 0.7735025 0.28766656 -0.10168066 0.05055113 0.6675801 0.07922593 0.90958947 0.10678049 0.38840342 0.6041115 0.6994808 0.5489739 0.39494509 0.55693233
7 1.0169144 0.35360205 -0.015446062 0.5402132 0.28030026 0.561417 0.40016857 1.0385882 0.6200308 0.67353594 0.5952738 0.19005153 0.61006004 0.072406285 0.23474617 0.1918845
극장 0.24311012 0.4220488 0.4330005 0.3530153 0.34581694 0.7073315 0.9260274 0.28228167 0.5951093 0.57178444 0.59497494 0.9927298 0.3841253 0.7188054 0.1643444 0.8633372
비 0.6701597 0.49781594 0.5592144 0.31510776 0.17719339 0.84735763 0.15695961 0.35537618 0.5961275 0.2632673 0.3493049 0.6572673 0.6787896 0.34644315 0.41836193 0.99232113
진 0.15109009 0.89062816 0.22337975 0.7721164 0.8866184 0.78725207 0.7107962 0.8648921 0.80688494 0.21912381 0.5091673 0.4379575 0.3837454 0.40728962 0.44638368 0.8448601
이걸 -0.017266313 1.0218061 0.87519825 0.2597091 0.80677867 0.7525414 0.77658767 0.32696036 0.11604775 0.5761322 0.97918975 0.22223727 0.16806485 0.5231774 0.17213656 0.5561812
바 0.6655869 0.37762606 0.75062585 0.30373803 0.5510637 1.0934291 0.2604227 0.58953094 0.123519436 0.2731454 0.39782673 0.3135052 0.54851645 1.0541145 0.1288404 0.24623877
그렇 0.7233855 0.46535397 0.95477515 0.017156273 0.022962961 0.8028712 0.8476624 0.31482783 0.8074045 -0.016941145 0.8968487 0.7757654 0.28075466 0.5390208 0.28499103 0.64712435
대사 0.12882936 0.7336414 0.10309345 0.5277205 0.5634574 0.4922776 0.79394656 1.0185739 0.26155186 -0.026479328 -0.03527624 0.39732563 0.9146427 0.6620061 0.6445652 0.5501871
개봉 0.6457163 0.17765528 0.9985014 0.7477553 0.58513707 0.7244571 -0.15767477 0.38087395 -0.11513264 0.29129767 0.24925578 0.3707344 0.33731726 0.7303026 0.8178577 0.66290224
부분 0.2767865 0.4681826 0.1526022 0.5948594 0.61678326 0.7654407 0.635744 0.37656847 0.8434873 0.12984838 0.6450228 0.8126464 0.9068329 0.7883783 0.56154156 0.7408763
0 0.08427872 0.2185043 0.6346685 0.16031504 0.09562487 0.8209569 0.49613672 0.15650995 0.83772796 0.23423065 0.8880392 0.8108089 0.5015843 0.3212118 -0.072539985 0.07241154
OO 0.17732897 0.48732993 0.70104027 0.26330838 0.39301708 0.5109214 0.6645318 0.86835384 0.511766 0.68685454 0.40252346 0.5225301 0.58002245 1.0543454 -0.06274278 0.20364171
대단 0.6937412 0.68239343 0.33120573 0.31650782 0.29092702 0.79745615 0.99515074 0.89331275 0.3562199 0.9959413 0.54915565 0.07310774 0.11883013 0.23011325 0.75915444 0.12957186
된다 0.85179675 0.58391523 1.0288144 0.07248336 0.8142373 0.13386138 0.20067698 0.46669152 0.77456284 0.8992955 0.7031474 0.6689178 0.5287233 0.26894054 1.0161073 0.19984606
작가 0.28270522 0.9981373 0.43185335 0.44160733 0.32628262 0.7633485 0.04824493 0.3759784 0.8033843 0.5747392 0.51968765 0.20578374 0.6201846 0.43409336 0.2484857 -0.0203992
어디 0.6201361 0.33734825 0.2639063 0.5963979 0.5685294 0.34952524 0.5940681 0.78686064 0.12692353 0.5548447 0.75871 0.7588809 0.9618349 0.41262966 0.5085359 0.064976305
기분 0.21444143 0.9442463 0.36768687 0.69368255 1.0046526 0.5243496 0.007361199 0.6940044 0.75368345 -0.08479245 -0.13267937 0.49476495 0.35005128 0.94432884 0.14976165 0.84946775
아쉽 0.54478884 -0.030548718 0.3061492 0.07150474 0.5174312 0.113046356 0.10787703 0.04603098 0.40576726 0.6957116 0.8975691 0.47358736 0.27611378 0.28513074 0.4970013 0.5299846
치 0.7258864 0.93869644 0.78604496 0.2522905 0.50555956 0.28534785 0.64853966 0.59947306 0.17217724 0.53342617 0.57464164 0.53442323 0.8035345 0.5563546 0.7279417 0.3075867
진심 0.70728606 0.09628788 0.43361363 0.87494975 0.752382 0.69187284 0.1797015 0.36091882 0.74509376 0.23688398 0.3281764 0.7004264 0.9523976 0.65071243 0.39287865 0.76806307
해도 0.39174333 0.58904916 0.2446375 0.29734108 0.2942838 0.53744566 0.12833185 0.60843897 0.687298 1.097295 0.27123728 0.7100109 0.49166587 0.92324114 0.3214526 0.33378
보이 0.6419759 0.20510258 0.7958684 0.23924236 0.64555407 0.60492104 0.84843385 0.1703361 0.3533621 0.87430876 0.3479665 0.800808 0.28578448 0.8596855 0.047812942 1.0161974
타임 0.8048281 0.47328734 0.58864135 0.6083492 0.5501493 0.59669 0.16731612 0.4364062 0.501641 0.8284657 0.7368731 0.17927864 0.7846039 0.32027242 0.2449163 0.03730297
놓 0.7073114 0.769472 0.4090526 -0.18604253 0.42874432 0.50367415 0.7007491 -0.0064286515 0.4852964 0.72236943 0.85433793 0.37246388 1.0860932 0.38398993 0.6019583 0.58105344
/ 0.61392456 0.6051524 0.15019698 0.6415568 0.3746597 0.7494022 0.90090877 0.3547566 0.7171908 -0.01950993 0.7055616 0.35941687 0.11653877 0.71302104 0.32906792 0.7335918
웃기 0.62530935 0.7607391 0.85436314 0.9431711 0.847279 0.3398828 0.26518762 0.52835953 0.6163427 0.3751209 0.32057515 0.039126355 0.5407732 0.77943474 0.8770116 0.31361485
봐야 0.38774282 0.15573634 0.41438496 0.49297968 0.3842633 -0.08907008 1.053569 0.66829014 0.61564904 0.72477627 0.7767022 0.41182965 0.10581148 -0.0841109 0.25136483 0.5577266
이제 0.28720757 0.29293877 0.26221555 0.5062245 0.85108095 0.29246542 0.05213522 0.52665824 -0.048070163 0.37704554 0.7321975 0.6012236 0.7071538 0.39671892 0.008229886 0.6687635
물 0.30878285 0.71707964 0.42879713 0.43200725 0.67517465 0.037968766 0.33800036 0.44182295 0.5811246 0.22810638 0.7929122 0.94472176 0.45156047 0.4212411 0.774578 0.27555886
막장 0.3989579 1.1815917 0.4508259 0.6387384 0.4355697 0.9416261 0.31761935 0.13591972 0.10152348 0.2339903 0.77463275 0.6264111 0.49523664 0.39099386 0.48609662 0.55514497
삶 0.5559262 0.6589472 0.22340022 0.7246797 0.64641255 0.017875442 0.9191252 0.26536185 0.8443142 0.47710663 -0.020659732 -0.07944336 0.4940394 0.102612086 0.3153917 0.4261645
친구 0.6900543 0.33734336 0.12061898 0.867629 0.51417077 0.7408439 0.18866819 0.25619102 0.9483487 0.23596036 0.94491553 0.75596553 0.85256904 0.12470609 0.18248865 0.8652084
잔잔 0.40659744 0.42348957 0.35443363 1.1555026 0.25936443 0.28365883 0.33716404 0.99595886 1.1368258 0.66609955 0.4435443 0.5221704 0.4736872 0.6054139 0.3825881 0.19416483
조금 0.9657768 0.08917886 0.4958907 0.6213808 0.3849664 0.6336104 0.64155287 0.25715518 0.18437874 0.2826441 0.8638863 0.5722419 0.42889 0.44532305 0.89304376 0.84494644
씬 0.9719234 0.68689305 0.46659607 0.54455674 0.59116364 0.27766043 0.24733068 0.18159436 0.53767306 0.39770323 0.5124529 0.2820062 0.044549588 0.76583856 0.6504036 0.40351322
딱 0.84870756 0.6844147 0.64377326 0.2348783 0.57202977 0.88030726 0.58153826 0.09228435 0.2186309 0.2732275 0.9765798 0.17112377 0.7332136 0.031230567 0.3096701 0.8852213
영상 0.8432808 0.14835843 0.40012488 0.37829491 0.007309764 0.63054925 0.7982713 0.76726335 0.16959795 0.77700514 0.53501064 0.95711535 0.30657998 0.82496065 0.78952926 0.57313424
찾 0.4512975 0.68622184 0.27008933 0.3242864 0.9622993 0.61795473 0.5998129 1.0011616 0.5886156 0.30378824 0.94511503 0.6334325 0.42914954 0.18793665 0.27374774 1.1587982
억지 -0.18639122 0.43939006 0.85340565 0.29452923 0.24434607 1.161911 0.47269404 0.14551681 0.46127632 0.64700073 1.1128668 1.1625549 0.46127823 0.8308814 0.124670304 0.094327144
중간 0.33329448 0.7247387 0.47196054 0.7273235 0.76668346 0.757006 0.844003 0.3077422 -0.07449951 0.7593138 1.1800455 0.31873566 0.5646512 0.7681892 -0.107625425 0.4092956
요즘 0.3786112 0.65271795 -0.09512029 0.8721874 0.9278704 -0.0647429 0.91326743 1.0327858 0.2874337 0.35169733 0.2743375 0.62963057 0.019081637 0.44149408 0.38706598 0.58817077
같이 0.6671789 0.3381477 0.6883334 0.30573365 0.09030908 0.3303521 0.36293468 0.9010903 0.78099823 0.2747069 0.3655431 0.60281134 0.7119431 0.9359629 0.8229666 0.96116936
구 0.5944809 0.71704024 0.9023456 0.60164565 0.49408856 0.69909656 0.35187736 0.112084456 0.75868696 0.1568905 0.24315718 -0.0069712764 0.19937114 0.4009025 0.85375565 0.63992906
" 0.824733 0.65346825 0.4859779 0.56307155 0.37548757 0.12912728 0.4320855 0.88948864 0.8193194 0.18246336 0.6809021 0.9261166 0.8958596 0.10707244 0.8472938 0.4242548
가지 0.8884055 0.35268614 0.3228533 0.31341577 0.12004883 0.86454636 0.45576644 0.17223512 0.31646827 0.2852858 0.58037484 0.08615543 0.6888983 0.27367473 0.63561887 0.40381014
스릴러 0.2734731 0.18628787 0.87966067 0.7257575 0.87469673 0.6172916 0.48293278 0.62724745 0.29946896 0.9010727 0.38620415 0.57979256 0.99259853 0.6545662 0.9809836 0.39658576
8 0.66407347 0.6751403 -0.015740804 0.57271105 0.15575662 0.7243101 1.0336355 0.5786168 0.13672443 1.1904088 0.124942295 0.39569739 0.24185859 0.39135638 1.0019625 0.73626995
믿 0.40756848 0.61027765 0.33760253 0.5142586 0.97438234 0.73764074 1.0625622 0.2771834 0.7125861 1.0405273 0.757791 0.5865109 0.5354169 0.16088957 0.9316514 0.39350593
싫 0.40491903 1.1297282 0.36587778 0.5176383 0.49326217 0.7864461 0.61502707 -0.115258336 0.20288317 0.73936236 0.63575625 0.18285944 1.037106 0.57377845 -0.16178744 0.25841975
.... 0.46431318 0.8679792 0.2920845 0.008976869 0.9171275 0.5996784 0.85991335 0.10574712 0.5979356 0.594116 0.31998712 0.6896954 0.4498302 0.6945031 0.5372237 0.0046544624
보고 0.61094373 0.24162138 0.14534914 0.659767 0.5730197 0.8185303 0.47540337 0.4180605 0.14714842 0.33028534 0.38309208 0.18767245 0.64646524 0.39782277 0.8400189 0.045504026
라도 0.76993686 0.19281071 0.55241215 0.04594462 0.9476899 0.17886648 0.8516025 0.11650946 -0.0026286554 0.5427671 0.54564875 0.89040464 0.96005285 0.35147673 0.34068602 0.7856503
나왔 0.012114012 0.53626084 0.12987491 0.41062528 0.3107191 0.18071787 0.3307952 0.6235512 0.65731466 -0.088840775 -0.045385133 0.19359119 0.60928816 0.97992444 0.65668947 0.32015073
아까운 0.21470365 0.38541806 0.6426782 0.20418546 0.4884413 0.99526185 0.6539309 0.5720245 0.45021555 0.36016703 -0.04060457 1.1234374 0.2662911 0.74555296 0.1504327 0.68488985
긴장감 0.62220407 0.6344109 0.64317656 0.236156 0.92819476 0.19223915 0.034985103 1.2949845 0.32029796 0.8401369 0.6149045 0.25680584 0.5571244 -0.08526371 0.49615085 0.4050864
점수 0.8037453 0.5636084 0.657561 0.47565666 0.57910806 0.15935554 0.4344275 0.64332604 0.39544407 0.046897423 0.449076 0.79418826 0.96504074 0.7268075 0.15022482 0.8506305
개인 0.28143087 0.7047234 0.6351823 0.64625347 0.31614113 0.5338229 0.8834321 1.2294233 0.9938793 0.24045458 0.15622821 0.40154102 0.756309 0.65972793 0.26119143 1.0705898
제대로 0.50356567 0.605788 0.6674637 0.38460168 0.828959 0.06343596 0.42846364 0.5516945 0.71426404 0.88438684 0.66205853 0.37585974 0.34018245 0.88113827 0.5953603 0.46242023
부족 0.6363724 0.3423348 0.60965544 0.005959984 0.4917394 0.56999177 0.40029618 0.60874635 0.449994 0.0821624 0.97212994 0.888514 0.6475616 0.79106903 0.54310876 0.36483252
이유 0.49178347 0.8837073 0.29479164 0.41062176 0.8804478 0.65190804 0.23219281 0.33381405 0.13852803 0.3104384 0.5443306 0.56675315 0.6051473 0.14624079 0.5909687 0.631831
노래 0.6762193 0.31077263 0.2945891 0.6091081 0.5102797 0.5823896 0.03793432 0.68786097 0.87277037 0.013973372 0.7242581 0.53361094 0.19671103 0.25224677 0.36325788 0.39181054
만큼 0.20087126 0.6285023 0.88237625 0.59689194 0.9315682 0.33007202 0.48810092 0.46695882 0.96369874 0.7661192 0.4923286 -0.105147384 0.33235115 0.66845727 0.4761571 0.33638513
라면 0.21832994 0.39539176 0.015547594 0.14711578 0.330825 0.4124948 1.0408919 0.5888701 0.40805295 0.46258005 0.45876092 0.5701132 0.30353227 0.83768 1.0033649 0.69879454
시작 0.78280455 0.63251853 0.94351566 0.5007783 0.65461475 0.6936651 0.534112 0.8422679 0.6184747 0.15156579 0.3531544 0.32814157 0.26635277 0.90325165 0.54053754 0.89303744
잇 0.64961106 0.21475266 0.50664276 0.31416583 0.82598495 0.025643045 0.85875833 0.056675322 0.8710758 0.34466276 0.29476807 0.64278305 0.85009205 0.93493855 0.4608594 0.95016754
구나 0.17955753 0.17068811 0.5981498 0.23237835 -0.043515 0.38553524 0.75129205 0.59531 0.833409 0.50010806 0.24813834 0.94858 0.61389154 0.6208018 0.6127126 0.4761958
특히 0.6008901 0.2495746 0.3672489 1.0029454 1.1576883 0.4569027 0.8034685 0.5384049 0.27658373 0.30817926 0.546977 0.05874678 0.3072937 0.6046882 0.6494052 0.49583712
한테 0.12553288 0.3725778 0.88411766 0.6775618 0.5086799 0.4535376 0.5269373 0.15070398 0.07032396 0.9196289 0.79680365 0.5061611 0.1631643 0.3291928 0.3626141 0.8274198
날 0.3448455 0.33610567 0.48696703 0.48281205 0.16505833 0.26651794 0.19630116 0.83095765 0.99553084 0.16997766 0.18889533 0.4177035 0.8016644 0.6135748 0.42808935 0.9748999
려고 0.09794206 0.8196161 1.0479712 0.44840726 0.495108 0.108154185 0.58178276 0.15508018 0.3271807 0.46602854 0.46307927 0.49764687 0.19469714 1.0879164 0.116334125 0.74350077
제일 0.64869565 0.26319656 1.0474765 0.744242 0.07076764 0.10998286 0.503845 0.7189986 0.37221774 0.72219384 0.24598388 0.8140487 0.26000845 0.50054187 0.39395127 0.5691398
아름다운 0.43178922 0.09349728 0.08258723 0.8714176 0.80462056 0.052503224 0.40425253 1.129216 0.9686487 0.19677798 0.21401769 0.78058964 0.08690279 0.5802317 0.83553964 0.27863583
시대 0.6037594 0.46586195 0.68209857 0.6584059 0.6278195 0.061140116 0.5466741 0.9398396 0.3749259 0.7216909 0.32395506 0.3458044 0.73544353 0.9478034 0.08121606 0.23792343
ㅜㅜ 0.6271963 0.47107893 -0.06589806 0.5437459 0.76709527 0.17662737 0.5135838 0.35919517 0.3652996 0.11295581 -0.07994205 0.24039331 0.3190912 0.8621124 0.25536194 0.20722273
어떻게 0.6516445 0.71991575 -0.12740065 0.19705196 -0.00956586 0.20400788 0.3646066 0.47494587 0.46180728 0.21643141 0.38812247 0.40024397 0.8367055 0.10870193 0.059837736 0.86439043
명 0.71496004 0.54158187 0.36477235 0.2260987 0.48706666 0.7135031 0.6503242 0.7591027 0.8293825 0.2365739 0.42144105 0.14366941 0.90962505 0.41083333 -0.049342457 0.14571162
당시 0.17055044 0.23356509 0.5893612 0.7349894 0.39821514 0.51043904 0.40425462 0.37145695 0.61886704 0.17742047 0.30819514 0.2992823 0.52579576 0.43321604 0.92828697 0.70957404
엔딩 0.64784807 0.37380722 -0.020722143 0.40372226 0.16577369 0.41315803 0.6680033 0.28241098 0.4377657 0.35462663 0.35692894 0.7031697 0.02340875 0.7080861 0.9273709 0.34189582
나름 0.9008093 0.62109905 -0.03610596 0.3108286 0.50310385 0.58117455 0.74532306 0.39682353 0.62412775 0.34762356 0.28759333 0.11927489 0.1876702 0.52915037 -0.009907132 0.582719
무섭 0.77016705 0.7355498 0.71762913 0.6361074 0.9318412 0.117337555 0.06950785 0.88508314 0.18921311 0.6642344 0.31706184 0.6730222 0.83821607 0.7528383 0.93535 0.60336524
나온 0.74483865 0.013495322 0.886568 0.17152223 0.32381594 0.8561453 0.6293372 0.23178071 0.42851448 0.5014992 0.3966965 0.6263886 0.54374737 0.3110403 0.84385115 0.6891525
사 0.5905989 0.238038 0.040412277 0.48956117 0.21999706 0.8677075 0.25414512 0.54446834 0.36598113 0.9589255 0.19490924 0.33232713 0.27791736 0.09313542 0.16992421 0.96952945
오랜만 1.1100599 0.418358 1.015451 0.7104792 0.46443874 -0.009745264 0.3465271 0.4468962 0.3850301 0.38097507 0.59302557 0.079820015 0.089308284 0.29711652 0.8514671 0.5548961
니까 0.10848025 -0.052807815 0.075531766 0.24779384 0.5431589 0.56820685 0.7039713 0.612341 0.086439535 0.15804628 0.8358883 0.26135793 0.6503163 0.0635332 0.7745232 1.1187497
해요 0.23102915 0.7911444 0.54745764 0.59213847 1.0603607 0.8888962 1.0089374 0.7298882 0.9733394 0.34049663 0.729502 0.4391359 0.28089297 0.055970497 0.7141642 0.2533651
9 0.9689639 0.3861992 0.3993914 0.289908 0.8896641 0.38471532 0.19854629 0.65200174 0.9667611 0.87451386 0.56806153 0.37839234 -0.08049061 0.40351948 0.49080208 1.1251436
이것 0.8200587 0.23871858 1.0399183 0.17443746 0.71756965 0.5721547 0.488988 0.60404503 0.37567312 0.35174525 0.09997188 0.8253715 0.8792 0.08808263 0.65592647 0.18553892
팬 0.27374846 0.34133738 0.7784404 0.8302816 0.4022571 0.6642297 0.85850847 0.5470172 0.069859155 0.7172564 0.5509164 0.7043952 0.511088 0.16467676 0.15531516 0.83590746
차라리 -0.30810726 0.7680147 0.57428503 0.2182444 0.24446282 0.7693103 -0.11040227 -0.35749826 -0.18159041 -0.35973546 0.7108264 0.46570408 0.76379794 0.42060348 -0.15473482 0.26786977
봐 0.33107162 0.19405735 0.9181283 0.30647346 0.6882353 0.8306127 0.9352303 0.80182517 0.10035174 0.6459291 0.7614123 0.5853824 0.44274178 0.22813769 0.5500664 0.6487855
절대 0.5166389 0.6092329 0.2397661 0.683054 0.51849186 0.6990183 0.46628422 0.9714094 0.83035177 0.38613608 0.33893302 0.42497566 0.86157787 0.8460049 0.35656497 0.22654134
세상 0.6111676 0.98234135 0.7371184 0.60064214 0.01008857 0.42691627 0.82397735 0.411036 0.533011 0.685054 0.13534495 0.25317347 0.43730092 0.1694656 0.75006187 0.47919402
세 0.17283304 0.8448855 0.19763538 0.41649207 0.669137 0.12578318 0.42898387 0.11638511 0.4125749 0.6212164 0.2892439 -0.017732693 0.9443989 0.3427008 0.35545415 0.67953545
못하 0.12422292 0.35387263 0.52587676 0.18884277 0.019251455 0.2945094 0.076430835 0.5607862 0.29462478 0.7736342 0.6478252 0.62950903 0.69081056 0.39186567 0.007076922 0.05045727
하지만 0.42074507 0.5150814 0.5769327 0.1940059 0.63342524 0.41110516 0.52494985 0.9462225 0.49445012 0.28979236 0.6629029 0.1566211 0.9177815 0.88254535 0.516912 0.92419165
던데 0.6613265 0.8402028 0.61360365 0.33274236 0.58087987 -0.070701174 0.560522 0.5834103 0.36930844 0.649722 -0.013988633 0.6310647 -0.18809016 0.46907526 0.52671564 0.37829012
욕 0.3824635 0.5890565 0.9337707 0.4110604 0.64684284 0.5269458 0.56202346 -0.21231209 0.3743924 0.69642735 0.74670017 0.89256716 0.9403132 0.45048285 0.09656927 -0.14992762
봄 1.0217524 0.53823334 0.014076893 0.88657933 0.24726816 0.4984637 0.4116193 0.1276859 0.5374157 0.29304495 -0.1193589 0.31609812 0.69955176 0.5636383 0.5454171 0.13304886
감 0.69799435 0.76993746 0.45171902 0.37615913 0.4903808 0.7536131 0.80493164 0.30202752 1.0222799 0.27331787 0.0011460746 0.7059299 0.60924923 0.4423474 0.6664831 0.23832618
훌륭 0.4626829 0.79018945 0.6554901 0.5777483 0.5734219 0.4218799 0.19664675 1.1161399 0.83349174 0.333109 0.3752696 0.2612117 0.3668427 -0.08156039 1.0692561 0.8207854
너무나 0.20403132 0.98251235 0.90939164 0.31064004 0.50189793 0.5088665 0.60782045 0.7368313 0.95761675 0.73972005 -0.1117032 0.13331284 1.0020208 0.29361603 0.6584833 0.29432818
강추 0.39476475 0.42411038 -0.024269354 1.0442706 0.7483649 0.121424764 0.21446672 1.0324832 0.1948331 0.486945 -0.026313163 0.44920012 0.20267382 0.5314411 0.95484173 0.66209084
해야 0.3125118 0.5021202 0.583242 0.20865634 0.5871178 0.09874627 0.44821 0.22768478 0.65960354 0.71074915 0.45035255 0.75449926 0.015748806 0.6870292 0.6004472 0.5540685
됨 0.54177773 0.8632384 0.38291448 0.42989337 0.13052428 0.121713206 0.26416776 0.68590844 0.5088091 0.77329135 0.06941055 0.7589613 0.10663385 0.028372474 0.7161309 -0.03206871
ㅡ 0.3535646 -0.041108415 0.25251105 0.091022104 0.14984508 0.85889065 0.08167784 0.43180528 0.3045379 0.43934512 -0.039511975 0.6064838 0.66464865 0.56157 0.6417651 0.95801437
따뜻 0.22074729 0.67425317 0.9328881 0.6766438 0.8553035 0.25230363 0.57813543 0.95382476 0.67272127 0.5184855 0.1389928 0.0037441642 0.40712982 0.30966523 0.7418252 0.58115405
빼 0.2737291 0.7446489 0.33383366 -0.19011089 0.6539793 1.0227212 0.6284827 1.0098171 0.46480972 0.47843158 0.89645463 0.2657361 0.48015863 0.9162409 0.5114117 0.84203666
느끼 1.0384598 0.6735475 0.24113058 0.26695824 0.29504558 0.5650659 0.7846626 0.689926 0.97044027 0.95221615 0.8177599 -0.13065046 0.28210995 0.76076627 0.28733847 0.63819027
드 0.3359371 0.5117167 0.7006118 0.54221094 0.3709704 0.9423887 1.0738008 0.6174598 0.9687404 0.010343094 0.9059508 0.312533 0.793692 0.13075686 0.9346546 0.82621086
도대체 -0.02938719 0.2692614 0.7780169 0.020241931 0.5655711 0.92366767 0.42365628 0.38457632 0.09614582 0.48624018 0.71191376 1.0404065 0.24416938 0.7961374 0.070671186 0.7822698
어야 0.24928558 0.6979881 0.14150405 0.02517432 0.6769266 0.71709394 0.7116454 0.83744496 0.6737886 0.7703558 0.52452433 0.7142453 0.8971587 0.9401548 0.35174596 0.30969745
글 0.18509448 0.66879666 0.2817976 0.5359068 0.12640943 0.7541274 0.8639572 0.34608632 0.06666005 0.8934865 0.48184034 0.8091896 0.47269925 0.25085995 -0.06395263 0.44890046
마다 0.5162266 0.67752254 0.74160826 0.69567597 0.042271286 0.0443716 0.11323838 0.70705116 0.8364471 0.88730824 0.8993319 0.34803656 0.5605787 0.11144678 0.52959555 0.65747786
답답 0.7072057 1.0719717 0.7578558 0.027934758 0.23691776 1.0518233 0.839571 0.23694876 -0.10957431 0.8017836 0.20015016 0.43384624 0.20613332 0.83716637 -0.0010043031 0.37971422
준다 0.13452987 0.1523698 0.30907205 0.16151486 0.88729936 0.39173365 1.0156406 -0.21172766 0.626927 -0.35579953 -0.2861821 0.23889832 0.7541766 0.21468458 0.08246863 0.23087205
전쟁 0.2874008 0.434046 0.4917066 0.29355556 0.45327604 0.114227846 0.40722024 0.800438 0.8519543 0.65490097 0.7941626 0.49193925 0.5247985 0.08335272 0.31390056 0.05315902
놈 0.008468524 0.3332032 0.2859578 0.029396333 0.561502 0.33508816 0.8293145 0.79591733 0.21845064 0.6967872 0.5759714 0.1628103 0.7830422 1.000097 0.4636758 1.0594018
설정 0.04987585 0.82606196 0.509731 0.7941957 0.53642195 0.77647465 0.3030985 1.042422 0.7260344 0.20371582 0.5413393 0.22808756 1.0500556 0.72937584 0.04682996 0.39763206
무엇 0.55652684 0.56301934 0.15041652 0.64674646 0.45531213 0.3831159 0.8227207 0.3027209 0.58458364 0.83838856 0.016739272 0.3788416 0.2702801 0.6655942 0.25538298 0.39596277
수작 1.1686213 -0.23923522 0.23918293 0.7198799 0.4897998 0.04237128 0.6676942 0.6630654 0.85472506 0.38993493 -0.012148297 -0.03210085 -0.07867539 0.2727439 1.0362034 0.6612021
그저 0.80862224 0.20040706 0.25807148 0.12109463 -0.098329306 0.49257794 0.38547286 0.45244122 0.48075005 0.57708436 0.12125088 0.93602407 0.20422557 1.1119106 0.10117964 0.014997967
감정 1.0309352 0.501453 0.38085967 0.6339185 0.47149217 0.37623417 0.45879146 0.7149076 0.59769696 0.5332341 -0.005871479 0.09489401 0.81212866 0.831025 0.6673306 0.49649453
흥미 0.83777994 1.0045941 1.0625697 0.4857493 0.35270697 0.12253114 0.44786832 0.5662274 0.7243581 0.92683125 0.25757563 0.21713111 0.9985221 0.35498735 0.2032564 0.778689
미국 0.7908807 0.97559094 -0.06489081 0.51201457 0.7813956 0.84147304 0.95243216 0.096481174 0.2504401 0.8331228 0.9431834 0.53367454 -0.03529482 0.5815904 0.64171886 0.24387605
만화 0.309827 0.04020731 0.2626154 0.19335487 0.4101148 0.3556522 0.61132884 0.7204677 0.37925065 0.33538857 0.2029438 0.5951108 0.65882504 0.8428186 0.06532555 0.015643692
행복 0.9489247 0.15378703 0.20269765 0.4997003 0.7560706 0.7696191 0.30432647 0.90973663 0.8971139 1.1454941 0.6928775 0.7787552 -0.03240627 0.054440454 0.75212353 0.41022548
신선 0.82943404 0.011968741 0.61455953 0.9623235 0.41422454 -0.025581375 0.5397751 0.53798705 0.6949582 0.5786968 0.0034593476 0.36233458 0.68884444 0.72958606 0.5048074 0.76485795
뻔 0.11894874 0.43477646 0.442633 0.7943704 0.12009343 0.94690126 0.6268664 0.13996254 0.012082746 0.52092713 0.5762601 0.29455692 0.39978597 0.33681768 0.41179946 0.24282314
형 0.08192073 0.622332 0.57356375 0.6440979 0.67962515 0.22128555 0.95263964 0.27865562 0.3681537 1.1288505 0.57008326 0.9152343 0.06692318 0.6006546 0.72777414 0.7398342
앞 0.8717741 0.67364097 0.29566765 0.22843544 0.7304058 0.7951932 0.83525056 1.0416156 0.66933256 0.15323304 0.25474864 0.21195216 1.015677 0.42317906 0.23879886 0.29355136
어도 0.27422893 0.28925514 0.69980985 0.796967 0.47635904 0.6739983 0.24525188 0.6628697 0.6547675 0.4011065 0.4392355 0.56184435 0.41673297 0.4814522 0.4443479 0.2539226
허접 0.19108652 1.0510176 1.1522937 0.3720365 0.4871763 0.5049845 -0.1884608 0.53739864 0.12047627 -0.210159 0.864922 0.46805865 0.6276225 0.72881263 0.6134705 0.33463365
군 0.34624565 0.5067396 0.37956962 0.4219678 0.12553018 0.032358937 0.177522 -0.0087573705 0.82699883 0.33956134 0.8888426 0.27572468 0.44949487 0.4178458 0.423912 0.30257136
시절 0.72537035 -0.123481035 0.30675346 0.22675711 0.8029115 0.71490633 0.5273278 0.9563274 0.6199861 0.21515259 0.17582127 0.62825847 0.37005642 0.6139386 0.47983238 0.36763585
관객 -0.06542057 1.1122304 0.30541858 0.44658694 0.51738137 0.32944813 0.4697412 0.53657836 0.6007255 0.25861493 0.8202249 0.7243222 0.58911675 1.0471338 0.51268655 0.4905457
배경 0.67445606 0.30125308 0.3672991 -0.0371032 0.43586123 1.0316284 0.42293048 0.5365841 0.8022691 0.1698418 0.4756645 0.08502334 0.42427886 0.1563082 0.49457014 0.6520259
6 0.578254 0.5304343 0.15270273 0.2583389 0.8414787 0.16749918 0.4667981 0.81658787 1.0550693 0.12184574 1.1006633 0.6597976 0.5267726 0.5812041 0.65604746 1.101996
의미 -0.00916346 0.33316356 0.4280277 0.6283796 0.6901823 0.8479702 0.728739 0.7769673 0.7925555 0.06328087 0.4490763 0.4921664 0.55907774 0.647649 0.7903914 0.9024986
초반 0.44356212 0.41196555 0.66097695 0.6587468 0.39224142 1.1502975 0.082300924 -0.27561408 0.7866321 0.09805658 0.89528215 0.2980804 0.08737801 0.54987913 0.7253597 0.18139927
사실 0.26261285 0.07476988 0.006846945 0.3131779 0.7749138 0.256227 0.6807267 1.0848632 1.1339052 0.4899612 0.4754234 0.7404529 0.4750828 0.70839953 0.43499961 1.159149
답 0.2758272 0.6401604 0.73917437 0.2888634 0.25563952 -0.115969166 0.59029573 0.8742037 0.22312845 0.38505304 0.5814169 0.31563434 0.45077506 0.7194977 0.9453566 0.7792436
웃음 0.14730085 0.73175573 0.20495366 0.37303427 0.39660424 0.084026806 0.4869129 0.40649956 0.83652765 0.8248608 0.46024442 0.58454907 0.57977575 0.80547816 1.0229354 0.82727367
엄청 0.32914075 0.6840836 0.40492415 0.5295891 0.86871135 0.6103936 0.74444234 1.0459626 0.89514613 0.46142593 0.05180632 0.7816085 0.4826212 0.54720676 0.38445297 0.12098884
라니 0.5502654 0.25862053 0.09907541 0.14535953 0.48042074 0.47953096 0.44313154 0.65010166 0.25903383 0.36649126 0.35739565 0.35504076 0.8935742 0.08821373 0.6017052 0.021774214
더라 0.8494212 1.0083743 0.6989782 0.19074659 0.045129113 0.5298266 0.82053214 0.5500772 0.6891358 0.2548247 0.40426245 0.33877474 0.48388562 0.08464693 0.89647657 0.7011621
자신 0.8482645 0.35943547 -0.024956312 0.9651401 0.77340734 0.907352 0.4484253 0.06973452 0.15201175 0.19553314 0.21865413 0.9031227 0.42033938 0.47485048 0.5934389 0.6057612
질 0.5081343 1.0758896 0.29618916 0.4720907 0.42636958 0.8222351 0.28918874 0.31541133 0.2463 0.47791827 0.86416286 0.46409625 0.43276072 0.26397708 0.26805675 0.46567497
추억 0.8876128 0.85647136 0.3827488 0.63684565 0.97123045 0.86550343 0.75939006 0.92023945 0.773917 0.28772292 0.2652133 0.37678012 0.3133754 0.5816851 0.5443337 0.46731588
캐스팅 0.56027955 0.59559757 0.7491316 0.34561604 0.20591581 0.6533803 0.8103326 0.71263874 0.19116522 0.30396876 0.8582557 0.43667158 1.033377 0.085537694 0.2401856 0.4288577
머 -0.040197436 0.7899605 0.33509046 -0.06505073 0.8564848 0.49872512 0.83201456 0.22753215 0.8990543 0.5174171 0.9498291 0.73654306 0.12863335 0.97494525 0.4772805 0.47997203
첨 0.26280606 0.19892758 0.06585031 0.61614776 -0.0062787975 0.72568685 0.3116567 0.16469984 0.5641958 0.13374317 0.70637375 0.39133546 0.1146329 0.67363256 0.5682341 0.108507186
멋있 1.2004973 0.7284717 0.45433947 0.30642435 0.84338224 0.6019279 0.3921435 0.8614449 0.45535436 1.0721623 0.394641 -0.24219044 0.72090614 0.1920208 0.78924483 0.496182
류 0.012197037 0.7384748 0.7713731 0.06336376 0.18902428 0.64643264 0.9313768 0.6772303 0.47629145 0.486581 0.4748398 0.6558969 0.7119625 0.47490838 0.98646903 0.35766363
시나리오 0.31838578 1.0175353 0.38931453 0.22893503 0.93828976 0.25159395 0.123592615 0.30812392 0.8198884 0.62140274 0.055259317 0.7979718 1.0452013 1.0047699 0.8082493 0.30830768
어색 0.45731437 0.5844382 0.82996166 0.32591653 0.33776176 1.0792161 0.1697478 -0.27514303 0.32444227 0.63874084 0.62199545 0.37582222 0.5896327 0.60508585 0.33413202 0.08079221
슬프 1.0282489 -0.07755086 0.53610283 1.0207604 0.56199956 0.20480306 0.9412171 0.27681002 0.98685026 0.17923602 0.06829465 0.16811678 0.73867714 0.72615856 0.9922747 0.37057847
OOO 0.009678682 0.6766699 0.949844 0.41614056 0.6529251 0.38160717 0.68138254 0.6520354 0.5675441 0.41205704 0.7803696 0.82276267 0.95382416 0.9242624 0.8075441 0.05249119
정신 0.8052909 0.7181917 0.27112114 -0.08798067 0.70166904 0.66224676 0.51893806 1.0144722 0.22119467 0.6877971 -0.060258787 0.5537633 0.707772 0.81344795 0.060093783 -0.029337404
분위기 0.5855781 0.6236077 0.46385372 0.093458295 0.23223865 0.93017155 0.45767745 0.4987688 0.5029496 0.14891379 0.1311713 0.21970786 0.11329388 0.115552604 0.8792731 0.6484827
소름 0.95371366 0.15391687 -0.03148352 0.6281025 0.42837983 0.48449296 1.1718303 0.8378216 0.8114385 0.8298688 0.6701487 0.4587611 0.11143091 0.010203572 0.23465033 0.2544623
멋진 1.1216533 0.15922281 0.8658436 0.37871 0.7344758 0.4236166 0.49898383 0.96238756 0.62557393 0.7519359 0.5240339 0.54112154 0.019050946 0.5829613 0.9132636 0.6847993
힘들 0.63362545 0.4288256 0.8754953 0.48087674 0.57375044 0.4089185 0.51404005 0.34459132 0.53355825 -0.13304062 0.419482 0.71006846 0.37541363 1.0827478 0.11252167 0.33644956
오늘 0.62394077 0.40327486 0.24794988 0.5218277 0.13686706 0.23494877 0.43912318 0.5628265 0.08804116 0.5789889 0.9593302 0.20454295 0.15540038 0.54241556 0.3448824 0.680618
어이없 0.05694597 1.039968 0.516512 0.57238555 -0.15316027 1.0296925 0.24600132 0.43001154 0.49708632 0.5872574 0.30968666 0.62132627 0.428638 0.8684461 0.23505743 0.353794
봐서 0.11789561 0.35214746 0.7333144 0.14906119 0.15425166 0.51915103 0.6475355 0.528314 0.5044675 0.4396532 0.63669986 0.0047998703 0.12094711 0.42715344 0.46068478 1.0105518
구성 0.41812143 0.8289519 0.24744835 0.42324936 0.6256133 0.72983587 0.9319541 0.85082674 0.47943947 0.16740222 -0.009813553 0.114856765 0.6124166 0.50281334 0.78607017 0.4188262
잡 0.42884305 0.29806095 0.09602337 0.027830238 0.7987329 0.014927851 0.13526289 0.052790016 0.5572392 0.7112845 0.4092603 0.26714095 0.9202975 0.9395167 0.6725469 0.2919892
엄마 0.78441674 -0.057679564 0.2931772 0.081611164 -0.0023133152 0.35237744 0.67064047 0.07558055 0.67068475 0.6290313 0.48072106 0.373782 0.6182027 0.52131534 0.8761642 0.8840087
함께 0.37448466 0.5805173 0.03933092 0.23381084 0.60407746 0.5325937 0.7292804 1.2106435 1.1469729 0.6762989 0.57066417 0.35887486 -0.1495779 0.33275157 0.22753316 0.75788003
문제 0.10067295 0.7483119 0.46155372 0.096006036 0.028577035 0.87200147 0.42315036 0.4891337 0.22008297 0.92627895 0.5417903 0.78255266 0.26658472 0.26164845 0.9141918 0.20937294
위해 0.1131346 0.54212064 0.7366958 0.5532061 0.5532425 0.23114112 0.46091154 0.5380939 0.6560017 0.5307419 0.7299585 1.0923456 0.4686719 0.73027617 0.78737 0.6234786
졸작 0.15300488 1.2095026 0.45469597 0.23917612 0.64862955 1.0695909 -0.08881396 -0.28496084 0.03281954 0.52460545 0.8371543 0.5097343 1.3060299 1.2933409 0.4870159 0.29337773
잊 1.110591 -0.16287848 -0.23897876 0.9527618 0.61081636 -0.06775269 1.1581726 0.35629994 0.8007124 0.45559126 0.36245516 0.37193516 0.41490015 0.36807922 0.6977292 0.1889937
등 0.16104855 0.43143496 0.00047245866 0.9348319 0.52562016 0.75661397 0.40772507 0.47997612 0.6153541 0.7318886 0.60832494 0.60638237 0.27622497 0.5380517 0.7890817 1.0860288
집 -0.04591277 0.76016414 0.78314114 0.436736 0.6923578 0.6131511 0.5538182 0.6510886 0.54534596 0.8472585 0.67351437 0.12629561 0.18581243 0.61918765 0.57204 -0.0018829495
유쾌 0.5122183 0.117704205 0.34433013 0.92156786 0.84738076 0.051191684 0.22629899 0.60598016 0.31814855 1.2574524 0.49042615 0.20845553 0.7677526 -0.08850214 0.8327756 0.33146682
스러운 0.51090264 0.25457892 0.48133162 0.47768277 0.27577138 0.089556225 0.5670705 0.59643465 0.39777577 0.82202446 -0.016241256 0.81257963 0.13634197 0.26751742 0.23543037 0.49686816
뻔한 0.38711235 0.14337945 0.59987116 0.22209296 0.6405163 0.26918852 0.13338283 0.31909227 0.21427016 0.16148728 0.6370301 0.4501544 0.82767653 0.90937406 0.24748406 0.06482652
나요 0.66155386 -0.12204602 0.6606942 0.33099657 1.0004586 0.5016084 0.37689474 0.32394922 0.054398976 0.5244541 0.37404916 0.3841627 0.6847403 0.5760993 0.6358567 0.7182298
킬링 0.22621953 0.35599908 0.3084021 0.66887665 0.4443081 0.38837895 0.18886732 0.7818431 0.6416909 0.75143695 0.5403424 0.6626391 0.95950913 0.36201203 0.7234282 0.4014684
결국 0.47438407 0.9678949 0.08056088 0.75854814 0.2791015 0.26902053 0.07703637 0.27771753 0.9514705 0.36982074 0.6101149 0.53829855 0.7421077 0.4673604 0.40273678 0.9253104
낫 0.3517889 0.6120498 0.12619236 0.5233692 0.29833066 0.02324251 0.54226047 0.75864595 0.60388505 0.84271896 0.84579057 0.6468196 0.41114473 0.92981946 0.42966604 0.59434885
뭘 0.063709445 0.46005592 0.27841333 0.011512187 0.21018244 0.8029237 0.2849329 0.56445307 -0.018898267 0.7536643 0.70970684 0.03753451 0.81459415 0.6669561 0.7701236 0.34170774
간 0.31436446 -0.11192652 0.6069635 0.19566534 0.6734417 0.5342776 0.90215343 0.82165426 0.21859482 0.15651134 0.4960831 0.7582336 0.31562352 0.7963818 0.7316359 0.22371782
소리 0.8777953 0.78758675 0.77952594 0.10937507 0.5365514 0.44891843 0.17458136 0.8204173 0.75963974 0.37219644 1.070833 0.294754 0.66948515 0.68900454 0.6559085 0.18824527
미 0.3203507 0.5047816 0.72323185 0.57119197 0.54188865 0.8740949 0.8308223 0.6096039 0.88639706 0.555482 0.21808954 0.8951659 0.8263201 0.75690705 0.37081912 0.7229885
한데 0.8770716 0.41187456 0.3925666 0.031260747 0.09027128 0.57370573 0.11046727 1.0203662 0.30213004 0.24181662 0.3846607 0.23994878 0.26028398 0.29330608 0.7045501 0.30941465
20 0.24314737 0.5406563 0.46341527 0.38056466 0.5931534 0.66103023 0.330099 0.51247716 0.018952243 0.106727816 0.62023395 0.49058846 0.054702938 0.026177485 0.9669813 1.0706427
역사 0.8208194 0.5949901 0.607094 0.5722532 0.35421917 0.46392715 0.8256376 0.523809 0.8125256 0.46015686 0.62381107 0.5547557 0.43777913 0.6888154 0.17818767 0.8663024
뭔 0.53148466 0.50298226 0.19691643 0.13744666 -0.108883165 0.56346935 0.54019856 0.16107887 0.5233798 0.21595316 0.17409849 0.75827026 1.0614152 0.5664385 0.18447495 0.4256956
제발 -0.053710125 0.64672786 0.66342163 0.3629699 0.884731 0.95414495 0.88924325 0.43875065 0.9310985 0.33676454 0.76391214 0.53223276 0.71811634 0.2700962 0.24215996 0.22615372
포스터 0.4672867 0.36313218 0.2888324 0.3783676 0.33855325 0.71437854 0.6098378 0.13120434 -0.036476117 0.6050214 1.1257422 0.93239295 0.15235372 0.4679046 0.44191533 0.7665961
아무리 0.47490317 0.2618347 0.17332068 0.119369656 0.35488516 0.63815445 0.77306336 0.07821957 -0.03132337 0.025515791 0.08456177 0.46417016 0.37960774 1.0279713 -0.041225933 0.12935399
코믹 0.36730406 0.79967695 0.20371248 0.6628396 0.26401496 0.45797503 0.7390103 0.9681143 0.5218099 0.84262705 0.266298 0.58931553 0.6496026 0.68125325 0.25823882 0.42385912
어떤 0.3597757 0.8111918 0.04162228 0.4290026 0.19016622 0.35534737 0.75931174 0.84108394 0.41329962 0.2853293 0.60731316 0.49514058 0.508406 0.09788496 0.84991 0.87347037
완벽 0.9331826 0.057872638 0.609292 0.47233826 0.94414496 0.6853535 0.6466066 1.2654655 0.9959857 0.4367809 -0.046685364 -0.09414498 0.4321438 0.70719606 0.87196285 0.7361872
~~~ 0.372468 0.42127252 0.41217133 0.16933562 0.6345633 0.25805625 0.6125617 0.5660854 0.65364546 0.27458858 -0.0693863 0.48063296 0.5037097 0.40255114 0.21515344 0.55986434
얼마나 0.740366 0.7788273 0.6068211 0.6140737 0.37115845 0.5514583 0.8871617 0.7094104 0.38137913 0.39566174 0.58016443 0.42120886 1.0279756 0.25726885 0.80345803 0.6018549
애니메이션 0.3871493 0.94724804 0.09922886 0.61419815 0.35638916 0.074847475 0.0873677 0.596756 0.24209209 0.6430272 -0.021558935 0.01683491 0.28489307 0.5526575 0.30868262 0.75464374
러 0.17333518 0.41633868 0.8410964 0.6293097 0.3745933 0.17525953 0.56482923 0.6194145 0.027747123 0.15725131 0.44719774 0.5387163 0.9059622 0.1566348 0.9179749 -0.046000108
맘 0.69082856 0.76843923 0.4559962 0.17330773 1.0030671 -0.042188406 0.9293408 0.9439741 0.65112174 0.7518276 -0.07792046 0.6592195 0.6542638 0.39462566 0.11184771 0.6327912
!!! 0.18768716 0.25041384 0.68401843 0.9098191 1.0570432 0.5071164 0.9076391 1.014389 0.2085246 0.24703693 0.45477045 0.24528341 0.711802 0.76780266 0.820723 0.19095556
난다 -0.10373813 0.1868367 0.3569053 0.060643926 0.9489308 0.9740579 0.9132504 0.6415374 0.42644793 0.27825966 0.59322375 1.0990489 0.3436025 0.35727987 -0.008277942 0.39926526
주연 0.12623142 0.9624828 0.72779685 0.44842702 0.7920076 0.4561205 0.42336914 0.57552105 0.24288797 0.65550846 0.64181435 0.10560292 0.60664946 0.5658021 0.6185325 0.53102034
원 0.4139539 0.6997313 0.13681057 0.6729634 0.44416535 0.7476759 0.2517179 0.8442442 0.25697312 0.8832395 1.214034 0.84894425 0.52066255 0.8139098 0.7922053 0.24444345
이딴 0.05839293 1.3704857 0.4622577 -0.16277573 0.061461464 0.33797497 0.0355723 0.4557868 0.5046457 0.45085043 0.82262117 1.1681192 1.2048246 0.3799774 -0.13271783 0.65002286
버리 0.58198535 0.7450093 0.5872189 0.6791468 0.1465141 0.14543542 0.6487073 0.46000817 -0.042184517 0.77142173 1.0647604 0.37386695 1.1191797 0.22108765 0.41270536 0.26341185
♥ 1.0681437 -0.055101726 0.4773405 0.5395983 0.7343993 0.06945003 1.3553194 0.92544967 0.5417329 1.2088414 0.42357308 -0.022008663 0.3290262 0.06879055 0.586523 0.97383225
어릴 0.74923134 0.64660287 0.6160204 0.9586677 0.8407358 0.6980885 1.0986509 0.8379899 0.28048462 0.6070973 0.24889766 0.23561406 0.30948845 0.8221652 0.42366552 0.73794043
후회 0.61394346 0.7669886 0.0015979953 0.77055216 0.2756341 0.92248183 0.6345058 0.39000213 0.56943744 -0.01678429 0.86314267 0.7618697 0.31144416 0.46748716 0.7074128 -0.016233064
진부 0.24199767 0.4884532 0.8544459 0.6070315 0.5643077 0.38694406 0.18462342 0.31662983 0.1970218 -0.14960186 0.5244676 0.86534184 1.0722553 0.72721493 0.5750002 0.46444765
나올 0.31078973 0.7913566 0.35155353 0.30131844 0.73194414 0.3912026 0.5481488 0.40270206 1.124787 0.14501253 0.083776504 0.28246942 0.7945143 0.83277375 0.18791924 0.35616374
됐 0.21250117 0.19947007 0.49042466 0.09156727 0.6211066 0.14374301 0.7931372 0.63345313 0.97389096 0.3775886 0.39267066 0.15720986 0.52325016 0.47559395 0.2498191 0.27332595
보단 0.87691796 0.8796988 0.7635678 0.26862004 0.63670546 0.5061571 0.37540904 0.106770776 0.81202716 0.3375277 0.9975585 -0.034917053 0.8331031 0.9930476 -0.012110417 0.80633336
장난 0.45564395 0.31784108 0.8069186 0.6436623 0.11927794 0.6540057 0.4625871 0.47211584 0.82924473 0.5115988 0.42214304 0.5565271 0.37569833 0.97880346 0.471849 0.5738439
책 0.4291824 0.079852395 0.39376414 0.8494064 0.3767722 0.18431854 0.28636009 0.074438564 0.33783728 0.21706656 0.31304765 0.93376046 0.29786968 0.53444284 0.6431025 0.08157249
더니 0.47960863 0.118252814 0.55688244 -0.034778688 0.08736774 0.2207729 0.15124677 0.28093112 0.6920056 0.54558367 0.68808115 0.64794433 0.9442119 0.8623292 0.64995 0.5056534
큰 0.41994622 0.34849158 0.4325938 0.62839663 0.9309958 0.7925403 0.42146003 0.2686906 0.30324164 0.72279197 0.8156545 0.31039304 0.641588 0.3071895 0.6894827 0.8706954
영화관 0.016829059 0.82328343 1.0197783 0.24726835 0.76518846 0.1580773 0.6144607 0.5076482 -0.037202127 0.80055296 0.78559875 0.6004121 0.19101976 0.23995428 0.5743174 -0.14862303
둘 0.7410319 0.17354839 -0.01266531 0.0770445 0.7683411 0.87863934 0.07818497 0.8205046 0.91709584 0.5228022 0.38475224 0.2221849 0.23049355 0.93934846 0.8241901 0.42131785
출연 -0.07735396 0.6136014 0.37065673 0.36288506 0.0076335464 0.19675344 0.79934824 0.12983741 0.13300951 0.6865968 0.62951183 0.19556396 0.4281433 0.3415902 0.25374258 0.16841401
극 0.05270162 0.36789474 0.5463843 0.4742419 0.7776091 0.45563546 0.67280346 0.105900794 0.90219545 0.7458914 0.8878602 0.95894367 0.73289984 0.123660855 0.91965944 0.6519762
ㅅ 0.44645467 0.13959563 0.19532284 0.3218658 0.52956235 0.03642142 0.62892056 0.6609309 -0.05933281 0.0051987777 1.1542324 1.0374067 1.0635519 0.1632321 0.43664256 0.7633898
개연 0.65678775 0.2568343 0.26837042 0.7365786 0.364651 0.8343312 -0.14050545 0.4368164 0.3545388 -0.06312376 0.27543887 1.0750511 0.8941668 0.6198317 0.11461874 0.526154
충격 0.6260924 0.19116406 0.760192 0.9204215 0.23302874 0.31689367 0.8530968 0.8696006 0.9020355 0.3594497 0.40613645 0.1228941 0.62288195 0.8720286 0.12764744 0.008966264
여기 0.29589403 0.48001045 0.6366407 1.1775149 0.31447586 0.6980971 0.3106135 0.42874157 0.57054746 0.25262487 0.5239314 0.24705084 0.14792092 0.58644694 0.57382447 0.92624027
평가 0.5920681 -0.06694814 0.38846448 0.93659323 0.6395921 0.15202129 0.96365684 0.29580724 0.64914465 0.2556225 0.71282023 0.47023308 0.041074954 0.4330243 0.20185104 0.29146862
엇 0.22921549 0.80996925 0.13664801 0.62793237 0.7234201 0.40372398 0.70112693 0.57155037 0.33470064 0.45947945 0.77963334 0.28656045 0.38854113 -0.06282818 0.32328698 0.4542242
꺼 0.84048367 0.8387842 0.82757974 0.6387767 0.015642727 0.53048766 0.9318969 0.45053583 0.13705377 1.0846221 0.2454042 0.7423376 0.5027516 0.764642 0.40797085 0.5818083
잔인 0.49007633 0.13125914 0.5931893 0.25361457 0.53099847 0.12540697 0.44627425 0.27249202 0.4862985 0.35954985 0.18734385 0.21835041 0.5725723 0.7784096 0.3781593 0.48643523
아름답 0.41117737 0.48986533 0.5805386 1.1105926 0.8201915 0.4778575 0.9935986 0.88922554 0.2890905 0.7261096 0.27647114 0.6667591 0.6338209 0.34094694 0.903583 0.41710314
얘기 0.23841418 0.3190725 0.90163094 0.23857409 0.87701666 0.31507862 0.40560344 0.15660322 0.29135326 0.728202 0.5145503 0.39969376 0.53853536 0.07212422 0.07705872 0.3446041
줬 0.79741347 0.54949653 0.16234164 0.12947692 0.47434247 0.33437753 0.5577709 0.7820761 0.82496154 0.22391863 0.80879974 0.8766446 0.72542214 0.5581782 0.68568283 0.14161654
자기 0.21717438 0.9902553 0.7227051 0.70328826 -0.045268264 0.7632099 0.8030124 0.84924227 0.10922525 0.25537926 0.49080428 0.03646914 0.6167165 0.18423694 0.8893307 0.092500135
예술 0.65551865 0.0668129 1.0574389 0.65619993 0.06971037 0.4809302 0.30850556 0.118223645 0.28569287 0.8050428 0.1358357 0.09039073 0.18671264 0.9079656 0.92868286 0.119073585
갈수록 0.71570724 0.3065819 1.1377833 0.2790667 0.012749415 0.86068976 0.6261325 0.64784527 0.86762327 1.0151759 0.40644914 0.7618041 0.89747465 0.57556695 0.50026363 0.7180286
매우 0.013003802 0.42363563 0.35547745 0.06904821 1.0260804 0.27194524 0.33386135 0.3069983 0.92179877 0.77405274 -0.032449942 0.63158876 0.60106313 -0.034992162 0.047665685 0.7916291
반 0.9265697 0.36414787 0.49843737 0.8979921 0.90133786 0.3601728 0.5970328 0.26059824 0.7449719 0.087736845 0.73114455 0.38993332 0.8762891 0.72417146 0.23909828 0.7962864
위한 0.27975297 0.53130287 0.8603408 0.18333928 0.7065789 0.59108406 0.33089697 0.16386493 0.83383536 0.8948938 0.70381516 0.28827944 0.57630235 0.1590106 0.4384048 0.40630054
든 0.37355706 0.5490819 0.29156116 0.4355644 0.7894284 0.14109279 0.30631614 0.1259748 0.52532226 0.75551635 0.51659495 0.4239386 0.2965809 0.5532625 0.021366188 0.256081
이리 0.39119783 0.556799 1.2798997 0.121909395 0.559341 0.7806615 0.6746525 0.6515491 1.0277649 0.6427877 0.24541317 0.5459326 0.48839834 -0.13569957 0.34021688 1.0147256
봐라 0.8175651 0.8086564 -0.066461325 0.17764413 0.80700266 0.2559478 0.4435195 0.88523823 0.39532667 0.38962337 0.9387259 0.12399215 0.39779025 0.34970742 0.20262875 0.51787484
이후 0.11070269 0.5873226 0.053624332 0.77001196 0.7221279 0.72873574 0.7336491 0.6306075 0.35188517 0.1251332 0.16988148 0.5926302 0.23070627 0.49193466 0.6737023 0.2401536
읽 0.4180069 0.8363347 0.32747975 0.05688988 0.47307256 0.30633938 0.49861997 0.39886793 0.3793322 0.9341365 0.27683836 0.032789297 0.75604206 0.8716264 0.40993232 0.45134857
얼굴 0.07138999 1.0469309 1.0496446 0.68230695 0.26923767 0.33679727 0.72508 0.48347104 0.76476187 0.82620597 0.56370246 1.0896199 0.1570585 0.49282596 0.69015706 0.13166462
꽤 0.8763595 0.7478258 0.084778234 0.30831227 0.73123896 0.73342913 0.65612715 0.4571108 0.9535132 0.67783576 0.82054967 0.1783776 0.76769507 -0.007577431 0.5100225 1.0388392
불 0.23072818 0.49659187 0.62898654 0.39372724 0.2128973 0.69331366 0.1377315 0.26859412 0.5920006 0.033743333 0.35104528 0.27390128 0.3303843 0.06782725 0.65865296 0.12595671
으나 0.4957423 0.7792497 0.84685796 0.07655701 0.23889332 0.06888384 0.5023451 0.2425688 0.5004646 0.5504702 0.77825373 0.71572596 1.1608961 0.31712407 0.20845188 0.75367606
깊 0.8902786 0.6397126 0.38525274 0.48885393 0.3903763 0.7474694 1.0223974 0.40456215 1.0994723 0.39344218 0.31856138 0.4624432 -0.129037 -0.13215981 1.1464119 0.68575877
